svm_type c_svc
kernel_type linear
nr_class 3
total_sv 3705
rho -0.9899746956827673 3.9267616749134926 1.0185140412371112
label 0 1 2
nr_sv 1722 454 1529
SV
0.0 0.5 0:0.05601141309700011 1:0.2699117859593793 2:0.19724116868573777 3:0.7186113837931847 4:0.04338653883556597 5:0.3745802170566882 6:0.0704028736206954 7:0.2842382170334451 8:0.7093108504398823 9:0.607827656214753 10:0.4588792762732048 11:0.1694278453666069 12:0.7582490268088018 13:0.15155138565543214 14:0.7263282172373076 15:0.4178283919104649 16:0.36543376239528397 17:0.8126511341246118 18:0.10228317285819069 19:0.3981109906749296 
0.0 0.5 0:0.05554156541533797 1:0.2641889430871083 2:0.19196928491441348 3:0.7275107465348865 4:0.04333912258828206 5:0.3770478429511175 6:0.06756945535823405 7:0.2859386082481291 8:0.7332290162092742 9:0.6280751506557944 10:0.4839820062808256 11:0.1660286751611297 12:0.7438044341540225 13:0.14773218241426328 14:0.7309008451865578 15:0.403167746580272 16:0.35102127639157 17:0.8284682819513767 18:0.10929167908609648 19:0.4003822699554009 
0.0 0.5 0:0.056803397149032535 1:0.2666844538536618 2:0.18623107259360272 3:0.7196531152177992 4:0.04469976272773053 5:0.3676064917028644 6:0.06994866153282 7:0.30425769712395306 8:0.7195020688981458 9:0.6051353975617657 10:0.4749777661693977 11:0.1599260846383878 12:0.7161713003796677 13:0.14209840749172273 14:0.7726708074534164 15:0.41017935956427815 16:0.35855047476541724 17:0.8190433813218874 18:0.10509397970375899 19:0.421383374027012 
0.5 0.0 0:0.05081757650740561 1:0.2559116132580111 2:0.18773466833541896 3:0.7115643770972636 4:0.0416618890569098 5:0.4057884268980093 6:0.06152347260869868 7:0.311765602982625 8:0.6898949276388433 9:0.6349438038242577 10:0.4772141133866138 11:0.18491021970521732 12:0.7209574313928714 13:0.13213056123630748 14:0.7462863933452153 15:0.4197687714394601 16:0.355755875866093 17:0.8939027700678921 18:0.10433293938553853 19:0.43728684702241577 
0.5 0.5 0:0.05882808971168171 1:0.26048592711093327 2:0.18663680477790204 3:0.7121156096210335 4:0.04324639748248265 5:0.3686030787790681 6:0.06750600986024517 7:0.29263277997751885 8:0.7121810303322078 9:0.6266335814722904 10:0.5223333993480255 11:0.16457138988329453 12:0.684956093708633 13:0.13963363096311074 14:0.7288888888888875 15:0.4381089512838961 16:0.36874493866690566 17:0.8744849459020345 18:0.10271110657179475 19:0.39186917872637245 
0.0 0.5 0:0.05569671211697511 1:0.2687048162287857 2:0.19255455712451888 3:0.7451425046122597 4:0.0424231794700194 5:0.39161285432799864 6:0.06921749085477655 7:0.28483411793409846 8:0.71526122338739 9:0.6300792834231075 10:0.47893084719392737 11:0.1653832792421915 12:0.730886505763573 13:0.14412733939027494 14:0.723049308415162 15:0.4130011062529628 16:0.3570296335961208 17:0.8252681712755112 18:0.1067787134383885 19:0.3959135741352863 
0.5 0.0 0:0.054398570574371724 1:0.27344648302754604 2:0.1866368047779021 3:0.7908901824709939 4:0.04407802577512143 5:0.3702618717414354 6:0.06203780100232234 7:0.2864308267576433 8:0.7025340368052196 9:0.648076923076923 10:0.4839820062808262 11:0.16228958793510537 12:0.8011815660882787 13:0.1396336309631108 14:0.744733044733044 15:0.4107271418286529 16:0.3543749510193576 17:0.8997750959245038 18:0.10010529592288336 19:0.38927823791753835 
0.5 0.0 0:0.048865500388529125 1:0.2433682117493702 2:0.17959390648439671 3:0.7525167933678897 4:0.043417851451696854 5:0.3719263552456976 6:0.07315385626612984 7:0.28909623642237037 8:0.7749278561544073 9:0.6075939884826075 10:0.4983095078417811 11:0.16331525917707748 12:0.7218195824404638 13:0.13187888594148847 14:0.7737972719104799 15:0.41305676677941233 16:0.3714079365646028 17:0.8602199953431858 18:0.11069189731149216 19:0.4208094987043006 
0.5 0.5 0:0.0683132903774399 1:0.7708078163275517 2:0.17613848450914515 3:0.6415406205621484 4:0.0386014492138418 5:0.3204980828704277 6:0.06328688424397982 7:0.2519755310916674 8:0.6411440779971093 9:0.5459057071960286 10:0.42070220771994615 11:0.14819610531393584 12:0.6643591745527467 13:0.12103227059874451 14:0.62150072150072 15:0.3653707703383717 16:0.31169181939297586 17:0.7550222635590571 18:0.09254003920023716 19:0.36255916082643064 
0.0 0.5 0:0.056946905887143025 1:0.26530845954502247 2:0.18359853121175068 3:0.7057956646392114 4:0.04489172901097055 5:0.38336037430896325 6:0.06692762299485767 7:0.27929938184073266 8:0.7160969346814313 9:0.6346124992786665 10:0.4920090420390782 11:0.16776778549881605 12:0.74626785305639 13:0.1472142517982016 14:0.708909694956207 15:0.42473253302526487 16:0.36673320657164776 17:0.7925163813249283 18:0.1053540593079753 19:0.4127774685092956 
0.0 0.5 0:0.05500531707741259 1:0.2833929561728539 2:0.18880700018229682 3:0.7106990702285579 4:0.04285393308119211 5:0.3631602739638608 6:0.06599807267548466 7:0.28506864064991927 8:0.7454662173005936 9:0.6388366322349824 10:0.4823765991291769 11:0.1632728541644896 12:0.7659752042753111 13:0.1412815920142177 14:0.7138226114970307 15:0.42473253302526487 16:0.36435089224831474 17:0.8315195502702287 18:0.10746529374220214 19:0.3992202200909745 
0.5 0.0 0:0.05051636374931579 1:0.27500174973754 2:0.19036954087346042 3:0.7467881353661474 4:0.042629775528916426 5:0.34881820271883796 6:0.06435276861019436 7:0.2882225021322743 8:0.8005825710158869 9:0.6439900744416877 10:0.4839820062808266 11:0.16929606215248685 12:0.7946494002988407 13:0.13226394914256207 14:0.735930735930736 15:0.401555075593952 16:0.37102137235364663 17:0.7967510110961316 18:0.10943577921414711 19:0.41337398743970133 
0.3441609542021173 0.5 0:0.05363326098520293 1:0.2691262977220084 2:0.18788105014308806 3:0.7214865625251181 4:0.040974632390396275 5:0.38307981735972474 6:0.0683942468320905 7:0.27609423805785044 8:0.7495996718914373 9:0.6427791563275421 10:0.5468782909110335 11:0.1624238115791164 12:0.6943718281798954 13:0.14908194098945546 14:0.7241943241943228 15:0.43273338132949235 16:0.3459806017995025 17:0.8425394932420738 18:0.10136617204332439 19:0.40482388277054604 
0.5 0.0 0:0.049180550648221216 1:0.25472568003688384 2:0.20426361411803756 3:0.7425712065593096 4:0.04194824600129051 5:0.369005210406309 6:0.06439718045878659 7:0.26996885216167743 8:0.7137401403971763 9:0.6569065343258889 10:0.5300036779614662 11:0.167434827622199 12:0.7438044341540231 13:0.1380589126253868 14:0.790700657367323 15:0.42780577553795646 16:0.35888039269103145 17:0.8088192932121165 18:0.10416811897763789 19:0.42598323270936306 
0.5 0.5 0:0.054050702579295 1:0.25076551017347415 2:0.19013624486748784 3:0.7469638407330983 4:0.04346951726831259 5:0.41097769899953196 6:0.06703413396895234 7:0.30365847459063133 8:0.7551540014978854 9:0.6594292803970219 10:0.44371304356026625 11:0.16631629725543953 12:0.7040818043533852 13:0.13520473563826174 14:0.7491341991341987 15:0.4107271418286525 16:0.3458383246940814 17:0.7949540793840078 18:0.103257486223986 19:0.4500034131246014 
0.0 0.5 0:0.05474643856944838 1:0.27258244596643844 2:0.19659076769939018 3:0.7308575154292026 4:0.04129917026069434 5:0.3661902890156252 6:0.0666177728883998 7:0.2926327799775187 8:0.7075037001373046 9:0.6225971877584773 10:0.4885841734488899 11:0.17316170310000734 12:0.7696977039499943 13:0.14057846196574522 14:0.7382780182780166 15:0.42467002639788703 16:0.3550863365464635 17:0.8105940405821133 18:0.10741837742144132 19:0.39446011953520743 
0.0 0.5 0:0.05379905339136717 1:0.26434651823503075 2:0.19060780062424054 3:0.7493003482723478 4:0.044537643902604715 5:0.37589278402181037 6:0.06973605161934623 7:0.29075606600081877 8:0.7265115739080834 9:0.657980043292328 10:0.44432503387516825 11:0.15753464395045538 12:0.7415506679241994 13:0.14264904905662495 14:0.7471677258911291 15:0.43490648407701743 16:0.3618672028473926 17:0.7965471039514928 18:0.10480004743516382 19:0.4099506379880279 
0.2763721861132642 0.5 0:0.0535219432267785 1:0.26567014947757894 2:0.19372900335946264 3:0.780523565820851 4:0.04146143919584345 5:0.3553327350801335 6:0.06595159515951593 7:0.2782993769804734 8:0.7079714331567963 9:0.6730521091811413 10:0.4812207059799884 11:0.15866554954680484 12:0.7056707095454113 13:0.16542751733503203 14:0.7317056277056275 15:0.38462203023758057 16:0.38126532394397816 17:0.8734200974800367 18:0.09914703007134834 19:0.4157058341676524 
0.5 0.0 0:0.051472386851079396 1:0.26810978353246995 2:0.18444107766286796 3:0.7074301331689911 4:0.04252095989005168 5:0.36108085186951105 6:0.0662259036361151 7:0.2793370894146479 8:0.7641819366167244 9:0.6634359947452914 10:0.49074989917503753 11:0.15269654514254452 12:0.7791134384212567 13:0.1329642356503967 14:0.7587131822425923 15:0.41502562147969185 16:0.35776449382498166 17:0.8845070486973153 18:0.11441994834906671 19:0.4167117288346109 
0.5 0.0 0:0.051184270299863055 1:0.2532280157976308 2:0.18365061590145598 3:0.7636558505934992 4:0.042045607362379944 5:0.3596757566543305 6:0.06795012834616794 7:0.2849147937483407 8:0.7542770020863419 9:0.6548883374689827 10:0.4591303035732812 11:0.16446401096808588 12:0.8115977223471128 13:0.13566534075204617 14:0.7993073593073589 15:0.4571922246220296 16:0.3505334691729836 17:0.8207101005911019 18:0.1088305586763354 19:0.38072813324838434 
0.0 0.5 0:0.05664120892561087 1:0.26931013539458454 2:0.1929903981320435 3:0.7403281593216289 4:0.04422691615444698 5:0.3851332554562719 6:0.07526390936966032 7:0.27844013052872535 8:0.7533813431128485 9:0.588416662267039 10:0.4472625873866983 11:0.167815603917266 12:0.7595807977627871 13:0.1308889184919193 14:0.6842405821129213 15:0.44520012867055647 16:0.3444306895021473 17:0.8424262114950527 18:0.10415619579919397 19:0.40995063798802767 
0.5 0.5 0:0.05686147597951485 1:0.2594490826376049 2:0.19260918253079531 3:0.7299204201387955 4:0.04350602777872117 5:0.37053331058982286 6:0.0687495416208287 7:0.27333781440457283 8:0.7458578077355151 9:0.6403573200992557 10:0.4977885077850186 11:0.14996785741488317 12:0.7819381587626366 13:0.14246812397101435 14:0.7781818181818181 15:0.4209071274298053 16:0.3607774207633151 17:0.7919591931971377 18:0.10035747114697173 19:0.4157058341676526 
0.5 0.5 0:0.05085031702458941 1:0.2610043493475983 2:0.19036954087346047 3:0.7130527049114433 4:0.04525853227833065 5:0.3705333105898229 6:0.06715071507150715 7:0.28491479374834067 8:0.7584865992617553 9:0.6839503722084368 10:0.4784594056791501 11:0.14900144717800293 12:0.7607527562022962 13:0.14076742816627227 14:0.744380952380952 15:0.38462203023758057 16:0.37102137235364663 17:0.8350855542880842 18:0.11488276405445229 19:0.41337398743970133 
0.0 0.5 0:0.06328080004866354 1:0.28295089069972856 2:0.179171332586786 3:0.7168010860730762 4:0.04194824600129045 5:0.36619028901562517 6:0.06661777288839979 7:0.2889575484398147 8:0.7075037001373046 9:0.6347063688999164 10:0.49165228489426577 11:0.16994033564374003 12:0.7084954298867892 13:0.13113015193940042 14:0.7241943241943228 15:0.42198224142068513 16:0.364192071293425 17:0.8318910090220871 18:0.10809084468567648 19:0.4074148235793807 
0.0 0.5 0:0.055781952601304786 1:0.26711690920780556 2:0.19792182088075247 3:0.7008922590498651 4:0.04523136166593363 5:0.3631602739638609 6:0.07204014975140931 7:0.28506864064991927 8:0.7160969346814317 9:0.6219401004097185 10:0.4823765991291769 11:0.1599016556637447 12:0.75119469086112 13:0.1412815920142177 14:0.7383871942011482 15:0.42473253302526487 16:0.3619685779249818 17:0.8036601438807285 18:0.10535405930797533 19:0.40464311945830284 
0.5 0.20741130938390867 0:0.05088439388941324 1:0.2536088974408943 2:0.1828278903946798 3:0.7404197122701055 4:0.04095476272486791 5:0.3914507206206486 6:0.0840199666225125 7:0.2670936710267387 8:0.6924216966516975 9:0.6385780118499003 10:0.4628496060193081 11:0.17276724994209722 12:0.7502897614684135 13:0.1315350795119583 14:0.7510204081632652 15:0.40975007713668543 16:0.38272874559973963 17:0.8667702277426569 18:0.10177788669489704 19:0.40990001170214113 
0.0 0.5 0:0.05450959227492809 1:0.2643465182350308 2:0.19299039813204347 3:0.7089254979941118 4:0.043294732909973835 5:0.37358266616319474 6:0.07483868954271307 7:0.2714024531161005 8:0.6996418047033177 9:0.6347922496172318 10:0.5060136576173027 11:0.16884369991394704 12:0.764088330222434 13:0.13631667106024506 14:0.7246937459703408 15:0.42975966178024816 16:0.36840589535185964 17:0.8424262114950527 18:0.09578612453158532 19:0.4099506379880276 
0.0 0.5 0:0.05733522364908913 1:0.2689253588705887 2:0.19010911742493336 3:0.7401195037646366 4:0.042514300426229036 5:0.38083536176582533 6:0.0678571733142307 7:0.3100687621563947 8:0.7258866955544858 9:0.6050435685844544 10:0.4534792703994729 11:0.16102538849732637 12:0.7413410152516595 13:0.14820302842886562 14:0.7187355280378542 15:0.41348134009744325 16:0.357203949278316 17:0.8315195502702291 18:0.10605780411938427 19:0.40193166977463873 
0.0 0.5 0:0.05474643856944838 1:0.26739822359979354 2:0.18041557795197188 3:0.7402284683332874 4:0.04324639748248264 5:0.3565391299618542 6:0.08171780140977046 7:0.29079516420866663 8:0.7028263699424008 9:0.6306699751861032 10:0.448698724659002 11:0.16994033564373998 12:0.7273268988293135 13:0.13963363096311068 14:0.7054160654160639 15:0.42198224142068513 16:0.3619156376066846 17:0.8478637353520672 18:0.10674591015720605 19:0.40223294196171133 
0.5 0.0 0:0.050527136435614836 1:0.27219223568077716 2:0.19958097027056323 3:0.7051629671438102 4:0.04061345314764526 5:0.3682917510676564 6:0.06801459715864053 7:0.2925438630854777 8:0.8452586184581762 9:0.601568878572 10:0.5351996731512162 11:0.15585984240747502 12:0.733553432915149 13:0.1343761036097415 14:0.705264627845272 15:0.4428342506792997 16:0.38721342486739624 17:0.859199218553989 18:0.09860037926300219 19:0.3786219491070085 
0.0 0.5 0:0.05927681245881958 1:0.27435070785893817 2:0.19141123466756982 3:0.7401195037646366 4:0.0428539330811921 5:0.3707353115932743 6:0.07111059943203626 7:0.2677608642223594 8:0.7307815759910125 9:0.6177159674534024 10:0.4695333419159752 11:0.1655203198316528 12:0.7167068262280082 13:0.14820302842886562 14:0.7236484445786776 15:0.4134813400974432 16:0.34767469198498446 17:0.8538070753818295 18:0.10746529374220214 19:0.39650877040731036 
0.0 0.5 0:0.05535142638697321 1:0.27513699032101785 2:0.20570621743999254 3:0.7609056796325187 4:0.04184241843488904 5:0.36996682951492804 6:0.0673418791154478 7:0.2862810211243135 8:0.7057751215870159 9:0.6722623799762655 10:0.46897493942844476 11:0.16412786827699732 12:0.72538234497112 13:0.1374769515005759 14:0.6900056465273859 15:0.41017935956427837 16:0.369685204754908 17:0.824251879038185 18:0.1083832217570834 19:0.4011064459578714 
0.0 0.5 0:0.05345204602962825 1:0.26169156021945617 2:0.1927133519102064 3:0.7254092869965973 4:0.04523136166593363 5:0.38083536176582544 6:0.06692762299485766 7:0.2908378994591059 8:0.7112020542449047 9:0.6219401004097185 10:0.49200904203907836 11:0.16776778549881605 12:0.7462678530563898 13:0.14029281538355373 14:0.69908386187456 15:0.4359837259530865 16:0.3548216349549831 17:0.8482351941039291 18:0.10887278336502006 19:0.39379732072364615 
0.0 0.5 0:0.054493443663938164 1:0.2522383006185438 2:0.19087855034103657 3:0.7186113837931842 4:0.04039931525668618 5:0.37211259116225814 6:0.06586075274194082 7:0.2804794575062476 8:0.6853926846704883 9:0.6036995262801713 10:0.45574143502225206 11:0.22323932446561773 12:0.719730113062728 13:0.18247312755983328 14:0.7119244391971663 15:0.39583742391517707 16:0.34913656668339266 17:0.7908701436746383 18:0.1009076716358914 19:0.3954611648477124 
0.0 0.5 0:0.05734385293268779 1:0.25702977886650324 2:0.19659076769939013 3:0.7495994212373717 4:0.041623708130992386 5:0.35895191972529683 6:0.06883836531801313 7:0.28711993267096253 8:0.749599671891437 9:0.6468155500413554 10:0.491652284894266 11:0.17316170310000734 12:0.6896639609442643 13:0.13774396895784183 14:0.7476671476671459 15:0.4058555315574741 16:0.3528099028597233 17:0.8265667669120937 18:0.10472850836450039 19:0.4177785868147198 
0.0 0.5 0:0.0571318191071172 1:0.2715949750394583 2:0.18530368474377412 3:0.7425712065593076 4:0.045425437468769515 5:0.36153705161469973 6:0.0780379625264112 7:0.2820008601720175 8:0.7181947405827981 9:0.6194257355547665 10:0.47412021949211725 11:0.16487818678389138 12:0.7438044341540223 13:0.13862131203171657 14:0.7158111729540284 15:0.41180705543556373 16:0.3461432042056979 17:0.8341728270692266 18:0.10640967652508845 19:0.3920542459270037 
0.0 0.5 0:0.05525242838046915 1:0.2593076947548781 2:0.2583223047948697 3:0.6850676319206093 4:0.04405036629753925 5:0.3597744616901074 6:0.08584608460846091 7:0.27296193845185296 8:0.7045272172860034 9:0.6036995262801713 10:0.45260359377129944 11:0.15515133050360402 12:0.695655791971432 13:0.14285464574481932 14:0.6927194018103103 15:0.39583742391517707 16:0.35146473749937746 17:0.8072058865121182 18:0.10434642469163967 19:0.4007608165021469 
0.5 0.5 0:0.064393977632909 1:0.2518455564998584 2:0.18539255941271607 3:0.7308575154292024 4:0.04324639748248265 5:0.402382135467267 6:0.06572953591655448 7:0.2687437749824422 8:0.7636316624761478 9:0.6225971877584768 10:0.5069928421211456 11:0.15598107666658173 12:0.7414505005362072 13:0.13679913795520723 14:0.7194997594997583 15:0.40047996160307053 16:0.3778506734138669 17:0.8478637353520669 18:0.10271110657179475 19:0.39446011953520743 
0.0 0.5 0:0.055351426386973254 1:0.25485090279936345 2:0.2580456692146651 3:0.7013186421445912 4:0.04120745303647982 5:0.3676064917028643 6:0.08602381977328172 7:0.2772926831244937 8:0.7149264197944363 9:0.6209299816592954 10:0.4629721126874917 11:0.15467385509012604 12:0.7207768226753939 13:0.13932553389703461 14:0.6945981554677213 15:0.4417316179922996 16:0.3407349067822321 17:0.777375399591504 18:0.10180473765043459 19:0.3681564378455173 
0.0 0.5 0:0.05539363483935869 1:0.25264931190554046 2:0.19922393812338907 3:0.6861820422818256 4:0.04115576980637673 5:0.3707353115932743 6:0.06553329751579814 7:0.2639146916829016 8:0.6720430107526882 9:0.6008194356281386 10:0.4695333419159752 11:0.2902546643592122 12:0.7117799884232777 13:0.13930403875288971 14:0.69908386187456 15:0.3966045507057108 16:0.33576312036831985 17:0.8203757877144288 18:0.10113159043952163 19:0.3748171729379967 
0.0 0.5 0:0.05498843369645842 1:0.2717559757340754 2:0.18744826914650214 3:0.7013186421445909 4:0.04406479732932131 5:0.3746875051390551 6:0.07168651647773477 7:0.30066236192402507 8:0.7423803144166964 9:0.5972381055130012 10:0.5019904865036862 11:0.16097653054804026 12:0.7345933895625724 13:0.1384012426988053 14:0.7221532091097314 15:0.41543806930228183 16:0.3741390967507045 17:0.8138348836055892 18:0.10048904082910481 19:0.4188487580183698 
0.0 0.5 0:0.05539363483935867 1:0.27254225819615496 2:0.19401546915284293 3:0.7352160981752904 4:0.046250259630822875 5:0.3682102990501364 6:0.06646284783517115 7:0.28314555438019035 8:0.7454662173005936 9:0.6261642333660346 10:0.4791657848258765 11:0.16102538849732637 12:0.7462678530563898 13:0.1412815920142177 14:0.7187355280378542 15:0.4106685418654879 16:0.36196857792498194 17:0.8482351941039293 18:0.10605780411938427 19:0.393797320723646 
0.0 0.5 0:0.056390905455265594 1:0.27167913449346287 2:0.18960602667209628 3:0.7377792420060846 4:0.040399315256686164 5:0.36717733937339797 6:0.07812447911457819 7:0.28987635632424114 8:0.7140944835937606 9:0.6284683058876608 10:0.4839820062808269 11:0.1639368781116058 12:0.7678787552453199 13:0.14092203687579435 14:0.7071231798504525 15:0.395837423915177 16:0.35146473749937723 17:0.8725488578620383 18:0.09815666919129275 19:0.4113601198110162 
0.0 0.5 0:0.05554156541533797 1:0.2586344191228457 2:0.19463552498266926 3:0.7475913599007815 4:0.04333912258828207 5:0.3744627110617148 6:0.06852113782806836 7:0.28003198613396185 8:0.6931376145386714 9:0.6453739808578507 10:0.4806947440179229 11:0.16487818678389138 12:0.753892721087518 13:0.14773218241426322 14:0.7258709544423814 15:0.41756659467242474 16:0.3656554929491864 17:0.8455819173049266 18:0.10496867524458436 19:0.38927823791753774 
0.0 0.5 0:0.05850017693492741 1:0.272542258196155 2:0.19141123466756985 3:0.7156024758179045 4:0.04319356573615519 5:0.3707353115932743 6:0.06553329751579814 7:0.2927609857288347 8:0.7356764564275396 9:0.6388366322349824 10:0.47595497052257596 11:0.16214912133090795 12:0.7413410152516595 13:0.14029281538355373 14:0.7285613611195011 15:0.4078557436335325 16:0.36673320657164765 17:0.8315195502702291 18:0.10605780411938427 19:0.404643119458303 
0.0 0.5 0:0.055939128838282795 1:0.2660404510751958 2:0.1906361648802856 3:0.7275107465348866 4:0.04438228002852581 5:0.36670731539350565 6:0.06804529659315121 7:0.2760942380578503 8:0.7432518666269246 9:0.6151010280042524 10:0.48726926854372865 11:0.1671791635383681 12:0.7438044341540223 13:0.1426705877572929 14:0.7409606266749106 15:0.42044636429085536 16:0.36077742076331426 17:0.8284682819513762 18:0.1049686752445844 19:0.4059342859743323 
0.0 0.5 0:0.058255367911091795 1:0.2666844538536619 2:0.1959686450167976 3:0.751738443095914 4:0.04279486653250288 5:0.3558048026425465 6:0.06907973406036262 7:0.27189968032460216 8:0.7149264197944357 9:0.616981335634913 10:0.49298624639225674 11:0.16517831418664972 12:0.7438044341540249 13:0.14579557228464013 14:0.6854131375870515 15:0.42595548877828904 16:0.35855047476541735 17:0.8190433813218873 18:0.10969891857841317 19:0.40871029398379916 
0.04221977920139562 0.5 0:0.05613791054975527 1:0.25562571864220385 2:0.18547032474804032 3:0.7513564749068884 4:0.04651205980235679 5:0.3793098333543456 6:0.06370324532453234 7:0.3019357098073324 8:0.737614013266997 9:0.6253722084367243 10:0.4465893980403061 11:0.16631629725543937 12:0.7570453107542363 13:0.1467198634828694 14:0.722727272727272 15:0.39560835133189237 16:0.3778506734138674 17:0.8199114642746025 18:0.11145318100685273 19:0.384420223900973 
0.0 0.5 0:0.05772354141103522 1:0.272542258196155 2:0.19141123466756982 3:0.7548297205326764 4:0.04183503511630288 5:0.3707353115932743 6:0.06599807267548466 7:0.2908378994591059 8:0.7160969346814317 9:0.6092677015407704 10:0.4727441562192755 11:0.16214912133090795 12:0.74626785305639 13:0.1472142517982016 14:0.7039967784153837 15:0.4275453312572203 16:0.3595862636016489 17:0.8649508379376297 18:0.10676154893079316 19:0.393797320723646 
0.0 0.5 0:0.05297547423087615 1:0.2752138315616299 2:0.18706097933421578 3:0.7186113837931845 4:0.04438228002852592 5:0.36717733937339786 6:0.06540654065406537 7:0.2767206979790504 8:0.7045272172860031 9:0.6243401759530791 10:0.48711984753177945 11:0.1628386846606056 12:0.7630638910270605 13:0.1467198634828695 14:0.7551357733175916 15:0.4123306499116428 16:0.38638729973914404 17:0.8017606388996252 18:0.10847292835853765 19:0.41400994563823346 
0.0 0.5 0:0.053840363791574336 1:0.259883110556673 2:0.19661970363811598 3:0.7401195037646368 4:0.04387283104608133 5:0.3656852865069986 6:0.06925149879329022 7:0.2908378994591058 8:0.7112020542449047 9:0.6303883663223506 10:0.48879822773577775 11:0.16776778549881605 12:0.7561215286658507 13:0.1432591452755457 14:0.7433001107419717 15:0.41910693656135395 16:0.35243932063165023 17:0.837091431548129 18:0.10465031449656638 19:0.39108587103998194 
0.12370106652854404 0.5 0:0.05409162822577458 1:0.2574363845423187 2:0.19541971323803856 3:0.7777122799496241 4:0.044239101556335494 5:0.3738544447347962 6:0.06857711914982335 7:0.2874442178066422 8:0.7394196002907641 9:0.677682090205808 10:0.4474353846520826 11:0.16975084344043012 12:0.7251114318948986 13:0.14546935186173526 14:0.7628554452083847 15:0.415025621479692 16:0.3597731117838701 17:0.7905498349915494 18:0.10017946510643864 19:0.3915643621606272 
0.0 0.5 0:0.055781952601304786 1:0.26711690920780556 2:0.19010911742493336 3:0.7057956646392114 4:0.042514300426229036 5:0.38841039939523875 6:0.07111059943203626 7:0.3004533308077502 8:0.7160969346814317 9:0.6261642333660346 10:0.4823765991291769 11:0.1655203198316528 12:0.7216336640327381 13:0.14622547516753764 14:0.69908386187456 15:0.41348134009744325 16:0.34767469198498446 17:0.8315195502702291 18:0.1067615489307932 19:0.4127774685092956 
0.0 0.5 0:0.052588237130605245 1:0.2615439316755549 2:0.19768265648924752 3:0.7318137351132936 4:0.044829347502916 5:0.38258741128555285 6:0.07871773571915003 7:0.3143466479400766 8:0.7224902479046501 9:0.634871119663746 10:0.4797555262285226 11:0.15994752231001316 12:0.758936864554266 13:0.1315350795119583 14:0.712218393851046 15:0.4171551990126494 16:0.32837308410002125 17:0.8178741267325136 18:0.10116031471753817 19:0.4027617053920864 
0.0 0.5 0:0.057529382530062116 1:0.2734464830275463 2:0.18960602667209633 3:0.7329872774528595 4:0.0443822800285259 5:0.4066593536842798 6:0.06722338900556718 7:0.28047945750624775 8:0.7093108504398817 9:0.5954432664110081 10:0.4745684825279685 11:0.15624952395460423 12:0.7341747057175058 13:0.1389894280067692 14:0.8079496261314445 15:0.40133516591399915 16:0.35844924994733074 17:0.8453226197995719 18:0.10021992102474177 19:0.41665977146545086 
0.5 0.0 0:0.05103584662196367 1:0.26624617418498386 2:0.18352619136493736 3:0.7699031525295551 4:0.04032555664980027 5:0.3911224499045345 6:0.06476727919705548 7:0.2760942380578507 8:0.7683089926710518 9:0.6871794871794873 10:0.4711982085917602 11:0.1602762332749384 12:0.7712669930285384 13:0.13648419428766279 14:0.7907006573673239 15:0.41212702983761235 16:0.3626744488355986 17:0.8088192932121162 18:0.10977201284626464 19:0.3979147072803209 
0.5 0.5 0:0.06812597684162927 1:0.26297834171028184 2:0.17551037987768098 3:0.7101332926605541 4:0.0441014299484602 5:0.3770478429511177 6:0.06572099517644057 7:0.29464708957029867 8:0.7332290162092742 9:0.6017942355411329 10:0.5025676813826226 11:0.1683296519156063 12:0.7723232452929423 13:0.1320023036341399 14:0.7359307359307341 15:0.423326133909286 16:0.3785073369773496 17:0.7799796484496507 18:0.1000083054520801 19:0.379562209884408 
0.0 0.5 0:0.05326220179045446 1:0.2622140012331485 2:0.18663680477790204 3:0.7308575154292026 4:0.04324639748248264 5:0.358951919725297 6:0.07061483926170381 7:0.28895754843981464 8:0.7308903511118227 9:0.6347063688999163 10:0.4885841734488899 11:0.1753092814041856 12:0.7649898367143632 13:0.15002677199208997 14:0.752361712361711 15:0.41123110151187775 16:0.3528099028597233 17:0.8159182826921064 18:0.09934877025061872 19:0.40223294196171133 
0.0 0.5 0:0.07733739542619426 1:0.27420886866969946 2:0.18224535054783367 3:0.6908931574559015 4:0.04166188905690979 5:0.3674676483021538 6:0.06740151139296921 7:0.2744728123794515 8:0.7971983850513382 9:0.5565902787914161 10:0.44472822749439755 11:0.16975084344043018 12:0.720957431392871 13:0.13629893330675366 14:0.7131482896188757 15:0.41502562147969196 16:0.34370416811276183 17:0.8281327204738556 18:0.10314623244865283 19:0.4235701015638795 
0.0 0.5 0:0.05655858812519694 1:0.2689253588705887 2:0.19010911742493336 3:0.7303126925859439 4:0.04217466777126596 5:0.36821029905013647 6:0.06832194847391722 7:0.28314555438019035 8:0.7112020542449045 9:0.6515090311039304 10:0.49843067064567925 11:0.15877792283016312 12:0.7413410152516595 13:0.14424792190620966 14:0.7531259438236187 15:0.42473253302526487 16:0.3572039492783161 17:0.7980882626028283 18:0.10816903855361108 19:0.3992202200909745 
0.1516043946725973 0.5 0:0.0535219432267785 1:0.2501174823776438 2:0.1914893617021279 3:0.7594389217866613 4:0.04730312086120834 5:0.3900769076737092 6:0.0775430876420975 7:0.2667223976367056 8:0.6827138501043165 9:0.6367245657568239 10:0.4591303035732812 11:0.16639683144184625 12:0.7522785951781602 13:0.14331847187338542 14:0.7359307359307357 15:0.435421166306695 16:0.3443870982187848 17:0.815918282692108 18:0.1009626916847834 19:0.40404660052789654 
0.0 0.5 0:0.053899455624913974 1:0.2751369903210178 2:0.1886654656994015 3:0.7059022604128934 4:0.04311234923170748 5:0.3605254782666738 6:0.06473509669807564 7:0.29347169152416913 8:0.7103507706907257 9:0.6367245657568246 10:0.4689749394284445 11:0.17463232737352105 12:0.7207768226753941 13:0.13932553389703464 14:0.7680782985130814 15:0.4312141985162924 16:0.3518696367717227 17:0.8919623493500582 18:0.10312043447176429 19:0.4188487580183696 
0.0 0.5 0:0.053840363791574336 1:0.272542258196155 2:0.18750488293966028 3:0.7254092869965972 4:0.040816137151413655 5:0.38841039939523875 6:0.06739239815454419 7:0.3023764170774792 8:0.7699406194832291 9:0.6092677015407704 10:0.4855874134324774 11:0.16327285416448956 12:0.7561215286658505 13:0.1412815920142177 14:0.748213027282795 15:0.4022301471696216 16:0.3572039492783161 17:0.8092320251586286 18:0.10676154893079322 19:0.40735456914196716 
0.0 0.5 0:0.05569671211697511 1:0.2649114827897772 2:0.19392019228143037 3:0.7297147162945596 4:0.04277937957156604 5:0.36777919934764935 6:0.07019238509216777 7:0.2868510132901556 8:0.7460631539391942 9:0.6433698480905408 10:0.47556340780266104 11:0.16184763203409325 12:0.7257193344073924 13:0.14101631047916144 14:0.723049308415162 15:0.41595111415476965 16:0.3570296335961208 17:0.8544865730986461 18:0.10530256578518923 19:0.40728843622285316 
0.0 0.5 0:0.05326220179045446 1:0.2691262977220084 2:0.18912529550827412 3:0.7121156096210335 4:0.044869086833972886 5:0.3686030787790682 6:0.07327955017723982 7:0.29263277997751885 8:0.7168583605271118 9:0.6266335814722899 10:0.5039247306757695 11:0.16135002242702726 12:0.7037875626511578 13:0.148137109986821 14:0.7476671476671461 15:0.39510439164866684 16:0.3619156376066846 17:0.7999455563621264 18:0.11212564827108777 19:0.39186917872637256 
0.0 0.5 0:0.05252008340095759 1:0.26411488276758527 2:0.18253079507278855 3:0.7425712065593096 4:0.04000101877950223 5:0.3792193537382169 6:0.06715071507150715 7:0.2849147937483407 8:0.7669057936125812 9:0.6548883374689828 10:0.47845940567914996 11:0.15576631883616432 12:0.7226190315936837 13:0.15437299460420872 14:0.7359307359307357 15:0.42332613390928675 16:0.3853629045801105 17:0.8350855542880846 18:0.10640967652508868 19:0.3947192136160915 
0.5 0.5 0:0.05191289562773268 1:0.2783950589229798 2:0.19036954087346006 3:0.7713229938786575 4:0.04504610749049909 5:0.37606079259334574 6:0.06976697669766965 7:0.28160708536440643 8:0.6968734042397964 9:0.687913376945634 10:0.4952782347842555 11:0.1617404912096051 12:0.7187671402190756 13:0.138602906232964 14:0.7839433293978733 15:0.3804437463184752 16:0.35612107913134555 17:0.8289868769620907 18:0.09953217041359193 19:0.4097702243146849 
0.5 0.0 0:0.053899455624913974 1:0.26837496114713305 2:0.1850138760407035 3:0.7150694969494972 4:0.0427948665325029 5:0.369966829514928 6:0.0677763428516765 7:0.29167402392420544 8:0.7698342090389569 9:0.6327759197324422 10:0.46597352605796816 11:0.1630774223673449 12:0.7852541348155605 13:0.13655266030234653 14:0.7083756822887266 15:0.433843553385294 16:0.3652313127591116 17:0.8659198607685685 18:0.1024625860610994 19:0.4112449099924418 
0.0 0.5 0:0.0571318191071172 1:0.25678291113475815 2:0.18796992481202984 3:0.7676719732666768 4:0.042643684294786266 5:0.3796329748405206 6:0.06709361412331694 7:0.2957829784384078 8:0.7282175910004486 9:0.6410492733073365 10:0.47412021949211713 11:0.1637276984066531 12:0.7236278602870319 13:0.14267058775729285 14:0.7359307359307341 15:0.4204463642908555 16:0.3607774207633144 17:0.8341728270692261 18:0.1028071733238283 19:0.4031582779648665 
0.0 0.5 0:0.05511749776419687 1:0.2846789648219434 2:0.19410227696901822 3:0.744913944785329 4:0.04519362470427095 5:0.38307981735972474 6:0.06928248380393584 7:0.28344470113325854 8:0.7028263699424008 9:0.6508519437551689 10:0.4855160620035138 11:0.1645713898832946 12:0.769697703949994 13:0.13301981394466936 14:0.7054160654160639 15:0.4192944564434832 16:0.34598060179950224 17:0.842539493242074 18:0.09733136845791307 19:0.40482388277054626 
0.5 0.5 0:0.056390905455265615 1:0.2663770888912123 2:0.19087855034103648 3:0.7952828166447845 4:0.04272271137359271 5:0.35483920990124723 6:0.06722338900556718 7:0.28611759679704385 8:0.6949599509782457 9:0.6243401759530792 10:0.4871198475317795 11:0.16503507156260605 12:0.7534341625905425 13:0.13995573244128176 14:0.7119244391971663 15:0.40958177891223185 16:0.3770746164752062 17:0.8453226197995717 18:0.1098484295808369 19:0.39016151319327774 
0.0 0.5 0:0.05539363483935869 1:0.26892535887058877 2:0.19792182088075252 3:0.7303126925859439 4:0.04489172901097057 5:0.3707353115932742 6:0.06739239815454419 7:0.28506864064991927 8:0.7209918151179586 9:0.6261642333660346 10:0.4727441562192755 11:0.17113898399956085 12:0.736414177446929 13:0.1551244648435135 14:0.7236484445786776 15:0.4275453312572203 16:0.33814543469165276 17:0.837091431548129 18:0.09902035600529481 19:0.39650877040731036 
0.0 0.5 0:0.05772354141103521 1:0.2635000098822393 2:0.19141123466756982 3:0.7303126925859439 4:0.044212463701044404 5:0.3757853366795498 6:0.06506852235611163 7:0.27545320930127487 8:0.7112020542449047 9:0.6261642333660344 10:0.49200904203907836 11:0.17226271683314248 12:0.7364141774469293 13:0.14424792190620966 14:0.7187355280378542 15:0.4303581294891757 16:0.3572039492783161 17:0.7980882626028282 18:0.1067615489307932 19:0.4127774685092956 
0.0 0.5 0:0.056390905455265594 1:0.27698118009571343 2:0.18833350300315607 3:0.7665310293254347 4:0.045709934952472484 5:0.3819830947399786 6:0.06676917691769174 7:0.278600077742649 8:0.6997435841321242 9:0.6367245657568239 10:0.4996712125355905 11:0.1705260388176071 12:0.7245449772809874 13:0.14092203687579433 14:0.7311294765840219 15:0.4040840369134098 16:0.3607774207633149 17:0.8289868769620918 18:0.09746891858014312 19:0.40341064232936447 
0.5 0.5 0:0.05179979202291629 1:0.27268409738539207 2:0.18004962343279954 3:0.6826246695993563 4:0.04567088627823865 5:0.3908859018885099 6:0.08111693522293388 7:0.300415623233833 8:0.7765631047797045 9:0.5850824697124497 10:0.5151143135941995 11:0.16501353835768412 12:0.6711094253685412 13:0.13796628213493217 14:0.766997708174177 15:0.41739719645957596 16:0.35173863994831595 17:0.8140391384179908 18:0.1013661720433243 19:0.38013374094518027 
0.5 0.5 0:0.05335496658914158 1:0.2475253711943209 2:0.19480216498693545 3:0.7337859382117293 4:0.0419482460012905 5:0.3906197853704836 6:0.07244682801613492 7:0.2950446506741373 8:0.7288440191515527 9:0.625372208436724 10:0.5328800324415062 11:0.1632962652651889 12:0.704081804353385 13:0.13697629376820136 14:0.7139249639249634 15:0.41828653707703295 16:0.3778506734138673 17:0.8149199872964832 18:0.10073573398310391 19:0.411139300992081 
0.5 0.0 0:0.049489766643844905 1:0.2763266065645712 2:0.18767367591555742 3:0.8089487896299071 4:0.04492317647902263 5:0.40519705685795065 6:0.06402708172051767 7:0.3036584745906313 8:0.6747623887729799 9:0.6905431486076647 10:0.44563061321362685 11:0.17101412479582948 12:0.7555741022431015 13:0.12861060259904217 14:0.8024370691037354 15:0.4210863130949519 16:0.3304249716067774 17:0.8842460564370229 18:0.0963226675615604 19:0.38927823791753885 
0.5 0.5 0:0.059062841447134896 1:0.24567386320623374 2:0.1965399821742807 3:0.7275107465348873 4:0.044829347502916006 5:0.387019065953101 6:0.06974472957499822 7:0.28396973421007365 8:0.769740828445002 9:0.6237504431052815 10:0.4910261397013325 11:0.16191978809956445 12:0.7027306944962209 13:0.14541831057107696 14:0.6992843890803069 15:0.4122184510953403 16:0.3534603124845067 17:0.8080949065304845 18:0.11042389437792116 19:0.3884850927719767 
0.5 0.0 0:0.04978773842144593 1:0.2727395436139125 2:0.1812073704570904 3:0.8134922819470375 4:0.039204425825134226 5:0.383957195455522 6:0.08066806680668055 7:0.30115263490583283 8:0.7389693759939289 9:0.56572073088202 10:0.49778850778501776 11:0.15998338168800463 12:0.738026597092112 13:0.13319160139969388 14:0.7493742621015334 15:0.44421755350480946 16:0.34122078590904514 17:0.8289868769620908 18:0.0984317694357525 19:0.4161298063000065 
0.0 0.5 0:0.05571441907748811 1:0.28528003408184505 2:0.19109985880520025 3:0.7838237709740296 4:0.04374731463011674 5:0.3628858160787371 6:0.06864527032413392 7:0.28987635632424136 8:0.7423803144166964 9:0.6248786276836775 10:0.4959876597627332 11:0.16097653054804015 12:0.7207768226753939 13:0.14117411629349338 14:0.6808206286467164 15:0.4049206498262746 16:0.35632352876751905 17:0.8034178881729935 18:0.105093979703759 19:0.41631414200972694 
0.0 0.5 0:0.05326220179045445 1:0.26739822359979337 2:0.18414831404753 3:0.7495994212373717 4:0.044220011093376796 5:0.358951919725297 6:0.06439718045878645 7:0.2926327799775187 8:0.7262130209169191 9:0.6912158808932998 10:0.4486987246590018 11:0.16564517903538362 12:0.7037875626511575 13:0.17837170207112413 14:0.7007215007214996 15:0.41123110151187797 16:0.33915130073928124 17:0.8212425248020995 18:0.11010824647838215 19:0.3918691787263729 
0.0 0.5 0:0.0694796713021087 1:0.2711593261010848 2:0.1932239861230045 3:0.7198328649538089 4:0.04710267100014179 5:0.38449910545586735 6:0.06505029587926098 7:0.2712299610226537 8:0.7022760958018237 9:0.6349438038242583 10:0.46638548475587527 11:0.15174908412599525 12:0.7251114318948986 13:0.14213465420537835 14:0.7214328155504609 15:0.4221403464193438 16:0.3678075836194243 17:0.8046434170474142 18:0.10492629285398133 19:0.3755614924590015 
0.5 0.5 0:0.05317347024388434 1:0.26837496114713305 2:0.18623107259360283 3:0.7700729161691224 4:0.04406479732932136 5:0.3628858160787373 6:0.06430063296184696 7:0.28987635632424136 8:0.7103507706907259 9:0.6051353975617658 10:0.4989890731332095 11:0.17148098964456404 12:0.6977492111967631 13:0.1420984074917228 14:0.7451157538114063 15:0.4312141985162925 16:0.36523131275911175 17:0.8502943676196749 18:0.1018047376504345 19:0.4315218380615826 
0.5 0.0 0:0.052782007538427 1:0.2482877568364745 2:0.186636804777902 3:0.719832864953809 4:0.04223460294567105 5:0.34830725900422566 6:0.07602263494323269 7:0.2793370894146482 8:0.7229113760734573 9:0.6385053276893871 10:0.5069928421211455 11:0.1631186163245857 12:0.737573433400981 13:0.14797037510400302 14:0.7587131822425923 15:0.4173971964595759 16:0.3276352244416535 17:0.8657156059561624 18:0.10670635325930986 19:0.43728684702241577 
0.0 0.5 0:0.051777965011460494 1:0.6665833458314584 2:0.1766828418564139 3:0.6793172744567386 4:0.04065009452009825 5:0.3348240220908692 6:0.0661736544024772 7:0.25955569613818213 8:0.6700850585780755 9:0.5822332506203465 10:0.445630613213626 11:0.15168592005822537 12:0.6755403592373702 13:0.1311301519394004 14:0.6349975949975935 15:0.3816654667626576 16:0.3277691323055795 17:0.7520273773721851 18:0.09800383572214827 19:0.38927823791753813 
0.0 0.5 0:0.05474643856944838 1:0.28295089069972845 2:0.19410227696901822 3:0.7964541857577936 4:0.04292185961218458 5:0.3565391299618542 6:0.0666177728883998 7:0.2834447011332585 8:0.7075037001373046 9:0.6548883374689819 10:0.491652284894266 11:0.16994033564374003 12:0.7461583677718386 13:0.13301981394466936 14:0.7101106301106288 15:0.42735781137508894 16:0.34825703548624265 17:0.8105940405821133 18:0.10674591015720605 19:0.39964200115287674 
0.0 0.5 0:0.057351747809171814 1:0.2626919791818462 2:0.19060780062424054 3:0.708925497994112 4:0.04267327741365846 5:0.3828231375976566 6:0.0680351723115573 7:0.27844013052872535 8:0.7309898687755441 9:0.6000105591045869 10:0.47957567601353085 11:0.1637032199305418 12:0.7415506679242 13:0.14988605248105932 14:0.7606521138436025 15:0.4065989614447853 16:0.36622633118370385 17:0.8322308542631507 18:0.10222464089128425 19:0.4223540780303214 
0.0 0.5 0:0.05385589650205211 1:0.2781122831575267 2:0.18589025755879088 3:0.7257034913319576 4:0.041753523279111714 5:0.37921935373821686 6:0.06715071507150712 7:0.3080687524358764 8:0.6995522388059697 9:0.5931315136476429 10:0.4453238020690894 11:0.15963195978368497 12:0.7014336290333436 13:0.15352264670183768 14:0.7824069264069261 15:0.4136501079913602 16:0.3669237917175141 17:0.8542528258840605 18:0.10519923544946529 19:0.4296969145353598 
0.0 0.5 0:0.053840363791574336 1:0.26530845954502247 2:0.19661970363811598 3:0.7352160981752901 4:0.04387283104608133 5:0.3631602739638609 6:0.07575835102890138 7:0.27929938184073266 8:0.7209918151179586 9:0.6557331640602465 10:0.47274415621927557 11:0.16439658699807114 12:0.7413410152516595 13:0.14029281538355373 14:0.7383871942011482 15:0.4078557436335325 16:0.35958626360164897 17:0.8203757877144288 18:0.10253908006233954 19:0.404643119458303 
0.1422784047879675 0.5 0:0.052891142595705966 1:0.2639420753553633 2:0.18788105014308817 3:0.7261720389771605 4:0.04681631405576118 5:0.3734286583059535 6:0.06661777288839983 7:0.2907951642086666 8:0.7308903511118229 9:0.6387427626137296 10:0.47937983911276205 11:0.1677927573395619 12:0.7414505005362072 13:0.1462474479815521 14:0.7288888888888875 15:0.4434845212382998 16:0.3528099028597233 17:0.8372152511320802 18:0.10136617204332438 19:0.3892782379175379 
0.0 0.5 0:0.05525242838046915 1:0.2734464830275464 2:0.19978621602361826 3:0.7329872774528594 4:0.04338653883556597 5:0.3647097134789678 6:0.06676917691769174 7:0.2823588372698464 8:0.7140944835937606 9:0.6243401759530794 10:0.5028090537865432 11:0.16613326501360623 12:0.7149152488444688 13:0.14575355904835693 14:0.7215269578905944 15:0.4260750049086977 16:0.3607774207633151 17:0.8235416293495984 18:0.10778517774738798 19:0.39016151319327774 
0.0 0.5 0:0.05151822357513669 1:0.2750017497375399 2:0.2015677491601346 3:0.7172696337182813 4:0.042629775528916454 5:0.3575042458672319 6:0.07154748808214152 7:0.3130303150117767 8:0.68692344727973 9:0.6694193548387097 10:0.4536077029716045 11:0.16446401096808588 12:0.7353302731298881 13:0.14501916767812745 14:0.7274805194805193 15:0.435421166306695 16:0.3361919369465195 17:0.8542528258840608 18:0.10277835329821847 19:0.4040466005278965 
0.0 0.5 0:0.05610397220877224 1:0.2649114827897772 2:0.19255455712451888 3:0.7399999085063597 4:0.043135579673112684 5:0.39161285432799864 6:0.06970493797347216 7:0.29088480400226985 8:0.730662188663292 9:0.6123585305331964 10:0.47556340780266104 11:0.1653832792421915 12:0.730886505763573 13:0.14309032975323713 14:0.7127441664027032 15:0.4189011220565766 16:0.34953405926173187 17:0.8427992123693921 18:0.10308834430539036 19:0.40728843622285316 
0.5 0.0 0:0.048550450128837026 1:0.258040539202139 2:0.17642460225231912 3:0.7525167933678902 4:0.04314230042974566 5:0.3944609011495501 6:0.06334973119953508 7:0.27661431799243186 8:0.755071265704345 9:0.6144482419588934 10:0.5191495101122594 11:0.17060892134221098 12:0.789772760464197 13:0.1342855309481989 14:0.7498815649759052 15:0.433595501039162 16:0.35981101023592593 17:0.8421376636488686 18:0.10612419513932847 19:0.4208094987043004 
0.0 0.5 0:0.0524474848628547 1:0.285280034081845 2:0.18257948293490472 3:0.747154824827612 4:0.04311234923170751 5:0.3487237892063559 6:0.06821080658790522 7:0.29526935912413343 8:0.7378046653129865 9:0.6288272737080604 10:0.4689749394284445 11:0.16097653054804026 12:0.7207768226753941 13:0.14856844587932833 14:0.7267457180500667 15:0.4338435533852942 16:0.3429618527801303 17:0.8815453539174622 18:0.1037782828824292 19:0.42391799003565495 
0.5 0.0 0:0.054948834493856624 1:0.27698118009571293 2:0.18935152193830787 3:0.7253201341676981 4:0.04053208074908076 5:0.3582938861534488 6:0.06758675867586748 7:0.2665720472556171 8:0.750450095563238 9:0.687913376945634 10:0.5002987807857798 11:0.1687689292960064 12:0.7418784884667193 13:0.1347376884949139 14:0.7916253443526158 15:0.4046338111132917 16:0.35425854247855826 17:0.8943298483120099 18:0.09733136845791308 19:0.4055305029911373 
0.0 0.5 0:0.0669218183971331 1:0.26858627455881645 2:0.18780328480776406 3:0.7689270116020457 4:0.04377377152171703 5:0.35895191972529705 6:0.0724468280161349 7:0.28815359154094217 8:0.7419990103247193 9:0.6026674937965252 10:0.46672387940058613 11:0.16430294259527237 12:0.6952545532865765 13:0.14671986348286933 14:0.7271284271284266 15:0.40568754499639936 16:0.33730169836880497 17:0.7799796484496512 18:0.10325748622398599 19:0.40628128697551585 
0.0 0.5 0:0.056390905455265594 1:0.2628423918230452 2:0.19215107400997675 3:0.7186113837931847 4:0.04471419375951254 5:0.3573068357956774 6:0.06631496482981629 7:0.28987635632424125 8:0.7619308151325482 9:0.6119557861493343 10:0.49339553003368486 11:0.16064229775860517 12:0.7341747057175054 13:0.1496187767864071 14:0.7455332546241635 15:0.4123306499116428 16:0.344480225051424 17:0.8235416293495984 18:0.105721925913939 19:0.41930959729266815 
0.0 0.5 0:0.0577330125759607 1:0.2724981496677943 2:0.1993827329090763 3:0.7297147162945596 4:0.044204179977752604 5:0.3757237510077658 6:0.06873004373608094 7:0.2808003272219843 8:0.7255285335713247 9:0.6167887187556742 10:0.47893084719392737 11:0.16656182831155764 12:0.7360536771197534 13:0.1451643490273128 14:0.7127441664027032 15:0.4189011220565766 16:0.34953405926173187 17:0.8311118516401382 18:0.10382641813198999 19:0.3930698586133945 
0.5 0.5 0:0.04918055064822122 1:0.23932583581850517 2:0.17597184450487938 3:0.628542009231548 4:0.03916649282730723 5:0.3205442459398821 6:0.059140267768273413 7:0.3025334037117421 8:0.6279890868239442 9:0.8276295133437973 10:0.3952259251824502 11:0.14416939599360196 12:0.6638187306098818 13:0.19314191733679792 14:0.6130576906087111 15:0.39493983338475713 16:0.775761990290009 17:0.7396403651162835 18:0.09251430703451406 19:0.36469073840512795 
0.0 0.5 0:0.0454320955175988 1:0.22821678788998018 2:0.1656877756701787 3:0.5855121234474872 4:0.0352919080492591 5:0.30503345460346426 6:0.0571009481900571 7:0.253592820480071 8:0.5979205355709926 9:0.5125436775206363 10:0.40367888528705737 11:0.6993622157523229 12:0.6292303182664695 13:0.1211226562176193 14:0.608746355685131 15:0.34804072817031745 16:0.29283284388866737 17:0.6809650439041114 18:0.08572101528356649 19:0.32186090054479966 
0.5 0.5 0:0.05463940226327094 1:0.2704555855083276 2:0.1819708846584544 3:0.750680685033996 4:0.04213547938800085 5:0.3603439138195908 6:0.07494499449944977 7:0.28669586749353504 8:0.7858489809019393 9:0.6332315327352539 10:0.47070652406525654 11:0.14974483966791044 12:0.7275079706460683 13:0.14508457905523264 14:0.7724941724941706 15:0.4349559727529475 16:0.33910752316838233 17:0.8260548205553632 18:0.10408190522581272 19:0.40422597335312277 
0.0 0.2920793065928981 0:0.04918055064822113 1:0.22160425936109568 2:0.8666946621873841 3:0.6063995471718319 4:0.03373338115937104 5:0.3001401692413793 6:0.05620874587458733 7:0.23991617760857598 8:0.5797541191889993 9:0.5232009925558303 10:0.3833095994794262 11:0.13208926803259932 12:0.5849139149514705 13:0.11748915433886523 14:0.5906926406926392 15:0.3477321814254847 16:0.2882160969984661 17:0.6651756779529173 18:0.08623565859803202 19:0.32126604168562756 
0.0 0.5 0:0.054509592274928124 1:0.27096467444776917 2:0.19418169688594505 3:0.6999533090433927 4:0.04174109416918532 5:0.37589278402181014 6:0.06760995248461006 7:0.290756066000819 8:0.7265115739080836 9:0.6000105591045871 10:0.45020014089822824 11:0.17706846788739541 12:0.7415506679242 13:0.17340631361047076 14:0.7741365017960754 15:0.3860116722577075 16:0.35750807451108124 17:0.8373285328791016 18:0.10093693761934446 19:0.38266306989498144 
0.0 0.5 0:0.05514400199239315 1:0.27900100699180835 2:0.1906361648802856 3:0.742571206559308 4:0.04264368429478624 5:0.36929244728290866 6:0.06709361412331695 7:0.2839697342100733 8:0.728217591000449 9:0.6194257355547665 10:0.47412021949211725 11:0.16832965191560637 12:0.763981008021013 13:0.14368290668868694 14:0.7359307359307344 15:0.4089272858171331 16:0.36565549294918653 17:0.817059191715676 18:0.1056891758848364 19:0.4003822699554009 
0.0 0.5 0:0.05563192073873465 1:0.2699117859593794 2:0.19724116868573782 3:0.7329872774528597 4:0.042722711373592674 5:0.36964496526782803 6:0.06676917691769174 7:0.2861175967970438 8:0.6806090515166094 9:0.6284683058876608 10:0.5028090537865432 11:0.16832965191560667 12:0.7004706561896911 13:0.14188834131030684 14:0.7551357733175916 15:0.4150795209110538 16:0.36077742076331504 17:0.8344321245745852 18:0.10847292835853763 19:0.4060604681565815 
0.0 0.5 0:0.054004320179951416 1:0.2743105200886532 2:0.18912529550827406 3:0.7355429918812446 4:0.042597321741886525 5:0.3879053968866104 6:0.06661777288839985 7:0.2889575484398148 8:0.7355676813067267 9:0.6064516129032246 10:0.4977885077850175 11:0.17208791394791825 12:0.7367426333005759 13:0.14152329296837973 14:0.7101106301106286 15:0.41660667146628155 16:0.3550863365464637 17:0.7946213142521327 18:0.10741837742144124 19:0.41777858681471947 
0.5 0.5 0:0.05497361766827403 1:0.2536088974408943 2:0.17140114724501243 3:0.7576316665837296 4:0.04214694265657502 5:0.3493500012789437 6:0.0689290017437117 7:0.2890325531650742 8:0.7224902479046493 9:0.5978021978021978 10:0.527655633487964 11:0.16586431967866735 12:0.6940835914103677 13:0.145418310571077 14:0.7768884177047437 15:0.46652267818574433 16:0.36182272194600185 17:0.8032052964294708 18:0.10918875042320349 19:0.4099000117021411 
0.0 0.5 0:0.05434887514650355 1:0.2623374350990208 2:0.19596864501679717 3:0.7375510532178341 4:0.04194824600129042 5:0.37187757917231173 6:0.06804529659315121 7:0.28987635632424047 8:0.7382404414180992 9:0.6367245657568225 10:0.4806947440179229 11:0.1637276984066531 12:0.7387602906872748 13:0.14469522562008105 14:0.7107812822098521 15:0.41180705543556373 16:0.35833838467037826 17:0.8455819173049266 18:0.10785067780559246 19:0.4087102939837982 
0.5 0.5 0:0.05318798995150488 1:0.26567014947757883 2:0.19484882418813015 3:0.7636558505934993 4:0.042629775528916426 5:0.3727048213769214 6:0.07274660799413273 7:0.28326093955637377 8:0.7542770020863419 9:0.6730521091811413 10:0.49778850778501843 11:0.1605983700205652 12:0.646351582376459 13:0.13651568865441718 14:0.7274805194805191 15:0.4209071274298052 16:0.3607774207633151 17:0.7823755573991494 18:0.1021731327604068 19:0.44135614817511576 
0.0 0.5 0:0.05373445894740715 1:0.26991178595937926 2:0.18706097933421578 3:0.7569471002189845 4:0.04371845256655259 5:0.36964496526782803 6:0.07221972197219724 7:0.2992732551422346 8:0.7140944835937608 9:0.6202120460184974 10:0.46515495877511026 11:0.15734771740560446 12:0.7293598414992467 13:0.14285464574481938 14:0.7263282172373081 15:0.4150795209110538 16:0.3491365666833929 17:0.8671036102495452 18:0.10984842958083689 19:0.40341064232936436 
0.5 0.0 0:0.04946844140276744 1:0.2586982642258837 2:0.1978993705834654 3:0.7752887576468448 4:0.04010173742890505 5:0.3957677635295533 6:0.0651246159098668 7:0.2941535654413967 8:0.7259710900447702 9:0.611671087533156 10:0.4958841627499573 11:0.16666342736926149 12:0.6926672555600986 13:0.12912645860622762 14:0.783281086729362 15:0.4400089372160565 16:0.3713746120636581 17:0.868793514681009 18:0.10171399993861856 19:0.42479199555587593 
0.0 0.5 0:0.054050702579295 1:0.2685862745588164 2:0.18780328480776418 3:0.7469638407330983 4:0.04164399174788606 5:0.3770478429511181 6:0.06620141180784736 7:0.29332188589083863 8:0.7244590220938306 9:0.6102357320099251 10:0.5184982600413061 11:0.16933632924569003 12:0.7393908086206188 13:0.13963363096311082 14:0.6875180375180366 15:0.45104391648668035 16:0.3543749510193576 17:0.8398773721870773 18:0.10451836234442696 19:0.4038522799672336 
0.0 0.5 0:0.054616999315466506 1:0.2707338085333719 2:0.19531758639547944 3:0.7156024758179045 4:0.04421246370104441 5:0.36821029905013647 6:0.06971627395297675 7:0.28891481318937695 8:0.7160969346814317 9:0.6430607651912984 10:0.48237659912917685 11:0.1655203198316528 12:0.7462678530563898 13:0.14227036864488174 14:0.69908386187456 15:0.433170927721131 16:0.3548216349549832 17:0.8426633128260291 18:0.10324282487374846 19:0.3992202200909745 
0.0 0.5 0:0.05617027036325087 1:0.2635000098822393 2:0.18750488293966028 3:0.7499263149433298 4:0.04489172901097055 5:0.4086104997403409 6:0.06832194847391722 7:0.27929938184073266 8:0.7160969346814313 9:0.6177159674534024 10:0.49521985634237875 11:0.16214912133090795 12:0.7364141774469293 13:0.13831526212222578 14:0.7187355280378539 15:0.41066854186548774 16:0.3524393206316502 17:0.8315195502702291 18:0.10535405930797533 19:0.4100660188256314 
0.0 0.5 0:0.05548855695894536 1:0.2794947424552983 2:0.1990792584297623 3:0.707430133168992 4:0.04032555664980018 5:0.37342865830595356 6:0.06795012834616782 7:0.29814562728407484 8:0.6981490397474972 9:0.6589247311827946 10:0.485516062003514 11:0.1667189681874727 12:0.7367426333005759 13:0.14908194098945537 14:0.7664454064454054 15:0.38972882169426315 16:0.3664685049801655 17:0.8212425248020999 18:0.10203863930755955 19:0.3866872971087034 
0.0 0.5 0:0.05395131172355874 1:0.25678291113475815 2:0.19330240494854145 3:0.7074301331689914 4:0.041600526854542505 5:0.36412218350410275 6:0.06661777288839979 7:0.2820008601720175 8:0.6981490397474968 9:0.6237504431052806 10:0.4511093836517972 11:0.2120482102506626 12:0.7034512864200408 13:0.19632349112117906 14:0.7057513914656753 15:0.39164866810655 16:0.34126513201982567 17:0.7885364661264255 18:0.1020866726835763 19:0.38095021388914063 
0.0 0.5 0:0.05691849239236647 1:0.2687048162287857 2:0.19392019228143037 3:0.7245721201886598 4:0.04491658018084588 5:0.36777919934764935 6:0.0672677023799941 7:0.2868510132901556 8:0.7255285335713247 9:0.6433698480905408 10:0.4721959684113948 11:0.1677403773809237 12:0.7257193344073924 13:0.14412733939027494 14:0.7178967374089326 15:0.41595111415476965 16:0.3570296335961208 17:0.8311118516401382 18:0.10604063961178888 19:0.398757289657178 
0.0 0.5 0:0.056230675348442324 1:0.2743105200886534 2:0.19036954087346009 3:0.7589703741414557 4:0.041299170260694344 5:0.37342865830595356 6:0.06750600986024516 7:0.2705813907512942 8:0.7168583605271113 9:0.6468155500413556 10:0.49165228489426577 11:0.17208791394791825 12:0.6896639609442637 13:0.14246812397101416 14:0.7148051948051932 15:0.4246700263978871 16:0.3459806017995023 17:0.8638364616820478 18:0.10741837742144127 19:0.4125967051970502 
0.0 0.5 0:0.0550053170774126 1:0.2870098554984202 2:0.19141123466756982 3:0.7156024758179045 4:0.04183503511630288 5:0.3783103492226876 6:0.06739239815454419 7:0.28314555438019035 8:0.7258866955544858 9:0.6134918344970866 10:0.48237659912917685 11:0.17113898399956085 12:0.8103167445178838 13:0.14227036864488174 14:0.7334742776603245 15:0.3994173489376663 16:0.35005700630831726 17:0.7980882626028283 18:0.10676154893079322 19:0.40193166977463873 
0.0 0.5 0:0.05259598187261063 1:0.2734464830275464 2:0.1870609793342157 3:0.7521551356657592 4:0.04338653883556596 5:0.37951546884554865 6:0.0704028736206954 7:0.3011526349058333 8:0.761930815132548 9:0.6408526956914056 10:0.4620171175241577 11:0.16064229775860517 12:0.7245449772809874 13:0.147686167917382 14:0.6831168831168826 15:0.4150795209110538 16:0.35379290831536175 17:0.8398773721870779 18:0.10640967652508863 19:0.3981109906749297 
0.5 0.5 0:0.04885944172968878 1:0.26297834171028184 2:0.19166164182961473 3:0.7547354242713407 4:0.04073122898767275 5:0.3686958783853542 6:0.10761332543510738 7:0.28669586749353504 8:0.6967998098835824 9:0.5808360374117186 10:0.5131880671550779 11:0.1525325615050648 12:0.7438044341540225 13:0.13036701920650332 14:0.7034299034299017 15:0.40704435952815954 16:0.3272875790256922 17:0.8490924066082188 18:0.09535276285352869 19:0.4176789352451489 
0.0 0.5 0:0.054746438569448344 1:0.2641889430871081 2:0.197301765050925 3:0.7375510532178341 4:0.04194824600129041 5:0.37704784295111765 6:0.0675694553582341 7:0.2820008601720175 8:0.7282175910004488 9:0.6107763204537385 10:0.46754569496631154 11:0.1671791635383681 12:0.733716147220527 13:0.15380609600262768 14:0.7359307359307344 15:0.43196544276457743 16:0.3510212763915698 17:0.805650101479976 18:0.1049686752445844 19:0.41703831801219515 
0.5 0.0 0:0.05422135480329502 1:0.2551060737115853 2:0.19544042764478467 3:0.7167126808570012 4:0.043417851451696826 5:0.3842179257387083 6:0.06523513986618791 7:0.28597575681488563 8:0.7669852199743825 9:0.6487195093403257 10:0.5009145081255908 11:0.1706089213422111 12:0.7338113197387699 13:0.129472240934778 14:0.7020501511067548 15:0.44500590896124537 16:0.34821408390724834 17:0.8466582465724471 18:0.10326938128172611 19:0.41860964330057304 
0.0 0.5 0:0.05683364653990865 1:0.2637260660900866 2:0.19363568495707353 3:0.7206080356903606 4:0.04316526301490814 5:0.38383381416080076 6:0.06911593937171487 7:0.28298529719104587 8:0.7025340368052196 9:0.6632133995037217 10:0.46672387940058613 11:0.15826287861477129 12:0.7173226809535982 13:0.14051941002808063 14:0.7315295815295808 15:0.4107271418286529 16:0.37144820366991044 17:0.8598432800995535 18:0.10577923846486804 19:0.4111393009920808 
0.0 0.5 0:0.0571318191071172 1:0.2641889430871083 2:0.1959686450167971 3:0.7325308998763604 4:0.0447299991752737 5:0.37187757917231173 6:0.06709361412331694 7:0.285938608248129 8:0.703160464956322 9:0.6194257355547668 10:0.4774074817550201 11:0.16717916353836798 12:0.7589368645542655 13:0.1426705877572929 14:0.7258709544423814 15:0.4175665946724249 16:0.3510212763915701 17:0.8398773721870768 18:0.10568917588483635 19:0.4031582779648665 
0.0 0.5 0:0.0546254410059436 1:0.25992242467977705 2:0.19596864501679773 3:0.7196531152177992 4:0.04311234923170748 5:0.35344446483048303 6:0.06473509669807566 7:0.2862810211243135 8:0.7332290162092765 9:0.6248786276836774 10:0.5139961399855922 11:0.18513678647004492 12:0.7622265233369295 13:0.14949273707755778 14:0.7497082627517415 15:0.42858484364729066 16:0.34296185278013025 17:0.7773753995915044 18:0.10509397970375899 19:0.3833641338973731 
0.5 0.5 0:0.051184270299863055 1:0.2703359496075594 2:0.19260918253079534 3:0.6919680608772538 4:0.046718952694671856 5:0.3813908645253153 6:0.07394572790612391 7:0.2865686479403075 8:0.7921633766650608 9:0.6149280397022335 10:0.464652904174958 11:0.15286708812552371 12:0.7438044341540241 13:0.13226394914256207 14:0.744380952380952 15:0.3991360691144703 16:0.37102137235364663 17:0.8638364616820484 18:0.10096269168478339 19:0.4250332210794573 
0.0 0.5 0:0.05335496658914163 1:0.2734464830275465 2:0.183243408327395 3:0.7425712065593093 4:0.041726970180632754 5:0.3795154688455485 6:0.07403657032369906 7:0.2992732551422346 8:0.7140944835937608 9:0.6408526956914056 10:0.47770632377892125 11:0.1628386846606056 12:0.714915248844469 13:0.14285464574481932 14:0.7263282172373081 15:0.4178283919104649 16:0.3584492499473306 17:0.8398773721870779 18:0.10297092346934036 19:0.4087102939837991 
0.0 0.5 0:0.05044075168698969 1:0.28738519410767716 2:0.19015825392465543 3:0.7763862017084828 4:0.04452005553950155 5:0.37602354541003463 6:0.07051428413281578 7:0.27037335877746255 8:0.766985219974382 9:0.5904583547918916 10:0.4983095078417808 11:0.1924899078376115 12:0.7617920401014833 13:0.12786781093030433 14:0.7100220534182796 15:0.40621052202616215 16:0.33854997863335057 17:0.7607671710244406 18:0.10840804622541036 19:0.40761036628193525 
0.0 0.5 0:0.05563192073873463 1:0.26460974035712875 2:0.18578845566527552 3:0.7329872774528594 4:0.042058883911619396 5:0.3647097134789677 6:0.07539920658732548 7:0.2823588372698464 8:0.723661749901518 9:0.6325964358222425 10:0.4839820062808269 11:0.1628386846606056 12:0.7341747057175058 13:0.14671986348286956 14:0.6927194018103103 15:0.3875908109169441 16:0.37241827484323736 17:0.8398773721870784 18:0.10984842958083689 19:0.41400994563823346 
0.5 0.5 0:0.05063252141028057 1:0.2666844538536618 2:0.180145089829106 3:0.7563220613642162 4:0.04533472812613977 5:0.38176851857524596 6:0.06603848790676173 7:0.30605536472391703 8:0.7057751215870159 9:0.6130326896105304 10:0.5290032068379743 11:0.18723767828934948 12:0.7622265233369288 13:0.14024982509526399 14:0.7267457180500662 15:0.4075500046952762 16:0.34518879877802844 17:0.8034178881729936 18:0.10246258606109943 19:0.3884333659146584 
0.029787348421245464 0.5 0:0.053173470243884344 1:0.27175597573407523 2:0.18257948293490472 3:0.751738443095914 4:0.04723962432136749 5:0.3487237892063559 6:0.06864527032413392 7:0.2754950155245299 8:0.7103507706907262 9:0.6011867515373838 10:0.4569692859465388 11:0.23765908195266366 12:0.762226523336929 13:0.1411741162934934 14:0.6991906644080563 15:0.3996619400882712 16:0.3362810147864359 17:0.8398773721870789 18:0.09851549559711013 19:0.3808295178887306 
0.49573044241796843 0.0 0:0.04952131929645963 1:0.22504277419611593 2:0.8969993372488984 3:0.5941181006042995 4:0.03320559316877165 5:0.2939543179345945 6:0.05424590078055425 7:0.23502915097840243 8:0.5807385062835916 9:0.519957461892946 10:0.3783200049732355 11:0.13036353546674218 12:0.5903183543801303 13:0.11418104068805991 14:0.5828783461436523 15:0.34557235421166277 16:0.2970140486194148 17:0.6565169933990396 18:0.08201558341941331 19:0.3194814651081147 
0.0 0.5 0:0.05474643856944838 1:0.26567014947757844 2:0.18414831404753 3:0.7074301331689914 4:0.04065009452009822 5:0.3637774992521825 6:0.06883836531801317 7:0.28344470113325854 8:0.7402450115016297 9:0.614524400330851 10:0.485516062003514 11:0.1677927573395619 12:0.7414505005362072 13:0.14435778597628307 14:0.7523617123617108 15:0.4166066714662815 16:0.36419207129342496 17:0.8744849459020341 18:0.11212564827108777 19:0.399642001152877 
0.0 0.5 0:0.055117497764196874 1:0.27603859421086835 2:0.20778897598606433 3:0.7355429918812444 4:0.04065009452009824 5:0.37101586854251095 6:0.06839424683209049 7:0.2871199326709627 8:0.7075037001373046 9:0.618560794044664 10:0.4517668361043778 11:0.17101412479582911 12:0.7320347660649448 13:0.13963363096311074 14:0.7288888888888877 15:0.44348452123829957 16:0.36419207129342523 17:0.8212425248021 18:0.10472850836450039 19:0.4022329419617115 
0.0 0.5 0:0.07073571659770128 1:0.27273954361391256 2:0.21582001425226496 3:0.7483215640231788 4:0.04292185961218461 5:0.38198309473997794 6:0.07630763076307619 7:0.25905452820122243 8:0.7695846281787524 9:0.6185607940446636 10:0.44256250176825007 11:0.1555906078840039 12:0.7649898367143635 13:0.13473768849491383 14:0.6840771349862247 15:0.41343019831140665 16:0.32632049268674485 17:0.7854248960621443 18:0.09733136845791307 19:0.38645175703517287 
0.0 0.5 0:0.05554156541533795 1:0.26048592711093327 2:0.18663680477790193 3:0.7275107465348866 4:0.04194824600129042 5:0.37187757917231173 6:0.07661043882165978 7:0.28200086017201753 8:0.728217591000449 9:0.6151010280042527 10:0.47083295722921426 11:0.16487818678389138 12:0.7438044341540223 13:0.144695225620081 14:0.7158111729540286 15:0.42620590352771637 16:0.36321645685625026 17:0.8227637368335263 18:0.10640967652508844 19:0.4059342859743323 
0.013150904965916508 0.5 0:0.05252008340095759 1:0.26567014947757894 2:0.1858902575587908 3:0.6666664880362259 4:0.04409019594525765 5:0.3922484184608077 6:0.09193252658599188 7:0.2865686479403074 8:0.6953426416305563 9:0.618560794044665 10:0.4618916038741197 11:0.15673272907304442 12:0.7056707095454116 13:0.14161777606864331 14:0.7781818181818179 15:0.4039740820734337 16:0.3423383079007184 17:0.8494610079850667 18:0.10398879437384187 19:0.3993829070719941 
0.0 0.5 0:0.05655858812519694 1:0.26711690920780556 2:0.19010911742493336 3:0.7106990702285579 4:0.04319356573615519 5:0.3707353115932743 6:0.06925149879329022 7:0.28891481318937695 8:0.7552559781736478 9:0.6557331640602466 10:0.47595497052257607 11:0.16889151833239766 12:0.7314873396421988 13:0.14622547516753764 14:0.7383871942011482 15:0.40223014716962163 16:0.3524393206316502 17:0.837091431548129 18:0.10113159043952163 19:0.3992202200909745 
0.0 0.5 0:0.05563192073873465 1:0.2681444374252957 2:0.19087855034103648 3:0.7904908520915592 4:0.04172697018063275 5:0.3770478429511184 6:0.06767760109344266 7:0.2879969765606424 8:0.6949599509782457 9:0.6078276562147528 10:0.49339553003368514 11:0.15844591085660473 12:0.7534341625905427 13:0.14382095017933186 14:0.7503345139708772 15:0.4095817789122319 16:0.3607774207633152 17:0.7908701436746383 18:0.1070974271362383 19:0.41930959729266837 
0.0 0.5 0:0.055781952601304786 1:0.2815845065100708 2:0.19010911742493336 3:0.7156024758179045 4:0.04387283104608134 5:0.385885386852101 6:0.06785717331423069 7:0.27929938184073255 8:0.755255978173648 9:0.6177159674534026 10:0.4695333419159752 11:0.1643965869980712 12:0.7216336640327384 13:0.14128159201421772 14:0.748213027282795 15:0.43035812948917557 16:0.3452923776616515 17:0.8370914315481289 18:0.1053540593079753 19:0.3992202200909745 
0.0 0.5 0:0.0567342556841724 1:0.2734464830275458 2:0.19196928491441348 3:0.7375510532178343 4:0.04299140344153417 5:0.37187757917231173 6:0.06947282029790264 7:0.28987635632424047 8:0.7282175910004482 9:0.6107763204537384 10:0.4675456949663115 11:0.16717916353836804 12:0.7236278602870316 13:0.14874450134565734 14:0.7158111729540284 15:0.42044636429085536 16:0.35589934857744226 17:0.8284682819513767 18:0.10424817460433236 19:0.4031582779648667 
0.5 0.5 0:0.047165315366397544 1:0.27746872451890875 2:0.1785921149167858 3:0.7280300727426264 4:0.043626890158004576 5:0.36019991443052624 6:0.07580643121783437 7:0.27847046534515957 8:0.7005683484689997 9:0.6711730983143662 10:0.48160157498700057 11:0.1724952132814694 12:0.725541156084765 13:0.1254611659235938 14:0.7650694133452755 15:0.43375288597601785 16:0.3713746120636582 17:0.8522700046844764 18:0.10432270915332421 19:0.4288124209488957 
0.0 0.5 0:0.05525242838046913 1:0.2752138315616299 2:0.19724116868573777 3:0.7042354901335093 4:0.04338653883556596 5:0.3597744616901076 6:0.06767760109344266 7:0.2861175967970438 8:0.7140944835937608 9:0.6449808256259872 10:0.4933955300336847 11:0.16064229775860517 12:0.7486192983722831 13:0.15445029895896983 14:0.6927194018103103 15:0.3985862949145879 16:0.3491365666833929 17:0.8126511341246121 18:0.10916067896968727 19:0.4246092489471027 
0.0 0.12475173956997175 0:0.05245460236659009 1:0.2833574963755436 2:0.19102825900797027 3:0.6908931574559015 4:0.04137553211252916 5:0.35895191972529666 6:0.06661777288839979 7:0.28420136644984456 8:0.7435466563450909 9:0.6171361844986119 10:0.5232357850672537 11:0.17354068750662696 12:0.7458814344050361 13:0.1504713983462708 14:0.7338596044478379 15:0.44111294625841535 16:0.34571278607165035 17:0.8469241632150092 18:0.09721269776422445 19:0.40528110761916375 
0.5 0.0 0:0.05522013115848903 1:0.2626919791818462 2:0.194181696885945 3:0.7089254979941115 4:0.042362549665500744 5:0.37358266616319474 6:0.06633429300376835 7:0.3083502595323811 8:0.7668162277152314 9:0.5961459268254042 10:0.47663812250200055 11:0.15445035596041215 12:0.7821184600610217 13:0.14083979820051648 14:0.7022197660495518 15:0.401452139148016 16:0.3814832803607933 17:0.8730122831907603 18:0.10544389907113368 19:0.40746994997956915 
0.0 0.5 0:0.05345204602962825 1:0.26169156021945617 2:0.19401546915284293 3:0.7352160981752901 4:0.043533198391118265 5:0.3707353115932742 6:0.07436402554984185 7:0.27737629557100374 8:0.7160969346814317 9:0.6346124992786665 10:0.47595497052257607 11:0.16664405266523438 12:0.736414177446929 13:0.14029281538355373 14:0.7138226114970305 15:0.41910693656135395 16:0.36196857792498194 17:0.8315195502702291 18:0.10465031449656637 19:0.4209118175602881 
0.0 0.5 0:0.056230675348442324 1:0.2691262977220083 2:0.19410227696901813 3:0.7261720389771604 4:0.04357093535278069 5:0.3734286583059535 6:0.06750600986024516 7:0.2797694695955545 8:0.7262130209169183 9:0.6306699751861035 10:0.47324361622201 11:0.16886654649165098 12:0.7461583677718381 13:0.14813710998682095 14:0.7570562770562757 15:0.40854331653467607 16:0.35053346917298295 17:0.8159182826921068 18:0.10540097562873563 19:0.39964200115287685 
0.0 0.5 0:0.055144001992393187 1:0.27529799101563324 2:0.19596864501679714 3:0.7275107465348866 4:0.04438228002852578 5:0.37187757917231173 6:0.06852113782806837 7:0.2879074822861848 8:0.7232061657916232 9:0.6194257355547665 10:0.47412021949211713 11:0.1591257448976998 12:0.7438044341540225 13:0.14267058775729283 14:0.7158111729540284 15:0.42908567314614704 16:0.3583383846703783 17:0.8284682819513762 18:0.10713017716534044 19:0.4003822699554009 
0.0 0.5 0:0.056946905887143046 1:0.26892535887058877 2:0.19010911742493336 3:0.7106990702285578 4:0.04115576980637673 5:0.3707353115932743 6:0.07018104911266326 7:0.2927609857288348 8:0.7699406194832289 9:0.6303883663223504 10:0.48237659912917685 11:0.1599016556637447 12:0.6969994750090868 13:0.14523669853687363 14:0.7285613611195013 15:0.4303581294891757 16:0.36673320657164776 17:0.8203757877144288 18:0.10535405930797533 19:0.3992202200909745 
0.0 0.5 0:0.07688349280160242 1:0.26460974035712864 2:0.18833350300315607 3:0.6994435255802843 4:0.04073122898767281 5:0.3573068357956774 6:0.06631496482981628 7:0.28423821703344504 8:0.709310850439882 9:0.6243401759530794 10:0.4745684825279685 11:0.1694278453666069 12:0.7486192983722835 13:0.14285464574481932 14:0.7167256985438804 15:0.43981935990575266 16:0.34448022505142395 17:0.8017606388996252 18:0.09884441980244242 19:0.38486186153884305 
0.0 0.5 0:0.052377975624245315 1:0.2742737525541383 2:0.18226870934692996 3:0.7134115924694714 4:0.04111963867286989 5:0.37127254830457945 6:0.06633429300376835 7:0.2784401305287254 8:0.7489030482453878 9:0.6541154110131456 10:0.4531376944097588 11:0.22230469174136172 12:0.7235205380856121 13:0.1390305473444078 14:0.6932301740812369 15:0.39630531685124654 16:0.35750807451108124 17:0.8220354970312482 18:0.10158078925531432 19:0.4297961420556977 
0.5 0.0 0:0.05462544100594361 1:0.26668445385366174 2:0.19718584156969707 3:0.7884073892423316 4:0.04025500493886598 5:0.35344446483048286 6:0.06647295164299044 7:0.2754950155245299 8:0.7378046653129865 9:0.6485705038299716 10:0.5169975533560686 11:0.14837117963221164 12:0.7576210010412033 13:0.14024982509526399 14:0.7175607001693967 15:0.45487839233730826 16:0.35632352876751916 17:0.8294603767544834 18:0.10246258606109943 19:0.4188487580183698 
0.5 0.0 0:0.056440404458517716 1:0.26330343926671923 2:0.17771069672330728 3:0.7242367334861017 4:0.043429831930912106 5:0.42189426138032654 6:0.07342437142264957 7:0.2862810211243136 8:0.7423803144166964 9:0.6130326896105304 10:0.46297211268749155 11:0.1599260846383878 12:0.7622265233369292 13:0.14117411629349338 14:0.7497082627517413 15:0.41280871443328016 16:0.3451887987780283 17:0.8450858699033765 18:0.09917334400777501 19:0.4061756779751567 
0.0 0.5 0:0.04950795582005802 1:0.26810978353247006 2:0.19432184968052146 3:0.7198328649538086 4:0.04481181544509675 5:0.3695965804463679 6:0.06387468812240683 7:0.29230849484183885 8:0.7518007684537442 9:0.652751423149904 10:0.47992127054429856 11:0.1564863892087413 12:0.7292654323969263 13:0.1588081424871632 14:0.7131482896188762 15:0.3865667217210845 16:0.355755875866093 17:0.8375284418444323 18:0.11501330181750952 19:0.4167117288346109 
0.0 0.5 0:0.054228681553520425 1:0.26711690920780556 2:0.19531758639547941 3:0.7254092869965972 4:0.04217466777126596 5:0.37578533667954983 6:0.06599807267548463 7:0.286991726919648 8:0.7063071738083772 9:0.6177159674534026 10:0.4823765991291769 11:0.1655203198316528 12:0.7610483664705806 13:0.1521581349515215 14:0.7334742776603248 15:0.43317092772113097 16:0.3548216349549832 17:0.8203757877144287 18:0.10465031449656637 19:0.40735456914196716 
0.0 0.5 0:0.05500531707741259 1:0.25445776156832356 2:0.19531758639547944 3:0.7303126925859438 4:0.0428539330811921 5:0.3656852865069987 6:0.06646284783517116 7:0.286991726919648 8:0.6965174129353233 9:0.6050435685844544 10:0.4663225276126745 11:0.1599016556637447 12:0.7117799884232777 13:0.2015969664847207 14:0.6892580287929131 15:0.4134813400974432 16:0.3524393206316502 17:0.8036601438807285 18:0.10465031449656638 19:0.40735456914196716 
0.5 0.5 0:0.05415432283314763 1:0.25441928391592333 2:0.18226870934692993 3:0.6820089311419539 4:0.04111963867286989 5:0.35741184115288654 6:0.0999266593325999 7:0.2872372272945066 8:0.7354681636430053 9:0.6077398236629528 10:0.4502001408982288 11:0.1657594119239038 12:0.7099979407066713 13:0.14083979820051648 14:0.6842405821129213 15:0.3937319057028618 16:0.3509693820066141 17:0.8475238901110047 18:0.109307008886953 19:0.4223540780303213 
0.0 0.5 0:0.05904735196312411 1:0.2663770888912121 2:0.20105873969255855 3:0.7952828166447845 4:0.04139505644964609 5:0.3597744616901074 6:0.0681318131813181 7:0.28987635632424125 8:0.709310850439882 9:0.6408526956914056 10:0.48084416502987415 11:0.16723145846460655 12:0.690840927753173 13:0.14768616791738207 14:0.7215269578905938 15:0.41507952091105355 16:0.35146473749937723 17:0.8072058865121187 18:0.10365867408048998 19:0.4007608165021469 
0.0 0.5 0:0.05613791054975525 1:0.2621059966005101 2:0.1924692049272117 3:0.7250006698641505 4:0.042861008761503734 5:0.37252386214466304 6:0.07203046693558234 7:0.30021294502403356 8:0.7551540014978859 9:0.6329404466501236 10:0.4782292973207461 11:0.16027623327493823 12:0.7084954298867897 13:0.15114875880771855 14:0.722727272727272 15:0.41576673866090624 16:0.3437041681127623 17:0.8099285103183647 18:0.10956186682619119 19:0.38442022390097313 
0.0 0.5 0:0.05531438631651247 1:0.25678291113475865 2:0.18854126196951357 3:0.7361167236916999 4:0.0409547627248679 5:0.3781557566180053 6:0.06729754608113865 7:0.292407765801741 8:0.7525587991576012 9:0.6163366587329715 10:0.5107497132787493 11:0.16093365520478883 12:0.7719075191830465 13:0.14455060862988217 14:0.7122183938510462 15:0.3850663375501381 16:0.3639133243113755 17:0.8178741267325129 18:0.10671846251376796 19:0.43369436606899026 
0.0 0.5 0:0.05610397220877224 1:0.2649114827897772 2:0.19392019228143037 3:0.7142869279768598 4:0.04349177977465932 5:0.37307556712106027 6:0.06970493797347216 7:0.28281722257804137 8:0.7255285335713247 9:0.6389396598680631 10:0.48229828658519375 11:0.1653832792421915 12:0.7360536771197534 13:0.14412733939027494 14:0.7436595924400804 15:0.4189011220565766 16:0.3570296335961208 17:0.8311118516401382 18:0.1045644919585896 19:0.3959135741352863 
0.0 0.5 0:0.048871334652597485 1:0.27488654479605856 2:0.20530048525569253 3:0.7347620791392386 4:0.0419482460012905 5:0.3509092871804883 6:0.06143639055263555 7:0.31131520696084836 8:0.7761045429958922 9:0.653542872897712 10:0.45585765136488 11:0.16922447620901426 12:0.7673437703321798 13:0.14120834930083498 14:0.7359307359307357 15:0.42332613390928664 16:0.3721595891970166 17:0.760013740537177 18:0.10865123407253933 19:0.40871029398379866 
0.5 0.5 0:0.05126775861868134 1:0.29126724741288845 2:0.19363568495707353 3:0.6986448648214133 4:0.046207805548952395 5:0.3702618717414353 6:0.06245416208287484 7:0.3002129450240338 8:0.7551540014978857 9:0.6518610421836221 10:0.4609711704405062 11:0.1562495239546041 12:0.7614589362876403 13:0.13343317750832204 14:0.7183261183261178 15:0.45608351331893354 16:0.362911577344634 17:0.7999455563621268 18:0.10893142876597062 19:0.3989942659506682 
0.0 0.5 0:0.055939128838282795 1:0.2697434670513708 2:0.19196928491441348 3:0.762651819925203 4:0.04403456088177789 5:0.36670731539350565 6:0.06804529659315121 7:0.2957829784384078 8:0.7332290162092738 9:0.6280751506557944 10:0.47412021949211725 11:0.16948014029284458 12:0.7488485776207703 13:0.14368290668868697 14:0.7208410636982049 15:0.4060475161987027 16:0.34858224029863394 17:0.8170591917156761 18:0.10568917588483641 19:0.3920542459270036 
0.5 0.5 0:0.05548855695894536 1:0.26567014947757844 2:0.18414831404753002 3:0.7402284683332867 4:0.04357093535278071 5:0.37584144806939657 6:0.06439718045878648 7:0.2889575484398145 8:0.7449223416965335 9:0.6629611248966074 10:0.47017550477663395 11:0.16457138988329453 12:0.6990796954155265 13:0.14530261697891758 14:0.7429725829725815 15:0.42467002639788687 16:0.35736277023320395 17:0.8478637353520674 18:0.10472850836450043 19:0.41259670519705016 
0.5 0.0 0:0.05487293602220364 1:0.24870360355037674 2:0.19469612134785735 3:0.7042354901335093 4:0.0443822800285259 5:0.3647097134789677 6:0.0681318131813181 7:0.2842382170334452 8:0.7284453830553969 9:0.6573652154297321 10:0.4651549587751104 11:0.16283868466060553 12:0.738989569935765 13:0.1496187767864071 14:0.7455332546241635 15:0.4123306499116428 16:0.35612107913134605 17:0.8671036102495449 18:0.105721925913939 19:0.41665977146545063 
0.5 0.0 0:0.052331053245142325 1:0.24630267723992397 2:0.17536816750829318 3:0.7525167933678902 4:0.04148899429803861 5:0.3596347847526872 6:0.06221848599954334 7:0.2922167160298548 8:0.8384689455946069 9:0.6213024954351797 10:0.4852845064227319 11:0.1596684280945107 12:0.7498003028031778 13:0.15032983099293526 14:0.7419096626643802 15:0.44044174579241196 16:0.38300486289327984 17:0.8692611611903447 18:0.10041456742412382 19:0.4120100770893904 
0.0 0.5 0:0.07232958450241651 1:0.2734464830275463 2:0.18197088465845473 3:0.7281953128996342 4:0.041063142718659455 5:0.3795154688455484 6:0.0681318131813181 7:0.28611759679704385 8:0.723661749901518 9:0.6202120460184979 10:0.45574143502225206 11:0.1628386846606056 12:0.7245449772809871 13:0.14478725461384445 14:0.7359307359307357 15:0.40133516591399904 16:0.3584492499473306 17:0.7854248960621452 18:0.10365867408049 19:0.3954611648477125 
0.0 0.5 0:0.06354054148498754 1:0.29522021696745543 2:0.1802911534154537 3:0.7088357761046057 4:0.04146143919584346 5:0.3813908645253153 6:0.06874954162082875 7:0.27664552278850657 8:0.691133044455143 9:0.5749677419354842 10:0.4756981053783116 11:0.16446401096808594 12:0.6844853069850715 13:0.1467198634828695 14:0.7739567099567094 15:0.45235421166306633 16:0.36897258203558025 17:0.8159182826921078 18:0.0961209273822899 19:0.41803768089560367 
0.0 0.5 0:0.057351747809171814 1:0.2643465182350309 2:0.19060780062424051 3:0.7448142537969881 4:0.04298400516181616 5:0.36665231258734865 6:0.06760995248461005 7:0.28547780794135036 8:0.7399464585104657 9:0.642521514175597 10:0.4854507830365911 11:0.15856273994713643 12:0.7505657328434938 13:0.1480768016249508 14:0.7201989499861833 15:0.41174578374155496 16:0.357508074511081 17:0.842426211495053 18:0.10286849252725416 19:0.40250857396265144 
0.5 0.5 0:0.0591991489064302 1:0.28840097062363734 2:0.17486432939960364 3:0.750680685033996 4:0.04179845929192213 5:0.3578383244498616 6:0.05872612902315858 7:0.26125195684789165 8:0.6733232102514706 9:0.7051880129795751 10:0.5169052021754377 11:0.15829385330185058 12:0.7389154951016367 13:0.14377635151312343 14:0.7733066933066918 15:0.41123110151187775 16:0.3773253425630808 17:0.8933245718297035 18:0.10431468235574029 19:0.39525733209177205 
0.0 0.5 0:0.053840363791574336 1:0.25807466089388986 2:0.19531758639547941 3:0.7156024758179045 4:0.04285393308119211 5:0.3656852865069987 6:0.06739239815454418 7:0.27737629557100374 8:0.7160969346814317 9:0.6092677015407705 10:0.47916578482587635 11:0.22283069434431518 12:0.7216336640327381 13:0.14622547516753762 14:0.7039967784153837 15:0.41348134009744325 16:0.357203949278316 17:0.8036601438807285 18:0.1032428248737485 19:0.3883744213563177 
0.19934068238775787 0.5 0:0.05845703051693324 1:0.2570297788665033 2:0.20032350379494826 3:0.7261720389771604 4:0.04486908683397289 5:0.3758414480693964 6:0.06928248380393584 7:0.28711993267096253 8:0.6841170491627862 9:0.6791066997518603 10:0.4763117276673858 11:0.16027623327493817 12:0.7226190315936827 13:0.13868879996047623 14:0.7335834535834521 15:0.4327333813294924 16:0.3550863365464638 17:0.8212425248020999 18:0.10203863930755955 19:0.3996420011528768 
0.0 0.5 0:0.056170270363250854 1:0.27254225819615496 2:0.19792182088075252 3:0.7254092869965973 4:0.04217466777126596 5:0.3757853366795498 6:0.07064582427234975 7:0.2908378994591059 8:0.6965174129353233 9:0.6515090311039304 10:0.4695333419159752 11:0.16664405266523447 12:0.7413410152516595 13:0.1442479219062097 14:0.69908386187456 15:0.4022301471696216 16:0.36911552089498056 17:0.88166648177133 18:0.1004278456281127 19:0.39108587103998194 
0.5 0.5 0:0.048008784770068175 1:0.2673072723302036 2:0.19253059861299418 3:0.7481197970946223 4:0.042716888325680664 5:0.353237417653986 6:0.08660310475491997 7:0.3022077252994326 8:0.7461532180636143 9:0.6064516129032266 10:0.4367492379770127 11:0.15688532016307827 12:0.7159289044693663 13:0.14187138860092954 14:0.7896711475658844 15:0.3904361335303701 16:0.39582251830918624 17:0.8125556034647438 18:0.10561333371217854 19:0.3831417991597727 
0.0 0.5 0:0.05474643856944843 1:0.25875785298871834 2:0.19534652233420421 3:0.7589703741414556 4:0.045518162574568984 5:0.38790539688661013 6:0.06617365440247715 7:0.28895754843981464 8:0.749599671891437 9:0.6225971877584773 10:0.45790305899512995 11:0.16779275733956184 12:0.7461583677718383 13:0.15097160299472434 14:0.6913323713323697 15:0.4112311015118778 16:0.35963920391994453 17:0.7786485879221524 18:0.10405604110026523 19:0.4151876460058847 
0.0 0.5 0:0.05563192073873463 1:0.2575403462207944 2:0.19596864501679748 3:0.7234033483464093 4:0.04305462510457932 5:0.3745802170566883 6:0.06722338900556718 7:0.2786000777426491 8:0.6901763178243668 9:0.6325964358222425 10:0.4620171175241577 11:0.17601700607260817 12:0.714915248844469 13:0.14865247235189455 14:0.7359307359307357 15:0.4343216179069307 16:0.3561210791313463 17:0.8398773721870784 18:0.1070974271362383 19:0.4140099456382334 
0.003224594318595303 0.0 0:0.04404280795170365 1:0.20914218636435292 2:0.9432336979929369 3:0.556053201641475 4:0.033990827066097865 5:0.2997921707178059 6:0.053806662717553674 7:0.21354462438730998 8:0.5470352949890728 9:0.5074823439587697 10:0.39105363077184163 11:0.16740041130322145 12:0.5604692196895394 13:0.11319653271631921 14:0.573426573426572 15:0.3279614553912598 16:0.28394778383582814 17:0.646361649343085 18:0.08196807788269322 19:0.3145395607396145 
0.5 0.5 0:0.05449344366393814 1:0.26991178595937926 2:0.18197088465845473 3:0.7713229938786594 4:0.04239079764260605 5:0.3647097134789678 6:0.06858602526919359 7:0.28987635632424114 8:0.7045272172860034 9:0.6408526956914057 10:0.5028090537865431 11:0.15844591085660467 12:0.7438044341540241 13:0.14188834131030684 14:0.7311294765840219 15:0.406832907912821 16:0.37009010402725295 17:0.8507678674120646 18:0.10297092346934036 19:0.419309597292668 
0.5 0.5 0:0.053430865060794655 1:0.2529452400321771 2:0.16593708642980737 3:0.7674894222360779 4:0.041328673703448705 5:0.3365787782824638 6:0.09011567823449002 7:0.28311058917528525 8:0.6892195911935902 9:0.6218632979923291 10:0.5254015107934019 11:0.17755447690400816 12:0.7649898367143629 13:0.13782986268535394 14:0.7071231798504511 15:0.4178283919104641 16:0.34122078590904514 17:0.855124065502058 18:0.10448397481386944 19:0.3928113390204944 
0.0 0.5 0:0.05974437874361166 1:0.26789195906328345 2:0.24910300066275123 3:0.6758748835940146 4:0.04393521255413569 5:0.3648607926153613 6:0.07463909656271737 7:0.2721564899817392 8:0.6924216966516977 9:0.5829746290575782 10:0.4515789925464982 11:0.17276724994209727 12:0.7070542460391479 13:0.13153507951195828 14:0.7079070589274665 15:0.42949706880592325 16:0.35136971011913276 17:0.7885364661264268 18:0.10177788669489705 19:0.4241766243222503 
0.0 0.5 0:0.05400432017995142 1:0.2656701494775783 2:0.2675127535149931 3:0.7402284683332871 4:0.044220011093376796 5:0.3637774992521825 6:0.07949720898015714 7:0.27609423805785044 8:0.6794397189678824 9:0.5903060380479725 10:0.47324361622201 11:0.16027623327493812 12:0.7132032971224205 13:0.13396464494730378 14:0.7194997594997581 15:0.39779217662586897 16:0.33232199967906034 17:0.7946213142521327 18:0.10405604110026521 19:0.39705106034404203 
0.0 0.5 0:0.05308851450780622 1:0.27758283066050754 2:0.18822520311643748 3:0.686495025617314 4:0.04205182191734305 5:0.37127254830457945 6:0.07398824988881862 7:0.3241850337107869 8:0.7309898687755441 9:0.6425215141755976 10:0.4678254619674099 11:0.16473131592722287 12:0.728028070545259 13:0.1417444236285707 14:0.738178133922814 15:0.46064059556086456 16:0.36622633118370357 17:0.7914494253355409 18:0.09771767943949497 19:0.3727403178611466 
0.0 0.5 0:0.05655858812519696 1:0.26892535887058877 2:0.18880700018229682 3:0.720505881407251 4:0.04319356573615519 5:0.350535211248172 6:0.06692762299485767 7:0.28122246811046153 8:0.7307815759910128 9:0.6430607651912984 10:0.47274415621927557 11:0.17001525116597924 12:0.75119469086112 13:0.14227036864488174 14:0.7383871942011482 15:0.42191973479330935 16:0.37149783521831353 17:0.825947668992329 18:0.10605780411938427 19:0.40735456914196705 
0.0 0.5 0:0.05353646293439915 1:0.27175597573407523 2:0.20570621743999257 3:0.7425712065593101 4:0.04152493573568445 5:0.3770478429511188 6:0.06647295164299045 7:0.27909035072445776 8:0.6920481742758859 9:0.6130326896105307 10:0.48998483302178025 11:0.16832965191560678 12:0.7023547334924892 13:0.14209840749172273 14:0.8094108789760969 15:0.41543806930228183 16:0.34741574477592646 17:0.8138348836055896 18:0.10114688923976962 19:0.4441949181047961 
0.0 0.5 0:0.05569671211697511 1:0.2687048162287857 2:0.18982328681069593 3:0.7297147162945596 4:0.043135579673112684 5:0.3995574059881151 6:0.0672677023799941 7:0.28483411793409846 8:0.7101275682954227 9:0.6300792834231075 10:0.4924006047589927 11:0.16302618110345937 12:0.7463880198321146 13:0.14412733939027494 14:0.7282018794213918 15:0.40415108254754223 16:0.3645252079305097 17:0.8427992123693921 18:0.10530256578518923 19:0.39022614309150283 
0.5 0.5 0:0.054318293344738595 1:0.24652840535458134 2:0.17228012748729413 3:0.7790638596954054 4:0.04494398018865704 5:0.356167931536709 6:0.06879566161744369 7:0.288286111908888 8:0.789896670493683 9:0.6227524336705469 10:0.48663710272393973 11:0.16089572701652802 12:0.7030632753841374 13:0.1418140101999594 14:0.7928071928071911 15:0.3814587140721038 16:0.41002718802452354 17:0.8398773721870767 18:0.10640967652508837 19:0.3930151717764341 
0.0 0.5 0:0.05335496658914164 1:0.2699117859593793 2:0.19851369235467814 3:0.7569471002189844 4:0.042390797642606004 5:0.37211259116225814 6:0.06676917691769171 7:0.28987635632424114 8:0.723661749901518 9:0.6408526956914055 10:0.46829280002606305 11:0.16613326501360623 12:0.7293598414992465 13:0.14092203687579427 14:0.74073199527745 15:0.4370704889063415 16:0.35844924994733074 17:0.8289868769620918 18:0.10640967652508868 19:0.39016151319327774 
0.0 0.5 0:0.05437537937469994 1:0.2691262977220084 2:0.191613786238646 3:0.7027446567169496 4:0.044869086833972886 5:0.3637774992521825 6:0.06839424683209047 7:0.2816070853644065 8:0.7121810303322078 9:0.6548883374689816 10:0.4640392818858819 11:0.16994033564374003 12:0.7979449073637815 13:0.1434129549736486 14:0.7101106301106288 15:0.41660667146628166 16:0.3528099028597233 17:0.8105940405821128 18:0.10809084468567648 19:0.4125967051970504 
0.0 0.5 0:0.05789237522057698 1:0.2717559757340754 2:0.18623107259360283 3:0.7196531152177994 4:0.04279486653250287 5:0.34636345139429225 6:0.06734187911544787 7:0.2898763563242413 8:0.7378046653129865 9:0.6327759197324423 10:0.4959876597627329 11:0.17463232737352105 12:0.7345933895625724 13:0.15134131947401644 14:0.6945981554677215 15:0.4206967790402856 16:0.36745825875700977 17:0.8242518790381859 18:0.10443613129309408 19:0.3858987499060156 
0.39906425050825395 0.5 0:0.05585961615369386 1:0.26567014947757833 2:0.24127048763107004 3:0.7444879923805979 4:0.048763541277549526 5:0.35237158400681673 6:0.06540654065406526 7:0.30265613871671154 8:0.6739119651011788 9:0.6152582900969987 10:0.4576241397728231 11:0.1722831483392071 12:0.7495822712159341 13:0.14401421106623416 14:0.6917591499409669 15:0.41782839191046406 16:0.320732882728382 17:0.7810686979721494 18:0.10723497725846806 19:0.3843318963733991 
0.070792750301899 0.5 0:0.051184270299863055 1:0.2889991501274814 2:0.17917133258678636 3:0.7636558505934993 4:0.045550616361598885 5:0.34230367035754256 6:0.07674367436743672 7:0.2931840647081749 8:0.758486599261755 9:0.6003970223325065 10:0.4453238020690894 11:0.1760609338106482 12:0.6760111459609351 13:0.13736603655678822 14:0.7232554112554112 15:0.4330021598272133 16:0.3669237917175141 17:0.8398773721870781 18:0.10519923544946526 19:0.40171475379994503 
0.0 0.5 0:0.07225368603076326 1:0.2586007553412441 2:0.1954596355492211 3:0.7713229938786581 4:0.040266549764291455 5:0.3286823754202875 6:0.05741240790745728 7:0.29363511585143803 8:0.7542770020863407 9:0.6383758177306552 10:0.4701755047766336 11:0.17491881262160763 12:0.7187671402190751 13:0.14092203687579408 14:0.7877843368752446 15:0.41123110151187775 16:0.35612107913134555 17:0.7854248960621438 18:0.10778517774738776 19:0.37161273240275605 
0.0 0.5 0:0.05563192073873465 1:0.2893526198342983 2:0.19851369235467803 3:0.7090274546867346 4:0.04338653883556597 5:0.3597744616901075 6:0.0681318131813181 7:0.2842382170334451 8:0.6949599509782457 9:0.6284683058876609 10:0.4839820062808266 11:0.16723145846460646 12:0.7293598414992465 13:0.14382095017933189 14:0.7263282172373081 15:0.4123306499116429 16:0.36077742076331504 17:0.8398773721870784 18:0.10365867408048998 19:0.4113601198110162 
0.5 0.0 0:0.05345204602962825 1:0.2562662112311067 2:0.18099429672647765 3:0.7254092869965973 4:0.04183503511630288 5:0.3783103492226876 6:0.06878672363360373 7:0.28891481318937695 8:0.7454662173005936 9:0.6430607651912986 10:0.4727441562192755 11:0.1599016556637447 12:0.780755717689502 13:0.14227036864488168 14:0.7433001107419717 15:0.42191973479330946 16:0.3548216349549831 17:0.8315195502702291 18:0.11028027298783796 19:0.4182003678766239 
0.0 0.5 0:0.05245460236659009 1:0.27420886866969946 2:0.19541971323803856 3:0.6908931574559014 4:0.04309367377881297 5:0.3866280376000815 6:0.06505029587926098 7:0.3052799002690296 8:0.7229113760734571 9:0.6278207560939999 10:0.47992127054429873 11:0.18396275868866824 12:0.7874214394253108 13:0.12962953799403976 14:0.7380018674136303 15:0.41502562147969185 16:0.36981620157831274 17:0.790549834991549 18:0.10373958591709566 19:0.3938504864037167 
0.05856712343574817 0.5 0:0.0599849213188387 1:0.2650602409638553 2:0.1954197132380385 3:0.7611753042365338 4:0.046529957111380534 5:0.3887569697442959 6:0.06269908036555275 7:0.3020370489122321 8:0.7518007684537442 9:0.5957670413078371 10:0.5015785278057762 11:0.16785592140733172 12:0.7334194328989535 13:0.13713260772084293 14:0.7172905525846686 15:0.41265404649980825 16:0.355755875866093 17:0.771758392250396 18:0.10195952551176715 19:0.3847059894313589 
0.0 0.5 0:0.054746438569448365 1:0.2678919590632833 2:0.18796992481202984 3:0.7325308998763604 4:0.045077718322021634 5:0.3641221835041026 6:0.08374805734541693 7:0.2741253640197945 8:0.6981490397474968 9:0.6194257355547668 10:0.4806947440179228 11:0.163727698406653 12:0.7387602906872746 13:0.13963363096311068 14:0.7158111729540284 15:0.41180705543556384 16:0.35102127639157 17:0.8341728270692266 18:0.10352767396408034 19:0.4059342859743321 
0.0 0.5 0:0.0819210678319108 1:0.2711593261010848 2:0.1899303954504532 3:0.695027401384174 4:0.040516461279387246 5:0.35895191972529666 6:0.0811169352229339 7:0.28420136644984456 8:0.7187843200191304 9:0.6349438038242582 10:0.46367832759819055 11:0.1631186163245857 12:0.7001874288827337 13:0.12962953799403978 14:0.6924369747899142 15:0.38893829670096836 16:0.34571278607165024 17:0.7905498349915493 18:0.1013661720433243 19:0.3847059894313591 
0.0 0.5 0:0.05488219193338088 1:0.26301481607027294 2:0.19528582743834186 3:0.7142869279768598 4:0.04349177977465932 5:0.36513101546094384 6:0.06775514949868972 7:0.27878343186592713 8:0.6998602581114878 9:0.6256490952006297 10:0.46546108962886207 11:0.22077508550239755 12:0.7257193344073924 13:0.14101631047916144 14:0.7075915953964734 15:0.41005109835115594 16:0.3545311088179911 17:0.8194244909108844 18:0.10161219665219112 19:0.3959135741352863 
0.0 0.5 0:0.05088439388941325 1:0.2821750206856729 2:0.18282789039467987 3:0.7102987922212631 4:0.041252807707794666 5:0.3626449652815876 6:0.06607395433420885 7:0.29072015948340774 8:0.7568543064794515 9:0.6571124727806748 10:0.44594368581009364 11:0.20728190125924686 12:0.7373191068396333 13:0.1410798008651023 14:0.7380864033925253 15:0.3900030854674477 16:0.376456938503618 17:0.827653346934542 18:0.10795360646848574 19:0.3765879155885524 
0.0 0.5 0:0.057195429254788495 1:0.26722541618757234 2:0.19036954087346042 3:0.7130527049114438 4:0.042629775528916426 5:0.38790539688661085 6:0.06954895489548953 7:0.28987635632424114 8:0.7037618359813829 9:0.6367245657568238 10:0.45636900327244295 11:0.1702624723893671 12:0.6802482264730032 13:0.14586951558049846 14:0.7486060606060605 15:0.454773218142548 16:0.3505334691729837 17:0.8350855542880844 18:0.10519923544946526 19:0.39005552016018924 
0.5 0.5 0:0.052733245066025766 1:0.28916460403279953 2:0.19179909937814202 3:0.758272537223067 4:0.04174109416918532 5:0.37127254830457945 6:0.06633429300376835 7:0.2995531627665999 8:0.7085983944382394 9:0.6541154110131454 10:0.4913258900596515 11:0.16473131592722282 12:0.687460278408437 13:0.13088891849191928 14:0.6977249700653947 15:0.42718625063186333 16:0.3749445878563264 17:0.8271331756471998 18:0.1067316023430735 19:0.42235407803032127 
0.0 0.5 0:0.053269774427082035 1:0.26154393167555523 2:0.20111067943414768 3:0.6887838493292329 4:0.041252807707794666 5:0.382587411285553 6:0.07545482439400392 7:0.30590861634840893 8:0.7525587991576008 9:0.6348711196637458 10:0.48539083296492735 11:0.16290592099434026 12:0.6854364883245148 13:0.14715371445346687 14:0.7553317430868444 15:0.39493983338475697 16:0.34300730065763774 17:0.7689780257223695 18:0.10671846251376797 19:0.4265560597589354 
0.0 0.5 0:0.054616999315466506 1:0.26892535887058877 2:0.19141123466756985 3:0.7352160981752904 4:0.04421246370104441 5:0.36063526142072305 6:0.06739239815454418 7:0.28122246811046153 8:0.7307815759910128 9:0.6219401004097185 10:0.4791657848258765 11:0.1643965869980712 12:0.7314873396421988 13:0.1432591452755457 14:0.7531259438236187 15:0.42191973479330935 16:0.3500570063083174 17:0.8482351941039291 18:0.11028027298783792 19:0.404643119458303 
0.0 0.5 0:0.054228681553520425 1:0.2707338085333719 2:0.18750488293966028 3:0.7352160981752904 4:0.044552096356007494 5:0.37578533667954983 6:0.0850538542226316 7:0.28122246811046153 8:0.7160969346814317 9:0.6177159674534024 10:0.45669008470277334 11:0.15877792283016312 12:0.7216336640327384 13:0.14622547516753762 14:0.7236484445786776 15:0.4078557436335325 16:0.35243932063165023 17:0.8482351941039293 18:0.1032428248737485 19:0.38566297167265357 
0.0 0.5 0:0.05752938253006216 1:0.2649939465601904 2:0.1886654656994015 3:0.7425712065593101 4:0.04279486653250288 5:0.38176851857524574 6:0.06690741537921915 7:0.30605536472391676 8:0.7011994724833058 9:0.6446218578055892 10:0.477979179539874 11:0.1704305437349116 12:0.7622265233369295 13:0.14671986348286964 14:0.6670431018257111 15:0.42332613390928725 16:0.34296185278013025 17:0.8242518790381853 18:0.10706752493575356 19:0.38843336591465855 
0.5 0.5 0:0.05014387740381815 1:0.2614828929506728 2:0.1852011370488412 3:0.7141880318978984 4:0.04325887970826332 5:0.4041917277898488 6:0.08609066034808588 7:0.29623733398565155 8:0.6644182931496344 9:0.6052872685627017 10:0.4919472956101671 11:0.1571787645669888 12:0.7478785500310109 13:0.14263165241377773 14:0.7684315684315668 15:0.4256521016780182 16:0.35486744869196934 17:0.7984097172919352 18:0.10466384805063163 19:0.37732004956907017 
0.0 0.5 0:0.05434887514650355 1:0.2623374350990207 2:0.19463552498266923 3:0.7224905931934125 4:0.0443822800285258 5:0.3744627110617148 6:0.0699486615328198 7:0.2898763563242406 8:0.7081718901651474 9:0.6367245657568225 10:0.47083295722921426 11:0.16832965191560637 12:0.7538927210875177 13:0.1457075445514751 14:0.7208410636982049 15:0.41180705543556373 16:0.35833838467037826 17:0.8284682819513766 18:0.10640967652508844 19:0.3976062619459352 
0.5 0.5 0:0.0461988249761351 1:0.28455553095607106 2:0.18397056470964637 3:0.7764572416142564 4:0.048033331069378876 5:0.3518428070294389 6:0.06745049504950483 7:0.3016896005525753 8:0.7332290162092744 9:0.6107763204537391 10:0.4815165595836489 11:0.17436971589610756 12:0.7211057885536586 13:0.1414051890930504 14:0.7510204081632639 15:0.40388768898488037 16:0.34980175834510224 17:0.8441557810254647 18:0.1042481746043325 19:0.4170383180121952 
0.5 0.0 0:0.0516542786132111 1:0.29792753309225867 2:0.17523122226369722 3:0.7933305347897662 4:0.045734521154767775 5:0.35895191972529733 6:0.06698787162666878 7:0.26996885216167743 8:0.7215356907220164 9:0.7006341328921976 10:0.4558576513648803 11:0.1692244762090141 12:0.7241883206722273 13:0.13648419428766262 14:0.7672278338944996 15:0.4188464922806174 16:0.34749822425732974 17:0.9108672669869904 18:0.09744344633528582 19:0.39359647259892966 
0.0 0.5 0:0.05539363483935869 1:0.2635000098822393 2:0.18490064845438722 3:0.7499263149433296 4:0.04489172901097057 5:0.3606352614207231 6:0.06878672363360372 7:0.3004533308077502 8:0.7209918151179586 9:0.6303883663223506 10:0.46311171330937423 11:0.17113898399956085 12:0.7314873396421991 13:0.14029281538355373 14:0.7236484445786776 15:0.42473253302526476 16:0.3429100633383186 17:0.8148039064365288 18:0.109576528176429 19:0.4182003678766239 
0.0 0.5 0:0.05569671211697511 1:0.2668081495092815 2:0.19528582743834186 3:0.7348573124004597 4:0.043135579673112684 5:0.3863164865545877 6:0.06824259661738533 7:0.2808003272219843 8:0.7255285335713247 9:0.6256490952006297 10:0.47556340780266104 11:0.16302618110345937 12:0.7257193344073924 13:0.14412733939027494 14:0.723049308415162 15:0.4218511299583835 16:0.36202668315238007 17:0.8252681712755112 18:0.10751678726498812 19:0.40160100517906966 
0.18003177408587873 0.5 0:0.05343681788210079 1:0.38399240113982885 2:0.1833432141053508 3:0.7156986210255362 4:0.04710267100014181 5:0.3525651232926542 6:0.0760226349432327 7:0.2712299610226538 8:0.7311654881821106 9:0.5779594219821912 10:0.4690926419135599 11:0.1659609993742333 12:0.691879427878679 13:0.1379662821349322 14:0.6468720821661985 15:0.41739719645957596 16:0.3457127860716504 17:0.8187369991032796 18:0.10255287898020998 19:0.39842273488989544 
0.41387289512004505 0.0 0:0.04732525467447883 1:0.2633660506479586 2:0.20322674298038268 3:0.7152392605890627 4:0.04654586583051287 5:0.3891117917683321 6:0.0640270817205177 7:0.27609423805785094 8:0.6903534894226585 9:0.6569065343258895 10:0.4865387658186398 11:0.16117105756834602 12:0.7359579887613048 13:0.14120834930083498 14:0.7398428731762059 15:0.39644828413726835 16:0.3778506734138675 17:0.8975566617120071 18:0.10753045529881394 19:0.4195058806872766 
0.0 0.5 0:0.05525242838046913 1:0.2628423918230452 2:0.18706097933421578 3:0.7425712065593093 4:0.044050366297539265 5:0.3770478429511184 6:0.06904023735706903 7:0.28047945750624775 8:0.7236617499015182 9:0.6408526956914056 10:0.4714306412770159 11:0.16613326501360628 12:0.714915248844469 13:0.1467198634828695 14:0.71672569854388 15:0.4123306499116428 16:0.36543376239528397 17:0.8779941054745318 18:0.10159542224704106 19:0.4140099456382337 
0.5 0.5 0:0.05664120892561088 1:0.27592829160732296 2:0.18703390436253603 3:0.7762169151245051 4:0.044537643902604666 5:0.3782029018804259 6:0.06633429300376836 7:0.2626053563503195 8:0.780251112317615 9:0.6463861464547802 10:0.4619503549443495 11:0.16884369991394704 12:0.7235205380856121 13:0.14083979820051654 14:0.760652113843602 15:0.38086484996093817 16:0.37276502368817077 17:0.8628169259588574 18:0.09900538271143476 19:0.39506650993727516 
0.0 0.5 0:0.0546169993154665 1:0.25807466089388986 2:0.19141123466756985 3:0.7254092869965972 4:0.04217466777126596 5:0.3707353115932742 6:0.06832194847391722 7:0.286991726919648 8:0.7356764564275396 9:0.6346124992786665 10:0.47274415621927557 11:0.16889151833239766 12:0.7413410152516595 13:0.14622547516753762 14:0.7285613611195011 15:0.42473253302526487 16:0.3548216349549831 17:0.825947668992329 18:0.10816903855361108 19:0.4127774685092955 
0.5 0.0 0:0.045006134707300686 1:0.2853269926177741 2:0.18896976483762587 3:0.7308575154292026 4:0.03829719496043739 5:0.35744392612314513 6:0.0646747545124882 7:0.31284655343489115 8:0.8150822946200883 9:0.6796112489660872 10:0.49165228489426577 11:0.16967188835571786 12:0.8968101193120371 13:0.1278232434301798 14:0.6860509860509847 15:0.38972882169426337 16:0.33943585495012396 17:0.8498603261433144 18:0.11019230488641156 19:0.40061360395618995 
0.0 0.5 0:0.053173470243884316 1:0.2734464830275465 2:0.1850138760407035 3:0.7242367334861014 4:0.04311234923170749 5:0.3676064917028644 6:0.07385883515887824 7:0.2844833535243497 8:0.7240777180018564 9:0.6248786276836775 10:0.501990486503686 11:0.17568277328317344 12:0.6839326443095849 13:0.1670542698439158 14:0.7037831733483914 15:0.41280871443328 16:0.3318271227906394 17:0.8502943676196749 18:0.10377828288242924 19:0.3833641338973731 
