svm_type c_svc
kernel_type linear
nr_class 3
total_sv 2669
rho -0.9995710492978037 -0.43568856292299407 0.9008721052425307
label 0 1 2
nr_sv 1198 438 1033
SV
0.20180954141893254 0.5 7:0.7499999258770598 8:1.0 9:1.0 1252:1.0 1307:1.0 
0.5 0.5 10:0.6666666318134509 
0.0 0.4165045357689066 11:1.0 12:1.0 13:0.7499999667185768 14:1.0 15:0.7499999849166861 
0.0 0.44446110883677425 16:0.6666666156172476 17:1.0 18:0.7499999744477468 
0.11402837015095482 0.5 19:0.7499999744477468 20:0.7500000082333496 1142:0.6249999840298416 
0.0 0.5 
0.12948634896658115 0.5 21:0.6666667219851456 22:0.749999971815481 23:0.7499999517019847 
0.1368105993018777 0.5 24:1.0 25:1.0 1371:0.6000000182077282 1458:1.0 1552:1.0 
0.5 0.5 26:0.75 
0.0 0.2657877609419237 4:0.7499999913915719 27:0.75 28:1.0 29:1.0 30:1.0 31:0.6666666831953793 32:0.7499999831897232 33:0.6249999841724521 
0.0 0.36953596834235375 47:1.0 48:0.749999957357466 49:0.6666666212404403 
0.0 0.0649929585304022 50:1.0 
0.35489499362299853 0.36987563259843526 27:0.75 51:1.0 52:0.7499999258770598 53:1.0 1186:1.0 
0.013953503529074679 0.15519209750226154 54:1.0 
0.0 0.5 55:1.0 
0.0 0.032994065529176324 56:1.0 57:0.3749999872238734 58:0.5000000175338026 59:0.5000000139477667 60:0.7500000108981141 61:0.5 62:0.5 63:0.37499999269393924 64:0.5 
0.0 0.23089412950954888 65:1.0 
0.0 0.5 
0.0 0.3778016806584422 37:0.7499999843830788 66:1.0 
0.0 0.5 
0.3200570170811685 0.0 80:1.0 81:1.0 82:1.0 83:1.0 84:1.0 85:1.0 86:1.0 87:1.0 
0.0 0.2093299200171906 33:0.6249999841724521 91:0.75 92:0.749999947606072 93:0.7499999930269495 94:0.7499999999999999 95:0.7499999490728025 
0.5 0.5 96:0.7499999827045217 
9.054388109980223E-4 0.2440610500327019 26:0.75 99:0.75 100:1.0 101:1.0 102:0.6666666542093518 103:0.6666666389032518 104:0.7500000313712354 
0.0 0.2074098258207113 34:0.8999999877285241 63:0.7499999853878785 104:0.37499999477146073 106:0.5000000145308189 107:0.500000018966383 108:1.0 109:0.5 110:0.5000000175338026 111:0.5 112:0.5 113:0.31249998770934023 114:0.5 115:0.5000000150177637 116:0.3124999890013461 117:0.5 118:0.49999998418299285 119:0.37500001211871026 1123:0.5 1496:0.5000000150177637 
0.16235144153567804 0.0 125:1.0 126:1.0 127:0.7499999310719352 128:1.0 129:1.0 130:1.0 131:1.0 1197:0.749999989101886 
0.0 0.3367502326362925 21:0.888888962646861 26:0.5 27:0.5 132:0.6666666932794574 133:0.5 134:0.6666667325537312 135:0.6666666666666666 136:0.6666667229034084 
0.0 0.5 137:0.5714285872600368 
0.07944401354275632 0.16239330351441003 138:1.0 1334:1.0 1388:1.0 
0.3067734780215204 0.5 3:1.0 139:1.0 
0.027182885841113898 0.5 140:0.8571428185221934 
0.0 0.33916799378965856 68:0.249999993209707 137:0.19047619575334557 140:0.9523809325754836 145:0.33333335193035557 146:0.33333335335701836 
0.0 0.5 147:0.625 
0.5 0.5 116:0.6249999842876374 127:0.7499999310719352 148:1.0 149:0.7499999353905796 
0.5 0.0 89:0.749999947606072 160:1.0 
0.01869662042414382 0.0 117:1.0 127:0.7499999310719352 161:1.0 162:1.0 163:0.5833333423403122 164:0.7499999849166861 
0.5 0.5 35:1.0 
0.0 0.09498998836468817 113:0.4166666393540895 170:1.0 
0.40147040469617695 0.5 171:0.6666666914597351 172:0.4000000509243793 173:0.4999999857752137 174:0.4999999857752137 175:1.0 176:0.6666666763538792 177:0.5 1468:0.6666666666666666 
0.0 0.48490860848393924 0:1.0 173:0.749999950213248 
0.5 0.5 27:0.75 102:0.6666666542093518 181:0.75 182:0.6250000245571607 
0.0 0.5 137:0.5714285872600368 
0.5 0.5 21:0.888888962646861 42:0.4166666384845411 183:0.5 1135:0.6666667067140367 1261:0.6666666666666667 
0.0 0.2769175457328859 193:0.75 194:1.0 
0.0 0.5 
0.0 0.4717298857738527 195:0.7499999605489461 
0.2643541091995793 0.0 193:0.75 198:1.0 199:1.0 
0.0 0.4417558008704039 200:1.0 201:1.0 1281:1.0 
0.0 0.44734950062223666 56:0.6666666486584345 127:0.7499999310719352 202:1.0 203:1.0 
0.0 0.38430493112074265 204:1.0 
0.299990682924528 0.0043442187005644185 13:0.7499999667185768 70:0.6666666666666666 73:0.7499999605503075 86:1.0 102:0.6666666542093518 151:0.7500000310287149 192:0.7499999849166861 207:0.7499999855133391 208:0.66666665685672 209:0.6666666897584188 210:0.7499999913915719 211:1.0 1149:1.0 
0.0 0.5 221:0.7499999517019847 
0.16835631064585638 0.0 26:0.75 222:0.7500000082333496 223:1.0 224:1.0 225:1.0 
0.0 0.10928292678996812 226:1.0 227:1.0 
0.0 0.5 
0.5 0.5 21:0.6666667219851456 228:0.7499999999999999 229:1.0 
0.42901510244095387 0.2988183510149141 230:1.0 231:1.0 232:0.75 233:0.7499999929561327 234:1.0 235:1.0 
0.3034119867914269 0.0 160:1.0 236:0.7499999931763969 237:0.749999950213248 238:1.0 1494:1.0 
0.3009462669936994 0.0 12:1.0 
0.2649323098824059 0.5 240:1.0 241:0.7499999605489461 
0.17742124500041717 0.26510179386494576 62:0.6666666666666666 73:0.5 210:0.49999998278314395 248:1.0 249:0.6666666893797814 250:0.5 251:0.6666666666666666 252:0.6666666666666667 
0.5 0.5 258:0.75 1140:1.0 
0.0 0.5 18:0.7499999744477468 261:0.5714285714285714 
0.039081787386409356 0.0 195:0.7499999605489461 264:0.7499999931763969 1288:1.0 
0.0 0.2820753580133202 196:1.0 197:1.0 
0.009428971544639907 0.12642576935257793 195:0.7499999605489461 257:0.749999959740633 262:1.0 263:1.0 264:0.7499999931763969 
0.0668204808511043 0.0 127:0.5 193:1.0 195:0.5 264:0.5000000136472064 279:1.0 280:0.6666666763538792 281:1.0 282:0.6666666666666666 283:0.6666667432408011 284:0.6666666763538792 285:0.5 1275:0.6666667067140367 
0.0 0.5 193:0.75 279:0.749999989101886 281:0.749999971841694 286:1.0 287:0.7499999794694833 288:1.0 
0.05001075541486162 0.5 289:1.0 290:1.0 
0.05193912197790871 0.0 21:0.4444444813234305 195:1.0 257:0.49999998389625316 262:0.6666666666666666 263:0.6666667078414262 264:0.5000000136472064 265:0.6666666911989934 266:1.0 267:0.6666666914597351 268:1.0 269:0.6666667325537312 270:0.6666667012489245 271:0.5000000129683464 
0.1977435894548443 0.0 14:0.6666667432408011 102:0.44444443613956774 113:0.833333278708179 297:0.6666666763538792 298:0.44444446190731357 299:0.4999999685647382 300:0.44444445522742226 301:0.6666667038607111 302:0.5 303:0.6666667432408011 1163:0.6666666666666666 
0.5 0.0 16:0.1666666539043119 54:0.2500000034069672 102:0.33333331963028684 117:0.25000000984366777 127:0.7499999310719352 129:0.24999999654177424 137:1.0 294:0.5 320:0.18749999807377063 321:0.1562499951844267 322:0.25 323:0.25000000150177637 324:0.562499950961086 325:0.37499998953917557 326:0.25000000726540944 
0.0 0.5 
0.02017076639044435 0.5 302:0.7499999849166861 327:1.0 328:1.0 329:1.0 
0.3657435115605922 0.09264125453762694 22:0.749999971815481 117:1.0 288:1.0 330:1.0 
0.5 0.5 331:0.6666666832906886 
0.34765781645894117 0.0 85:1.0 335:0.7499999258770598 336:1.0 337:1.0 
0.24578548666416156 0.5 339:1.0 340:1.0 
0.05738739626378287 0.28741970549759704 21:0.4444444813234305 27:1.0 42:0.4166666384845411 69:0.6666667078414262 220:0.666666680074057 346:1.0 
0.37287677162971594 0.0 1:0.7499999874279919 21:0.6666667219851456 113:0.6249999754186805 225:1.0 244:0.749999984282369 347:1.0 348:0.7499999831897232 349:1.0 
0.2686960806434371 0.0 350:0.7499999874279919 351:1.0 
0.0 0.5 
0.5 0.5 352:1.0 353:0.7499999652534504 354:1.0 355:0.7499999853878785 356:1.0 357:0.749999950213248 
0.4007170790437311 0.0 358:0.7500000133234768 359:1.0 
0.0 0.4404511434902284 360:1.0 361:1.0 
0.45193694340479795 0.35771623951447157 21:0.4444444813234305 42:0.4166666384845411 44:0.6666666796552194 56:0.44444443243895626 169:0.6666666666666666 172:0.4000000509243793 362:0.5000000189195478 363:1.0 364:0.6666666763538792 1175:0.6666667325537312 
0.5 0.5 12:1.0 21:0.6666667219851456 177:0.7499999744477468 180:0.7499999931763969 365:1.0 1128:1.0 1251:1.0 
0.004558846922393334 0.5 366:1.0 
0.0 0.5 0:1.0 21:0.6666667219851456 116:0.6249999842876374 132:1.0 149:0.7499999353905796 
0.0 0.16705366662345814 26:0.75 149:0.7499999353905796 368:1.0 
0.0 0.5 15:0.7499999849166861 21:0.6666667219851456 27:0.75 317:0.7500000094919149 346:0.749999971841694 369:1.0 370:1.0 
0.0 0.5 60:1.0 372:1.0 1279:0.6666666763538792 
0.0 0.15831213963369287 151:0.7500000310287149 225:1.0 
0.11213364700551613 0.0 221:0.7499999517019847 373:0.75 374:0.7499999853878785 375:1.0 376:1.0 
0.3484802408509376 0.15776768137208189 77:0.6666666790921765 208:0.66666665685672 239:1.0 380:1.0 383:0.7499999907042749 384:1.0 385:1.0 386:1.0 387:1.0 388:1.0 1206:1.0 1585:1.0 
0.3920895548954514 0.5 227:1.0 331:0.6666666832906886 
0.0 0.5 34:0.6000000122714759 174:0.749999950213248 
0.2426629789762537 0.5 393:1.0 394:1.0 395:0.7499999805474805 396:1.0 397:1.0 
0.0 0.16216650605639982 398:0.3333333236461207 399:0.3333333333333333 400:0.3333333662768656 401:0.22222221949640827 402:1.0 
0.04102994986566445 0.0 96:0.7499999827045217 408:1.0 
0.0 0.5 98:0.6249999837636127 
0.0 0.017410988461547382 167:1.0 409:0.7499999930269495 
0.05135319755929822 0.5 76:1.0 414:1.0 415:1.0 416:1.0 417:1.0 
0.09133398029765499 0.09770587619238288 1:1.0 73:0.5 82:0.6666667067140367 96:1.0 116:0.41666668761648357 127:0.5 233:1.0 259:0.5 261:0.3809523986014228 287:0.5 319:0.6666666893797814 362:0.5000000189195478 383:0.50000001859145 384:0.6666667325537312 419:0.6666667432408011 421:0.6666666387242112 422:1.0 423:0.6666666763538792 424:0.6666667325537312 425:1.0 426:0.5 427:0.6666667012489245 428:0.6666667012489245 429:0.6666666666666667 430:0.5 431:0.6666667325537312 1242:0.6666666666666666 1342:1.0 1394:0.6666666666666666 1478:0.5 
0.0 0.19898253468700525 178:1.0 432:1.0 433:1.0 
0.09669871763134821 0.21710593261174355 257:0.749999959740633 351:1.0 434:1.0 435:0.666666684803841 436:1.0 
0.1136029305103098 0.39401522520788923 13:0.7499999667185768 104:0.7500000313712354 437:1.0 438:1.0 1280:1.0 
0.3847765079355776 0.5 440:1.0 
0.0 0.5 70:0.6666666666666666 78:0.7499999931763969 389:1.0 441:1.0 442:1.0 
0.5 0.41240038091976633 136:1.0 148:1.0 292:0.7499999853878785 377:1.0 426:0.7500000196650568 
0.0 0.5 445:0.6666666842707168 
0.0 0.09929004416994507 20:0.7500000082333496 178:1.0 446:1.0 447:1.0 448:1.0 449:1.0 450:1.0 
0.1959188274229591 0.0 98:0.6249999837636127 232:0.75 244:0.749999984282369 362:0.7499999716206784 451:1.0 452:1.0 
0.4314120182569157 0.0 151:1.0 179:0.6666666911989934 204:0.6666666796552194 225:0.6666666666666666 450:0.6666666666666666 453:0.5000000140877345 454:0.6666666666666667 
0.0 0.5 33:0.6249999841724521 91:0.75 92:0.749999947606072 93:0.7499999930269495 94:0.7499999999999999 95:0.7499999490728025 
0.0 0.5 
0.0 0.494608686732261 174:0.749999950213248 367:1.0 
0.0 0.5 455:1.0 
0.0 0.5 
0.0 0.1905012067212794 21:0.6666667219851456 247:0.75 444:1.0 452:1.0 456:1.0 1439:1.0 
0.5 0.5 96:0.7499999827045217 102:0.6666666542093518 373:0.75 460:1.0 461:0.7499999744477468 
0.0 0.5 90:0.7499999258770598 
0.0 3.686982950691322E-4 247:0.75 462:0.75 463:1.0 
0.5 0.5 426:0.7500000196650568 465:1.0 
0.0 0.21443507576040016 73:0.7499999605503075 216:1.0 328:1.0 358:0.7500000133234768 1469:1.0 
0.0 0.5 5:1.0 57:0.7499999744477468 64:1.0 102:0.6666666542093518 133:0.7499999657252442 287:0.7499999794694833 292:0.7499999853878785 335:0.7499999258770598 374:0.7499999853878785 453:0.7499999929561327 
0.0 0.5 
0.0 0.1584160983292927 471:1.0 472:1.0 473:0.7499999536783984 474:1.0 
0.0 0.3806761545264647 285:0.7500000133234768 475:1.0 476:0.6 477:1.0 
0.0 0.18164949529866306 478:1.0 479:1.0 480:1.0 
0.16055779082741556 0.0 475:1.0 481:0.7499999353905796 
0.20836199178427495 0.0 21:0.6666667219851456 42:0.6249999577268117 62:1.0 113:0.6249999754186805 133:0.7499999657252442 220:1.0 225:1.0 427:1.0 463:1.0 482:1.0 483:1.0 1218:1.0 
0.0 0.5 70:0.6666666666666666 113:0.6249999754186805 137:0.5714285872600368 259:0.7499999693935204 357:0.749999950213248 484:0.6666666309136275 485:1.0 1476:1.0 
0.0 0.12634852201570063 247:0.5 430:1.0 462:0.5 488:1.0 489:0.6666666666666666 
0.0164582436274251 0.5 208:0.66666665685672 447:1.0 
0.0 0.5 6:0.6000000208484583 495:0.6000000570371266 
0.1181428436350254 0.10649529212769748 5:1.0 320:0.7499999922950825 500:1.0 
0.0 0.1834500266160197 27:0.75 317:0.7500000094919149 495:0.6000000570371266 
0.378078275798311 0.5 16:0.6666666156172476 434:1.0 
0.0 0.26103314832317315 501:1.0 502:0.7499999805474805 
0.0 0.5 21:0.6666667219851456 258:0.75 410:1.0 1282:1.0 
0.0 0.12476140796187424 185:1.0 238:1.0 503:0.7499999363445339 
0.0 0.5 137:0.5714285872600368 240:1.0 315:1.0 504:1.0 505:1.0 
0.0 5.000676196486325E-4 104:0.500000020914157 127:0.5 137:0.38095239150669113 164:0.5 165:0.6666667067140367 204:0.6666666796552194 283:0.6666667432408011 413:1.0 454:0.6666666666666667 506:0.7333333333333333 507:0.6666666919551772 
0.0 0.5 77:0.6666666790921765 421:1.0 508:1.0 509:1.0 
0.0 0.28141172548123516 132:1.0 137:0.5714285872600368 513:1.0 
0.25052854596235036 0.5 324:0.749999957357466 514:1.0 
0.0 0.5 
0.3307881183617674 0.1960706719260141 98:0.6249999837636127 232:0.75 265:1.0 515:1.0 
0.1623043803963406 0.021704137736217027 238:1.0 299:0.749999984282369 516:1.0 517:1.0 1352:1.0 
0.0 0.5 222:0.3000000032933398 469:0.40000004208112633 521:0.9599999717172374 
0.0 0.5 21:0.6666667219851456 522:0.7499999605489461 
0.0 0.4229079643421415 484:0.6666666309136275 523:1.0 
0.0 0.5 270:0.6666667012489245 332:1.0 369:0.6666666914597351 524:0.6666666763538792 
0.12765582049154311 0.0 26:0.75 102:0.6666666542093518 178:1.0 247:0.75 339:1.0 525:0.7499999838035099 
0.0 0.5 283:1.0 413:0.7499999839904373 526:0.5208333209348749 1161:0.5208333274648943 
0.0 0.5 527:1.0 
0.5 0.5 419:1.0 
0.38740788781402663 0.5 362:0.5000000189195478 481:1.0 529:0.6666667325537312 1459:0.5 1460:0.5 1528:0.6666666763538792 
0.0 0.5 
0.4740240001253665 0.5 8:0.6666666911989934 530:1.0 531:0.6666667038607111 
0.4660199968070178 0.0 70:0.6666666666666666 81:1.0 259:0.7499999693935204 534:1.0 
0.0 0.5 98:0.6249999837636127 143:0.7499999605489461 147:0.625 
0.0 0.06496618316308324 10:0.6666666318134509 259:0.7499999693935204 486:1.0 538:1.0 
0.0234530577232059 0.362124968471996 46:1.0 271:0.7499999805474805 292:0.7499999853878785 332:0.7499999444267639 362:0.7499999716206784 421:1.0 534:1.0 539:1.0 540:1.0 541:0.749999989101886 
0.0 0.4776231328780001 15:0.7499999849166861 27:0.75 209:0.6666666897584188 317:0.7500000094919149 370:1.0 
0.16121647625093827 0.0 542:1.0 543:1.0 544:1.0 
0.0 0.5 4:0.49999998278314395 27:0.5 137:0.7619047830133823 303:0.6666667432408011 551:0.5000000139461008 
0.0 0.5 375:1.0 
0.2646545789776585 0.34908356576065797 552:1.0 553:1.0 
0.0 0.16997792039987625 437:1.0 
0.0 0.5 
0.0 0.5 34:0.6000000122714759 39:0.6250000108582975 78:0.7499999931763969 104:0.7500000313712354 389:1.0 481:0.7499999353905796 554:1.0 555:1.0 556:0.749999960458543 
0.0 0.06421927136069558 519:1.0 
0.22363952006800206 0.5 188:0.7499999353905796 236:0.7499999931763969 330:1.0 354:1.0 558:1.0 1205:1.0 
0.0 0.5 39:0.6250000108582975 104:0.7500000313712354 559:1.0 560:0.749999971841694 561:0.6249999978206614 
0.5 0.0 232:0.75 317:0.7500000094919149 332:0.7499999444267639 562:0.749999955623067 
0.0 0.4102470223445842 188:0.7499999353905796 316:1.0 491:1.0 563:1.0 
0.5 0.5 208:0.66666665685672 509:1.0 
0.037328658657431124 0.0 150:1.0 226:1.0 356:1.0 391:0.7499999716206784 534:1.0 564:1.0 565:1.0 
0.0 0.1224702336482998 42:0.8333332769690822 73:0.5 287:0.5 313:0.6666666666666666 385:0.6666666928609704 517:0.6666667038607111 569:0.6666666666666666 570:0.6666666917115283 571:0.5 572:0.6666666548235765 
0.1404853094593095 0.42102700660984194 10:0.6666666318134509 245:0.7499999999999999 1405:1.0 
0.37816118497705614 0.0 4:0.7499999913915719 361:1.0 551:0.7499999930269495 
0.5 0.5 68:0.7499999490728025 1134:1.0 1169:1.0 
0.14963935180658416 0.13624545012978942 32:0.7499999831897232 204:1.0 453:0.7499999929561327 521:0.6000000000000001 573:0.7499999536783984 574:1.0 575:1.0 576:0.7499999705314095 577:1.0 1421:1.0 
0.5 0.5 429:1.0 578:1.0 
0.5 0.5 21:0.6666667219851456 580:1.0 
0.0 0.5 261:0.5714285714285714 267:1.0 
0.07261153045303122 0.5 43:0.4444444565776283 316:0.6666666390855879 331:0.4444444887751695 392:0.7619047509599537 412:0.5 526:0.34722222812625 530:0.49999998310650146 579:0.6666666548235765 583:1.0 584:0.6666666938724274 585:0.500000016466699 586:0.6666666932794574 1324:0.8888888973971254 1325:0.6666666919551772 1340:0.6666667432408011 1362:1.0 1363:0.6666667325537312 1364:0.5 1365:1.0 1366:0.6666667012489245 1367:1.0 1368:0.6666666917115283 1369:0.6666666919551772 1370:0.6666666917115283 1467:1.0 
0.31185903736537984 0.5 27:0.0625 42:0.05208332981056764 238:0.08333333478914733 317:0.06249999952540425 587:1.0 588:0.05000000260605728 
0.0 0.5 342:0.7499999874279919 589:1.0 590:1.0 
0.0 0.5 21:0.6666667219851456 
0.0 0.0638815291173844 21:0.4444444813234305 294:0.6666666778417852 348:0.5 547:1.0 556:0.5000000158165828 594:0.6666667078414262 595:0.6666667012489245 
0.5 0.5 148:1.0 172:0.6000000254621896 484:0.6666666309136275 
0.20438278339282803 0.0 117:1.0 355:0.7499999853878785 522:0.7499999605489461 596:1.0 
0.028502959555330876 0.010406886803387918 21:0.6666667219851456 43:0.6666666666666667 62:1.0 68:0.7499999490728025 96:0.7499999827045217 209:0.6666666897584188 290:1.0 597:0.7499999838035099 598:1.0 599:0.7499999930269495 1449:1.0 
0.04758244563118783 0.14523684475738885 600:1.0 601:1.0 602:1.0 
0.2921908567401108 0.4081407794112442 565:1.0 
0.12659710499716492 0.0 305:1.0 603:1.0 604:1.0 
0.0 0.5 34:0.8000000368144279 139:0.6666666778417852 247:0.5 416:0.6666666962501552 556:0.5000000158165828 
0.0 0.5 73:0.7499999605503075 113:0.6249999754186805 608:1.0 609:0.7500000310287149 610:1.0 
0.0 0.08929469137766594 127:0.7499999310719352 172:0.6000000254621896 178:1.0 521:0.6000000000000001 606:1.0 611:1.0 612:0.749999957357466 
0.3464962789730742 0.5 303:1.0 372:0.7500000082333496 613:1.0 1288:1.0 
0.5 0.5 12:0.6666666911989934 102:0.44444443613956774 220:0.666666680074057 330:0.6666666805483747 354:0.6666666666666665 614:0.8888889037890468 615:0.6666666893797814 616:0.5000000129683464 617:0.6666666919551772 618:0.5 619:0.6666666919551772 
0.03167449467999682 0.0 4:0.7499999913915719 208:0.66666665685672 409:0.7499999930269495 413:0.7499999839904373 438:1.0 539:1.0 620:1.0 
0.0 0.5 15:0.7499999849166861 21:0.6666667219851456 43:0.6666666666666667 141:1.0 142:0.7499999672441865 144:1.0 317:0.7500000094919149 370:1.0 412:0.7499999652534504 
0.0 0.5 70:0.6666666666666666 389:1.0 
0.10965938655176385 0.5 43:0.6666666666666667 270:1.0 
0.027577396564874655 0.0 2:1.0 21:0.6666667219851456 452:1.0 617:1.0 630:1.0 631:1.0 632:1.0 633:0.75 634:1.0 635:1.0 636:1.0 637:1.0 
0.0 0.23951086943445973 352:1.0 642:1.0 643:0.7499999744477468 
0.0 0.5 29:1.0 240:1.0 456:1.0 580:1.0 648:0.66666663329386 
0.0 0.5 6:0.6000000208484583 21:0.6666667219851456 178:1.0 651:1.0 652:1.0 
0.0 0.011848197370814256 2:1.0 21:0.6666667219851456 362:0.7499999716206784 653:1.0 1524:1.0 
0.0 0.5 0:1.0 240:1.0 372:0.7500000082333496 
0.3706214366608115 0.5 29:1.0 152:0.75 331:0.6666666832906886 565:1.0 656:0.6000000489703735 
0.345975779728652 0.0 43:0.6666666666666667 365:1.0 619:1.0 657:0.7499999258770598 
0.22856790974027144 0.0 34:0.8000000368144279 70:0.44444445670894606 77:0.44444444030260793 96:0.5 107:0.6666666919551772 114:0.6666667325537312 137:0.7619047830133823 530:0.49999998310650146 650:0.666666701734272 658:0.5555555484653588 659:0.6666666666666666 660:0.6666666778417852 661:0.6666666763538792 662:0.6666666666666666 663:0.6666666666666666 
0.02395371876882213 0.06906565205017373 27:0.75 70:0.6666666666666666 102:0.6666666542093518 126:1.0 183:0.7499999444267639 220:1.0 299:0.749999984282369 526:0.5208333209348749 530:0.7499999746597522 664:1.0 665:1.0 
0.037621709436754545 0.5 127:0.7499999310719352 209:0.6666666897584188 650:1.0 666:1.0 
0.06811778763310167 0.0 70:0.6666666666666666 104:0.7500000313712354 168:1.0 317:0.7500000094919149 667:1.0 668:1.0 669:0.7499999874279919 670:1.0 1625:1.0 
0.17855385741225277 0.5 21:0.6666667219851456 25:1.0 98:0.6249999837636127 671:0.7499999517019847 1257:1.0 
0.2857146414996887 0.18871197263684722 32:0.7499999831897232 106:1.0 656:0.6000000489703735 673:1.0 1135:1.0 
0.46325916255844624 0.43757506229690546 63:0.5 64:0.666666680074057 113:0.4166666393540895 192:1.0 222:0.500000016466699 391:0.5000000189195478 675:0.6666667067140367 676:0.4999999850303063 1248:0.6666666666666666 
0.06846701324071815 0.5 372:0.500000016466699 454:0.6666666666666667 677:0.6666667078414262 1277:1.0 
0.0 0.5 21:0.888888962646861 42:0.4166666384845411 104:0.500000020914157 365:0.6666666666666666 484:0.4444444295473448 692:0.5 
0.0 0.5 492:1.0 
0.2263617122488448 0.5 18:0.7499999744477468 172:0.6000000254621896 208:0.66666665685672 413:0.7499999839904373 498:0.6666666486584345 696:1.0 697:1.0 1161:0.5208333274648943 
0.4690086291122141 0.0 104:0.7500000313712354 670:1.0 700:1.0 
0.2890709368150495 0.5 15:0.7499999849166861 95:0.7499999490728025 317:0.7500000094919149 330:1.0 370:1.0 390:0.6666666666666666 704:0.7499999918560715 1176:0.7499999874279919 
0.0 0.4991370278641666 50:1.0 
0.018104441914073618 0.31817463894920955 102:0.6666666542093518 164:0.7499999849166861 232:0.75 368:1.0 624:1.0 
0.2785239004535643 0.5 708:1.0 709:1.0 
0.10096276958404125 0.19490320709387085 32:0.7499999831897232 157:1.0 179:1.0 392:0.5714285517279167 710:1.0 
0.0 0.5 77:0.6666666790921765 267:1.0 618:0.749999960431374 711:1.0 
0.47198888444999704 0.5 352:1.0 698:0.7499999930269495 
0.023593287708341338 0.0 16:0.6666666156172476 298:0.6666666666666667 713:1.0 714:1.0 
0.24109515891138034 0.3807210523754797 203:1.0 577:1.0 715:1.0 
0.2776628055189619 0.5 77:0.33333332090782364 127:0.3749999655359676 467:0.5000000181962753 481:0.3749999676952898 503:0.37499995225840044 716:1.0 
0.0 0.11109294478065493 207:0.7499999855133391 286:1.0 646:1.0 718:1.0 
0.11148234286157961 0.5 183:0.7499999444267639 411:1.0 654:1.0 719:0.7499999517019847 
0.0 0.418069778154758 222:0.7500000082333496 383:0.7499999907042749 386:1.0 597:0.7499999838035099 720:1.0 
0.0 0.10852711746553557 4:1.0 35:0.6666666778417852 52:0.5 62:0.6666666666666666 152:0.5 250:0.5 323:0.6666667067140367 721:0.5 722:0.6666666778417852 723:0.6666667038607111 724:0.5 1147:0.6666666666666666 
0.021615033883666295 0.0 210:0.7499999913915719 238:1.0 513:1.0 732:1.0 
0.0 0.25101181279894275 55:1.0 733:1.0 
0.0 0.5 42:0.6249999577268117 734:1.0 735:1.0 
0.0 0.5 151:0.7500000310287149 736:0.7499999536783984 
0.25743536917031234 0.5 21:0.6666667219851456 104:0.7500000313712354 374:0.7499999853878785 739:1.0 
0.0 0.27693181889764895 63:0.7499999853878785 741:1.0 742:1.0 1185:1.0 
0.0 0.05283690441624817 32:1.0 34:0.40000001840721394 44:0.6666666796552194 139:0.6666666778417852 382:0.49999998389625316 591:0.4444444719922989 743:0.41666665660648583 
0.5 0.0 43:0.4444444565776283 73:0.5 98:0.8333332900363006 160:0.6666666914597351 247:0.5 362:0.5000000189195478 415:0.6666667012489245 426:0.5 584:0.6666666938724274 648:0.444444448894152 746:0.6666667078414262 
0.5 0.015190495526385728 42:0.6249999577268117 610:1.0 
0.3134377107549013 0.5 40:1.0 
0.016857738593454255 0.35980599760524984 70:0.6666666666666666 320:0.7499999922950825 324:0.749999957357466 408:1.0 525:0.7499999838035099 546:1.0 613:1.0 631:1.0 632:1.0 
0.0 0.2892773942419008 70:0.3333333333333333 77:0.33333332090782364 126:0.5 131:0.5 341:0.49999998418299285 521:0.9000000424241439 760:0.75 761:0.5 1428:0.37500000544905704 
0.0 0.5 21:0.6666667219851456 147:0.625 363:0.7499999999999999 484:0.6666666309136275 
0.19210622795826268 0.5 21:0.6666667219851456 104:0.7500000313712354 117:1.0 127:0.7499999310719352 147:0.625 184:1.0 247:0.75 333:1.0 563:1.0 622:1.0 669:0.7499999874279919 765:1.0 766:1.0 1582:1.0 
0.0 0.5 104:0.7500000313712354 750:1.0 767:1.0 
0.39304370386283305 0.16434668943161793 64:1.0 173:0.749999950213248 627:1.0 769:1.0 
0.0 0.21299581587210037 83:0.6666667067140367 104:0.500000020914157 148:0.6666666511553128 374:1.0 770:0.6666666914597351 1283:0.6666666666666666 
0.4838435564224219 0.2397934782990406 152:0.75 382:0.749999959740633 775:1.0 
0.0 0.5 302:0.7499999849166861 
0.0 0.5 34:0.6000000122714759 1285:1.0 1302:1.0 
0.5 0.5 691:1.0 
0.17225894612499232 0.03527142781967055 44:1.0 221:0.7499999517019847 778:1.0 1311:1.0 
0.0 0.5 451:1.0 696:1.0 762:1.0 
0.5 0.0 201:1.0 416:1.0 597:0.7499999838035099 742:1.0 
0.0 0.5 42:0.6249999577268117 779:1.0 780:1.0 
0.42917913066500446 0.37648918294869216 27:0.75 39:0.6250000108582975 42:0.6249999577268117 113:0.6249999754186805 332:0.7499999444267639 387:1.0 556:0.749999960458543 557:1.0 1148:1.0 
0.0 0.00856186716359799 452:1.0 
0.0 0.5 2:1.0 241:0.7499999605489461 409:0.7499999930269495 1203:1.0 
0.0 0.08177067555531325 257:0.749999959740633 490:1.0 529:1.0 781:1.0 782:1.0 783:1.0 784:0.7499999999999999 1381:1.0 
0.5 0.5 10:0.6666666318134509 355:0.7499999853878785 
0.2941075368272998 0.36522840547033253 786:0.5999999586499702 787:1.0 
0.5 0.5 5:1.0 292:0.7499999853878785 
0.0 0.017690651816373193 21:0.4444444813234305 77:0.8888888806052159 728:0.6666667067140367 788:0.6666666666666666 789:0.6666666763538792 790:0.6666666763538792 
0.0 0.2325468895184329 21:0.6666667219851456 365:1.0 378:1.0 551:0.7499999930269495 714:1.0 
0.15425573344492904 0.5 96:0.7499999827045217 791:1.0 792:1.0 
0.1457392892591198 0.2677356347078335 67:0.49999998620056707 207:0.5 286:0.6666667143916023 348:0.5 415:0.6666667012489245 795:0.5 796:1.0 
0.0 0.14415826245034533 217:1.0 775:1.0 797:1.0 
0.47573740761142125 0.5 338:0.6666666932794574 373:0.5 528:0.5000000140877345 770:0.6666666914597351 785:1.0 
0.0 0.5 
0.4183054828417124 0.2695225980199063 117:1.0 247:0.75 416:1.0 417:1.0 625:1.0 649:1.0 804:1.0 
0.0 0.5 21:0.6666667219851456 244:0.749999984282369 352:1.0 399:1.0 
0.0 0.05314885315385036 73:0.7499999605503075 805:1.0 806:0.6666666455773246 
0.09563958587740883 0.0 11:1.0 271:0.7499999805474805 539:1.0 557:1.0 571:0.7499999363445339 807:1.0 808:1.0 809:0.749999971841694 
0.30157906263859136 0.5 27:0.75 209:0.6666666897584188 317:0.7500000094919149 412:0.7499999652534504 516:1.0 615:1.0 695:0.7499999353905796 810:1.0 811:1.0 
0.0 0.5 4:0.7499999913915719 320:0.7499999922950825 362:0.7499999716206784 
0.0 0.11185905859174004 495:0.6000000570371266 730:1.0 812:1.0 813:1.0 
0.0 0.466388086309811 814:1.0 1538:1.0 
0.3736544153762533 0.16066619935899565 332:0.7499999444267639 521:0.6000000000000001 567:0.75 815:1.0 816:1.0 817:1.0 
0.0 0.5 13:0.7499999667185768 
0.046460479805307264 0.1408970640739181 4:0.7499999913915719 210:0.7499999913915719 818:1.0 
0.0 0.18201939435620665 820:1.0 821:1.0 
0.016472288715115736 0.18291114801291156 66:1.0 119:0.75 137:0.5714285872600368 383:0.7499999907042749 414:1.0 460:1.0 491:1.0 551:0.7499999930269495 1555:1.0 
0.26280799494367224 0.0 352:1.0 387:1.0 439:0.750000009125562 674:1.0 815:1.0 
0.5 0.0 131:1.0 352:1.0 714:1.0 
0.0 0.5 27:0.75 484:0.6666666309136275 521:0.6000000000000001 
0.5 0.5 14:1.0 229:1.0 426:0.7500000196650568 614:0.6666666666666666 
0.5 0.5 13:0.5 113:0.4166666393540895 198:0.6666666911989934 294:0.6666666778417852 435:0.4444444746730683 556:0.5000000158165828 616:0.5000000129683464 1384:1.0 
0.28487507209024515 0.47831274947457153 21:0.6666667219851456 123:1.0 398:1.0 459:0.7499999746597522 747:1.0 825:1.0 826:0.7499999929561327 
0.2605362272410453 0.0 27:0.5 177:0.5 249:0.6666666893797814 382:1.0 457:0.6666667078414262 827:0.666666701734272 
0.18901849141534907 0.5 287:0.7499999794694833 385:1.0 
0.5 0.44618998315033503 259:0.7499999693935204 330:1.0 413:0.7499999839904373 830:1.0 
0.0 0.21509744332856384 120:0.7499999874279919 1536:1.0 
0.4864327268592028 0.5 
0.0 0.5 22:0.749999971815481 378:1.0 729:1.0 831:1.0 
0.0 0.5 117:1.0 
0.0 0.5 95:0.37499997453640127 521:0.9000000424241439 656:0.9000000489703736 823:0.5 824:0.5 
0.4183187033790544 0.5 832:1.0 
0.292621939565797 0.0 7:0.7499999258770598 32:0.7499999831897232 127:0.7499999310719352 190:1.0 236:0.7499999931763969 255:0.7499999929561327 302:0.7499999849166861 416:1.0 518:1.0 555:1.0 699:0.75 743:0.6249999728375116 833:1.0 
0.4897062993805469 0.5 42:0.6249999577268117 115:1.0 
0.5 0.5 22:0.749999971815481 382:0.749999959740633 612:0.749999957357466 
0.05168674058159639 0.5 116:0.6249999842876374 172:0.6000000254621896 220:1.0 426:0.7500000196650568 516:1.0 585:0.7500000082333496 770:1.0 834:1.0 1372:1.0 
0.0 0.5 772:1.0 
0.0 0.467660730299039 104:0.7500000313712354 499:1.0 835:1.0 836:0.749999971841694 
0.0 0.032611142456258395 63:0.7499999853878785 516:1.0 552:1.0 589:1.0 590:1.0 
0.12275453381554581 0.0 766:1.0 818:1.0 838:1.0 
0.0 0.38194721142772564 133:0.7499999657252442 776:1.0 
0.0 0.5 572:1.0 839:1.0 
0.0 0.5 43:0.6666666666666667 217:1.0 
0.0 0.31333575213429055 839:1.0 844:1.0 845:1.0 846:1.0 1251:1.0 
0.5 0.07270005663260852 21:0.6666667219851456 255:0.7499999929561327 490:1.0 847:1.0 848:1.0 
0.026725644426939074 0.4497328250407206 17:1.0 187:1.0 
0.024386637887504465 0.3699412543586107 37:0.7499999843830788 45:1.0 357:0.749999950213248 776:1.0 
0.0 0.5 34:0.6000000122714759 98:0.6249999837636127 104:0.7500000313712354 182:0.6250000245571607 581:1.0 767:1.0 
0.0 0.43414777675159993 130:1.0 515:1.0 
0.45826212233189073 0.5 42:0.6249999577268117 209:0.6666666897584188 383:0.7499999907042749 850:1.0 
4.407256730329144E-4 0.5 206:1.0 
3.860651582208282E-4 0.5 712:0.749999989101886 
0.0 0.5 42:0.6249999577268117 639:1.0 
0.10875295899834815 0.5 148:1.0 391:0.7499999716206784 523:1.0 854:0.6249999978206614 
0.050805560016415445 0.0 21:0.6666667219851456 227:1.0 241:0.7499999605489461 365:1.0 447:1.0 449:1.0 543:1.0 855:1.0 856:1.0 1506:1.0 
0.15871198166007952 0.39813143384875443 77:0.6666666790921765 129:1.0 183:0.7499999444267639 320:0.7499999922950825 484:0.6666666309136275 521:0.6000000000000001 604:1.0 778:1.0 857:1.0 1269:1.0 
0.5 0.5 
0.0 0.00811876659262973 104:0.7500000313712354 383:0.7499999907042749 413:0.7499999839904373 435:0.666666684803841 621:1.0 691:1.0 
0.5 0.5 27:0.75 307:0.7499999930269495 508:1.0 861:0.7499999805474805 
0.22927983545556688 0.0 34:0.6000000122714759 37:0.7499999843830788 58:1.0 129:1.0 323:1.0 723:1.0 865:1.0 
0.1455009961397518 0.5 526:0.5208333209348749 635:1.0 636:1.0 637:1.0 686:0.7499999731547246 689:1.0 690:1.0 691:1.0 866:1.0 
0.12218374360912154 0.5 613:1.0 626:0.7499999353905796 847:1.0 
0.21473819356123994 0.5 164:0.7499999849166861 353:0.7499999652534504 445:0.6666666842707168 867:1.0 
0.0 0.34642267098307117 44:0.6666666796552194 178:0.6666666666666666 365:0.6666666666666666 678:0.6666666763538792 702:0.6666667078414262 768:1.0 
0.011480534551031119 0.0 42:0.6249999577268117 110:1.0 247:0.75 298:0.6666666666666667 356:1.0 357:0.749999950213248 496:0.7499999843830788 680:1.0 868:1.0 869:1.0 870:1.0 
0.3541232145119875 0.2527270685132973 337:1.0 469:1.0 578:1.0 832:1.0 
0.07385126113513463 0.4151636022950356 4:0.7499999913915719 21:0.6666667219851456 42:0.6249999577268117 178:1.0 261:0.5714285714285714 391:0.7499999716206784 445:0.6666666842707168 499:1.0 644:1.0 871:1.0 872:1.0 873:1.0 874:1.0 1500:1.0 
0.5 0.5 42:0.6249999577268117 117:1.0 287:0.7499999794694833 800:1.0 875:0.7499999517019847 
0.0 0.037237105537493674 77:0.6666666790921765 571:0.7499999363445339 586:1.0 1620:0.749999989101886 
0.5 0.19704729753519046 81:1.0 104:0.7500000313712354 191:1.0 212:1.0 304:0.7499999805474805 1145:1.0 
0.11547325464884087 0.5 27:0.75 43:0.6666666666666667 68:0.7499999490728025 117:1.0 1559:1.0 
0.17078357482713707 0.5 462:0.75 482:1.0 748:1.0 
0.06825803802337925 0.0 283:1.0 389:1.0 739:1.0 763:0.7499999744477468 796:0.7499999536783984 878:0.7499999855133391 
0.5 0.5 879:1.0 
0.33407766921705534 0.5 261:0.3809523986014228 354:0.6666666666666665 520:0.6666666666666666 699:1.0 
0.28618633050189624 0.4839443008822483 117:0.6666667322911186 131:0.6666666778417852 324:1.0 383:0.50000001859145 507:0.6666666919551772 522:0.5 601:0.6666667078414262 664:0.6666666666666666 880:0.6666667038607111 1435:0.6666667067140367 1576:0.6666667078414262 
0.30890258664886944 0.03515851183592714 89:0.749999947606072 283:1.0 304:0.7499999805474805 510:1.0 881:0.7500000310287149 882:1.0 883:0.7499999353905796 
0.11282102138234816 0.0 352:1.0 627:1.0 739:1.0 816:1.0 
0.0 0.019114962918926767 469:1.0 884:1.0 
0.0 0.5 27:0.75 48:0.749999957357466 
0.04889493053422934 0.4064446606183082 43:0.6666666666666667 382:0.749999959740633 885:1.0 
0.12878440952647524 0.08058598447122838 702:1.0 886:1.0 
0.0 0.41579029232887704 242:1.0 243:1.0 502:0.7499999805474805 571:0.7499999363445339 
0.46375514155195785 0.5 412:0.7499999652534504 887:1.0 
0.18342315921298236 0.22696631455480512 5:0.6666666390855879 15:0.5 63:1.0 127:0.5 222:0.500000016466699 391:0.5000000189195478 421:0.6666666387242112 530:0.49999998310650146 640:0.6666666909283671 1491:0.6666667067140367 
0.16368619592202324 0.0 26:0.75 27:0.75 133:0.7499999657252442 247:0.75 430:0.75 562:0.749999955623067 568:1.0 849:1.0 
0.1767377287550613 0.0 225:1.0 247:0.75 304:0.7499999805474805 556:0.749999960458543 889:1.0 1234:1.0 
0.2528735991416747 0.0 26:0.75 56:0.6666666486584345 157:1.0 407:1.0 576:0.7499999705314095 726:1.0 830:1.0 890:1.0 891:1.0 
0.0 0.42654118775536165 138:1.0 438:1.0 559:1.0 878:0.7499999855133391 
0.0 0.3371564147573297 73:0.7499999605503075 459:0.7499999746597522 629:1.0 
3.7937618661473826E-4 0.5 493:1.0 
0.12326859139501695 0.5 43:0.8888889131552566 203:0.6666666778417852 316:0.6666666390855879 352:0.6666666992359921 521:0.7999999999999999 894:0.5 
0.0 0.5 102:0.6666666542093518 645:1.0 
0.5 0.5 117:1.0 1619:0.75 
0.5 0.5 
0.5 0.5 127:0.3749999655359676 140:0.8571428185221934 896:0.5 1287:0.5 
0.0 0.24449613698162595 21:0.6666667219851456 794:1.0 
0.0 0.5 6:0.6000000208484583 127:0.7499999310719352 317:0.7500000094919149 331:0.6666666832906886 484:0.6666666309136275 
0.0 0.039953341255682055 32:0.7499999831897232 585:0.7500000082333496 899:1.0 900:1.0 
0.3702761583722425 0.1726365727325917 150:1.0 151:0.7500000310287149 261:0.5714285714285714 391:0.7499999716206784 605:1.0 613:1.0 870:1.0 
0.20126143115774087 0.18653809400479324 333:1.0 334:1.0 373:0.75 
0.09808973228374757 0.5 21:0.6666667219851456 22:0.749999971815481 164:0.7499999849166861 225:1.0 353:0.7499999652534504 365:1.0 820:1.0 
0.0 0.34853153096315387 10:0.6666666318134509 203:1.0 300:0.6666666585794332 373:0.75 389:1.0 398:1.0 715:1.0 
0.0 0.5 180:1.0 
0.10028229230544673 0.5 42:0.6249999577268117 265:1.0 388:1.0 733:1.0 
0.09016913584761607 0.27691633313658354 159:0.6666667067140367 209:0.44444444829306984 239:0.6666666919551772 382:0.49999998389625316 797:0.6666666893797814 903:1.0 
0.0 0.5 14:1.0 27:0.75 322:1.0 
0.1355078394334497 0.5 1142:0.6249999840298416 
0.18177318687176477 0.5 89:1.0 306:0.5 904:0.6666666778417852 905:0.5000000112633224 
0.0 0.18464874718656757 104:0.7500000313712354 127:0.7499999310719352 511:0.749999989101886 524:1.0 
0.0 0.5 109:0.6666666778417852 643:1.0 1438:0.6666667067140367 
0.008252312972884361 0.0 609:0.7500000310287149 853:1.0 882:1.0 906:1.0 907:1.0 908:1.0 
0.0 0.06143169357369679 238:1.0 286:1.0 751:1.0 752:1.0 753:1.0 754:1.0 755:1.0 756:1.0 829:1.0 902:1.0 
0.0 0.2670285979091821 259:0.7499999693935204 909:0.7499999931763969 
0.4601271527972454 0.279830901066813 21:0.6666667219851456 41:0.7499999363445339 374:0.7499999853878785 599:0.7499999930269495 613:1.0 739:1.0 910:1.0 
0.0 0.18142360004041228 6:0.6000000208484583 34:0.6000000122714759 356:1.0 412:0.7499999652534504 848:1.0 911:1.0 
0.0 0.17494180555615355 438:1.0 1539:1.0 1610:0.7499999258770598 
0.1709256092950345 0.03544440304179058 48:0.749999957357466 141:1.0 142:0.7499999672441865 426:0.7500000196650568 793:1.0 801:1.0 1136:0.7499999744477468 
0.0 0.02430574936221851 48:0.749999957357466 77:0.6666666790921765 127:0.7499999310719352 662:1.0 803:1.0 912:1.0 
0.0010976455291929915 0.0 347:1.0 620:1.0 813:1.0 
0.279998794688985 0.5 113:0.6249999754186805 320:0.7499999922950825 598:1.0 692:0.7499999874279919 
0.09144795568735208 0.06679764581732422 132:1.0 146:1.0 913:1.0 
0.5 0.34014231010345203 57:0.7499999744477468 73:0.7499999605503075 247:0.75 299:0.749999984282369 321:0.6249999807377068 470:0.6666666585794332 580:1.0 667:1.0 670:1.0 830:1.0 1198:1.0 
0.5 0.5 
0.13874134573519278 0.0 73:0.7499999605503075 319:1.0 322:1.0 419:1.0 420:1.0 498:0.6666666486584345 
0.3979258127559917 0.0 2:1.0 21:0.6666667219851456 1138:1.0 
0.06868036016215254 0.5 80:0.6666666548235765 120:1.0 121:0.6666667325537312 440:0.6666666666666667 
0.03273670599535624 0.5 13:1.0 23:0.49999998620056707 113:0.4166666393540895 917:0.6666667067140367 
0.0 0.5 48:0.749999957357466 556:0.749999960458543 
0.055873958986177245 0.0 481:0.7499999353905796 766:1.0 919:1.0 920:1.0 
0.0 0.5 43:0.6666666666666667 233:0.7499999929561327 670:1.0 759:1.0 1268:1.0 
0.5 0.5 536:0.7499999744477468 
0.0 0.5 102:0.6666666542093518 104:0.7500000313712354 259:0.7499999693935204 499:1.0 693:1.0 
0.5 0.5 16:0.6666666156172476 
0.3502538598648149 0.0 56:0.6666666486584345 68:0.7499999490728025 126:1.0 133:0.7499999657252442 237:0.749999950213248 354:1.0 412:0.7499999652534504 440:1.0 520:1.0 658:0.8333332269803824 662:1.0 725:0.7499999605489461 1200:1.0 
0.0 0.4596303284421014 21:0.6666667219851456 103:0.6666666389032518 188:0.7499999353905796 921:1.0 
0.0 0.40773176156485863 21:0.6666667219851456 233:0.7499999929561327 
0.0 0.015624197794712195 29:1.0 78:0.7499999931763969 1242:1.0 
0.13125626102249 0.5 125:1.0 332:0.7499999444267639 396:1.0 509:1.0 
0.0 0.09561432758540293 259:0.7499999693935204 499:1.0 521:0.6000000000000001 522:0.7499999605489461 
0.5 0.5 75:1.0 354:0.6666666666666665 562:0.49999998224922676 775:0.6666667432408011 
2.6991085104568997E-4 0.5 718:1.0 
0.044364163013265095 0.15044250774524778 125:1.0 358:0.7500000133234768 377:1.0 388:1.0 693:1.0 1145:1.0 1149:1.0 
0.38879081708250335 0.0 75:0.7499999929561327 348:0.7499999831897232 413:0.7499999839904373 
0.5 0.5 348:0.7499999831897232 409:0.7499999930269495 
0.0 0.5 365:1.0 907:1.0 925:0.5624999778087819 926:1.0 
0.0 0.24192158225242705 148:1.0 568:1.0 657:0.7499999258770598 
0.0 0.49159726829867595 26:0.75 39:0.6250000108582975 70:0.6666666666666666 98:0.6249999837636127 604:1.0 860:1.0 928:1.0 
0.32506611890070236 0.0 20:0.7500000082333496 149:0.7499999353905796 467:1.0 929:0.7499999874279919 
0.4649399455902943 0.0 490:1.0 497:1.0 862:0.7499999258770598 
0.5 0.5 
0.0 0.09158539729622134 58:1.0 89:0.749999947606072 900:1.0 930:1.0 
0.3518047333873619 0.3025252238877967 222:0.7500000082333496 476:0.6 502:0.7499999805474805 562:0.749999955623067 
0.12262947061167824 0.0 178:1.0 210:0.7499999913915719 247:0.75 317:0.7500000094919149 358:0.7500000133234768 620:1.0 826:0.7499999929561327 931:1.0 
0.0 0.5 21:0.6666667219851456 221:0.7499999517019847 247:0.75 
0.0 0.005699768220854775 2:1.0 117:1.0 305:1.0 352:1.0 601:1.0 768:0.7499999605489461 892:1.0 
0.0 0.38069205773865317 782:1.0 932:0.749999971841694 
0.0 0.39311974911995995 27:0.75 42:0.6249999577268117 49:0.6666666212404403 95:0.7499999490728025 238:1.0 317:0.7500000094919149 588:0.6000000208484583 870:1.0 
0.0 0.4790475905626944 14:1.0 213:1.0 302:0.7499999849166861 833:1.0 860:1.0 
0.0076606407501198515 0.5 581:1.0 
0.19123974458576326 0.21975672735715604 460:1.0 691:1.0 
0.0 0.5 521:0.6000000000000001 585:0.7500000082333496 
0.0 0.3904120871962033 21:0.6666667219851456 22:0.749999971815481 149:0.7499999353905796 345:1.0 409:0.7499999930269495 
0.22513528641386096 0.39596126876580634 103:0.33333333333333337 173:0.3749999893314103 620:0.5 931:0.5000000150177637 937:1.0 938:1.0 939:0.5000000161582803 940:0.5 1487:0.5000000150177637 
0.0 0.5 831:1.0 859:1.0 
0.5 0.5 
0.0 0.18442517397297592 21:0.4444444813234305 73:0.5 112:0.666666680074057 148:0.6666666511553128 173:1.0 248:0.5 759:0.6666666666666666 898:0.6666667067140367 
0.0 0.5 503:0.7499999363445339 
1.8865117801247777E-17 0.5 1376:1.0 
0.0 0.5 133:0.37499996572524424 341:0.49999998418299285 352:0.5 382:0.37499996376656974 521:0.9000000424241439 714:0.5 813:0.5 
0.0 0.02153084365713748 98:0.8333332900363006 113:0.4166666393540895 362:0.5000000189195478 941:0.6666667078414262 
0.0 0.5 21:0.6666667219851456 41:0.7499999363445339 
0.46424539298540274 0.5 34:0.8000000368144279 104:0.500000020914157 116:0.41666668761648357 133:0.5 257:0.49999998389625316 275:1.0 729:0.6666666778417852 1175:0.6666667325537312 
6.288372600415926E-18 0.25679291359847845 118:1.0 652:1.0 
0.0 0.5 459:0.7499999746597522 
0.00414204599741076 0.48498091747713135 20:0.7500000082333496 104:0.7500000313712354 178:1.0 383:0.7499999907042749 660:1.0 669:0.7499999874279919 736:0.7499999536783984 
0.0 0.5 250:0.7499999605489461 943:1.0 944:1.0 
0.0 0.5 21:0.6666667219851456 70:0.6666666666666666 612:0.749999957357466 640:1.0 838:1.0 
0.48961730550412996 0.5 384:1.0 
0.0 0.2891750555270606 110:0.666666701734272 434:0.6666666909283671 439:1.0 
0.5 0.4420367142167145 148:1.0 946:1.0 
0.0 0.5 113:0.6249999754186805 461:0.7499999744477468 775:1.0 861:0.7499999805474805 947:1.0 
0.0 0.5 127:0.25 521:1.0 879:0.3333333539207131 
0.2916227230300421 0.04316009848676305 134:1.0 138:1.0 308:0.75 711:1.0 864:1.0 
0.36952682956655936 0.5 37:0.5 70:0.8888889134178921 150:0.6666666666666666 178:0.6666666666666666 210:0.49999998278314395 447:0.6666667012489245 553:0.6666666666666666 875:0.49999998620056707 883:0.500000014357649 949:0.6666667067140367 
0.020272744072015684 0.02472622442435397 62:0.6666666666666666 63:0.5 158:0.6666667078414262 443:0.500000014357649 747:0.6666666795436988 763:1.0 808:0.6666666666666666 886:0.6666667067140367 950:0.6666667038607111 1191:0.6666667067140367 1488:0.6666667078414262 
0.0 0.5 21:0.6666667219851456 23:0.7499999517019847 42:0.6249999577268117 351:1.0 1421:1.0 
0.05234923834679468 0.5 452:1.0 
0.0 0.18353390694196917 256:1.0 320:0.7499999922950825 362:0.7499999716206784 540:1.0 556:0.749999960458543 
0.5 0.24053987410119132 77:0.6666666790921765 160:1.0 672:0.7499999581567023 
0.5 0.5 32:1.0 43:0.4444444565776283 67:0.49999998620056707 162:0.6666667078414262 225:0.6666666666666666 236:0.5000000136472064 401:0.44444443899281655 405:0.6666667432408011 952:0.6666666763538792 
0.0 0.5 21:0.6666667219851456 23:0.7499999517019847 657:0.7499999258770598 
0.0 0.5 261:0.5714285714285714 519:1.0 
0.0 0.27497473255798144 385:1.0 
0.0 0.5 257:0.2999999838962532 521:0.9599999717172374 585:0.3000000032933398 879:0.3999999938237861 
0.0 0.5 171:1.0 303:1.0 953:0.6666666156172476 
0.01309438610895398 0.1712979650104869 81:1.0 137:0.5714285872600368 939:1.0 947:1.0 954:1.0 955:1.0 956:0.6666666738481247 
0.40122870654025106 0.0 20:0.7500000082333496 41:0.7499999363445339 48:0.749999957357466 91:0.75 957:1.0 
0.19099147482881174 0.5 356:1.0 383:0.7499999907042749 426:0.7500000196650568 674:1.0 
0.2463722927033926 0.5 21:0.6666667219851456 148:1.0 172:0.6000000254621896 399:1.0 658:0.8333332269803824 
0.4548626096424351 0.5 210:0.7499999913915719 313:1.0 328:1.0 839:1.0 
0.1191701113882477 0.0 27:0.75 63:0.7499999853878785 64:1.0 89:0.749999947606072 198:1.0 274:1.0 351:1.0 
0.0 0.2020089916309953 320:0.7499999922950825 362:0.7499999716206784 780:1.0 
0.27362586194610394 0.5 26:0.75 43:0.6666666666666667 243:1.0 786:0.5999999586499702 
0.120111164900844 0.17562532520307222 562:0.3749999600607602 647:0.5000000161582803 857:0.5000000145308189 961:0.8999999940701638 
0.05567210304486963 0.0 37:0.7499999843830788 66:1.0 214:0.7499999929561327 
4.2147349535380914E-4 0.0032857175398724966 29:1.0 32:0.7499999831897232 89:0.749999947606072 108:1.0 183:0.7499999444267639 267:1.0 772:1.0 773:1.0 774:1.0 786:0.5999999586499702 813:1.0 962:1.0 963:1.0 964:1.0 
0.15998445569806957 0.38138979576402865 640:1.0 641:1.0 
0.0 0.5 389:1.0 788:1.0 876:1.0 
0.0 0.5 112:1.0 485:1.0 
0.11810703077031083 0.5 27:0.75 43:0.6666666666666667 104:0.7500000313712354 317:0.7500000094919149 533:1.0 
0.0 0.5 10:0.6666666318134509 286:1.0 503:0.7499999363445339 905:0.749999971841694 
0.275943084367165 0.5 112:1.0 354:1.0 485:1.0 966:1.0 
0.5 0.5 435:0.666666684803841 
0.05137694837546027 0.5 407:1.0 535:1.0 
0.0 0.2492893767476989 61:1.0 326:1.0 433:1.0 576:0.7499999705314095 793:1.0 817:1.0 
0.0 0.27661728432907867 20:0.7500000082333496 127:0.7499999310719352 968:1.0 
0.45081659058921697 0.5 306:0.7499999693935204 547:0.749999989101886 
0.07148262540991636 0.5 116:0.6249999842876374 427:1.0 428:1.0 599:0.7499999930269495 777:1.0 1374:1.0 
0.5 0.5 
0.11458028925857236 0.5 70:0.6666666666666666 174:0.749999950213248 320:0.7499999922950825 611:1.0 969:1.0 
0.0 0.5 21:0.6666667219851456 
0.3142177582925564 0.22423402449166832 79:1.0 255:0.7499999929561327 582:1.0 585:0.7500000082333496 782:1.0 970:0.75 
0.3406361535091184 0.3717006043502377 948:1.0 969:1.0 971:1.0 
0.2787001553003396 0.41705478089054276 125:1.0 972:1.0 
0.0 0.2085668713309224 102:0.6666666542093518 157:1.0 909:0.7499999931763969 941:1.0 
0.0 0.3586644776381068 493:1.0 961:0.600000035579017 965:1.0 
0.5 0.5 
0.5 0.5 
0.15459477118202758 0.5 127:0.5 490:0.6666666666666666 576:1.0 
0.0906839622445838 0.5 28:1.0 577:1.0 973:1.0 974:0.7499999929561327 
0.0 0.38694571353369495 240:1.0 844:1.0 
0.0 0.2390281697594189 609:0.7500000310287149 853:1.0 906:1.0 908:1.0 942:1.0 
0.0 0.21465473017288395 720:1.0 775:1.0 797:1.0 975:1.0 
0.0 0.5 158:1.0 
0.0 0.5 77:0.6666666790921765 183:0.7499999444267639 
0.06337966135962944 0.31342637220879677 80:1.0 102:0.6666666542093518 409:0.7499999930269495 516:1.0 528:0.7499999929561327 591:0.6666666831953793 881:0.7500000310287149 976:1.0 977:0.7499999744477468 1462:1.0 
0.0 0.5 98:0.8333332900363006 362:0.5000000189195478 744:0.6666666763538792 
0.0 0.5 27:0.75 116:0.6249999842876374 247:0.75 431:1.0 576:0.7499999705314095 675:1.0 865:1.0 
0.08648288433555466 0.5 13:1.0 98:0.4166666450181503 111:0.6666666795436988 251:0.6666666666666666 324:0.4999999829429864 462:0.5 482:0.666666701734272 596:0.6666667067140367 864:0.6666667078414262 888:1.0 
0.0 0.4627136453973799 409:0.7499999930269495 978:1.0 
0.5 0.5 391:0.7499999716206784 
0.31334296178251114 0.5 142:0.7499999672441865 307:0.7499999930269495 382:0.749999959740633 714:1.0 1476:1.0 
0.10976865325337373 0.04606589574911515 13:0.7499999667185768 46:1.0 129:1.0 348:0.7499999831897232 502:0.7499999805474805 895:1.0 979:1.0 
0.5 0.5 6:0.6000000208484583 70:0.6666666666666666 236:0.7499999931763969 431:1.0 496:0.7499999843830788 617:1.0 743:0.6249999728375116 1160:1.0 1609:1.0 
0.0 0.5 391:0.37499998202642965 521:0.9000000424241439 590:0.5 
0.0 0.09470159455623325 31:0.6666666831953793 72:1.0 535:1.0 537:1.0 915:1.0 916:1.0 980:1.0 
0.001290114433789014 0.5 347:0.6666667078414262 476:0.40000002676164553 567:1.0 981:0.666666710811427 982:0.6666666548235765 
0.0 0.1336624577624801 22:0.4999999812103207 105:1.0 217:0.6666666909283671 308:0.5 770:0.6666666914597351 
0.07662785596829012 0.5 27:0.75 562:0.749999955623067 674:1.0 
0.09428521718080238 0.2537068563061742 247:0.75 462:0.75 463:1.0 
0.0 0.037592035233818856 68:0.7499999490728025 145:1.0 502:0.7499999805474805 524:1.0 590:1.0 732:1.0 1376:1.0 
0.5 0.5 
0.11650869787078152 0.0 104:0.7500000313712354 127:0.7499999310719352 390:0.6666666666666666 490:1.0 640:1.0 731:0.5555555492463571 795:0.7500000133234768 832:1.0 844:1.0 947:1.0 984:1.0 1268:1.0 
0.0 0.5 985:1.0 
0.0 0.3313446164733723 21:0.6666667219851456 120:0.7499999874279919 224:1.0 331:0.6666666832906886 411:1.0 653:1.0 664:1.0 
0.5 0.5 172:0.6000000254621896 332:0.7499999444267639 
0.1670562433451987 0.5 13:0.7499999667185768 
0.0 0.07710678617068827 73:0.7499999605503075 117:1.0 332:0.7499999444267639 537:1.0 986:0.7499999929561327 
0.5 0.5 
0.07917880282423337 0.5 125:0.33333334585576413 244:0.2499999842823691 925:0.9374999827401637 
5.183226063894136E-4 0.0 33:0.6249999841724521 91:0.75 92:0.749999947606072 93:0.7499999930269495 94:0.7499999999999999 95:0.7499999490728025 248:0.7499999744477468 933:1.0 934:1.0 
0.4156427104240937 0.017728995807549167 374:0.7499999853878785 745:1.0 761:1.0 907:1.0 
0.0 0.3643720740231194 4:0.7499999913915719 250:0.7499999605489461 317:0.7500000094919149 
0.4029175430700783 0.0 73:0.5 81:0.6666666795436988 160:0.6666666914597351 192:0.5 247:0.5 270:0.6666667012489245 430:0.5 488:1.0 489:0.6666666666666666 496:0.5 901:0.666666701734272 991:0.6666666763538792 992:0.6666666911989934 
0.28248609355389864 0.05555133859298218 37:0.7499999843830788 372:0.7500000082333496 566:1.0 725:0.7499999605489461 793:1.0 795:0.7500000133234768 970:0.75 
0.0 0.5 56:0.6666666486584345 419:1.0 626:0.7499999353905796 
0.5 0.5 
0.097856212593886 0.5 320:0.7499999922950825 990:0.7499999999999999 993:1.0 
0.1781761491039968 0.5 443:0.7499999353905796 481:0.7499999353905796 1563:1.0 
0.426417012350201 0.3847940633837825 34:0.8000000368144279 209:0.8888888965861397 302:0.5 324:0.4999999829429864 855:0.6666666666666666 909:0.5000000136472064 932:0.5000000112633224 971:0.6666666666666666 
0.15155357188605223 0.0 3:1.0 12:1.0 172:0.6000000254621896 209:0.6666666897584188 827:1.0 994:1.0 1426:1.0 
0.0 0.5 119:0.5 361:0.6666666893797814 476:0.8000000535232911 
0.5 0.5 77:0.44444444030260793 215:0.6666667078414262 413:0.5 476:0.8000000535232911 539:0.6666667012489245 603:0.666666701734272 618:0.5 644:0.6666666796552194 701:0.6666667078414262 704:0.5000000162878573 747:0.6666666795436988 855:0.6666666666666666 
0.5 0.5 33:0.6249999841724521 
0.0 0.2653437190782951 292:0.7499999853878785 952:1.0 998:1.0 1294:0.7500000133234768 
0.0 0.5 116:0.41666668761648357 180:0.5000000136472064 236:1.0 257:0.49999998389625316 286:0.6666667143916023 298:0.44444446190731357 412:0.5 507:0.6666666919551772 580:0.6666666938724274 848:0.6666666666666667 911:0.6666666763538792 999:0.4444444810442314 
0.0 0.3623031543866588 26:0.75 34:0.6000000122714759 102:0.6666666542093518 570:1.0 697:1.0 860:1.0 1000:1.0 
0.0 0.5 453:0.7499999929561327 
0.0 0.16750094856270445 85:1.0 460:1.0 1001:0.583333331606216 
0.0 0.5 221:0.7499999517019847 
4.381869671875757E-4 0.5 1002:1.0 
0.09936371061688626 0.0 68:0.7499999490728025 113:0.6249999754186805 142:0.7499999672441865 257:0.749999959740633 550:0.7499999536783984 571:0.7499999363445339 667:1.0 824:1.0 942:1.0 1003:1.0 
0.0 0.10630540348892238 460:1.0 690:1.0 1000:1.0 
0.07107007892770743 0.0 42:0.6249999577268117 382:0.749999959740633 491:1.0 
0.0 0.5 382:0.749999959740633 775:1.0 797:1.0 
0.0 0.5 75:0.7499999929561327 434:1.0 
0.08688571318752328 0.5 91:0.75 167:1.0 168:1.0 719:0.7499999517019847 
0.37782681447010047 0.5 127:0.7499999310719352 164:0.7499999849166861 324:0.749999957357466 982:1.0 
0.0 0.5 21:0.6666667219851456 77:0.6666666790921765 332:0.7499999444267639 734:1.0 
0.0 0.029386878006120484 4:0.7499999913915719 5:1.0 26:0.75 292:0.7499999853878785 389:1.0 454:1.0 620:1.0 1009:0.7499999929561327 
0.0 0.32902052803603826 68:0.7499999490728025 295:1.0 680:1.0 
0.0 0.3113279555530406 34:0.6000000122714759 48:0.749999957357466 70:0.6666666666666666 809:0.749999971841694 
0.09508416152926752 0.5 851:1.0 868:1.0 
0.5 0.5 
0.2988070792878292 0.43870785039208293 210:0.7499999913915719 522:0.7499999605489461 594:1.0 
0.0 0.28206424996283097 309:1.0 1010:1.0 
0.0659532773051908 0.5 4:0.7499999913915719 1012:0.7499999536783984 
0.07542310509887327 0.5 316:1.0 365:1.0 1315:1.0 
0.18470869085672403 0.17440379392049826 274:1.0 377:1.0 399:1.0 438:1.0 494:0.7499999536783984 612:0.749999957357466 658:0.8333332269803824 1014:1.0 1152:1.0 1532:1.0 
0.5 0.5 306:0.7499999693935204 498:0.6666666486584345 
0.0 0.027200099998849078 95:0.7499999490728025 
0.0 0.5 270:0.6666667012489245 498:0.8888888648779125 
0.3782865356044029 0.3280149238567171 41:0.5 63:1.0 181:0.5 252:0.6666666666666667 322:0.6666666914597351 362:0.5000000189195478 496:0.5 571:0.5 597:0.5 809:0.5000000112633224 852:0.6666667067140367 890:0.6666667325537312 
0.0 0.04571306213188756 164:0.7499999849166861 292:0.7499999853878785 
0.5 0.27063349604924597 96:0.7499999827045217 127:0.7499999310719352 
0.0 0.04626571383980087 20:0.7500000082333496 113:0.6249999754186805 243:1.0 356:1.0 363:0.7499999999999999 383:0.7499999907042749 562:0.749999955623067 624:1.0 781:1.0 813:1.0 850:1.0 921:1.0 1017:0.7499999805474805 1531:1.0 
0.0 0.1675463010614564 114:1.0 238:1.0 390:0.6666666666666666 781:1.0 
0.5 0.5 80:1.0 102:0.6666666542093518 528:0.7499999929561327 591:0.6666666831953793 881:0.7500000310287149 976:1.0 977:0.7499999744477468 
0.0 0.5 809:1.0 
0.03456572317096816 0.0 348:0.7499999831897232 364:1.0 485:1.0 838:1.0 923:1.0 
0.5 0.5 27:1.0 40:0.6666667325537312 247:0.5 525:0.5 610:0.6666666666666666 1018:0.6666667432408011 1485:0.6666666666666666 
0.5 0.1212877393293951 305:1.0 617:1.0 786:0.5999999586499702 1019:1.0 
0.0 0.20732542897928943 224:1.0 777:1.0 
0.16694638431587208 0.28044334110793995 52:0.7499999258770598 192:0.7499999849166861 477:1.0 498:0.6666666486584345 536:0.7499999744477468 844:1.0 875:0.7499999517019847 1309:0.749999971841694 
0.2646434626217071 0.2005139551433056 62:0.6666666666666666 117:0.6666667322911186 356:0.6666666909283671 395:1.0 466:0.4444444492320831 586:0.6666666932794574 777:0.6666666548235765 791:0.6666666778417852 1020:0.6666667067140367 
0.0 0.48894528640111584 4:0.7499999913915719 251:1.0 1448:1.0 
0.22643277278627066 0.0 73:0.7499999605503075 76:1.0 183:0.7499999444267639 466:0.6666666738481247 765:1.0 846:1.0 847:1.0 885:1.0 
0.0 0.02985172291920095 147:0.625 365:1.0 
0.0 0.5 34:0.6000000122714759 222:0.7500000082333496 530:0.7499999746597522 604:1.0 786:0.5999999586499702 1611:0.7499999744477468 
0.05762614732646638 0.18697834643597475 42:0.6249999577268117 81:1.0 272:1.0 352:1.0 509:1.0 
0.0 0.04797221181781566 10:0.6666666318134509 501:1.0 749:1.0 
0.5 0.17161372337292755 110:1.0 191:1.0 1194:1.0 
0.0 0.20809051898103342 28:1.0 70:0.6666666666666666 220:1.0 294:1.0 310:1.0 835:1.0 1019:1.0 1020:1.0 1192:1.0 
0.0 0.5 365:1.0 1274:1.0 
0.0 0.5 63:0.5 338:0.6666666932794574 351:0.6666667325537312 400:0.6666667325537312 401:0.44444443899281655 454:0.6666666666666667 611:0.6666666893797814 628:1.0 1022:0.6666666666666666 1300:0.6666666666666666 1428:0.5 
0.07089198960477053 0.20347355858504348 6:0.6000000208484583 127:0.7499999310719352 869:1.0 883:0.7499999353905796 
0.0 0.11718493072998945 920:1.0 
0.0 0.5 332:0.7499999444267639 
0.0 0.34073225771578186 147:0.625 210:0.7499999913915719 466:0.6666666738481247 521:0.6000000000000001 705:0.7499999517019847 858:1.0 
0.4994942391612723 0.2707435251063898 35:0.6666666778417852 122:0.444444429302369 210:0.49999998278314395 299:0.4999999685647382 443:1.0 564:0.6666666666666666 1023:0.6666666666666666 1312:0.6666667078414262 
0.2756242561798969 0.2661076456995547 15:0.5 26:0.5 209:0.44444444829306984 370:0.6666666914597351 487:1.0 795:1.0 970:1.0 971:0.6666666666666666 1024:0.6666666763538792 1318:0.6666666763538792 
0.0 0.2644019393661444 534:1.0 929:0.7499999874279919 938:1.0 
0.21024076892748383 0.0 32:0.7499999831897232 69:1.0 413:0.7499999839904373 640:1.0 
0.0 0.08695172469576354 851:1.0 1005:0.749999971841694 
0.0 0.5 988:1.0 
0.0 0.5 238:1.0 1286:1.0 
0.0 0.34213549679512223 102:0.6666666542093518 523:1.0 1025:1.0 1026:0.6666666604676593 
0.5 0.0 149:0.7499999353905796 416:1.0 512:0.7499999744477468 558:1.0 
0.5 0.5 165:1.0 
0.0 0.2546748955098222 6:0.6000000208484583 690:1.0 
0.4546551541130544 0.5 6:0.6000000208484583 21:0.6666667219851456 42:0.6249999577268117 209:0.6666666897584188 210:0.7499999913915719 554:1.0 
0.0 0.5 21:0.6666667219851456 
0.0 0.5 796:0.7499999536783984 
0.29316908536663683 0.5 412:0.7499999652534504 1029:1.0 
0.20272195352690328 0.16032903175449068 214:0.7499999929561327 1013:1.0 
0.0 0.5 27:0.75 523:1.0 1032:1.0 
0.083222667182234 0.5 43:0.6666666666666667 100:1.0 127:0.7499999310719352 137:0.5714285872600368 156:0.7499999853878785 526:0.5208333209348749 546:1.0 813:1.0 944:1.0 1431:1.0 
0.0 0.23073587307916824 312:1.0 
0.0 0.42798174544763734 44:1.0 815:1.0 
0.5 0.5 107:1.0 416:1.0 
0.0 0.5 136:0.5 521:0.9000000424241439 
0.0 0.5 172:0.6000000254621896 650:1.0 
0.5 0.1866442430700655 34:0.6000000122714759 39:0.6250000108582975 43:0.6666666666666667 74:0.749999971841694 107:1.0 348:0.7499999831897232 562:0.749999955623067 998:1.0 1033:1.0 
0.07341596604903379 0.20130954492496655 5:0.6666666390855879 49:0.444444429302369 320:0.5000000154098349 362:0.5000000189195478 799:1.0 836:0.5000000112633224 1034:0.6666667078414262 1616:0.6666666763538792 
0.06556010144755572 0.14950521219912064 609:0.7500000310287149 908:1.0 1015:1.0 1016:1.0 
0.5 0.5 445:0.6666666842707168 866:1.0 888:0.7499999744477468 
4.3105379922761186E-4 5.618029917505489E-4 3:0.6666666666666666 98:0.4166666450181503 291:0.6666666893797814 343:0.5 508:0.6666667012489245 1035:1.0 
0.5 0.0 244:0.749999984282369 321:0.6249999807377068 341:1.0 598:1.0 
0.0 0.016926310101576022 13:0.7499999667185768 825:1.0 831:1.0 
0.0 0.5 211:1.0 324:0.749999957357466 
0.5 0.5 
0.0 0.3592588068360777 87:1.0 91:0.75 286:1.0 
0.025177583037630208 0.5 41:0.7499999363445339 403:1.0 412:0.7499999652534504 
0.0 0.49282836235014094 151:0.7500000310287149 699:0.75 
0.0 0.2630011315986994 5:1.0 46:1.0 113:0.6249999754186805 964:1.0 1026:0.6666666604676593 
0.0 0.35757398865082896 389:1.0 407:1.0 
0.19512575523762757 0.15166700559729587 247:0.75 671:0.7499999517019847 944:1.0 1017:0.7499999805474805 1195:0.7499999581567023 
0.0 0.5 719:0.7499999517019847 
0.2761217760142928 0.5 104:0.7500000313712354 116:0.6249999842876374 220:1.0 
0.4543553435002279 0.5 400:1.0 401:0.6666666339568993 1036:0.7499999999999999 
0.081585700989146 0.0 113:0.6249999754186805 204:1.0 302:0.7499999849166861 412:0.7499999652534504 499:1.0 848:1.0 911:1.0 936:1.0 946:1.0 1019:1.0 1037:1.0 
0.0 0.5 22:0.749999971815481 365:1.0 
0.0 0.3268687060552613 944:1.0 1038:1.0 
0.17284134609464452 0.5 31:0.4444444719922989 32:0.5 65:0.6666667038607111 1009:1.0 
0.0 0.3810111612748586 98:0.6249999837636127 154:0.7500000133234768 495:0.6000000570371266 612:0.749999957357466 913:1.0 1039:0.6666666455773246 1040:1.0 
0.0 0.14446974807414265 77:0.6666666790921765 98:0.6249999837636127 332:0.7499999444267639 396:1.0 531:1.0 832:1.0 
0.03889014827536783 0.5 27:0.75 39:0.6250000108582975 42:0.6249999577268117 484:0.6666666309136275 807:1.0 1041:0.75 
0.0 0.08321851747336009 13:0.7499999667185768 137:0.5714285872600368 315:1.0 951:1.0 
0.444480218209761 0.5 372:1.0 
0.4175726817779615 0.5 21:0.6666667219851456 194:1.0 237:0.749999950213248 389:1.0 656:0.6000000489703735 713:1.0 730:1.0 1133:1.0 
0.5 0.5 55:1.0 
0.5 0.5 43:0.6666666666666667 776:1.0 
0.0 0.5 828:0.749999950213248 1620:0.749999989101886 
0.3312256511224833 0.5 58:1.0 362:0.7499999716206784 480:1.0 
0.0 0.43318527270712925 494:1.0 
0.0 0.5 133:0.5 317:0.5000000189838297 338:0.6666666932794574 342:0.5 354:0.6666666666666665 385:0.6666666928609704 426:1.0 611:0.6666666893797814 772:0.6666666909283671 1250:0.6666667078414262 
0.0 0.02450551037082887 389:1.0 459:0.7499999746597522 542:1.0 727:1.0 
0.028108643668213328 0.5 27:0.75 916:1.0 1629:1.0 
0.06557457248115851 0.48283855550264115 609:0.7500000310287149 853:1.0 1015:1.0 1016:1.0 
0.0 0.34983783596191914 77:0.6666666790921765 331:0.6666666832906886 348:0.7499999831897232 823:1.0 827:1.0 994:1.0 
0.319922210484225 0.5 215:1.0 
0.0 0.5 21:0.6666667219851456 643:0.7499999744477468 1042:1.0 
0.0 0.03238994314109468 95:0.7499999490728025 
0.0 0.5 27:0.75 810:1.0 
0.0 0.5 456:1.0 
0.025882624884323968 0.21445849345964207 43:0.6666666666666667 800:1.0 960:1.0 
0.0 0.5 731:1.0 
0.053377973279946055 0.0 96:0.7499999827045217 178:1.0 277:1.0 582:1.0 
0.1512681749070717 0.5 136:1.0 183:0.7499999444267639 570:1.0 835:1.0 
0.0 0.17357484384150118 345:1.0 
0.0 0.5 332:0.7499999444267639 
0.1634926291265622 0.21894153410011472 27:0.75 96:0.7499999827045217 791:1.0 849:1.0 922:0.7499999258770598 1043:1.0 
0.5 0.5 140:1.0 379:0.3749999853548458 417:0.25 826:0.18749999823903318 1034:0.249999996911893 
0.3691174223576173 0.5 10:0.6666666318134509 21:0.6666667219851456 102:0.6666666542093518 314:0.75 383:0.7499999907042749 895:1.0 901:1.0 936:1.0 1488:1.0 
0.2996231522220093 0.5 285:0.7500000133234768 331:0.6666666832906886 332:0.7499999444267639 595:1.0 620:1.0 
0.5 0.5 26:0.75 
0.43527657495954636 0.3985524868849921 257:0.749999959740633 795:0.7500000133234768 906:1.0 1000:1.0 
0.5 0.5 19:1.0 48:0.4999999829429864 383:1.0 448:0.6666666666666666 1153:0.6666667078414262 1300:0.6666666666666666 
0.1592924087729724 0.05793953955499017 37:0.7499999843830788 747:1.0 899:1.0 957:1.0 1044:1.0 
0.49347706411525516 0.2001560084638964 798:1.0 821:1.0 1193:1.0 
0.14846474736201076 0.0 407:1.0 444:1.0 
0.017533790989069934 0.0 141:1.0 142:0.7499999672441865 484:0.6666666309136275 
0.23051125313869605 0.5 460:1.0 
0.2332971671468322 0.09066403654200712 33:0.6249999841724521 91:0.75 92:0.749999947606072 93:0.7499999930269495 94:0.7499999999999999 95:0.7499999490728025 248:0.7499999744477468 933:1.0 934:1.0 
0.2848080408426713 0.0 247:0.75 807:1.0 
0.31512594172318537 0.5 376:1.0 922:0.7499999258770598 
0.0 0.5 41:0.7499999363445339 
0.10208068507924416 0.1952265064675374 3:0.6666666666666666 98:0.4166666450181503 291:0.6666666893797814 343:0.5 508:0.6666667012489245 1035:1.0 
0.14894245920898982 0.5 412:0.7499999652534504 869:1.0 1047:1.0 1310:1.0 1422:0.7499999581567023 
0.0 0.5 126:1.0 722:1.0 
0.0 0.3503892663608249 117:1.0 251:1.0 354:1.0 369:1.0 884:1.0 966:1.0 
0.038784690921668516 0.028448983872918217 73:0.5 96:0.5 127:0.5 253:1.0 588:0.40000003127268735 1048:0.6666667078414262 
0.0 0.43644175167667465 770:1.0 834:1.0 
0.5 0.5 
0.5 0.38617013719628196 43:0.6666666666666667 231:1.0 544:1.0 827:1.0 1140:1.0 1232:0.75 
0.20916477070139675 0.5 140:0.914285711909058 
0.0 0.062144488090619 37:0.7499999843830788 413:0.7499999839904373 887:1.0 
0.0 0.19181479256101994 133:0.7499999657252442 372:0.7500000082333496 533:1.0 757:1.0 921:1.0 
0.01017579221507989 0.5 24:0.6666667067140367 70:0.8888889134178921 182:0.41666669940954765 1317:1.0 
0.5 0.5 4:0.7499999913915719 658:0.8333332269803824 
0.0 0.5 456:1.0 1004:0.749999971841694 
0.0 0.29707344353316734 48:0.749999957357466 83:1.0 104:0.7500000313712354 
0.17701940862781546 0.2452609799247079 27:0.75 352:1.0 617:1.0 725:0.7499999605489461 834:1.0 842:1.0 
0.11175423071128418 0.5 21:0.6666667219851456 
0.0 0.48893616230154346 104:0.500000020914157 136:0.6666667229034084 148:0.6666666511553128 285:1.0 783:0.6666667067140367 1328:0.6666666666666666 
0.4628472830179972 0.030952687717891142 113:0.4166666393540895 128:0.6666667067140367 156:1.0 319:0.6666666893797814 321:0.41666667094717624 372:0.500000016466699 663:0.6666666666666666 953:0.44444446146091743 
0.0 0.10709234333423809 389:1.0 462:0.75 643:0.7499999744477468 
0.0 0.01754793814036861 195:0.7499999605489461 264:0.7499999931763969 
0.0 0.5 184:1.0 
0.07215241893966416 0.19302293384380342 135:1.0 187:1.0 350:0.7499999874279919 619:1.0 725:0.7499999605489461 1041:0.75 1634:1.0 
0.08201266608897441 0.0 66:1.0 127:0.7499999310719352 286:1.0 460:1.0 473:0.7499999536783984 662:1.0 699:0.75 953:0.6666666156172476 
0.21150559697783855 0.002117256059749715 42:0.6249999577268117 183:0.7499999444267639 332:0.7499999444267639 385:1.0 470:0.6666666585794332 503:0.7499999363445339 569:1.0 595:1.0 734:1.0 806:0.6666666455773246 927:1.0 963:1.0 1017:0.7499999805474805 
0.0 0.30077451083901413 98:0.6249999837636127 666:1.0 
0.1466190589583828 0.5 77:0.6666666790921765 111:1.0 567:0.75 981:1.0 
0.23175375392726646 0.2765178911695926 179:0.6666666911989934 478:0.6666667067140367 562:0.49999998224922676 576:0.5 784:1.0 1051:0.6666666666666666 1208:0.6666667078414262 
0.0 0.1598380578049428 23:0.7499999517019847 220:1.0 460:1.0 521:0.6000000000000001 925:0.5624999778087819 
0.5 0.5 92:0.4999999850303063 267:0.6666666914597351 269:0.6666667325537312 476:0.8000000535232911 1176:0.5 
0.0 0.5 359:1.0 995:1.0 
0.0 0.5 148:1.0 374:0.7499999853878785 
0.12472012446983487 0.5 322:0.6666666914597351 483:0.6666666893797814 503:1.0 562:0.49999998224922676 603:0.666666701734272 
0.0 0.5 13:0.7499999667185768 34:0.6000000122714759 178:1.0 
0.00509607114955121 0.26163400184143715 166:1.0 362:0.7499999716206784 416:1.0 556:0.749999960458543 802:1.0 841:1.0 1033:1.0 1052:1.0 
0.5 0.5 693:1.0 
0.049508042495339626 0.0 96:0.5 188:1.0 200:0.666666701734272 210:0.49999998278314395 479:0.6666667078414262 739:0.6666667325537312 741:0.6666666763538792 871:0.6666667012489245 872:0.6666666914597351 979:0.6666666763538792 1539:0.6666667067140367 
0.0 0.5 21:0.6666667219851456 317:0.7500000094919149 
0.0 0.5 352:1.0 383:0.7499999907042749 832:1.0 963:1.0 
0.5 0.3151968691961614 579:1.0 720:1.0 
0.0 0.5 512:0.7499999744477468 
6.591949208711867E-17 0.5 983:1.0 
0.45507987573519865 0.42038592803702696 446:1.0 693:1.0 
0.052306704418429294 0.0 244:0.749999984282369 643:0.7499999744477468 1056:1.0 
0.0 0.1884836371438116 56:0.6666666486584345 77:0.6666666790921765 
0.24821062018914306 0.18480601817044923 125:0.6666666917115283 854:0.833333376920104 972:0.6666667067140367 1193:0.6666667067140367 
0.13499067426370784 0.5 2:1.0 732:1.0 1057:1.0 1127:1.0 1627:0.7499999536783984 
0.5 0.5 
0.0 0.4401727471063831 365:1.0 775:1.0 797:1.0 1629:1.0 
0.0 0.5 828:0.749999950213248 831:1.0 
0.0 0.5 247:0.75 1058:1.0 
0.0 0.4818337110530183 20:0.7500000082333496 22:0.749999971815481 224:1.0 332:0.7499999444267639 
0.0 0.5 5:1.0 176:1.0 287:0.7499999794694833 726:1.0 
0.0 0.5 136:1.0 443:0.7499999353905796 704:0.7499999918560715 
0.0 0.461403928869812 64:1.0 113:0.6249999754186805 
0.0 0.3048045629009991 41:0.7499999363445339 562:0.749999955623067 590:1.0 1396:1.0 
0.5 0.5 
0.3129183428629408 0.5 6:0.6000000208484583 127:0.7499999310719352 1437:0.7499999536783984 
0.0 0.5 21:0.6666667219851456 22:0.749999971815481 365:1.0 408:1.0 
0.5 0.5 
0.0 0.5 98:0.6249999837636127 156:0.7499999853878785 222:0.7500000082333496 247:0.75 521:0.6000000000000001 925:0.5624999778087819 
0.5 0.5 21:0.6666667219851456 170:0.749999989101886 826:0.7499999929561327 
0.5 0.0 183:0.5 239:0.6666666919551772 267:0.6666666914597351 413:1.0 
0.0 0.5 224:1.0 278:1.0 619:1.0 
0.5 0.34138761356557806 247:0.75 321:0.6249999807377068 
0.5 0.5 21:0.6666667219851456 141:1.0 142:0.7499999672441865 
3.469446951953614E-18 0.5 1032:1.0 
0.0 0.38701746980994206 195:0.7499999605489461 264:0.7499999931763969 
0.2842835434313576 0.4554942514423748 5:1.0 316:1.0 371:1.0 497:1.0 537:1.0 915:1.0 974:0.7499999929561327 1061:1.0 
0.0 0.5 1047:1.0 
0.34074619753575414 0.5 32:0.7499999831897232 104:0.7500000313712354 133:0.7499999657252442 220:1.0 497:1.0 907:1.0 921:1.0 981:1.0 
0.0 0.3142235462372295 10:0.6666666318134509 97:1.0 98:0.6249999837636127 
0.059853564876923594 0.5 10:0.6666666318134509 127:0.7499999310719352 300:0.6666666585794332 
0.40519430364671577 0.5 183:0.7499999444267639 344:1.0 
0.0 0.5 70:0.6666666666666666 126:1.0 332:0.7499999444267639 
0.0 0.5 700:1.0 1521:1.0 
0.13740954780777892 0.38080121900769964 39:0.41666669320917155 173:1.0 192:0.5 211:0.6666666914597351 273:0.6666667038607111 764:0.6666666666666666 773:0.6666666666666666 1062:0.6666667067140367 
0.0 0.5 703:1.0 
0.5 0.5 620:1.0 638:0.6666667105913793 1127:1.0 
0.32604257126519903 0.0 26:0.75 133:0.7499999657252442 256:1.0 286:1.0 836:0.749999971841694 1218:1.0 
0.018145782416982545 0.10931139272529801 27:0.5 38:1.0 183:0.5 770:0.6666666914597351 800:0.6666666778417852 
0.0 0.5 133:0.7499999657252442 551:0.7499999930269495 914:1.0 
0.01197296917981396 0.2621260832217563 34:0.40000001840721394 59:0.6666667038607111 131:0.6666666778417852 133:0.5 722:0.6666666778417852 723:0.6666667038607111 724:1.0 
0.5 0.0 151:0.7500000310287149 917:1.0 
0.04543878233437922 0.5 33:0.6249999841724521 137:0.5714285872600368 562:0.749999955623067 590:1.0 732:1.0 777:1.0 
0.21070243691560625 0.0 261:0.5714285714285714 315:1.0 907:1.0 954:1.0 
0.009691342535080279 0.5 20:0.3000000032933398 22:0.30000000375793584 561:1.0 
0.08691415365898775 0.5 620:1.0 840:1.0 
0.5 0.5 352:1.0 530:0.7499999746597522 
0.14106061202722503 0.0 407:1.0 497:1.0 577:1.0 740:1.0 997:1.0 
0.3822542653959683 0.2981263540588724 101:0.6666666778417852 157:0.6666666914597351 525:0.5 571:0.5 766:0.6666666893797814 802:0.6666667067140367 878:1.0 896:0.6666667078414262 1063:0.6666667078414262 1064:0.6666666763538792 
0.0 0.05601877443718077 21:0.6666667219851456 423:1.0 424:1.0 469:1.0 665:1.0 877:1.0 954:1.0 
0.3959584358586764 0.0 77:0.6666666790921765 138:1.0 914:1.0 1130:1.0 1162:1.0 
0.5 0.5 27:0.75 64:1.0 132:1.0 183:0.7499999444267639 239:1.0 
0.0 0.1644556208314081 21:0.4444444813234305 413:0.5 528:1.0 
5.551115123125783E-17 0.5 1053:1.0 
0.0 0.5 70:0.6666666666666666 174:0.749999950213248 456:1.0 
0.18288470471897714 0.5 21:0.19047621576463802 348:0.21428570948277803 618:0.2142857261563021 1065:1.0 
0.12766398888515434 0.0 819:1.0 882:1.0 1012:0.7499999536783984 
0.0 0.12449253736832545 1:0.7499999874279919 118:1.0 298:0.6666666666666667 
0.5 0.5 
0.0 0.04266561162989234 365:1.0 
0.0 0.05768706988553246 502:0.7499999805474805 520:1.0 613:1.0 750:1.0 930:1.0 
0.5 0.5 
0.2856505117808768 0.5 393:1.0 619:1.0 735:1.0 
0.5 0.0 133:0.7499999657252442 391:0.7499999716206784 411:1.0 
0.30387961798199714 0.0 247:0.75 365:1.0 901:1.0 1067:1.0 
0.0 0.18930368680878543 148:1.0 210:0.7499999913915719 614:0.6666666666666666 698:0.7499999930269495 730:1.0 878:0.7499999855133391 896:1.0 
0.22663222433006805 0.0 127:0.7499999310719352 252:1.0 362:0.7499999716206784 372:0.7500000082333496 406:1.0 647:1.0 1068:1.0 
0.5 0.5 
0.0 0.49118028472279446 23:0.7499999517019847 315:1.0 
0.0018916048310239396 0.5 214:0.7499999929561327 378:1.0 
0.09952731753740222 0.06408765722206244 359:1.0 
0.0 0.5 556:0.749999960458543 1046:1.0 
0.007567759181606666 0.36855661426851394 32:0.7499999831897232 77:0.6666666790921765 508:1.0 743:0.6249999728375116 991:1.0 1189:1.0 
0.5 0.5 
0.5 0.0 265:1.0 776:1.0 
0.0 0.2846049590228284 110:1.0 127:0.7499999310719352 128:1.0 324:0.749999957357466 1058:1.0 
0.0 0.5 72:1.0 73:0.7499999605503075 362:0.7499999716206784 396:1.0 1217:1.0 1434:0.7499999536783984 
0.0 0.10250402308153937 137:0.7619047830133823 841:0.6666666763538792 1052:0.6666667038607111 
0.5 0.5 585:0.7500000082333496 881:0.7500000310287149 
0.5 0.5 13:0.5 692:1.0 
0.5 0.5 1042:1.0 
0.0 0.5 98:0.6249999837636127 111:1.0 383:0.7499999907042749 
0.5 0.5 
0.03313438458056215 0.5 26:0.75 127:0.7499999310719352 178:1.0 232:0.75 1070:1.0 1214:1.0 
0.0 0.5 21:0.888888962646861 42:0.4166666384845411 70:0.44444445670894606 73:0.5 147:0.41666669425714187 576:1.0 617:0.6666666919551772 719:0.49999998620056707 734:0.6666666917115283 856:0.6666667067140367 
0.0 0.031182427469584183 21:0.888888962646861 62:0.6666666666666666 171:0.6666666914597351 283:0.6666667432408011 409:1.0 498:0.44444443243895626 611:0.6666666893797814 612:0.4999999829429864 620:0.6666666796552194 1052:0.6666667038607111 1064:0.6666666763538792 1071:1.0 
0.0 0.33083044563285285 28:1.0 70:0.6666666666666666 104:0.7500000313712354 117:1.0 201:1.0 688:0.749999957357466 929:0.7499999874279919 
0.0 0.5 863:1.0 
0.05184566765740014 0.3941757600347949 4:0.7499999913915719 433:1.0 
0.0 0.035337422789714204 1002:1.0 1038:1.0 
0.5 0.5 
0.03720837684818685 0.11342132920640711 857:1.0 1005:0.749999971841694 1025:1.0 1485:1.0 
0.5 0.5 957:1.0 
0.3414661271912343 0.0 620:1.0 733:1.0 
0.0 0.332515978614761 207:0.7499999855133391 286:1.0 968:1.0 
0.2935894593970816 0.5 949:1.0 1124:1.0 
0.0 0.0792503516515814 320:0.37499999614754126 468:0.7500000108981141 983:0.8749999646537628 993:0.5 
0.5 0.5 530:0.7499999746597522 
0.0 0.10206406495071776 15:0.5 21:0.4444444813234305 75:1.0 257:0.49999998389625316 317:0.5000000189838297 479:0.6666667078414262 1134:0.6666666795436988 1352:0.6666667078414262 
0.21418637461767362 0.26470850002603225 73:0.7499999605503075 426:0.7500000196650568 
0.5 0.5 
0.25386228273295575 0.5 813:1.0 1047:1.0 
0.34728839498474956 0.5 114:1.0 357:0.749999950213248 507:1.0 
0.23445167788410365 0.2627289303579015 11:1.0 12:1.0 247:0.75 391:0.7499999716206784 721:0.7500000133234768 757:1.0 
0.1759153715859116 0.0 77:0.6666666790921765 179:1.0 581:1.0 863:1.0 1208:1.0 
0.5 0.5 98:0.4166666450181503 116:0.41666668761648357 599:1.0 1073:0.6666666666666666 1074:0.6666667078414262 1482:0.6666666666666666 
0.0 0.5 169:1.0 180:0.7499999931763969 354:1.0 525:0.7499999838035099 882:1.0 
0.0 0.5 259:0.5 506:0.7333333333333333 
0.39028350512669135 0.5 171:1.0 173:0.749999950213248 274:1.0 287:0.7499999794694833 405:1.0 447:1.0 811:1.0 992:1.0 1147:1.0 1278:1.0 
0.0 0.5 2:0.6666667018387806 78:0.5000000136472064 133:0.5 147:0.8333333885142837 321:0.41666667094717624 331:0.4444444887751695 462:0.5 572:0.6666666548235765 1580:0.6666667067140367 
0.0 0.3770039901653439 143:0.7499999605489461 566:1.0 
0.42065542042782955 0.5 119:0.75 523:1.0 1028:1.0 
0.0 0.5 489:1.0 594:1.0 
0.0 0.5 42:0.6249999577268117 178:1.0 
0.5 0.5 
0.004070326676125845 0.09048119527386038 71:1.0 214:0.7499999929561327 849:1.0 
0.5 0.5 43:0.6666666666666667 315:1.0 1139:1.0 
0.03157750304479768 0.05468092259520488 204:1.0 209:0.6666666897584188 397:1.0 426:0.7500000196650568 461:0.7499999744477468 978:1.0 
0.0 0.009598284628532707 102:0.6666666542093518 623:1.0 1063:1.0 
0.0 0.40984905544058997 347:1.0 459:0.7499999746597522 
0.0 0.5 2:1.0 21:0.6666667219851456 104:0.7500000313712354 198:1.0 607:1.0 
0.0 0.35124200887182433 4:0.7499999913915719 324:0.749999957357466 338:1.0 427:1.0 722:1.0 1200:1.0 
0.06084009017263028 0.0 20:0.7500000082333496 21:0.6666667219851456 36:1.0 48:0.749999957357466 298:0.6666666666666667 391:0.7499999716206784 630:1.0 639:1.0 847:1.0 995:1.0 
0.5 0.5 
0.12571014305436132 0.41832601755883314 75:0.5000000140877345 383:0.50000001859145 416:0.6666666962501552 678:0.6666666763538792 932:1.0 1033:0.6666667078414262 1077:0.6666666763538792 
0.0 0.4774919971789016 27:0.75 147:0.625 148:1.0 274:1.0 381:1.0 572:1.0 606:1.0 834:1.0 1040:1.0 
0.3495584955058065 0.2588986500294145 7:0.7499999258770598 178:1.0 213:1.0 863:1.0 
0.0 0.3337587136715174 21:0.6666667219851456 27:0.75 54:1.0 89:0.749999947606072 315:1.0 565:1.0 995:1.0 
0.0 0.5 137:0.5714285872600368 609:0.7500000310287149 695:0.7499999353905796 735:1.0 997:1.0 
0.0 0.5 77:0.22222222015130397 229:0.33333334572986756 378:0.3333333389208926 453:0.25000000704386727 521:1.0 
0.2767420028032722 0.21782523406023144 141:1.0 142:0.7499999672441865 144:1.0 1036:0.7499999999999999 
0.0 0.32961621197036944 261:0.5714285714285714 336:1.0 638:0.6666667105913793 
0.0 0.3036696077910146 16:0.6666666156172476 117:1.0 406:1.0 609:0.7500000310287149 622:1.0 653:1.0 887:1.0 
0.5 0.1947226098430425 505:1.0 676:0.749999947606072 827:1.0 
0.0 0.5 21:0.6666667219851456 38:0.7499999581567023 98:0.6249999837636127 321:0.6249999807377068 
0.050475059175641275 0.5 112:1.0 
0.23321266638587929 0.5 22:0.4999999812103207 274:0.6666666938724274 476:0.40000002676164553 573:1.0 661:0.6666666763538792 719:0.49999998620056707 1130:0.6666666911989934 
0.5 0.0982842796540934 247:0.75 462:0.75 483:1.0 1046:1.0 
0.0 0.4550182331686161 106:1.0 307:0.7499999930269495 530:0.7499999746597522 
0.0 0.5 48:0.4999999829429864 172:0.4000000509243793 278:0.6666666666666666 694:0.6666667038607111 695:0.500000014357649 903:0.5 983:0.3888888773686338 1065:0.7777777954435334 1483:0.6666666666666666 
0.0 0.5 961:0.8000001265031714 
0.0 0.5 382:0.749999959740633 717:1.0 
0.5 0.5 21:0.6666667219851456 
0.0 0.5 428:1.0 1374:1.0 
0.0 0.13359028028997014 35:1.0 304:0.7499999805474805 480:1.0 627:1.0 980:1.0 1307:1.0 
0.0 0.5 21:0.6666667219851456 95:0.7499999490728025 
0.049980036035207245 0.5 332:0.7499999444267639 
0.0 0.5 21:0.6666667219851456 453:0.7499999929561327 734:1.0 
0.0 0.5 5:1.0 257:0.749999959740633 957:1.0 1078:1.0 
0.08851244812587249 0.24353271285018085 21:0.6666667219851456 44:1.0 653:1.0 993:1.0 
0.20793981357346797 0.0 24:1.0 136:1.0 426:0.7500000196650568 875:0.7499999517019847 1051:1.0 
0.0 0.5 21:0.6666667219851456 42:0.6249999577268117 363:0.7499999999999999 
0.5 0.4987634231523178 546:1.0 868:1.0 1262:1.0 
0.24648568177011332 0.0 440:1.0 441:1.0 520:1.0 671:0.7499999517019847 677:1.0 825:1.0 1039:0.6666666455773246 
0.0 0.5 73:0.37499998027515374 116:0.3124999890013461 182:0.3125000122785804 220:0.5 253:0.3749999768391992 284:0.5000000145308189 391:0.37499998202642965 521:0.9000000424241439 647:0.5000000161582803 
0.0 0.48295818378899763 523:1.0 1032:1.0 
0.0 0.5 6:1.0 113:0.20833333606459103 116:0.20833333752329672 701:0.3333333539207131 761:0.3333333389208926 1633:0.33333335335701836 
0.021988765545621472 0.5 302:0.7499999849166861 436:1.0 640:1.0 995:1.0 1225:0.7499999258770598 
0.0 0.22054144636234022 26:0.75 289:1.0 749:1.0 860:1.0 1001:0.583333331606216 
0.0 0.5 75:0.5000000140877345 656:0.8000000979407469 699:0.5 861:1.0 
0.5 0.5 
0.5 0.5 81:1.0 
0.016606301833888473 0.06980106621039012 88:1.0 89:0.749999947606072 181:0.75 438:1.0 564:1.0 1079:1.0 
0.28568712674278085 0.0 76:0.6666667078414262 207:1.0 294:0.6666666778417852 585:0.500000016466699 716:0.4444444572526878 941:0.6666667078414262 1054:0.6666666778417852 1126:0.6666667067140367 
0.16835701411436968 0.5 22:0.749999971815481 647:1.0 884:1.0 961:0.600000035579017 1477:1.0 1519:1.0 
0.2923607316303299 0.0 27:0.75 127:0.7499999310719352 136:1.0 209:0.6666666897584188 222:0.7500000082333496 303:1.0 355:0.7499999853878785 361:1.0 463:1.0 929:0.7499999874279919 1133:1.0 
0.0 0.5 272:1.0 489:1.0 862:0.7499999258770598 1057:1.0 
0.0 0.028186931432397953 148:1.0 174:0.749999950213248 206:1.0 
0.01101733283623398 0.28721120823477736 26:0.75 229:1.0 255:0.7499999929561327 941:1.0 
0.01037901717189148 0.5 112:1.0 
0.09326859046100261 0.004474419771405289 44:1.0 111:1.0 137:0.5714285872600368 324:0.749999957357466 498:0.6666666486584345 521:0.6000000000000001 988:1.0 1191:1.0 
0.0 0.5 542:1.0 
0.0 0.5 26:0.75 127:0.7499999310719352 151:0.7500000310287149 656:0.6000000489703735 782:1.0 
0.5 0.44676150104517925 503:0.7499999363445339 525:0.7499999838035099 845:1.0 846:1.0 881:0.7500000310287149 920:1.0 
0.5 0.0 233:0.7499999929561327 698:0.7499999930269495 815:1.0 876:1.0 1168:1.0 
0.15302760375191848 0.0 21:0.6666667219851456 222:0.7500000082333496 377:1.0 528:0.7499999929561327 738:1.0 926:1.0 1080:1.0 1141:1.0 
0.5 0.5 10:0.8888888540356731 179:0.6666666911989934 293:0.6666666666666666 770:0.6666666914597351 
0.5 0.5 265:1.0 
0.0 0.5 458:1.0 1081:1.0 
0.39260981158948566 0.40744155321842696 39:0.6250000108582975 117:1.0 698:0.7499999930269495 699:0.75 1622:1.0 
0.0 0.410159068861344 1082:1.0 
0.0 0.5 389:0.5 535:0.5 983:0.8749999646537628 
0.1290985763929019 0.2782900999155668 73:0.7499999605503075 219:1.0 254:1.0 
0.2019728411183073 0.0 127:0.7499999310719352 562:0.749999955623067 749:1.0 832:1.0 840:1.0 1187:0.749999971841694 
0.5 0.5 912:1.0 1440:1.0 
0.14853166422396433 0.10455662148610848 34:0.8000000368144279 391:1.0 1031:1.0 
0.07964195578603804 0.10717800281748215 138:1.0 372:0.7500000082333496 728:1.0 1083:1.0 
0.0 0.42780285633450027 575:1.0 
0.17193591797417865 0.0 54:0.6666666893797814 60:1.0 133:0.5 137:0.38095239150669113 381:0.6666667067140367 467:0.6666666909283671 611:0.6666666893797814 671:1.0 958:0.6666667038607111 1278:0.6666666666666666 
0.0 0.3559094567944104 21:0.6666667219851456 117:1.0 349:1.0 872:1.0 1085:0.749999989101886 1086:1.0 1087:1.0 1475:1.0 
0.5 0.5 67:0.7499999517019847 1036:0.7499999999999999 
0.3901848588918402 0.20818043308000728 122:0.6666666212404403 329:1.0 496:0.7499999843830788 546:1.0 630:1.0 642:1.0 945:1.0 
0.0 0.5 298:0.6666666666666667 373:0.75 
0.0 0.5 148:1.0 174:0.749999950213248 
0.0 0.5 1037:1.0 
0.0 0.5 300:0.6666666585794332 
0.1723304997021568 0.12201610234534153 98:0.6249999837636127 198:1.0 242:1.0 243:1.0 348:0.7499999831897232 681:0.5208333406558259 
0.5 0.2765998208498906 20:0.500000016466699 111:0.6666666795436988 164:1.0 216:0.6666667325537312 688:0.4999999829429864 783:0.6666667067140367 1018:0.6666667432408011 
0.5 0.0 127:0.7499999310719352 627:1.0 910:1.0 1150:0.749999989101886 1233:1.0 
0.5 0.5 
0.5 0.5 
0.5 0.5 
0.18824437128434732 0.5 332:0.7499999444267639 
0.018923028248174552 0.5 21:0.6666667219851456 22:0.749999971815481 700:1.0 1017:0.7499999805474805 
0.14337822576527728 0.0 1:0.2999999949711967 10:0.5333333542452628 16:0.266666646246899 20:0.6000000065866796 26:0.30000000000000004 39:0.250000004343319 53:0.40000002530721135 68:0.299999979629121 101:0.4 102:0.26666665420935165 103:0.26666665556130076 113:1.0 136:0.4000000084355113 137:0.22857143490401471 173:0.30000000284495726 181:0.30000000000000004 213:0.4000000218355304 216:0.4000000395322387 224:0.40000000691645154 234:0.40000004208112633 237:0.599999977240342 259:0.29999998775740816 274:0.39999999999999997 291:0.4000000272557377 341:0.40000002530721135 389:0.40000002676164553 390:0.5333333281379122 454:0.39999997841792145 530:0.3 577:0.39999999999999997 582:0.4000000218355304 660:0.8 663:0.40000000646331213 664:0.40000000646331213 710:0.39999999442089335 806:0.26666667510240355 826:0.2999999971824531 859:0.39999999442089335 860:0.3999999842834177 980:0.4000000232493102 986:0.2999999971824531 1062:0.4 1069:0.26666666803915867 1089:0.7999999665253609 1090:0.3999999938237861 1091:0.4 1164:0.26666666666666666 1165:0.2666666604676593 1229:0.2999999887366776 
0.1940389052687639 0.08388000532094131 1:0.37499999371399595 53:0.49999998418299285 96:0.3749999740567824 113:0.31249998770934023 137:0.2857142936300184 156:0.7499999853878785 190:0.5000000161582803 274:0.5 318:0.37499999999999994 327:0.5000000161582803 371:0.5 390:1.0 407:0.5 415:0.5 535:0.5 582:0.5000000181962753 1001:0.29166665544040404 1069:0.33333334019579336 1089:1.0 
0.13268735239377047 0.0 10:1.0 34:0.30000000613573796 39:0.6250000108582975 62:0.5 100:0.49999998418299285 237:0.3749999893314103 257:0.37499996376656974 274:0.5 371:0.5 525:0.3749999919017549 604:0.5 716:0.6666666512967746 760:0.37499998813724467 860:1.0 914:0.5000000161582803 928:0.5000000139477667 1001:0.29166665544040404 1069:0.33333334019579336 1091:0.5000000150177637 1092:0.7499999790783511 
0.34995754768796344 0.11970685386037401 48:0.21428571282368458 107:0.5714285931044377 137:0.16326530668785846 259:0.21428570597824126 302:0.2142857142857143 307:0.4285714604482305 362:0.21428571158292176 372:0.4285714285714286 389:0.285714308015657 411:0.28571429960336153 412:0.21428572421329992 477:0.28571429747983296 529:0.28571429747983296 573:0.42857141864537107 577:0.2857143064986936 581:0.28571429960336153 705:0.2142857083716716 1006:0.38095239048746854 1018:0.2857143064986936 1054:0.5714285857965808 1077:0.5714285797318965 1085:0.2142857142857143 1086:0.28571428986594827 1087:0.28571428986594827 1094:1.0 1095:0.4285714285714286 1096:0.2857142817292095 1339:0.28571429956424027 1366:0.28571429065460824 1416:0.28571429956424027 1419:0.8571428372907421 
0.09732495197107448 0.0 62:0.5 68:0.37499997453640127 113:0.9374999959031133 138:0.5 151:0.37500001551435747 173:0.3749999893314103 204:0.5 247:0.375 274:0.5 297:0.5000000145308189 330:0.500000020822562 372:0.3749999876499759 383:0.7499999907042749 384:0.5 403:0.5000000161582803 454:0.5 570:0.5 582:0.5000000181962753 585:0.7500000082333496 744:1.0 747:0.5 761:0.5 847:0.5 878:0.37499999275666956 918:0.5000000145308189 970:0.37500001211871026 986:0.37499999647806637 1006:0.66666663329386 1012:0.3749999768391992 1029:0.5000000139477667 1060:0.5000000150177637 1092:0.7499999790783511 1194:0.5 1492:0.5000000145308189 
0.03527670184378565 0.0 21:0.5333333665244208 26:0.30000000000000004 27:0.5999999823166466 42:1.0 77:0.2666666716368705 98:0.25 104:0.3000000125484942 113:0.5 164:0.3000000060333256 204:0.7999999922068682 234:0.8000000841622527 274:0.39999999999999997 317:0.3000000189838298 324:0.2999999829429864 331:0.2666666832906886 341:0.40000002530721135 372:0.3000000032933398 407:0.3999999766206051 411:0.4 451:0.4000000232493102 477:0.4000000395322387 516:0.39999997841792145 527:0.40000000646331213 581:0.4 643:0.3000000102209013 644:0.3999999766206051 646:0.4 664:0.40000000646331213 670:0.3999999842834177 699:0.2999999881172664 705:0.8999999806807939 725:0.3000000157804215 871:0.40000000691645154 872:0.4000000223137616 930:0.39999999442089335 944:0.40000000691645154 945:0.4 1003:0.4000000395322387 1004:0.2999999887366776 1011:0.39999999442089335 1041:0.3000000048474841 1269:0.4 
0.05685172180646609 0.0 39:0.6250000108582975 102:0.6666666542093518 113:0.6249999754186805 133:0.7499999657252442 181:0.75 390:0.6666666666666666 412:0.7499999652534504 519:1.0 800:1.0 900:1.0 1085:0.749999989101886 1086:1.0 1087:1.0 
0.5 0.5 1225:0.7499999258770598 
0.0 0.013023449310797016 372:0.7500000082333496 422:0.749999989101886 837:1.0 965:1.0 
0.16299335315495825 0.2932185897398301 44:1.0 429:0.5 464:1.0 539:0.5 589:0.49999998418299285 947:0.5 954:0.5000000150177637 955:0.5000000139477667 962:0.5 1047:0.5 1295:0.5000000150177637 
0.0 0.5 113:0.6249999754186805 127:0.7499999310719352 962:1.0 
0.5 0.5 26:0.75 43:0.6666666666666667 96:0.7499999827045217 207:0.7499999855133391 
0.5 0.5 435:0.666666684803841 
0.15657534273107304 0.24938924514272873 37:0.7499999843830788 64:1.0 612:0.749999957357466 630:1.0 730:1.0 
0.0 0.5 157:0.6666666914597351 179:0.6666666911989934 183:1.0 317:0.5000000189838297 478:0.6666667067140367 498:0.44444443243895626 518:0.6666667067140367 805:0.6666666666666666 
0.2954262211224369 0.4788238614297682 16:0.6666666156172476 737:1.0 
0.0 0.5 42:0.6249999577268117 459:0.7499999746597522 
0.0 0.060198447917294486 686:0.7499999731547246 688:0.749999957357466 
0.07500853173846517 0.0 686:0.7499999731547246 688:0.749999957357466 
0.00791946547514037 0.001869698202918952 439:0.499999981748876 680:0.6666666387242112 681:0.347222256393854 682:1.0 683:0.5 684:1.0 685:1.0 686:1.0 687:1.0 688:0.4999999829429864 
2.7755575615628914E-17 0.34695300708730886 996:1.0 
0.0 0.13251263577060274 439:0.750000009125562 1014:1.0 
2.356434363141442E-4 0.5 1544:1.0 
0.0 0.17187747006441761 21:0.6666667219851456 349:1.0 510:1.0 
0.0 2.4190976708492195E-4 365:1.0 532:1.0 
0.0 0.2515050415940263 67:0.7499999517019847 100:1.0 
0.12345928739885713 0.5 789:1.0 816:1.0 
0.011103195192918195 0.0 26:1.0 107:0.6666666919551772 700:0.6666666893797814 
0.18660134309898294 0.2299887209070573 10:0.6666666318134509 32:0.7499999831897232 187:1.0 209:0.6666666897584188 338:1.0 459:0.7499999746597522 558:1.0 560:0.749999971841694 699:0.75 743:0.6249999728375116 962:1.0 1040:1.0 1073:1.0 1099:1.0 1100:1.0 1214:1.0 
0.21692966250806114 0.31138229673568396 9:0.5 26:0.375 31:1.0 48:0.374999978678733 96:0.3749999740567824 110:0.5000000175338026 157:0.5 172:0.3 180:0.37500001023540475 335:0.3749999629385299 355:0.7499999853878785 391:0.37499998202642965 417:0.5 438:0.5 440:0.5 448:0.5000000161582803 462:0.375 562:0.3749999600607602 584:1.0 591:0.3333333415976896 700:0.5 773:0.49999998418299285 886:0.5000000150177637 944:0.5 946:0.5 1071:0.3749999971841694 1446:0.5 1463:0.5 
0.5 0.0 127:0.7499999310719352 391:0.7499999716206784 1102:0.749999989101886 
0.5 0.15596363828565094 70:0.44444445670894606 188:1.0 200:0.666666701734272 244:0.4999999685647382 358:0.5 386:0.6666666893797814 426:1.0 440:0.6666666666666667 498:0.44444443243895626 525:0.5 597:0.5 657:1.0 1022:0.6666666666666666 1070:0.6666666666666666 1207:0.5 1232:0.5 
0.0 0.48508871909999357 499:0.6666666932794574 548:0.6666666763538792 835:0.6666666778417852 943:0.6666666666666666 1102:1.0 1306:0.6666666778417852 
0.04125067160539408 0.0 4:0.49999998278314395 70:0.8888889134178921 204:0.6666666796552194 211:0.6666666914597351 247:0.5 358:1.0 385:0.6666666928609704 400:0.6666667325537312 401:0.8888889025179587 442:0.6666666763538792 462:0.5 525:0.5 569:0.6666666666666666 597:0.5 676:1.0 764:0.6666666666666666 894:1.0 904:0.6666666778417852 921:0.6666666548235765 1102:1.0 1103:0.6666666763538792 1386:0.6666667067140367 
0.18925072243747246 0.21416600328247043 31:0.6666666831953793 239:1.0 894:0.75 
0.0 0.41244606591631133 62:1.0 801:1.0 
0.05642408686305451 0.5 155:1.0 894:0.75 
0.0 0.5 113:0.6249999754186805 924:1.0 
0.06912522840223378 0.0 5:1.0 229:1.0 286:1.0 555:1.0 1360:1.0 
0.15166630605032952 0.0 178:1.0 544:1.0 551:0.7499999930269495 739:1.0 858:1.0 1084:1.0 
0.0 0.5 37:1.0 424:0.6666667325537312 498:0.44444443243895626 847:0.6666667012489245 
0.03124410844323477 0.0 26:0.75 27:0.75 34:0.6000000122714759 42:0.6249999577268117 96:0.7499999827045217 111:1.0 235:1.0 239:1.0 315:1.0 317:0.7500000094919149 503:0.7499999363445339 871:1.0 872:1.0 887:1.0 1105:1.0 1409:1.0 
0.00264813126620958 0.0993407191900253 22:0.749999971815481 155:1.0 239:1.0 510:1.0 627:1.0 730:1.0 883:0.7499999353905796 1105:1.0 1203:1.0 
0.0919317923130719 0.0 21:0.6666667219851456 66:1.0 127:0.7499999310719352 209:0.6666666897584188 317:0.7500000094919149 342:0.7499999874279919 763:0.7499999744477468 769:1.0 832:1.0 907:1.0 1039:0.6666666455773246 1099:1.0 1105:1.0 1106:0.7499999581567023 1107:1.0 1404:1.0 
0.0 0.5 98:0.6249999837636127 1039:0.6666666455773246 
0.2381738293637284 0.4256635430817597 665:1.0 897:1.0 
0.10834129984858695 0.5 70:0.44444445670894606 137:0.7619047830133823 312:0.6666667038607111 1049:0.6666666763538792 
0.5 0.5 81:1.0 
0.0 0.35565647353709784 1063:1.0 
0.5 0.34843520858183197 110:1.0 142:0.7499999672441865 146:1.0 147:0.625 183:0.7499999444267639 274:1.0 306:0.7499999693935204 982:1.0 989:1.0 1059:1.0 1101:0.749999989101886 1170:1.0 1381:1.0 
0.46947871788730977 0.5 445:0.6666666842707168 
0.0 0.5 1051:1.0 
0.0 0.5 169:0.6666666666666666 974:1.0 
0.0 0.5 27:0.75 124:1.0 127:0.7499999310719352 
0.0 0.5 20:0.7500000082333496 27:0.75 495:0.6000000570371266 832:1.0 
0.23837097048174857 0.0 70:0.44444445670894606 84:0.6666667067140367 124:0.6666666763538792 127:0.5 181:0.5 287:0.5 292:0.5 302:0.5 389:0.6666667112694091 427:0.6666667012489245 502:1.0 571:1.0 705:1.0 766:0.6666666893797814 781:0.6666666893797814 827:0.666666701734272 860:0.6666666928609704 968:0.6666667325537312 989:0.6666667038607111 1039:0.44444443038488307 1066:0.6666666763538792 1074:0.6666667078414262 1079:0.6666666893797814 
0.1578040583484515 0.0 132:1.0 841:1.0 1108:0.6666666455773246 
0.2223430988818969 0.3369816449080881 127:0.7499999310719352 1100:1.0 1108:0.6666666455773246 
0.08328200087158534 0.0 34:0.30000000613573796 39:0.6250000108582975 48:0.374999978678733 70:0.3333333333333333 78:0.37500001023540475 85:0.5 136:0.5 224:0.5 321:0.6249999807377068 460:0.4999999780444017 462:0.375 745:0.5000000145308189 1031:0.7499999774733557 1100:0.5000000145308189 1108:1.0 1188:0.749999989101886 
0.18147854677003908 0.0 70:0.44444445670894606 99:0.5 127:0.5 174:0.4999999857752137 204:0.6666666796552194 473:1.0 571:0.5 702:0.6666667078414262 766:0.6666666893797814 878:0.5 1048:0.6666667078414262 1234:0.6666667078414262 
0.18716997635796406 0.1780179564042786 544:1.0 
0.0 0.4214313755608039 1056:1.0 
0.0 0.1838650431592645 70:0.6666666666666666 126:1.0 141:1.0 218:1.0 545:1.0 1196:1.0 
0.17805231506753744 0.5 1068:1.0 
0.0 0.5 315:1.0 
0.34431374138090776 0.11816721581388953 303:1.0 393:1.0 788:1.0 
0.09913795540424157 0.23076837979119139 4:0.49999998278314395 74:1.0 747:0.6666666795436988 902:0.6666667078414262 1082:0.6666667038607111 1093:0.6666666763538792 
0.03663334082688859 0.0 2:0.6666667018387806 98:0.8333332900363006 277:0.6666667038607111 348:0.5 562:0.49999998224922676 699:0.5 746:0.6666667078414262 985:0.4444444444444445 1122:0.6666667078414262 1209:0.5 
0.0 0.5 240:1.0 504:1.0 
0.3942416743049201 0.5 340:1.0 
0.15314452477811322 0.5 42:0.6249999577268117 157:1.0 183:0.7499999444267639 512:0.7499999744477468 
0.059764123043264714 0.0 10:0.6666666318134509 21:0.6666667219851456 22:0.749999971815481 157:1.0 159:1.0 183:0.7499999444267639 248:0.7499999744477468 612:0.749999957357466 626:0.7499999353905796 675:1.0 940:1.0 
0.12942344187384178 0.0 42:0.6249999577268117 147:0.625 525:0.7499999838035099 626:0.7499999353905796 734:1.0 839:1.0 
0.5 0.0 13:0.7499999667185768 21:0.6666667219851456 42:0.6249999577268117 235:1.0 363:0.7499999999999999 499:1.0 525:0.7499999838035099 626:0.7499999353905796 659:1.0 
0.0 0.5 180:0.7499999931763969 
0.1658056723758477 0.5 353:0.7499999652534504 742:1.0 764:1.0 1220:1.0 
0.4339722859955169 0.0 4:0.7499999913915719 10:0.6666666318134509 247:0.75 577:1.0 612:0.749999957357466 892:1.0 944:1.0 1220:1.0 
0.053278275684844924 0.0 42:0.6249999577268117 209:0.6666666897584188 362:0.7499999716206784 603:1.0 626:0.7499999353905796 670:1.0 811:1.0 827:1.0 1254:1.0 
2.7755575615628914E-17 0.1891982423739361 959:1.0 
0.16762507714744587 0.0 105:0.7499999581567023 306:0.7499999693935204 354:1.0 556:0.749999960458543 598:1.0 697:1.0 905:0.749999971841694 975:1.0 1081:1.0 
0.06061410379074411 0.2807247321210811 354:1.0 382:0.749999959740633 674:1.0 878:0.7499999855133391 1081:1.0 
0.042585094582464914 0.0 63:0.7499999853878785 64:1.0 69:1.0 102:0.6666666542093518 117:1.0 209:0.6666666897584188 221:0.7499999517019847 258:0.75 282:1.0 286:1.0 376:1.0 515:1.0 610:1.0 630:1.0 700:1.0 779:1.0 874:1.0 962:1.0 1003:1.0 
0.0 0.5 564:1.0 959:0.7499999581567023 
0.14513440782034995 0.0 1:0.7499999874279919 42:0.6249999577268117 102:0.6666666542093518 432:1.0 
0.5 0.0 14:1.0 102:0.6666666542093518 209:0.6666666897584188 496:0.7499999843830788 522:0.7499999605489461 580:1.0 670:1.0 695:0.7499999353905796 1017:0.7499999805474805 
0.5 0.5 1173:1.0 
0.07404990846477005 0.5 20:0.7500000082333496 462:0.75 562:0.749999955623067 586:1.0 597:0.7499999838035099 958:1.0 986:0.7499999929561327 1073:1.0 1096:1.0 
0.5 0.5 391:0.7499999716206784 584:1.0 
0.0 0.5 21:0.6666667219851456 
0.0 0.3539386053734476 21:0.6666667219851456 456:1.0 1011:1.0 1050:1.0 
0.0 0.5 633:0.75 
0.4072551040762307 0.45985289863960443 540:1.0 862:0.7499999258770598 
0.3472792812625379 0.41358937572383286 283:1.0 510:1.0 650:1.0 883:0.7499999353905796 
0.0 0.5 27:0.75 244:0.749999984282369 338:1.0 891:1.0 
0.0 0.285881310435494 21:0.4444444813234305 22:1.0 68:1.0 127:1.0 162:0.6666667078414262 363:0.5 409:0.5000000139461008 613:0.6666666390855879 1071:0.5000000112633224 1453:0.6666667067140367 
0.0 0.5 27:0.75 68:0.7499999490728025 433:1.0 767:1.0 878:0.7499999855133391 
0.5 0.5 348:0.7499999831897232 353:0.7499999652534504 
0.0 0.05435328308573113 678:1.0 
0.5 0.5 1480:1.0 
0.5 0.5 
0.2707263601793189 0.21200546751219965 161:1.0 177:0.7499999744477468 211:1.0 512:0.7499999744477468 831:1.0 992:1.0 
0.0 0.5 21:0.6666667219851456 56:0.6666666486584345 149:0.7499999353905796 179:1.0 249:1.0 354:1.0 366:1.0 383:0.7499999907042749 475:1.0 570:1.0 577:1.0 595:1.0 808:1.0 1081:1.0 
0.5 0.0 686:0.7499999731547246 688:0.749999957357466 
0.5 0.0 686:0.7499999731547246 688:0.749999957357466 
0.5 0.0 686:0.7499999731547246 688:0.749999957357466 
0.5 0.0 686:0.7499999731547246 688:0.749999957357466 
0.5 0.0 686:0.7499999731547246 688:0.749999957357466 
0.5 0.23044585151494978 686:0.7499999731547246 688:0.749999957357466 
2.013573054248995E-4 0.0 439:0.499999981748876 680:0.6666666387242112 681:0.347222256393854 682:1.0 683:0.5 684:1.0 685:1.0 686:1.0 687:1.0 688:0.4999999829429864 
2.6894786514714534E-4 0.05047770751741097 996:1.0 
0.002259985766882402 0.5 439:0.750000009125562 1014:1.0 
2.4607187833082815E-4 0.5 651:1.0 
0.5 0.5 107:0.500000018966383 201:0.49999998418299285 209:1.0 525:0.3749999919017549 
0.3778496480966736 0.26557078827385383 39:0.6250000108582975 98:0.6249999837636127 467:1.0 974:0.7499999929561327 
0.0 0.006489013661357687 313:1.0 1064:1.0 
0.41857264085104845 0.0 237:0.749999950213248 467:1.0 653:1.0 974:0.7499999929561327 
0.10214474402833004 0.5 1136:0.7499999744477468 1379:1.0 1621:1.0 
0.14610840983061604 0.0 48:1.0 391:0.5000000189195478 412:0.5 456:0.6666666795436988 
0.14831836193919495 0.014626110045895167 28:1.0 84:1.0 127:0.7499999310719352 175:0.7499999536783984 202:1.0 204:1.0 286:1.0 570:1.0 659:1.0 1043:1.0 
0.5 0.5 26:0.375 39:0.31250000542914874 52:0.3749999629385299 70:0.3333333333333333 98:0.3124999918818063 113:0.31249998770934023 135:0.49999998418299285 148:0.4999999767329692 156:0.37499999269393924 222:0.3749999876499759 299:0.3749999764235537 305:0.4999999822353646 331:0.3333333466325508 415:0.5 416:0.4999999778123835 417:0.5 429:0.5 496:0.3750000078084606 562:0.3749999600607602 588:0.30000001042422914 597:0.3749999919017549 638:1.0 763:0.3749999872238734 877:0.5000000139477667 909:0.37500001023540475 913:0.5 952:0.5000000145308189 1104:0.5000000145308189 1112:0.5 
0.1054482896643585 0.2518483524285906 26:0.75 104:0.7500000313712354 1112:1.0 1113:1.0 
0.1424494200174278 0.0 5:0.6666666390855879 27:0.5 70:0.44444445670894606 96:0.5 137:0.38095239150669113 309:0.6666666763538792 321:0.41666667094717624 324:0.4999999829429864 461:0.5 530:0.49999998310650146 697:0.6666667325537312 782:0.6666666778417852 786:0.8000000137833433 891:0.6666666666666666 901:0.666666701734272 1010:0.6666667038607111 1030:0.5 1060:0.6666667067140367 1113:0.6666667038607111 1233:0.6666667067140367 1287:0.6666667078414262 
0.1297812077539684 0.5 460:1.0 852:1.0 1036:0.7499999999999999 
0.09388073428436364 0.32618299267122464 34:1.0 121:0.3333333662768656 166:0.6666667038607111 261:0.1904761993007114 284:0.3333333236461207 574:0.6666667325537312 597:0.5 716:0.2222222170989249 721:0.25000000266469535 760:0.25 761:0.3333333389208926 822:0.33333335193035557 860:0.6666666928609704 889:1.0 1001:0.19444444248704482 1018:0.6666667432408011 1023:0.3333333333333333 1054:0.3333333389208926 1088:1.0 1090:0.3333333539207131 1095:0.249999989101886 1114:0.6666666909283671 1115:1.0 1116:0.6666667038607111 1151:0.25 1392:0.25 1440:0.3333333539207131 
0.5 0.5 210:0.7499999913915719 389:1.0 1097:1.0 1114:1.0 1267:1.0 
0.0 0.5 21:0.6666667219851456 22:0.749999971815481 54:1.0 211:1.0 315:1.0 350:0.7499999874279919 385:1.0 391:0.7499999716206784 406:1.0 562:0.749999955623067 618:0.749999960431374 644:1.0 798:1.0 1253:0.7499999605489461 1464:1.0 1585:1.0 
0.22033793078321984 0.16725470257628874 127:0.7499999310719352 621:1.0 1109:1.0 
0.0 0.34131031170840637 233:0.7499999929561327 953:0.6666666156172476 1034:1.0 1222:0.7499999581567023 
0.5 0.5 148:1.0 
0.11398020680732124 0.3215456730646461 148:1.0 814:1.0 
0.0 0.5 929:0.7499999874279919 
0.5 0.5 21:0.6666667219851456 22:0.749999971815481 445:0.6666666842707168 738:1.0 
0.056667056120981336 0.2545479865603228 42:0.6249999577268117 183:0.7499999444267639 261:0.5714285714285714 935:1.0 1117:1.0 
0.39698442135869116 0.5 183:0.7499999444267639 192:0.7499999849166861 287:0.7499999794694833 342:0.7499999874279919 358:0.7500000133234768 806:0.6666666455773246 1283:1.0 
0.02640486127216745 0.0 109:1.0 223:1.0 413:0.7499999839904373 459:0.7499999746597522 562:0.749999955623067 1068:1.0 1414:1.0 
0.11308514451673352 0.0 26:0.5 42:0.4166666384845411 52:0.5 68:1.0 104:1.0 111:0.6666666795436988 141:0.6666666909283671 142:0.5 181:0.5 183:0.5 214:0.5000000140877345 222:1.0 261:0.3809523986014228 329:0.6666666666666666 383:0.50000001859145 388:0.6666666666666666 389:0.6666667112694091 412:0.5 445:0.44444445618047795 468:1.0 539:0.6666667012489245 558:0.6666666666666666 562:1.0 563:0.6666667325537312 608:0.6666666893797814 671:0.49999998620056707 708:0.6666666778417852 709:0.6666666893797814 763:1.0 781:0.6666666893797814 813:0.6666666917115283 848:0.6666666666666667 881:0.5 888:0.5 890:0.6666667325537312 919:0.6666667067140367 922:0.5 971:0.6666666666666666 984:0.6666666666666666 1024:0.6666666763538792 1062:0.6666667067140367 1104:0.6666666763538792 1240:0.6666667325537312 
0.0 0.5 257:0.749999959740633 
0.5 0.5 181:0.75 597:0.7499999838035099 
0.0 0.10524618007737423 6:0.6000000208484583 67:0.7499999517019847 137:0.5714285872600368 283:1.0 296:1.0 571:0.7499999363445339 
0.0898673279756285 0.2622445736582052 69:1.0 96:0.7499999827045217 98:0.6249999837636127 198:1.0 237:0.749999950213248 331:0.6666666832906886 332:0.7499999444267639 695:0.7499999353905796 
0.0 0.40009573883450333 297:1.0 535:1.0 641:1.0 
0.0 0.04893485719089351 447:1.0 746:1.0 
0.0 0.219700232898808 14:1.0 102:0.6666666542093518 772:1.0 941:1.0 
0.0 0.5 338:1.0 1430:1.0 
