svm_type c_svc
kernel_type linear
nr_class 3
total_sv 2693
rho -0.999552283919036 -0.45695131879509265 0.8558359911151282
label 0 1 2
nr_sv 1215 443 1035
SV
0.0 0.029823289428404863 4:0.75 5:1.0 6:0.6000000260591208 
0.24039952942864398 0.5 7:0.7500000123533026 8:1.0 9:1.0 1250:1.0 1303:1.0 
0.18242437891478125 0.5 10:0.6666666666666666 
0.0 0.5 11:1.0 12:1.0 13:0.75 14:1.0 15:0.7499999772095168 
0.0 0.5 16:0.6666666580824041 17:0.7499999675805721 
0.03968861127577299 0.5 18:0.7499999737004802 19:0.7499999917233263 1148:0.6249999742639543 
0.0 0.042869025147969836 20:1.0 
0.0 0.5 21:0.6666667026188835 22:0.7499999905731904 23:0.7499999436517816 
0.14259784255361904 0.5 24:1.0 25:1.0 1371:0.6000000140269361 1452:1.0 1548:1.0 
0.0 0.5 26:0.7499999401216106 
0.0 0.5 4:0.75 27:0.75 28:1.0 29:1.0 30:1.0 31:0.6666666828403788 32:0.7500000083198824 33:0.6250000031880082 
0.0 0.2483276942889904 47:1.0 48:0.7499999645006074 49:0.6666666666666666 
0.0 0.5 50:1.0 
0.3255652640840708 0.5 27:0.5 51:0.666666726735407 52:1.0 53:0.5 54:0.6666667181330785 1216:0.6666666957272209 
0.0 0.5 55:1.0 
0.0 0.5 56:1.0 
0.0 0.01707749982621467 57:1.0 58:0.37499998742853247 59:0.49999998352893 60:0.5 61:0.7499999673068779 62:0.5000000158163657 63:0.5 64:0.37499999634715203 65:0.5 
0.0 0.2094823095034745 66:1.0 
0.0 0.5 
0.14293633153628313 0.2525843268577175 37:0.75 67:1.0 
0.29835264160990355 0.5 
0.1309241629738808 0.0 81:1.0 82:1.0 83:1.0 84:1.0 85:1.0 86:1.0 87:1.0 
0.0 0.08080975005481658 33:0.6250000031880082 91:0.749999984697561 92:0.749999984697561 93:0.7499999436517816 94:0.7499999658835783 95:0.75 
0.5 0.5 96:0.7499999658879616 
0.0 0.1675593409795872 26:0.7499999401216106 99:0.7499999421002911 100:1.0 101:1.0 102:0.6666666542102468 103:1.0 104:0.75 
0.0 0.12365310226522223 81:1.0 107:1.0 119:0.749999939408966 120:1.0 121:0.6666666815661846 122:1.0 
0.39998581671866074 0.0 123:1.0 124:1.0 125:0.6000000515679113 126:1.0 127:1.0 128:1.0 1194:0.7499999686186495 
0.0 0.05354280591815466 21:0.8888889907535032 26:0.5 27:0.5 129:0.6666666802688349 130:0.5 131:0.6666666900440184 132:0.6666666882101472 133:0.6666666942462827 
0.0 0.5 134:0.571428551194267 
0.0 0.1665974554165463 135:1.0 1333:1.0 1386:1.0 
0.24775183417250402 0.5 3:1.0 136:1.0 
0.5 0.5 137:0.8571428685929885 
0.0 0.05271970661216998 69:0.25 134:0.1904762026167731 137:0.952380936159933 142:0.33333336122786833 143:0.33333333333333337 
0.0 0.5 144:0.6249999658812717 
0.5 0.5 115:0.6249999841811699 125:0.6000000515679113 145:1.0 146:0.7499999436517816 
0.1488311054762199 0.0 34:0.4000000492430482 57:0.4444444834602533 147:0.6666667181330785 148:0.5 149:1.0 150:1.0 151:0.5 152:0.6666666882101472 153:0.5000000146113918 154:0.6666667034634209 155:0.6666667181330785 156:0.666666726735407 
0.5 0.03942672295360223 89:0.7499999851473375 157:1.0 
0.17354088384953675 0.15984534494752092 116:1.0 125:0.6000000515679113 158:1.0 159:1.0 160:0.5833333347933374 161:0.7499999547523951 
0.34328797487204205 0.5 35:1.0 
0.0 0.07803352311994478 113:0.41666666666666674 168:1.0 
0.2693493582193691 0.5 169:0.6666666793103067 170:0.44444443226941405 171:0.5 172:0.499999985643056 173:1.0 174:0.6666666957272209 175:0.5000000127755687 1461:0.6666666882101472 
0.5 0.5 27:0.75 102:0.6666666542102468 179:0.7499999547523951 180:0.7500000219170877 
0.0 0.5 134:0.571428551194267 
0.5 0.5 21:0.8888889907535032 42:0.4166666728337936 181:0.500000018656809 1260:0.6666667034634209 
0.07625396045598773 0.0 110:1.0 182:1.0 183:1.0 184:1.0 185:1.0 186:0.749999978464584 187:1.0 188:1.0 189:1.0 
0.0 0.23562094916104068 192:0.7499999703443155 193:1.0 
0.5 0.5 
0.0 0.464400460215386 194:0.7499999737004802 
0.0 0.036524759982079234 192:0.7499999703443155 197:0.7499999865118231 198:1.0 
0.3148504023017259 0.34937986906028223 199:1.0 200:1.0 201:1.0 1280:1.0 
0.0 0.5 57:0.6666666846739631 125:0.6000000515679113 202:1.0 203:1.0 
0.5 0.022911814952776582 13:0.75 71:0.6666666542420482 74:0.7499999509909532 86:1.0 102:0.6666666542102468 148:0.749999984697561 190:0.7499999547523951 207:0.75 208:0.6666666278471359 209:0.6666666551942497 210:0.75 211:1.0 1154:1.0 1180:1.0 
0.0 0.177569205997689 214:0.749999978464584 215:1.0 216:1.0 
0.0 0.02886259797866394 74:0.7499999509909532 218:1.0 219:1.0 
0.0 0.5 221:0.7499999586036538 
0.0 0.021494276743486265 226:1.0 227:1.0 
0.5 0.5 
0.28066960351068 0.5 21:0.6666667026188835 228:0.7499999900994392 229:1.0 
0.3913274977559495 0.5 230:1.0 231:1.0 232:0.7499999772095168 233:0.7499999586036538 234:1.0 235:1.0 
0.16708193335060942 0.0 157:1.0 236:0.7499999658835783 237:0.749999978464584 238:0.7500000083198824 1486:1.0 
0.0 0.5 240:1.0 241:1.0 1211:0.7499999748570649 
0.25199119779439033 0.226887352388475 63:0.6666666798690336 74:0.5000000196036188 210:0.5 248:1.0 249:0.5 250:0.6666667007348507 251:0.6666666666666666 1147:0.6666666781935748 
0.042866202686126446 0.17581310601662337 2:0.6249999958055724 27:0.75 233:0.7499999586036538 251:1.0 253:1.0 254:1.0 255:1.0 256:0.7500000081434751 
0.5 0.5 257:0.7499999703443155 1146:1.0 
0.0 0.5 17:0.7499999675805721 260:0.5714285789919975 
1.6199688848439882E-4 0.27145992300382743 195:1.0 196:1.0 
0.04347438799658192 0.19288585099184502 194:0.7499999737004802 256:0.7500000081434751 261:1.0 262:1.0 263:0.7499999658835783 
0.09003414183561906 0.0 125:0.40000005893475576 192:1.0 194:0.5 263:0.49999998635343135 278:1.0 279:0.666666726735407 280:1.0 281:0.6666667181330785 282:0.5 283:0.6666666957272209 284:0.5 1273:0.6666667181330785 
0.0 0.4299536122032791 192:0.7499999703443155 278:0.7499999673068779 280:0.7499999673068779 285:1.0 286:0.75 287:1.0 
0.0 0.07043207677577014 285:1.0 288:1.0 289:1.0 
0.0 0.5 288:1.0 289:1.0 
0.03074192785752618 0.0 14:0.6666666793103067 102:0.4444444859658438 113:0.8333333333333335 295:0.6666666957272209 296:0.5000000147335533 297:0.5 298:0.44444446331377524 299:0.6666667224557367 300:0.5000000151936554 301:0.6666666666666666 
0.033867455678304625 0.0 26:0.7499999401216106 133:1.0 302:0.7499999748570649 303:1.0 
0.17294213460856067 0.16848111554504494 16:0.1666666580824042 55:0.25 102:0.33333333457897535 116:0.25 125:0.6000000515679113 127:0.25 134:1.0 293:0.5 318:0.18749998828793538 319:0.15624999918666213 320:0.25000000939137046 321:0.25 322:0.5625000062399119 323:0.37499998430932474 324:0.25 
0.5 0.5 
0.15777619854941677 0.5 300:0.7499999772095168 325:1.0 326:1.0 327:1.0 
0.5 0.4387271548309539 22:0.7499999905731904 116:1.0 287:1.0 328:1.0 
0.5 0.5 329:0.6666666829867495 
0.0 0.19967287704557654 27:0.75 116:1.0 222:0.7499999514132242 330:0.7500000000000001 331:1.0 332:1.0 
0.5 0.0 85:1.0 333:0.749999980836647 334:1.0 335:0.7499999703443155 
0.5 0.5 337:1.0 338:1.0 
0.14581254245435502 0.5 21:0.44444448998391917 27:1.0 42:0.4166666728337936 70:0.6666666882101472 220:0.6666667068867623 344:1.0 
0.18586692637485533 0.0 1:0.7499999748570649 21:0.6666667026188835 113:0.6249999506912106 225:1.0 244:0.75 345:1.0 346:0.7500000085681872 347:1.0 
0.5 0.5 
0.5 0.5 351:1.0 352:0.75 353:1.0 354:0.75 355:1.0 356:0.749999978464584 
0.02275019967601262 0.0 357:0.7499999865118231 358:1.0 
0.0 0.22025577622253217 359:1.0 360:1.0 
0.34267060639008773 0.167954623893317 21:0.44444448998391917 42:0.4166666728337936 44:0.6666666793103067 57:0.4444444834602533 166:0.6666667088436418 170:0.44444443226941405 361:0.5000000187228731 362:1.0 363:0.6666666957272209 1222:0.6666666882101472 
0.5 0.5 12:1.0 21:0.6666667026188835 175:0.749999980836647 178:0.7499999658835783 364:1.0 1136:1.0 1248:1.0 
0.0 0.5 365:1.0 
0.0 0.4687374308138189 0:1.0 21:0.6666667026188835 115:0.6249999841811699 129:1.0 146:0.7499999436517816 
0.07844730031030969 0.33753005903192407 26:0.7499999401216106 146:0.7499999436517816 367:1.0 
0.0 0.17622836405174735 15:0.7499999772095168 21:0.6666667026188835 27:0.75 315:0.749999980953552 344:0.7499999493170039 368:1.0 369:1.0 
0.0 0.5 61:1.0 371:1.0 1278:0.6666666957272209 
0.2527995850792468 0.0 148:0.749999984697561 225:1.0 
0.2508046377218237 0.0 221:0.7499999586036538 372:0.7500000069727178 373:0.7500000219170877 374:1.0 375:1.0 
0.22569034145349953 0.06145758502630525 78:0.6666666543060404 208:0.6666666278471359 239:1.0 379:1.0 382:0.7499999906385635 383:1.0 384:1.0 385:1.0 386:1.0 387:1.0 388:1.0 1200:1.0 
0.0 0.05618686688030096 44:1.0 57:0.6666666846739631 154:1.0 379:1.0 389:1.0 390:0.6666666753252691 391:0.7500000187884727 392:0.5714285418791148 
0.4256163719352838 0.5 227:1.0 329:0.6666666829867495 
0.21681320892528347 0.23230497782466472 393:1.0 394:1.0 395:0.7499999748570649 396:1.0 397:1.0 
0.0 0.30838677791928953 398:0.2500000104604502 399:0.3333333544218209 400:0.3333333441050736 401:0.25 402:1.0 
0.0 0.5 98:0.750000009648912 
0.0 0.1138598590136245 164:1.0 409:0.7499999586036538 
0.07318625664029936 0.0 6:0.6000000260591208 410:1.0 411:1.0 412:0.7499999649491076 413:0.7500000081434751 
0.08762164629724005 0.5 77:1.0 414:1.0 415:0.75 416:1.0 
0.08224594932312514 0.0 74:0.7499999509909532 418:1.0 419:1.0 
0.12199520550372275 0.0 1:1.0 74:0.5000000196036188 83:0.6666667224557367 96:1.0 115:0.4166666877584401 125:0.40000005893475576 233:1.0 258:0.5 260:0.38095241246665584 286:0.5 317:0.6666667007348507 361:0.5000000187228731 382:0.5000000187228731 384:0.6666666882101472 418:0.6666666793103067 420:0.6666666802688349 421:1.0 422:0.6666666556859534 423:1.0 424:0.5 425:0.6666666556859534 426:0.6666667007348507 427:0.6666666900440184 428:1.0 429:0.6666666786561575 430:0.5000000118622737 431:0.6666666890159431 1238:0.6666667088436418 1341:1.0 1470:0.5000000127755687 
0.0 0.405388682646624 176:1.0 432:1.0 433:1.0 
0.20284759654444132 0.09393309920615303 256:0.7500000081434751 350:1.0 434:1.0 435:0.6666666846739631 436:1.0 
0.21989004482221242 0.5 13:0.75 104:0.75 437:1.0 438:1.0 1279:1.0 
0.0 0.5 440:1.0 
0.0 0.5 71:0.6666666542420482 79:0.7499999658835783 389:1.0 441:1.0 442:1.0 
0.3427895428023263 0.0 133:1.0 145:1.0 291:0.7500000219170877 376:1.0 424:0.7499999802170255 
0.46270813138187966 0.5 445:0.749999978464584 
0.0 0.21639363419837904 19:0.7499999917233263 176:1.0 446:1.0 447:1.0 448:1.0 449:1.0 1619:1.0 
0.5 0.0 98:0.750000009648912 232:0.7499999772095168 244:0.75 361:0.7499999906385635 450:1.0 
0.1053829865532498 0.0 148:1.0 177:0.6666666418747812 204:0.6666667059561432 225:0.6666666666666666 451:0.4999999860545643 452:0.6666667167539756 1619:0.6666667181330785 
0.0 0.4870793436035095 33:0.6250000031880082 91:0.749999984697561 92:0.749999984697561 93:0.7499999436517816 94:0.7499999658835783 95:0.75 
0.18589332840326778 0.0 33:0.8333333545867213 91:1.0 92:1.0 93:1.0 94:1.0 95:1.0 
0.5 0.5 
0.0 0.3018751614966262 172:0.749999978464584 366:1.0 
0.0 0.5 453:1.0 
0.5 0.5 
0.0 0.33073770694381865 21:0.6666667026188835 247:0.7499999508406697 444:1.0 450:1.0 454:1.0 1436:1.0 
0.23529208658435954 0.3213900736795639 96:0.7499999658879616 102:0.6666666542102468 372:0.7500000069727178 457:1.0 458:0.749999980836647 
3.578920909630412E-10 0.5 90:0.7500000123533026 
0.5 0.5 424:0.7499999802170255 463:1.0 
0.05153324083969795 0.5 5:1.0 58:0.7499999748570649 65:1.0 102:0.6666666542102468 130:0.75 286:0.75 291:0.7500000219170877 333:0.749999980836647 373:0.7500000219170877 451:0.7500000069727178 
0.5 0.5 
0.0 0.12375272336514963 470:1.0 471:1.0 472:0.7499999421002911 473:1.0 
0.0 0.03708947885306807 284:0.7499999737004802 474:1.0 475:0.600000032591516 476:1.0 
0.0 0.03925851239261786 477:1.0 478:1.0 479:1.0 
0.0 0.4717420267619585 474:1.0 480:0.6666666666666666 1305:1.0 
0.2632470504942728 0.0 21:0.6666667026188835 42:0.6250000277520712 63:1.0 113:0.6249999506912106 130:0.75 220:1.0 225:1.0 426:1.0 461:1.0 481:1.0 1198:1.0 1212:1.0 
0.0 0.5 71:0.6666666542420482 113:0.6249999506912106 134:0.571428551194267 258:0.7499999531517415 356:0.749999978464584 482:0.6666666666666666 483:1.0 1179:1.0 
0.03062306139969386 0.0 125:0.6000000515679113 247:0.7499999508406697 488:1.0 1315:0.7499999686186495 
0.0 0.5 208:0.6666666278471359 447:1.0 
0.0 0.3670315101759647 6:0.6000000260591208 494:0.5999999952471479 
0.5 0.44452860743123723 5:1.0 318:0.7499999531517415 1175:1.0 
0.0 0.21143148960025895 27:0.75 315:0.749999980953552 494:0.5999999952471479 
0.1679224679381774 0.5 16:0.6666666580824041 434:1.0 
0.0 0.29530695566231985 499:1.0 500:0.7499999675805721 
0.0 0.5 21:0.6666667026188835 257:0.7499999703443155 410:1.0 1281:1.0 
0.0 0.5 134:0.571428551194267 240:1.0 313:1.0 502:1.0 1617:1.0 
0.0 0.348016204351421 104:0.5 125:0.40000005893475576 134:0.3809523769055201 161:0.5 162:0.666666726735407 204:0.6666667059561432 282:0.5 413:1.0 452:0.6666667167539756 503:0.6969697087877793 504:0.6666666418747812 
0.0 0.5 78:0.6666666543060404 420:1.0 505:1.0 506:1.0 
0.12052618905806353 0.0 507:1.0 
0.0 0.3267698946848194 129:1.0 134:0.571428551194267 510:1.0 
0.18449820764533378 0.23971919256741384 322:0.7500000083198824 511:1.0 
0.5 0.5 
0.15356478353084543 0.0 98:0.750000009648912 232:0.7499999772095168 264:1.0 512:1.0 
0.3712913174433133 0.19780315263866233 238:0.7500000083198824 297:0.75 513:1.0 514:1.0 1351:1.0 
0.03351698492761711 0.0 71:0.6666666542420482 300:0.7499999772095168 515:1.0 516:1.0 517:1.0 
0.0 0.5 222:0.29999998704352643 468:0.3999999731808684 518:0.96 
0.0 0.5 21:0.6666667026188835 519:1.0 
0.0 0.5 482:0.6666666666666666 520:1.0 
0.0 0.5 269:0.6666666781935748 330:1.0 368:0.6666666418747812 521:0.666666726735407 
0.10660656842563207 0.5 282:0.7499999436517816 413:0.7500000081434751 523:0.5208333581289537 524:1.0 1166:0.5208333424725922 
2.362478831189028E-4 0.5 525:1.0 
0.5 0.5 418:1.0 
0.35287453476364683 0.5 361:0.5000000187228731 480:0.8888889064920448 1177:0.44444444913077474 1453:0.666666726735407 1484:0.6666666556859534 1522:0.666666726735407 
0.5 0.5 
0.1974845601840102 0.5 8:0.6666667034634209 527:1.0 528:0.6666667224557367 
0.4531921746029764 0.0 71:0.6666666542420482 82:1.0 258:0.7499999531517415 530:1.0 
0.0 0.4108647208895045 98:0.750000009648912 140:1.0 144:0.6249999658812717 
0.0 0.33168062004716775 46:1.0 270:0.749999980836647 291:0.7500000219170877 330:0.7500000000000001 361:0.7499999906385635 420:1.0 530:1.0 535:1.0 536:1.0 537:0.7499999673068779 
0.0 0.46417862975061863 15:0.7499999772095168 27:0.75 209:0.6666666551942497 315:0.749999980953552 369:1.0 
0.0 0.10858602954202119 172:0.749999978464584 185:1.0 273:1.0 312:0.749999939408966 361:0.7499999906385635 540:1.0 541:1.0 
0.09636761312400571 0.0 130:0.75 407:1.0 542:0.7499999493170039 543:1.0 544:1.0 
0.0 0.48222959393421977 4:0.5 27:0.5 134:0.7619047821390662 301:0.6666666666666666 547:0.4999999860545643 548:0.6666666957272209 
0.0 0.5 374:1.0 
0.5 0.5 549:1.0 
0.0 0.042969678997166215 437:1.0 
0.5 0.5 
0.0 0.5 34:0.600000012310762 39:0.6249999856534647 79:0.7499999658835783 104:0.75 389:1.0 480:0.6666666666666666 550:1.0 551:1.0 552:0.75 
0.0 0.5 516:1.0 
0.4528720024729568 0.5 186:0.749999978464584 236:0.7499999658835783 328:1.0 353:1.0 554:0.6666666666666666 555:1.0 
0.11368518706614991 0.5 39:0.6249999856534647 104:0.75 556:0.7499999703443155 557:0.6250000020626169 1442:1.0 
0.5 0.0 232:0.7499999772095168 315:0.749999980953552 330:0.7500000000000001 558:0.7500000000000001 
0.0 0.5 186:0.749999978464584 314:1.0 489:1.0 559:1.0 
0.5 0.5 208:0.6666666278471359 506:1.0 
0.08462843030065449 0.0 147:1.0 226:1.0 355:1.0 391:0.7500000187884727 530:1.0 560:1.0 561:1.0 
0.0 0.39208970041926744 42:0.8333333826703487 74:0.5000000196036188 286:0.5 311:0.6666667088436418 385:0.6666667059561432 514:0.6666667224557367 565:0.6666667088436418 566:0.6666666793103067 567:0.5 568:0.6666666785092171 
0.1517657007355106 0.49400339713341124 10:0.6666666666666666 245:0.7499999865118231 1402:1.0 
0.5 0.08050903131797171 4:0.75 360:1.0 547:0.7500000069727178 
0.5 0.5 69:0.7499999831074771 569:1.0 1171:1.0 
0.25453477945149044 0.0 32:0.7500000083198824 204:1.0 451:0.7500000069727178 518:0.6 570:0.7499999421002911 571:1.0 572:1.0 573:0.7499999778996701 574:1.0 1417:1.0 
0.5 0.5 429:1.0 
0.5 0.5 21:0.6666667026188835 576:0.7499999547523951 
0.0 0.5 260:0.5714285789919975 266:1.0 
0.06837193643028427 0.5 43:0.44444445255469656 314:0.6666667098549147 329:0.4444444879646651 392:0.7619047684713077 412:0.5 523:0.34722224583709876 527:0.49999998302525245 575:0.6666666786561575 579:1.0 580:0.6666666942462827 581:0.5000000166397651 582:0.6666666799723805 1323:0.8888888774432055 1324:0.6666666666666666 1339:0.6666666666666667 1362:1.0 1363:0.6666666890159431 1364:0.5 1365:1.0 1366:1.0 1367:1.0 1368:0.6666666793103067 1369:0.6666666666666666 1370:0.6666666793103067 1460:1.0 
0.0 0.4200265976264642 27:0.0625000021902362 42:0.05208333687943131 238:0.06249999958400587 315:0.06250000095232239 583:1.0 584:0.049999998719305105 
0.0 0.5 340:0.7500000123533026 585:1.0 586:1.0 
0.0 0.5 21:0.6666667026188835 
0.0 0.5 145:1.0 170:0.666666648404121 482:0.6666666666666666 
0.3500530417056796 0.0 116:1.0 354:0.75 519:1.0 592:1.0 
0.16738528331099922 0.0 21:0.6666667026188835 43:0.6666666423359102 63:1.0 69:0.7499999831074771 96:0.7499999658879616 209:0.6666666551942497 289:1.0 593:0.7500000081434751 594:1.0 595:0.749999978464584 1445:1.0 
0.08321085227532911 0.0 6:0.6000000260591208 381:0.75 507:1.0 1338:1.0 
0.12354206276931232 0.5 561:1.0 
0.32167948344670555 0.0 303:1.0 600:1.0 601:1.0 
0.02765514398675711 0.5 34:0.8000000984860964 136:0.6666666890159431 247:0.49999998033626786 415:0.5 552:0.5 
0.0 0.42647594542741796 74:0.7499999509909532 113:0.6249999506912106 604:1.0 605:0.7499999689729333 606:1.0 
0.0 0.18298573436399956 125:0.6000000515679113 170:0.666666648404121 176:1.0 518:0.6 602:1.0 607:0.7499999675805721 608:1.0 
0.5 0.5 301:1.0 371:0.7499999658879616 609:1.0 1286:1.0 
0.5 0.5 12:0.6666666418747812 102:0.4444444859658438 220:0.6666667068867623 328:0.6666666942462827 353:0.666666698090058 610:0.88888892305111 611:0.5 612:0.6666666793103067 613:0.5 614:0.6666666666666667 1134:0.6666666890159431 
0.10882338191585661 0.0 4:0.75 208:0.6666666278471359 409:0.7499999586036538 413:0.7500000081434751 438:1.0 535:1.0 615:1.0 
0.025604112707181163 0.22389301139256074 15:0.7499999772095168 21:0.6666667026188835 43:0.6666666423359102 138:1.0 139:0.7500000081434751 141:1.0 315:0.749999980953552 369:1.0 412:0.7499999649491076 
0.0 0.5 71:0.6666666542420482 389:1.0 
0.0 0.005672423555681319 41:0.7499999999999999 133:1.0 186:0.749999978464584 1284:1.0 1439:1.0 
0.42656229759474523 0.5 43:0.6666666423359102 269:1.0 
0.0 0.03861885424503634 22:0.4999999811463808 71:0.4444444734352212 209:0.4444444482685834 233:0.5 300:0.5000000151936554 314:0.6666667098549147 315:0.5 515:0.6666666957272209 604:0.6666667007348507 632:0.8888888992788228 633:0.6666667224557367 634:0.6666667034634209 635:0.6666666781935748 1159:0.6666666556859534 1622:0.6666667181330785 
0.0 0.16938383567771992 351:1.0 636:1.0 637:0.7499999737004802 
0.0 0.06979587830379773 29:1.0 240:1.0 454:1.0 576:0.7499999547523951 642:0.6666666254935397 
0.0 0.46892045210950206 74:0.7499999509909532 456:0.7500000254621214 623:1.0 
0.06591908044705891 0.0 41:0.7499999999999999 59:1.0 125:0.6000000515679113 225:1.0 
0.0 0.5 6:0.6000000260591208 21:0.6666667026188835 176:1.0 645:1.0 646:1.0 
0.0 0.5 0:1.0 240:1.0 371:0.7499999658879616 
0.49229543787911395 0.5 29:1.0 149:0.7499999421002911 329:0.6666666829867495 561:1.0 650:0.6 
0.4456633941267054 0.14330717845290364 43:0.6666666423359102 364:1.0 614:1.0 651:0.749999980836647 
0.01619145290826256 0.0 34:0.8000000984860964 71:0.4444444734352212 78:0.4444444485646532 96:0.5 107:0.6666666666666666 114:0.6666667088436418 134:0.7619047821390662 527:0.49999998302525245 644:0.6666666786561575 652:0.5555555903384086 653:0.6666667088436418 654:0.6666666882101472 655:0.6666666957272209 656:0.6666666882101472 657:0.6666666882101472 
0.0 0.08567022884189814 27:0.75 71:0.6666666542420482 102:0.6666666542102468 124:1.0 181:0.7499999906715955 220:1.0 297:0.75 523:0.5208333581289537 527:0.7500000254621214 658:1.0 659:1.0 
0.26611518685049207 0.5 125:0.6000000515679113 209:0.6666666551942497 644:1.0 660:1.0 
0.07653009213518928 0.0 71:0.6666666542420482 104:0.75 165:1.0 315:0.749999980953552 661:1.0 662:1.0 663:0.749999980836647 664:1.0 1618:1.0 
0.0016431150470534001 0.4306511688807166 21:0.6666667026188835 25:1.0 98:0.750000009648912 665:1.0 666:1.0 667:0.7499999586036538 
0.05955858426949603 0.0 32:0.7500000083198824 106:1.0 650:0.6 669:1.0 670:1.0 
0.3273509453285367 0.5 64:0.5000000146113918 65:0.6666666666666666 113:0.41666666666666674 190:1.0 222:0.5 391:0.5 672:0.666666726735407 673:0.5000000146113918 1245:0.6666666882101472 
0.1148526712177649 0.5 371:0.5 452:0.6666667167539756 674:0.6666666957272209 675:0.6666667181330785 1276:1.0 
0.0 0.5 21:0.8888889907535032 42:0.4166666728337936 104:0.5 364:0.6666666666666666 482:0.4444444532460224 689:0.5000000127755687 
0.26360492228543714 0.2687610928299643 111:1.0 238:0.7500000083198824 353:1.0 364:1.0 690:1.0 
4.2170342472142887E-4 0.5 490:1.0 
0.3327251833125375 0.5 17:0.7499999675805721 170:0.666666648404121 208:0.6666666278471359 413:0.7500000081434751 497:0.6666666846739631 693:1.0 1166:0.5208333424725922 1508:1.0 
0.027803088353697825 0.0 44:1.0 212:1.0 698:1.0 699:1.0 1185:0.7499999421002911 
0.0 0.5 15:0.7499999772095168 95:0.75 315:0.749999980953552 328:1.0 369:1.0 390:0.6666666753252691 700:1.0 701:0.75 
0.1742187114015432 0.021496125875422677 50:1.0 705:1.0 
0.32057251851602764 0.09289914812463805 102:0.6666666542102468 161:0.7499999547523951 232:0.7499999772095168 367:1.0 618:1.0 706:1.0 
0.19906788057672992 0.5 707:1.0 708:1.0 
0.1896979241387371 0.14779287106958414 32:0.7500000083198824 154:1.0 177:1.0 392:0.5714285418791148 709:1.0 
0.0 0.005164815906771101 78:0.6666666543060404 266:1.0 524:1.0 613:0.7499999230577467 710:1.0 
0.4000249957029486 0.5 351:1.0 694:0.7500000069727178 
0.2555444476813257 0.0 16:0.6666666580824041 296:0.7499999778996701 712:1.0 713:1.0 
0.33569808395756023 0.5 203:1.0 574:1.0 1309:1.0 
0.33747391954624445 0.3791593290157703 78:0.3333333271530202 125:0.3000000221005334 466:0.5 480:0.3333333333333333 501:0.37499998399131385 714:1.0 
0.0 0.26818453368049394 27:1.0 176:0.6666666982216839 247:0.49999998033626786 381:1.0 430:1.0 715:0.666666726735407 
0.0 0.4392974742909422 207:0.75 285:1.0 640:1.0 716:1.0 
0.0 0.5 181:0.7499999906715955 411:1.0 648:1.0 717:1.0 
0.42261198954837614 0.0 222:0.7499999514132242 382:0.7499999906385635 386:1.0 593:0.7500000081434751 718:1.0 
0.0 0.2479226354344914 4:1.0 35:0.6666666785092171 53:0.5 63:0.6666666798690336 149:0.5 249:0.5 321:0.6666667224557367 719:0.5 720:0.6666666890159431 721:0.5000000118622737 1152:0.6666667088436418 
0.0 0.08478457220810026 56:1.0 729:1.0 
0.0 0.5 42:0.6250000277520712 730:1.0 731:1.0 
0.0 0.3438087070722124 148:0.749999984697561 732:1.0 733:0.7499999421002911 
0.17726307272566857 0.20283128718901344 21:0.6666667026188835 217:1.0 256:0.7500000081434751 371:0.7499999658879616 608:1.0 734:1.0 
0.25738828974550304 0.5 21:0.6666667026188835 104:0.75 373:0.7500000219170877 736:1.0 
0.0 0.233871313483556 22:0.7499999905731904 247:0.7499999508406697 371:0.7499999658879616 512:1.0 737:1.0 
0.0 0.14526607310834694 64:0.7500000219170877 738:1.0 739:1.0 
0.0 0.42524565500457273 32:1.0 34:0.4000000492430482 44:0.6666666793103067 136:0.6666666890159431 381:0.5 587:0.4444444387216028 740:0.41666664074440746 
0.0 0.012014687536865762 741:1.0 742:1.0 
0.5 0.0 43:0.44444445255469656 74:0.5000000196036188 98:1.0 157:0.6666667034634209 247:0.49999998033626786 361:0.5000000187228731 414:0.6666666890159431 424:0.5 580:0.6666666942462827 642:0.4444444513066323 743:0.6666667181330785 
0.0 0.05108310577184638 34:0.600000012310762 78:0.6666666543060404 281:1.0 300:0.7499999772095168 422:1.0 744:1.0 745:0.7499999737004802 746:1.0 747:1.0 
0.5 0.5 371:0.7499999658879616 
0.2094171893857734 0.5 35:1.0 240:1.0 593:0.7500000081434751 749:0.7499999689729333 
0.0 0.0013276466948141277 0:1.0 89:0.7499999851473375 599:1.0 674:1.0 750:1.0 
0.0 0.5 45:1.0 
0.397290984646094 0.31500541033234786 393:1.0 751:1.0 752:1.0 1311:1.0 
0.0 0.5 71:0.6666666542420482 85:1.0 
0.007250127442234529 0.42481308504735843 213:1.0 425:1.0 753:0.749999939408966 
0.1913335747820585 0.33086684669266486 102:0.6666666542102468 304:0.7499999850310722 754:0.700000002603148 
0.4918532538132156 0.0 6:0.6000000260591208 460:0.75 535:1.0 1301:0.749999939408966 
0.10770801978986287 0.36142965073813 74:0.5000000196036188 98:0.500000019297824 134:0.3809523769055201 181:0.500000018656809 435:0.4444444834602533 522:1.0 721:0.5000000118622737 759:0.6666666781935748 762:0.6666666882101472 763:0.5 764:0.6666666556859534 1382:0.6666667224557367 
0.5 0.5 260:0.5714285789919975 391:0.7500000187884727 744:1.0 
0.03255931237343722 0.5 21:0.6666667026188835 71:0.6666666542420482 292:1.0 700:1.0 758:1.0 766:1.0 1379:1.0 
0.0 0.5 115:0.6249999841811699 443:0.7500000069727178 650:0.6 669:1.0 767:1.0 
0.05119340778500424 0.42239087498553 68:0.3000000110390257 415:0.30000000000000004 768:1.0 769:0.3999999883757783 1385:0.2666666842676647 
0.12540527651174527 0.0 16:0.6666666580824041 26:0.7499999401216106 27:0.75 113:0.6249999506912106 130:0.75 131:1.0 247:0.7499999508406697 270:0.749999980836647 430:0.7499999703443155 762:1.0 
0.5 0.5 351:0.666666698090058 583:0.695652198963351 770:0.6666666556859534 
0.0 0.5 145:1.0 373:0.7500000219170877 511:1.0 666:1.0 772:1.0 773:1.0 
0.1117256370926708 0.3369812052376376 27:0.5 774:0.5 775:1.0 
0.14630485990715514 0.0 12:1.0 615:1.0 745:0.7499999737004802 758:1.0 776:1.0 
0.0 0.14917739864614726 19:0.7499999917233263 273:1.0 702:0.749999978464584 
0.22157955506331195 0.0918121409207201 2:0.6249999958055724 355:1.0 424:0.7499999802170255 569:1.0 634:1.0 759:1.0 777:1.0 778:1.0 
0.0 0.5 98:0.500000019297824 247:0.49999998033626786 306:0.5 318:0.5 329:0.8888889759293302 380:0.6666667181330785 536:0.6666667181330785 732:0.6666666957272209 779:1.0 
0.2930456253868641 0.0 172:0.749999978464584 588:1.0 736:1.0 781:1.0 
0.049341533743062084 0.0 113:0.6249999506912106 125:0.6000000515679113 303:1.0 438:1.0 
0.46565853475503 0.5 181:0.500000018656809 386:0.6666667007348507 424:0.5 559:0.6666666556859534 593:1.0 695:0.5000000146113918 786:0.6666666882101472 
0.10445101962775602 0.5 10:0.6666666666666666 20:1.0 21:0.6666667026188835 22:0.7499999905731904 330:0.7500000000000001 793:1.0 
0.0 0.5 21:0.6666667026188835 69:0.7499999831074771 71:0.6666666542420482 113:0.6249999506912106 247:0.7499999508406697 431:1.0 555:1.0 569:1.0 1380:1.0 
0.0 0.5 383:1.0 418:1.0 568:1.0 795:1.0 
0.24161639826782433 0.38233663792796185 21:0.6666667026188835 408:1.0 619:1.0 
0.3009039737366628 0.2410105032717631 26:0.7499999401216106 43:0.6666666423359102 79:0.7499999658835783 89:0.7499999851473375 167:1.0 697:1.0 796:0.6666667032690464 
0.16072994527289627 0.5 27:0.75 315:0.749999980953552 505:1.0 663:0.749999980836647 
0.06683703012754555 0.41303180679505985 27:0.5 689:1.0 799:0.6666666781935748 800:0.6666666781935748 1394:1.0 
0.0 0.5 416:1.0 1582:1.0 
0.11688533161697018 0.5 318:0.7499999531517415 361:0.7499999906385635 424:0.7499999802170255 803:1.0 1250:1.0 
0.0 0.5 21:0.6666667026188835 71:0.6666666542420482 254:1.0 531:1.0 581:0.7500000083198824 
0.29722552351912007 0.10695554658525443 21:0.6666667026188835 23:0.7499999436517816 96:0.7499999658879616 624:1.0 
0.13631227195775156 0.5 8:0.6666667034634209 413:1.0 556:0.5000000118622737 
0.1397072988741308 0.5 116:1.0 338:1.0 554:0.6666666666666666 
0.28213994788048563 0.5 10:0.6666666666666666 
0.0 0.5 731:1.0 
0.0 0.5 104:0.75 
0.3549481796144526 0.07950516960537345 125:0.6000000515679113 480:0.6666666666666666 551:1.0 
0.0 0.49168973214675193 57:0.6666666846739631 131:1.0 382:0.7499999906385635 421:0.7499999493170039 509:0.749999980836647 645:1.0 
0.0 0.48279992375367126 34:0.600000012310762 71:0.6666666542420482 531:1.0 809:1.0 810:1.0 
0.0 0.10946632222522842 22:0.4999999811463808 169:0.6666666793103067 298:0.44444446331377524 456:0.49999998302525245 755:0.6666666793103067 811:1.0 813:0.6666667224557367 814:0.6666666785092171 
0.38224609731518255 0.5 229:1.0 816:0.6000000040228698 
0.5 0.10607564084935593 466:1.0 819:0.7499999675805721 
0.0 0.5 78:0.6666666543060404 1190:0.7499999586036538 
0.4296546844838888 0.4619256578839347 102:0.6666666542102468 475:0.600000032591516 526:0.7499999857759053 820:1.0 
0.21166691380259534 0.5 26:0.7499999401216106 37:0.75 821:1.0 822:0.749999978464584 
0.21085696050040253 0.5 501:0.75 808:1.0 1545:0.7500000123533026 
0.07515085770660734 0.5 102:0.6666666542102468 352:0.75 385:1.0 493:0.749999939408966 501:0.75 531:1.0 778:1.0 825:0.7499999436517816 826:1.0 1145:1.0 1371:0.6000000140269361 
0.0 0.19637410968395583 26:0.7499999401216106 318:0.7499999531517415 361:0.7499999906385635 454:1.0 
0.5 0.5 
0.0752091890319654 0.0 62:0.5000000158163657 314:0.5000000215941239 432:0.5 548:0.5 574:0.5000000201100478 576:0.37499999245873256 727:0.8333333662293081 
0.031145785146987365 0.0 138:1.0 391:0.7500000187884727 547:0.7500000069727178 621:1.0 624:1.0 828:1.0 
0.5 0.5 
0.12891308003983712 0.05518765284355266 382:0.7499999906385635 477:1.0 829:1.0 
0.08402126231636609 0.0 113:0.6249999506912106 248:0.7499999737004802 319:0.6249999967466485 644:1.0 830:1.0 831:0.5833333365360415 1187:1.0 
0.0 0.02957475407741402 315:0.749999980953552 822:0.749999978464584 
0.0 0.08235419900829048 34:0.600000012310762 104:0.75 321:1.0 
0.05798131953276352 0.0 45:0.5555555650863727 111:1.0 609:1.0 641:1.0 727:0.5555555774862054 1483:1.0 
0.1052709680856786 0.5 191:0.6666667181330785 333:0.5000000127755687 382:0.5000000187228731 832:1.0 833:0.6666667181330785 1377:0.6666666957272209 
0.0 0.5 2:0.6249999958055724 3:1.0 108:1.0 
0.02895054650386152 0.0 78:0.4444444485646532 111:0.6666666798690336 178:1.0 239:0.6666666793103067 256:0.49999998371305004 415:1.0 466:0.6666666787969505 508:0.666666726735407 
0.0 0.32794645907018155 71:0.6666666542420482 318:0.7499999531517415 342:1.0 391:0.7500000187884727 
0.5 0.35810557888959915 19:0.5000000165533475 115:0.8333333438792201 127:0.6666667007348507 129:0.6666666802688349 134:0.7619047821390662 204:0.6666667059561432 213:0.6666667034634209 531:0.6666666666666666 552:0.5 795:0.6666666793103067 834:0.5 
0.0 0.3201758136624126 2:0.6249999958055724 351:1.0 798:0.7499999748570649 835:1.0 
0.001274859636810934 0.0 27:0.75 29:1.0 33:0.6250000031880082 558:0.7500000000000001 619:1.0 643:1.0 837:1.0 
0.5 0.5 
0.0 0.46460626703841373 21:0.6666667026188835 98:0.750000009648912 358:1.0 460:0.75 838:1.0 1248:1.0 
0.0 0.17846939058062322 618:1.0 706:1.0 
0.0 0.08863531772361935 39:0.6249999856534647 235:1.0 238:0.7500000083198824 340:0.7500000123533026 465:1.0 650:0.6 669:1.0 839:1.0 
0.21351552477494215 0.3100140045291117 125:0.6000000515679113 145:1.0 775:0.7499999865118231 806:1.0 
0.0 0.5 501:0.75 620:0.7500000219170877 1497:1.0 
0.0 0.31687516343701866 140:1.0 785:1.0 
0.3534263735639147 0.0 116:1.0 179:0.7499999547523951 840:1.0 
0.33534768377724566 0.0 82:1.0 554:0.6666666666666666 595:0.749999978464584 700:1.0 748:1.0 
0.17963867646406423 0.5 28:1.0 356:0.749999978464584 
0.0 0.5 10:0.6666666666666666 763:0.7499999748570649 
0.0 0.29494835827442206 13:0.75 210:0.75 236:0.7499999658835783 352:0.75 651:0.749999980836647 755:1.0 841:1.0 842:1.0 
0.0 0.5 48:0.5 124:0.6666667034634209 130:0.5 390:0.44444445021684603 392:0.7619047684713077 475:0.39999999456808066 688:0.6666666781935748 
0.0 0.11222229269135729 111:1.0 117:1.0 634:1.0 729:1.0 
0.24124380918607338 0.4612359270374951 2:0.4166666750555216 181:0.500000018656809 415:0.5 843:1.0 
0.12479442557848125 0.5 42:0.6250000277520712 362:0.7499999865118231 498:1.0 576:0.7499999547523951 844:1.0 
0.0 0.5 542:0.7499999493170039 845:0.7499999493170039 1565:1.0 
0.11304889596944524 0.3173124315600563 210:0.75 240:1.0 346:0.7500000085681872 846:1.0 
0.0 0.5 229:0.5 434:0.499999981217259 518:0.8999999723288714 
0.5 0.5 264:1.0 304:0.7499999850310722 356:0.749999978464584 416:1.0 
0.4166006328957552 0.08479702173965112 69:0.7499999831074771 124:1.0 130:0.75 237:0.749999978464584 286:0.75 346:0.7500000085681872 412:0.7499999649491076 440:1.0 652:0.8333333228984775 656:1.0 722:0.7499999737004802 848:1.0 849:1.0 
0.05872532822571515 0.5 96:0.7499999658879616 134:0.571428551194267 482:0.6666666666666666 573:0.7499999778996701 717:1.0 850:0.7499999586036538 
0.3671995330225659 0.5 853:1.0 
0.2136303131346569 0.0 102:0.6666666542102468 107:1.0 144:0.6249999658812717 204:1.0 415:0.75 474:1.0 854:1.0 855:1.0 856:1.0 
0.0 0.20014046425739224 259:1.0 805:1.0 
0.0 0.1404480409862525 28:1.0 78:0.6666666543060404 181:0.7499999906715955 710:1.0 774:0.7499999421002911 804:1.0 
0.5 0.01818962658256531 42:0.6250000277520712 239:1.0 358:1.0 372:0.7500000069727178 859:0.7500000069727178 860:1.0 
0.5 0.5 181:0.7499999906715955 
0.0 0.3755376774825868 102:0.6666666542102468 224:1.0 451:0.7500000069727178 1568:1.0 
0.18771524946511986 0.4390989258544418 212:1.0 520:1.0 862:1.0 863:1.0 
6.189315909527682E-4 0.5 864:0.7499999421002911 
0.2523020130083454 0.0 76:0.7499999436517816 346:0.7500000085681872 413:0.7500000081434751 791:1.0 865:1.0 1352:1.0 
0.0 0.5 22:0.3749999952865952 313:0.5 650:0.9000000246544372 
0.047407984496807644 0.5 866:1.0 867:1.0 
0.0 0.05753946854241935 74:0.7499999509909532 209:0.6666666551942497 279:1.0 330:0.7500000000000001 
0.02941406213374937 0.0 2:0.6249999958055724 21:0.6666667026188835 450:1.0 612:1.0 624:1.0 625:1.0 626:1.0 627:0.749999939408966 628:1.0 629:1.0 630:1.0 631:1.0 
0.5 0.11433202471867766 21:0.44444448998391917 27:0.5 39:0.41666665710230977 102:0.4444444859658438 125:0.40000005893475576 247:0.49999998033626786 317:0.6666667007348507 435:0.888888939909562 552:0.5 595:0.499999985643056 726:0.6666666785092171 
0.0 0.5 870:1.0 
0.0 0.5 21:0.6666667026188835 134:0.571428551194267 644:1.0 
0.29929256729909437 0.09554104698266411 13:0.75 598:1.0 873:1.0 
0.5 0.5 
0.5 0.2628980058704728 606:1.0 874:0.749999939408966 
0.4952804672808133 0.0 125:0.40000005893475576 197:1.0 225:0.6666666666666666 293:0.6666666890159431 346:0.5000000171363742 552:0.5 877:0.6666666957272209 878:0.666666726735407 
0.0 0.5 256:0.3749999877847875 434:0.499999981217259 482:0.3333333333333333 727:0.8333333662293081 
0.4091329685777033 0.0 2:0.6249999958055724 258:0.7499999531517415 415:0.75 574:1.0 884:1.0 1613:1.0 
0.13769772770638336 0.5 43:0.6666666423359102 240:1.0 
0.5 0.5 57:0.4444444834602533 104:0.5 116:0.6666666827645111 176:0.6666666982216839 382:0.5000000187228731 609:0.6666666942462827 893:1.0 
0.14132508110405015 0.0 18:0.7499999737004802 23:0.7499999436517816 346:0.7500000085681872 538:1.0 761:1.0 
0.23493370013940937 0.1475590065926908 439:0.5 629:0.6666666418747812 630:0.6666666418747812 631:0.6666666418747812 677:0.6666666666666667 678:0.3472222434447355 679:1.0 680:0.5 681:1.0 682:0.6666667071830824 683:1.0 684:1.0 685:0.5000000171363742 686:0.6666666781935748 687:0.6666666781935748 688:0.6666666781935748 
0.0 0.4398878143536037 181:0.7499999906715955 397:1.0 428:0.7499999900994392 
0.5 0.5 171:0.75 322:0.7500000083198824 452:1.0 
0.0 0.5 65:1.0 81:1.0 117:1.0 494:0.5999999952471479 752:1.0 
0.0 0.4193756859098553 1:0.7499999748570649 274:1.0 322:0.7500000083198824 382:0.7499999906385635 488:1.0 587:0.6666666580824041 824:1.0 1289:1.0 
0.2600867546610881 0.5 17:0.7499999675805721 353:1.0 645:1.0 
0.0 0.17442587242535976 337:1.0 460:0.75 894:1.0 
0.3712674359822937 0.33536571430325857 116:1.0 314:1.0 330:0.7500000000000001 349:1.0 416:1.0 527:0.7500000254621214 558:0.7500000000000001 587:0.6666666580824041 641:1.0 895:1.0 896:1.0 1327:1.0 
0.5 0.5 
0.3613936739006406 0.12477383072518226 128:1.0 727:0.5555555774862054 898:1.0 899:0.75 
0.0 0.5 4:0.75 21:0.6666667026188835 22:0.7499999905731904 115:0.6249999841811699 176:1.0 217:1.0 632:0.6666666510817658 900:1.0 901:1.0 
0.0 0.5 178:1.0 
0.26857304049417197 0.1710706461299001 42:0.6250000277520712 264:1.0 388:1.0 729:1.0 
0.11386242406756344 0.1878614319588733 156:0.666666726735407 209:0.4444444482685834 239:0.6666666793103067 381:0.5 751:0.6666666556859534 753:1.0 
0.2282857213546763 0.5 14:1.0 27:0.75 320:1.0 903:1.0 
0.1965535275061625 0.5 1148:0.6249999742639543 
0.013235000663667403 0.0 89:1.0 304:0.5 870:0.6666667224557367 908:0.6666666556859534 909:0.5000000112628881 
0.0 0.5 109:0.6666666556859534 637:1.0 1434:0.666666726735407 
0.010255015716637426 0.0 5:1.0 222:0.7499999514132242 646:1.0 
0.0 0.09644806261435505 238:0.7500000083198824 285:1.0 887:1.0 888:1.0 889:1.0 890:1.0 891:1.0 892:1.0 906:1.0 907:1.0 
0.5 0.06350135778252305 21:0.6666667026188835 41:0.7499999999999999 373:0.7500000219170877 595:0.749999978464584 609:1.0 736:1.0 914:1.0 
0.012735020435741087 0.40666187582779495 6:0.6000000260591208 34:0.600000012310762 355:1.0 412:0.7499999649491076 792:1.0 815:1.0 
0.0 0.5 438:1.0 1605:0.7500000123533026 
0.29083686981926116 0.5 48:0.7499999645006074 138:1.0 139:0.7500000081434751 424:0.7499999802170255 760:0.7499999675805721 915:1.0 
0.21471773007169603 0.0 345:1.0 615:1.0 795:1.0 
0.3449960721684498 0.40228760569352046 113:0.6249999506912106 318:0.7499999531517415 594:1.0 689:0.749999980836647 
0.08144674749547555 0.12983288467783644 129:1.0 143:1.0 812:1.0 
0.5 0.3426964581367219 58:0.7499999748570649 74:0.7499999509909532 247:0.7499999508406697 297:0.75 319:0.6249999967466485 469:0.6666666666666666 576:0.7499999547523951 661:1.0 664:1.0 777:1.0 1241:1.0 
0.5 0.5 
0.3337938407260156 0.0 2:0.6249999958055724 21:0.6666667026188835 1144:1.0 
0.0 0.3296594969911662 81:0.6666666781935748 119:1.0 120:0.6666666882101472 440:0.6666666786561575 
0.0 0.5 48:0.7499999645006074 552:0.75 
0.17984224473238977 0.03348733125062913 480:0.6666666666666666 894:1.0 922:1.0 923:1.0 
0.0 0.5 43:0.6666666423359102 233:0.7499999586036538 664:1.0 863:1.0 924:1.0 
0.0 0.26700327880526653 320:1.0 376:1.0 394:1.0 518:0.6 603:1.0 
0.5 0.5 532:0.7499999675805721 
0.0 0.5 102:0.6666666542102468 104:0.75 258:0.7499999531517415 498:1.0 690:1.0 
0.5 0.5 16:0.6666666580824041 
0.0 0.5 21:0.6666667026188835 103:1.0 186:0.749999978464584 808:1.0 
0.05107528701767011 0.5 123:1.0 330:0.7500000000000001 396:1.0 506:1.0 
0.0615775108154634 0.0 117:1.0 145:1.0 358:1.0 564:1.0 
0.0 0.047488337711001485 69:0.7499999831074771 599:1.0 
0.0 0.3752331413960938 258:0.7499999531517415 498:1.0 518:0.6 519:1.0 
0.4729829814790108 0.46166112232432077 76:1.0 353:0.666666698090058 558:0.5 752:0.6666667167539756 
0.0 0.08663516310447428 665:1.0 716:1.0 
0.009602180733580693 0.0762297177248739 123:1.0 357:0.7499999865118231 376:1.0 388:1.0 690:1.0 1154:1.0 
0.0783693386051366 0.0 76:0.7499999436517816 346:0.7500000085681872 413:0.7500000081434751 
0.5 0.5 346:0.7500000085681872 409:0.7499999586036538 
0.0 0.3251919763138561 364:1.0 893:0.749999986677131 930:0.5624999667364893 931:1.0 
0.0 0.025061748456622485 10:0.6666666666666666 71:0.6666666542420482 116:1.0 133:1.0 190:0.7499999547523951 238:0.7500000083198824 286:0.75 343:1.0 
0.36739311166664396 0.3179908446953812 145:1.0 564:1.0 651:0.749999980836647 
0.0 0.4931075171570655 26:0.7499999401216106 39:0.6249999856534647 71:0.6666666542420482 98:0.750000009648912 601:1.0 933:1.0 934:1.0 1538:1.0 
0.5 0.0 488:1.0 496:1.0 765:0.7499999748570649 
0.0 0.18802855987938938 220:1.0 313:1.0 518:0.6 520:1.0 
0.5 0.5 
0.016128170706905125 0.18616086750145194 222:0.7499999514132242 475:0.600000032591516 500:0.7499999675805721 558:0.7500000000000001 
0.24412140788597778 0.0 176:1.0 210:0.75 247:0.7499999508406697 315:0.749999980953552 357:0.7499999865118231 615:1.0 928:0.7499999586036538 935:1.0 
0.010977707710062436 0.06295395344606275 21:0.6666667026188835 221:0.7499999586036538 247:0.7499999508406697 811:0.7499999493170039 
0.0 0.5 27:0.75 42:0.6250000277520712 49:0.6666666666666666 95:0.75 238:0.7500000083198824 315:0.749999980953552 584:0.6 
0.1605470339875403 0.5 14:1.0 213:1.0 300:0.7499999772095168 933:1.0 
0.0 0.5 577:1.0 
0.5 0.5 457:1.0 688:1.0 
9.096554006675604E-4 0.0 33:0.6250000031880082 91:0.749999984697561 92:0.749999984697561 93:0.7499999436517816 94:0.7499999658835783 95:0.75 248:0.7499999737004802 937:1.0 938:1.0 
0.0 0.5 518:0.6 581:0.7500000083198824 
0.0 0.036292136904054154 21:0.6666667026188835 22:0.7499999905731904 146:0.7499999436517816 343:1.0 409:0.7499999586036538 
0.23260921598571227 0.30583030285483115 103:0.5 171:0.37500001448594317 615:0.5 793:0.5 935:0.5 941:1.0 942:1.0 943:0.5000000158163657 1479:0.5 
0.0 0.4675920824754621 755:1.0 756:1.0 
0.5 0.5 
0.0 0.5 501:0.75 
2.363083966852694E-4 0.5 1375:1.0 
0.0 0.5 130:0.375 339:0.5 351:0.5 381:0.375 518:0.8999999723288714 713:0.5000000158163657 795:0.5 
0.02203380814678361 0.0 10:0.6666666666666666 509:0.749999980836647 715:1.0 799:1.0 929:1.0 1416:1.0 
0.0 0.5 21:0.6666667026188835 41:0.7499999999999999 
0.5 0.33244209770342514 34:0.8000000984860964 104:0.5 115:0.4166666877584401 130:0.5 256:0.49999998371305004 274:0.666666726735407 725:0.6666667181330785 1222:0.6666666882101472 
0.0 0.5 456:0.7500000254621214 
0.20757075218795443 0.4190109637337796 19:0.7499999917233263 104:0.75 176:1.0 382:0.7499999906385635 654:1.0 663:0.749999980836647 733:0.7499999421002911 
0.0 0.5 249:0.7499999737004802 945:1.0 946:1.0 
0.06221220390282551 0.5 21:0.6666667026188835 71:0.6666666542420482 608:1.0 634:1.0 783:1.0 
0.5 0.48130029224898807 384:1.0 
0.5 0.5 145:1.0 829:1.0 
0.0 0.5 113:0.6249999506912106 458:0.749999980836647 752:1.0 948:0.7499999748570649 949:1.0 
0.0 0.5 125:0.20000002946737788 518:1.0 
0.2071326918249453 0.14364021306383595 131:1.0 135:1.0 306:0.7500000123533026 710:1.0 
0.0 0.03518524877778065 415:0.75 525:1.0 551:1.0 642:0.6666666254935397 720:1.0 803:1.0 
0.2996384529453278 0.5 37:0.5 71:0.8888889468704424 147:0.6666667181330785 176:0.6666666982216839 210:0.5 447:0.6666666781935748 549:0.6666667088436418 859:0.4999999860545643 950:0.6666667088436418 951:0.49999998635343135 
0.17001392848770155 0.06646687311943134 63:0.6666666798690336 64:0.5000000146113918 155:0.6666667181330785 443:0.4999999860545643 744:0.6666666666666667 952:1.0 953:0.6666666957272209 954:0.6666667224557367 1429:0.6666667181330785 1480:0.6666667088436418 
0.0 0.5 21:0.6666667026188835 23:0.7499999436517816 42:0.6250000277520712 350:1.0 1417:1.0 
0.0 0.5 450:1.0 
0.0 0.21350420030700074 243:1.0 298:0.6666666828403788 671:1.0 687:1.0 868:0.7499999673068779 
0.0 0.04449323219754315 391:0.7500000187884727 492:1.0 526:0.7499999857759053 748:1.0 929:1.0 
0.5 0.18133854196011615 78:0.6666666543060404 157:1.0 668:0.7499999686186495 
0.5 0.5 32:1.0 43:0.44444445255469656 68:0.5 159:0.6666667181330785 225:0.6666666666666666 236:0.49999998635343135 401:0.5 405:0.6666666666666666 955:0.6666667181330785 1183:0.666666726735407 
0.0 0.5 21:0.6666667026188835 23:0.7499999436517816 651:0.749999980836647 
0.0 0.036432605469969986 260:0.5714285789919975 516:1.0 900:1.0 
0.0 0.36844778706306175 385:1.0 
0.0 0.5 256:0.30000001628695 518:0.96 581:0.300000003327953 
0.0 0.5 169:1.0 301:1.0 956:0.6666666934800648 
0.18318993808666698 0.1738589062471977 82:1.0 134:0.571428551194267 796:0.6666667032690464 836:1.0 943:1.0 949:1.0 957:1.0 1558:1.0 
0.3376268583184354 0.0 19:0.7499999917233263 41:0.7499999999999999 48:0.7499999645006074 91:0.749999984697561 775:0.7499999865118231 
0.10974293391574999 0.5 355:1.0 382:0.7499999906385635 424:0.7499999802170255 671:1.0 
0.20095845626528228 0.5 21:0.6666667026188835 145:1.0 170:0.666666648404121 399:1.0 652:0.8333333228984775 
0.27751648648741184 0.49065250894458157 210:0.75 311:1.0 326:1.0 958:1.0 
0.22035163857931686 0.0 26:0.5 39:0.41666665710230977 123:0.6666666787969505 125:0.40000005893475576 256:1.0 322:0.5000000166397651 905:0.6666666900440184 952:0.5000000127755687 960:0.5000000209209003 
0.015546730718709257 0.0 14:1.0 102:0.6666666542102468 331:1.0 332:1.0 528:1.0 634:1.0 1245:1.0 
0.0 0.5 318:0.7499999531517415 361:0.7499999906385635 866:1.0 
0.5 0.5 26:0.7499999401216106 43:0.6666666423359102 243:1.0 962:0.60000002253929 
0.0 0.11539728989867543 558:0.37500000000000006 641:0.5 816:0.8999999859199559 
0.16811363278343955 0.0 37:0.75 67:1.0 214:0.749999978464584 
0.0033119471517618726 0.0 29:1.0 32:0.7500000083198824 89:0.7499999851473375 108:1.0 181:0.7499999906715955 266:1.0 764:1.0 795:1.0 824:1.0 929:1.0 962:0.60000002253929 963:1.0 964:1.0 
0.0 0.23234157989347043 634:1.0 635:1.0 
0.0 0.5 389:1.0 883:1.0 965:1.0 1611:1.0 
0.0 0.5 112:1.0 483:1.0 
0.29462882542948365 0.5 27:0.75 43:0.6666666423359102 104:0.75 315:0.749999980953552 529:1.0 
0.0 0.5 10:0.6666666666666666 285:1.0 501:0.75 909:0.7499999493170039 
0.1455398484055404 0.5 112:1.0 353:1.0 483:1.0 970:1.0 
0.5 0.5 435:0.6666666846739631 
0.0 0.1251815205453691 407:1.0 531:1.0 
0.0 0.44605780672384177 62:1.0 324:1.0 433:1.0 573:0.7499999778996701 915:1.0 971:1.0 
0.004220569110684899 0.0 111:1.0 538:1.0 972:1.0 
0.014547243461493733 0.2805587148084223 19:0.7499999917233263 125:0.6000000515679113 871:1.0 
0.0 0.4848437296332352 304:0.7499999850310722 542:0.7499999493170039 
0.21633724024514428 0.5 115:0.6249999841811699 426:1.0 427:1.0 595:0.749999978464584 973:1.0 1373:1.0 
0.5 0.5 
0.10663074457704574 0.5 71:0.6666666542420482 172:0.749999978464584 318:0.7499999531517415 607:0.7499999675805721 974:1.0 
0.0 0.5 21:0.6666667026188835 
0.28420410387195305 0.5 80:0.749999939408966 254:1.0 578:1.0 581:0.7500000083198824 936:1.0 975:0.7500000123533026 1535:1.0 
0.2522429694841086 0.14094088030370178 785:1.0 803:1.0 974:1.0 
0.0 0.1716474943622757 2:0.6249999958055724 42:0.6250000277520712 43:0.6666666423359102 314:1.0 362:0.7499999865118231 377:1.0 450:1.0 458:0.749999980836647 727:0.5555555774862054 1447:1.0 
0.262015603996549 0.0 123:1.0 976:1.0 
0.014400019088347817 0.0 102:0.6666666542102468 154:1.0 784:0.7499999658835783 877:1.0 944:1.0 
0.0 0.5 492:1.0 816:0.6000000040228698 967:1.0 
0.5 0.5 
0.5 0.5 
0.15204785239115828 0.0 125:0.40000005893475576 488:0.6666666666666666 573:1.0 
0.17385985783160712 0.5 28:1.0 574:1.0 822:0.749999978464584 977:1.0 
0.0 0.38637705673581196 240:1.0 801:1.0 
0.0 0.11670653881381653 605:0.7499999689729333 799:1.0 911:1.0 912:1.0 913:1.0 
0.0 0.22469074399187494 718:1.0 751:1.0 752:1.0 794:1.0 
0.0 0.5 155:1.0 
0.0 0.5 78:0.6666666543060404 181:0.7499999906715955 
0.0550009487510585 0.29653247434434826 81:1.0 102:0.6666666542102468 409:0.7499999586036538 513:1.0 526:0.7499999857759053 587:0.6666666580824041 749:0.7499999689729333 978:1.0 979:0.7499999748570649 1455:1.0 
0.0 0.02858075732854011 98:1.0 361:0.5000000187228731 741:0.6666666957272209 
0.07875968769930188 0.41709148532738954 27:0.75 115:0.6249999841811699 247:0.7499999508406697 431:1.0 573:0.7499999778996701 672:1.0 980:1.0 
0.0 0.442694370351259 13:1.0 98:0.500000019297824 111:0.6666666798690336 250:0.6666667007348507 322:0.5000000166397651 460:0.5 592:0.666666726735407 981:1.0 1198:0.6666666781935748 
0.0 0.5 409:0.7499999586036538 982:1.0 
0.5 0.5 391:0.7500000187884727 
0.5 0.5 139:0.7500000081434751 305:0.7499999586036538 381:0.75 713:1.0 1179:1.0 
0.2735915454406051 0.0 13:0.75 46:1.0 127:1.0 346:0.7500000085681872 500:0.7499999675805721 810:1.0 
0.3444842481432112 0.5 6:0.6000000260591208 71:0.6666666542420482 236:0.7499999658835783 431:1.0 495:0.75 612:1.0 740:0.6249999611166113 830:1.0 1164:1.0 1603:1.0 
0.0 0.5 391:0.3750000056365418 518:0.8999999723288714 586:0.5 
0.0 0.06908356656923416 31:0.6666666828403788 73:1.0 531:1.0 533:1.0 918:1.0 919:1.0 983:1.0 
0.0 0.5 345:0.666666726735407 475:0.39999999456808066 563:1.0 984:0.6666667129926501 985:0.6666666781935748 
0.0 0.1677631508596627 22:0.4999999811463808 105:1.0 217:0.6666666666666666 306:0.5 851:0.6666666785092171 
0.49359655445505907 0.5 27:0.75 558:0.7500000000000001 671:1.0 
0.0065635169212654885 0.22334904571786748 247:0.7499999508406697 459:1.0 460:0.75 461:1.0 
0.0 0.1901834319044908 69:0.7499999831074771 142:1.0 500:0.7499999675805721 521:1.0 586:1.0 728:1.0 1375:1.0 
0.5 0.5 
0.1000980586583778 0.07255011959217343 104:0.75 125:0.6000000515679113 390:0.6666666753252691 488:1.0 634:1.0 727:0.5555555774862054 801:1.0 863:1.0 949:1.0 986:0.7499999865118231 987:1.0 988:1.0 
2.4789331177140275E-4 0.5 989:1.0 
0.16791400168738282 0.4745267761480666 21:0.6666667026188835 119:0.749999939408966 224:1.0 329:0.6666666829867495 411:1.0 647:1.0 658:1.0 
0.0 0.5 170:0.666666648404121 330:0.7500000000000001 
0.008487757515613963 0.5 13:0.75 
0.06883114883001383 0.47895174306551 74:0.7499999509909532 116:1.0 330:0.7500000000000001 533:1.0 990:1.0 
1.0607727682354628E-9 0.5 881:0.7499999686186495 
0.048620450096412866 0.5 123:0.333333357593901 244:0.25 930:0.9374999104443942 
0.012300206434166266 0.0 33:0.6250000031880082 91:0.749999984697561 92:0.749999984697561 93:0.7499999436517816 94:0.7499999658835783 95:0.75 248:0.7499999737004802 937:1.0 938:1.0 
0.185608149072153 0.0 373:0.7500000219170877 742:1.0 855:1.0 893:0.749999986677131 
0.0 0.03246601736349528 4:0.75 249:0.7499999737004802 315:0.749999980953552 
0.1695714786366736 0.0 74:0.5000000196036188 82:0.6666666799723805 157:0.6666667034634209 190:0.5 247:0.49999998033626786 269:0.6666666781935748 430:0.5000000118622737 486:1.0 487:0.6666667088436418 495:0.5 996:0.6666667007348507 997:0.6666666957272209 998:0.6666666786561575 
0.2551696023358513 0.14240456171500399 37:0.75 371:0.7499999658879616 562:1.0 722:0.7499999737004802 915:1.0 975:0.7500000123533026 986:0.7499999865118231 
0.0 0.28456069230044145 57:0.6666666846739631 418:1.0 620:0.7500000219170877 
0.5 0.5 
0.13974152289733632 0.5 318:0.7499999531517415 995:0.7499999686186495 999:1.0 
0.0 0.30157763252986647 443:0.7500000069727178 480:0.6666666666666666 
0.46017466274441393 0.5 34:0.8000000984860964 209:0.8888889309544175 300:0.5000000151936554 322:0.5000000166397651 763:0.5 784:0.49999998635343135 785:0.6666666890159431 1000:0.666666726735407 
0.2725371131794734 0.0 3:1.0 12:1.0 170:0.666666648404121 209:0.6666666551942497 814:1.0 1001:1.0 1420:1.0 
0.0 0.5 118:0.5000000118622737 360:0.6666667007348507 475:0.800000016295758 
0.34980730030355056 0.5 78:0.4444444485646532 215:0.6666667181330785 413:0.49999998371305004 475:0.800000016295758 535:0.6666666781935748 600:0.6666666900440184 613:0.5 638:0.6666666666666667 698:0.6666666882101472 701:0.5 744:0.6666666666666667 1000:0.666666726735407 
0.08876311658698079 0.07245973664202073 44:1.0 189:1.0 212:1.0 249:0.7499999737004802 468:1.0 718:1.0 731:1.0 945:1.0 974:1.0 1003:1.0 
0.2364989694015242 0.5 33:0.6250000031880082 
0.0 0.23969749734241236 291:0.7500000219170877 955:1.0 1004:1.0 1190:0.7499999586036538 
0.0 0.5 115:0.4166666877584401 178:0.49999998635343135 236:1.0 256:0.49999998371305004 285:0.6666666666666667 296:0.5000000147335533 412:0.5 504:0.6666666418747812 576:0.5 782:0.4444445022884188 792:0.6666666786561575 815:0.6666667181330785 
0.0 0.29318240634984666 26:0.7499999401216106 34:0.600000012310762 102:0.6666666542102468 566:1.0 693:1.0 933:1.0 1005:1.0 
0.0 0.08208047132930159 451:0.7500000069727178 813:1.0 
0.08255068757045418 0.5 221:0.7499999586036538 
0.0 0.43814171653462924 833:1.0 897:1.0 
0.11216984986044096 0.03785030418031046 69:0.7499999831074771 113:0.6249999506912106 139:0.7500000081434751 256:0.7500000081434751 546:0.7499999421002911 567:0.7499999689729333 661:1.0 799:1.0 1007:1.0 1539:1.0 
0.0 0.31961981779203663 457:1.0 687:1.0 1005:1.0 
0.5 0.0 42:0.6250000277520712 381:0.75 489:1.0 
0.001332004252768705 0.0011874597053062423 33:0.6250000031880082 91:0.749999984697561 92:0.749999984697561 93:0.7499999436517816 94:0.7499999658835783 95:0.75 248:0.7499999737004802 937:1.0 938:1.0 
0.0 0.5 381:0.75 751:1.0 752:1.0 
0.0 0.5 76:0.7499999436517816 434:1.0 
4.384478817516111E-4 0.0 1008:1.0 1009:0.7499999703443155 
0.04463480354494056 0.5 91:0.749999984697561 164:1.0 165:1.0 717:1.0 
0.5 0.5 125:0.6000000515679113 161:0.7499999547523951 322:0.7500000083198824 985:1.0 
0.0 0.10362602102516974 21:0.6666667026188835 78:0.6666666543060404 330:0.7500000000000001 730:1.0 
0.0 0.4759389301816772 4:0.75 5:1.0 26:0.7499999401216106 291:0.7500000219170877 389:1.0 452:1.0 615:1.0 1013:0.7499999436517816 
0.0 0.04098357793193563 69:0.7499999831074771 677:1.0 
0.1367148961835422 0.5 1008:1.0 1614:1.0 
0.0 0.03913027966349751 323:0.7499999686186495 413:0.7500000081434751 451:0.7500000069727178 573:0.7499999778996701 717:1.0 823:1.0 
0.5 0.5 
0.19388970422250615 0.07675235824215225 210:0.75 519:1.0 590:1.0 
0.0 0.2715114087858904 307:1.0 1015:1.0 
0.0 0.5 4:0.75 1017:0.7499999493170039 
0.0 0.5 314:1.0 364:1.0 1314:1.0 
0.29272537993137837 0.21649992154102576 273:1.0 376:1.0 399:1.0 438:1.0 493:0.749999939408966 608:1.0 652:0.8333333228984775 1019:1.0 1352:1.0 1525:1.0 
0.4923733606705945 0.5 304:0.7499999850310722 497:0.6666666846739631 
0.0 0.01489035221671479 95:0.75 
0.0 0.5 269:0.6666666781935748 497:0.888888939909562 
0.47244137343802367 0.4624245567442911 41:0.5 64:1.0 179:0.5 251:0.6666666666666666 320:0.6666667167539756 361:0.5000000187228731 495:0.5 567:0.5 593:0.49999998371305004 774:0.5 860:0.6666666882101472 
0.04968537286496103 0.5 161:0.7499999547523951 291:0.7500000219170877 
0.5 0.4868788300866517 96:0.7499999658879616 125:0.6000000515679113 
0.0 0.20342876558620127 114:1.0 238:0.7500000083198824 390:0.6666666753252691 800:1.0 
0.5 0.2960091154393411 81:1.0 102:0.6666666542102468 526:0.7499999857759053 587:0.6666666580824041 749:0.7499999689729333 978:1.0 979:0.7499999748570649 
0.0 0.04035857647805773 64:0.7500000219170877 65:1.0 509:0.749999980836647 985:1.0 1003:1.0 
0.0 0.4128146294456621 774:1.0 
0.060295545511696226 0.0 346:0.7500000085681872 363:1.0 483:1.0 783:1.0 926:1.0 
0.5 0.5 27:1.0 40:0.6666666882101472 247:0.49999998033626786 522:0.5 606:0.6666666556859534 1023:0.6666666418747812 1477:0.666666726735407 
0.5 0.06806478006631944 303:1.0 612:1.0 962:0.60000002253929 1024:1.0 
0.0 0.5 224:1.0 973:1.0 
0.2397740741427208 0.5 53:0.7499999748570649 190:0.7499999547523951 476:1.0 497:0.6666666846739631 532:0.7499999675805721 801:1.0 951:0.7499999658835783 1307:0.7499999493170039 
0.11693204736536063 0.10156019057901247 63:0.6666666798690336 116:0.6666666827645111 355:0.6666666786561575 395:1.0 464:0.4444444492318845 582:0.6666666799723805 759:0.6666666781935748 973:0.6666667007348507 1025:0.666666726735407 
0.0 0.5 4:0.75 250:1.0 1444:1.0 
0.15677413383334013 0.0 74:0.7499999509909532 77:1.0 181:0.7499999906715955 464:0.6666666523043467 1026:1.0 1027:1.0 1028:1.0 1435:1.0 
0.0 0.5 144:0.6249999658812717 364:1.0 
0.03075733726626204 0.5 34:0.600000012310762 222:0.7499999514132242 527:0.7500000254621214 601:1.0 962:0.60000002253929 1554:0.749999980836647 
0.23965764611427148 0.4810799213971017 42:0.6250000277520712 82:1.0 271:1.0 351:1.0 506:1.0 
0.0 0.017740197524926626 10:0.6666666666666666 499:1.0 747:1.0 
0.3376599482771071 0.5 110:1.0 189:1.0 1546:1.0 
0.06058939379421933 0.30205784259008844 28:1.0 71:0.6666666542420482 220:1.0 293:1.0 308:1.0 1024:1.0 1025:1.0 1030:1.0 1187:1.0 
0.2784718247650202 0.5 364:1.0 1272:1.0 
0.0 0.5 64:0.5000000146113918 336:0.6666666799723805 350:0.6666666882101472 400:0.6666666882101472 401:0.5 452:0.6666667167539756 607:0.4999999870322288 622:1.0 1031:0.6666667088436418 1297:0.6666666882101472 1423:0.5000000209209003 
0.0 0.5 6:0.6000000260591208 125:0.6000000515679113 859:0.7500000069727178 
0.0 0.35216947345358995 923:1.0 
0.004252433737391887 0.5 330:0.7500000000000001 
0.3858535950302142 0.5 144:0.6249999658812717 210:0.75 464:0.6666666523043467 518:0.6 702:0.749999978464584 966:1.0 1531:1.0 
0.42162752472789805 0.0 35:0.6666666785092171 121:0.4444444692769743 210:0.5 297:0.5 443:1.0 560:0.6666667181330785 1032:0.6666667088436418 1311:0.6666667088436418 
0.44366905942923385 0.02525813194923951 15:0.5000000151936554 26:0.5 209:0.4444444482685834 369:0.6666666666666666 485:1.0 785:0.6666666890159431 975:1.0 986:1.0 1033:0.6666666957272209 
0.0 0.5 530:1.0 788:0.7499999675805721 942:1.0 
0.331868354500381 0.0 32:0.7500000083198824 70:1.0 413:0.7500000081434751 634:1.0 
0.17696543275382642 0.0 1008:1.0 1009:0.7499999703443155 
2.462393265395735E-4 0.45928070553742856 992:1.0 
0.0 0.5 238:0.7500000083198824 1284:1.0 
0.5 0.0 146:0.7499999436517816 415:0.75 509:0.749999980836647 554:0.6666666666666666 
0.5 0.3106930113563914 162:1.0 
0.019480294058306126 0.5 6:0.6000000260591208 687:1.0 839:1.0 
0.32251165613199295 0.5 6:0.6000000260591208 21:0.6666667026188835 42:0.6250000277520712 209:0.6666666551942497 210:0.75 550:1.0 
0.0 0.5 21:0.6666667026188835 
2.1323858728104588E-4 0.5 1526:1.0 
0.2820034478338238 0.5 412:0.7499999649491076 1038:1.0 
0.0 0.5 27:0.75 520:1.0 1041:1.0 
0.10936835105615651 0.5 43:0.6666666423359102 100:1.0 125:0.6000000515679113 134:0.571428551194267 153:0.7500000219170877 523:0.5208333581289537 541:1.0 795:1.0 885:1.0 946:1.0 1426:1.0 
2.1240700865227802E-4 0.20943134512738168 310:1.0 
0.39112754654911597 0.0 44:1.0 1142:1.0 
0.5 0.5 107:1.0 415:0.75 
0.0 0.5 133:0.5 518:0.8999999723288714 
0.0 0.5 170:0.666666648404121 644:1.0 
0.5 0.12865287805904257 34:0.600000012310762 39:0.6249999856534647 43:0.6666666423359102 75:0.7499999493170039 107:1.0 346:0.7500000085681872 558:0.7500000000000001 1004:1.0 1042:1.0 
0.0 0.03639866773635321 5:1.0 49:0.6666666666666666 318:0.7499999531517415 361:0.7499999906385635 845:0.7499999493170039 1043:1.0 1608:1.0 
0.059334376064565986 0.16557508808052018 605:0.7499999689729333 912:1.0 1020:1.0 1021:1.0 
0.5 0.5 445:0.749999978464584 781:1.0 981:0.7499999748570649 
0.010905131108398327 0.015341038957384524 3:0.6666666802688349 98:0.500000019297824 290:0.6666667007348507 341:0.5 505:0.6666666781935748 1044:1.0 
0.5 0.21008214010276208 244:0.75 319:0.6249999967466485 339:1.0 594:1.0 
0.0 0.5 13:0.75 755:1.0 873:1.0 
0.0 0.5 211:1.0 322:0.7500000083198824 
0.1826207543565734 0.057623619058373175 354:0.5 456:0.49999998302525245 563:0.5 682:0.6666667071830824 979:1.0 
0.5 0.5 
0.0 0.15052487290659106 87:1.0 91:0.749999984697561 285:1.0 
0.0 0.5 41:0.7499999999999999 403:1.0 412:0.7499999649491076 
0.0 0.5 148:0.749999984697561 695:0.7500000219170877 
0.0 0.3242574879376639 5:1.0 46:1.0 113:0.6249999506912106 764:1.0 1035:0.6666666542690958 
0.0 0.5 389:1.0 407:1.0 
0.013675558701364906 0.12421745486493699 247:0.7499999508406697 667:0.7499999586036538 880:0.7499999737004802 946:1.0 
0.0 0.5 717:1.0 
0.5 0.5 104:0.75 115:0.6249999841811699 220:1.0 
0.32403383187093476 0.0 400:1.0 401:0.7499999865118231 834:0.7499999865118231 
0.03002454474410489 0.0 113:0.6249999506912106 204:1.0 300:0.7499999772095168 412:0.7499999649491076 498:1.0 792:1.0 815:1.0 829:1.0 886:1.0 940:1.0 1024:1.0 
0.0 0.5 22:0.7499999905731904 364:1.0 
0.18227558447204767 0.3764985178453043 381:0.75 
0.0 0.35059809663442654 946:1.0 1045:1.0 
0.30045300660217594 0.5 31:0.44444446331377524 32:0.5000000166397651 66:0.6666667224557367 1013:1.0 
0.0 0.1952421073111697 98:0.750000009648912 151:0.7499999737004802 494:0.5999999952471479 608:1.0 812:1.0 1046:0.6666667032690464 1047:1.0 
0.0 0.41507181470815985 78:0.6666666543060404 98:0.750000009648912 330:0.7500000000000001 396:1.0 528:1.0 988:1.0 1304:1.0 
0.2195673491900175 0.5 27:0.75 39:0.6249999856534647 42:0.6250000277520712 482:0.6666666666666666 993:1.0 1048:0.7500000123533026 
0.0 0.0462422710358856 13:0.75 134:0.571428551194267 313:1.0 748:1.0 
0.5 0.5 371:1.0 
0.08224542613706991 0.5 21:0.6666667026188835 193:1.0 237:0.749999978464584 389:1.0 650:0.6 712:1.0 726:1.0 770:1.0 
0.0 0.5 364:1.0 
0.5 0.5 56:1.0 
0.5 0.5 43:0.6666666423359102 1014:1.0 
0.0 0.5 754:0.700000002603148 1549:0.7499999673068779 
0.19112681919896893 0.49959238608334 59:1.0 361:0.7499999906385635 479:1.0 
0.0 0.03489006691501032 190:0.7499999547523951 225:1.0 249:0.7499999737004802 357:0.7499999865118231 945:1.0 
0.13641706614926594 0.5 130:0.5 315:0.5 336:0.6666666799723805 340:0.5 353:0.666666698090058 385:0.6666667059561432 424:1.0 607:0.4999999870322288 929:0.6666666900440184 1247:0.6666667088436418 
0.0 0.07915135882963964 389:1.0 456:0.7500000254621214 538:1.0 723:1.0 
0.056460914926017416 0.5 27:0.75 919:1.0 1625:1.0 
0.05948520720156512 0.49871879820093706 605:0.7499999689729333 913:1.0 1020:1.0 1021:1.0 
0.0 0.3786369923268627 78:0.6666666543060404 329:0.6666666829867495 346:0.7500000085681872 814:1.0 1001:1.0 
0.18089470169546495 0.2105135476941125 215:1.0 797:1.0 
0.232520723428159 0.07189555001207798 7:0.7500000123533026 48:0.7499999645006074 494:0.5999999952471479 
0.0 0.5 21:0.6666667026188835 637:0.7499999737004802 1049:1.0 
0.0 0.08200363501574637 153:0.5000000146113918 171:0.5 333:1.0 390:0.44444445021684603 563:0.5 694:0.4999999860545643 695:1.0 
0.0 0.16159825104596637 33:0.6250000031880082 91:0.749999984697561 92:0.749999984697561 93:0.7499999436517816 94:0.7499999658835783 95:0.75 248:0.7499999737004802 937:1.0 938:1.0 
0.0 0.026258678832895226 95:0.75 
0.1129626061903824 0.5 27:0.75 910:1.0 
0.0 0.5 454:1.0 
0.30427572035298917 0.3984130277241411 43:0.6666666423359102 904:1.0 961:1.0 
0.14720271413493594 0.0 217:1.0 330:0.7500000000000001 335:0.7499999703443155 403:1.0 614:1.0 
0.0 0.5 727:1.0 
0.0 0.5 133:1.0 181:0.7499999906715955 566:1.0 771:1.0 1030:1.0 
2.7579531305391196E-4 0.4817545283911461 343:1.0 
0.4214441824341835 0.5 330:0.7500000000000001 
0.0 0.5 27:0.75 96:0.7499999658879616 759:1.0 819:0.7499999675805721 827:1.0 
0.22307851008187513 0.5 137:1.0 378:0.37499996861865076 416:0.25000000939137046 928:0.18750000344969553 1043:0.25 
0.2507232725123228 0.05363655899942922 27:0.75 41:0.7499999999999999 291:0.7500000219170877 331:1.0 792:1.0 
0.5 0.5 10:0.6666666666666666 21:0.6666667026188835 102:0.6666666542102468 312:0.749999939408966 382:0.7499999906385635 940:1.0 996:1.0 1480:1.0 
0.18473384603463203 0.5 284:0.7499999737004802 329:0.6666666829867495 330:0.7500000000000001 591:1.0 615:1.0 
0.0 0.5 26:0.7499999401216106 
0.44936387419026314 0.5 256:0.7500000081434751 911:1.0 986:0.7499999865118231 1005:1.0 
0.5 0.5 18:1.0 48:0.5 382:1.0 448:0.6666666882101472 1157:0.6666667088436418 1297:0.6666666882101472 
0.1830730333875981 0.4278635606921438 818:1.0 994:1.0 
0.07418629027837732 0.0 407:1.0 444:1.0 772:1.0 773:1.0 
0.0 0.5 138:1.0 139:0.7500000081434751 482:0.6666666666666666 
0.0 0.5 457:1.0 
0.0 0.4658449264462587 33:0.6250000031880082 91:0.749999984697561 92:0.749999984697561 93:0.7499999436517816 94:0.7499999658835783 95:0.75 248:0.7499999737004802 937:1.0 938:1.0 
0.0 0.42923436627404477 26:0.7499999401216106 148:0.749999984697561 552:0.75 
0.27181552560048156 0.0 247:0.7499999508406697 993:1.0 
0.11730229080775695 0.5 375:1.0 819:0.7499999675805721 
0.0 0.5 41:0.7499999999999999 1537:1.0 
0.060212345876056055 0.2381299303766267 3:0.6666666802688349 98:0.500000019297824 290:0.6666667007348507 341:0.5 505:0.6666666781935748 1044:1.0 
0.38181978454174964 0.5 412:0.7499999649491076 806:1.0 1137:0.5833333382222375 1418:0.7499999673068779 
0.0 0.38227271114532446 124:1.0 720:1.0 
0.005841164032823161 0.5 116:1.0 250:1.0 353:1.0 368:1.0 970:1.0 1054:1.0 
0.0 0.45491923478447305 851:1.0 1056:1.0 
0.5 0.5 
0.06491137684706018 0.0 41:0.7499999999999999 51:1.0 134:0.571428551194267 209:0.6666666551942497 661:1.0 811:0.7499999493170039 958:1.0 1057:1.0 
0.5 0.2851122828085099 43:0.6666666423359102 231:1.0 539:1.0 814:1.0 1146:1.0 1229:0.7499999703443155 
0.5 0.5 137:0.9142857452010688 
0.06466985090252264 0.031394526507841955 371:0.7499999658879616 1058:1.0 
0.024790898639258638 0.0 37:0.75 413:0.7500000081434751 1059:1.0 
0.0 0.0809158643826227 130:0.75 371:0.7499999658879616 529:1.0 808:1.0 
0.07926809206707804 0.5 24:0.666666726735407 71:0.8888889468704424 180:0.5000000146113918 1316:1.0 
0.5 0.5 4:0.75 652:0.8333333228984775 
0.0 0.17511412209136487 48:0.7499999645006074 104:0.75 
0.25884726713172346 0.0905515487631055 27:0.75 351:1.0 612:1.0 722:0.7499999737004802 968:1.0 1056:1.0 
0.0 0.1334116750557945 282:0.7499999436517816 1053:1.0 
0.0 0.5 21:0.6666667026188835 
0.0 0.5 104:0.5 133:0.6666666942462827 145:0.6666666982216839 284:1.0 847:0.6666666957272209 1327:0.6666666890159431 
0.5 0.0 113:0.41666666666666674 126:0.6666667181330785 153:1.0 317:0.6666667007348507 319:0.41666669052457744 371:0.5 657:0.6666666882101472 956:0.44444448913344137 
0.0 0.5 389:1.0 460:0.75 637:0.7499999737004802 
0.11760050638528174 0.5 182:1.0 
0.056245685641385816 0.43042035189739036 132:1.0 185:1.0 348:0.7499999748570649 614:1.0 722:0.7499999737004802 1048:0.7500000123533026 1542:1.0 
0.31760719900901474 0.15199488267268393 67:1.0 125:0.6000000515679113 285:1.0 457:1.0 472:0.7499999421002911 656:1.0 695:0.7500000219170877 956:0.6666666934800648 
0.1566642049331327 0.0 42:0.6250000277520712 181:0.7499999906715955 330:0.7500000000000001 385:1.0 469:0.6666666666666666 501:0.75 565:1.0 591:1.0 730:1.0 880:0.7499999737004802 932:1.0 964:1.0 1060:0.6666666254935397 
0.0 0.13835419604780352 98:0.750000009648912 660:1.0 
0.0 0.5 78:0.6666666543060404 111:1.0 563:0.7499999421002911 984:1.0 
0.2618045389740129 0.17486732470156324 177:1.0 477:1.0 558:0.7500000000000001 573:0.7499999778996701 817:1.0 1202:1.0 
0.0 0.5 23:0.7499999436517816 220:1.0 457:1.0 518:0.6 930:0.5624999667364893 
0.5 0.5 92:0.5 266:0.6666667167539756 268:0.6666666556859534 475:0.800000016295758 700:0.6666666890159431 
0.0 0.5 358:1.0 750:1.0 
0.11549540637364819 0.5 145:1.0 373:0.7500000219170877 
0.032985899634694935 0.5 320:0.6666667167539756 481:0.6666666781935748 501:1.0 558:0.5 600:0.6666666900440184 
0.0 0.5 13:0.75 34:0.600000012310762 176:1.0 
0.11079541973944194 0.3156767685867839 163:1.0 361:0.7499999906385635 415:0.75 552:0.75 1042:1.0 1061:1.0 1062:1.0 
0.4000800431421095 0.5 690:1.0 
0.09062060325421387 0.0 74:0.7499999509909532 153:0.7500000219170877 176:1.0 247:0.7499999508406697 449:1.0 868:0.7499999673068779 932:1.0 1064:1.0 1211:0.7499999748570649 
0.0 0.5 21:0.6666667026188835 315:0.749999980953552 
0.0 0.10384514016511129 315:0.5 1065:1.0 1565:0.6666667181330785 
0.0 0.5 351:1.0 382:0.7499999906385635 964:1.0 988:1.0 
0.5 0.26406106276719066 575:1.0 718:1.0 
0.0 0.43298416545749646 509:0.749999980836647 
0.0 0.5 831:1.0 
2.6590053524629587E-4 0.5 446:1.0 690:1.0 
0.036234681614834924 0.0 244:0.75 637:0.7499999737004802 1066:1.0 
0.0 0.5 123:0.6666666787969505 976:0.666666726735407 1627:0.8333333470841124 
0.14345514452490632 0.5 2:0.6249999958055724 728:1.0 825:0.7499999436517816 1067:1.0 1623:0.7499999421002911 
0.5 0.5 
0.0 0.1437834604845498 364:1.0 751:1.0 752:1.0 1625:1.0 
0.18009440438147784 0.5 754:0.700000002603148 755:1.0 
0.0 0.5 247:0.7499999508406697 1069:1.0 
0.0 0.036346740921900454 19:0.7499999917233263 22:0.7499999905731904 224:1.0 330:0.7500000000000001 
0.2737440125771809 0.5 5:1.0 174:1.0 286:0.75 
0.0 0.5 133:1.0 443:0.7500000069727178 701:0.75 
0.0 0.10037336457150704 78:0.4444444485646532 99:1.0 690:0.6666666666666666 820:0.6666666556859534 946:0.6666666781935748 1037:0.6666666882101472 1045:0.6666667224557367 
0.0 0.5 65:1.0 113:0.6249999506912106 
0.0 0.18228386628235657 41:0.7499999999999999 558:0.7500000000000001 586:1.0 1393:1.0 
0.5 0.5 
0.0 0.5 6:0.6000000260591208 125:0.6000000515679113 1173:0.7499999703443155 
0.0 0.09704368107198627 21:0.6666667026188835 22:0.7499999905731904 364:1.0 408:1.0 
0.5 0.5 
0.0 0.5 98:0.750000009648912 153:0.7500000219170877 222:0.7499999514132242 247:0.7499999508406697 518:0.6 930:0.5624999667364893 
0.5 0.5 21:0.6666667026188835 168:0.7499999673068779 928:0.7499999586036538 
0.0 0.36405268655306583 0:1.0 146:0.7499999436517816 302:0.7499999748570649 
0.008389742696116502 0.0 181:0.500000018656809 239:0.6666666793103067 266:0.6666667167539756 413:1.0 
0.0 0.5 224:1.0 277:1.0 614:1.0 
0.5 0.5 247:0.7499999508406697 319:0.6249999967466485 
0.5 0.5 21:0.6666667026188835 138:1.0 139:0.7500000081434751 
2.488726379640154E-4 0.5 1041:1.0 
0.0 0.3076219188208473 194:0.7499999737004802 263:0.7499999658835783 
0.3783992152903763 0.34280427013180204 5:1.0 314:1.0 370:1.0 496:1.0 533:1.0 822:0.749999978464584 918:1.0 1070:1.0 
0.0 0.5 806:1.0 
0.0 0.5 32:0.7500000083198824 104:0.75 130:0.75 220:1.0 496:1.0 808:1.0 893:0.749999986677131 984:1.0 
0.0 0.3325531635386412 10:0.6666666666666666 97:1.0 98:0.750000009648912 
0.19596317028636692 0.5 10:0.6666666666666666 125:0.6000000515679113 298:0.6666666828403788 
0.15230801662689175 0.5 181:0.7499999906715955 342:1.0 
0.0 0.5 71:0.6666666542420482 124:1.0 330:0.7500000000000001 
0.0 0.4069984668540669 696:1.0 1515:1.0 
0.23220025731715246 0.4203878643883611 39:0.41666665710230977 171:1.0 190:0.5 211:0.6666667167539756 272:0.6666667224557367 963:0.6666667181330785 1071:0.666666726735407 1072:0.6666667088436418 
0.0 0.5 699:1.0 
0.4408246258986816 0.5 597:1.0 615:1.0 632:0.6666666510817658 825:0.7499999436517816 
0.19361832854341388 0.0 26:0.7499999401216106 130:0.75 255:1.0 285:1.0 845:0.7499999493170039 1212:1.0 
0.09260185136915648 0.3766423800529251 27:0.5 38:1.0 181:0.500000018656809 851:0.6666666785092171 904:0.6666666556859534 
0.0 0.5 130:0.75 547:0.7500000069727178 917:1.0 
0.22597834207804157 0.3158186955044511 34:0.4000000492430482 60:0.6666667224557367 128:0.6666666882101472 130:0.5 720:0.6666666890159431 721:1.0 
0.5 0.23108061054260326 148:0.749999984697561 865:1.0 
0.0 0.5 33:0.6250000031880082 134:0.571428551194267 558:0.7500000000000001 586:1.0 728:1.0 973:1.0 
0.0 0.07041594466035511 64:0.7500000219170877 65:1.0 69:0.7499999831074771 346:0.7500000085681872 613:0.7499999230577467 703:1.0 704:1.0 
0.13481974846704037 0.0 260:0.5714285789919975 313:1.0 836:1.0 893:0.749999986677131 
0.0 0.2899456984368488 19:0.2999999900679916 22:0.29999999622927614 557:1.0 1555:0.3999999883757783 
0.037709484301155845 0.14722526929315594 615:1.0 1621:1.0 
0.36735571017885355 0.5 351:1.0 527:0.7500000254621214 
0.2200386355532326 0.0 407:1.0 496:1.0 574:1.0 737:1.0 1003:1.0 
0.37391937040398604 0.3785437608338161 101:0.6666666890159431 154:0.6666667034634209 522:0.5 567:0.5 858:0.6666667088436418 898:0.6666667224557367 899:1.0 922:0.6666666556859534 925:0.666666726735407 1073:0.6666666957272209 
0.0 0.3878279433109298 15:0.7499999772095168 37:0.75 104:0.75 315:0.749999980953552 336:1.0 369:1.0 382:0.7499999906385635 1022:1.0 
0.0 0.027615849953331804 21:0.6666667026188835 422:1.0 468:1.0 659:1.0 669:1.0 836:1.0 
0.42207498442860797 0.06109207107785384 78:0.6666666543060404 135:1.0 917:1.0 1139:1.0 1167:1.0 
0.5 0.5 27:0.75 65:1.0 129:1.0 181:0.7499999906715955 239:1.0 
0.09833512460015158 0.0 113:0.6249999506912106 322:0.7500000083198824 581:0.7500000083198824 824:1.0 
0.25595377820021126 0.0 21:0.44444448998391917 413:0.49999998371305004 526:1.0 
3.536884324242715E-4 0.5 1063:1.0 
0.0 0.5 71:0.6666666542420482 172:0.749999978464584 454:1.0 
0.23899059084120147 0.5 21:0.19047620382987104 346:0.21428571428571433 613:0.2142857142857143 1074:1.0 
0.3331955864197296 0.0 862:1.0 1017:0.7499999493170039 
0.04739678191284419 0.0027159445209419546 1:0.7499999748570649 117:1.0 296:0.7499999778996701 1531:1.0 
0.5 0.5 
0.0 0.5 364:1.0 
0.23984862390295397 0.37968853257396795 500:0.7499999675805721 517:1.0 609:1.0 879:1.0 
0.5 0.5 
0.007726039774095612 0.5 393:1.0 614:1.0 731:1.0 
0.5 0.0 130:0.75 391:0.7500000187884727 411:1.0 
0.0 0.39206843755486004 145:1.0 210:0.75 610:0.6666667032690464 694:0.7500000069727178 726:1.0 899:0.75 925:1.0 
0.109193981585473 0.0 125:0.6000000515679113 251:1.0 361:0.7499999906385635 371:0.7499999658879616 406:1.0 641:1.0 1076:1.0 
0.5 0.5 
0.0 0.5 23:0.7499999436517816 313:1.0 
0.0 0.5 214:0.749999978464584 377:1.0 
0.0 0.5 552:0.75 1053:1.0 
0.07117104021581887 0.49658574317763615 32:0.7500000083198824 78:0.6666666543060404 505:1.0 740:0.6249999611166113 997:1.0 1612:1.0 
0.5 0.5 
0.24833999722676833 0.3334326354319515 264:1.0 1014:1.0 
0.0 0.3163948287557797 110:1.0 125:0.6000000515679113 126:1.0 322:0.7500000083198824 1069:1.0 
0.0 0.48317799391933464 73:1.0 74:0.7499999509909532 361:0.7499999906385635 396:1.0 1210:1.0 1430:0.7499999493170039 
0.0 0.05907732697641477 134:0.7619047821390662 1061:0.6666667224557367 1062:0.6666667224557367 
0.5 0.5 581:0.7500000083198824 749:0.7499999689729333 
0.5 0.5 13:0.5 689:1.0 
0.0868783867814123 0.5 1049:1.0 
0.0 0.5 98:0.750000009648912 111:1.0 382:0.7499999906385635 
0.5 0.5 
0.2086415479664387 0.4451858168265104 26:0.7499999401216106 125:0.6000000515679113 176:1.0 232:0.7499999772095168 878:1.0 1078:1.0 1186:1.0 
0.0 0.5 21:0.8888889907535032 42:0.4166666728337936 71:0.4444444734352212 74:0.5000000196036188 144:0.41666664392084785 573:1.0 612:0.6666666793103067 717:0.6666667167539756 730:0.6666666666666666 
0.0 0.1663805253064402 28:1.0 71:0.6666666542420482 104:0.75 116:1.0 201:1.0 685:0.7500000085681872 788:0.7499999675805721 
0.12324711618570466 0.5 838:1.0 
0.33782870936127174 0.5 4:0.75 433:1.0 
0.2374754168111681 0.19633125292180517 87:1.0 553:1.0 
0.0 0.12140670824848593 74:0.7499999509909532 178:0.7499999658835783 336:1.0 361:0.7499999906385635 371:0.7499999658879616 908:1.0 
0.5 0.5 
0.0 0.48949164115117827 1009:0.7499999703443155 1034:1.0 1477:1.0 
0.5 0.5 775:0.7499999865118231 
0.10525228255529183 0.0 615:1.0 729:1.0 
0.0 0.5 207:0.75 285:1.0 871:1.0 
0.5 0.5 950:1.0 1132:1.0 
0.0 0.5 318:0.37499997657587075 467:0.5 831:0.8749999567634411 999:0.49999998352893 
0.5 0.5 527:0.7500000254621214 
0.5 0.5 
0.05111792333354844 0.5 795:1.0 806:1.0 
0.1612495817705387 0.5 114:1.0 356:0.749999978464584 504:1.0 
0.35370619991494096 0.0 11:1.0 12:1.0 247:0.7499999508406697 391:0.7500000187884727 719:0.7499999865118231 
0.20293392862406234 0.0 78:0.6666666543060404 177:1.0 577:1.0 838:1.0 1202:1.0 
0.5 0.5 98:0.500000019297824 115:0.4166666877584401 595:1.0 1081:0.6666667088436418 1082:0.6666667181330785 1474:0.6666667088436418 
0.0 0.2161079890234653 166:1.0 178:0.7499999658835783 353:1.0 522:0.75 862:1.0 
0.5 0.5 258:0.5 503:0.6969697087877793 1176:0.666666726735407 
0.5 0.5 169:1.0 171:0.75 273:1.0 286:0.75 405:1.0 447:1.0 998:1.0 1152:1.0 1184:0.7499999436517816 1277:1.0 
0.0 0.5 2:0.4166666750555216 79:0.49999998635343135 130:0.5 144:0.8333332878416957 319:0.41666669052457744 329:0.4444444879646651 460:0.5 568:0.6666666785092171 1568:0.6666667181330785 
0.0 0.01494659884745968 562:1.0 643:1.0 
0.0 0.15023873363496884 140:1.0 562:1.0 
0.1790642121523804 0.5 118:0.7499999703443155 520:1.0 1037:1.0 
0.06445635915016022 0.0 371:0.7499999658879616 381:0.75 804:1.0 
0.0 0.5 487:1.0 590:1.0 
0.0 0.5 42:0.6250000277520712 176:1.0 
0.5 0.5 
0.0 0.23220787839438772 72:1.0 214:0.749999978464584 
0.5 0.24105760972160858 43:0.6666666423359102 313:1.0 1145:1.0 
0.15222630150976407 0.0 204:1.0 209:0.6666666551942497 397:1.0 424:0.7499999802170255 458:0.749999980836647 705:1.0 982:1.0 
0.0 0.5 345:1.0 456:0.7500000254621214 
0.04921146535094404 0.0 42:0.6250000277520712 488:1.0 638:1.0 
0.0 0.5 2:0.6249999958055724 21:0.6666667026188835 104:0.75 197:0.7499999865118231 603:1.0 
0.0 0.37768396093140344 4:0.75 322:0.7500000083198824 336:1.0 426:1.0 720:1.0 848:1.0 
5.593638860959215E-4 0.0 364:1.0 407:1.0 596:1.0 
0.5 0.5 
0.0 0.37340347280319797 76:0.5 382:0.5000000187228731 415:0.5 676:0.6666667224557367 763:1.0 1042:0.6666667181330785 1084:0.6666666957272209 
0.0 0.3210670796925634 27:0.75 144:0.6249999658812717 145:1.0 273:1.0 380:1.0 568:1.0 602:1.0 876:1.0 1047:1.0 1056:1.0 
0.17421517237934894 0.0 7:0.7500000123533026 176:1.0 213:1.0 838:1.0 
0.0 0.047973478431222995 21:0.6666667026188835 27:0.75 55:1.0 89:0.7499999851473375 313:1.0 561:1.0 750:1.0 
0.0 0.5 134:0.571428551194267 605:0.7499999689729333 692:0.7499999857759053 731:1.0 1003:1.0 
0.0 0.5 78:0.22222222799051444 229:0.3333333333333333 377:0.3333333435537885 451:0.24999999302728215 518:1.0 
0.11096539947918072 0.0 138:1.0 139:0.7500000081434751 141:1.0 834:0.7499999865118231 
0.0 0.5 260:0.5714285789919975 334:1.0 632:0.6666666510817658 
0.0 0.5 16:0.6666666580824041 116:1.0 406:1.0 605:0.7499999689729333 617:1.0 647:1.0 1059:1.0 
0.0 0.06179167663589793 33:0.6250000031880082 41:0.7499999999999999 568:1.0 610:0.6666667032690464 660:1.0 
0.0 0.3598167332216919 313:1.0 526:0.7499999857759053 
0.5 0.14261969884421535 502:1.0 673:0.7500000219170877 814:1.0 
0.1443806260831368 0.2540743469090402 21:0.6666667026188835 38:0.7499999686186495 98:0.750000009648912 319:0.6249999967466485 
0.017849712167198696 0.5 112:1.0 
0.3409949815265841 0.5 22:0.4999999811463808 273:0.6666667071830824 475:0.39999999456808066 570:1.0 655:0.6666666957272209 717:0.6666667167539756 1139:0.6666666785092171 
0.5 0.0 247:0.7499999508406697 460:0.75 481:1.0 1053:1.0 
0.19343345961325814 0.5 106:1.0 305:0.7499999586036538 527:0.7500000254621214 
0.0 0.5 48:0.5 170:0.44444443226941405 277:0.6666667181330785 691:0.6666667224557367 692:0.5 753:0.4999999757635864 831:0.3888888846186115 1074:0.7777778103704728 1475:0.6666666882101472 
0.0 0.5 44:1.0 260:0.5714285789919975 
0.0 0.5 816:0.8000000321829582 
0.0 0.5 381:0.75 715:1.0 
0.0 0.5 21:0.6666667026188835 
0.0 0.5 427:1.0 1373:1.0 
0.0 0.0688781225190874 35:1.0 302:0.7499999748570649 479:1.0 621:1.0 983:1.0 1303:1.0 
0.0 0.5 21:0.6666667026188835 95:0.75 
0.0 0.18992856326550087 135:1.0 218:1.0 301:1.0 359:1.0 591:1.0 899:0.75 1254:1.0 
0.5 0.5 330:0.7500000000000001 
0.0 0.5 21:0.6666667026188835 451:0.7500000069727178 730:1.0 
0.0 0.00992593485438685 5:1.0 256:0.7500000081434751 775:0.7499999865118231 1085:1.0 
0.1295204935779798 0.0 24:1.0 133:1.0 424:0.7499999802170255 817:1.0 951:0.7499999658835783 
0.17467423179669814 0.5 21:0.6666667026188835 42:0.6250000277520712 362:0.7499999865118231 
0.0 0.15429197480836015 5:1.0 34:0.600000012310762 851:1.0 852:1.0 
0.0 0.5 225:1.0 244:0.75 258:0.7499999531517415 328:1.0 910:1.0 
0.40072718512582367 0.5 541:1.0 1261:1.0 1614:1.0 
0.32150842118220113 0.0 440:1.0 441:1.0 517:1.0 667:0.7499999586036538 675:1.0 873:1.0 1046:0.6666667032690464 
0.0 0.5 74:0.3749999754954766 115:0.3124999857630529 180:0.37499999634715203 220:0.5000000201100478 252:0.37499997105014554 283:0.5 391:0.3750000056365418 518:0.8999999723288714 641:0.5 
0.0 0.5 520:1.0 1041:1.0 
0.0 0.5 6:1.0 113:0.20833331689707021 115:0.20833332806038996 698:0.3333333441050736 855:0.33333334450797153 1630:0.3333333633677035 
0.0 0.5 300:0.7499999772095168 436:1.0 634:1.0 750:1.0 1181:0.749999980836647 
0.22115239260790126 0.5 76:0.5 650:0.7999999999999999 695:0.5000000146113918 948:1.0 
0.5 0.5 
0.5 0.5 82:1.0 
0.16808760047182403 0.0 10:0.4444444444444444 71:0.4444444734352212 186:0.499999985643056 445:1.0 480:0.4444444532460224 677:0.6666666666666667 894:0.6666667181330785 929:0.6666666900440184 
0.020337293694487803 0.05775546034438094 88:1.0 89:0.7499999851473375 179:0.7499999547523951 438:1.0 560:1.0 1086:1.0 
0.23767743949322107 0.0 77:0.666666726735407 207:1.0 293:0.6666666890159431 581:0.5000000166397651 714:0.44444446715656716 944:0.6666667088436418 1064:0.6666667007348507 1135:0.666666726735407 
0.10030991245918694 0.30658813946035907 22:0.7499999905731904 641:1.0 816:0.6000000040228698 1054:1.0 1469:1.0 1512:1.0 
0.3337292610346898 0.0 27:0.75 125:0.6000000515679113 133:1.0 209:0.6666666551942497 222:0.7499999514132242 301:1.0 354:0.75 360:1.0 461:1.0 770:1.0 788:0.7499999675805721 
0.0 0.06291220008517313 6:0.6000000260591208 335:0.7499999703443155 385:1.0 518:0.6 565:1.0 822:0.749999978464584 
0.03225712763439996 0.5 271:1.0 487:1.0 765:0.7499999748570649 1067:1.0 
0.0 0.3274294796286632 145:1.0 172:0.749999978464584 206:1.0 
0.0725271611861566 0.0 145:1.0 217:1.0 376:1.0 606:1.0 1087:1.0 1339:1.0 
0.16373227083333775 0.5 26:0.7499999401216106 229:1.0 254:1.0 944:1.0 
0.169753865752736 0.5 112:1.0 
0.0 0.0835372161006931 44:1.0 111:1.0 134:0.571428551194267 322:0.7500000083198824 497:0.6666666846739631 518:0.6 992:1.0 
0.0 0.463919350975711 538:1.0 
0.4662468378369979 0.15712202051490776 501:0.75 522:0.75 697:1.0 749:0.7499999689729333 875:1.0 923:1.0 1027:1.0 
0.5 0.0 233:0.7499999586036538 694:0.7500000069727178 965:1.0 1142:1.0 1170:1.0 
0.5 0.3561003922964503 10:0.8888888888888888 177:0.6666666418747812 292:0.6666666556859534 851:0.6666666785092171 856:0.666666726735407 
0.5 0.07133524493518709 264:1.0 
0.0 0.5 455:1.0 1089:1.0 
0.47155115909222867 0.5 39:0.6249999856534647 116:1.0 694:0.7500000069727178 695:0.7500000219170877 1544:1.0 
2.2475986232664964E-4 0.43645777527467616 1090:1.0 
0.18811530926181813 0.0 74:0.7499999509909532 219:1.0 253:1.0 
0.10359827668006645 0.2723170993993788 125:0.6000000515679113 558:0.7500000000000001 747:1.0 988:1.0 1621:1.0 
0.4034815551142209 0.5 916:1.0 
0.2782206615201326 0.23813045871110694 34:0.8000000984860964 391:1.0 1040:1.0 
0.03059890028278609 0.19654489583907578 135:1.0 371:0.7499999658879616 724:1.0 1091:1.0 
0.0 0.5 572:1.0 
0.12688834353577902 0.0 55:0.6666666890159431 61:1.0 130:0.5 134:0.3809523769055201 380:0.6666667181330785 466:0.6666666787969505 607:0.4999999870322288 667:1.0 959:0.6666667224557367 1277:0.6666667088436418 
0.0 0.06502481446877587 18:0.7499999737004802 130:0.75 220:1.0 844:1.0 1092:1.0 
0.0 0.29361878272471353 21:0.6666667026188835 116:1.0 347:1.0 867:1.0 896:1.0 1093:0.7499999673068779 1094:1.0 1095:1.0 1468:1.0 1538:1.0 
0.4693045015884164 0.5 68:0.7499999586036538 834:0.7499999865118231 
0.22875806766016601 0.3150816456969868 121:0.6666666815661846 327:1.0 495:0.75 541:1.0 624:1.0 636:1.0 947:1.0 
0.0 0.5 296:0.7499999778996701 372:0.7500000069727178 
0.0684216773857677 0.0 39:0.31249999282673235 104:0.37500000809907436 198:1.0 274:0.5 284:0.3749999868502401 292:0.49999998352893 498:0.5000000201100478 549:0.5000000158163657 581:0.3750000041599412 767:0.5 824:0.4999999814060859 987:0.5000000158163657 1030:0.5 1035:1.0 1096:0.7499999900994392 1144:0.5 
0.0 0.5 145:1.0 172:0.749999978464584 
0.0 0.5 886:1.0 
0.0 0.5 298:0.6666666828403788 
0.0 0.2930229393348836 98:0.750000009648912 197:0.7499999865118231 242:1.0 243:1.0 346:0.7500000085681872 678:0.5208333651671032 
0.3970495085648979 0.5 19:0.5000000165533475 111:0.6666666798690336 161:1.0 216:0.6666666556859534 685:0.5000000171363742 847:0.6666666957272209 1023:0.6666666418747812 
0.5 0.0 125:0.6000000515679113 621:1.0 869:1.0 914:1.0 1155:0.7499999673068779 
0.5 0.5 
0.5 0.5 
0.5 0.5 
0.5 0.5 330:0.7500000000000001 
0.4231878853230821 0.5 21:0.6666667026188835 22:0.7499999905731904 696:1.0 880:0.7499999737004802 
0.2368634313156475 0.0 1:0.29999996982847793 10:0.5333333333333333 16:0.2666666632329617 19:0.6000000132426779 26:0.29999999201621474 39:0.25 54:0.4000000308798472 69:0.29999999324299076 101:0.3999999731808684 102:0.26666666168409875 103:0.4 113:1.0 133:0.3999999958630577 134:0.22857142047770684 171:0.3 179:0.299999993966986 213:0.4000000367967542 216:0.39999999999999997 224:0.39999999999999997 234:0.4000000138322898 237:0.6000000344566656 258:0.2999999750142622 273:0.39999999189671687 290:0.39999999999999997 339:0.4000000308798472 389:0.39999999999999997 390:0.5333333506505381 452:0.3999999924869036 527:0.2999999966050505 574:0.40000001608803826 578:0.4 654:0.7999999999999999 657:0.39999999999999997 658:0.4 709:0.400000016736721 756:0.400000016736721 767:0.3999999883757783 928:0.3000000110390257 933:0.4 983:0.3999999883757783 990:0.4000000367967542 1060:0.2666666707839794 1071:0.399999993993126 1077:0.2666666707839794 1097:0.4000000308798472 1098:0.399999993993126 1168:0.2666666842676647 1169:0.2666666728654521 1226:0.29999997522164634 
0.36299599527008225 0.0 1:0.37499998742853247 54:0.5 96:0.3749999829439808 113:0.3124999753456053 134:0.2857142614331205 153:0.7500000219170877 188:0.5000000158163657 273:0.5 316:0.3749999950497196 325:0.5 370:0.5 390:1.0 407:0.5 414:0.5 531:0.5 578:0.5 767:0.5 1006:0.2916666744383406 1077:0.33333331274676986 
0.010286027791803765 0.001507478197192777 55:0.5 63:0.5 69:0.37499999155373853 104:0.37500000809907436 113:0.6249999506912106 153:0.37499999634715203 161:0.37499999245873256 223:0.5 237:0.374999989232292 247:0.37499997148758846 273:0.5 347:0.5 378:0.7499999372373015 391:0.3750000056365418 409:0.37500000689939106 424:0.37499999406510764 432:0.5 452:0.499999981217259 567:0.37499998448646665 657:0.5 675:0.5 793:0.5 860:0.5 943:0.5000000158163657 947:0.5 983:0.5 988:0.5000000193145909 1010:1.0 1097:0.5 1100:0.7499999372373015 1570:0.5 1572:0.5 
0.3895547197530103 0.0881773432681272 48:0.21428572949973973 107:0.5714286048260373 134:0.1632653120771157 258:0.2142857049160626 300:0.2142857069059388 305:0.42857143251393776 361:0.21428571696041043 371:0.4285714383177252 389:0.2857143049249262 411:0.2857143042084428 412:0.2142857202944387 476:0.2857142951263257 570:0.4285713987944354 574:0.28571430869719755 577:0.2857142951263257 702:0.2142857163367063 779:0.8571428774781833 1010:0.38095242195168144 1023:0.28571430696447325 1064:0.5714286152305224 1084:0.5714286046406334 1093:0.21428571739934493 1094:0.2857143023203167 1095:0.2857143023203167 1101:1.0 1102:0.42857143479868987 1103:0.28571429368415285 1338:0.285714300486958 1366:0.42857143968666134 1413:0.285714300486958 1484:0.2857142951263257 
0.07899460919516282 0.0 39:0.6249999856534647 102:0.6666666542102468 113:0.6249999506912106 130:0.75 179:0.7499999547523951 390:0.6666666753252691 412:0.7499999649491076 516:1.0 904:1.0 1093:0.7499999673068779 1094:1.0 1095:1.0 
0.5 0.5 1181:0.749999980836647 
0.020929269740161172 0.0 371:0.7499999658879616 421:0.7499999493170039 841:1.0 967:1.0 
0.0 0.33948055057472204 44:1.0 429:0.5 462:1.0 535:0.5 585:0.5000000158163657 806:0.5 824:0.4999999814060859 836:0.5 949:0.5 957:0.5 1292:0.5 
0.07536577431251759 0.5 113:0.6249999506912106 125:0.6000000515679113 824:1.0 
0.5 0.5 26:0.7499999401216106 43:0.6666666423359102 96:0.7499999658879616 207:0.75 
0.5 0.5 435:0.6666666846739631 
0.0 0.5 154:0.6666667034634209 177:0.6666666418747812 181:1.0 315:0.5 477:0.6666667181330785 497:0.4444444834602533 515:0.6666666957272209 786:0.6666666882101472 
0.5 0.26517533360098816 16:0.6666666580824041 734:1.0 
0.5 0.5 42:0.6250000277520712 456:0.7500000254621214 
0.0 0.05660387969388069 683:0.7500000180392478 685:0.7500000085681872 
0.34729341037098693 0.0 683:0.7500000180392478 685:0.7500000085681872 
0.0 0.11306273815993229 439:0.5 629:0.6666666418747812 630:0.6666666418747812 631:0.6666666418747812 677:0.6666666666666667 678:0.3472222434447355 679:1.0 680:0.5 681:1.0 682:0.6666667071830824 683:1.0 684:1.0 685:0.5000000171363742 686:0.6666666781935748 
2.7755575615628914E-17 0.15665683825425908 1002:1.0 
0.0 0.14487188869660234 439:0.7500000180392478 1019:1.0 
0.5 0.5 
0.03647180955581436 0.2604701716328891 21:0.6666667026188835 347:1.0 507:1.0 
0.0 0.33318224501759064 68:0.7499999586036538 100:1.0 
0.5 0.5 905:1.0 
0.18010108680110398 0.1909924852469175 10:0.6666666666666666 32:0.7500000083198824 185:1.0 209:0.6666666551942497 241:1.0 336:1.0 456:0.7500000254621214 554:0.6666666666666666 556:0.7499999703443155 695:0.7500000219170877 740:0.6249999611166113 824:1.0 828:1.0 1047:1.0 1081:1.0 1105:1.0 1106:1.0 1178:0.6666667018686627 1186:1.0 
0.1551603676357425 0.16712285967982157 9:0.5 26:0.3749999700608053 31:1.0 48:0.37499999999999994 96:0.3749999829439808 110:0.5 154:0.5000000367967542 170:0.3333333242020605 178:0.37499998294178916 333:0.3749999904183235 354:0.75 391:0.3750000056365418 416:0.499999981217259 438:0.5 440:0.5 448:0.5 460:0.375 558:0.37500000000000006 580:1.0 587:0.33333334191759584 696:0.5 829:0.5 832:0.37499998379028604 902:0.5 946:0.5 953:0.5 963:0.5 1079:0.37499997465850193 1456:0.5 1537:0.5 
0.38935301941000744 0.15320462450427286 125:0.6000000515679113 391:0.7500000187884727 1109:0.7499999673068779 
0.18739297788152168 0.09366045814086546 71:0.4444444734352212 186:1.0 199:0.6666666900440184 244:0.5 357:0.5 386:0.6666667007348507 424:1.0 440:0.6666666786561575 497:0.4444444834602533 522:0.5 593:0.49999998371305004 651:1.0 857:1.0 1031:0.6666667088436418 1078:0.6666667088436418 1201:0.5000000118622737 1229:0.5000000118622737 
0.0 0.41560240333317494 498:0.6666667068867623 544:0.6666667224557367 821:0.6666667007348507 945:0.6666667088436418 1030:0.6666666890159431 1109:1.0 
0.1697891436013204 0.0 4:0.5 71:0.8888889468704424 167:0.6666667181330785 204:0.6666667059561432 211:0.6666667167539756 247:0.49999998033626786 357:1.0 385:0.6666667059561432 400:0.6666666882101472 401:1.0 442:0.6666666957272209 460:0.5 522:0.5 565:0.6666667088436418 593:0.49999998371305004 673:1.0 808:0.6666666787969505 908:0.6666666556859534 1072:0.6666667088436418 1107:1.0 1109:1.0 1110:0.666666726735407 1180:0.6666667088436418 1384:0.666666726735407 
0.02533542402553251 0.09462835322374354 31:0.6666666828403788 239:1.0 1107:0.7499999421002911 
0.0 0.37020457139963786 1107:0.7499999421002911 
0.0 0.5 63:1.0 
0.0 0.5 152:1.0 1107:0.7499999421002911 
0.0 0.4078393309846882 113:0.6249999506912106 927:1.0 
0.018500530769912673 0.0 176:1.0 539:1.0 547:0.7500000069727178 736:1.0 966:1.0 1092:1.0 
0.5 0.5 37:1.0 422:0.6666666556859534 497:0.4444444834602533 1028:0.6666667007348507 
0.012061228853462419 0.0 26:0.7499999401216106 27:0.75 34:0.600000012310762 42:0.6250000277520712 96:0.7499999658879616 111:1.0 235:1.0 239:1.0 313:1.0 315:0.749999980953552 501:0.75 895:1.0 896:1.0 1059:1.0 1112:0.7499999673068779 1406:1.0 
0.1612575172541104 0.2112979576406122 22:0.7499999905731904 152:1.0 239:1.0 507:1.0 621:1.0 726:1.0 859:0.7500000069727178 1112:0.7499999673068779 1197:1.0 
0.19093253244925562 0.0 21:0.6666667026188835 67:1.0 125:0.6000000515679113 209:0.6666666551942497 315:0.749999980953552 340:0.7500000123533026 826:1.0 893:0.749999986677131 952:0.749999980836647 988:1.0 1046:0.6666667032690464 1087:1.0 1105:1.0 1112:0.7499999673068779 1113:0.7499999686186495 1114:1.0 1401:1.0 
0.0 0.5 98:0.750000009648912 1046:0.6666667032690464 
0.5 0.5 659:1.0 
0.0 0.5 71:0.4444444734352212 134:0.7619047821390662 310:0.6666667224557367 1057:0.6666666957272209 
0.5 0.5 82:1.0 
0.0 0.29068644737524596 858:1.0 
0.252097436624354 0.0 110:1.0 139:0.7500000081434751 143:1.0 144:0.6249999658812717 181:0.7499999906715955 273:1.0 304:0.7499999850310722 809:1.0 820:1.0 985:1.0 1108:0.7499999686186495 1379:1.0 
0.1752292570348425 0.5 445:0.749999978464584 
0.0 0.5 817:1.0 
0.0 0.5 166:0.6666667088436418 822:1.0 
0.0 0.5 27:0.75 122:1.0 125:0.6000000515679113 
0.0 0.5 19:0.7499999917233263 27:0.75 494:0.5999999952471479 988:1.0 
0.35346302033642235 0.0 71:0.4444444734352212 84:0.6666667181330785 122:0.666666726735407 125:0.40000005893475576 179:0.5 286:0.5 291:0.5000000146113918 300:0.5000000151936554 389:0.6666667114914946 426:0.6666667007348507 500:1.0 567:1.0 702:1.0 800:0.6666666781935748 809:0.6666666957272209 814:0.6666666785092171 842:0.6666667181330785 871:0.6666667007348507 922:0.6666666556859534 933:0.6666666666666667 1046:0.444444461525555 1082:0.6666667181330785 1086:0.6666666890159431 
0.0 0.32467794515769766 125:0.6000000515679113 1106:1.0 1115:0.6666666542690958 
0.1962432744527362 0.022260683716387692 71:0.4444444734352212 99:0.5 125:0.40000005893475576 172:0.499999985643056 204:0.6666667059561432 387:0.6666667224557367 472:1.0 567:0.5 813:0.6666667224557367 899:0.5 922:0.6666666556859534 1055:0.6666667181330785 1185:0.5 1230:0.666666726735407 
0.4815096912479069 0.5 539:1.0 
0.0 0.4008930923710534 1066:1.0 
0.0 0.18252735636057468 71:0.6666666542420482 124:1.0 138:1.0 218:1.0 540:1.0 773:1.0 1193:1.0 
0.0 0.5 1076:1.0 
0.0 0.5 313:1.0 
0.1585471526110281 0.0 301:1.0 393:1.0 787:1.0 1611:1.0 
0.0 0.15960417826602394 4:0.5 75:1.0 744:0.6666666666666667 906:0.666666726735407 1090:0.6666667224557367 1100:1.0 
0.0 0.5 240:1.0 1617:1.0 
0.00522328878475249 0.5 338:1.0 
0.10000228740634826 0.5 42:0.6250000277520712 154:1.0 181:0.7499999906715955 509:0.749999980836647 
0.10639410906033726 0.0 10:0.6666666666666666 21:0.6666667026188835 22:0.7499999905731904 154:1.0 156:1.0 181:0.7499999906715955 248:0.7499999737004802 608:1.0 620:0.7500000219170877 672:1.0 793:1.0 
0.255652086001154 0.4144525111311096 42:0.6250000277520712 144:0.6249999658812717 522:0.75 620:0.7500000219170877 730:1.0 958:1.0 
0.3900763158777986 0.04352194618382703 13:0.75 21:0.6666667026188835 42:0.6250000277520712 235:1.0 362:0.7499999865118231 498:1.0 522:0.75 620:0.7500000219170877 653:1.0 
0.0 0.5 178:0.7499999658835783 
0.20926206381381326 0.5 352:0.75 739:1.0 1072:1.0 1214:1.0 
0.5 0.0 4:0.75 10:0.6666666666666666 247:0.7499999508406697 574:1.0 608:1.0 835:1.0 946:1.0 1214:1.0 
0.31445265749470513 0.0 42:0.6250000277520712 209:0.6666666551942497 361:0.7499999906385635 600:1.0 620:0.7500000219170877 664:1.0 814:1.0 1184:0.7499999436517816 1251:1.0 
0.0 0.1678002245279575 960:1.0 
0.13874507421941887 0.14023667691111041 353:1.0 381:0.75 671:1.0 899:0.75 1089:1.0 
0.04988758908302273 0.0 64:0.7500000219170877 65:1.0 70:1.0 102:0.6666666542102468 116:1.0 209:0.6666666551942497 221:0.7499999586036538 257:0.7499999703443155 281:1.0 285:1.0 375:1.0 512:1.0 606:1.0 624:1.0 696:1.0 823:1.0 824:1.0 1007:1.0 1569:1.0 
0.0 0.5 560:1.0 960:0.7499999686186495 
0.16246803412720795 0.0 1:0.7499999748570649 42:0.6250000277520712 102:0.6666666542102468 432:1.0 
0.5 0.18550195550373863 14:1.0 102:0.6666666542102468 209:0.6666666551942497 495:0.75 519:1.0 576:0.7499999547523951 664:1.0 692:0.7499999857759053 880:0.7499999737004802 
0.2113886139797699 0.5 902:1.0 1252:1.0 
0.09353819763061524 0.3590961263237295 19:0.7499999917233263 460:0.75 558:0.7500000000000001 582:1.0 593:0.7500000081434751 959:1.0 990:1.0 1081:1.0 1103:1.0 
0.5 0.5 391:0.7500000187884727 580:1.0 
0.0 0.5 21:0.6666667026188835 
0.0 0.27627605883958845 21:0.6666667026188835 454:1.0 1016:1.0 1058:1.0 
0.0 0.5 627:0.749999939408966 
0.3818559965067396 0.29642462755329624 536:1.0 765:0.7499999748570649 
0.09889240201840827 0.09128096931472518 282:0.7499999436517816 507:1.0 644:1.0 859:0.7500000069727178 
0.39294831678324244 0.5 27:0.75 244:0.75 336:1.0 1068:1.0 
0.0 0.3901030610897898 21:0.44444448998391917 22:1.0 69:1.0 125:0.8000001178695115 159:0.6666667181330785 362:0.5 409:0.5 609:0.6666666942462827 1079:0.5000000112628881 1448:0.666666726735407 
0.0 0.5 27:0.75 69:0.7499999831074771 433:1.0 899:0.75 1259:1.0 
0.5 0.5 346:0.7500000085681872 352:0.75 
4.598437102159799E-4 0.2938141142517207 676:1.0 
0.5 0.5 1472:1.0 
0.5 0.5 
0.2081463931341552 0.0 158:1.0 175:0.749999980836647 211:1.0 509:0.749999980836647 755:1.0 998:1.0 
0.06845808029834514 0.5 21:0.6666667026188835 57:0.6666666846739631 146:0.7499999436517816 177:1.0 353:1.0 365:1.0 382:0.7499999906385635 474:1.0 566:1.0 574:1.0 591:1.0 1089:1.0 1147:1.0 1429:1.0 
0.5 0.0 683:0.7500000180392478 685:0.7500000085681872 
0.5 0.0 683:0.7500000180392478 685:0.7500000085681872 
0.5 0.0 683:0.7500000180392478 685:0.7500000085681872 
0.5 0.0 683:0.7500000180392478 685:0.7500000085681872 
0.5 0.0 683:0.7500000180392478 685:0.7500000085681872 
0.23021489057088193 0.3768568746097543 683:0.7500000180392478 685:0.7500000085681872 
0.0 0.014091261796973033 439:0.5 629:0.6666666418747812 630:0.6666666418747812 631:0.6666666418747812 677:0.6666666666666667 678:0.3472222434447355 679:1.0 680:0.5 681:1.0 682:0.6666667071830824 683:1.0 684:1.0 685:0.5000000171363742 686:0.6666666781935748 
0.0 0.21963568328393668 1002:1.0 
0.03588453342164057 0.5 439:0.7500000180392478 1019:1.0 
0.0 0.5 645:1.0 
0.5 0.5 107:0.4999999805181448 201:0.5 209:1.0 522:0.3750000158157278 
0.44120784244032196 0.0 237:0.749999978464584 466:1.0 647:1.0 822:0.749999978464584 
0.0 0.5 760:0.7499999675805721 762:1.0 1613:1.0 
0.03462831041548187 0.1334107272277593 19:0.7499999917233263 22:0.7499999905731904 364:1.0 439:0.7500000180392478 547:0.7500000069727178 
0.14875572140795137 0.5 48:1.0 391:0.5 412:0.5 454:0.6666667068867623 
0.20769775888507844 0.0 28:1.0 84:1.0 125:0.6000000515679113 173:0.7499999493170039 202:1.0 204:1.0 285:1.0 566:1.0 653:1.0 827:1.0 
0.5 0.5 26:0.3749999700608053 39:0.31249999282673235 53:0.37499998742853247 71:0.3333333308484096 98:0.3750000086840208 113:0.3124999753456053 132:0.5 145:0.5000000236662628 153:0.37499999634715203 222:0.374999991902204 297:0.37499998399131385 303:0.5000000367967542 329:0.3333333463893995 414:0.5 415:0.375 416:0.499999981217259 429:0.5 495:0.375 558:0.37500000000000006 584:0.29999998719305104 593:0.3749999877847875 632:1.0 784:0.37499998294178916 812:0.5 872:1.0 952:0.3749999904183235 955:0.5 1111:0.5 1119:0.5 1188:0.5 
0.006327708919839132 0.38777971201377975 26:0.7499999401216106 104:0.75 1119:1.0 1120:1.0 
0.21527391624364092 0.0 5:0.6666667071830824 27:0.5 71:0.4444444734352212 96:0.5 134:0.3809523769055201 307:0.6666666957272209 319:0.41666669052457744 322:0.5000000166397651 458:0.5000000127755687 527:0.49999998302525245 693:0.6666666556859534 757:0.6666667181330785 869:0.6666667181330785 936:0.6666667088436418 962:0.8000000901571597 996:0.6666667007348507 1015:0.6666667224557367 1039:0.4999999870322288 1068:0.6666666882101472 1120:0.6666667224557367 1285:0.666666726735407 
0.5 0.5 457:1.0 834:0.7499999865118231 
0.16512439560205183 0.24678146886346342 34:1.0 120:0.3333333441050736 163:0.6666667224557367 260:0.19047619299733248 283:0.33333333333333337 571:0.6666666882101472 593:0.49999998371305004 714:0.222222229035859 719:0.25 776:0.6666666957272209 855:0.33333334450797153 856:0.3333333633677035 933:0.6666666666666667 1006:0.19444445515208408 1023:0.6666666418747812 1032:0.3333333544218209 1064:0.3333333435537885 1096:1.0 1097:0.3333333745064629 1102:0.24999998910229265 1121:0.6666666787969505 1122:1.0 1123:1.0 1124:0.6666667224557367 1156:0.25000001235330266 1390:0.2499999878817932 
0.4443016149448349 0.5 210:0.75 389:1.0 769:1.0 1121:1.0 1266:1.0 
0.09293359203270293 0.05463742816271123 169:1.0 282:0.7499999436517816 382:0.7499999906385635 441:1.0 574:1.0 615:1.0 1022:1.0 1191:1.0 
0.09060380835403582 0.5 21:0.6666667026188835 22:0.7499999905731904 55:1.0 211:1.0 313:1.0 348:0.7499999748570649 383:1.0 385:1.0 391:0.7500000187884727 406:1.0 558:0.7500000000000001 613:0.7499999230577467 638:1.0 745:0.7499999737004802 818:1.0 1457:1.0 
0.2730462466460841 0.1369864646173678 125:0.6000000515679113 616:1.0 1116:1.0 
0.11786264726255993 0.23510314644701627 233:0.7499999586036538 956:0.6666666934800648 1043:1.0 1217:0.7499999686186495 
0.5 0.5 145:1.0 
0.1224427314096889 0.5 145:1.0 882:1.0 
0.0 0.5 788:0.7499999675805721 
0.5 0.5 21:0.6666667026188835 22:0.7499999905731904 445:0.749999978464584 735:1.0 
0.17994832417315296 0.2791476911325884 42:0.6250000277520712 181:0.7499999906715955 260:0.5714285789919975 939:1.0 1125:1.0 
0.3614063437744003 0.5 181:0.7499999906715955 190:0.7499999547523951 286:0.75 340:0.7500000123533026 357:0.7499999865118231 1060:0.6666666254935397 
0.18547648400437136 0.0 109:1.0 223:1.0 413:0.7500000081434751 456:0.7500000254621214 558:0.7500000000000001 1076:1.0 1411:1.0 
0.04341861001748438 0.0 26:0.5 42:0.4166666728337936 53:0.5 69:1.0 104:1.0 111:0.6666666798690336 138:0.6666666418747812 139:0.49999998371305004 179:0.5 181:0.500000018656809 214:0.499999985643056 222:1.0 260:0.38095241246665584 327:0.6666667088436418 382:0.5000000187228731 388:0.6666667088436418 389:0.6666667114914946 412:0.5 445:0.499999985643056 467:0.666666726735407 535:0.6666666781935748 554:0.44444446715656716 558:1.0 559:0.6666666556859534 604:0.6666667007348507 667:0.5 707:0.6666666556859534 708:0.6666666890159431 749:0.5 785:0.6666666890159431 792:0.6666666786561575 795:0.6666666793103067 800:0.6666666781935748 819:0.4999999870322288 830:0.666666726735407 860:0.6666666882101472 894:0.6666667181330785 952:1.0 981:0.5 987:0.6666667088436418 1033:0.6666666957272209 1071:0.666666726735407 1111:0.6666666957272209 1236:0.6666666556859534 
0.0 0.5 256:0.7500000081434751 
0.5 0.5 179:0.7499999547523951 593:0.7500000081434751 
0.0 0.12622130930553288 6:0.6000000260591208 68:0.7499999586036538 134:0.571428551194267 282:0.7499999436517816 294:1.0 567:0.7499999689729333 
0.0 0.2301436605393573 70:1.0 96:0.7499999658879616 98:0.750000009648912 197:0.7499999865118231 237:0.749999978464584 329:0.6666666829867495 330:0.7500000000000001 692:0.7499999857759053 
0.0 0.5 295:1.0 531:1.0 635:1.0 1556:1.0 
0.0 0.28230315156713964 447:1.0 743:1.0 
0.0 0.4975367161312669 14:1.0 102:0.6666666542102468 802:0.7499999900994392 929:1.0 944:1.0 
