svm_type c_svc
kernel_type linear
nr_class 3
total_sv 2688
rho -0.9995777060582287 -0.42008193961970725 0.8547473564191457
label 0 1 2
nr_sv 1217 442 1029
SV
0.27121732103167345 0.5 7:0.7499999454725851 8:1.0 9:1.0 1258:1.0 1307:1.0 
0.5 0.5 10:0.6666666785958407 
0.0 0.5 11:1.0 12:1.0 13:0.7499999251295831 14:1.0 15:1.0 
0.0 0.3350451394672844 16:0.6666667006946011 17:1.0 18:0.7499999342571172 
0.5 0.5 19:1.0 20:1.0 1153:0.6250000130941543 
0.0 0.07957800033732346 21:1.0 
0.0 0.5 22:0.6666666483643191 23:0.7499999620397355 24:0.7499999931012594 
0.21953342235494183 0.5 25:1.0 1376:0.6000000091875419 1458:1.0 1559:1.0 
0.0 0.5 26:0.75 
0.0 0.2526360850955571 4:0.7500000171343674 27:0.7499999667767863 28:1.0 29:1.0 30:1.0 31:0.6666666830192371 32:0.7499999251295831 33:0.6249999937162579 
0.0 0.04719227227063173 34:0.5999999876114289 35:1.0 36:1.0 37:0.7500000303841542 38:0.749999948122767 39:1.0 
0.0 0.204052214549037 46:1.0 47:0.7499999825528515 48:0.6666667039122623 
0.0 0.5 49:1.0 
0.296846724549297 0.5 27:0.5000000221488093 50:1.0 51:0.5000000123522593 52:0.666666677210055 1211:0.6666666666666666 
0.16308486588486976 0.18331586358577706 53:1.0 
0.5 0.5 54:1.0 
0.0 0.012941313074725326 55:1.0 56:0.3749999872255472 57:0.5 58:0.7499999346186265 59:0.5 60:0.5 61:0.3749999850326056 62:0.5 
0.0 0.24645962637264524 63:1.0 
0.0 0.5 
0.4190102190414642 0.0 37:0.7500000303841542 64:1.0 
0.3767195071502471 0.5 
0.22774466067030316 0.0 78:1.0 79:1.0 80:1.0 81:1.0 82:1.0 83:1.0 84:1.0 
0.0 0.29494585738838924 33:0.6249999937162579 88:0.7499999700652112 89:0.7499999852679302 90:0.7499999931012594 91:0.7500000066608277 92:0.7499999490816674 
0.5 0.5 93:0.7499999831926207 
0.0 0.5 94:0.6250000078546624 
0.0 0.30244151924284957 26:0.75 95:1.0 96:1.0 97:1.0 98:0.6666666412575267 99:0.6666666392757333 100:0.7499999896540235 
0.24983240442988017 0.0 120:1.0 121:1.0 122:0.6000000073957487 123:1.0 124:1.0 125:1.0 126:1.0 1218:0.7499999455155245 
0.02125168289527827 0.5 22:0.8888889010904538 26:0.5 27:0.5000000221488093 127:0.6666666932753689 128:0.5000000172138164 129:0.6666666893768056 130:0.6666666666666666 131:0.6666666666666666 
0.0 0.5 132:0.5714285633650528 
0.009317079358664635 0.09764601407632978 133:1.0 1339:1.0 1392:1.0 
0.0 0.5 3:1.0 134:1.0 
0.0 0.5 66:0.25 135:0.9722222164659512 136:0.33333332149186196 137:0.25 138:0.25 139:0.3333333333333333 
0.5 0.5 135:0.8750000362645071 
0.0 0.5 66:0.25 132:0.19047618778835093 135:0.9722222164659512 140:0.3333333147383066 141:0.3333333333333333 
0.0 0.5 142:0.6249999826688837 
0.5 0.5 111:0.7499999811488111 122:0.6000000073957487 143:1.0 144:0.7499999929571503 
0.2215132181009104 0.0 34:0.40000001238857097 55:0.44444446218357925 145:0.666666677210055 146:0.5 147:1.0 148:1.0 149:0.4999999737028469 150:0.6666667312917557 151:0.6666666666666666 152:0.6666666909249718 153:0.6666666666666666 154:0.6666666666666666 
0.5 0.26839902771861956 86:0.7500000303841542 155:1.0 
0.2475017876372068 0.0 112:1.0 122:0.6000000073957487 156:1.0 157:1.0 158:0.5833333041354994 159:0.7499999846991626 
0.37818897944262997 0.5 35:1.0 
0.20193554485425627 0.4244629225128857 109:0.41666666394430674 166:1.0 
0.5 0.5 167:0.6666666666666666 168:0.39999999999999997 169:0.5 170:0.5 171:1.0 172:0.4999999737028469 1467:0.666666677210055 
0.07559791984303646 0.5 0:1.0 169:0.7499999420619683 
0.0 0.10280648239572318 115:0.7499999814716111 
0.5 0.5 27:0.7499999667767863 98:0.6666666412575267 176:0.7499999849190191 177:0.6250000120704245 
0.0 0.5 132:0.5714285633650528 
0.5 0.5 22:0.8888889010904538 41:0.4166666917653409 178:0.5 1147:0.6666666666666666 1265:0.666666678508138 
0.0 0.11848229995543949 179:1.0 180:1.0 181:1.0 182:1.0 183:0.75 184:1.0 
0.0 0.5 189:0.7499999881386884 
0.5 0.5 
0.0 0.5 190:0.7499999744510945 
0.11994321361363215 0.0 189:0.7499999881386884 193:0.7499999931012594 194:1.0 
0.18937004595718365 0.4533781935213666 195:1.0 196:1.0 197:1.0 1285:1.0 
0.0 0.4322444797862374 55:0.6666666666666666 122:0.6000000073957487 198:1.0 199:1.0 
0.5 0.0 13:0.7499999251295831 68:0.6666666666666666 71:0.7499999805202268 83:1.0 98:0.6666666412575267 146:0.7499999849190191 187:0.7499999480209605 202:0.7499999852679302 203:0.6666666859675686 204:0.6666666666666666 205:0.749999948122767 206:1.0 1159:1.0 1186:1.0 
0.0 0.20824128082396162 209:0.7499999420619683 210:1.0 
0.0 0.5 215:0.7499999931773517 
0.0 0.11250465319643031 220:1.0 221:1.0 
0.5 0.5 
0.2847603448638496 0.5 22:0.6666666483643191 222:0.7499999505005484 223:1.0 
0.39419411136781657 0.3774494294209905 224:1.0 225:0.7499999383704025 226:0.7499999929571503 227:1.0 228:1.0 
0.0 0.0692712094200168 179:1.0 180:1.0 183:0.75 184:1.0 
0.1420315342150597 0.18433398346302476 155:1.0 229:0.7499999931012594 230:0.7499999931012594 231:0.75 1491:1.0 
0.0 0.5 233:1.0 234:1.0 235:0.7499999744510945 
0.20627159235912862 0.19392589442702826 60:0.6666666800719833 71:0.5 205:0.5 242:1.0 243:0.6666666666666667 244:0.4999999737028469 245:0.6666666996060255 246:0.6666666666666666 
0.05391251717324176 0.19456655048694352 2:0.6249999872761307 27:0.7499999667767863 226:0.7499999929571503 246:1.0 247:1.0 248:0.7499999856444661 249:0.7499999838061998 
0.4912687882702303 0.5 250:1.0 1151:1.0 
0.0 0.5 18:0.7499999342571172 253:0.57142856376651 
3.14850397828045E-4 0.09663025360257932 191:1.0 192:1.0 
0.013656525206618045 0.20584954116199644 190:0.7499999744510945 249:0.7499999838061998 254:1.0 255:1.0 256:0.7500000066608277 
0.0 0.19320139677936637 190:0.7499999744510945 191:1.0 192:1.0 256:0.7500000066608277 267:1.0 1309:1.0 
0.022640439723222366 0.0 122:0.4000000295829948 189:1.0 268:1.0 269:0.6666666666666666 270:0.5 271:0.666666677210055 
0.0035414308587376183 0.0 122:0.4000000295829948 189:1.0 190:0.5 256:0.5000000133216553 268:1.0 269:0.6666666666666666 270:1.0 271:0.666666677210055 272:0.5000000140856994 273:0.6666666860389261 274:0.6666666893768056 
0.0 0.40397161652337965 189:0.7499999881386884 268:0.7499999455155245 270:0.75 275:1.0 276:0.7500000318445227 277:1.0 
0.0 0.14993833365830606 275:1.0 278:1.0 279:1.0 
0.0 0.5 278:1.0 279:1.0 
0.1117253682702627 0.0 22:0.4444444505452269 190:1.0 249:0.5 254:0.6666667312917557 255:0.666666677210055 256:0.5000000133216553 257:0.6666666909249718 258:1.0 259:0.6666666914561893 260:1.0 261:0.6666667312917557 262:0.6666666893768056 263:0.4999999737028469 
0.35219313861707857 0.0 14:0.6666666914561893 98:0.44444442750501784 109:0.8333333278886135 286:0.6666666860389261 287:0.44444445310218217 288:0.6666666808950532 289:0.44444445510078706 290:0.6666666573691532 291:0.5 292:0.6666666917079102 1174:0.666666677210055 
0.10979673502129608 0.2844557627692225 16:0.1666666700694601 53:0.2500000083802586 98:0.33333332062876336 112:0.25000000250480786 122:0.6000000073957487 124:0.2500000088811035 132:1.0 283:0.50000001728883 309:0.18750000197675232 310:0.1874999925163028 311:0.25 312:0.2500000077193508 313:0.5624999956768972 314:0.3750000130746286 315:0.2500000077193508 
0.5 0.5 
0.06929827808398792 0.5 291:0.7500000303841542 316:1.0 317:1.0 318:1.0 
0.46570969419809716 0.32832258885935284 23:0.7499999620397355 112:1.0 277:1.0 319:1.0 
0.5 0.5 320:0.6666666177156406 
0.42028544382385546 0.0 82:1.0 324:1.0 325:1.0 326:0.7499999881386884 
0.10932306304204306 0.5 328:1.0 329:1.0 
0.11933667177862727 0.5 22:0.4444444505452269 27:1.0 41:0.4166666917653409 67:0.6666667312917557 214:0.6666666800719833 335:1.0 
0.3527866095215422 0.0 1:0.7499999744510945 22:0.6666666483643191 109:0.6249999795823009 219:1.0 238:0.7500000079070093 336:1.0 337:0.7499999251295831 338:1.0 
0.5 0.5 
0.5 0.5 342:1.0 343:0.749999948122767 344:1.0 345:1.0 346:1.0 347:0.7499999853900678 
0.0 0.03430163470422006 350:1.0 351:1.0 
0.40929644098001244 0.3873017236099005 22:0.4444444505452269 41:0.4166666917653409 43:0.6666666796532733 55:0.44444446218357925 164:0.6666667312917557 168:0.39999999999999997 352:0.5 353:1.0 354:0.6666666860389261 1201:0.6666667312917557 
0.5 0.5 12:1.0 22:0.6666666483643191 172:0.7499999342571172 175:0.7499999931773517 355:1.0 356:1.0 1140:1.0 
0.0 0.5 357:1.0 
0.0 0.33456855756051757 0:1.0 22:0.6666666483643191 111:0.7499999811488111 127:1.0 144:0.7499999929571503 
0.0 0.3787230456425182 26:0.75 144:0.7499999929571503 359:1.0 
0.0 0.5 15:1.0 22:0.6666666483643191 27:0.7499999667767863 306:0.7500000093930295 335:0.75 360:1.0 361:1.0 362:1.0 
0.18952760479034622 0.5 58:1.0 364:1.0 1283:0.6666666860389261 
0.23733924818965438 0.0 215:0.7499999931773517 365:0.7499999853900678 366:0.7499999856444661 367:1.0 368:1.0 
0.1703056949686216 0.16156963578882494 75:0.6666666295900772 203:0.6666666859675686 232:1.0 371:1.0 374:0.7500000093930295 375:1.0 376:1.0 377:1.0 378:1.0 379:1.0 380:1.0 381:1.0 1223:1.0 
0.4396022545175835 0.5 221:1.0 320:0.6666666177156406 
0.0 0.5 34:0.5999999876114289 170:0.7499999420619683 
0.28784467527482 0.4277661349194709 386:1.0 387:1.0 388:0.7499999935166888 389:1.0 390:1.0 
0.0 0.23013971028918384 391:0.25 392:0.33333336564587784 393:0.33333333333333337 394:0.22222222849070758 395:1.0 
0.0 0.5 94:0.6250000078546624 
0.0 0.061383405481079 162:1.0 401:0.749999972111788 
0.05874989699622548 0.0 6:0.6000000000000001 402:1.0 403:1.0 404:0.7499999465373488 405:0.7500000079070093 
0.0 0.49514484294649297 74:1.0 406:1.0 407:1.0 408:0.7499999498305241 409:1.0 
0.07772832150022062 0.0 1:1.0 71:0.5 80:0.6666666666666666 93:1.0 111:0.5 122:0.4000000295829948 226:1.0 251:0.5 253:0.380952402661555 276:0.5000000212296817 308:0.6666666893768056 352:0.5 374:0.5000000187860592 376:0.6666667312917557 411:0.6666667181671433 413:0.6666667085735962 414:1.0 415:0.6666667312917557 416:1.0 417:0.4999999800432607 418:0.6666666996060255 419:0.66666668971844 420:0.666666678508138 421:1.0 422:0.6666666666666666 423:0.5000000121172034 424:0.6666666996060255 1248:0.6666666666666666 1347:1.0 1475:0.5 
0.0 0.2959184812546767 173:1.0 425:1.0 426:1.0 
0.061565068065641694 0.21328346685140404 249:0.7499999838061998 341:1.0 427:1.0 428:0.7499999480209605 429:1.0 
0.12014752616107674 0.5 13:0.7499999251295831 100:0.7499999896540235 430:1.0 431:1.0 1284:1.0 
0.5 0.5 433:1.0 
0.0 0.468846097744869 68:0.6666666666666666 76:0.7499999931773517 382:1.0 434:1.0 435:1.0 
0.3006550936021931 0.5 131:1.0 143:1.0 281:0.7499999852679302 369:1.0 417:0.7499999301514122 
0.0 0.5 438:0.6666666666666666 
0.0 0.15973296419666766 20:1.0 173:1.0 439:1.0 440:1.0 441:1.0 
0.2498385760230851 0.0 94:0.6250000078546624 225:0.7499999383704025 238:0.7500000079070093 352:0.7499999810841234 442:1.0 443:1.0 
0.0 0.5 33:0.6249999937162579 88:0.7499999700652112 89:0.7499999852679302 90:0.7499999931012594 91:0.7500000066608277 92:0.7499999490816674 
0.15727941647828736 0.0 33:0.8333333417116561 88:1.0 89:1.0 90:1.0 91:1.0 92:1.0 
0.5 0.5 
0.0 0.5 170:0.7499999420619683 358:1.0 
0.0 0.5 446:1.0 
0.5 0.5 
0.0 0.22458501072979722 22:0.6666666483643191 241:0.7499999803990088 437:1.0 443:1.0 447:1.0 1440:1.0 
0.4718909721928569 0.22761836471787272 93:0.7499999831926207 98:0.6666666412575267 365:0.7499999853900678 451:1.0 452:0.7499999814716111 
3.036116122590068E-4 0.5 87:0.7499999814716111 
0.43486847894280234 0.5 417:0.7499999301514122 457:1.0 
0.0067034104471917905 0.5 5:1.0 56:0.7499999744510945 62:1.0 98:0.6666666412575267 128:0.7499999569654588 276:0.7500000318445227 281:0.7499999852679302 324:1.0 366:0.7499999856444661 444:0.75 
0.5 0.5 
0.0 0.1628839010755649 464:1.0 465:1.0 466:0.75 467:1.0 
0.0 0.36375886377311956 274:1.0 468:1.0 469:0.6000000160542337 470:1.0 
0.025334485031868886 0.34162566633506786 471:1.0 472:1.0 1273:1.0 
0.07134325450703752 0.07835959020716027 468:1.0 473:0.6666666402646141 1310:1.0 
0.34706360716251355 0.0 22:0.6666666483643191 41:0.6249999811759944 60:1.0 109:0.6249999795823009 128:0.7499999569654588 214:1.0 219:1.0 419:1.0 455:1.0 474:1.0 1179:1.0 1233:1.0 
0.0 0.42305317264717274 68:0.6666666666666666 109:0.6249999795823009 132:0.5714285633650528 251:0.7499999531567392 347:0.7499999853900678 475:0.6666667026775166 476:1.0 1185:1.0 
0.0 0.5 203:0.6666666859675686 439:1.0 
0.0 0.5 6:0.6000000000000001 487:0.5999999762381526 
0.2513244781341116 0.19040026379602315 5:1.0 309:0.7500000079070093 491:1.0 
0.0 0.1907567194617 27:0.7499999667767863 306:0.7500000093930295 487:0.5999999762381526 
0.323228195887185 0.5 16:0.6666667006946011 427:1.0 
0.0 0.17371629482844567 492:1.0 493:0.7499999935166888 
0.0 0.5 22:0.6666666483643191 250:1.0 402:1.0 1286:1.0 
0.0 0.5 132:0.5714285633650528 233:1.0 304:1.0 495:1.0 496:1.0 
0.0 0.443573839729721 100:0.49999997930804707 122:0.4000000295829948 132:0.38095237557670186 159:0.5 160:0.6666666860389261 200:0.6666666930687204 272:0.5000000140856994 405:1.0 445:0.6666666917079102 497:0.696969652604562 498:0.6666666666666666 
0.0 0.5 75:0.6666666295900772 413:1.0 499:1.0 500:1.0 
0.25834253671588203 0.0 501:1.0 
0.22080196931976115 0.3005276659811444 313:0.749999948122767 505:1.0 
0.5 0.5 
0.37462184357324924 0.0 94:0.6250000078546624 225:0.7499999383704025 257:1.0 506:1.0 
0.39952573552970294 0.23860061365622007 231:0.75 288:1.0 507:1.0 508:1.0 1357:1.0 
0.0 0.5 216:0.29999998090647767 462:0.400000041493192 512:0.9600000893246889 
0.0 0.5 22:0.6666666483643191 513:0.7500000000000001 
0.0 0.5 262:0.6666666893768056 321:1.0 360:0.6666666917079102 515:0.6666666666666666 
0.3560540353339412 0.0 26:0.75 98:0.6666666412575267 173:1.0 241:0.7499999803990088 328:1.0 516:0.7499999837148648 
0.0 0.02226742653625422 272:0.7499999929571503 405:0.7500000079070093 517:0.5208333306584374 518:1.0 1172:0.5208333569725292 
0.0 0.5 519:1.0 
0.5 0.5 411:1.0 
0.0 0.07127515529196085 152:1.0 520:0.7499999856444661 
0.5 0.5 352:0.5 473:0.8888889152909415 521:0.6666666996060255 1183:0.4444444859236389 1459:0.5 1526:0.6666666860389261 
0.5 0.5 
0.5 0.5 8:0.6666666914561893 522:1.0 
0.2102014885280358 0.0 68:0.6666666666666666 79:1.0 251:0.7499999531567392 524:1.0 
0.0 0.018712617871679313 94:0.6250000078546624 138:0.7500000000000001 142:0.6249999826688837 
0.11108033680289636 0.5 45:1.0 263:0.7499999342571172 281:0.7499999852679302 321:0.750000018178057 352:0.7499999810841234 413:1.0 524:1.0 529:1.0 530:1.0 531:0.75 
0.0 0.2718297955546903 15:1.0 27:0.7499999667767863 204:0.6666666666666666 306:0.7500000093930295 361:1.0 
0.2902311317332366 0.0 532:1.0 533:1.0 534:1.0 
0.04113471059471115 0.0 128:0.7499999569654588 399:1.0 536:0.75 537:1.0 538:1.0 
0.0 0.16602604240813046 4:0.5 27:0.5000000221488093 132:0.7619047511534037 292:0.6666666917079102 540:0.5000000140856994 541:0.6666666860389261 
0.0 0.5 367:1.0 
0.28124912860275814 0.3326984393535698 542:1.0 543:1.0 
0.0 0.0796802869343739 430:1.0 
0.5 0.5 
0.0 0.4169627370412479 34:0.5999999876114289 38:0.749999948122767 76:0.7499999931773517 100:0.7499999896540235 382:1.0 473:0.6666666402646141 544:1.0 545:1.0 546:0.7500000079070093 
0.0 0.3082808219786865 510:1.0 
0.40373375558474006 0.5 183:0.75 229:0.7499999931012594 319:1.0 344:1.0 548:0.6666666969468533 549:1.0 
0.05610046347454259 0.5 38:0.749999948122767 100:0.7499999896540235 550:0.7499999881386884 1445:1.0 1589:0.625 
0.5 0.5 225:0.7499999383704025 306:0.7500000093930295 321:0.750000018178057 551:0.75 
0.0 0.07734203822699594 183:0.75 305:1.0 482:1.0 552:1.0 
0.5 0.5 203:0.6666666859675686 500:1.0 
0.021082889277905668 0.0 145:1.0 220:1.0 346:1.0 384:0.7499999612857169 524:1.0 553:1.0 554:1.0 
0.0 0.0014363012424087158 41:0.8333333458826705 71:0.5 276:0.5000000212296817 302:0.6666666666666666 377:0.6666667181671433 508:0.6666666573691532 558:0.666666677210055 559:0.6666666666666666 560:0.5 561:0.666666678508138 
0.18452269796479456 0.44412456633477376 10:0.6666666785958407 239:0.7500000000000001 1408:1.0 
0.2606294520466721 0.28557170389610564 4:0.7500000171343674 351:1.0 540:0.7499999929571503 
0.25165293364451824 0.5 66:0.75 562:1.0 1422:1.0 
0.31142238948156303 0.0 32:0.7499999251295831 200:1.0 444:0.75 512:0.6000000343556495 563:0.75 564:1.0 565:1.0 566:0.7499999480209605 567:1.0 
0.5 0.5 422:1.0 568:1.0 
0.5 0.5 22:0.6666666483643191 570:0.7500000079070093 
0.18886555392629148 0.5 253:0.57142856376651 259:1.0 
0.12662107233766876 0.5 42:0.44444448465815706 305:0.6666666807235719 320:0.44444444281274353 385:0.7619048297520836 404:0.5 517:0.34722224897118154 522:0.5 569:0.666666678508138 573:1.0 574:0.6666666396585307 575:0.49999998344852775 576:0.6666666930687204 1329:0.8888889563150829 1330:0.6666666917079102 1345:0.6666666666666666 1367:1.0 1368:0.6666666666666667 1369:0.5000000123522593 1370:1.0 1371:0.6666666900419159 1372:1.0 1373:0.6666666914561893 1374:0.6666666917079102 1375:0.6666666914561893 1466:1.0 
0.0 0.4214578517365083 27:0.0625000016611607 41:0.05208333552946733 231:0.0625000017054032 306:0.06250000140895444 577:1.0 578:0.049999998734878544 
0.0 0.5 331:0.7499999999999999 579:1.0 580:1.0 
0.0 0.5 22:0.6666666483643191 
0.2482658345650585 0.5 143:1.0 168:0.6000000000000001 475:0.6666667026775166 
0.1739863214289439 0.0 22:0.6666666483643191 42:0.6666666907948943 60:1.0 66:0.75 93:0.7499999831926207 204:0.6666666666666666 279:1.0 586:0.7499999837148648 587:1.0 588:0.75 1449:1.0 
0.04978593800315187 0.22986143795121894 589:1.0 590:1.0 591:1.0 
0.09488846793726975 0.414155457377259 554:1.0 
0.10428576204322235 0.13380544575826314 294:1.0 592:1.0 593:1.0 
0.0 0.32410961257098686 34:0.8000000247771419 134:0.6666666996060255 241:0.5 408:0.5 546:0.5000000158140185 
0.0 0.274168480116725 71:0.7499999805202268 109:0.6249999795823009 597:1.0 598:0.7499999764273528 599:1.0 
0.0 0.23075597830555364 122:0.6000000073957487 168:0.6000000000000001 173:1.0 512:0.6000000343556495 595:1.0 600:0.7499999999999999 601:0.7499999251295831 
0.3759885989007515 0.5 292:1.0 364:0.7499999498305241 602:1.0 1291:1.0 
0.45852892923798516 0.5 12:0.6666666917079102 98:0.44444442750501784 214:0.6666666800719833 319:0.6666667085735962 344:0.6666666666666667 603:0.8888889498877042 604:0.6666666996060255 605:0.5000000129666224 606:0.6666666900419159 607:0.5 608:0.6666666909249718 
0.10349209644212487 0.0 4:0.7500000171343674 203:0.6666666859675686 401:0.749999972111788 405:0.7500000079070093 431:1.0 529:1.0 609:1.0 
0.0 0.5 15:1.0 22:0.6666666483643191 42:0.6666666907948943 136:1.0 137:0.7500000000000001 139:1.0 306:0.7500000093930295 361:1.0 404:0.7499999465373488 
0.03758907077305586 0.5 68:0.6666666666666666 382:1.0 
0.0 0.12984029690407034 40:1.0 131:1.0 183:0.75 1289:1.0 1443:1.0 
0.13917939609224658 0.470127015786578 42:0.6666666907948943 262:1.0 
0.0 0.5 342:1.0 631:1.0 632:0.7499999999999999 
0.0 0.5 29:1.0 233:1.0 447:1.0 570:0.7500000079070093 637:1.0 
0.0 0.39185266913825534 40:1.0 57:1.0 122:0.6000000073957487 219:1.0 
0.0 0.21941068143677978 6:0.6000000000000001 22:0.6666666483643191 173:1.0 640:1.0 641:1.0 
0.0 0.08920175969860111 0:1.0 233:1.0 364:0.7499999498305241 643:1.0 
0.384242287495836 0.5 29:1.0 147:0.7499999454725851 320:0.6666666177156406 554:1.0 646:0.6 
0.5 0.26641175397670097 42:0.6666666907948943 356:1.0 608:1.0 647:0.7499999744510945 
0.07054127825632596 0.0 34:0.8000000247771419 68:0.44444446922627817 75:0.4444444568033076 93:0.5 103:0.6666666794271414 110:0.6666666996060255 132:0.7619047511534037 522:0.5 639:0.666666678508138 648:0.555555591319775 649:0.6666667312917557 650:0.6666666996060255 651:0.6666666860389261 652:0.666666677210055 653:0.666666677210055 
0.0 0.21719999392742254 27:0.7499999667767863 68:0.6666666666666666 98:0.6666666412575267 121:1.0 178:0.75 214:1.0 288:1.0 517:0.5208333306584374 522:0.7499999498305241 654:1.0 655:1.0 
0.2733593994569915 0.5 122:0.6000000073957487 204:0.6666666666666666 639:1.0 
0.02281920804483493 0.0 122:0.6000000073957487 436:0.75 473:0.6666666402646141 
0.09344674153880167 0.40658144019290277 22:0.6666666483643191 25:1.0 94:0.6250000078546624 660:1.0 661:0.7500000000000001 1262:1.0 
0.15735604610891257 0.0 32:0.7499999251295831 102:1.0 646:0.6 663:1.0 664:1.0 1147:1.0 
0.3146953197251293 0.5 61:0.5 62:0.6666666396585307 109:0.41666666394430674 187:1.0 216:0.5 384:0.5 666:0.6666666666666666 667:0.5 1255:0.6666666996060255 
0.06364926133571484 0.5 364:0.5 445:0.6666666917079102 668:0.6666666860389261 669:0.6666666666666666 1281:1.0 
0.0 0.5 22:0.8888889010904538 41:0.4166666917653409 100:0.49999997930804707 356:0.6666666816065596 475:0.44444445044625275 684:0.5 
2.3496238372197397E-4 0.4992916691160669 483:1.0 
0.4210917363757763 0.5 18:0.7499999342571172 168:0.6000000000000001 203:0.6666666859675686 405:0.7500000079070093 489:0.7499999846991626 688:1.0 689:1.0 1172:0.5208333569725292 
0.04558184062083174 0.0 100:0.7499999896540235 659:1.0 692:1.0 693:1.0 
0.0 0.1838670713440375 43:1.0 207:1.0 694:1.0 695:0.7499999814716111 
0.02554124628145209 0.5 15:1.0 92:0.7499999490816674 306:0.7500000093930295 319:1.0 361:1.0 383:0.6666666666666666 696:0.7499999744510945 1280:0.7499999764273528 
0.2392807140341252 0.03994779263572463 49:1.0 700:1.0 
0.34290552748806347 0.0 98:0.6666666412575267 159:0.7499999846991626 225:0.7499999383704025 359:1.0 613:1.0 701:1.0 
0.4886190231962315 0.5 702:1.0 703:1.0 
0.040379802180961905 0.4514543683290903 32:0.7499999251295831 152:1.0 174:1.0 385:0.5714286108237905 704:1.0 
0.0 0.4390808232802251 75:0.6666666295900772 259:1.0 518:1.0 607:0.7499999805202268 705:1.0 
0.5 0.5 342:1.0 690:0.749999972111788 
0.22069854585836168 0.0 16:0.6666667006946011 287:0.6666666666666666 707:1.0 1168:1.0 
0.2849179306326992 0.3508322053987297 199:1.0 567:1.0 708:1.0 1314:1.0 
0.5 0.4457390051523189 75:0.33333331850269754 122:0.30000000369787433 460:0.5 473:0.3333333333333333 494:0.3749999765783696 709:1.0 
0.0 0.3795605712465392 202:0.7499999852679302 275:1.0 635:1.0 711:1.0 
0.05801722635548524 0.5 178:0.75 403:1.0 644:1.0 712:0.75 
0.0 0.01234231358016428 19:1.0 75:0.6666666295900772 164:1.0 
0.5 0.295515005982739 216:0.749999920443657 374:0.7500000093930295 378:1.0 586:0.7499999837148648 713:1.0 
0.0 0.47256182535098423 4:1.0 35:0.666666678508138 51:0.5000000123522593 60:0.6666666800719833 147:0.5000000121172034 244:0.4999999737028469 312:0.6666666666666666 714:0.5 715:0.6666667312917557 1157:0.666666677210055 1446:0.6666666666666666 
0.0 0.021297559899737053 2:0.41666668080429925 22:0.4444444505452269 23:0.5 40:0.6666666396585307 504:0.6666666666666666 716:1.0 
0.0016041727416740803 0.2632185953346671 205:0.749999948122767 231:0.75 504:1.0 721:1.0 
0.0 0.5 54:1.0 722:1.0 
0.008202965120026903 0.5 41:0.6249999811759944 723:1.0 724:1.0 
0.0 0.29753970341315883 146:0.7499999849190191 725:1.0 726:0.75 
0.2707397430075256 0.0 22:0.6666666483643191 211:1.0 249:0.7499999838061998 364:0.7499999498305241 601:0.7499999251295831 727:1.0 
0.0 0.5 22:0.6666666483643191 100:0.7499999896540235 366:0.7499999856444661 729:1.0 
0.0 0.344534924028504 23:0.7499999620397355 241:0.7499999803990088 364:0.7499999498305241 506:1.0 
0.0 0.32435205736114003 32:1.0 34:0.40000001238857097 43:0.6666666796532733 134:0.6666666996060255 373:0.49999998399306606 581:0.44444450166719923 731:0.4166666864204339 
0.5 0.0 42:0.44444448465815706 71:0.5 94:0.8333333647519827 155:0.6666666909249718 241:0.5 352:0.5 407:0.6666666666666667 417:0.4999999800432607 574:0.6666666396585307 637:0.6666666666666666 734:0.6666666666666666 
0.5 0.5 364:0.7499999498305241 
0.12220355930922455 0.22480582801551496 35:1.0 233:1.0 586:0.7499999837148648 643:1.0 741:0.75 
0.0 0.35262153573281446 44:1.0 
0.38480855652419427 0.029947675606169975 386:1.0 743:1.0 744:1.0 1316:1.0 
0.0 0.5 68:0.6666666666666666 82:1.0 
0.0719630893107044 0.5 208:1.0 418:1.0 745:0.7499999881386884 
0.3326117470045425 0.5 98:0.6666666412575267 295:0.75 746:0.69999999459245 
0.4754317452181841 0.0 6:0.6000000000000001 454:1.0 529:1.0 1305:0.7499999881386884 
0.11752645657574375 0.0 129:0.6666666893768056 489:0.5 600:1.0 747:0.6666666917079102 748:0.6666666860389261 
0.09394355682540777 0.1157145191816274 136:1.0 137:0.7500000000000001 304:1.0 632:0.7499999999999999 752:0.7499999935166888 753:1.0 
0.11659444833939593 0.13443417753310793 71:0.5 94:0.41666668237599136 132:0.38095237557670186 178:0.5 428:0.49999998514884586 516:1.0 751:0.6666666666666667 754:0.6666666666666666 755:0.5000000104597029 756:0.5 757:0.6666666996060255 758:0.6666666666666666 1446:0.6666666666666666 
0.5 0.5 253:0.57142856376651 384:0.7499999612857169 735:1.0 
0.0 0.5 22:0.6666666483643191 68:0.6666666666666666 282:1.0 696:0.7499999744510945 750:1.0 760:1.0 
0.0 0.5 111:0.7499999811488111 436:0.75 646:0.6 663:1.0 761:1.0 
0.0044743262790020825 0.0 208:1.0 430:1.0 
0.0 0.42250029769023945 65:0.39999999999999997 408:0.2999999866214731 762:1.0 763:0.4 1390:0.2666666549334631 
0.5 0.5 342:0.6666666826360939 577:0.6956522332382998 1146:0.666666677210055 
0.0 0.09384844330005741 231:0.75 342:1.0 
0.08002876455008884 0.3806862407132129 143:1.0 366:0.7499999856444661 505:1.0 1262:1.0 
0.0 0.5 27:0.5000000221488093 765:0.5 766:1.0 
0.17653944302795854 0.0 12:1.0 609:1.0 736:0.7499999342571172 750:1.0 767:1.0 
0.022349359882695548 0.0 20:1.0 265:1.0 697:0.749999972111788 
0.2676915774899123 0.0 2:0.6249999872761307 346:1.0 417:0.7499999301514122 562:1.0 629:1.0 751:1.0 768:1.0 769:1.0 
0.0 0.5 94:0.41666668237599136 241:0.5 297:0.666666677210055 309:0.5000000158140185 320:0.8888889052058975 372:0.6666666666666666 530:0.6666667312917557 725:0.6666666860389261 770:1.0 
0.13141769218105862 0.006625506822151884 170:0.7499999420619683 582:1.0 729:1.0 772:1.0 
0.2796035721094156 0.5 178:0.5 378:0.6666666893768056 417:0.4999999800432607 552:0.6666666666666667 586:1.0 691:0.49999998514884586 777:0.6666666996060255 
0.0 0.5 10:0.6666666785958407 21:1.0 22:0.6666666483643191 23:0.7499999620397355 321:0.750000018178057 785:1.0 
0.0 0.4217093712245307 22:0.6666666483643191 66:0.75 68:0.6666666666666666 109:0.6249999795823009 241:0.7499999803990088 424:1.0 549:1.0 562:1.0 1386:1.0 
0.018681909677043834 0.5 375:1.0 411:1.0 561:1.0 787:1.0 
0.019740208770355507 0.3774468245987556 22:0.6666666483643191 400:1.0 614:1.0 
0.20746726273094906 0.1802685167291148 26:0.75 42:0.6666666907948943 76:0.7499999931773517 86:0.7500000303841542 165:1.0 693:1.0 788:1.0 789:0.6666666959460981 
0.0 0.033035070743967825 27:0.7499999667767863 306:0.7500000093930295 499:1.0 658:0.7499999935166888 
0.11829816228401872 0.3739157637937325 27:0.5000000221488093 684:1.0 791:0.6666666893768056 792:0.6666666900419159 1400:1.0 
0.0 0.5 409:1.0 794:1.0 
0.07617624243069156 0.5 309:0.7500000079070093 352:0.7499999810841234 417:0.7499999301514122 796:1.0 1258:1.0 
0.0 0.5 22:0.6666666483643191 68:0.6666666666666666 248:0.7499999856444661 525:1.0 575:0.749999942069847 
0.0 0.47161294587344166 2:0.6249999872761307 305:1.0 799:1.0 
0.5 0.0747052064539466 22:0.6666666483643191 24:0.7499999931012594 93:0.7499999831926207 619:1.0 
0.0 0.5 8:0.6666666914561893 405:1.0 550:0.5 
0.0 0.17720338151921133 112:1.0 329:1.0 548:0.6666666969468533 
0.370115301695691 0.5 10:0.6666666785958407 1554:1.0 
0.0 0.5 724:1.0 
0.16621277629053566 0.5 100:0.7499999896540235 
0.16119389651352253 0.0 122:0.6000000073957487 473:0.6666666402646141 545:1.0 
0.05139962078462566 0.37662979580441974 55:0.6666666666666666 129:1.0 374:0.7500000093930295 414:0.75 503:0.7499999999999999 640:1.0 
0.0 0.401738993836025 10:0.6666666785958407 251:0.7499999531567392 528:1.0 
0.0 0.3041440855441975 34:0.5999999876114289 68:0.6666666666666666 525:1.0 802:1.0 803:1.0 
0.0 0.11436616460375075 23:0.5 167:0.6666666666666666 289:0.44444445510078706 450:0.5 747:0.6666666917079102 804:1.0 806:0.6666666573691532 807:0.6666666893768056 
0.0 0.2428858013678618 223:1.0 809:1.0 810:0.6 
0.0 0.20063169368800748 223:1.0 405:0.7500000079070093 566:0.7499999480209605 712:0.75 811:1.0 812:1.0 
0.2874595469658044 0.0 460:1.0 813:0.7499999814716111 814:1.0 
0.0 0.5 75:0.6666666295900772 1194:0.7500000066608277 
0.0 0.4156417541244752 98:0.6666666412575267 469:0.6000000160542337 520:0.7499999856444661 815:1.0 
0.05791773363178965 0.5 26:0.75 37:0.7500000303841542 816:1.0 817:0.75 
0.0957015869972403 0.5 494:0.7499999531567392 801:1.0 820:0.7499999999999999 
0.10281255057414229 0.5 98:0.6666666412575267 343:0.749999948122767 377:1.0 486:1.0 494:0.7499999531567392 525:1.0 769:1.0 1139:0.7499999931012594 1150:1.0 1376:0.6000000091875419 
0.0 0.4260639314639868 26:0.75 309:0.7500000079070093 352:0.7499999810841234 447:1.0 
0.5 0.5 
0.0 0.13056349701237702 766:0.7500000000000001 821:1.0 
0.08409926868437118 0.5 59:0.5 305:0.5 425:0.5 541:0.4999999709416109 567:0.5 570:0.37500000395350463 720:1.0 
0.08964096797401194 0.0 136:1.0 384:0.7499999612857169 540:0.7499999929571503 616:1.0 619:1.0 824:1.0 
0.5 0.5 
0.2574008124193775 0.2563469061970663 374:0.7500000093930295 471:1.0 825:1.0 
0.0 0.019337692441672497 306:0.7500000093930295 817:0.75 
0.05245673308142614 0.15363590058710258 34:0.5999999876114289 100:0.7499999896540235 312:1.0 
0.21296928852102961 0.5 188:0.6666666666666666 324:0.6666666666666667 374:0.5000000187860592 828:1.0 829:0.6666666860389261 1384:0.6666666860389261 
0.0 0.13766992327490232 75:0.6666666295900772 582:1.0 1487:1.0 
0.0 0.25606026814079397 2:0.6249999872761307 3:1.0 104:1.0 
0.09482047747576867 0.0 75:0.4444444568033076 107:0.6666666796532733 175:1.0 232:0.6666666794271414 249:0.5 408:1.0 460:0.666666654402239 502:0.5 
0.09204752602612754 0.5 68:0.6666666666666666 309:0.7500000079070093 333:1.0 384:0.7499999612857169 
0.0 0.026883833654447714 127:1.0 255:1.0 721:1.0 
0.5 0.33450608148431404 20:0.6666667105704507 111:1.0 124:0.666666678508138 127:0.6666666932753689 132:0.7619047511534037 200:0.6666666930687204 208:0.6666666914561893 525:0.6666667181671433 546:0.5000000158140185 787:0.6666666796532733 830:0.666666678508138 
0.0 0.267093682354539 2:0.6249999872761307 342:1.0 790:0.7500000066608277 831:1.0 832:1.0 
0.5 0.5 
0.054742184168511274 0.2621728988950174 22:0.6666666483643191 94:0.6250000078546624 349:1.0 355:1.0 454:1.0 835:1.0 836:1.0 
0.0 0.2898544705531733 613:1.0 701:1.0 
0.0 0.2255297493791582 38:0.749999948122767 228:1.0 231:0.75 331:0.7499999999999999 459:1.0 646:0.6 663:1.0 837:1.0 
0.4281954612802074 0.5 122:0.6000000073957487 143:1.0 766:0.7500000000000001 799:1.0 
0.0 0.5 494:0.7499999531567392 615:0.7499999480209605 1502:1.0 
0.0 0.5 138:0.7500000000000001 776:1.0 
0.15102754215803357 0.0 112:1.0 176:0.7499999849190191 838:1.0 
0.5 0.0 79:1.0 548:0.6666666969468533 588:0.75 696:0.7499999744510945 740:1.0 
0.0 0.5 28:1.0 347:0.7499999853900678 
0.0 0.5 10:0.6666666785958407 756:0.7499999999999999 
0.02178349864641898 0.17553653150286172 13:0.7499999251295831 205:0.749999948122767 229:0.7499999931012594 343:0.749999948122767 647:0.7499999744510945 747:1.0 839:1.0 840:1.0 
0.0 0.5 47:0.5 121:0.6666666909249718 128:0.5000000172138164 383:0.44444445310218217 385:0.7619048297520836 469:0.4000000374598788 683:0.666666678508138 
0.20336135923485654 0.43091474429429316 2:0.41666668080429925 178:0.5 408:0.5 841:1.0 
0.17652160054788246 0.5 41:0.6249999811759944 353:0.7499999931773517 490:1.0 570:0.7500000079070093 842:1.0 
0.0 0.3256075237383925 536:0.75 843:0.75 1606:1.0 
0.27312390166946365 0.3282829233012409 205:0.749999948122767 233:1.0 337:0.7499999251295831 844:1.0 
0.075727440640993 0.0 47:0.7499999825528515 131:1.0 293:0.7499999999999999 364:0.7499999498305241 717:1.0 845:1.0 
0.0 0.5 223:0.5 427:0.5 512:0.9000000658483284 1492:0.5000000154387017 
0.5 0.5 257:1.0 295:0.75 347:0.7499999853900678 409:1.0 
0.3094105284716876 0.27938465478065766 66:0.75 121:1.0 128:0.7499999569654588 230:0.7499999931012594 276:0.7500000318445227 337:0.7499999251295831 404:0.7499999465373488 433:1.0 648:0.8333333226040676 652:1.0 716:0.7499999342571172 846:1.0 847:1.0 
0.3414137863936847 0.5 93:0.7499999831926207 132:0.5714285633650528 475:0.6666667026775166 566:0.7499999480209605 712:0.75 848:0.8333333083575316 
0.5 0.5 851:1.0 
0.047235183353729726 0.0 98:0.6666666412575267 103:1.0 142:0.6249999826688837 200:1.0 408:0.7499999498305241 468:1.0 852:1.0 853:1.0 854:1.0 
0.0 0.4343728914522007 252:1.0 798:1.0 
0.5 0.06449696546194049 41:0.6249999811759944 232:1.0 349:1.0 365:0.7499999853900678 858:0.7499999853900678 859:1.0 
0.5 0.5 178:0.75 
0.0 0.43680124199488046 98:0.6666666412575267 218:1.0 444:0.75 1609:1.0 
0.0 0.08141339412136636 207:1.0 514:1.0 861:1.0 862:1.0 863:1.0 
2.2837814105504346E-4 0.5 864:0.7499999455155245 
0.40919209102356824 0.0 73:0.7499999856444661 337:0.7499999251295831 405:0.7500000079070093 783:1.0 865:1.0 1162:1.0 
0.0 0.5 23:0.3749999772238413 304:0.5 646:0.9000000502883155 
2.381376364863439E-4 0.5 866:1.0 867:1.0 
0.4450812844994674 0.18835014374084852 22:0.4444444505452269 27:0.5000000221488093 38:0.5 98:0.44444442750501784 122:0.4000000295829948 241:0.5 308:0.6666666893768056 428:1.0 546:0.5000000158140185 588:0.5 719:0.6666666900419159 
0.0 0.45363348280338345 870:1.0 
0.0 0.5 22:0.6666666483643191 132:0.5714285633650528 639:1.0 873:1.0 
0.033772939090865955 0.0 13:0.7499999251295831 590:1.0 874:1.0 
0.5 0.5 
0.5 0.39671502337464776 599:1.0 1557:0.7499999881386884 
0.0 7.306668865104566E-4 168:0.6000000000000001 732:1.0 733:1.0 
0.5 0.0 122:0.4000000295829948 193:1.0 219:0.6666666396585307 283:0.66666668971844 337:0.49999998336212964 546:0.5000000158140185 877:0.6666666860389261 878:0.6666666666666666 
0.0 0.5 249:0.3749999919030999 427:0.5 475:0.3333333513387583 720:1.0 
0.5 0.0 2:0.6249999872761307 251:0.7499999531567392 408:0.7499999498305241 567:1.0 884:1.0 
0.0 0.5 42:0.6666666907948943 233:1.0 
0.1570651328182024 0.5 55:0.44444446218357925 100:0.49999997930804707 112:0.6666666833653857 173:0.6666666821068258 374:0.5000000187860592 602:0.6666666807235719 893:1.0 
0.04452385916717334 0.0 19:1.0 24:0.7499999931012594 337:0.7499999251295831 532:1.0 753:1.0 
0.0 0.3169906739076692 178:0.75 390:1.0 421:0.7499999505005484 
0.5 0.5 169:0.7499999420619683 313:0.749999948122767 445:1.0 
0.16486856648173048 0.5 62:1.0 78:1.0 113:1.0 487:0.5999999762381526 744:1.0 
0.0 0.44904485734712696 1:0.7499999744510945 266:1.0 313:0.749999948122767 374:0.7500000093930295 481:1.0 581:0.6666667010003196 819:1.0 1294:1.0 
0.0 0.5 18:0.7499999342571172 344:1.0 640:1.0 
0.3504044839819758 0.5 112:1.0 305:1.0 321:0.750000018178057 340:1.0 409:1.0 522:0.7499999498305241 551:0.75 581:0.6666667010003196 636:1.0 895:1.0 896:1.0 1333:1.0 
0.5 0.5 
0.5 0.3773734678404559 126:1.0 720:0.6666666587723525 898:1.0 
0.0 0.18247096583369726 4:0.7500000171343674 22:0.6666666483643191 23:0.7499999620397355 111:0.7499999811488111 173:1.0 211:1.0 627:0.6666666969468533 899:1.0 900:1.0 
0.12139599779212377 0.0 41:0.6249999811759944 599:1.0 
0.4364458064206153 0.5 39:1.0 
0.17625619650809735 0.19647199754268288 68:0.6666666666666666 309:0.7500000079070093 313:0.749999948122767 400:1.0 516:0.7499999837148648 535:1.0 602:1.0 620:1.0 621:1.0 
0.0 0.5 68:0.3333333333333333 75:0.33333331850269754 121:0.5000000181937289 126:0.5000000167605172 330:0.5 512:0.9000000658483284 853:0.50000001728883 905:0.7499999881386884 1430:0.37499995096397204 
0.0 0.5 22:0.6666666483643191 142:0.6249999826688837 353:0.7499999931773517 475:0.6666667026775166 
0.06209162222160097 0.0 1:0.7499999744510945 94:0.6250000078546624 144:0.7499999929571503 154:1.0 219:1.0 265:1.0 442:1.0 460:1.0 688:1.0 906:1.0 907:0.7499999935166888 908:1.0 
0.3721904479688956 0.5 22:0.6666666483643191 100:0.7499999896540235 112:1.0 122:0.6000000073957487 142:0.6249999826688837 179:1.0 241:0.7499999803990088 322:1.0 552:1.0 611:1.0 658:0.7499999935166888 909:1.0 910:1.0 1171:1.0 
0.0 0.5 100:0.7499999896540235 739:1.0 911:1.0 
0.0 0.0803361363230151 2:0.6249999872761307 179:1.0 233:1.0 444:0.75 483:1.0 495:1.0 790:0.7500000066608277 
0.06861547878073108 0.0 62:1.0 169:0.7499999420619683 616:1.0 873:1.0 912:1.0 
0.0 0.5 100:0.49999997930804707 143:0.6666666826360939 366:1.0 849:0.6666666909249718 
0.14320244332456247 0.0 147:0.7499999454725851 373:0.7499999599826651 744:1.0 
0.0 0.5 291:0.7500000303841542 
0.0 0.5 34:0.5999999876114289 1288:1.0 1304:1.0 
0.0 0.5 683:1.0 
0.0 0.5 442:1.0 688:1.0 906:1.0 
0.22538740220883893 0.0 197:1.0 408:0.7499999498305241 586:0.7499999837148648 730:1.0 
0.0 0.5 41:0.6249999811759944 919:1.0 920:1.0 
0.3094545899539864 0.5 27:0.7499999667767863 38:0.749999948122767 41:0.6249999811759944 109:0.6249999795823009 321:0.750000018178057 379:1.0 546:0.7500000079070093 547:1.0 1158:1.0 
0.0 0.29962646283849864 443:1.0 
0.0 0.192763500421876 249:0.7499999838061998 481:1.0 521:1.0 760:1.0 792:1.0 845:1.0 921:1.0 
0.49268965524434616 0.5 10:0.6666666785958407 345:1.0 
0.13088197252601655 0.45086525497354213 923:0.6000000546152181 924:1.0 
0.0 0.5 61:0.7499999700652112 159:0.7499999846991626 917:1.0 
0.5 0.5 5:1.0 281:0.7499999852679302 
0.0 0.017981034759377346 22:0.6666666483643191 356:1.0 370:1.0 540:0.7499999929571503 707:1.0 
0.07038157398246593 0.5 93:0.7499999831926207 751:1.0 928:1.0 
0.0 0.5 65:0.6666666666666666 202:0.5 275:0.6666667143828441 337:0.49999998336212964 407:0.6666666666666667 931:0.5 932:1.0 
0.0 0.14652388139017372 211:1.0 743:1.0 744:1.0 
0.16290643648367462 0.0 812:1.0 903:1.0 933:0.7499999455155245 
0.2824555693331261 0.5 327:0.6666666930687204 365:0.5 520:0.5 849:0.6666666909249718 922:1.0 
0.01441725663551265 0.0 231:0.75 275:1.0 887:1.0 888:1.0 889:1.0 890:1.0 891:1.0 892:1.0 
0.5 0.5 
0.24683387821304087 0.0 112:1.0 241:0.7499999803990088 408:0.7499999498305241 409:1.0 614:1.0 638:1.0 834:1.0 
0.0 0.5 22:0.6666666483643191 238:0.7500000079070093 342:1.0 392:1.0 
0.0 0.12628761166400454 71:0.7499999805202268 777:1.0 936:0.6666666460817318 
0.0 0.3605578826332438 641:1.0 
0.25451573596586935 0.5 27:0.7499999667767863 204:0.6666666666666666 306:0.7500000093930295 404:0.7499999465373488 507:1.0 604:1.0 687:0.75 938:1.0 939:0.75 
0.0 0.5 4:0.7500000171343674 309:0.7500000079070093 352:0.7499999810841234 
0.0 0.0914465403025841 487:0.5999999762381526 719:1.0 787:1.0 940:1.0 
0.0 0.1036927811851189 882:1.0 1577:1.0 
0.15493109841429425 0.4291942673193779 321:0.750000018178057 512:0.6000000343556495 556:0.75 941:1.0 942:1.0 943:1.0 
3.396483552291283E-4 0.5 13:0.7499999251295831 
0.11682251386017917 0.0 4:0.7500000171343674 205:0.749999948122767 944:1.0 
0.3684916363578403 0.5 900:1.0 
0.2756835911558958 0.45541504449881315 64:1.0 114:0.7499999454725851 132:0.5714285633650528 374:0.7500000093930295 406:1.0 451:1.0 482:1.0 540:0.7499999929571503 794:1.0 
0.5 0.0 342:1.0 379:1.0 432:0.75 665:1.0 941:1.0 
0.08433035723872476 0.0 126:1.0 342:1.0 707:1.0 
0.0 0.5 27:0.7499999667767863 475:0.6666667026775166 512:0.6000000343556495 
0.36781021305881423 0.5 14:1.0 223:1.0 417:0.7499999301514122 603:0.6666666959460981 
0.09384715165302958 0.1286991440234648 13:0.49999998336212964 109:0.41666666394430674 193:0.499999986202519 283:0.66666668971844 428:0.49999998514884586 546:0.5000000158140185 605:0.5000000129666224 755:1.0 
0.0 0.11559910061220827 100:0.7499999896540235 306:0.7500000093930295 374:0.7500000093930295 505:1.0 512:0.6000000343556495 735:1.0 835:1.0 946:1.0 947:1.0 
0.2216649030490523 0.3116871609875726 22:0.6666666483643191 118:1.0 391:0.75 450:0.75 735:1.0 874:1.0 948:0.7499999931773517 
0.18837952767868932 0.0 27:0.5000000221488093 172:0.4999999737028469 243:0.6666666666666667 373:1.0 448:0.6666666666666666 807:0.6666666893768056 
0.5 0.5 276:0.7500000318445227 377:1.0 
0.20774221338482243 0.0 251:0.7499999531567392 319:1.0 362:1.0 405:0.7500000079070093 950:1.0 
0.0 0.021394274953495083 436:0.75 
0.0 0.3336691498771376 115:0.7499999814716111 1575:1.0 
0.5 0.5 
0.0 0.5 23:0.7499999620397355 370:1.0 718:1.0 747:1.0 
0.0 0.5 112:1.0 
0.0 0.5 92:0.3749999745408337 512:0.9000000658483284 646:0.9000000502883155 835:0.5000000154387017 947:0.5000000167605172 
0.0 0.03972885946599867 451:1.0 682:1.0 
0.5 0.5 951:1.0 
0.14793455014679374 0.15260719235944226 7:0.7499999454725851 32:0.7499999251295831 122:0.6000000073957487 185:1.0 229:0.7499999931012594 248:0.7499999856444661 291:0.7500000303841542 408:0.7499999498305241 509:1.0 545:1.0 691:0.7499999480209605 731:0.6250000296306508 952:1.0 
0.1309790999180123 0.5 41:0.6249999811759944 
0.5 0.5 23:0.7499999620397355 373:0.7499999599826651 601:0.7499999251295831 
0.041185742096946656 0.5 111:0.7499999811488111 168:0.6000000000000001 214:1.0 417:0.7499999301514122 507:1.0 575:0.749999942069847 849:1.0 953:1.0 1377:1.0 
0.0 0.5 913:1.0 
0.0 0.40176371647663417 100:0.7499999896540235 490:1.0 843:0.75 954:1.0 
0.0 0.08110125560809389 61:0.7499999700652112 507:1.0 542:1.0 579:1.0 580:1.0 
0.0 0.5 128:0.7499999569654588 916:1.0 
0.0 0.5 561:1.0 955:1.0 
0.1420675714571747 0.5 42:0.6666666907948943 211:1.0 
0.0 0.5 355:1.0 793:1.0 875:1.0 955:1.0 959:1.0 
0.5 0.0 22:0.6666666483643191 248:0.7499999856444661 481:1.0 784:1.0 960:1.0 
0.13057710208921322 0.5 17:1.0 182:1.0 
0.090004931174479 0.4090027616777524 37:0.7500000303841542 44:0.5555555750803495 347:0.7499999853900678 916:1.0 
0.0 0.5 34:0.5999999876114289 94:0.6250000078546624 100:0.7499999896540235 177:0.6250000120704245 571:1.0 911:1.0 
0.0 0.3677538511345696 125:1.0 506:1.0 
0.5 0.5 41:0.6249999811759944 204:0.6666666666666666 374:0.7500000093930295 962:1.0 
0.0 0.5 201:1.0 
2.388371346509992E-4 0.5 706:0.75 
0.0 0.5 41:0.6249999811759944 628:1.0 
0.0 0.025697655501741863 219:1.0 451:1.0 964:1.0 965:1.0 
0.2687343317921918 0.5 143:1.0 384:0.7499999612857169 514:1.0 1640:0.625 
0.007864539082493677 0.0 22:0.6666666483643191 221:1.0 235:0.7499999744510945 356:1.0 439:1.0 440:1.0 533:1.0 788:1.0 966:1.0 967:1.0 1502:1.0 
0.0931555513209408 0.33917292907910745 75:0.6666666295900772 124:1.0 178:0.75 309:0.7500000079070093 475:0.6666667026775166 512:0.6000000343556495 593:1.0 918:1.0 968:1.0 1272:1.0 
0.5 0.5 
0.0 0.00978012515140007 100:0.7499999896540235 374:0.7500000093930295 405:0.7500000079070093 428:0.7499999480209605 610:1.0 683:1.0 
0.25210270720555816 0.5 27:0.7499999667767863 296:0.7499999931773517 499:1.0 814:1.0 971:0.7499999935166888 
0.0 0.1590778963371977 22:0.6666666483643191 214:1.0 304:1.0 759:1.0 
0.22831805554436602 0.0 34:0.5999999876114289 37:0.7500000303841542 57:1.0 124:1.0 312:1.0 973:1.0 
0.15726484667008864 0.5 517:0.5208333306584374 624:1.0 625:1.0 626:1.0 678:0.7500000000000001 681:1.0 682:1.0 683:1.0 772:1.0 
0.0 0.5 602:1.0 615:0.7499999480209605 960:1.0 
0.1403506847787683 0.5 159:0.7499999846991626 343:0.749999948122767 438:0.6666666666666666 974:1.0 
0.0 0.026963308552436432 43:0.6666666796532733 173:0.6666666821068258 356:0.6666666816065596 670:0.6666666860389261 695:0.5000000123522593 790:1.0 
0.33350767954094024 0.17500896640295735 326:0.7499999881386884 462:1.0 568:1.0 951:1.0 
0.0 0.223952165112486 4:0.7500000171343674 22:0.6666666483643191 41:0.6249999811759944 173:1.0 253:0.57142856376651 384:0.7499999612857169 438:0.6666666666666666 490:1.0 633:1.0 818:1.0 895:1.0 896:1.0 977:1.0 1496:1.0 
0.47203328203003003 0.5 41:0.6249999811759944 112:1.0 276:0.7500000318445227 903:1.0 978:0.749999972111788 
0.004248055038508394 0.0 11:1.0 356:1.0 451:1.0 683:1.0 689:1.0 979:1.0 
0.0 0.5 75:0.6666666295900772 560:0.7500000303841542 576:1.0 1560:0.7500000261492572 
0.33494910392262905 0.0 79:1.0 100:0.7499999896540235 186:1.0 207:1.0 293:0.7499999999999999 1155:1.0 
0.07430228345443309 0.5 27:0.7499999667767863 42:0.6666666907948943 66:0.75 112:1.0 779:1.0 
0.10513205644581194 0.48190159320619386 454:1.0 474:1.0 737:1.0 
0.38206337382312516 0.15035840341366113 272:0.7499999929571503 382:1.0 729:1.0 898:1.0 907:0.7499999935166888 932:0.7499999881386884 
0.5 0.5 980:1.0 
0.29645141429698224 0.5 253:0.380952402661555 344:0.6666666666666667 511:0.666666677210055 691:1.0 
0.22631448395147577 0.13579503836944973 112:0.6666666833653857 126:0.6666666666666667 313:1.0 374:0.5000000187860592 498:0.6666666666666666 513:0.5 590:0.666666677210055 654:0.6666667312917557 981:0.6666666573691532 1606:0.6666666666666666 
0.179364442170071 0.0 86:0.7500000303841542 272:0.7499999929571503 293:0.7499999999999999 501:1.0 741:0.75 858:0.7499999853900678 861:1.0 
0.21940767768385014 0.0 342:1.0 616:1.0 729:1.0 942:1.0 
0.0 0.3194872157748199 462:1.0 982:1.0 
0.5 0.5 27:0.7499999667767863 47:0.7499999825528515 
0.12933527913237725 0.2590410070384067 42:0.6666666907948943 373:0.7499999599826651 983:1.0 
0.5 0.21864945373260797 695:0.7499999814716111 809:1.0 984:1.0 
0.0 0.4891778802603557 236:1.0 237:1.0 493:0.7499999935166888 560:0.7500000303841542 
0.3628505599420396 0.5 404:0.7499999465373488 985:1.0 
0.04843861009420455 0.15468205064926888 5:0.6666666800719833 15:0.6666666800719833 61:1.0 122:0.4000000295829948 216:0.5 384:0.5 413:0.6666667085735962 522:0.5 629:0.6666666666666666 1488:0.6666666860389261 
0.47156184123988576 0.0 26:0.75 27:0.7499999667767863 128:0.7499999569654588 241:0.7499999803990088 423:0.7499999454725851 551:0.75 557:1.0 961:1.0 
0.23825646103122333 0.0 219:1.0 241:0.7499999803990088 293:0.7499999999999999 546:0.7500000079070093 987:1.0 1240:1.0 
0.2603541688133666 0.2931263827946538 26:0.75 55:0.6666666666666666 152:1.0 399:1.0 566:0.7499999480209605 859:1.0 950:1.0 988:1.0 
0.0 0.07768216534738226 173:1.0 285:1.0 609:1.0 989:0.7500000261492572 
0.35199125088135785 0.24037989992286488 133:1.0 431:1.0 898:1.0 
0.0 0.31319602405885194 71:0.7499999805202268 450:0.75 618:1.0 
4.2529323170180453E-4 0.5 485:1.0 
0.03335074259364143 0.5 42:0.8888889693163141 199:0.6666666666666667 305:0.6666666807235719 342:0.6666666826360939 512:0.8000001030669489 990:0.5 
0.0 0.1268234101276672 13:0.7499999251295831 159:0.7499999846991626 241:0.7499999803990088 306:0.7500000093930295 320:0.6666666177156406 352:0.7499999810841234 432:0.75 531:0.75 648:0.8333333226040676 718:1.0 
0.0 0.5 98:0.6666666412575267 634:1.0 
0.05645152362776091 0.0 31:0.4444444471698728 73:1.0 225:0.5 237:0.666666678508138 374:0.5000000187860592 460:0.666666654402239 502:1.0 565:0.6666666666666666 567:0.6666666802674113 962:0.6666666666666667 
0.332444023296117 0.5 112:1.0 820:0.7499999999999999 
0.5 0.5 
0.025131259265890472 0.0 2:0.6249999872761307 94:0.6250000078546624 352:0.7499999810841234 417:0.7499999301514122 517:0.5208333306584374 920:1.0 977:1.0 
0.5 0.5 122:0.30000000369787433 135:0.8750000362645071 991:0.5 1290:0.5 
0.0 0.020985686774773932 311:1.0 523:1.0 
0.0 0.2354483209068028 22:0.6666666483643191 930:1.0 
0.0 0.5 6:0.6000000000000001 122:0.6000000073957487 306:0.7500000093930295 320:0.6666666177156406 475:0.6666667026775166 
0.46206426968915887 0.24390020339867313 145:1.0 146:0.7499999849190191 253:0.57142856376651 384:0.7499999612857169 594:1.0 602:1.0 976:1.0 
0.0 0.03449300725966479 322:1.0 323:1.0 365:0.7499999853900678 
0.10194375055555267 0.0 66:0.75 373:0.7499999599826651 787:1.0 994:1.0 
0.0 0.24862542999026827 22:0.6666666483643191 23:0.7499999620397355 159:0.7499999846991626 219:1.0 343:0.749999948122767 356:1.0 900:1.0 
0.0 0.13817482309110632 262:1.0 269:1.0 
0.0 0.5 10:0.6666666785958407 199:1.0 289:0.6666666826511807 365:0.7499999853900678 382:1.0 391:0.75 708:1.0 
0.0 0.5 175:1.0 
0.0 0.16699142432148034 41:0.6249999811759944 257:1.0 381:1.0 722:1.0 
0.04312864695168778 0.0 154:0.6666666666666666 204:0.4444444558786826 232:0.6666666794271414 373:0.49999998399306606 743:0.6666666666666667 745:1.0 
0.05989899760646144 0.5 14:1.0 27:0.7499999667767863 311:1.0 902:1.0 
0.0 0.5 1153:0.6250000130941543 
0.38986382042575635 0.18943742875666306 86:1.0 295:0.5 870:0.6666666573691532 996:0.6666666666666667 997:0.5 1570:0.6666666666666666 
0.0 0.5 105:0.6666666893768056 632:1.0 1439:0.6666666860389261 
0.0 0.07976628959084817 730:1.0 
0.0084525095719498 0.0 5:1.0 216:0.749999920443657 641:1.0 
0.04400568794565283 0.07686930042764888 231:0.75 275:1.0 887:1.0 888:1.0 889:1.0 890:1.0 891:1.0 892:1.0 949:1.0 995:1.0 
0.0 0.5 251:0.7499999531567392 775:0.749999972111788 
0.5 0.037991954559684085 22:0.6666666483643191 40:1.0 366:0.7499999856444661 588:0.75 602:1.0 729:1.0 1000:1.0 
0.0 0.5 6:0.6000000000000001 34:0.5999999876114289 346:1.0 404:0.7499999465373488 784:1.0 808:1.0 
0.0 0.5 431:1.0 1628:1.0 
0.140740642015497 0.37595640278943576 47:0.7499999825528515 136:1.0 137:0.7500000000000001 417:0.7499999301514122 752:0.7499999935166888 929:1.0 934:1.0 
0.23527559142924065 0.29257772174671315 109:0.6249999795823009 309:0.7500000079070093 587:1.0 684:0.7499999744510945 
0.16671963251991437 0.1283544001809381 127:1.0 141:1.0 805:1.0 
0.5 0.5 56:0.7499999744510945 71:0.7499999805202268 241:0.7499999803990088 288:1.0 310:0.7499999700652112 463:0.6666666826511807 570:0.7500000079070093 656:1.0 659:1.0 768:1.0 950:1.0 
0.5 0.5 
0.2792468425072722 0.0 71:0.7499999805202268 308:1.0 311:1.0 411:1.0 412:1.0 489:0.7499999846991626 
0.13330440599249177 0.0781502134112612 494:0.7499999531567392 527:1.0 615:0.7499999480209605 1003:1.0 
0.0019115740840793616 0.10351269564953229 122:0.4000000295829948 130:0.6666666666666666 142:0.4166666828423752 222:1.0 1205:0.8333332926567137 
0.49029080381234497 0.0 2:0.6249999872761307 22:0.6666666483643191 1149:1.0 
0.0 0.07035642991956798 78:0.666666678508138 115:1.0 116:0.6666667312917557 433:0.666666654402239 
0.03836106473709107 0.0 71:0.7499999805202268 100:0.7499999896540235 395:0.5999999620438045 527:1.0 1650:0.7500000261492572 
0.0 0.4518421186620118 13:1.0 24:0.499999986202519 109:0.41666666394430674 865:0.6666666666666666 
0.1299683972593753 0.5 42:0.6666666907948943 226:0.7499999929571503 659:1.0 862:1.0 904:1.0 
0.0 0.32582680302476974 311:1.0 369:1.0 387:1.0 512:0.6000000343556495 596:1.0 
0.5 0.5 526:0.7499999935166888 
0.0 0.4649718892854454 98:0.6666666412575267 100:0.7499999896540235 251:0.7499999531567392 490:1.0 685:1.0 
0.5 0.5 16:0.6666667006946011 
0.0 0.5 22:0.6666666483643191 99:0.6666666392757333 183:0.75 801:1.0 
0.04714710042292636 0.5 120:1.0 321:0.750000018178057 389:1.0 500:1.0 
0.27938002064001966 0.5 73:1.0 344:0.6666666666666667 551:0.5 744:0.6666667181671433 
0.0 0.1467600899732398 660:1.0 711:1.0 
0.34050767316562125 0.2623625258969407 120:1.0 348:0.7499999342571172 369:1.0 381:1.0 685:1.0 1155:1.0 1159:1.0 
0.1845074827008116 0.5 337:0.7499999251295831 401:0.749999972111788 1544:1.0 
0.0 0.5 356:1.0 893:0.7499999744510945 1008:0.5625000124890521 1009:1.0 
0.09016925185403259 0.37479442272663044 143:1.0 557:1.0 647:0.7499999744510945 
0.0 0.5 26:0.75 38:0.749999948122767 68:0.6666666666666666 94:0.6250000078546624 593:1.0 970:1.0 1011:1.0 1543:1.0 
0.2786787830579585 0.0 481:1.0 759:1.0 
0.5 0.5 
0.3944144724128454 0.3268615256609508 216:0.749999920443657 469:0.6000000160542337 493:0.7499999935166888 551:0.75 
0.34707690876333636 0.0 173:1.0 205:0.749999948122767 241:0.7499999803990088 306:0.7500000093930295 348:0.7499999342571172 609:1.0 948:0.7499999931773517 1012:1.0 
0.0 0.3943824329750182 22:0.6666666483643191 215:0.7499999931773517 241:0.7499999803990088 804:0.75 
0.0 0.5 756:0.7499999999999999 921:1.0 
0.0 0.2320267773685298 27:0.7499999667767863 41:0.6249999811759944 48:0.6666667039122623 92:0.7499999490816674 231:0.75 306:0.7500000093930295 578:0.5999999949395142 976:1.0 
0.12438173325664126 0.5 571:1.0 
0.4255070260419463 0.5 451:1.0 683:1.0 
0.01024166803742256 0.0 33:0.6249999937162579 88:0.7499999700652112 89:0.7499999852679302 90:0.7499999931012594 91:0.7500000066608277 92:0.7499999490816674 242:0.7499999744510945 1013:1.0 1014:1.0 
0.0 0.5 512:0.6000000343556495 575:0.749999942069847 
0.0 0.5 22:0.6666666483643191 23:0.7499999620397355 144:0.7499999929571503 334:1.0 401:0.749999972111788 
0.18093025755169548 0.3920600690837936 99:0.3333333333333333 169:0.37499997103098415 609:0.5 785:0.5000000154387017 1012:0.5000000154387017 1016:1.0 1017:1.0 1018:0.5000000154387017 1484:0.5 
0.0 0.49147436593185584 747:1.0 748:1.0 
0.5 0.5 
0.0 0.22427269577521633 22:0.4444444505452269 71:0.5 108:0.6666666932753689 143:0.6666666826360939 169:1.0 242:0.5 800:0.666666677210055 904:0.666666677210055 
0.0 0.5 494:0.7499999531567392 
2.226645608822131E-4 0.5 1381:1.0 
0.0 0.5 128:0.3749999956965459 330:0.5 342:0.5 373:0.37499997999133255 512:0.9000000658483284 707:0.5 787:0.5 
0.0 0.11083121296344915 43:1.0 713:1.0 
0.0 0.5 22:0.6666666483643191 40:1.0 
0.5 0.5 34:0.8000000247771419 100:0.49999997930804707 111:0.5 128:0.5000000172138164 249:0.5 266:0.6666666860389261 718:0.6666666996060255 1201:0.6666667312917557 
0.1619863708296949 0.5 450:0.75 
0.12495627958941344 0.5 20:1.0 100:0.7499999896540235 173:1.0 374:0.7500000093930295 650:1.0 658:0.7499999935166888 726:0.75 
0.0 0.5 244:0.7499999342571172 1020:1.0 1021:1.0 
0.0 0.5 22:0.6666666483643191 68:0.6666666666666666 601:0.7499999251295831 629:1.0 774:1.0 
0.5 0.5 376:1.0 
0.5 0.5 143:1.0 825:1.0 
0.0 0.5 109:0.6249999795823009 452:0.7499999814716111 744:1.0 971:0.7499999935166888 1023:1.0 
0.0 0.5 122:0.2000000147914974 512:1.0 980:0.3333333333333333 
0.29759643699052557 0.0 129:1.0 133:1.0 297:1.0 705:1.0 972:1.0 
0.16480212379343193 0.5 37:0.5 68:0.8888889384525563 145:0.666666677210055 173:0.6666666821068258 205:0.5 439:0.6666666893768056 543:0.6666667312917557 858:0.5 978:0.5 1024:0.6666666666666666 
0.08976647260778407 0.013354355159224578 60:0.6666666800719833 61:0.5 153:0.6666666666666666 436:0.5 735:0.6666666794271414 907:1.0 937:0.6666666666666666 984:0.6666666666666666 1025:0.6666666573691532 1485:0.6666666666666666 
0.0 0.5 22:0.6666666483643191 24:0.7499999931012594 41:0.6249999811759944 341:1.0 
0.0 0.5 443:1.0 
0.40052428755767217 0.0 75:0.6666666295900772 155:1.0 662:0.7499999505005484 
0.5 0.5 32:1.0 42:0.44444448465815706 65:0.6666666666666666 157:0.6666666666666666 219:0.6666666396585307 229:0.499999986202519 394:0.4444444471698728 397:0.6666666796532733 1026:0.6666666666666666 1189:0.6666666666666666 
0.0 0.5 22:0.6666666483643191 24:0.7499999931012594 647:0.7499999744510945 
0.0 0.17675518186216876 253:0.57142856376651 510:1.0 899:1.0 
0.0 0.5 377:1.0 
0.0 0.5 249:0.30000000647752006 512:0.9600000893246889 575:0.29999999337941113 980:0.40000002470192264 
0.0 0.5 167:1.0 292:1.0 1152:0.6666666753967825 
0.0 0.38774478887704966 79:1.0 132:0.5714285633650528 789:0.6666666959460981 833:1.0 1018:1.0 1023:1.0 1027:1.0 1571:1.0 
0.47540810045576565 0.0 20:1.0 40:1.0 47:0.7499999825528515 88:0.7499999700652112 766:0.7500000000000001 
0.048004791639539586 0.5 346:1.0 374:0.7500000093930295 417:0.7499999301514122 665:1.0 
0.5 0.5 22:0.6666666483643191 143:1.0 168:0.6000000000000001 392:1.0 648:0.8333333226040676 
0.3754508017535551 0.5 205:0.749999948122767 302:1.0 317:1.0 955:1.0 
0.21270153649607632 0.0 26:0.5 38:0.5 120:0.6666666666666666 122:0.4000000295829948 249:1.0 313:0.5 907:0.5000000129666224 942:0.666666678508138 1029:0.5000000104597029 
0.10879534033667716 0.0 14:1.0 98:0.6666666412575267 322:1.0 323:1.0 629:1.0 1255:1.0 
0.0 0.1694650171496682 309:0.7500000079070093 352:0.7499999810841234 866:1.0 920:1.0 
0.0 0.04456975746598692 15:0.6666666800719833 24:0.499999986202519 27:1.0 124:0.666666678508138 131:0.6666666666666666 306:0.5000000187860592 321:0.500000036356114 361:0.6666666666666666 
0.5 0.5 26:0.75 42:0.6666666907948943 237:1.0 923:0.6000000546152181 
0.06760310740108036 0.0 551:0.3749999816146432 636:0.5000000167605172 810:0.8999999604727694 968:0.4999999709416109 
0.24344504076816456 0.0 37:0.7500000303841542 64:1.0 209:0.7499999420619683 
0.07959461239009874 0.0 29:1.0 32:0.7499999251295831 86:0.7500000303841542 104:1.0 178:0.75 259:1.0 757:1.0 787:1.0 819:1.0 913:1.0 914:1.0 915:1.0 923:0.6000000546152181 1574:1.0 
0.04657765513861962 0.4943140526384589 382:1.0 883:1.0 925:1.0 979:1.0 
0.0 0.13246547418628227 969:1.0 
0.0 0.5 108:1.0 476:1.0 
0.0 0.0056379423173754046 105:1.0 231:0.75 494:0.7499999531567392 566:0.7499999480209605 
0.0 0.5 27:0.7499999667767863 42:0.6666666907948943 100:0.7499999896540235 306:0.7500000093930295 
0.0 0.5 10:0.6666666785958407 275:1.0 494:0.7499999531567392 997:0.75 
0.049973425426420755 0.5 108:1.0 344:1.0 476:1.0 1525:1.0 
0.5 0.5 428:0.7499999480209605 
0.0 0.13531145295736993 121:1.0 899:1.0 
0.0 0.2020297016298879 59:1.0 315:1.0 426:1.0 566:0.7499999480209605 929:1.0 943:1.0 
0.0 0.5 107:1.0 532:1.0 
0.14054968756143518 0.25818669263576466 20:1.0 122:0.6000000073957487 871:1.0 
0.059392200956406675 0.5 295:0.75 536:0.75 
0.2293040892409141 0.5 111:0.7499999811488111 419:1.0 420:1.0 588:0.75 917:1.0 1379:1.0 
0.5 0.5 
0.13042330598416316 0.5 68:0.6666666666666666 170:0.7499999420619683 309:0.7500000079070093 600:0.7499999999999999 1031:1.0 
0.0 0.5 22:0.6666666483643191 
0.32256690213086847 0.1938784855815407 77:0.7499999454725851 248:0.7499999856444661 572:1.0 575:0.749999942069847 921:1.0 1032:0.7499999814716111 
0.2925148738688549 0.0023421837462604856 776:1.0 796:1.0 1031:1.0 
0.19947613115890217 0.5 120:1.0 
0.018286512712692413 0.09197256843736884 98:0.6666666412575267 152:1.0 764:1.0 775:0.749999972111788 877:1.0 1019:1.0 
0.0 0.5 485:1.0 810:0.6 1030:1.0 
0.5 0.5 
0.5 0.5 
0.0 0.06561241519472233 122:0.4000000295829948 481:0.6666666796532733 566:1.0 
0.3463790921062308 0.5 28:1.0 567:1.0 817:0.75 1033:1.0 
0.0 0.36865634161222816 233:1.0 793:1.0 
0.0 0.1922220999918287 598:0.7499999764273528 791:1.0 965:1.0 998:1.0 999:1.0 
0.0 0.5 713:1.0 743:1.0 744:1.0 786:1.0 
0.048577288330444314 0.0 128:0.7499999569654588 330:1.0 342:1.0 386:1.0 615:0.7499999480209605 707:1.0 787:1.0 1168:1.0 1278:1.0 
0.0 0.5 153:1.0 
0.0 0.5 75:0.6666666295900772 178:0.75 
0.2004752122167782 0.15208108339753873 78:1.0 98:0.6666666412575267 401:0.749999972111788 507:1.0 520:0.7499999856444661 581:0.6666667010003196 741:0.75 1034:1.0 1035:0.7499999935166888 1461:1.0 
0.0 0.3419887024976855 94:0.8333333647519827 352:0.5 732:0.6666666666666666 
0.0 0.4037405109599747 27:0.7499999667767863 111:0.7499999811488111 241:0.7499999803990088 424:1.0 566:0.7499999480209605 666:1.0 973:1.0 
0.0031073584324308964 0.3423507633788542 13:1.0 94:0.41666668237599136 107:0.6666666796532733 245:0.6666666996060255 313:0.5 454:0.6666666802674113 474:0.666666678508138 585:0.6666666666666666 972:0.6666666666666666 986:1.0 
0.0 0.5 401:0.749999972111788 1036:1.0 
0.5 0.5 384:0.7499999612857169 
0.5 0.5 137:0.7500000000000001 296:0.7499999931773517 373:0.7499999599826651 707:1.0 1185:1.0 
0.2244900956857116 0.06552678818232328 13:0.7499999251295831 45:1.0 124:1.0 337:0.7499999251295831 493:0.7499999935166888 788:1.0 803:1.0 
0.5 0.5 6:0.6000000000000001 68:0.6666666666666666 229:0.7499999931012594 424:1.0 488:0.75 606:1.0 731:0.6250000296306508 826:1.0 1170:1.0 
0.0 0.5 384:0.37499998064285844 512:0.9000000658483284 580:0.5 
0.0 0.1041580754184282 31:0.6666666830192371 70:1.0 525:1.0 527:1.0 1003:1.0 1037:1.0 
0.04456360444066517 0.5 336:0.6666666666666666 469:0.4000000374598788 556:1.0 1038:0.66666668971844 1196:0.6666666514361183 
0.0 0.13208135924787348 23:0.5 101:1.0 211:0.6666666794271414 297:0.666666677210055 849:0.6666666909249718 
0.22473062048500342 0.5 27:0.7499999667767863 551:0.75 665:1.0 
0.0 0.2990277333730399 66:0.75 140:1.0 493:0.7499999935166888 515:1.0 580:1.0 721:1.0 1381:1.0 
0.5 0.5 
0.13545417601433057 0.0395271488771049 100:0.7499999896540235 122:0.6000000073957487 383:0.6666666666666666 481:1.0 629:1.0 720:0.6666666587723525 793:1.0 862:1.0 931:0.7500000000000001 951:1.0 1023:1.0 1039:1.0 
0.0 0.5 1040:1.0 
0.18493165676062673 0.5 22:0.6666666483643191 115:0.7499999814716111 218:1.0 320:0.6666666177156406 403:1.0 642:1.0 654:1.0 
0.003064111815623296 0.5 168:0.6000000000000001 321:0.750000018178057 
0.13558569385691704 0.5 13:0.7499999251295831 
0.0 0.5 71:0.7499999805202268 112:1.0 321:0.750000018178057 527:1.0 1041:0.7499999929571503 
3.09973341238927E-4 0.5 881:0.7500000261492572 
0.06379727240782103 0.5 120:0.3333333333333333 238:0.2500000047442056 1008:0.9374999875109479 
0.3555249037753896 0.0 366:0.7499999856444661 733:1.0 853:1.0 893:0.7499999744510945 
0.0 0.5 400:1.0 719:1.0 
0.0 0.0686856669003316 4:0.7500000171343674 244:0.7499999342571172 306:0.7500000093930295 
0.2987820064236479 0.0 71:0.5 79:0.6666666796532733 155:0.6666666909249718 187:0.49999998514884586 241:0.5 262:0.6666666893768056 423:0.5000000121172034 479:1.0 480:0.6666666666666666 488:0.5 994:0.6666666900419159 1044:0.6666666860389261 1045:0.666666654402239 
0.44935950243963163 0.1528453646388735 37:0.7500000303841542 364:0.7499999498305241 555:1.0 716:0.7499999342571172 929:1.0 931:0.7500000000000001 1032:0.7499999814716111 
0.5 0.5 
0.03716838837458892 0.5 309:0.7500000079070093 1043:0.7500000261492572 1046:1.0 
0.0 0.5 436:0.75 473:0.6666666402646141 1597:1.0 
0.5 0.0 34:0.8000000247771419 204:0.8888889460600794 291:0.5 313:0.5 756:0.5 775:0.5 776:0.6666666666666667 966:0.6666666666666666 
0.34775361121167564 0.0 3:1.0 12:1.0 168:0.6000000000000001 204:0.6666666666666666 807:1.0 1182:1.0 
0.0 0.5 114:0.5000000121172034 351:0.6666666996060255 469:0.8000000749197576 
0.0024501009844957477 0.0 22:0.6666666483643191 201:1.0 352:0.7499999810841234 1047:1.0 
0.44010700638709066 0.5 75:0.4444444568033076 405:0.5000000158140185 469:0.8000000749197576 529:0.6666666900419159 592:0.66666668971844 607:0.5 633:0.6666666796532733 694:0.6666667312917557 735:0.6666666794271414 966:0.6666666666666666 1280:0.5000000157150981 
0.0 0.11083641268761282 183:0.75 195:1.0 352:0.7499999810841234 455:1.0 
0.057426180941510474 0.0 43:1.0 186:1.0 207:1.0 244:0.7499999342571172 462:1.0 713:1.0 724:1.0 1020:1.0 1031:1.0 1048:1.0 
0.5 0.5 33:0.6249999937162579 
0.0 0.3670014694320785 281:0.7499999852679302 1026:1.0 1049:1.0 1194:0.7500000066608277 
0.00370315452161608 0.5 111:0.5 175:0.5000000136452964 229:1.0 249:0.5 275:0.6666667143828441 287:0.44444445310218217 404:0.5 498:0.6666666666666666 570:0.5000000158140185 773:0.44444443072115447 784:0.666666654402239 808:0.6666666666666666 
0.12445937885726296 0.5 26:0.75 34:0.5999999876114289 98:0.6666666412575267 559:1.0 689:1.0 970:1.0 1050:1.0 
0.0 0.07312604377211314 444:0.75 806:1.0 
0.0 0.04785259300341702 82:1.0 451:1.0 1051:0.5833333196977716 
0.3308574782302469 0.5 215:0.7499999931773517 
0.0 0.006862592786784297 829:1.0 897:1.0 
0.23248206268802354 0.0 66:0.75 109:0.6249999795823009 137:0.7500000000000001 249:0.7499999838061998 539:1.0 560:0.7500000303841542 656:1.0 791:1.0 947:1.0 1052:1.0 
0.1524542498687324 0.5 451:1.0 682:1.0 1050:1.0 
0.0 0.14328540535693118 33:0.6249999937162579 88:0.7499999700652112 89:0.7499999852679302 90:0.7499999931012594 91:0.7500000066608277 92:0.7499999490816674 242:0.7499999744510945 1013:1.0 1014:1.0 
0.0 0.5 373:0.7499999599826651 743:1.0 744:1.0 
0.0 0.4896678730354843 73:0.7499999856444661 427:1.0 
0.009552022612742208 0.020207693915168756 963:1.0 1053:0.7499999881386884 
0.03209442467742088 0.5 88:0.7499999700652112 162:1.0 163:1.0 712:0.75 
0.5 0.5 122:0.6000000073957487 159:0.7499999846991626 313:0.749999948122767 1038:1.0 
0.0 0.5 22:0.6666666483643191 75:0.6666666295900772 321:0.750000018178057 723:1.0 
0.21662492641415657 0.1935759588714823 4:0.7500000171343674 5:1.0 26:0.75 281:0.7499999852679302 382:1.0 445:1.0 609:1.0 1057:0.7500000066608277 
0.0 0.5 963:1.0 975:1.0 
0.0 0.05380076559363815 314:0.7500000261492572 405:0.7500000079070093 444:0.75 566:0.7499999480209605 712:0.75 818:1.0 
0.0 0.0797353357024925 814:1.0 
0.16084345095608746 0.4927459929199041 205:0.749999948122767 513:0.7500000000000001 583:1.0 
0.032059702272303016 0.0 13:0.7499999251295831 64:1.0 94:0.6250000078546624 223:1.0 315:1.0 374:0.7500000093930295 444:0.75 451:1.0 547:1.0 916:1.0 
0.0 0.2494443981636613 298:1.0 1058:1.0 
0.22868740357315528 0.5 4:0.7500000171343674 1060:0.75 
0.04782973904015562 0.5 305:1.0 356:1.0 1319:1.0 
0.12413059155811092 0.11996066236702829 265:1.0 369:1.0 392:1.0 431:1.0 486:1.0 601:0.7499999251295831 648:0.8333333226040676 1062:1.0 1162:1.0 1530:1.0 
0.5 0.5 295:0.75 489:0.7499999846991626 
0.0 0.11602682543444695 92:0.7499999490816674 
0.43304138889936933 0.34458039180841504 111:0.7499999811488111 861:1.0 998:1.0 
0.3087900269808064 0.4436053979410988 40:0.6666666396585307 61:1.0 176:0.5 246:0.6666666666666666 311:0.666666654402239 352:0.5 488:0.5 560:0.5 586:0.5 765:0.5 859:0.6666666996060255 964:0.6666666666666666 
0.5 0.30678124812476665 93:0.7499999831926207 122:0.6000000073957487 
0.0 0.2169606813894955 110:1.0 231:0.75 383:0.6666666666666666 792:1.0 
0.5 0.5 78:1.0 98:0.6666666412575267 520:0.7499999856444661 581:0.6666667010003196 741:0.75 1034:1.0 1035:0.7499999935166888 
0.0 0.2765809937814187 61:0.7499999700652112 62:1.0 503:0.7499999999999999 1038:1.0 1048:1.0 
0.0 0.48284729552006056 765:1.0 
0.08389139285254603 0.0 337:0.7499999251295831 354:1.0 476:1.0 774:1.0 1006:1.0 
0.4069869991144857 0.5 27:1.0 39:0.6666666996060255 241:0.5 516:0.5 599:0.6666666666666667 1063:0.6666666666666666 1482:0.6666666666666666 
0.26103790743474004 0.0 294:1.0 606:1.0 923:0.6000000546152181 1064:1.0 
0.0 0.5 218:1.0 917:1.0 
0.22681245340972966 0.305408028006021 51:0.7499999814716111 187:0.7499999480209605 470:1.0 489:0.7499999846991626 526:0.7499999935166888 793:1.0 978:0.749999972111788 1313:0.75 
0.18236084064107366 0.0 60:0.6666666800719833 112:0.6666666833653857 346:0.6666666909249718 388:1.0 458:0.4444444827407931 576:0.6666666930687204 751:0.6666666666666667 917:0.666666678508138 1065:0.6666666666666666 
0.0 0.5 4:0.7500000171343674 245:1.0 1448:1.0 
0.06945310023088858 0.0 71:0.7499999805202268 321:0.750000018178057 685:1.0 
0.09369457926707726 0.0 71:0.7499999805202268 74:1.0 178:0.75 458:0.6666666594861014 909:1.0 959:1.0 960:1.0 983:1.0 
0.0 0.5 142:0.6249999826688837 356:1.0 
0.0 0.5 34:0.5999999876114289 216:0.749999920443657 522:0.7499999498305241 593:1.0 923:0.6000000546152181 1566:0.7499999999999999 
0.1908843991716244 0.4266444189547899 41:0.6249999811759944 79:1.0 264:1.0 342:1.0 500:1.0 
0.0 0.01925977209444003 10:0.6666666785958407 492:1.0 738:1.0 
0.5 0.5 106:1.0 186:1.0 1216:1.0 
0.18377917204515953 0.4373346019219273 28:1.0 68:0.6666666666666666 214:1.0 283:1.0 299:1.0 954:1.0 1064:1.0 1065:1.0 1192:1.0 
0.21924311591128512 0.5 356:1.0 1277:1.0 
0.022836786127113005 0.5 61:0.5 327:0.6666666930687204 341:0.6666666666666667 393:0.6666666996060255 394:0.4444444471698728 445:0.6666666917079102 600:0.5 617:1.0 1066:0.6666666666666666 1302:0.6666666666666666 1430:0.49999997820620984 
0.3139294426034274 0.5 6:0.6000000000000001 122:0.6000000073957487 858:0.7499999853900678 
0.0 0.5 1005:1.0 
0.0 0.14078748963982998 146:0.7499999849190191 303:0.75 304:1.0 615:0.7499999480209605 675:0.7499999599826651 
0.05626072063193578 0.5 321:0.750000018178057 
0.47491783449334335 0.4473581986262503 142:0.6249999826688837 205:0.749999948122767 458:0.6666666594861014 512:0.6000000343556495 697:0.749999972111788 969:1.0 1535:1.0 
0.5 0.0 35:0.666666678508138 117:0.6666666666666667 205:0.5 288:0.6666666808950532 436:1.0 553:0.666666677210055 1067:0.666666677210055 1316:0.6666666666666666 
0.2877026872953374 0.3702115060232244 15:0.6666666800719833 26:0.5 204:0.4444444558786826 361:0.6666666666666666 478:1.0 776:0.6666666666666667 931:1.0 1032:1.0 1068:0.6666666860389261 1323:0.6666666860389261 
0.0 0.5 524:1.0 780:0.7499999999999999 1017:1.0 
0.1008501725679701 0.0 32:0.7499999251295831 67:1.0 405:0.7500000079070093 629:1.0 
0.08621274384393099 0.0 963:1.0 1053:0.7499999881386884 
3.306264054812841E-4 0.3851372480725146 1042:1.0 
0.0 2.2570158459203626E-10 231:0.75 275:1.0 746:0.69999999459245 887:1.0 888:1.0 889:1.0 890:1.0 891:1.0 892:1.0 1055:1.0 1056:1.0 
0.0 0.5 231:0.75 1289:1.0 
0.0 0.07228763177628407 98:0.6666666412575267 514:1.0 1069:1.0 1070:0.6666666666666667 
0.36524116504307425 0.0 144:0.7499999929571503 408:0.7499999498305241 503:0.7499999999999999 548:0.6666666969468533 
0.5 0.28386404293642276 160:1.0 
0.0 0.5 6:0.6000000000000001 682:1.0 837:1.0 
0.319627891851498 0.5 6:0.6000000000000001 22:0.6666666483643191 41:0.6249999811759944 204:0.6666666666666666 205:0.749999948122767 544:1.0 
0.0 0.5 22:0.6666666483643191 
0.0 0.5 932:0.7499999881386884 
0.2587419143844654 0.5 404:0.7499999465373488 1072:1.0 
0.0 0.02471420583086957 29:0.5000000181937289 86:0.3750000151920771 104:0.5000000167605172 449:0.5 691:0.3749999888616344 773:1.0 914:0.5000000154387017 915:0.5 1035:0.37500000972496683 1073:0.37500000972496683 1074:0.7499999346186265 1209:0.5000000154387017 
0.16667379855009742 0.0 209:0.7499999420619683 1061:1.0 
0.0 0.5 27:0.7499999667767863 514:1.0 1075:1.0 
0.25193276445432006 0.5 42:0.6666666907948943 96:1.0 122:0.6000000073957487 132:0.5714285633650528 151:1.0 517:0.5208333306584374 535:1.0 787:1.0 885:1.0 1021:1.0 1433:1.0 
2.208345841800729E-4 0.24639871490730972 301:1.0 
0.0 0.05245015476765511 131:1.0 451:1.0 746:0.69999999459245 1017:1.0 
0.08631486208967666 0.11003321086691265 43:1.0 941:1.0 
0.0 0.01365487237044373 231:0.75 275:1.0 746:0.69999999459245 887:1.0 888:1.0 889:1.0 890:1.0 891:1.0 892:1.0 1055:1.0 
0.5 0.5 103:1.0 408:0.7499999498305241 
0.0 0.5 131:0.499999979317481 512:0.9000000658483284 
0.0 0.5 168:0.6000000000000001 639:1.0 
0.5 0.5 34:0.5999999876114289 38:0.749999948122767 42:0.6666666907948943 72:0.75 103:1.0 337:0.7499999251295831 551:0.75 1049:1.0 
0.06237116397462643 0.15588735946615961 5:0.6666666800719833 48:0.4444444692748416 309:0.5000000158140185 352:0.5 843:0.5 933:1.0 1631:0.6666666860389261 
0.279735413996239 0.5 598:0.7499999764273528 999:1.0 
0.5 0.5 438:0.6666666666666666 772:1.0 986:0.7499999999999999 
0.0 0.3119304732001428 3:1.0 94:0.6250000078546624 280:1.0 332:0.7500000261492572 499:1.0 
0.5 0.01928147885453593 238:0.7500000079070093 310:0.7499999700652112 330:1.0 587:1.0 
0.0775519987292067 0.18271800377948572 13:0.7499999251295831 747:1.0 874:1.0 
0.02936997309060607 0.5 206:1.0 313:0.749999948122767 
0.44285920285178065 0.07723387808115495 345:0.6666666917079102 450:0.5 556:0.5 677:0.6666666396585307 1035:1.0 
0.5 0.5 
0.0 0.44289585208996324 84:1.0 88:0.7499999700652112 275:1.0 
0.02672511718096311 0.5 40:1.0 396:1.0 404:0.7499999465373488 
0.0 0.5 146:0.7499999849190191 691:0.7499999480209605 
0.0 0.053122115428694404 5:1.0 45:1.0 109:0.6249999795823009 757:1.0 1070:0.6666666666666667 
0.0 5.91284123428717E-4 231:0.75 275:1.0 746:0.69999999459245 887:1.0 888:1.0 889:1.0 890:1.0 891:1.0 892:1.0 1055:1.0 
0.0 0.28926998916200924 382:1.0 399:1.0 
0.11114377536910644 0.46244574087207546 33:0.6249999937162579 88:0.7499999700652112 89:0.7499999852679302 90:0.7499999931012594 91:0.7500000066608277 92:0.7499999490816674 242:0.7499999744510945 1013:1.0 1014:1.0 
0.0 0.5 712:0.75 
0.5 0.5 100:0.7499999896540235 111:0.7499999811488111 214:1.0 
0.3258279292019714 0.5 393:1.0 394:0.6666666830192371 830:1.0 
0.0 0.5 23:0.7499999620397355 356:1.0 
0.0 0.5 1021:1.0 
0.1314427028589675 0.5 31:0.4444444471698728 32:0.49999998336212964 63:0.6666666573691532 1057:1.0 
0.344268660130832 0.0841510117329488 75:0.6666666295900772 133:1.0 1002:1.0 1143:1.0 1173:1.0 
0.5 0.2406340982696655 27:0.7499999667767863 62:1.0 127:1.0 178:0.75 232:1.0 
0.5 0.5 
0.0 0.5 68:0.6666666666666666 170:0.7499999420619683 447:1.0 
0.21947814589822034 0.5 22:0.19047620877853794 337:0.21428572141623017 607:0.21428572541701324 1076:1.0 
0.006976695520157599 0.10500339367360857 1:0.7499999744510945 113:1.0 287:0.6666666666666666 822:1.0 1535:1.0 
0.5 0.5 
0.0 0.005193469841950862 38:0.749999948122767 52:1.0 98:0.6666666412575267 840:1.0 1033:1.0 
0.0 0.5 356:1.0 
0.0738779710991286 0.0 493:0.7499999935166888 511:1.0 602:1.0 739:1.0 879:1.0 
0.5 0.5 
0.08494431840800468 0.44464052618426453 386:1.0 608:1.0 724:1.0 
0.5 0.0 128:0.7499999569654588 384:0.7499999612857169 403:1.0 
0.43567561781717756 0.1364337284586288 241:0.7499999803990088 356:1.0 994:1.0 1077:1.0 
0.055485175005339865 0.33343286357503543 143:1.0 205:0.749999948122767 603:0.6666666959460981 690:0.749999972111788 719:1.0 898:1.0 991:1.0 
0.2749917542162818 0.0 122:0.6000000073957487 246:1.0 352:0.7499999810841234 364:0.7499999498305241 398:1.0 636:1.0 1078:1.0 
0.5 0.5 
0.0 0.12445719273749971 24:0.7499999931012594 304:1.0 
0.0 0.5 209:0.7499999420619683 370:1.0 
0.0 0.29873394895140604 349:1.0 
0.0 0.5 546:0.7500000079070093 
0.0 0.39174059150753865 32:0.7499999251295831 75:0.6666666295900772 499:1.0 731:0.6250000296306508 1044:1.0 1214:1.0 
0.5 0.5 
0.08783867936673331 0.17195208712534366 106:1.0 122:0.6000000073957487 123:1.0 313:0.749999948122767 
0.0 0.5 70:1.0 71:0.7499999805202268 352:0.7499999810841234 389:1.0 1232:1.0 1436:0.75 
0.0 0.5 132:0.7619047511534037 956:0.6666666573691532 
0.5 0.5 575:0.749999942069847 741:0.75 
0.5 0.5 13:0.49999998336212964 684:1.0 
0.5 0.5 1080:1.0 
0.0 0.2591060649604332 2:0.6249999872761307 22:0.6666666483643191 27:0.7499999667767863 368:1.0 
0.0 0.5 94:0.6250000078546624 107:1.0 374:0.7500000093930295 
0.5 0.5 
0.37354506078886285 0.27431445504512947 26:0.75 122:0.6000000073957487 173:1.0 225:0.7499999383704025 878:1.0 1081:1.0 1191:1.0 
0.0 0.5 22:0.8888889010904538 41:0.4166666917653409 68:0.44444446922627817 71:0.5 142:0.4166666828423752 566:1.0 606:0.6666666900419159 712:0.5 723:0.6666666794271414 967:0.6666666666666666 
0.0 0.4574570427539683 22:0.8888889010904538 60:0.6666666800719833 167:0.6666666666666666 272:0.5000000140856994 401:1.0 489:0.5 600:0.5 601:0.49999998336212964 609:0.6666666666666666 1082:1.0 
0.0 0.02663005153045426 28:1.0 68:0.6666666666666666 100:0.7499999896540235 112:1.0 197:1.0 680:0.7500000171343674 780:0.7499999999999999 
0.10461083835826615 0.5 836:1.0 
0.3472132009246667 0.08291202855443586 4:0.7500000171343674 426:1.0 
0.04136372731520824 0.0 84:1.0 547:1.0 
0.0 0.11628031895722099 829:1.0 897:1.0 
0.0 0.013932805488229751 71:0.7499999805202268 175:0.7499999931773517 327:1.0 352:0.7499999810841234 364:0.7499999498305241 996:1.0 
0.5 0.5 
0.14185676080430037 0.20119152365458406 968:1.0 1053:0.7499999881386884 1069:1.0 1482:1.0 
0.4301323913252595 0.5 766:0.7500000000000001 
0.33528838711752507 0.048666587006200114 609:1.0 722:1.0 
0.0 0.5 202:0.7499999852679302 275:1.0 871:1.0 
0.5 0.5 1024:1.0 1136:1.0 
0.0016042441849468097 0.3094969432666835 309:0.37500000395350463 461:0.4999999709416109 827:0.9374999827022542 1046:0.4999999838437278 
0.5 0.5 522:0.7499999498305241 
0.0 0.022510847983184118 15:0.6666666800719833 22:0.4444444505452269 73:1.0 249:0.5 306:0.5000000187860592 562:0.6666666794271414 1273:0.6666666666666666 1357:0.6666666666666666 
0.0 0.051296966665396466 71:0.7499999805202268 417:0.7499999301514122 
0.5 0.5 
0.0 0.5 787:1.0 799:1.0 
0.33823483660929027 0.5 110:1.0 347:0.7499999853900678 498:1.0 
0.42686230723881824 0.0 11:1.0 12:1.0 241:0.7499999803990088 384:0.7499999612857169 714:0.7500000000000001 
0.3053571963277606 0.0 75:0.6666666295900772 174:1.0 571:1.0 836:1.0 1225:1.0 
0.5 0.5 94:0.41666668237599136 111:0.5 588:1.0 1084:0.6666667312917557 1085:0.6666666666666666 1479:0.666666677210055 
0.0 0.4693889628963342 164:1.0 175:0.7499999931773517 344:1.0 516:0.7499999837148648 861:1.0 
0.0 0.5 251:0.5 497:0.696969652604562 
0.4920240737529243 0.5 167:1.0 169:0.7499999420619683 265:1.0 276:0.7500000318445227 397:1.0 439:1.0 939:0.75 1045:1.0 1157:1.0 1282:1.0 
0.0 0.5 2:0.41666668080429925 76:0.5000000136452964 128:0.5000000172138164 142:0.8333333934145363 310:0.5 320:0.44444444281274353 454:0.6666666802674113 561:0.666666678508138 1609:0.6666666666666666 
0.0 0.2494158170658026 138:0.7500000000000001 555:1.0 
0.29253650301972783 0.5 114:0.7499999454725851 514:1.0 1578:1.0 
0.09857409073243598 0.0 364:0.7499999498305241 373:0.7499999599826651 797:1.0 
0.0 0.5 480:1.0 583:1.0 
0.0 0.5 41:0.6249999811759944 173:1.0 
0.5 0.5 
0.0 0.14660264658774244 69:1.0 209:0.7499999420619683 961:1.0 
0.5 0.1381569148978431 42:0.6666666907948943 304:1.0 1150:1.0 
0.02195796330284813 0.0 200:1.0 204:0.6666666666666666 390:1.0 417:0.7499999301514122 452:0.7499999814716111 700:1.0 1036:1.0 
0.01458293238277096 0.014673528961424905 98:0.6666666412575267 612:1.0 856:1.0 
0.0 0.36789401536470984 336:1.0 450:0.75 
0.0 0.5 2:0.6249999872761307 22:0.6666666483643191 100:0.7499999896540235 193:0.7499999931012594 596:1.0 
0.0 0.44886102413664486 4:0.7500000171343674 313:0.749999948122767 327:1.0 419:1.0 715:1.0 846:1.0 
0.5 0.5 
0.07188522685214806 0.11467084908182139 73:0.5 374:0.5000000187860592 408:0.5 670:0.6666666860389261 756:1.0 1087:0.6666666573691532 
0.0 0.41767516689981304 27:0.7499999667767863 142:0.6249999826688837 143:1.0 265:1.0 372:1.0 561:1.0 595:1.0 876:1.0 953:1.0 1088:1.0 
0.035410409228298696 0.1204477920410784 7:0.7499999454725851 173:1.0 208:1.0 836:1.0 
0.0 0.4007516857911314 22:0.6666666483643191 27:0.7499999667767863 53:1.0 86:0.7500000303841542 304:1.0 554:1.0 742:1.0 
0.0 0.5 132:0.5714285633650528 598:0.7499999764273528 687:0.75 724:1.0 1048:1.0 
0.0 0.5 75:0.22222220986335903 223:0.3333333437226186 370:0.33333334485922 444:0.25 512:1.0 
0.21716978794557082 0.29054594150605273 136:1.0 137:0.7500000000000001 139:1.0 830:1.0 
0.0 0.5 253:0.57142856376651 325:1.0 627:0.6666666969468533 
0.0 0.1161768755641192 16:0.6666667006946011 112:1.0 398:1.0 598:0.7499999764273528 611:1.0 642:1.0 985:1.0 
0.0 0.0243431688085386 33:0.6249999937162579 40:1.0 561:1.0 603:0.6666666959460981 
0.48396546337893265 0.468765628865687 496:1.0 667:0.7499999853900678 807:1.0 
0.08511020174273222 0.5 22:0.6666666483643191 94:0.6250000078546624 310:0.7499999700652112 
0.0 0.5 108:1.0 
0.3949760771280883 0.5 23:0.5 265:0.6666666396585307 469:0.4000000374598788 563:1.0 651:0.6666666860389261 712:0.5 1143:0.666666654402239 
0.5 0.2982391246962623 241:0.7499999803990088 454:1.0 1179:1.0 
0.14639082487936528 0.5 102:1.0 296:0.7499999931773517 522:0.7499999498305241 
0.0 0.5 47:0.5 168:0.39999999999999997 686:0.6666666573691532 687:0.5 745:0.5 827:0.41666665678224046 857:0.6666666860389261 1076:0.7777777934657903 1309:0.6666666666666666 1480:0.666666677210055 
0.0 0.258407400494121 43:1.0 253:0.57142856376651 
0.0 0.5 810:0.8000000197636153 
0.0 0.5 373:0.7499999599826651 710:1.0 
0.0 0.5 22:0.6666666483643191 
0.0 0.5 420:1.0 1379:1.0 
0.0 0.18186750454551134 35:1.0 293:0.7499999999999999 472:1.0 616:1.0 1037:1.0 1307:1.0 
0.0 0.5 22:0.6666666483643191 92:0.7499999490816674 
0.0 0.22936734192731645 133:1.0 212:1.0 292:1.0 350:1.0 584:1.0 898:1.0 928:1.0 
0.5 0.5 321:0.750000018178057 
0.0 0.5 22:0.6666666483643191 444:0.75 723:1.0 
0.0 0.37132741685753895 5:1.0 249:0.7499999838061998 766:0.7500000000000001 1089:1.0 
0.15311590600602018 0.18717223140717185 22:0.6666666483643191 43:1.0 642:1.0 1046:1.0 
0.47002409287335667 0.5 131:1.0 417:0.7499999301514122 811:1.0 978:0.749999972111788 
0.0 0.5 22:0.6666666483643191 41:0.6249999811759944 353:0.7499999931773517 
0.0 0.1693351381218561 5:1.0 34:0.5999999876114289 849:1.0 850:1.0 
0.0 0.3488180100297335 219:1.0 238:0.7500000079070093 251:0.7499999531567392 319:1.0 938:1.0 
0.14379409823330588 0.5 535:1.0 975:1.0 1266:1.0 
0.40821140354051116 0.0 433:1.0 434:1.0 511:1.0 661:0.7500000000000001 669:1.0 874:1.0 1090:0.6666666594861014 
0.0 0.5 71:0.37500000973988656 111:0.37499999057440553 177:0.3125000060352123 214:0.5 273:0.4999999709416109 384:0.37499998064285844 512:0.9000000658483284 636:0.5000000167605172 
0.0 0.21301391364388023 514:1.0 1075:1.0 
0.0 0.5 6:1.0 109:0.20833333197215337 111:0.24999999622976224 694:0.33333336564587784 853:0.33333334485922 1643:0.3333333333333333 
0.02895822774679829 0.5 291:0.7500000303841542 429:1.0 629:1.0 742:1.0 1187:0.7499999744510945 
0.30423075495263047 0.5 73:0.5 646:0.8000000251441578 691:0.49999998514884586 971:1.0 
0.5 0.5 
0.5 0.23186256088257132 79:1.0 
0.0 0.5 274:1.0 546:0.7500000079070093 609:1.0 
0.34358009598495176 0.2108808267684951 10:0.4444444523972272 68:0.44444446922627817 183:0.5 438:0.8888889243671585 473:0.4444444444444445 672:0.6666666807235719 894:0.6666666666666666 913:0.666666678508138 
0.24444936439239573 0.0 74:0.6666666666666666 202:1.0 283:0.66666668971844 575:0.49999998344852775 709:0.4444444797713289 1019:0.6666666666666666 1092:0.6666666996060255 1138:0.6666666666666666 1554:0.6666666666666666 
0.08233780603771589 0.399562406891898 23:0.7499999620397355 636:1.0 810:0.6 982:1.0 1474:1.0 1515:1.0 
0.24759237110803706 0.0 27:0.7499999667767863 122:0.6000000073957487 131:1.0 204:0.6666666666666666 216:0.749999920443657 292:1.0 345:1.0 351:1.0 455:1.0 780:0.7499999999999999 1146:1.0 
0.0 0.06805287220051122 6:0.6000000000000001 326:0.7499999881386884 377:1.0 512:0.6000000343556495 558:1.0 817:0.75 906:1.0 
0.04101290024433259 0.5 264:1.0 480:1.0 759:1.0 1558:1.0 
0.0 0.07631690849061316 143:1.0 170:0.7499999420619683 201:1.0 
0.12876422483512612 0.0 26:0.75 223:1.0 248:0.7499999856444661 1019:1.0 
0.0 0.5 108:1.0 
0.0 0.1944447973708763 43:1.0 107:1.0 132:0.5714285633650528 313:0.749999948122767 489:0.7499999846991626 512:0.6000000343556495 1042:1.0 
0.0 0.07968075705127937 532:1.0 
0.0 0.4768646899140457 26:0.75 122:0.6000000073957487 146:0.7499999849190191 646:0.6 921:1.0 
0.5 0.07226245295701222 494:0.7499999531567392 516:0.7499999837148648 693:1.0 741:0.75 875:1.0 959:1.0 1005:1.0 
0.45255417352519617 0.0 226:0.7499999929571503 690:0.749999972111788 941:1.0 979:1.0 1573:1.0 
0.010471742257798605 0.0 22:0.6666666483643191 216:0.749999920443657 369:1.0 520:0.7499999856444661 728:1.0 851:1.0 1009:1.0 1093:1.0 
0.438792103873619 0.3899535993783439 10:0.8888889047944544 174:0.6666666666666666 282:0.6666667312917557 849:0.6666666909249718 854:0.6666666666666666 
0.38446129881083174 0.4126482141486426 257:1.0 
0.0 0.5 449:1.0 1094:1.0 
0.30312742662468717 0.3546179101419066 38:0.749999948122767 112:1.0 690:0.749999972111788 691:0.7499999480209605 1553:1.0 
3.158926405452289E-4 0.5 1095:1.0 
0.0 0.4628853275001086 382:0.5 525:0.5 827:0.9374999827022542 
0.31490783114964466 0.13135612387823015 71:0.7499999805202268 213:1.0 247:1.0 
0.3129133193609672 0.3681706010104619 122:0.6000000073957487 551:0.75 738:1.0 951:1.0 1212:0.75 1634:1.0 
0.42168989093509973 0.5 1001:1.0 1441:1.0 
0.2391830250222905 0.06707145635332458 34:0.8000000247771419 384:1.0 1074:1.0 
0.0799047171344504 0.10989472236028433 133:1.0 364:0.7499999498305241 717:1.0 1096:1.0 
0.0 0.025643326156527545 75:0.6666666295900772 100:0.7499999896540235 1097:1.0 
0.0 0.5 565:1.0 
0.015656581994693965 0.0 53:0.6666666666666667 58:1.0 128:0.5000000172138164 132:0.38095237557670186 372:0.6666666666666666 460:0.666666654402239 600:0.5 661:1.0 1028:0.6666666573691532 1282:0.666666677210055 
0.0 0.3262958270685706 19:1.0 128:0.7499999569654588 214:1.0 842:1.0 1098:1.0 
0.0 0.258421022624688 22:0.6666666483643191 112:1.0 338:1.0 867:1.0 896:1.0 1099:0.7499999455155245 1100:1.0 1101:1.0 1473:1.0 1543:1.0 
0.0 0.5 65:1.0 830:1.0 
0.3379808185266945 0.30795307005770534 117:1.0 318:1.0 488:0.75 535:1.0 619:1.0 631:1.0 863:1.0 1022:1.0 1534:1.0 
0.0 0.29207589545362916 287:0.6666666666666666 365:0.7499999853900678 
0.07466442287727793 0.0 38:0.3749999740613835 100:0.3749999741350588 194:1.0 266:0.4999999709416109 274:0.5 282:0.4999999838437278 490:0.5000000198015402 543:0.4999999838437278 575:0.3749999875863958 761:0.4999999709416109 819:0.5 954:0.5000000167605172 1039:0.5 1070:1.0 1102:0.7499999307007676 1149:0.5000000154387017 1206:0.5000000154387017 
0.0 0.5 143:1.0 170:0.7499999420619683 
2.525555356852688E-4 0.5 886:1.0 
0.04137738161818837 0.5 289:0.6666666826511807 
0.03151605396330352 0.0 94:0.6250000078546624 193:0.7499999931012594 236:1.0 237:1.0 337:0.7499999251295831 673:0.5208333671943701 
0.13827108162659602 0.18097382683397037 20:0.6666667105704507 107:0.6666666796532733 159:1.0 210:0.6666667312917557 680:0.5 845:0.6666666666666666 1063:0.6666666666666666 
0.5 0.0 122:0.6000000073957487 616:1.0 869:1.0 1000:1.0 1160:0.7499999455155245 
0.5 0.5 
0.5 0.5 
0.5 0.5 
0.4452012624602643 0.5 321:0.750000018178057 
0.36781467264350987 0.5 22:0.6666666483643191 23:0.7499999620397355 692:1.0 880:0.7499999744510945 
0.2088069398307093 0.0 1:0.29999997445109455 10:0.5333333571916816 16:0.26666665475688955 20:0.7999999999999999 26:0.3000000080521924 38:0.2999999965415178 52:0.40000003163016495 66:0.3000000102324192 97:0.39999999353749116 98:0.26666664888026875 99:0.2666666502321067 109:1.0 131:0.39999999999999997 132:0.2285714309904842 169:0.2999999710309841 176:0.30000001206478477 208:0.40000000743685676 210:0.39999999353749116 218:0.39999997956087496 227:0.40000003506287385 230:0.6000000165569772 251:0.2999999937542319 265:0.39999999999999997 280:0.39999999353749116 330:0.40000003163016495 382:0.39999999103606426 383:0.5333333593065464 445:0.39999998497525385 522:0.2999999866214731 567:0.4000000081604468 572:0.4 650:0.8000000197636153 653:0.40000003163016495 654:0.39999999353749116 704:0.4 748:0.4 761:0.4 936:0.2666666749006406 948:0.3000000027290593 970:0.39999999227492844 1037:0.4 1041:0.2999999859143006 1079:0.2666666749006406 1097:0.4 1103:0.40000002470192264 1104:0.4 1175:0.2666666549334631 1176:0.2666666666666667 
0.34105537894069166 0.0 1:0.3749999872255472 52:0.5 93:0.37499999159631037 109:0.31250000612530976 132:0.2857142816825264 151:1.0 185:0.5000000154387017 265:0.5 307:0.3749999653503838 316:0.4999999838437278 363:0.5 383:1.0 399:0.5000000181937289 407:0.5000000167605172 525:0.5 572:0.499999982237793 761:0.4999999709416109 1051:0.29166667007555713 1079:0.3333333333333333 
0.0 0.006999828083869086 10:1.0 34:0.29999999380571446 38:0.749999948122767 60:0.5 96:0.5 230:0.3749999965506297 249:0.3749999919030999 265:0.5 363:0.5 516:0.3749999918574324 593:0.5 709:0.6666666969468533 905:0.3749999940693442 970:1.0 1002:0.4999999838437278 1011:0.5 1051:0.29166667007555713 1079:0.3333333333333333 1104:0.4999999709416109 1105:0.7500000104597028 
0.0 0.027152116611106242 53:0.5000000167605172 60:0.5 66:0.3750000170540319 100:0.3749999741350588 109:0.6249999795823009 151:0.5 159:0.3749999923495813 217:0.499999982237793 230:0.3749999965506297 241:0.3750000098004957 265:0.5 338:0.5000000167605172 384:0.37499998064285844 401:0.374999986055894 417:0.37499996906705396 425:0.5 445:0.5 560:0.3750000151920771 653:0.5 669:0.5000000154387017 785:0.5000000154387017 859:0.5 918:0.4999999838437278 951:0.5000000198015402 1018:0.5000000154387017 1022:0.5000000154387017 1037:0.4999999709416109 1054:1.0 1103:0.5000000154387017 1106:0.4999999709416109 1610:0.4999999709416109 
0.2659036982196901 0.0194207607219063 47:0.2142857043159151 103:0.5714285823661213 132:0.1632653122852811 251:0.2142857142857143 291:0.21428572079660446 296:0.4285714441660531 352:0.2142857202307041 364:0.4285714094592473 382:0.2857143055630006 403:0.28571430547294857 404:0.21428571937739535 470:0.28571429125357906 521:0.28571428571428575 563:0.42857144180460144 567:0.2857142973720668 571:0.28571429050300495 697:0.2142857142857143 770:0.8571429316996734 1054:0.38095236855819903 1063:0.2857142911324616 1087:0.5714285833825172 1092:0.5714285714285715 1099:0.21428570525685833 1100:0.2857142944318024 1101:0.2857142944318024 1107:1.0 1108:0.42857141923123276 1109:0.28571427774498853 1344:0.28571431508515316 1371:0.28571431576817763 1419:0.28571429125357906 
0.2081660146690194 0.0 60:0.5 66:0.3750000170540319 109:0.9375000510442477 133:0.5 146:0.37499999245950955 169:0.37499997103098415 200:0.5000000198015402 241:0.3750000098004957 265:0.5 286:0.4999999709416109 319:0.5 364:0.37499997491526205 374:0.7500000093930295 376:0.4999999838437278 396:0.5 445:0.5 559:0.5 572:0.499999982237793 575:0.749999942069847 732:1.0 735:0.5 749:0.5 853:0.50000001728883 898:0.5 960:0.50000001728883 1004:0.4999999709416109 1032:0.37499999073580553 1041:0.3749999964785751 1054:0.666666599928764 1060:0.37500001157902624 1072:0.5 1105:0.7500000104597028 1216:0.5000000167605172 1489:0.5 
0.02009571385360573 0.09467601989688697 38:0.749999948122767 98:0.6666666412575267 109:0.6249999795823009 128:0.7499999569654588 176:0.7499999849190191 383:0.6666666666666666 404:0.7499999465373488 510:1.0 903:1.0 993:1.0 1099:0.7499999455155245 1100:1.0 1101:1.0 
0.5 0.5 1187:0.7499999744510945 
0.06061370956318586 0.0 364:0.7499999498305241 414:0.75 839:1.0 1030:1.0 
0.14210871113941184 0.036562356332123666 43:1.0 422:0.5 456:1.0 529:0.500000017531437 579:0.5 799:0.50000001728883 819:0.5 833:0.4999999709416109 1023:0.5000000181937289 1027:0.5 1297:0.5 
0.0 0.5 109:0.6249999795823009 122:0.6000000073957487 819:1.0 
0.5 0.4189819183477724 26:0.75 42:0.6666666907948943 93:0.7499999831926207 202:0.7499999852679302 
0.5 0.5 428:0.7499999480209605 
0.03735063709329664 0.0 37:0.7500000303841542 62:1.0 601:0.7499999251295831 619:1.0 719:1.0 824:1.0 902:1.0 
0.0 0.06594722926114324 451:1.0 682:1.0 
0.0 0.5 152:0.6666666909249718 174:0.6666666666666666 178:1.0 306:0.5000000187860592 471:0.6666666666666666 489:0.5 509:0.6666666666666666 777:0.6666666996060255 
0.5 0.5 16:0.6666667006946011 727:1.0 
0.0 0.5 41:0.6249999811759944 450:0.75 
0.02232932797666857 0.01351010806328929 678:0.7500000000000001 680:0.7500000171343674 
0.29021755889291406 0.0 678:0.7500000000000001 680:0.7500000171343674 
0.0 2.506014149052956E-4 664:1.0 678:0.7500000000000001 1071:1.0 
0.0 4.434926798414361E-4 2:0.6249999872761307 624:1.0 625:1.0 626:1.0 681:1.0 1110:1.0 
0.0 0.14871077260392893 1047:1.0 
0.0 0.22656375190760486 432:0.75 1062:1.0 
2.0189004665057282E-4 0.5 1583:1.0 
0.004740491457488783 0.009219691450175387 22:0.6666666483643191 338:1.0 501:1.0 
0.0 0.17466593759601834 65:1.0 96:1.0 
0.049402872783934085 0.5 926:1.0 942:1.0 
0.14306896791846077 0.2842077332613151 10:0.6666666785958407 32:0.7499999251295831 182:1.0 204:0.6666666666666666 234:1.0 327:1.0 450:0.75 548:0.6666666969468533 550:0.7499999881386884 691:0.7499999480209605 731:0.6250000296306508 819:1.0 824:1.0 1084:1.0 1088:1.0 1111:1.0 1112:1.0 1184:0.6666666373336576 1191:1.0 
0.0 0.0587247251866726 13:0.49999998336212964 47:0.5 149:0.4999999737028469 232:0.6666666794271414 233:0.6666666932753689 317:0.6666666900419159 708:0.6666666860389261 812:0.66666668971844 837:0.6666667312917557 990:0.5 1009:0.6666666860389261 1113:1.0 
0.008491277118282172 0.0 9:0.5000000154387017 26:0.37500000805219236 31:1.0 47:0.3749999738292771 93:0.37499999159631037 106:0.5 152:0.5000000181937289 168:0.30000000000000004 175:0.3750000102339724 324:0.5000000167605172 345:1.0 384:0.37499998064285844 409:0.5 431:0.5 433:0.5 454:0.5 551:0.3749999816146432 574:1.0 581:0.3333333505001598 692:0.5000000167605172 825:0.4999999838437278 828:0.3750000125703879 901:0.5 914:0.5000000154387017 984:0.5 1021:0.5 1082:0.375 1462:0.4999999709416109 1541:0.4999999709416109 
0.05517862224983703 0.0 46:1.0 159:0.7499999846991626 451:1.0 460:1.0 462:1.0 817:0.75 1098:1.0 1113:0.7499999455155245 
0.5 0.0 122:0.6000000073957487 384:0.7499999612857169 1114:0.7499999455155245 
0.23667494411561554 0.09332952584942196 68:0.44444446922627817 183:1.0 195:0.66666668971844 238:0.5000000158140185 348:0.4999999737028469 378:0.6666666893768056 417:1.0 433:0.666666654402239 489:0.5 516:0.5 586:0.5 647:1.0 855:1.0 1066:0.6666666666666666 1081:0.6666666666666666 1224:0.5 1251:0.5 
0.0 0.3309991669359402 490:0.6666666930687204 538:0.6666666860389261 816:0.6666666900419159 954:0.6666666666666667 1020:0.6666666666666666 1114:1.0 
0.13337127271882804 0.0 4:0.5 68:0.8888889384525563 165:0.6666666666666666 200:0.6666666930687204 206:0.666666654402239 241:0.5 348:1.0 377:0.6666667181671433 393:0.6666666996060255 394:0.8888889188686016 435:0.6666666860389261 454:0.6666666802674113 516:0.5 558:0.666666677210055 586:0.5 667:1.0 801:0.66666668971844 908:0.6666667312917557 990:1.0 996:0.6666666666666667 1114:1.0 1115:0.6666666666666666 1186:0.6666667312917557 1389:0.6666666666666666 
0.22948482069433057 0.2330120580891794 31:0.6666666830192371 232:1.0 990:0.7499999881386884 
0.0 0.5 150:1.0 990:0.7499999881386884 
0.0 0.5 109:0.6249999795823009 1007:1.0 
0.11258973132300047 0.0 5:1.0 223:1.0 275:1.0 545:1.0 1365:1.0 
0.0 0.0025385037673236978 4:0.7500000171343674 98:0.6666666412575267 186:1.0 275:1.0 374:0.7500000093930295 653:1.0 661:0.7500000000000001 
0.043102277823210494 0.0 173:1.0 534:1.0 540:0.7499999929571503 729:1.0 969:1.0 1098:1.0 
0.13962527893378807 0.5 37:1.0 415:0.6666667312917557 489:0.5 960:0.66666668971844 
0.057657168129394365 0.2618456325515245 23:0.7499999620397355 150:1.0 232:1.0 501:1.0 616:1.0 719:1.0 858:0.7499999853900678 1117:0.7499999455155245 
0.0880624762651333 0.0 22:0.6666666483643191 64:1.0 122:0.6000000073957487 204:0.6666666666666666 306:0.7500000093930295 331:0.7499999999999999 893:0.7499999744510945 907:0.7499999935166888 912:1.0 951:1.0 1090:0.6666666594861014 1111:1.0 1117:0.7499999455155245 1118:0.7500000261492572 1119:1.0 1407:1.0 
0.0 0.5 94:0.6250000078546624 1090:0.6666666594861014 
0.5 0.5 655:1.0 
0.0 0.5 68:0.44444446922627817 132:0.7619047511534037 301:0.6666666573691532 
0.5 0.4893092540361208 79:1.0 
0.15229749442845086 0.5 856:1.0 
0.37490335812864184 0.12592979968398016 106:1.0 137:0.7500000000000001 141:1.0 142:0.6249999826688837 178:0.75 265:1.0 295:0.75 760:1.0 802:1.0 815:1.0 1038:1.0 1113:0.7499999455155245 1195:1.0 
0.2179640218492638 0.5 438:0.6666666666666666 
0.0 0.4801108252442352 811:1.0 
0.0 0.5 164:0.6666667312917557 817:1.0 
0.04050887803981221 0.5 27:0.7499999667767863 119:1.0 122:0.6000000073957487 
0.271329783649254 0.5 20:1.0 27:0.7499999667767863 487:0.5999999762381526 951:1.0 
0.16299783346216543 0.0 68:0.44444446922627817 81:0.6666666666666666 119:0.6666666666666666 122:0.4000000295829948 176:0.5 276:0.5000000212296817 281:0.5 291:0.5 382:0.6666666816065596 419:0.66666668971844 493:1.0 560:1.0 697:1.0 792:0.6666666900419159 802:0.6666666860389261 807:0.6666666893768056 840:0.6666666666666666 871:0.6666666893768056 910:0.6666667312917557 970:0.6666667181671433 1085:0.6666666666666666 1090:0.4444444827407931 1091:0.6666666996060255 
0.1819302939201908 0.0 127:1.0 956:1.0 1120:0.6666666526088159 
0.3095557962211136 0.2547342966591364 122:0.6000000073957487 1112:1.0 1120:0.6666666526088159 
0.12784299495770707 0.0 34:0.29999999380571446 38:0.749999948122767 47:0.3749999738292771 68:0.3333333333333333 76:0.3750000102339724 82:0.50000001728883 131:0.499999979317481 218:0.5 310:0.7499999700652112 451:0.5 454:0.5 733:0.5 1074:0.7499999346186265 1112:0.4999999709416109 1120:1.0 1213:0.7499999455155245 
0.14674997174962845 0.0 68:0.44444446922627817 95:0.6666666666666666 122:0.4000000295829948 170:0.5 200:0.6666666930687204 380:0.6666666573691532 466:1.0 560:0.5 695:0.5000000123522593 806:0.6666666573691532 898:0.6666666796532733 910:0.6666667312917557 1240:0.6666666666666666 
0.5 0.5 534:1.0 
0.5 0.5 
0.0 0.014191990367009438 68:0.6666666666666666 121:1.0 136:1.0 212:1.0 1217:1.0 
0.0 0.5 1078:1.0 
0.0 0.5 304:1.0 
0.0 0.0900598777305534 4:0.5 72:1.0 735:0.6666666794271414 995:0.6666666666666666 1095:0.6666666573691532 1106:0.6666666860389261 
0.2900175033034152 0.0 2:0.41666668080429925 94:0.8333333647519827 337:0.49999998336212964 551:0.5 691:0.49999998514884586 734:0.6666666666666666 778:0.6666666573691532 1040:0.44444445422211415 1135:0.6666666860389261 1226:0.6666666996060255 
0.0 0.5 233:1.0 495:1.0 
0.3910979861945854 0.5 329:1.0 
0.3029344473767431 0.07202093669223146 41:0.6249999811759944 152:1.0 178:0.75 503:0.7499999999999999 
0.06080511327314707 0.0 10:0.6666666785958407 22:0.6666666483643191 23:0.7499999620397355 152:1.0 154:1.0 178:0.75 242:0.7499999744510945 601:0.7499999251295831 615:0.7499999480209605 666:1.0 785:1.0 
0.17493010879951645 0.03555898988963511 41:0.6249999811759944 142:0.6249999826688837 516:0.7499999837148648 615:0.7499999480209605 723:1.0 955:1.0 
0.5 0.0 13:0.7499999251295831 22:0.6666666483643191 41:0.6249999811759944 228:1.0 353:0.7499999931773517 490:1.0 516:0.7499999837148648 615:0.7499999480209605 649:1.0 
0.0 0.5 175:0.7499999931773517 
0.12330093391690107 0.5 343:0.749999948122767 730:1.0 908:1.0 1235:1.0 
0.5 0.0 4:0.7500000171343674 10:0.6666666785958407 241:0.7499999803990088 567:1.0 601:0.7499999251295831 831:1.0 1021:1.0 1235:1.0 
0.22023466942589914 0.0 41:0.6249999811759944 204:0.6666666666666666 352:0.7499999810841234 592:1.0 615:0.7499999480209605 659:1.0 807:1.0 939:0.75 1259:1.0 
0.0 0.2049773391082323 1029:1.0 
0.0 0.293136744807061 344:1.0 373:0.7499999599826651 665:1.0 898:1.0 1094:1.0 
0.1075658075061554 0.0 61:0.7499999700652112 62:1.0 67:1.0 98:0.6666666412575267 112:1.0 204:0.6666666666666666 215:0.7499999931773517 250:1.0 271:1.0 275:1.0 368:1.0 506:1.0 599:1.0 619:1.0 692:1.0 818:1.0 819:1.0 919:1.0 1052:1.0 
0.0 0.5 553:1.0 1029:0.7500000261492572 
0.061934151341030384 0.0 1:0.7499999744510945 41:0.6249999811759944 98:0.6666666412575267 425:1.0 
0.5 0.0 14:1.0 98:0.6666666412575267 204:0.6666666666666666 488:0.75 513:0.7500000000000001 570:0.7500000079070093 659:1.0 687:0.75 880:0.7499999744510945 
0.26134949273451885 0.5 901:1.0 1199:1.0 
0.11907642892749115 0.17463817515296698 20:1.0 454:1.0 551:0.75 576:1.0 586:0.7499999837148648 1028:1.0 1041:0.7499999929571503 1084:1.0 1109:1.0 
0.5 0.5 384:0.7499999612857169 574:1.0 
0.0 0.5 22:0.6666666483643191 
0.0 0.32865081187393685 22:0.6666666483643191 447:1.0 1059:1.0 1121:1.0 
2.968823669522774E-4 0.5 622:0.7499999881386884 
0.13627784647756006 0.3611527772991138 530:1.0 759:1.0 
0.0 0.5 272:0.7499999929571503 501:1.0 639:1.0 858:0.7499999853900678 
0.2496511886716939 0.5 27:0.7499999667767863 238:0.7500000079070093 327:1.0 988:1.0 
0.0 0.0442338699660906 22:0.4444444505452269 23:1.0 66:1.0 122:0.8000000591659896 157:0.6666666666666666 353:0.5000000136452964 401:0.5 602:0.6666666807235719 1082:0.5 1453:0.6666666666666666 
0.0 0.5 27:0.7499999667767863 66:0.75 426:1.0 898:1.0 911:1.0 
0.5 0.5 337:0.7499999251295831 343:0.749999948122767 
0.0 0.4854169427138408 670:1.0 
0.5 0.5 1477:1.0 
0.5 0.5 
0.2939291809238412 0.16226018923299557 156:1.0 172:0.7499999342571172 206:1.0 503:0.7499999999999999 747:1.0 1045:1.0 
0.0 0.023658644167840043 2:0.6249999872761307 138:0.7500000000000001 475:0.6666667026775166 1555:1.0 
0.14714452493773658 0.5 22:0.6666666483643191 55:0.6666666666666666 144:0.7499999929571503 174:1.0 243:1.0 344:1.0 357:1.0 374:0.7500000093930295 468:1.0 559:1.0 567:1.0 584:1.0 937:1.0 1094:1.0 
0.5 0.0 678:0.7500000000000001 680:0.7500000171343674 
0.5 0.0 678:0.7500000000000001 680:0.7500000171343674 
0.5 0.0 678:0.7500000000000001 680:0.7500000171343674 
0.5 0.0 678:0.7500000000000001 680:0.7500000171343674 
0.5 0.09829230443270409 678:0.7500000000000001 680:0.7500000171343674 
0.5 0.5 678:0.7500000000000001 680:0.7500000171343674 
0.0 0.264265717794045 1047:1.0 
0.0 0.5 432:0.75 1062:1.0 
0.0 0.5 640:1.0 
0.5 0.5 103:0.5 197:0.5 204:1.0 516:0.3749999918574324 
0.0 0.22445290743634627 38:0.749999948122767 94:0.6250000078546624 460:1.0 817:0.75 
0.0 0.328615914031103 302:1.0 
0.171617711160943 0.0 230:0.7499999931012594 460:1.0 642:1.0 817:0.75 
0.13507227211875886 0.5 752:0.7499999935166888 754:1.0 
0.0 0.06914495268431463 20:1.0 23:0.7499999620397355 356:1.0 432:0.75 540:0.7499999929571503 
0.5 0.5 47:1.0 384:0.5 404:0.5 447:0.6666666797618401 
0.12104881521571347 0.07332837020189026 28:1.0 81:1.0 122:0.6000000073957487 171:0.75 198:1.0 200:1.0 275:1.0 559:1.0 649:1.0 821:1.0 
0.5 0.5 26:0.37500000805219236 38:0.3749999740613835 51:0.37499999073580553 68:0.3333333333333333 94:0.3125000039273312 109:0.31250000612530976 130:0.5000000154387017 143:0.5 151:0.5 216:0.3749999602218285 288:0.5 294:0.5000000181937289 320:0.3333333186480255 407:0.5000000167605172 408:0.37499997491526205 409:0.5 422:0.5 488:0.3749999844881108 551:0.3749999816146432 578:0.2999999974697571 586:0.3749999918574324 627:1.0 775:0.374999986055894 805:0.5000000167605172 872:1.0 907:0.37500000972496683 1026:0.5 1116:0.4999999709416109 1125:0.5 
0.09527193223237172 0.05746838215239974 26:0.75 100:0.7499999896540235 1125:1.0 1126:1.0 
0.18858042920251647 0.060491282122604434 5:0.6666666800719833 27:0.5000000221488093 68:0.44444446922627817 93:0.5 132:0.38095237557670186 298:0.6666666860389261 310:0.5 313:0.5 452:0.5000000123522593 522:0.5 689:0.6666666893768056 749:0.6666666666666666 869:0.6666666666666666 921:0.6666667312917557 923:0.8000000728202907 988:0.6666667312917557 994:0.6666666900419159 1058:0.6666666573691532 1073:0.5000000129666224 1126:0.6666666573691532 1290:0.6666666666666666 
0.03740730864327347 0.5 451:1.0 830:1.0 964:1.0 
