svm_type c_svc
kernel_type linear
nr_class 3
total_sv 3700
rho -0.9931434526148137 4.515273324807547 1.0120039151708518
label 0 1 2
nr_sv 1710 454 1536
SV
0.0 0.5 0:0.16854734792355514 1:0.7714963952874985 2:0.7002857614960682 3:0.6508173455685287 4:0.022515726719316197 5:0.14448118645217142 6:0.7545197762780956 7:0.2635753546791921 8:0.37045430772985627 9:0.7590406830738339 10:0.1911103113921505 11:0.725429636564246 12:0.7670202859156356 13:0.5786286883847863 14:0.3806511721034414 15:0.5348356695851239 16:0.5708898252327941 17:0.7806097065402738 18:0.2403111231004408 19:0.7708651481817 
0.0 0.5 0:0.16386387160916277 1:0.8136225476650999 2:0.6683111606665534 3:0.6461511895737769 4:0.024159651577761905 5:0.1464972798694381 6:0.7540477661626908 7:0.27795792499295846 8:0.35273061143846623 9:0.7746645619573799 10:0.19490116881724273 11:0.7099511374980293 12:0.7615553973527389 13:0.5632346747329317 14:0.3826171540688798 15:0.5058195710017385 16:0.5898198968191035 17:0.7706479508710345 18:0.22775919907472789 19:0.8363604429736152 
0.0 0.5 0:0.17388060795718888 1:0.8265074426036513 2:0.6911988248364865 3:0.6469274121211097 4:0.0229571899165971 5:0.14079962455977105 6:0.7407288720367519 7:0.27950459707712566 8:0.3612071618386972 9:0.7400912803266897 10:0.2009445647123187 11:0.7075561267729518 12:0.7720099667774104 13:0.550033211751134 14:0.3986014422226687 15:0.48847299032689084 16:0.5759733482930575 17:0.7372977253696754 18:0.22991059696001026 19:0.8514652179539848 
0.5 0.0 0:0.18443030692497303 1:0.8031630447149837 2:0.6543355073238517 3:0.6385373595874589 4:0.01777735506850172 5:0.1324439228137832 6:0.7836733422294669 7:0.25527020878620876 8:0.35898603365895654 9:0.8492037699057524 10:0.18236408478392976 11:0.7329278714060092 12:0.7784672008338209 13:0.5701042142935967 14:0.39947255827257105 15:0.5303552425979823 16:0.5936626795171317 17:0.7384187413529121 18:0.2337684166973743 19:0.8283200998789552 
0.0 0.5 0:0.17012914329477383 1:0.7632267607236309 2:0.6543355073238517 3:0.6091322230885743 4:0.02303336395848068 5:0.13327407892677548 6:0.8221560492852789 7:0.39403973509933743 8:0.3735820188401008 9:0.7224569385765356 10:0.16928191014047256 11:0.7741681630357178 12:0.7009803921568619 13:0.5508695035237349 14:0.3594012199770033 15:0.5124335346494214 16:0.5634007657701584 17:0.7813910207104082 18:0.23113938398746645 19:0.7720376982163364 
0.5 0.40495218518142745 0:0.1618542561628351 1:0.8625232655742503 2:0.6887912061310164 3:0.6533092795739289 4:0.02339698721502029 5:0.1392887949152481 6:0.8323212926585143 7:0.25605569667100087 8:0.3594187987182367 9:0.6829980193891401 10:0.19227856305145588 11:0.7012584399092356 12:0.7947930378821132 13:0.5764552980383636 14:0.4036309046994709 15:0.4701653555254586 16:0.5713310366682138 17:0.7727154850665391 18:0.24775685488971463 19:0.8103557484048823 
0.5 0.0 0:0.15704622693677708 1:0.8591231463571891 2:0.6615821423904392 3:0.6099490324357667 4:0.02163825048768395 5:0.1288004598734285 6:0.8532747815341156 7:0.2673482971875372 8:0.3645464089660597 9:0.7980356046654401 10:0.19696040001112064 11:0.8012034653263054 12:0.7638786350026663 13:0.5870236358041238 14:0.3751081951731061 15:0.5235516312471408 16:0.5544342728080928 17:0.7341215134171639 18:0.23449870356123775 19:0.7907984987705443 
0.0 0.5 0:0.17075752775731323 1:0.7817830138913321 2:0.6869453651234899 3:0.6550777488680831 4:0.027592553488045936 5:0.13967005443369346 6:0.7892125197602295 7:0.2564266215054852 8:0.36078683702546227 9:0.7198643897538939 10:0.1885830731087553 11:0.7349898859874968 12:0.7470615624685395 13:0.5786286883847864 14:0.372910118114525 15:0.5279113733322708 16:0.5864792959509321 17:0.8204567292172252 18:0.22202739561790016 19:0.8034833582361728 
0.0 0.5 0:0.1763770275474 1:0.8329972426848841 2:0.6473972397069085 3:0.6371296668827258 4:0.023480683864010882 5:0.14222916720947937 6:0.7667518682049259 7:0.2719028683230309 8:0.37611080654625656 9:0.715175737627836 10:0.19430968751687386 11:0.7372273911716606 12:0.7369760373224005 13:0.5801308188438439 14:0.38284721578823994 15:0.5072858100258996 16:0.5783528697255192 17:0.7916312234509193 18:0.2350269961861601 19:0.7823162219242266 
0.0 0.5 0:0.1679562533168526 1:0.7578606450452084 2:0.6710196206166913 3:0.6223816305226667 4:0.023318573743208382 5:0.14694269585697428 6:0.7568249419579725 7:0.28065750197217737 8:0.35437932737255023 9:0.7616600282667373 10:0.1852036265670062 11:0.7129790791758273 12:0.7949857065595317 13:0.5654073663149112 14:0.3948131003312271 15:0.5366070011846914 16:0.6160267811492639 17:0.7680995947696039 18:0.22872434231208671 19:0.8000698246258214 
0.5 0.5 0:0.15802497001935942 1:0.7330333865949049 2:0.657171147132518 3:0.6550777488680836 4:0.022309710560585217 5:0.14632196739837183 6:0.8165788453641488 7:0.2624098003573923 8:0.3866368130393858 9:0.7166706701897695 10:0.1840230562061078 11:0.7075561267729522 12:0.7624644903461909 13:0.5891298521203089 14:0.38872879365709384 15:0.5480821493731909 16:0.5946129328473527 17:0.7658836329422704 18:0.24302718406705032 19:0.8254651954467962 
0.0 0.5 0:0.16004072554013768 1:0.7736494084836503 2:0.7074213223465181 3:0.6485385251990001 4:0.02262592140887007 5:0.1489119033808164 6:0.782181764436608 7:0.25871255362498485 8:0.3617985490759223 9:0.7466272645509465 10:0.19037564910046603 11:0.7080877887732341 12:0.754139946946871 13:0.5654073663149112 14:0.3948131003312271 15:0.5295216747864231 16:0.6080507728748678 17:0.7630028825667381 18:0.2380788075357122 19:0.8056326201389873 
0.0 0.5 0:0.16230230490491332 1:0.7525977238990612 2:0.6619191951842347 3:0.6441790427529447 4:0.024357552244715874 5:0.14891190338081636 6:0.746682212966518 7:0.27151377349418054 8:0.36674469687817063 9:0.7516381857895436 10:0.1981336829006557 11:0.7227616599810139 12:0.7286113471889583 13:0.573011786851833 14:0.3868920218309404 15:0.5436923275829595 16:0.5841227480516792 17:0.7935831557839332 18:0.2287243423120868 19:0.8278838021916509 
0.0 0.5 0:0.1634330945873012 1:0.8262786199451233 2:0.6801200460491478 3:0.6790549023213891 4:0.025742856913392488 5:0.1449734883331321 6:0.7365394839750637 7:0.27517126488537924 8:0.35685240127367424 9:0.7366054220737528 10:0.1852036265670062 11:0.7325442407862004 12:0.7847742666563665 13:0.5425941047041453 14:0.4000938193314181 15:0.5330643379855572 16:0.5681707315028872 17:0.7528094581610063 18:0.23028341984935766 19:0.7945070291126558 
0.5 0.0 0:0.1696524378404341 1:0.8130238555770479 2:0.7050619527899541 3:0.6620206283192086 4:0.01722579858004726 5:0.13820889582067417 6:0.820968311413187 7:0.2746294143089051 8:0.3369762147350101 9:0.7501534683855137 10:0.18151616605703913 11:0.75446446814597 12:0.7028936466920969 13:0.5870236358041231 14:0.3835182291363731 15:0.523551631247141 16:0.6338250959097214 17:0.7990574022240475 18:0.21091043785845426 19:0.8749615345901088 
0.5 0.0 0:0.12913247422153615 1:0.6123563545340757 2:0.512386714548964 3:0.5062142453424782 4:0.013689348154073647 5:0.11252017610196868 6:0.5869839506108723 7:0.21363935089227015 8:0.28809124849339984 9:0.5534611634709131 10:0.9847374629159669 11:0.5844628215390602 12:0.5976646472542497 13:0.42584388351963615 14:0.3059727689162466 15:0.42282499490661785 16:0.4524404153645884 17:0.609501903280423 18:0.18381679520912628 19:0.6594728948910982 
0.0 0.5 0:0.1627061583629085 1:0.775904946117711 2:0.6589940584380856 3:0.6282980709851687 4:0.024159651577761888 5:0.1394409529090038 6:0.7384714323543862 7:0.27795792499295857 8:0.3527306114384664 9:0.7233622730860297 10:0.2544717854972709 11:0.7249743865917089 12:0.7720099667774076 13:0.5437709793110481 14:0.379913928866401 15:0.5094465833246615 16:0.5939028534357583 17:0.744557638403983 18:0.2261630006437125 19:0.8021889848213111 
0.0 0.5 0:0.16189329587085774 1:0.775217087122926 2:0.6807009242682392 3:0.6570719801997886 4:0.021896425865258293 5:0.1467332056948631 6:0.7203542781376345 7:0.2702297605589718 8:0.3670604084400156 9:0.7610203361937236 10:0.1919437623153975 11:0.7282773704350007 12:0.769674371480408 13:0.5731735830334684 14:0.3683533274685666 15:0.536456249559195 16:0.6002444669041812 17:0.7496646782911515 18:0.2350269961861602 19:0.8688354457566576 
0.0 0.5 0:0.1686394387499616 1:0.7354932301740809 2:0.6584117395488073 3:0.6511723791768244 4:0.022741363464593035 5:0.13566077775162844 6:0.7916905728660951 7:0.2695326323239473 8:0.37045430772985605 9:0.7631215469613266 10:0.19953443900346746 11:0.752517009930122 12:0.7216973514211887 13:0.5987559188778699 14:0.38667199187259854 15:0.5284883980200079 16:0.5627703092337633 17:0.7386873180988972 18:0.2483102538740522 19:0.82069852465381 
0.0 0.5 0:0.1608117185054019 1:0.7766397045894152 2:0.6736049687509112 3:0.6380361356698656 4:0.02556182278055403 5:0.14159450724108466 6:0.7743442011250294 7:0.2671497212660453 8:0.3607868370254621 9:0.7443495730788565 10:0.19237393053384802 11:0.7110892624293699 12:0.8169170945333746 13:0.556333909992447 14:0.3987136314109132 15:0.5313735214586973 16:0.578684560591863 17:0.7557053173671793 18:0.2342165472729273 19:0.8197924632634093 
0.0 0.5 0:0.16762643965948915 1:0.7779255319148936 2:0.6543355073238524 3:0.6980368154719216 4:0.019018357167524563 5:0.14183506384200845 6:0.7235441124547614 7:0.29246815125625625 8:0.3837470799483977 9:0.7361878453038685 10:0.19026789863101867 11:0.7262263240161827 12:0.6988279808047246 13:0.5306329849012772 14:0.3937679580291052 15:0.5380093053676811 16:0.6342220500252292 17:0.7843453649162376 18:0.24132688573835942 19:0.7957818364177547 
0.0 0.5 0:0.16744225800667623 1:0.7663530859855815 2:0.6558177735874733 3:0.6721193620663005 4:0.02285418183723151 5:0.14063228083738905 6:0.7743442011250294 7:0.26357535467919196 8:0.3632037047015606 9:0.7933199397287813 10:0.1911103113921505 11:0.6967488882944939 12:0.7570409241920877 13:0.5600497063911701 14:0.3935529287516355 15:0.5244492252058441 16:0.5825819282713977 17:0.7905714622095122 18:0.23878747914356246 19:0.8197924632634088 
0.0 0.5 0:0.15970662858852291 1:0.7560664673817483 2:0.6780517675417709 3:0.6508173455685287 4:0.023869547190977447 5:0.150254544874345 6:0.7396514576428954 7:0.2760856377331786 8:0.3752880430820534 9:0.7394525364138641 10:0.18731945396705776 11:0.7397700106991216 12:0.7869790093627316 13:0.5563339099924468 14:0.38839222609235796 15:0.5244492252058439 16:0.6059661343486045 17:0.7557053173671795 18:0.23421654727292726 19:0.8034833582361721 
0.0 0.5 0:0.16810060944651878 1:0.7800321000864229 2:0.68070092426824 3:0.6371296668827258 4:0.02411438706351187 5:0.14222916720947942 6:0.7342735551578221 7:0.270229760558972 8:0.371585607493136 9:0.7151757376278364 10:0.19312672491613564 11:0.741702401539991 12:0.7603319902924057 13:0.5349087860764034 14:0.3852628638415189 15:0.6077617684183628 16:0.5965958673744036 17:0.7683164761399368 18:0.22361587548783704 19:0.7975843202475968 
0.5 0.5 0:0.16013905507773668 1:0.7576318223866801 2:0.6656780665585104 3:0.6836039274824904 4:0.020043532814543574 5:0.13987923408667097 6:0.7502101187026762 7:0.2624098003573923 8:0.40744289129449485 9:0.7307230362719218 10:0.187649093743153 11:0.7487067655947698 12:0.7386007992681417 13:0.6353349725566065 14:0.3813243072329129 15:0.5116543299560075 16:0.5647895975604802 17:0.7992338584436322 18:0.22845319839256142 19:0.8514652179539843 
0.0 0.5 0:0.16682546363446474 1:0.8104898565066813 2:0.6482685570355496 3:0.6528980076450557 4:0.021933269074531768 5:0.1390658657616057 6:0.7568249419579725 7:0.264198790711783 8:0.36427162297704646 9:0.7566491070281406 10:0.19166865473383096 11:0.7080877887732341 12:0.7796685467047841 13:0.5996272587310598 14:0.39217274083113157 15:0.5295216747864231 16:0.5681707315028872 17:0.7630028825667381 18:0.2334015749238994 19:0.8556977797574802 
0.0 0.5 0:0.16965243784043385 1:0.7866814037026791 2:0.6776282628950209 3:0.6595410285152337 4:0.02345050752117744 5:0.14548923316080464 6:0.748855654893256 7:0.27234106321361734 8:0.3552625680515219 9:0.7336227308602997 10:0.1949011688172428 11:0.7249743865917089 12:0.7406462585034005 13:0.5710201529016852 14:0.3961332800812736 15:0.5203276202934305 16:0.5939028534357585 17:0.7654298883776242 18:0.22775919907472789 19:0.8306651999482314 
0.0 0.5 0:0.16965243784043385 1:0.7812931749101953 2:0.6822868140092547 3:0.6461511895737774 4:0.027705371860684228 5:0.1404489996176372 6:0.7384714323543861 7:0.2685964886940568 8:0.3628584378906888 9:0.7387529597474348 10:0.19490116881724284 11:0.6999356381022426 12:0.7563281126404046 13:0.5710201529016852 14:0.3826171540688798 15:0.5239546326163537 16:0.6265665063689998 17:0.7706479508710345 18:0.22297060378168154 19:0.8078842278466947 
0.0 0.5 0:0.16594383100073812 1:0.7978231649345954 2:0.6985522636623422 3:0.6566663738272376 4:0.019544205514568126 5:0.14125201987705716 6:0.7884565035584377 7:0.28075048904144434 8:0.37315792241837253 9:0.7121453319599214 10:0.189718188608924 11:0.7439019829074742 12:0.7478227002271142 13:0.526418600002725 14:0.3720791575168438 15:0.564527990804984 16:0.6122415568834475 17:0.7502179095832755 18:0.23744460650360125 19:0.8124211163584414 
0.20551011057007879 0.5 0:0.15701020919133807 1:0.8056479690522249 2:0.6673794504437079 3:0.6213353547356131 4:0.02849961320405893 5:0.13347331639389395 6:0.7644319887015626 7:0.2572129821545932 8:0.35982008995502285 9:0.7239779005524876 10:0.25494835043071123 11:0.7181638470025754 12:0.7237098560354385 13:0.5651031894934337 14:0.3984039892513566 15:0.5104621467750812 16:0.6123578173430412 17:0.700517190959602 18:0.2357401912298057 19:0.7541211336870709 
0.0 0.5 0:0.17361020172879182 1:0.7525977238990612 2:0.6801200460491478 3:0.6572574900911113 4:0.024703878411885014 5:0.1390658657616057 6:0.746682212966518 7:0.27151377349418054 8:0.35685240127367424 9:0.7516381857895434 10:0.19037564910046598 11:0.7374355311887937 12:0.7337170671405407 13:0.5654073663149111 14:0.3948131003312271 15:0.5578629803794959 16:0.5881107521888774 17:0.7630028825667381 18:0.22560618723754497 19:0.8278838021916509 
0.0 0.5 0:0.17134862236401607 1:0.7631235661913558 2:0.680120046049148 3:0.6616169725371667 4:0.02366489991037756 5:0.1420196770473689 6:0.772039035445154 7:0.26237004501618355 8:0.36427162297704646 9:0.7315945008351559 10:0.191668654733831 11:0.7227616599810139 12:0.7439285070437059 13:0.5540007355095282 14:0.39745345983132263 15:0.5507776539812278 16:0.6000747646004717 17:0.7426160337552746 18:0.24119696261025397 19:0.8000698246258214 
0.5 0.5 0:0.16244888875263006 1:0.720825274016764 2:0.6253489670575099 3:0.665492068044771 4:0.04232161880473075 5:0.137424859491737 6:0.699819048459705 7:0.2746294143089052 8:0.3665157085539917 9:0.7701043585021503 10:0.17224962568459046 11:0.8050983817579999 12:0.759812969115295 13:0.5537190903044565 14:0.3709031781914724 15:0.5348356695851234 16:0.5703124374284188 17:0.7584724717197455 18:0.22953275288696778 19:0.7907984987705442 
0.0 0.5 0:0.16770747958672713 1:0.814700193423598 2:0.6947717309954027 3:0.6250845096392206 4:0.02194712212121849 5:0.13432007562914602 6:0.7862388560331889 7:0.2760856377331786 8:0.35982008995502285 9:0.7325966850828745 10:0.19378918397254927 11:0.7013378080176546 12:0.7764008859357704 13:0.5716429911551867 14:0.39159186174111027 15:0.4952286950188044 16:0.5917797159950993 17:0.7618816058821068 18:0.23842180459391157 19:0.8689372330788141 
0.0 0.5 0:0.1634330945873012 1:0.7789123296297975 2:0.6983208969140616 3:0.6267411129687221 4:0.024357552244715874 5:0.1400504695235268 6:0.7618963064536993 7:0.2678562821029817 8:0.3692177707792945 9:0.7466272645509467 10:0.1890826434671011 11:0.7423268215913871 12:0.7745628267532015 13:0.5692095765833721 14:0.37633058383055823 15:0.554320317180362 16:0.6000747646004717 17:0.7528094581610063 18:0.22872434231208671 19:0.8167582111653192 
0.0 0.5 0:0.16230230490491337 1:0.8315415410912704 2:0.6983208969140613 3:0.6398195603068889 4:0.02262592140887008 5:0.14103507328544784 6:0.772039035445154 7:0.27151377349418054 8:0.35437932737255023 9:0.7466272645509467 10:0.19425466600056085 11:0.7374355311887937 12:0.7388227870921232 13:0.573011786851833 14:0.39217274083113146 15:0.5259790115872889 16:0.6200147852864621 17:0.722229184943811 18:0.22716526477481588 19:0.8223210066784848 
0.0 0.5 0:0.16302189833916 1:0.7612097766836651 2:0.6691581699600518 3:0.6422965389694199 4:0.024546457426808093 5:0.14544341285586698 6:0.7495636700663625 7:0.2564266215054853 8:0.38253864611034893 9:0.754143646408841 10:0.18731945396705776 11:0.7541103848339977 12:0.752051243330314 13:0.5489023171950003 14:0.3832315234330804 15:0.5313735214586973 16:0.6176582373872085 17:0.775628828705655 18:0.22507468353165688 19:0.8632834100027058 
0.0 0.5 0:0.15307608908724865 1:0.725206611570248 2:0.6246901820514561 3:0.5954321026743221 4:0.020484996011824293 5:0.13293446960782426 6:0.7000026079490282 7:0.6621172291133365 8:0.33178442491227955 9:0.6757910597689611 10:0.17594688169177955 11:0.663288015313117 12:0.6871853921272526 13:0.5154601496064909 14:0.35742801013669184 15:0.48636559581515215 16:0.5747871929123286 17:0.7208391725248464 18:0.2144091758335081 19:0.7763015165241118 
0.0 0.5 0:0.1802228631323206 1:0.7871499453368107 2:0.6529176874195222 3:0.6550777488680833 4:0.022957189916597117 5:0.1444811864521716 6:0.7359882487037891 7:0.2743761580612057 8:0.37045430772985666 9:0.7635118904636102 10:0.18523173538512291 11:0.6984115403681034 12:0.7242825846213119 13:0.5713586519525021 14:0.38132430723291294 15:0.508342710008991 16:0.6430758526885203 17:0.7849409046573339 18:0.2342827926623569 19:0.7942651684381702 
0.5 0.0 0:0.16591213350638168 1:0.774661508704061 2:0.6718946615236566 3:0.6298430524014905 4:0.025509752762413122 5:0.1330825044391619 6:0.7895937586995918 7:0.26096331755802965 8:0.3622741402107528 9:0.7209944751381218 10:0.17672449347128555 11:0.7430793278071686 12:0.8184523809523799 13:0.5717687565717579 14:0.41141689949528837 15:0.5787783188820748 16:0.5657932674980173 17:0.7875063066189755 18:0.22929400525839663 19:0.7892651641098626 
0.5 0.0 0:0.15818452360867075 1:0.7429655851976217 2:0.6887912061310164 3:0.6285507094557637 4:0.020868152749086964 5:0.14008762438246702 6:0.7623747370665037 7:0.25605569667100053 8:0.3734639920057528 9:0.719587198999272 10:0.20801419764618043 11:0.6853848182253476 12:0.7947930378821132 13:0.585709734352165 14:0.41648397547352073 15:0.5132788982319022 16:0.6586909008811758 17:0.7106894592014729 18:0.2363726472119062 19:0.8554878629456625 
0.5 0.5 0:0.171946020686787 1:0.7942045910733195 2:0.6555660679955378 3:0.6462354023973104 4:0.04671846062307165 5:0.13689230651359124 6:0.7500312272561488 7:0.23973500395367042 8:0.3413606930628591 9:0.756176378609405 10:0.18598430921356612 11:0.7171320615931231 12:0.7202302597212652 13:0.5055046196325537 14:0.4229105108605456 15:0.5017819535101843 16:0.5842732387738375 17:0.7768505534575431 18:0.20980949596368692 19:0.8374350171293504 
0.0 0.5 0:0.16965243784043377 1:0.7812931749101953 2:0.6776282628950211 3:0.6372246302794731 4:0.023805079549469668 5:0.14044899961763727 6:0.7488556548932559 7:0.26485191417449616 8:0.3628584378906888 9:0.7746645619573798 10:0.19092979437190757 11:0.7450053853832815 12:0.7667826820650732 13:0.5671274138173085 14:0.39072682967631606 15:0.5239546326163537 16:0.5816539835857931 17:0.7602118258842141 18:0.224566802212697 19:0.8591414150751517 
0.0 0.5 0:0.1656946739520769 1:0.7631235661913558 2:0.6755698333329198 3:0.6441790427529444 4:0.024357552244715874 5:0.14103507328544784 6:0.746682212966518 7:0.2696850277985811 8:0.3593254751747984 9:0.7315945008351559 10:0.19942668853402065 11:0.7178703695784205 12:0.7643513868500363 13:0.5768139971202941 14:0.39745345983132263 15:0.5259790115872891 16:0.5721587356400852 17:0.7528094581610063 18:0.24743327275933755 19:0.8278838021916509 
0.0 0.5 0:0.1696524378404341 1:0.812642869702832 2:0.6736049687509112 3:0.6635985554671914 4:0.022177271601400875 5:0.1367833752226067 6:0.7594758824898291 7:0.27251127114632534 8:0.35353623399716644 9:0.759040683073834 10:0.1898466922504528 11:0.7684507589688737 12:0.7670202859156354 13:0.5451865207962769 14:0.38581187476271905 15:0.510600632700138 16:0.5786845605918635 17:0.8154758513826063 18:0.23116925935917043 19:0.8089197265785848 
0.5 0.5 0:0.16154844511665442 1:0.7845261121856864 2:0.7021632987633191 3:0.6654920680447703 4:0.02307229735766575 5:0.14118823387063514 6:0.7183952687792373 7:0.25074735015081795 8:0.37872536599917067 9:0.7613259668508295 10:0.18687016716112054 11:0.7233051366924111 12:0.7549341700504485 13:0.5912623961404442 14:0.4150558564986251 15:0.522987429330241 16:0.6001633869146301 17:0.7243811300961304 18:0.24393400984235122 19:0.8067451792416183 
0.0 0.5 0:0.16567411413966937 1:0.7776683664497972 2:0.6602645723783317 3:0.6976817818636251 4:0.0272540983701305 5:0.14178695252182363 6:0.7664144311862545 7:0.2524948182599463 8:0.36948756065941635 9:0.6699146157709697 10:0.199450197727354 11:0.7177814370256437 12:0.7740058391221177 13:0.6031529446163586 14:0.37858689103973 15:0.569457150849388 16:0.572448772304607 17:0.7766250042725775 18:0.21928483649551853 19:0.7849997058719702 
0.5 0.5 0:0.1625614442071269 1:0.7826402321083171 2:0.719555222923126 3:0.6511723791768244 4:0.022120862415081616 5:0.13654281862168266 6:0.7462595992585394 7:0.2564266215054851 8:0.36380792162058506 9:0.6823204419889505 10:0.19142621617757474 11:0.7218445430305259 12:0.7491405961609452 13:0.5919436254802108 14:0.4292477888116394 15:0.5348356695851234 16:0.6163591148273627 17:0.766082146189301 18:0.2315501703483897 19:0.8306651999482325 
0.0 0.5 0:0.1656946739520769 1:0.8104898565066813 2:0.6846702587653763 3:0.6311005954147779 4:0.021933269074531768 5:0.14300428080928998 6:0.7365394839750637 7:0.27334251918977986 8:0.349433179570302 9:0.7666709495053345 10:0.19037564910046598 11:0.7031964983706406 12:0.754139946946871 13:0.573011786851833 14:0.39745345983132263 15:0.5436923275829595 16:0.5841227480516794 17:0.7884864435810672 18:0.2380788075357122 19:0.8167582111653192 
0.5 0.5 0:0.16292784813346795 1:0.8089221778674016 2:0.6557231608472416 3:0.6570719801997882 4:0.02379753546376138 5:0.1377251287240958 6:0.7667518682049257 7:0.2668835450308539 8:0.3828986051259377 9:0.8022804749030218 10:0.17656524850580158 11:0.7103773289616802 12:0.7696743714804078 13:0.5731735830334684 14:0.41425064048086613 15:0.542938569455483 16:0.6221360640828429 17:0.7356758299045616 18:0.2150575349640945 19:0.7924949541398066 
0.0 0.5 0:0.1602253442637925 1:0.7759049461177125 2:0.6569975365319866 3:0.6302109051196634 4:0.020816543882435232 5:0.18379500808887675 6:0.6910007007481248 7:0.2768880465587985 8:0.35200719526330804 9:0.7563423159318989 10:0.2068152921532486 11:0.685627781822549 12:0.7204838746129685 13:0.5865911092391927 14:0.3602190023911992 15:0.5581521773753428 16:0.5758211884191435 17:0.777356888362563 18:0.21863806518321152 19:0.8623958396610865 
0.5 0.5 0:0.1615484451166545 1:0.7637814313346231 2:0.7032502940233077 3:0.6511723791768244 4:0.0202593592665474 5:0.13125057340135687 6:0.741716501897784 7:0.2760856377331785 8:0.3837470799483977 9:0.7945441988950287 10:0.18447631089823802 11:0.752517009930122 12:0.7354189737910666 13:0.5442575716965958 14:0.37248005955958474 15:0.6078292925839494 16:0.6377946370648024 17:0.7204240993719611 18:0.23853353848408254 19:0.7907984987705436 
0.0 0.5 0:0.17312557757919658 1:0.7651284885327428 2:0.6822868140092547 3:0.6506144692209294 4:0.024514223606054132 5:0.13944095290900377 6:0.7592398774321255 7:0.27046877595383706 8:0.3603264812776331 9:0.7079715864246251 10:0.18960600289012913 11:0.7450053853832813 12:0.7615553973527389 13:0.559341935648555 14:0.3880236044738373 15:0.5348356695851229 16:0.606151723285724 17:0.7549937633908037 18:0.23414399279878967 19:0.8306651999482314 
0.0 0.5 0:0.16753835278205703 1:0.7871499453368108 2:0.6614246068455141 3:0.6428522437476236 4:0.021662231204573293 5:0.139879234086671 6:0.792875728699337 7:0.2658287597013391 8:0.3843250265665959 9:0.7213547922171532 10:0.18644041456413799 11:0.7121284199753765 12:0.7386007992681414 13:0.5855756120867478 14:0.408474090788243 15:0.5315240496381075 16:0.5908850159364932 17:0.8087624943011638 18:0.22845319839256134 19:0.8046651774410457 
0.5 0.5 0:0.15794667057275263 1:0.8172147001934243 2:0.657958824857146 3:0.6620206283192082 4:0.0243960329299568 5:0.13193660518917705 6:0.7927001500573748 7:0.27026074403608435 8:0.37045430772985605 9:0.7381829343155326 10:0.18048655046010056 11:0.6570915573536031 12:0.7516816373405525 13:0.6082174374857298 14:0.38982575460882385 15:0.557403746261089 16:0.5988931337450044 17:0.7787649369718961 18:0.22953275288696778 19:0.8572430007333588 
0.0 0.5 0:0.22638038690689077 1:0.7644100580270784 2:0.6499875262839008 3:0.623834791338017 4:0.021417627892301977 5:0.13272064151811405 6:0.7232412392973773 7:0.2717169674603574 8:0.350367451932948 9:0.7565377532228366 10:0.25606033527540506 11:0.6812400392301089 12:0.7256613756613749 13:0.5621966109770982 14:0.39234876479780345 15:0.4959057373190825 16:0.5430019942814576 17:0.7195109384356139 18:0.23350551342638365 19:0.7376428972002912 
0.0 0.5 0:0.17407279750795035 1:0.7509231580798311 2:0.6424773772148945 3:0.6678589587667461 4:0.026577188134299965 5:0.13678337522260667 6:0.7743442011250291 7:0.2564266215054853 8:0.3462856309688709 9:0.7541436464088414 10:0.19616478795894082 11:0.7349898859874965 12:0.7720099667774094 13:0.5451865207962769 14:0.3883922260923579 15:0.5452221139644035 16:0.5864792959509323 17:0.7806097065402737 18:0.22507468353165688 19:0.8632834100027058 
0.0 0.5 0:0.17247941204640393 1:0.7683864873375028 2:0.6619191951842345 3:0.6398195603068889 4:0.02366489991037756 5:0.1390658657616057 6:0.7618963064536995 7:0.27517126488537924 8:0.3593254751747984 9:0.7716818707439314 10:0.18778963783373614 11:0.7227616599810139 12:0.7949857065595317 13:0.5692095765833721 14:0.39745345983132263 15:0.5295216747864231 16:0.5881107521888774 17:0.7426160337552746 18:0.22716526477481588 19:0.8334465977048168 
0.0 0.5 0:0.16915627502061076 1:0.7574310188291953 2:0.6889418870295898 3:0.683770260885489 4:0.020816543882435222 5:0.13281664596655543 6:0.8156113712145633 7:0.2945410407224415 8:0.36285843789068917 9:0.7387529597474362 10:0.19887254326257822 11:0.7285513506616332 12:0.7608086423938353 13:0.556561407731144 14:0.36717015291185884 15:0.5457167065538924 16:0.5723215113191534 17:0.7415758884077495 18:0.23368793610421423 19:0.8038161971142789 
0.0 0.5 0:0.1661792981016711 1:0.7866814037026794 2:0.6962624673519562 3:0.6372246302794728 4:0.024868795634346366 5:0.14145704632627074 6:0.7800083225098657 7:0.2648519141744962 8:0.3653903945037444 9:0.7336227308602998 10:0.198872543262578 11:0.7149588871959222 12:0.7563281126404042 13:0.5593419356485549 14:0.39072682967631606 15:0.5348356695851226 16:0.5898198968191034 17:0.744557638403983 18:0.23414399279878964 19:0.8078842278466951 
0.0 0.5 0:0.17775643056421359 1:0.796784332688588 2:0.715478990698171 3:0.670699227633115 4:0.022741363464593045 5:0.1356607777516284 6:0.7417165018977836 7:0.29410640260856397 8:0.3416533012563485 9:0.7361878453038678 10:0.20185107409657974 11:0.6780267331739611 12:0.7354189737910668 13:0.5612883051907439 14:0.3795760257160916 15:0.5697456631932574 16:0.5556251351546171 17:0.7478189274623651 18:0.2273601494669742 19:0.8306651999482322 
0.5 0.5 0:0.16331018266530253 1:0.7920696324951656 2:0.6486642277065263 3:0.6958294326029505 4:0.024575888306626867 5:0.13895884361357075 6:0.745469495369714 7:0.27950459707712555 8:0.37970145362101637 9:0.7260389142445374 10:0.19369248963822833 11:0.7121284199753765 12:0.8197373489335081 13:0.5535874517846953 14:0.3961332800812749 15:0.5348356695851242 16:0.5834291821147753 17:0.7372977253696752 18:0.23574019122980577 19:0.7526651324266693 
0.0 0.5 0:0.16431566214428675 1:0.7837901589847629 2:0.6797871036552772 3:0.6436473985522057 4:0.023952097219737317 5:0.14189960341786625 6:0.7404976221180698 7:0.27129075572642436 8:0.3665637402512589 9:0.7410052553564228 10:0.19422312927779578 11:0.7375548309547103 12:0.7800421359695335 13:0.5569683142556437 14:0.3975178588435199 15:0.5292624555279495 16:0.5874298734337459 17:0.767975284715875 18:0.2300172358795796 19:0.8160798214685911 
0.5 0.5 0:0.15860153867164364 1:0.7694390715667311 2:0.7065112798032704 3:0.5681655215571737 4:0.02265110876648226 5:0.13870782802999768 6:0.7267655814923877 7:0.26679228460735954 8:0.36948756065941624 9:0.6816675037669513 10:0.19540661647392182 11:0.7674947340265469 12:0.7540471156750218 13:0.5793718476645299 14:0.41367966912281773 15:0.5500691213413993 16:0.5755666664482348 17:0.8244414314849186 18:0.24000639430906476 19:0.858934315328774 
0.0 0.5 0:0.16456388426968907 1:0.8104898565066813 2:0.6664694079004629 3:0.6528980076450557 4:0.0233185737432084 5:0.13611205447584251 6:0.7618963064536995 7:0.2824862476677767 8:0.36427162297704646 9:0.7616600282667373 10:0.18649663220037113 11:0.6983052079680474 12:0.7490342269952887 13:0.5654073663149112 14:0.3816113028307494 15:0.5578629803794959 16:0.5841227480516792 17:0.7782930191753353 18:0.23340157492389949 19:0.8278838021916508 
0.0 0.5 0:0.1634330945873012 1:0.7894381719220921 2:0.6755698333329198 3:0.6616169725371669 4:0.02366489991037756 5:0.13315824319007932 6:0.7923244934280623 7:0.2696850277985811 8:0.35685240127367424 9:0.7566491070281406 10:0.19296166036719595 11:0.7031964983706406 12:0.7847742666563667 13:0.550198525241067 14:0.40009381933141824 15:0.5330643379855572 16:0.6200147852864621 17:0.7528094581610061 18:0.23184249738662854 19:0.8056326201389876 
0.0 0.5 0:0.17296770759107122 1:0.7612097766836649 2:0.6780517675417709 3:0.6721193620663002 4:0.025223367662638732 5:0.1406322808373891 6:0.7644319887015626 7:0.279660004320032 8:0.3607868370254621 9:0.7541436464088414 10:0.19363754967554556 11:0.6871886388712433 12:0.7919686902245053 13:0.5711970955873397 14:0.38581187476271905 15:0.5071384845737116 16:0.5942740313100012 17:0.7606861952017981 18:0.22659832748853523 19:0.7926106215513483 
0.5 0.5 0:0.16154844511665462 1:0.7208252740167636 2:0.6760754125236106 3:0.6689635077703336 4:0.025774924151093274 5:0.1397769684785485 6:0.7321255185806333 7:0.2644358503389898 8:0.35666921061433127 9:0.7541436464088417 10:0.18048655046010065 11:0.7700441338727481 12:0.8004696279890081 13:0.5537190903044564 14:0.3688006697006558 15:0.5235516312471407 16:0.6115956654412659 17:0.7544139786693153 18:0.25808696926402175 19:0.8439541003407957 
0.0 0.5 0:0.17021783268162827 1:0.7578606450452084 2:0.680120046049148 3:0.6398195603068889 4:0.02262592140887008 5:0.14300428080928995 6:0.7466822129665178 7:0.2660275364073823 8:0.3716908446804187 9:0.7315945008351559 10:0.19166865473383096 11:0.7521094023965735 12:0.7898799866079491 13:0.5578029457779892 14:0.389532381331036 15:0.5330643379855572 16:0.5841227480516794 17:0.7680995947696037 18:0.23028341984935766 19:0.8390093932179827 
0.0 0.5 0:0.1707575277573133 1:0.7869263231932486 2:0.6913921639143491 3:0.6721193620663002 4:0.023192636955146836 5:0.13870782802999784 6:0.7396514576428954 7:0.2600009880923385 8:0.387372381462546 9:0.7296584630838788 10:0.1860558348253601 11:0.715869387140995 12:0.7520512433303135 13:0.5786286883847863 14:0.3883922260923579 15:0.5244492252058442 16:0.617658237387208 17:0.790571462209512 18:0.22507468353165688 19:0.7980469898937602 
0.0 0.5 0:0.16431566214428675 1:0.7837901589847629 2:0.6606984064067096 3:0.6619359590576095 4:0.02540497772591037 5:0.14189960341786625 6:0.756453866507065 7:0.26937280292372257 8:0.36397002859886035 9:0.7357498989354553 10:0.19015489204111094 11:0.7221651611514289 12:0.7746873565081177 13:0.5729190500160166 14:0.38090291369657714 15:0.5255469794898333 16:0.5916124143581243 17:0.7733206170261977 18:0.2349226261797734 19:0.8219139728604481 
0.0 0.5 0:0.1634330945873012 1:0.7999640142143868 2:0.6437183443193212 3:0.6572574900911113 4:0.024357552244715863 5:0.14103507328544784 6:0.7568249419579725 7:0.2678562821029818 8:0.3667446968781705 9:0.7265835795965586 10:0.19554767163392583 11:0.7374355311887937 12:0.7643513868500363 13:0.5844184176572161 14:0.3974534598313226 15:0.5118083587907525 16:0.5761467397772833 17:0.7782930191753353 18:0.2380788075357122 19:0.8111954156521533 
0.0 0.5 0:0.16331018266530253 1:0.8215877554452959 2:0.6656780665585104 3:0.63470190700065 4:0.024575888306626884 5:0.13803845314047064 6:0.7833944820334124 7:0.2760856377331789 8:0.37738966714822625 9:0.7447754023540739 10:0.19490116881724337 11:0.7624236452020418 12:0.7576917521305807 13:0.5606959318518181 14:0.3739198208087321 15:0.5348356695851244 16:0.568517514471339 17:0.7563549970847391 18:0.22408100269021472 19:0.8202651909453587 
0.0 0.5 0:0.1715973960941413 1:0.7694390715667316 2:0.6321608040201009 3:0.6588269037716907 4:0.021053600609922073 5:0.15210201956944044 6:0.7426251213699356 7:0.2603584247510241 8:0.3725811512848231 9:0.7541436464088414 10:0.18934124459377388 11:0.7560224347186473 12:0.7544462901439654 13:0.5781827928169395 14:0.389321152571028 15:0.556162502043911 16:0.5677719310891667 17:0.7443489159042481 18:0.23439938454775258 19:0.8354492040895557 
0.37409101861127303 0.0 0:0.1741546560203117 1:0.8507414571244366 2:0.7086852703232469 3:0.6099490324357667 4:0.02218980697613851 5:0.13272064151811416 6:0.768470297466678 7:0.2658920737632636 8:0.3803008056695169 9:0.7900552486187857 10:0.18254578165397803 11:0.7077254709656332 12:0.74355030556581 13:0.5506914043499411 14:0.38772324611800707 15:0.5263726408316369 16:0.6084200325172002 17:0.8193498674761984 18:0.2133934131955894 19:0.81737629955567 
0.45084525370067585 0.5 0:0.16497705742286875 1:0.7833655705996119 2:0.6944707169234047 3:0.6442628789538282 4:0.023791442163766136 5:0.13063992972208846 6:0.7937873870325971 7:0.267012245628089 8:0.37863447524895816 9:0.7251381215469614 10:0.17886292586492755 11:0.7349898859874952 12:0.7424557032115165 13:0.5780570274003658 14:0.3939499058792716 15:0.5787783188820746 16:0.5690910401499311 17:0.7875063066189755 18:0.22026934489842465 19:0.8536652198584358 
0.5 0.5 0:0.1687173617569208 1:0.7398452611218557 2:0.6907080410234464 3:0.633448009039575 4:0.020068435866697695 5:0.12575478028794165 6:0.789593758699592 7:0.27154894168063354 8:0.3745443914894069 9:0.7085635359116023 10:0.18313979065221164 11:0.7754370950858623 12:0.7931201550387591 13:0.5497598086716277 14:0.39176653167726955 15:0.5260471397257324 16:0.605366539320983 17:0.7959354844929458 18:0.2499218003669039 19:0.8490652158763953 
0.0 0.5 0:0.16386387160916266 1:0.7705167173252266 2:0.6636526095523196 3:0.6372246302794728 4:0.02274136346459298 5:0.13843290620037027 6:0.733279321084951 7:0.26672420143427655 8:0.3628584378906889 9:0.7387529597474348 10:0.2624145343879414 11:0.6999356381022429 12:0.735418973791066 13:0.5398782402266712 14:0.3826171540688798 15:0.5203276202934306 16:0.6020687666690688 17:0.7341215134171625 18:0.22775919907472789 19:0.8249699569228471 
0.46056309330773604 0.5 0:0.1652320781729181 1:0.7920696324951653 2:0.6958389627052091 3:0.6252549257712025 4:0.022854181837231483 5:0.1377456016263023 6:0.7396514576428957 7:0.26893690455947195 8:0.37045430772985627 9:0.7688347564038188 10:0.17594688169177955 11:0.7493302601223722 12:0.7670202859156356 13:0.574912891986063 14:0.3832315234330803 15:0.5382978177115503 16:0.6020687666690705 17:0.8005332178787499 18:0.22964561540229209 19:0.8306651999482334 
0.0 0.5 0:0.16682546363446474 1:0.7736494084836502 2:0.6755698333329198 3:0.6746954198753335 4:0.02470387841188503 5:0.1390658657616057 6:0.7618963064536995 7:0.2605412993205843 8:0.3593254751747983 9:0.7315945008351559 10:0.191668654733831 11:0.7227616599810139 12:0.7439285070437059 13:0.588220627925677 14:0.39745345983132263 15:0.5295216747864231 16:0.60406276873767 17:0.7477127459581405 18:0.23807880753571212 19:0.8111954156521534 
0.0 0.5 0:0.16064800148067918 1:0.7794970986460358 2:0.6978153177233688 3:0.6307776707891432 4:0.019707802778092868 5:0.13977696847854856 6:0.7482787536410976 7:0.3488968089468573 8:0.35666921061433127 9:0.778084714548804 10:0.17636808807234547 11:0.7622543010093593 12:0.8207979574258653 13:0.5325252886228495 14:0.3793132121547396 15:0.5094465833246624 16:0.5734880703524836 17:0.7300630203667333 18:0.2258082898812649 19:0.8350948334124199 
0.0 0.5 0:0.16617929810167117 1:0.7812931749101953 2:0.6822868140092547 3:0.6327613506323209 4:0.02451422360605415 5:0.14750532657807158 6:0.7436635436238213 7:0.27795792499295835 8:0.360326481277633 9:0.7490134175217049 10:0.18695841992657242 11:0.7149588871959222 12:0.7615553973527386 13:0.5671274138173082 14:0.3961332800812737 15:0.5167006079705077 16:0.6020687666690688 17:0.760211825884214 18:0.23414399279878967 19:0.8192747138974633 
0.0 0.5 0:0.16795625331685254 1:0.7947010930682394 2:0.6983208969140613 3:0.6354600778608334 4:0.024011226077546702 5:0.14694269585697423 6:0.7669676709494265 7:0.2696850277985811 8:0.3692177707792945 9:0.7315945008351559 10:0.19037564910046603 11:0.7325442407862004 12:0.7643513868500361 13:0.5616051560464501 14:0.38425166233084496 15:0.5295216747864231 16:0.5761467397772833 17:0.7528094581610063 18:0.2271652647748158 19:0.8278838021916509 
0.0 0.5 0:0.16230230490491337 1:0.7999640142143868 2:0.6755698333329198 3:0.6354600778608334 4:0.02297224757603924 5:0.13611205447584251 6:0.741610848470791 7:0.2843149933633761 8:0.36179854907592246 9:0.7416163433123496 10:0.19296166036719595 11:0.7080877887732341 12:0.7541399469468711 13:0.576813997120294 14:0.4000938193314181 15:0.5436923275829595 16:0.5841227480516794 17:0.7630028825667378 18:0.24431511768479572 19:0.8111954156521534 
0.0 0.5 0:0.1561457833008013 1:0.7744680851063823 2:0.6804233935635619 3:0.6071718806553156 4:0.02373416514381124 5:0.14118823387063517 6:0.7717009444787705 7:0.26822203124210087 8:0.35982008995502207 9:0.7517495395948439 10:0.19057678331010006 11:0.7653702341547135 12:0.7549341700504486 13:0.5803627267041892 14:0.39991779536474414 15:0.5128317948260568 16:0.5887311083879957 17:0.7682128550407766 18:0.24691358024691337 19:0.8333229800267437 
0.0 0.5 0:0.1661792981016712 1:0.7651284885327428 2:0.7148966718088909 3:0.6461511895737772 4:0.023805079549469668 5:0.13742485949173677 6:0.7696240999709961 7:0.2685964886940569 8:0.3679223511167999 9:0.7644041041831098 10:0.1816632539994587 11:0.7149588871959225 12:0.7667826820650736 13:0.5710201529016851 14:0.38261715406887986 15:0.5420896942309688 16:0.5857369402024482 17:0.7497757008973932 18:0.23414399279878975 19:0.8477509290243835 
0.0 0.5 0:0.16191680842228098 1:0.7869263231932481 2:0.6602645723783327 3:0.6635985554671918 4:0.02556182278055403 5:0.14159450724108472 6:0.7842564135484957 7:0.26893690455947195 8:0.3632037047015607 9:0.7247614264188861 10:0.18984669225045292 11:0.715869387140995 12:0.8069377328098271 13:0.5451865207962769 14:0.3806511721034415 15:0.5313735214586973 16:0.6332477081053463 17:0.7457435616979413 18:0.23421654727292726 19:0.7926106215513483 
0.0 0.5 0:0.16965243784043385 1:0.7651284885327428 2:0.6636526095523193 3:0.6818574267509946 4:0.02238679143630074 5:0.13843290620037027 6:0.754047766162691 7:0.27795792499295846 8:0.3679223511167999 9:0.7387529597474349 10:0.19357737733546435 11:0.7349898859874949 12:0.7876918209144116 13:0.5710201529016851 14:0.3853203792713584 15:0.5312086572621995 16:0.5939028534357588 17:0.7549937633908037 18:0.22456680221269704 19:0.8135794708720792 
0.0 0.5 0:0.16733701134792536 1:0.7974578612876475 2:0.6869453651234885 3:0.6282980709851684 4:0.024159651577761888 5:0.14347313974353768 6:0.7540477661626908 7:0.27795792499295846 8:0.3628584378906888 9:0.7336227308602998 10:0.19754875178079961 11:0.7149588871959222 12:0.7563281126404041 13:0.5788056310704383 14:0.39072682967631617 15:0.5167006079705077 16:0.6102346799023795 17:0.7445576384039828 18:0.22775919907472789 19:0.8078842278466949 
0.36940543959483074 0.5 0:0.15582797966457462 1:0.7721014904994868 2:0.7042094074880019 3:0.634861717525098 4:0.019237357537940335 5:0.1465565767346518 6:0.7537423478527241 7:0.2722309286689247 8:0.3589860336589568 9:0.7689307767305815 10:0.1790935411230654 11:0.7452999588949217 12:0.7655527327209947 13:0.5989562804483886 14:0.39056781642911165 15:0.5482769505465434 16:0.607112418960231 17:0.7169326016741637 18:0.24691358024691315 19:0.833010300017507 
0.0 0.5 0:0.1663371680897971 1:0.771496395287498 2:0.6558177735874731 3:0.6422965389694199 4:0.023869547190977464 5:0.14159450724108472 6:0.7495636700663622 7:0.2760856377331787 8:0.3752880430820536 9:0.7149673530889014 10:0.1974284071006383 11:0.6871886388712436 12:0.7620306050538617 13:0.5786286883847864 14:0.38839222609235796 15:0.5140627808265644 16:0.5981713989895359 17:0.765667073036417 18:0.2403111231004408 19:0.8632834100027054 
0.105817773165051 0.5 0:0.16911217165884868 1:0.7644100580270786 2:0.6717274314836584 3:0.6529948850327444 4:0.021748561785374737 5:0.13836570308646143 6:0.7620090034424918 7:0.268222031242101 8:0.3621832494605408 9:0.7325966850828731 10:0.1843990897284675 11:0.7279790364104449 12:0.7988433616340593 13:0.5803627267041894 14:0.4175788666876053 15:0.4992909488204771 16:0.6077849059323868 17:0.7389917050776791 18:0.2528727210560376 19:0.7961140589275685 
0.5 0.5 0:0.16633716808979715 1:0.8280727976085822 2:0.6602645723783327 3:0.6593381521676374 4:0.023531092073062143 5:0.13582114881891108 6:0.7297392452194287 7:0.2653625379726187 8:0.3656205723776592 9:0.7884229030637888 10:0.18352859654196496 11:0.7302097612758713 12:0.7370822007449921 13:0.5674812991886168 14:0.40129398274055217 15:0.5209870770794177 16:0.5981713989895359 17:0.7855905843748925 18:0.229645615402292 19:0.8415379366330571 
0.33747614947088583 0.5 0:0.1651869724620249 1:0.8174712825168758 2:0.6490114489075858 3:0.6455135781956136 4:0.03327721801956228 5:0.13972896625432787 6:0.8022602279503025 7:0.273678411256318 8:0.3389857041104507 9:0.712368925470742 10:0.19433382961076648 11:0.6942124955903664 12:0.7518475828869758 13:0.5231950727222004 14:0.3996088553416044 15:0.5115191617949041 16:0.6003189281190746 17:0.7639390133795073 18:0.2268470856855764 19:0.8428692921454841 
0.0 0.5 0:0.1684947245941796 1:0.7543520309477744 2:0.6636526095523196 3:0.6282980709851687 4:0.02345050752117745 5:0.14347313974353768 6:0.7696240999709959 7:0.28170249951251913 8:0.3729862643429111 9:0.7438831886345697 10:0.19887254326257794 11:0.7349898859874949 12:0.7667826820650732 13:0.559341935648555 14:0.3934300548787949 15:0.5239546326163536 16:0.6061517232857244 17:0.7602118258842138 18:0.22456680221269693 19:0.7964937417959267 
0.0 0.5 0:0.16412698825603902 1:0.7972129417970817 2:0.7136261578686469 3:0.6593381521676374 4:0.023192636955146836 5:0.1435189600484759 6:0.7446075638546287 7:0.27966000432003185 8:0.35595310167326505 9:0.7296584630838788 10:0.1847922156836626 11:0.6824085141596179 12:0.7720099667774097 13:0.5786286883847864 14:0.39355292875163594 15:0.5348356695851236 16:0.5864792959509321 17:0.7407626838633219 18:0.22964561540229209 19:0.8632834100027058 
0.0 0.5 0:0.1653620887513741 1:0.7942883149391271 2:0.6658448689001941 3:0.649564285774541 4:0.019821358525715774 5:0.13493439115276004 6:0.8093284802666745 7:0.2876497649259389 8:0.3694117373597738 9:0.7604809879753007 10:0.1932658969868106 11:0.6875635506133305 12:0.7440286191996172 13:0.5604868589086657 14:0.4261867838029495 15:0.48256402140182025 16:0.6171997235425557 17:0.7298242854814129 18:0.24165551482709755 19:0.8283200998789556 
0.0 0.5 0:0.21293961848696408 1:0.767231211963958 2:0.6654705807188515 3:0.6436473985522057 4:0.023225656966650784 5:0.14293223663158836 6:0.7351788739884048 7:0.2674548501210207 8:0.361376316946462 9:0.7252391860935201 10:0.19286705019890082 11:0.7119053812825746 12:0.7425586797396223 13:0.5569683142556437 14:0.3892103862700485 15:0.5181160274136007 16:0.5748822506606105 17:0.7465939554745841 18:0.22838210577951498 19:0.8219139728604481 
0.0 0.5 0:0.1658705745693368 1:0.7794970986460341 2:0.6673794504437067 3:0.6696577957154451 4:0.02373416514381124 5:0.1374248594917369 6:0.7910848265513273 7:0.2752119036786141 8:0.35509377094398503 9:0.7230202578268882 10:0.1843990897284675 11:0.7139573372563439 12:0.7890857635043674 13:0.5803627267041894 14:0.39991779536474426 15:0.522987429330241 16:0.5772988298613613 17:0.7487320883987115 18:0.24393400984235122 19:0.8173762995556685 
0.0 0.5 0:0.1655016122989862 1:0.7893098079916979 2:0.6654705807188515 3:0.6436473985522057 4:0.024315317346280573 5:0.14086697020414418 6:0.745816370247735 7:0.27129075572642436 8:0.361376316946462 9:0.7462606117773903 10:0.19557920835669074 11:0.7119053812825746 12:0.7746873565081177 13:0.596845153656576 14:0.39474870131902945 15:0.5181160274136007 16:0.5832473325093672 17:0.7572846200952295 18:0.23328749607970878 19:0.8219139728604481 
0.0 0.5 0:0.16733701134792542 1:0.7759049461177111 2:0.6683111606665534 3:0.6550777488680813 4:0.02522336766263862 5:0.13944095290900377 6:0.7488556548932559 7:0.2704687759538371 8:0.37551822095596676 9:0.7592738752959743 10:0.18828221140835077 11:0.7349898859874947 12:0.7772372514897423 13:0.5515564574798015 14:0.3934300548787949 15:0.5312086572621997 16:0.5939028534357585 17:0.7758660133644447 18:0.22775919907472789 19:0.7907984987705428 
0.0 0.5 0:0.16302189833915995 1:0.8126428697028321 2:0.7180729566595067 3:0.6593381521676374 4:0.02556182278055404 5:0.13967005443369349 6:0.7049587141607615 7:0.26893690455947206 8:0.3656205723776592 9:0.7198643897538936 10:0.18984669225045284 11:0.7206495118526205 12:0.7520512433303137 13:0.5674812991886167 14:0.3909725774219968 15:0.5382978177115504 16:0.5981713989895359 17:0.7855905843748925 18:0.2220273956179 19:0.8306651999482331 
0.0 0.5 0:0.16560044147854425 1:0.7826402321083171 2:0.6135731850743067 3:0.6667938579418566 4:0.021190110840814496 5:0.1462452681922799 6:0.7644319887015618 7:0.28427689449471727 8:0.36380792162058506 9:0.7496546961325973 10:0.1786847231654575 11:0.7218445430305265 12:0.7079757290513103 13:0.6055682122755294 14:0.38667199187259854 15:0.5538774842804696 16:0.6235042889065091 17:0.7478189274623647 18:0.24970692750119036 19:0.7907984987705438 
0.0 0.5 0:0.16682546363446474 1:0.7683864873375031 2:0.6482685570355494 3:0.6572574900911111 4:0.02366489991037756 5:0.13808126199968465 6:0.7314681194793365 7:0.26237004501618366 8:0.37663699248266674 9:0.7716818707439314 10:0.1981336829006557 11:0.7276529503836069 12:0.7643513868500363 13:0.5768139971202941 14:0.38953238133103596 15:0.5401496643838255 16:0.5721587356400852 17:0.7833897313782012 18:0.23496065246117032 19:0.8167582111653192 
0.5 0.0 0:0.13938650583121673 1:0.6742983460308697 2:0.6370323174709852 3:0.6225595685816885 4:0.031757623612595515 5:0.1310885658946124 6:0.7978098468622151 7:0.2961458583736816 8:0.34983694673783194 9:0.9850039463299136 10:0.1750442965905671 11:0.7113819231259998 12:0.8638608267227154 13:0.5632346747329326 14:0.3718042532589653 15:0.5923497221343308 16:0.5373247403192525 17:0.7639390133795079 18:0.2131653848483014 19:0.7989345602353785 
0.0 0.5 0:0.17474099141117966 1:0.8052269353605338 2:0.652818769751778 3:0.6572574900911111 4:0.0233185737432084 5:0.13512745071392143 6:0.7263967549836093 7:0.2770000105809787 8:0.36674469687817063 9:0.7416163433123497 10:0.191668654733831 11:0.7325442407862004 12:0.7439285070437057 13:0.5501985252410672 14:0.39217274083113157 15:0.5507776539812278 16:0.6120387770120661 17:0.7680995947696039 18:0.2224880321630032 19:0.8390093932179824 
0.5 0.5 0:0.1480417905770219 1:0.8549323017408128 2:0.6543355073238527 3:0.6411919899658315 4:0.03239360201254827 5:0.1311525688602399 6:0.711933974755053 7:0.2644358503389899 8:0.36060780979019524 9:0.7182320441988964 10:0.18975309083254926 11:0.6843559723754654 12:0.8411262868627215 13:0.5900513217586387 14:0.40874833102617547 15:0.5404776887541147 16:0.6084200325172004 17:0.7381800064675943 18:0.2220838268755623 19:0.8262355664840452 
0.0 0.5 0:0.16412698825603902 1:0.7457798487779148 2:0.6958389627052091 3:0.6337757323703112 4:0.023869547190977447 5:0.1444811864521715 6:0.7594758824898289 7:0.2760856377331788 8:0.351119366321068 9:0.7394525364138639 10:0.18605583482536017 11:0.725429636564246 12:0.7769996476391835 13:0.5563339099924467 14:0.38581187476271905 15:0.5521464102172564 16:0.6176582373872083 17:0.7905714622095115 18:0.24335841101419753 19:0.7654287798392878 
0.0 0.5 0:0.17370443420232382 1:0.7402079303675042 2:0.6787929006735803 3:0.6082133125729845 4:0.020879860316058808 5:0.14624526819227981 6:0.7780612807838287 7:0.27936214043779406 8:0.37045430772985605 9:0.7451657458563544 10:0.18215967580512576 11:0.7700441338727475 12:0.721697351421189 13:0.5578821584919145 14:0.4032292462377808 15:0.5380093053676811 16:0.5984961796294965 17:0.8026085836431736 18:0.23155017034838984 19:0.8007651740649658 
0.5 0.5 0:0.15830684802714257 1:0.7996131528046415 2:0.6760754125236099 3:0.628000519008692 4:0.024065099036884 5:0.1411882338706352 6:0.7620090034424918 7:0.26123215880558776 8:0.36690956847157796 9:0.7182320441988951 10:0.20046109304071213 11:0.7373268358465117 12:0.7451765719207573 13:0.5585633878316796 14:0.38982575460882346 15:0.48913531431629265 16:0.6230279439678991 17:0.7730830467012926 18:0.24095443943778908 19:0.8811630214399705 
0.0 0.5 0:0.1714313630724834 1:0.7837901589847629 2:0.6702427550309935 3:0.6482195386785566 4:0.023225656966650784 5:0.14189960341786625 6:0.7830476071553905 7:0.27129075572642436 8:0.36915745190365723 9:0.7304945425144878 10:0.19286705019890082 11:0.7067754913481475 12:0.7746873565081177 13:0.560955998195737 14:0.391979543794539 15:0.5329779315660659 16:0.5916124143581243 17:0.7465939554745841 18:0.23165236597964417 19:0.8160798214685911 
0.0 0.5 0:0.16668756245368563 1:0.767231211963958 2:0.6750149293431353 3:0.6390752584258548 4:0.025041757599367106 5:0.14293223663158836 6:0.7351788739884048 7:0.26937280292372257 8:0.3665637402512589 9:0.7462606117773903 10:0.19151097112000587 11:0.7221651611514289 12:0.7532682386624542 13:0.5689313660759234 14:0.3975178588435199 15:0.5144005513754846 16:0.5916124143581243 17:0.767975284715875 18:0.24146314658003182 19:0.8335822756441619 
0.5 0.0 0:0.21569001352658596 1:0.7270669574879618 2:0.6598861214174073 3:0.6291527415559001 4:0.019361613067254254 5:0.1269154363591751 6:0.752832591184739 7:0.26186422173867674 8:0.37611080654625656 9:0.7380980369107796 10:0.17774821110653977 11:0.7461774119083205 12:0.7743455620744092 13:0.5523018756023426 14:0.3997567521611924 15:0.5072858100258991 16:0.5637584716064111 17:0.7729794256021336 18:0.24073255653532175 19:0.9146397407267679 
0.0 0.5 0:0.17120426623434915 1:0.8041071649039055 2:0.664049081987574 3:0.6371296668827255 4:0.02189642586525832 5:0.1449315903007096 6:0.7203542781376349 7:0.27692219161520787 8:0.3874238041790584 9:0.7105912777712476 10:0.19312672491613572 11:0.7506524222766506 12:0.7603319902924057 13:0.576652200938656 14:0.3925098080013558 15:0.5137681299221873 16:0.6002444669041812 17:0.7263499309801688 18:0.23930616644803138 19:0.8077630524631768 
0.0 0.5 0:0.16795625331685254 1:0.7789123296297976 2:0.6710196206166913 3:0.6311005954147779 4:0.02366489991037756 5:0.13414284695200035 6:0.7517535774622452 7:0.27517126488537924 8:0.36427162297704646 9:0.7566491070281406 10:0.19425466600056085 11:0.7472181119939806 12:0.7643513868500361 13:0.5730117868518331 14:0.389532381331036 15:0.5118083587907525 16:0.5960867604632735 17:0.7833897313782016 18:0.22404710970027406 19:0.8612605752706459 
0.4944900917996008 0.5 0:0.1705207227751247 1:0.6385051119093664 2:0.5471888316964758 3:0.5144844399827898 4:0.011926916601679926 5:0.1565777469557728 6:0.6047745671664363 7:0.3519132717542812 8:0.3077883815567296 9:0.9888516179952657 10:0.17405145297923305 11:0.584757395050701 12:0.6583165242841313 13:0.4902458169008684 14:0.572518724543014 15:1.0 16:0.5224511126442936 17:0.7080312009501115 18:0.2010228753552193 19:0.7794080127197752 
0.0 0.5 0:0.17223881849695935 1:0.7704020741594297 2:0.6765379636980732 3:0.6371296668827255 4:0.02411438706351188 5:0.1584437057568605 6:0.7435530731712807 7:0.2668835450308539 8:0.364797808913455 9:0.6739155989185376 10:0.1931267249161358 11:0.7506524222766509 12:0.7556607996984045 13:0.5696949651282808 14:0.3683533274685663 15:0.5461797294036271 16:0.5637584716064111 17:0.7636535266777404 18:0.23787977636074104 19:0.8382992491099172 
0.0 0.5 0:0.1615484451166544 1:0.8147001934235975 2:0.6543355073238522 3:0.6196690636673418 4:0.024065099036884 5:0.15247835700733006 6:0.7183952687792378 7:0.2839492442242554 8:0.34800429242742936 9:0.6990791896869248 10:0.1967544768917326 11:0.7420007355645457 12:0.7549341700504487 13:0.5694630572679348 14:0.41505585649862525 15:0.5094465833246616 16:0.6039741464235084 17:0.7828234300223256 18:0.2305259430218214 19:0.8173762995556688 
0.0 0.5 0:0.16154844511665428 1:0.7812931749101953 2:0.6822868140092547 3:0.6595410285152337 4:0.023805079549469668 5:0.1404489996176372 6:0.774816211240431 7:0.27046877595383706 8:0.38564604740818925 9:0.7336227308603 10:0.18828221140835075 11:0.7049433878001358 12:0.7720099667774081 13:0.5710201529016854 14:0.39343005487879473 15:0.5420896942309686 16:0.577571026969138 17:0.7549937633908036 18:0.2277591990747278 19:0.8249699569228471 
0.5 0.5 0:0.16673500045987355 1:0.7965957446808517 2:0.6752058163156207 3:0.6588269037716907 4:0.023436324640045875 5:0.12500572404137278 6:0.8036843498984904 7:0.29024012941711785 8:0.3747079948397898 9:0.7498342541436481 10:0.1759974264574476 11:0.6760987495402734 12:0.7851827242524924 13:0.5683730903243099 14:0.39613328008127463 15:0.5622558827464218 16:0.6089281337850507 17:0.7574984333876422 18:0.2236729310913288 19:0.8067451792416199 
0.0 0.5 0:0.1627061583629085 1:0.775904946117711 2:0.6822868140092547 3:0.6372246302794728 4:0.024868795634346366 5:0.14548923316080464 6:0.7384714323543861 7:0.27234106321361745 8:0.3628584378906888 9:0.7541436464088399 10:0.18828221140835077 11:0.7249743865917083 12:0.7667826820650734 13:0.543770979311048 14:0.39883650528375253 15:0.5167006079705077 16:0.6143176365190344 17:0.7758660133644452 18:0.2309515959367588 19:0.8363604429736152 
0.5 0.5 0:0.15908201254854804 1:0.762551509545035 2:0.6614246068455141 3:0.6591529172415703 4:0.0375254754268649 5:0.12975493888256948 6:0.7644319887015628 7:0.2743761580612056 8:0.3612071618386972 9:0.7307230362719216 10:0.1840230562061078 11:0.7121284199753761 12:0.7242825846213119 13:0.5535874517846955 14:0.39119695579848757 15:0.5149659499030244 16:0.5908850159364937 17:0.7658836329422707 18:0.24448458263449918 19:0.8254651954467958 
0.0 0.5 0:0.1668254636344647 1:0.7789123296297975 2:0.6710196206166913 3:0.6703359374292779 4:0.0233185737432084 5:0.14201967704736893 6:0.746682212966518 7:0.2696850277985811 8:0.37416391858154285 9:0.7366054220737528 10:0.1852036265670062 11:0.7423268215913869 12:0.7541399469468711 13:0.592022838194138 14:0.3948131003312271 15:0.5295216747864231 16:0.6080507728748679 17:0.7375193215524087 18:0.22560618723754494 19:0.8167582111653191 
0.0 0.5 0:0.16189329587085777 1:0.7559570352689403 2:0.6390713185665758 3:0.6849912188436764 4:0.02189642586525832 5:0.15033643648316994 6:0.7992301812520302 7:0.26353732950273584 8:0.34895961222753286 9:0.7243446573410135 10:0.20259042572204092 11:0.741702401539991 12:0.727633656134398 13:0.5696949651282808 14:0.39250980800135565 15:0.5396974095073391 16:0.5820014692552961 17:0.7962941729131155 18:0.23787977636074092 19:0.7975843202475968 
0.0 0.5 0:0.17312557757919667 1:0.8122754904669794 2:0.6834514517878132 3:0.7153320241046358 4:0.02070257430191268 5:0.1414570463262708 6:0.7332793210849519 7:0.25783083695032033 8:0.38564604740818925 9:0.8003157063930553 10:0.1829870454812373 11:0.7425015105343357 12:0.7092825502293939 13:0.5515564574798018 14:0.3636945776515286 15:0.5620382620070457 16:0.5928821142815955 17:0.7510802165207465 18:0.23095159593675896 19:0.7964937417959276 
0.0 0.5 0:0.17127323638518993 1:0.7644100580270787 2:0.6717274314836582 3:0.6238347913380168 4:0.02505790071610225 5:0.13742485949173683 6:0.723241239297377 7:0.27171696746035756 8:0.36690956847157796 9:0.7325966850828735 10:0.188105705877447 11:0.7279790364104447 12:0.7695705672449851 13:0.5730962804133529 14:0.40748682593168467 15:0.529757852333031 16:0.5925418678968736 17:0.7828234300223252 18:0.23201572822410244 19:0.8439541003407947 
0.5 0.5 0:0.15434489602885063 1:0.8507414571244366 2:0.7231785404564184 3:0.6550777488680829 4:0.021914028731911193 5:0.1507534770836685 6:0.7725086062317937 7:0.27899808458172576 8:0.35273061143846707 9:0.722222222222224 10:0.1681311632968355 11:0.7505695517142748 12:0.7720099667774093 13:0.5961066936676697 14:0.40664582253535836 15:0.5517617270920977 16:0.605244399593135 17:0.7544139786693151 18:0.21339341319558927 19:0.7465021641286684 
0.0 0.5 0:0.16905946276308453 1:0.767231211963958 2:0.6797871036552772 3:0.6390752584258548 4:0.023952097219737317 5:0.13983433699042205 6:0.7351788739884048 7:0.2770446141345297 8:0.3665637402512589 9:0.7567713246193255 10:0.19422312927779578 11:0.727295051085856 12:0.7532682386624542 13:0.5729190500160166 14:0.3836720712210676 15:0.5329779315660659 16:0.5916124143581243 17:0.7733206170261977 18:0.23165236597964417 19:0.8219139728604481 
0.0 0.5 0:0.17327337075956958 1:0.7800321000864229 2:0.6432342791367422 3:0.6530835175363758 4:0.023163832264260355 5:0.1467332056948631 6:0.7760313862183844 7:0.29867259254797507 8:0.3828986051259376 9:0.7197601974844244 10:0.18129709890875412 11:0.7193273496983403 12:0.7556607996984047 13:0.5209943144556527 14:0.39975675216119233 15:0.542938569455483 16:0.5528126730170804 17:0.7729794256021334 18:0.22646865566241772 19:0.8433886152177066 
0.5 0.5 0:0.17127323638518982 1:0.7996131528046415 2:0.6630314694037551 3:0.6321662466793675 4:0.024726966823029498 5:0.13836570308646137 6:0.791084826551327 7:0.275211903678614 8:0.3692727279770965 9:0.7230202578268878 10:0.17698585743050854 11:0.6859139389481427 12:0.7744493663098312 13:0.5512969415408433 14:0.39991779536474414 15:0.5128317948260567 16:0.615406424950143 17:0.7584724717197443 18:0.2454237950446323 19:0.8386385401837688 
0.0 0.5 0:0.1679562533168526 1:0.784175250775945 2:0.6619191951842347 3:0.6485385251989999 4:0.025396530746223344 5:0.13906586576160565 6:0.7872531289323355 7:0.26237004501618355 8:0.3593254751747984 9:0.7416163433123497 10:0.18649663220037116 11:0.7423268215913871 12:0.7694571068016188 13:0.569209576583372 14:0.3868920218309404 15:0.5366070011846914 16:0.6080507728748678 17:0.7528094581610063 18:0.2271652647748158 19:0.8278838021916509 
0.0 0.5 0:0.1583068480271425 1:0.8398452611218568 2:0.6978153177233676 3:0.6280005190086915 4:0.022410429571520254 5:0.1355431723022877 6:0.7571630329243524 7:0.26996949935122916 8:0.35982008995502207 9:0.732596685082873 10:0.19428339945907963 11:0.7186312369743777 12:0.735418973791066 13:0.5767295035587713 14:0.397394785175764 15:0.5399134868372152 16:0.6230279439678988 17:0.7633426633802607 18:0.2290361578195404 19:0.8386385401837693 
0.0 0.5 0:0.1678735126083851 1:0.767231211963958 2:0.6702427550309935 3:0.6573638189312586 4:0.02467853747282384 5:0.14499750305903256 6:0.745816370247735 7:0.2732087085291261 8:0.3665637402512589 9:0.7357498989354553 10:0.19286705019890082 11:0.7119053812825746 12:0.7693325770467018 13:0.5689313660759234 14:0.3864412287455581 15:0.5144005513754846 16:0.5957949552825027 17:0.7626299524055522 18:0.23328749607970878 19:0.8335822756441619 
0.0 0.5 0:0.17343430111153096 1:0.7794970986460339 2:0.7108592608432224 3:0.636331974350043 4:0.0220794956784475 5:0.132720641518114 6:0.732933180333656 7:0.2787068398968707 8:0.3621832494605406 9:0.7469613259668507 10:0.19675447689173262 11:0.7233051366924109 12:0.7451765719207575 13:0.5985288424312808 14:0.37721070366392234 15:0.5162170063274512 16:0.5925418678968738 17:0.787693621682842 18:0.22903615781954045 19:0.8386385401837693 
0.0 0.5 0:0.6752423512403141 1:0.6789168278529987 2:0.5731436164757792 3:0.5460462032019379 4:0.01625776066153513 5:0.11812796535503924 6:0.6375961276910803 7:0.23676760527779217 8:0.30860222475378385 9:0.6288194835945442 10:0.16142815563513213 11:0.5911959303765648 12:0.6219122200375174 13:0.4798188372105749 14:0.3347314504821139 15:0.4337974691608398 16:0.4988282922193609 17:0.6252876385546071 18:0.20085185409475373 19:0.6573670907472603 
0.0 0.5 0:0.17407279750795038 1:0.7560664673817483 2:0.6869453651234902 3:0.6635985554671918 4:0.023531092073062133 5:0.13389669601151988 6:0.7396514576428953 7:0.2653625379726187 8:0.3873723814625461 9:0.7639377197388266 10:0.19237393053384813 11:0.715869387140995 12:0.757040924192088 13:0.5786286883847864 14:0.3832315234330802 15:0.5140627808265644 16:0.6059661343486047 17:0.7507244395325601 18:0.22812197144541363 19:0.8415379366330575 
0.5 0.0 0:0.1659121335063817 1:0.809477756286266 2:0.6831826892235304 3:0.6298430524014905 4:0.022359516664893667 5:0.14610956959688678 6:0.760238360368556 7:0.2503776934354255 8:0.35818405645120144 9:0.7085635359116025 10:0.17993214206174857 11:0.7349898859874947 12:0.7466777408637868 13:0.5937777044718873 14:0.4005000284852779 15:0.5289766496788624 16:0.6383442658401209 17:0.7664333619340495 18:0.22929400525839663 19:0.8674652318045594 
0.5 0.0 0:0.1615484451166544 1:0.8046421663442931 2:0.6630314694037553 3:0.6321662466793675 4:0.02505790071610228 5:0.1374248594917369 6:0.7377791508517952 7:0.26297962691471594 8:0.37872536599917056 9:0.7804788213627994 10:0.188105705877447 11:0.7606963344366803 12:0.7695705672449851 13:0.587629172995026 14:0.3671186629080015 15:0.5196022178288463 16:0.6230279439678993 17:0.7682128550407763 18:0.21711787620129175 19:0.8492696604978199 
0.0 0.5 0:0.1634330945873012 1:0.7736494084836503 2:0.6892204714816046 3:0.6572574900911113 4:0.024357552244715874 5:0.1489119033808164 6:0.741610848470791 7:0.2733425191897798 8:0.3692177707792947 9:0.7315945008351556 10:0.18778963783373614 11:0.7276529503836069 12:0.7592456668984537 13:0.5387918944356842 14:0.39745345983132263 15:0.5366070011846912 16:0.5721587356400852 17:0.7680995947696037 18:0.23651972999844123 19:0.8278838021916509 
0.0 0.5 0:0.16849472459417963 1:0.8028460900801317 2:0.6589940584380856 3:0.6461511895737769 4:0.02451422360605416 5:0.1414570463262707 6:0.7800083225098656 7:0.2742133504733979 8:0.3603264812776331 9:0.7336227308602998 10:0.18828221140835077 11:0.7399976356853881 12:0.772009966777408 13:0.5554491965641782 14:0.3826171540688798 15:0.5239546326163536 16:0.5734880703524827 17:0.7706479508710342 18:0.23733638966082052 19:0.8249699569228471 
0.5 0.5 0:0.15418117900412748 1:0.7982416036574638 2:0.7278559139993965 3:0.6976817818636251 4:0.02129728829482102 5:0.14409629589069298 6:0.7584846612474813 7:0.2610732980683941 8:0.36948756065941624 9:0.7208437970868913 10:0.18024318677355106 11:0.7254296365642446 12:0.7101379240914119 13:0.5674812991886157 14:0.3930368584857073 15:0.580536024853953 16:0.603627713740883 17:0.7766250042725775 18:0.2229415819920267 19:0.8371888419591262 
0.5 0.0 0:0.16726891056873394 1:0.7099783820684941 2:0.6811906843353174 3:0.697347632585228 4:0.02274136346459298 5:0.13327407892677548 6:0.7665699168713282 7:0.26606339416611885 8:0.3631563151392835 9:0.7055573610659733 10:0.16710154769989627 11:0.7700441338727467 12:0.7999913143551988 13:0.6085736358333194 14:0.37721070366392234 15:0.4825640214018204 16:0.630649462985655 17:0.7727965648389089 18:0.23376841669737436 19:0.9315045029270904 
0.0 0.5 0:0.1634552669340142 1:0.7321652065081342 2:0.7387374922170286 3:0.6605912119616224 4:0.026829370379021042 5:0.1382550156047291 6:0.809328480266675 7:0.26606339416611874 8:0.3694117373597739 9:0.6844328891777705 10:0.2030775279694035 11:0.6586953464725346 12:0.761247910016719 13:0.5604868589086658 14:0.40169874373343584 15:0.521394388623702 16:0.6037499840994565 17:0.7599048810316601 18:0.236397449407282 19:0.7861082986319912 
0.0 0.23770020699412142 0:0.17186261767419225 1:0.7817830138913316 2:0.6913921639143497 3:0.6678589587667463 4:0.023531092073062143 5:0.14159450724108466 6:0.7693880949132957 7:0.27787282102660543 8:0.3632037047015607 9:0.7002762430939238 10:0.1885830731087553 11:0.739770010699122 12:0.8119274136716007 13:0.5674812991886166 14:0.3754904694441637 15:0.5140627808265644 16:0.6020687666690705 17:0.7656670730364172 18:0.22202739561790008 19:0.7980469898937605 
0.0 0.5 0:0.1526799247774243 1:0.7728550052917788 2:0.6740244780708042 3:0.6285507094557637 4:0.020587171141761052 5:0.1424841127841241 6:0.7541457305262677 7:0.27831118674008753 8:0.3774769043736147 9:0.8008964870217886 10:0.19542568997040066 11:0.7290372778560389 12:0.7119455065922826 13:0.5980489827705665 14:0.40363090469947066 15:0.5333985514949093 16:0.5842732387738375 17:0.7768505534575434 18:0.24016738310450894 19:0.7923029025885716 
0.0 0.5 0:0.16753835278205712 1:0.7871499453368108 2:0.7209730428274589 3:0.6510025804945969 4:0.02360466927260904 5:0.14632196739837178 6:0.802356975365262 7:0.265828759701339 8:0.38201324009380605 9:0.7354071582993056 10:0.188857772922168 11:0.7212730063802247 12:0.7481462756993608 13:0.546478971717573 14:0.3813243072329127 15:0.5050310900619743 16:0.5797012652039161 17:0.7563549970847394 18:0.22991059696001023 19:0.8254651954467962 
0.0 0.5 0:0.16965243784043418 1:0.7817830138913319 2:0.6736049687509115 3:0.6337757323703112 4:0.022515726719316197 5:0.1396700544336935 6:0.7594758824898287 7:0.2653625379726186 8:0.35595310167326516 9:0.7296584630838788 10:0.19616478795894068 11:0.739770010699122 12:0.7670202859156358 13:0.5674812991886163 14:0.39871363141091337 15:0.5348356695851239 16:0.5981713989895359 17:0.7357818060287032 18:0.23269290331604886 19:0.8687197783451178 
0.0 0.5 0:0.16668756245368563 1:0.8003491060055677 2:0.6606984064067096 3:0.6390752584258548 4:0.025041757599367106 5:0.14499750305903256 6:0.7404976221180698 7:0.2732087085291261 8:0.36397002859886035 9:0.7410052553564228 10:0.19151097112000587 11:0.717035271217002 12:0.7532682386624542 13:0.5729190500160166 14:0.391979543794539 15:0.5255469794898333 16:0.5916124143581243 17:0.7519392877849068 18:0.24309827668009637 19:0.8044115186848775 
0.0 0.5 0:0.1691351617091289 1:0.7944771389769126 2:0.6349083579964092 3:0.6730258308534391 4:0.020629019466256285 5:0.14132835951240272 6:0.7528325911847388 7:0.2601911139746177 8:0.3670604084400154 9:0.751851416480546 10:0.19312672491613572 11:0.7238023600666701 12:0.7836879432624114 13:0.5279515502660281 14:0.4142506404808658 15:0.5461797294036268 16:0.6075416659637353 17:0.8056200718375086 18:0.23645338627345058 19:0.7670481236008565 
0.0 0.5 0:0.16661344056901664 1:0.7354932301740809 2:0.6054207206243976 3:0.5730649853516613 4:0.016846603494234627 5:0.15330159515271408 6:0.7190010150940055 7:0.29246815125625647 8:0.3305759910742301 9:0.8618784530386758 10:0.1960594863637991 11:0.6123000183891133 12:0.6896802325581392 13:0.5136022514071289 14:0.5049380944810454 15:0.7855528964071771 16:0.5591977221941902 17:0.7021608806450255 18:0.2175834340770046 19:0.8157151870065994 
0.5 0.5 0:0.15923301862414607 1:0.8590376189160384 2:0.6530044927197861 3:0.6569905830025762 4:0.02507140822194201 5:0.13540876607447008 6:0.7800083225098664 7:0.2881217701174803 8:0.3476666982123557 9:0.7783290111624765 10:0.19092979437190782 11:0.7972290608041673 12:0.7563281126404052 13:0.5532247742302496 14:0.3764383536060719 15:0.54260783884853 16:0.5653221571191731 17:0.7818295133569146 18:0.21863806518321144 19:0.7598814652041734 
0.5 0.5 0:0.16552398871699942 1:0.6959964964782313 2:0.6666411140406978 3:0.6320876480440731 4:0.029859564183516405 5:0.13050167077583938 6:0.725344207635439 7:0.2812785854159659 8:0.39352855384506147 9:0.7724382362139085 10:0.1817881399883063 11:0.7726897374867304 12:0.7119455065922826 13:0.5332679285739576 14:0.386493477000737 15:0.6110029283665074 16:0.5875087893002436 17:0.7561752115025209 18:0.22625335149829887 19:0.837435017129351 
0.0 0.5 0:0.16733701134792534 1:0.7705167173252266 2:0.6776282628950209 3:0.6461511895737772 4:0.023095935492885206 5:0.13843290620037033 6:0.7592398774321263 7:0.2760856377331781 8:0.38058213418207815 9:0.7387529597474349 10:0.19092979437190755 11:0.7399976356853879 12:0.7720099667774075 13:0.5554491965641783 14:0.390726829676316 15:0.5529707311997377 16:0.5857369402024484 17:0.7341215134171625 18:0.23254779436777417 19:0.8135794708720787 
0.5 0.5 0:0.15802497001935933 1:0.8019090068118764 2:0.64441076799353 3:0.6102508967597293 4:0.024575888306626867 5:0.13527728172117034 6:0.7739132353674875 7:0.26240980035739236 8:0.37738966714822636 9:0.7963007446552992 10:0.19248381045921317 11:0.6984115403681034 12:0.7720099667774104 13:0.574912891986064 14:0.41341041507103027 15:0.5249008097440744 16:0.5834291821147756 17:0.7801765867285686 18:0.23136799552745918 19:0.841065208951109 
0.0 0.5 0:0.17587178109356746 1:0.8104898565066811 2:0.6755698333329195 3:0.6354600778608334 4:0.0233185737432084 5:0.14103507328544784 6:0.7263967549836092 7:0.27517126488537924 8:0.3617985490759223 9:0.7165617371193649 10:0.19037564910046603 11:0.7178703695784205 12:0.7439285070437057 13:0.5654073663149111 14:0.40801489783170486 15:0.5047230323924844 16:0.6000747646004717 17:0.7426160337552746 18:0.23963788507298303 19:0.8612605752706459 
0.0 0.5 0:0.16965243784043402 1:0.768496131528046 2:0.7032502940233077 3:0.6706992276331145 4:0.023361864514104443 5:0.1435991455821171 6:0.768975086062318 7:0.2777238890854862 8:0.35716153551131397 9:0.7496546961325977 10:0.18795126353790637 11:0.7174627620448699 12:0.7399928479143593 13:0.568100598588403 14:0.4032292462377811 15:0.5221411264548926 16:0.6163591148273629 17:0.7341215134171635 18:0.22875682309411297 19:0.7808318234761216 
0.0 0.5 0:0.17167843602137903 1:0.796784332688588 2:0.6665642039987162 3:0.6980368154719219 4:0.022431112939837357 5:0.1330146551414655 6:0.7371734045370282 7:0.264617878267024 8:0.41476354845832925 9:0.7900552486187858 10:0.18331799335168192 11:0.7306081050018393 12:0.8086009597637511 13:0.5306329849012771 14:0.37011473750741575 15:0.5316620338025656 16:0.5699154833129101 17:0.7523847321440992 18:0.23853353848408246 19:0.7758484858289101 
0.0 0.5 0:0.17517788742482943 1:0.8023562510989987 2:0.6824985663326305 3:0.6295153290707567 4:0.02285418183723152 5:0.13774560162630223 6:0.7892125197602293 7:0.26000098809233874 8:0.35836996934936366 9:0.7100703164239087 10:0.19742840710063828 11:0.7158693871409954 12:0.7271028390214443 13:0.57119709558734 14:0.40903503672946867 15:0.5140627808265644 16:0.6215556050667427 17:0.7656670730364173 18:0.2357401912298057 19:0.8143560949209967 
0.0 0.5 0:0.16965243784043393 1:0.7543520309477746 2:0.6776282628950211 3:0.6416879099266249 4:0.024514223606054132 5:0.1394409529090038 6:0.748855654893256 7:0.2760856377331781 8:0.3527306114384664 9:0.7336227308602997 10:0.19622496029902117 11:0.7399976356853881 12:0.7406462585034004 13:0.5710201529016851 14:0.39072682967631606 15:0.5420896942309688 16:0.5939028534357585 17:0.7497757008973931 18:0.23733638966082057 19:0.8363604429736156 
0.0 0.5 0:0.164126988256039 1:0.7869263231932485 2:0.7002857614960682 3:0.6508173455685287 4:0.024546457426808093 5:0.13389669601151988 6:0.7396514576428954 7:0.28144718761345866 8:0.35353623399716655 9:0.768834756403819 10:0.19237393053384808 11:0.7302097612758713 12:0.791968690224505 13:0.5526181135937237 14:0.3935529287516357 15:0.5175249289529913 16:0.5708898252327943 17:0.7606861952017979 18:0.23878747914356246 19:0.8197924632634086 
0.0 0.5 0:0.1622531401361139 1:0.7477924480699705 2:0.6784384456974988 3:0.6713784223620305 4:0.02230971056058517 5:0.1426404055059713 6:0.769172612034525 7:0.2692477190452856 8:0.37507788067543646 9:0.7260389142445378 10:0.1961098479962584 11:0.7487067655947696 12:0.7767827049930195 13:0.5820213720531864 14:0.3837924693743066 15:0.5414589094791578 16:0.5685175144713392 17:0.7325334074409096 18:0.24156978549960134 19:0.8046651774410457 
0.5 0.5 0:0.1661792981016714 1:0.8082343188726165 2:0.6530044927197861 3:0.6646419195405511 4:0.018689111712681863 5:0.1388649262183563 6:0.7444052738051701 7:0.273678411256318 8:0.34115595263592713 9:0.7563423159318985 10:0.18752575913304917 11:0.7414284213133576 12:0.769769701900694 13:0.5632346747329324 14:0.41814525673003 15:0.5115191617949041 16:0.6388153762189661 17:0.8131378883173763 18:0.22958342585303151 19:0.8086978339931792 
0.5 0.5 0:0.17511022885848956 1:0.8220897643390048 2:0.6809557994051888 3:0.6378622416576383 4:0.021728300526615264 5:0.1293604858226693 6:0.7444052738051695 7:0.2592350523951558 8:0.40409315987473754 9:0.729958281655205 10:0.18525640230714324 11:0.7671825626168091 12:0.7921723506678421 13:0.5699079417347213 14:0.37412130343251854 15:0.5363901034378045 16:0.6038186052190653 17:0.7460485134021012 18:0.236424276271669 19:0.7842896495986762 
0.0 0.5 0:0.1788369629273841 1:0.7794970986460343 2:0.684771374603513 3:0.6613263403740951 4:0.024396032929956762 5:0.1477741390337071 6:0.7426251213699345 7:0.28045430800599896 8:0.3527306114384665 9:0.7517495395948435 10:0.19551893817540614 11:0.7186312369743777 12:0.7939645625692129 13:0.5730962804133534 14:0.3671186629080015 15:0.49252052581768757 16:0.5811095893702392 17:0.7292513217566466 18:0.22754637261725916 19:0.8280074198697192 
0.0 0.5 0:0.16194376183488787 1:0.7948294569986328 2:0.6797871036552772 3:0.6482195386785566 4:0.023225656966650784 5:0.13983433699042205 6:0.756453866507065 7:0.27129075572642425 8:0.361376316946462 9:0.7567713246193255 10:0.19015489204111094 11:0.7375548309547103 12:0.7961064743537811 13:0.5569683142556437 14:0.39474870131902945 15:0.5218315034517171 16:0.6041600371312597 17:0.7572846200952295 18:0.22838210577951498 19:0.8219139728604481 
0.0 0.5 0:0.1655016122989862 1:0.7837901589847629 2:0.6750149293431353 3:0.6573638189312586 4:0.025041757599367106 5:0.13983433699042205 6:0.7511351183773999 7:0.2674548501210207 8:0.36397002859886035 9:0.7567713246193255 10:0.19015489204111094 11:0.717035271217002 12:0.7853969154309495 13:0.5649436821358301 14:0.3864412287455581 15:0.5218315034517171 16:0.5874298734337459 17:0.7519392877849068 18:0.2398280164799672 19:0.8219139728604481 
0.0 0.5 0:0.170245412917784 1:0.7727508609708931 2:0.6750149293431353 3:0.6436473985522057 4:0.02358887709319405 5:0.14706276948647673 6:0.745816370247735 7:0.26937280292372257 8:0.36397002859886035 9:0.7672820374612606 10:0.18744273388332103 11:0.7324249410202832 12:0.763977797585286 13:0.5729190500160166 14:0.3892103862700485 15:0.5218315034517171 16:0.5832473325093672 17:0.7626299524055522 18:0.2349226261797734 19:0.8102456700767344 
0.0 0.5 0:0.17561575324095147 1:0.777124922448087 2:0.6998662521761766 3:0.6922156040453304 4:0.023958950429672096 5:0.13449581811193426 6:0.7582602337963855 7:0.27534378806420934 8:0.3634317110860987 9:0.6870634837902655 10:0.18913143613251102 11:0.7290372778560387 12:0.7575116488016894 13:0.5702856738291626 14:0.3693560493020037 15:0.5305243153144796 16:0.597215440879462 17:0.7603102798935251 18:0.2477568548897145 19:0.783276479680415 
0.5 0.0 0:0.16302189833915975 1:0.7282925971513973 2:0.6922815236725202 3:0.6704152007464773 4:0.020214231917491984 5:0.13177979792338942 6:0.7624495462168676 7:0.2524948182599463 8:0.3559531016732644 9:0.6934203917629335 10:0.19742840710063805 11:0.7560224347186467 12:0.7899728178797941 13:0.6120708559732941 14:0.4405153229510619 15:0.5168324993277049 16:0.6846929614752004 17:0.6809921498478949 18:0.23634964881255646 19:0.7980469898937593 
0.0 0.5 0:0.1583068480271425 1:0.7694390715667302 2:0.6760754125236099 3:0.6654920680447701 4:0.022410429571520243 5:0.14401076465480897 6:0.7523170624062129 7:0.2752119036786141 8:0.3527306114384665 9:0.7373848987108654 10:0.19551893817540617 11:0.7279790364104447 12:0.7598129691152943 13:0.5876291729950259 14:0.37973371385290255 15:0.49929094882047725 16:0.6573247795478026 17:0.773083046701293 18:0.23946465423550786 19:0.7907984987705432 
0.009550317040681527 0.5 0:0.16631549966005404 1:0.7942883149391272 2:0.6773542304765364 3:0.6201591492756557 4:0.025369367909582472 5:0.13161376670079097 6:0.8007767675876054 7:0.2768565795460288 8:0.3965185669818984 9:0.7309067273318164 10:0.20089716552882733 11:0.7617960755468048 12:0.7354189737910661 13:0.5701042142935967 14:0.3794368891247872 15:0.5034726806751415 16:0.5331388520231846 17:0.751310425160161 18:0.24034099847214366 19:0.8330103000175072 
0.0 0.5 0:0.1679562533168526 1:0.784175250775945 2:0.6710196206166913 3:0.6311005954147779 4:0.024357552244715874 5:0.14103507328544784 6:0.7365394839750634 7:0.2770000105809787 8:0.3617985490759223 9:0.7466272645509467 10:0.19037564910046598 11:0.7178703695784205 12:0.754139946946871 13:0.5768139971202941 14:0.37369022433046273 15:0.5366070011846914 16:0.60406276873767 17:0.7782930191753357 18:0.23028341984935763 19:0.8556977797574803 
0.5 0.0 0:0.1632939204725453 1:0.8321083172146998 2:0.6974808576433709 3:0.6536357662128476 4:0.020526652026336915 5:0.14350415656534177 6:0.7258506080379136 7:0.2367676052777917 8:0.3401876879091754 9:0.7723756906077349 10:0.19105199050868724 11:0.7916159787252096 12:0.7703211517164997 13:0.5711399294888965 14:0.4005000284852779 15:0.4891353143162928 16:0.648237583795862 17:0.8026788267921224 18:0.23109893733039105 19:0.7993851728703533 
0.0 0.5 0:0.16523207817291802 1:0.8023562510989988 2:0.6513709747966137 3:0.6380361356698654 4:0.021500361365570243 5:0.14640563925956263 6:0.7545197762780953 7:0.2653625379726186 8:0.35353623399716655 9:0.7786288297338039 10:0.1885830731087553 11:0.6919687635828685 12:0.7769996476391835 13:0.5711970955873399 14:0.3987136314109133 15:0.5452221139644037 16:0.6215556050667427 17:0.7258200503594654 18:0.23878747914356246 19:0.8361015682906449 
0.0 0.5 0:0.17587178109356746 1:0.789438171922092 2:0.6664694079004627 3:0.6180221480766112 4:0.025050204579054186 5:0.14300428080928995 6:0.7314681194793365 7:0.2678562821029818 8:0.35190625347142607 9:0.7366054220737528 10:0.18778963783373606 11:0.7129790791758273 12:0.7898799866079492 13:0.5768139971202941 14:0.39217274083113146 15:0.5507776539812278 16:0.5761467397772833 17:0.7630028825667381 18:0.2380788075357122 19:0.8223210066784848 
0.5 0.5 0:0.16567411413966937 1:0.8105855459820637 2:0.6780517675417697 3:0.6465569422689731 4:0.023192636955146752 5:0.1340891412922587 6:0.7743442011250281 7:0.2625030447031355 8:0.38302201964556803 9:0.7443495730788554 10:0.19540661647392182 11:0.7407260356414456 12:0.7540471156750218 13:0.5526181135937226 14:0.37652260997601866 15:0.5472994028402584 16:0.5973919254536278 17:0.6929462566509799 18:0.24488205497107546 19:0.8415379366330558 
0.0 0.5 0:0.15749644875476454 1:0.7877176015473881 2:0.6568439579238239 3:0.6875223586108414 4:0.023505057063991627 5:0.12901154657737288 6:0.7266893337045142 7:0.2791101017682078 8:0.3663642239703042 9:0.7417127071823205 10:0.2547772758392196 11:0.7107215605284746 12:0.7508997785160569 13:0.5623363503288447 14:0.36993278965724885 15:0.4733159605693901 16:0.5723888128018452 17:0.7875063066189754 18:0.2305832424526784 19:0.8260651959661902 
0.0 0.5 0:0.16733701134792534 1:0.797457861287647 2:0.672969711780787 3:0.6461511895737774 4:0.023095935492885206 5:0.1404489996176372 6:0.7436635436238209 7:0.2685964886940569 8:0.3679223511167999 9:0.7490134175217047 10:0.19490116881724284 11:0.7249743865917085 12:0.735418973791066 13:0.5710201529016852 14:0.3961332800812736 15:0.5203276202934306 16:0.6020687666690692 17:0.7497757008973932 18:0.238932588091836 19:0.8306651999482314 
0.5 0.5 0:0.15704622693677697 1:0.7920696324951655 2:0.6652054599237318 3:0.6238347913380177 4:0.022465585220365798 5:0.13585678683386276 6:0.837121546473651 7:0.2717169674603579 8:0.38227010525744887 9:0.7302025782688778 10:0.19593078441418182 11:0.7739390503044428 12:0.7313533079036959 13:0.5264699167138193 14:0.400338297062908 15:0.5545827366765933 16:0.5798393362006138 17:0.7625309647701751 18:0.2394646542355081 19:0.7996577656989197 
0.0 0.5 0:0.17196786433294228 1:0.781293174910195 2:0.6636526095523196 3:0.6372246302794728 4:0.02274136346459298 5:0.14851337328670514 6:0.7592398774321257 7:0.276085637733178 8:0.3679223511167999 9:0.7387529597474346 10:0.18960600289012924 11:0.7299821362896021 12:0.7876918209144115 13:0.5632346747329317 14:0.3880236044738373 15:0.5094465833246613 16:0.5857369402024484 17:0.7497757008973935 18:0.23414399279878964 19:0.8249699569228471 
0.0 0.5 0:0.16502158485541693 1:0.781293174910195 2:0.6683111606665534 3:0.6416879099266253 4:0.02274136346459298 5:0.14145704632627074 6:0.733279321084951 7:0.2704687759538372 8:0.3628584378906888 9:0.7387529597474348 10:0.19092979437190757 11:0.7349898859874949 12:0.7563281126404041 13:0.5671274138173084 14:0.38532037927135854 15:0.5529707311997379 16:0.6020687666690688 17:0.7863021383512656 18:0.24372118338488233 19:0.8021889848213108 
0.0 0.5 0:0.15890993585774982 1:0.7683864873375031 2:0.7028711096302899 3:0.6616169725371669 4:0.022279595241700926 5:0.13808126199968465 6:0.7771103999408812 7:0.28614373905897555 8:0.3791100663837909 9:0.7366054220737526 10:0.1890826434671011 11:0.712979079175827 12:0.7643513868500363 13:0.5540007355095282 14:0.3763305838305582 15:0.5401496643838253 16:0.6000747646004717 17:0.7782930191753353 18:0.23028341984935763 19:0.8167582111653192 
0.0 0.5 0:0.16965243784043418 1:0.7714963952874985 2:0.6691581699600515 3:0.6380361356698656 4:0.02251572671931619 5:0.13774560162630228 6:0.754519776278096 7:0.26893690455947195 8:0.38737238146254627 9:0.7394525364138641 10:0.19237393053384794 11:0.7063091377177445 12:0.7969583710862793 13:0.5897760775809561 14:0.3754904694441637 15:0.5452221139644035 16:0.5786845605918632 17:0.765667073036417 18:0.22964561540229197 19:0.830665199948233 
0.0 0.5 0:0.1681639493809644 1:0.7712864642955827 2:0.672969711780788 3:0.653164914733589 4:0.022943976052188612 5:0.13195260593058392 6:0.7355045116289959 7:0.2704687759538375 8:0.3563476923142605 9:0.7255609426090891 10:0.2646838912138475 11:0.7027972093581827 12:0.7742502316541238 13:0.5465515072284607 14:0.3903406546473912 15:0.48664822015200343 16:0.6073182823190554 17:0.7505211383964528 18:0.22411074551812157 19:0.7794080127197758 
0.0 0.5 0:0.17298937602081366 1:0.7942883149391275 2:0.6504990534650712 3:0.6458886437121801 4:0.020697360007378932 5:0.13908517171772136 6:0.7879491985690018 7:0.26452151054041734 8:0.3798374410605909 9:0.7689307767305814 10:0.19544625942738678 11:0.6958116089392721 12:0.7440286191996174 13:0.5701042142935967 14:0.38166307458565196 15:0.5602247558455841 16:0.6037499840994566 17:0.751310425160161 18:0.24034099847214366 19:0.776727898354888 
0.0 0.5 0:0.1686394387499616 1:0.7873549323017409 2:0.7154789906981712 3:0.631645530720534 4:0.021500361365570216 5:0.13036853253130265 6:0.7644319887015618 7:0.387486729690107 8:0.40590170031263423 9:0.7182320441988955 10:0.17752640561890135 11:0.6955538571165871 12:0.7354189737910669 13:0.5681005985884032 14:0.3843066698204296 15:0.5189674906723354 16:0.5270444388380304 17:0.7569505368258329 18:0.2189801077041432 19:0.7559151352400659 
0.0 0.5 0:0.16587057456933682 1:0.7845261121856859 2:0.7108592608432222 3:0.6529948850327442 4:0.02505790071610225 5:0.13648401589701223 6:0.7329331803336556 7:0.25424228636907453 8:0.36690956847157796 9:0.732596685082873 10:0.1942833994590795 11:0.7373268358465123 12:0.7549341700504487 13:0.587629172995026 14:0.3746876934749423 15:0.5196022178288461 16:0.5925418678968736 17:0.7487320883987114 18:0.25585229146059985 19:0.8067451792416183 
0.0 0.5 0:0.1668254636344647 1:0.7578606450452083 2:0.6983208969140616 3:0.6703359374292781 4:0.024011226077546712 5:0.13808126199968465 6:0.7771103999408812 7:0.27517126488537924 8:0.3890023619882872 9:0.7566491070281405 10:0.18778963783373614 11:0.7178703695784205 12:0.7745628267532013 13:0.5425941047041453 14:0.389532381331036 15:0.5188936851890208 16:0.5881107521888774 17:0.7477127459581405 18:0.22716526477481588 19:0.8167582111653192 
0.0 0.5 0:0.170169713971739 1:0.7222519445244654 2:0.6973527665489049 3:0.661060442863201 4:0.02189642586525832 5:0.1440307826036329 6:0.7621121091981972 7:0.27859529937926697 8:0.3625352093868946 9:0.747266956623957 10:0.17893117370727787 11:0.7685524637499712 12:0.7977015150444143 13:0.545344639791967 14:0.38767851189479785 15:0.5234916097666191 16:0.5637584716064113 17:0.7543276277533476 18:0.2378797763607411 19:0.863746079648867 
0.0 0.5 0:0.1658705745693368 1:0.7845261121856858 2:0.6412915642039974 3:0.6280005190086922 4:0.022410429571520243 5:0.14118823387063517 6:0.757163032924352 7:0.28045430800599885 8:0.37399904698813363 9:0.7182320441988955 10:0.1918123220264266 11:0.7046095378202771 12:0.8037221606989045 13:0.573096280413353 14:0.39234876479780373 15:0.5500691213413993 16:0.6154064249501427 17:0.7536022800592278 18:0.23946465423550797 19:0.785482938613518 
0.0 0.5 0:0.16569467395207688 1:0.7999640142143868 2:0.652818769751778 3:0.6398195603068889 4:0.025050204579054176 5:0.14201967704736893 6:0.746682212966518 7:0.2696850277985811 8:0.3692177707792945 9:0.7416163433123497 10:0.19942668853402065 11:0.6983052079680474 12:0.7541399469468711 13:0.5616051560464501 14:0.3948131003312271 15:0.5436923275829595 16:0.5881107521888774 17:0.7579061703638722 18:0.23496065246117032 19:0.8223210066784852 
0.0 0.5 0:0.1685953953112457 1:0.7871499453368108 2:0.6911988248364865 3:0.6510025804945964 4:0.022309710560585217 5:0.13711806266737053 6:0.7549507420356386 7:0.27095719871725893 8:0.3843250265665959 9:0.7447754023540739 10:0.18281437702709274 11:0.7121284199753761 12:0.7386007992681414 13:0.5500332117511341 14:0.39860144222266863 15:0.5315240496381075 16:0.5834291821147751 17:0.799233858443632 18:0.2444845826344991 19:0.8098651819424837 
0.0 0.5 0:0.15329710707062424 1:0.7529804818005973 2:0.6638220114110186 3:0.6465569422689731 4:0.024817221521140263 5:0.14101717139886713 6:0.770379316155641 7:0.27394101778106633 8:0.36562057237765866 9:0.6895027624309396 10:0.2621257071555535 11:0.7521983349493467 12:0.742071881606765 13:0.5407275651178084 14:0.3889082963582854 15:0.4808261588128691 16:0.5880382430227445 17:0.7885791110756633 18:0.21562809099901065 19:0.8067451792416183 
0.0 0.5 0:0.16569467395207688 1:0.784175250775945 2:0.680120046049148 3:0.6398195603068889 4:0.02297224757603924 5:0.13512745071392143 6:0.7771103999408812 7:0.2733425191897798 8:0.35685240127367424 9:0.7366054220737528 10:0.19425466600056085 11:0.7080877887732341 12:0.7541399469468711 13:0.5692095765833721 14:0.3816113028307494 15:0.5436923275829595 16:0.6200147852864621 17:0.7782930191753357 18:0.23651972999844123 19:0.8223210066784848 
0.0 0.5 0:0.1644086778426941 1:0.8031630447149832 2:0.6735177766177561 3:0.6311860754627374 4:0.020113359019603493 5:0.13659470337874458 6:0.7238113534759815 7:0.28919164855164026 8:0.3756671595802642 9:0.7351316217094568 10:0.2074382528505559 11:0.7700441338727467 12:0.7655527327209947 13:0.5380463630104941 14:0.3950201873508414 15:0.5034726806751415 16:0.5667632006309332 17:0.7856882486461579 18:0.2324539003424203 19:0.8564613007102648 
0.0 0.5 0:0.15775508682041717 1:0.832997242684884 2:0.6723750031279068 3:0.6371296668827253 4:0.02189642586525832 5:0.1395267441182492 6:0.7945904222453007 7:0.26521043726679494 8:0.3806360055993774 9:0.8068649347596111 10:0.1990415379198265 11:0.7059023185933504 12:0.741647227916401 13:0.5453446397919668 14:0.3900941599480769 15:0.5105269699740431 16:0.5820014692552965 17:0.7776423750643296 18:0.2350269961861601 19:0.8128524185709668 
0.5 0.5 0:0.16262897747982488 1:0.7895551257253379 2:0.6804233935635619 3:0.6488291573620687 4:0.021417627892301994 5:0.13272064151811397 6:0.7910848265513273 7:0.2822017761151272 8:0.3716358874826149 9:0.718232044198895 10:0.17822139614683488 11:0.7326529361284787 12:0.76469176818014 13:0.5440304952500068 14:0.4049638157427044 15:0.522987429330241 16:0.6458925010211682 17:0.7828234300223255 18:0.23350551342638357 19:0.8226918597126938 
0.0 0.5 0:0.1661792981016712 1:0.7866814037026794 2:0.6869453651234882 3:0.6506144692209296 4:0.024514223606054132 5:0.14548923316080464 6:0.7748162112404305 7:0.26672420143427655 8:0.3653903945037442 9:0.7490134175217047 10:0.19092979437190757 11:0.7500131350811743 12:0.7667826820650732 13:0.5554491965641783 14:0.38532037927135865 15:0.5130735956475847 16:0.6061517232857242 17:0.7341215134171625 18:0.22775919907472789 19:0.8135794708720792 
0.0 0.5 0:0.16412698825603908 1:0.7560664673817483 2:0.6691581699600518 3:0.6337757323703112 4:0.023869547190977464 5:0.1348589224152155 6:0.7842564135484961 7:0.25821380479891193 8:0.3728711754059549 9:0.7443495730788565 10:0.1974284071006383 11:0.7541103848339977 12:0.7470615624685398 13:0.5823444847835094 14:0.41935644204802414 15:0.5348356695851239 16:0.5786845605918632 17:0.7756288287056552 18:0.22659832748853523 19:0.814356094920997 
0.45636490764091703 0.5 0:0.15884711420872805 1:0.8088330109606708 2:0.6941920001900753 3:0.6516063091425196 4:0.019432024533865576 5:0.14683329543898294 6:0.6957807396945893 7:0.26734829718753705 8:0.3783315060815845 9:0.7182320441988961 10:0.1815161660570393 11:0.7583593845776643 12:0.7679443008900378 13:0.5416083464863952 14:0.3835182291363734 15:0.557403746261089 16:0.6147712983653303 17:0.7544139786693151 18:0.2394646542355082 19:0.8882504349826726 
0.5 0.0 0:0.15860153867164367 1:0.8558466678389305 2:0.7029538407705835 3:0.6601902328275465 4:0.020484996011824266 5:0.14255673364478 6:0.7941686259719613 7:0.26536253797261833 8:0.37722153722293167 9:0.7639377197388251 10:0.1852976633403413 11:0.7101332374870437 12:0.7700140944326986 13:0.5555907507127016 14:0.3847797342308628 15:0.5279113733322696 16:0.550623513299214 17:0.7646708974694918 18:0.23513073364705375 19:0.8284906526112666 
0.0 0.5 0:0.16744225800667623 1:0.8023562510989982 2:0.7047325602869281 3:0.6593381521676374 4:0.024884912544723407 5:0.13870782802999784 6:0.7446075638546287 7:0.2921702873740188 8:0.360786837025462 9:0.7296584630838788 10:0.19363754967554564 11:0.7015290130061194 12:0.7570409241920877 13:0.5526181135937236 14:0.4012939827405523 15:0.5002141883208583 16:0.5981713989895359 17:0.7606861952017981 18:0.2311692593591704 19:0.7926106215513484 
0.0 0.5 0:0.17075752775731323 1:0.7354932301740814 2:0.6824985663326305 3:0.6337757323703112 4:0.022515726719316197 5:0.14640563925956263 6:0.7545197762780957 7:0.29038310408059204 8:0.3632037047015609 9:0.7835258663987966 10:0.18984669225045292 11:0.7063091377177445 12:0.7620306050538617 13:0.5266075388026608 14:0.3935529287516358 15:0.5140627808265644 16:0.6098635020281394 17:0.7756288287056546 18:0.23574019122980555 19:0.8197924632634088 
0.0 0.5 0:0.16479004220616644 1:0.8101740812379117 2:0.6908585480594464 3:0.6363319743500438 4:0.02581904867016967 5:0.14532794568742355 6:0.7382637479036104 7:0.23991304787422318 8:0.385342212614623 9:0.7498342541436478 10:0.1971251385066309 11:0.7434029054799567 12:0.7324916943521602 13:0.5651031894934336 14:0.3870504434009458 15:0.5196022178288473 16:0.5643422475311766 17:0.7925638133433591 18:0.2384218045939116 19:0.8115291833829426 
0.0 0.5 0:0.1669511069325073 1:0.7593810444874272 2:0.6934673366834162 3:0.6321662466793675 4:0.024726966823029488 5:0.13836570308646146 6:0.7377791508517952 7:0.27695937178774227 8:0.3598200899550222 9:0.7469613259668514 10:0.17945693486316142 11:0.7606963344366799 12:0.7646917681801396 13:0.5585633878316797 14:0.42262488706556584 15:0.5466839098400049 16:0.5887311083879957 17:0.7633426633802599 18:0.223077017010416 19:0.8280074198697192 
0.0 0.5 0:0.16733701134792542 1:0.7812931749101953 2:0.6776282628950211 3:0.6282980709851684 4:0.02380507954946969 5:0.13843290620037027 6:0.754047766162691 7:0.2854470740320797 8:0.3603264812776331 9:0.7490134175217047 10:0.19490116881724273 11:0.7199666368938153 12:0.7772372514897424 13:0.5554491965641782 14:0.4096494060936674 15:0.5203276202934305 16:0.5734880703524827 17:0.7549937633908036 18:0.23414399279878956 19:0.8249699569228472 
0.0 0.5 0:0.16312971198958728 1:0.767231211963958 2:0.6750149293431353 3:0.6665080991839606 4:0.025041757599367106 5:0.14293223663158836 6:0.756453866507065 7:0.2789625669372314 8:0.3665637402512589 9:0.7462606117773903 10:0.18879881296221598 11:0.7067754913481475 12:0.75862301812387 13:0.5689313660759234 14:0.39474870131902945 15:0.5292624555279495 16:0.5874298734337459 17:0.7519392877849068 18:0.2349226261797734 19:0.8160798214685911 
0.0 0.5 0:0.16753835278205717 1:0.7674711967033906 2:0.7422403413924394 3:0.6958294326029512 4:0.0210147518485614 5:0.1463219673983719 6:0.7359882487037893 7:0.26070032068541915 8:0.3519600159475375 9:0.7588277684362266 10:0.1888577729221681 11:0.7075561267729522 12:0.7147371081900924 13:0.5500332117511343 14:0.39613328008127474 15:0.548082149373191 16:0.5946129328473527 17:0.7563549970847395 18:0.23574019122980597 19:0.8410652089511098 
0.0 0.5 0:0.16633716808979707 1:0.8229294883066653 2:0.6691581699600515 3:0.6550777488680829 4:0.024884912544723407 5:0.1367833752226067 6:0.7644319887015626 7:0.2760856377331788 8:0.36078683702546227 9:0.7149673530889012 10:0.20121926452573102 11:0.7302097612758711 12:0.7370822007449921 13:0.5786286883847864 14:0.38581187476271905 15:0.5382978177115503 16:0.5825819282713979 17:0.7557053173671793 18:0.22812197144541374 19:0.8089197265785848 
0.0 0.5 0:0.17587178109356746 1:0.8210156987989756 2:0.6710196206166913 3:0.6267411129687221 4:0.021933269074531768 5:0.14398888457121103 6:0.7669676709494267 7:0.2806575019721774 8:0.3593254751747984 9:0.7466272645509467 10:0.18778963783373606 11:0.7472181119939804 12:0.7847742666563665 13:0.5654073663149112 14:0.3684095053302716 15:0.5330643379855572 16:0.5721587356400852 17:0.7528094581610063 18:0.23340157492389949 19:0.8056326201389876 
0.5 0.0 0:0.15868821239061445 1:0.7898509500511992 2:0.6658448689001947 3:0.6311860754627376 4:0.02128136099515438 5:0.13742485949173683 6:0.7922250549085361 7:0.27839846317173017 8:0.3694117373597738 9:0.7013324666883325 10:0.18236408478392968 11:0.7123077255911555 12:0.8086009597637495 13:0.5925447101917678 14:0.40169874373343584 15:0.5602247558455841 16:0.6104748538210059 17:0.8114716162606559 18:0.2193087367928815 19:0.7954886989090945 
0.0 0.5 0:0.16119609760692524 1:0.7428727609116152 2:0.6997057442624789 3:0.6836039274824904 4:0.02166223120457332 5:0.14356079597907145 6:0.7502101187026762 7:0.27095719871725893 8:0.37738966714822636 9:0.7213547922171536 10:0.19248381045921326 11:0.7121284199753761 12:0.77200996677741 13:0.5606959318518181 14:0.38872879365709406 15:0.544770529426174 16:0.5908850159364932 17:0.761119315013505 18:0.23865498836470359 19:0.820265190945359 
0.5 0.5 0:0.14984267784897312 1:0.7962604771115411 2:0.7304251755230047 3:0.6446634296913943 4:0.020810915755002025 5:0.1288004598734285 6:0.7159722835201693 7:0.2775418611574521 8:0.37242360731778834 9:0.7262124002455508 10:0.1835753972509168 11:0.727200053124107 12:0.7679443008900381 13:0.5567467762589717 14:0.4087483310261751 15:0.523551631247141 16:0.5957175008209399 17:0.8031158952744774 18:0.23698167889837327 19:0.9281171361603605 
0.5 0.0 0:0.1696524378404341 1:0.768496131528046 2:0.6380305784240339 3:0.655077748868082 4:0.02212086241508159 5:0.1347787368815741 6:0.7190010150940056 7:0.27444738638087074 8:0.3571615355113141 9:0.7047651933701664 10:0.18910958108446244 11:0.6824085141596177 12:0.8268964562569214 13:0.571506745287233 14:0.37721070366392256 15:0.5284883980200078 16:0.6485123981835226 17:0.8117401930066414 18:0.23015349672125132 19:0.9103986023036097 
0.0 0.5 0:0.16668756245368563 1:0.7727508609708931 2:0.6893314522795612 3:0.6482195386785566 4:0.025768197852453628 5:0.13983433699042205 6:0.7511351183773999 7:0.2770446141345297 8:0.36397002859886035 9:0.7357498989354553 10:0.19151097112000587 11:0.7324249410202832 12:0.7532682386624542 13:0.5848821018362963 14:0.38090291369657714 15:0.5218315034517171 16:0.5916124143581243 17:0.7626299524055522 18:0.22674697567945037 19:0.8277481242523049 
0.0 0.5 0:0.16859539531124573 1:0.7773105710201009 2:0.6486642277065261 3:0.6428522437476232 4:0.022309710560585196 5:0.14264040550597137 6:0.792875728699337 7:0.2675382393733123 8:0.3981957454033354 9:0.7400912803266897 10:0.19490116881724343 11:0.7167007131778004 12:0.7720099667774099 13:0.5642501718853795 14:0.38626063151570034 15:0.5315240496381075 16:0.56478959756048 17:0.7468263612272075 18:0.2386549883647035 19:0.8098651819424828 
0.0 0.5 0:0.16081171850540188 1:0.776639704589415 2:0.6913921639143497 3:0.6508173455685287 4:0.023869547190977447 5:0.14833009206695377 6:0.7198270327959616 7:0.2653625379726187 8:0.38253864611034905 9:0.7884229030637888 10:0.18352859654196496 11:0.7302097612758713 12:0.7520512433303139 13:0.5674812991886166 14:0.40129398274055217 15:0.5209870770794177 16:0.5942740313100012 17:0.7357818060287036 18:0.2311692593591704 19:0.8306651999482334 
0.0 0.5 0:0.18633712874233285 1:0.776538855387415 2:0.7042094074880019 3:0.6458886437121799 4:0.025369367909582455 5:0.13742485949173683 6:0.7195354971364469 7:0.26297962691471594 8:0.3756671595802642 9:0.764705882352941 10:0.1932658969868106 11:0.7081836964281848 12:0.7827720235380964 13:0.5668984291652864 14:0.3861154455073817 15:0.5004857293503812 16:0.5903002446563569 17:0.7470131972244114 18:0.23245390034242047 19:0.7861082986319912 
0.5 0.5 0:0.15964162329929435 1:0.8031630447149832 2:0.6696813227589752 3:0.6716181381487039 4:0.02244936297070526 5:0.125802673909845 6:0.7451906351736547 7:0.2598958596633132 8:0.3548157521786298 9:0.7393565160870977 10:0.20416770918969157 11:0.728803842243039 12:0.7655527327209944 13:0.5989562804483889 14:0.40169874373343567 15:0.518407437298942 16:0.5936626795171321 17:0.7727965648389096 18:0.25085712931177495 19:0.8095592993247492 
0.0 0.5 0:0.15824069298449964 1:0.7666679824734537 2:0.6250531860343833 3:0.6608162512715636 4:0.02051262500104189 5:0.13540876607447005 6:0.7533060359813437 7:0.2624446876976364 8:0.3693691834671178 9:0.7035742473785107 10:0.28170406740814125 11:0.6985048524742746 12:0.7652891721472643 13:0.5332049732248837 14:0.37412130343251865 15:0.5426078388485299 16:0.5723215113191537 17:0.7997200133343213 18:0.2323197660204865 19:0.7745263758408752 
0.0 0.5 0:0.1691121716588486 1:0.7895551257253381 2:0.7108592608432222 3:0.6238347913380166 4:0.02373416514381123 5:0.1383657030864615 6:0.7183952687792373 7:0.2822017761151272 8:0.35509377094398503 9:0.7278084714548808 10:0.18192801229581454 11:0.7606963344366799 12:0.7549341700504486 13:0.6021620655766994 14:0.3797337138529026 15:0.5263726408316356 16:0.6001633869146301 17:0.7584724717197441 18:0.2454237950446323 19:0.7961140589275683 
0.5 0.5 0:0.15411978511985644 1:0.7260638297872336 2:0.6787929006735799 3:0.6654920680447706 4:0.01757052138533127 5:0.13918894123184555 6:0.7856331097184208 7:0.3143115026203598 8:0.3423917886018227 9:0.6673572744014732 10:0.18949568693331445 11:0.7028568254260144 12:0.7628622185308231 13:0.6112451234402456 14:0.3914026359769362 15:0.5432986983386103 16:0.649703260530047 17:0.8315253466274888 18:0.23015349672125107 19:0.8074096242612474 
0.5 0.0 0:0.1633493323886056 1:0.8716956802063186 2:0.6833220475901964 3:0.6203633516124548 4:0.01777735506850182 5:0.14056100480748562 6:0.7684702974666777 7:0.2760856377331787 8:0.37045430772985616 9:0.7302025782688778 10:0.18769385963867183 11:0.703830554533939 12:0.7638786350026663 13:0.5930790077131542 14:0.387723246118007 15:0.5291936504161323 16:0.5893662349728092 17:0.7462969925684548 18:0.2357401912298056 19:0.8705319011259208 
0.5 0.5 0:0.1595224469357096 1:0.7873549323017411 2:0.6543355073238529 3:0.643361639794308 4:0.021190110840814503 5:0.1365428186216827 6:0.7598888913408061 7:0.27117088367625497 8:0.36380792162058506 9:0.7676104972375704 10:0.1833179933516819 11:0.7306081050018395 12:0.7857315891472871 13:0.5612883051907436 14:0.40322924623778084 15:0.5189674906723352 16:0.6056413537086429 17:0.793476974279705 18:0.234343517602667 19:0.8755152387731325 
