svm_type c_svc
kernel_type linear
nr_class 3
total_sv 2688
rho -0.9809168616943573 -0.4175110656999164 0.8682945847847806
label 0 1 2
nr_sv 1194 440 1054
SV
0.0 0.22728707010065566 0:1.0 1:0.749999980836647 
0.19327558176714077 0.5 7:1.0 8:1.0 9:1.0 1268:1.0 1321:1.0 
0.0 0.5 10:0.6666666666666666 
0.0 0.4018849992562859 11:1.0 12:1.0 13:0.7499999999999999 14:1.0 15:0.7499999547523951 
0.0 0.23941381816243545 16:0.6666666666666666 17:1.0 18:0.7499999675805721 
0.1704278620472019 0.5 19:0.7499999675805721 20:0.75 1151:0.6250000000000001 
0.0 0.08214841704595087 21:1.0 
0.0 0.5 22:0.6666666666666667 23:0.750000009648912 24:0.7499999857759053 
0.12747803428653298 0.5 25:1.0 26:1.0 1391:0.6000000424326377 1475:1.0 1582:1.0 
0.0 0.5 27:0.7500000100088426 
0.0 0.3919878732703541 4:0.7499999831074771 28:0.7499999442495384 29:1.0 30:1.0 31:1.0 32:0.6666666506806793 33:0.7499999747860352 34:0.6250000062370534 
0.14050765831868792 0.0 35:0.6000000184060067 36:1.0 37:1.0 38:0.75 39:0.7499999686186495 40:0.624999978284696 41:1.0 
0.0 0.3318527806268327 48:1.0 49:0.7499999645006074 50:0.6666666815661846 
0.018919171362869264 0.5 51:1.0 
0.25581116365476997 0.5 28:0.49999997769981536 52:1.0 53:0.6666666882101472 54:0.6666667181330785 1213:0.6666666957272209 
0.1503792723307278 0.5 55:1.0 
0.01879555956488166 0.5 56:1.0 
0.0 0.18762995253692524 57:1.0 58:0.3749999904183235 59:0.5 60:0.5 61:0.7499999673068779 62:0.5000000158163657 63:0.5 64:0.37499999634715203 65:0.5 
0.5 0.5 
0.5 0.5 
0.0 0.474437209545494 38:0.75 66:1.0 
0.5 0.5 
0.3657760186301537 0.0 79:1.0 80:1.0 81:1.0 82:1.0 83:1.0 84:1.0 85:1.0 86:1.0 
0.0 0.4483943350200534 34:0.6250000062370534 90:0.7499999778996701 91:0.7499999850310722 92:0.7499999658835783 93:0.7499999737004802 94:0.7499999753013442 
0.5 0.5 95:0.75 
0.0 0.263597212140052 27:0.7500000100088426 98:0.7499999703443155 99:1.0 100:1.0 101:0.6666666917688111 102:0.666666648404121 103:0.7499999895978855 
0.0 0.04898068377166907 101:0.6666666917688111 104:1.0 105:1.0 
0.0023001707916442743 0.24779926903225868 35:0.900000042947349 64:0.7500000219170877 103:0.3749999989597886 104:0.5 105:0.5 106:1.0 107:0.5 108:0.5 109:0.5 110:0.49999997959674763 111:0.3124999909328035 112:0.5 113:0.5 114:0.3124999857630529 115:0.49999997521297634 116:0.49999998352893 117:0.37499999703443154 1134:0.5 
0.07848611969858772 0.09038352784889131 79:1.0 105:1.0 118:0.7500000123533026 119:1.0 120:0.6666667032690464 121:1.0 122:1.0 
0.16650467553095033 0.0 123:1.0 124:1.0 125:0.6000000750100607 126:1.0 127:1.0 128:1.0 129:1.0 1223:0.7499999673068779 
0.0 0.5 135:0.571428551194267 
0.09628066115620307 0.11514808895948114 136:1.0 1353:1.0 1406:1.0 
0.4019104461374099 0.5 3:1.0 137:1.0 
0.5 0.5 138:0.8571428274360401 
0.0 0.5 68:0.25 135:0.1904762026167731 138:0.9523809078207266 143:0.33333333333333337 
0.0 0.5 144:0.6249999696332647 
0.5 0.5 114:0.6249999841811699 125:0.6000000750100607 145:1.0 146:0.7499999857759053 
0.1272952383251124 0.0 35:0.4000000122706711 57:0.44444448913344137 147:0.6666667088436418 148:0.5 149:1.0 150:1.0 151:0.5555555459497991 152:0.6666666882101472 153:0.5 154:0.6666666418747812 155:0.666666726735407 156:0.6666667181330785 
0.5 0.0 88:0.7499999850310722 157:1.0 
0.14214677263289058 0.0 115:1.0 125:0.6000000750100607 158:1.0 159:1.0 160:0.5833333393377481 161:0.7499999772095168 
0.25653305014233246 0.5 36:1.0 
0.12111621038348955 0.0 95:0.75 164:1.0 165:1.0 166:1.0 
0.3791470935734996 0.4972025567847555 168:0.6666667167539756 169:0.4000000101220661 170:0.499999985643056 171:0.5 172:1.0 173:0.6666666957272209 174:0.5 1483:0.6666667088436418 
0.0 0.03089161639045017 0:1.0 170:0.749999978464584 
0.5 0.5 28:0.7499999442495384 101:0.6666666917688111 178:0.7499999851473375 179:0.6250000088900595 
0.0 0.5 135:0.571428551194267 
0.5 0.5 22:0.8888889808579009 43:0.4166666917692194 180:0.5000000189825958 1146:0.666666726735407 1275:0.6666666787969505 
0.0 0.5 191:0.7499999703443155 
0.5 0.5 
0.0 0.5 192:0.7499999737004802 
0.08882480288591735 0.04746174850277003 191:0.7499999703443155 195:0.7500000069727178 196:1.0 
0.0729510986479664 0.4233625812999129 197:1.0 198:1.0 199:1.0 1295:1.0 
0.0 0.172875564103577 57:0.6666666934800648 125:0.6000000750100607 200:1.0 201:1.0 
0.0 0.038551977596063894 202:1.0 
0.46830160774043145 0.33715775842104434 13:0.7499999999999999 70:0.6666666542420482 72:0.7499999802170255 85:1.0 101:0.6666666917688111 148:0.7499999547523951 189:0.7499999850310722 205:0.7500000219170877 206:0.6666666666666667 207:0.6666666551215595 208:0.7499999658879616 209:1.0 1189:1.0 
0.0 0.5 212:0.7499999857759053 213:1.0 
0.4716882646632331 0.5 218:0.7499999658835783 
0.5 0.5 
0.023268627448402968 0.5 22:0.6666666666666667 225:0.7499999900994392 226:1.0 
0.23265073405894848 0.3809097759033403 227:1.0 228:1.0 229:0.749999984697561 230:0.7499999436517816 231:1.0 232:1.0 
0.45833713266126314 0.2560469035294865 157:1.0 233:1.0 234:0.749999978464584 235:0.7500000081434751 1509:1.0 
0.0 0.5 237:1.0 238:1.0 239:1.0 
0.17822149384789615 0.0 40:0.624999978284696 105:1.0 240:1.0 241:1.0 242:0.7499999999999999 243:0.7499999737004802 244:0.7499999686186495 245:0.7499999802170255 
0.35692607071038357 0.47895611689612105 63:0.6666666799723805 72:0.5 208:0.5 246:1.0 247:0.6666666900440184 248:0.4999999870322288 249:0.6666666666666666 1556:0.6666666882101472 
0.08749939143858045 0.18685714648575902 2:0.6249999830795926 28:0.7499999442495384 230:0.7499999436517816 249:1.0 251:1.0 252:0.7499999857759053 253:1.0 254:0.749999967794279 
0.5 0.5 255:0.7499999703443155 1150:1.0 
0.0 0.5 18:0.7499999675805721 258:0.571428590985374 
0.009477851163347855 0.2912383401822792 193:1.0 194:1.0 
0.024925957161859295 0.09800480741390638 192:0.7499999737004802 254:0.749999967794279 259:1.0 260:1.0 261:0.7499999658835783 
0.1310372219081669 0.0 125:0.4000000750100607 191:1.0 192:0.5 261:0.49999998635343135 274:1.0 275:0.6666667181330785 276:1.0 277:0.6666667088436418 278:0.499999985643056 279:0.6666666957272209 280:0.5 1289:0.6666667181330785 
0.0 0.42341452602355817 191:0.7499999703443155 274:0.7499999673068779 276:0.7499999493170039 281:1.0 282:0.75 283:1.0 
0.0 0.1552659953432908 281:1.0 284:1.0 285:1.0 
0.0 0.5 284:1.0 285:1.0 
0.22040026520810904 0.0 14:0.6666666666666667 101:0.4444444862813518 111:0.8333333223427921 291:0.6666666957272209 292:0.4444444533149204 293:0.5 294:0.44444446331377524 295:0.6666667224557367 296:0.5 297:0.6666666793103067 1173:0.6666667088436418 
0.013168915142035484 0.0 27:0.7500000100088426 134:1.0 298:0.7499999675805721 299:1.0 
0.041673278127475566 0.17987595265846623 27:0.4999999799823148 105:0.6666666793103067 135:0.3809523769055201 167:0.5 237:0.6666667068867623 281:0.6666666666666666 299:0.6666667034634209 300:0.5 301:0.5 302:0.4999999757635864 303:0.6666667224557367 304:0.6666667181330785 305:1.0 
0.10623486333562132 0.31800494822750613 16:0.16666666666666666 55:0.25 101:0.33333334588440555 115:0.24999998760648817 125:0.6000000750100607 127:0.25 135:1.0 289:0.5 313:0.1875000079078639 314:0.15625000080799656 315:0.2499999981406086 316:0.25 317:0.5625000062399119 318:0.3749999950497196 1574:0.25 
0.5 0.5 
0.03349603091063105 0.5 296:0.7499999850310722 319:1.0 320:1.0 321:1.0 
0.21400666771406518 0.20775205321233628 23:0.750000009648912 115:1.0 283:1.0 322:1.0 
0.5 0.5 323:0.6666667159072489 
0.27667357602361525 0.0 84:1.0 327:0.7500000123533026 328:1.0 329:0.749999939408966 
0.27241678595240576 0.5 331:1.0 332:1.0 
0.3410932535102906 0.5 22:0.444444479392669 28:1.0 43:0.4166666917692194 69:0.6666667088436418 217:0.6666667071830824 338:1.0 
0.49882729093417505 0.0 1:0.749999980836647 22:0.6666666666666667 111:0.6249999752712823 222:1.0 242:0.7499999999999999 339:1.0 340:0.7500000254621214 341:1.0 
0.5 0.5 
0.5 0.5 345:1.0 346:0.7499999739416352 347:1.0 348:0.7500000219170877 349:1.0 350:0.7500000219170877 
0.09590175739337342 0.0 351:0.7499999865118231 352:1.0 
0.0 0.5 353:1.0 354:1.0 
0.11550103469444413 0.29012641993146115 22:0.444444479392669 43:0.4166666917692194 45:0.6666667167539756 57:0.44444448913344137 165:0.6666666882101472 169:0.4000000101220661 355:0.49999998108167637 356:1.0 1203:0.6666666882101472 
0.5 0.5 12:1.0 22:0.6666666666666667 174:0.7499999737004802 177:0.7499999658835783 357:1.0 358:1.0 1137:1.0 
0.0 0.5 359:1.0 
0.0 0.5 0:1.0 22:0.6666666666666667 114:0.6249999841811699 130:1.0 146:0.7499999857759053 
0.41090101829162307 0.41419320485478067 27:0.7500000100088426 146:0.7499999857759053 361:1.0 
0.0 0.3095017239394669 15:0.7499999547523951 22:0.6666666666666667 28:0.7499999442495384 310:0.749999980953552 338:0.7499999493170039 362:1.0 363:1.0 364:1.0 
0.08965371670757373 0.5 61:1.0 366:1.0 
0.0 0.16251736035801004 148:0.7499999547523951 222:1.0 
0.05825981871372821 0.0 218:0.7499999658835783 367:0.7499999851473375 368:0.7500000219170877 369:1.0 370:1.0 
0.1848427676775777 0.045034043846273096 76:0.6666666917688111 206:0.6666666666666667 236:1.0 374:1.0 377:0.7499999905408382 378:1.0 379:1.0 380:1.0 381:1.0 382:1.0 383:1.0 384:1.0 1230:1.0 
0.5 0.5 224:1.0 323:0.6666667159072489 
0.0 0.18983017320474355 35:0.6000000184060067 171:0.75 
0.2978803968746707 0.40740353974826493 389:1.0 390:1.0 391:1.0 392:1.0 1156:1.0 
0.0 0.393363707402986 393:0.25000000563144403 394:0.3333333544218209 395:0.3333333745064629 396:0.22222222853824913 397:1.0 
0.05073096602844272 0.0 95:0.75 403:1.0 
0.0 0.5 97:0.625 
0.0 0.5 164:1.0 404:0.749999986677131 
0.09184307569734504 0.0 6:0.6 405:1.0 406:1.0 407:0.75 408:0.7499999999999999 
0.26938021108808796 0.5 75:1.0 409:1.0 410:1.0 411:0.7499999747860352 412:1.0 
0.1804122834125098 0.0 72:0.7499999802170255 414:1.0 415:1.0 
0.08589106008551006 0.08079401489971183 1:1.0 72:0.5 81:0.666666726735407 95:1.0 114:0.4166666877584401 125:0.4000000750100607 230:1.0 256:0.5 258:0.3809523939902493 282:0.5 312:0.6666666781935748 355:0.49999998108167637 377:0.49999998108167637 379:0.6666666556859534 414:0.6666666666666667 416:0.6666666666666666 417:1.0 418:0.6666666957272209 419:0.6666666556859534 420:1.0 421:0.5 422:0.6666666556859534 423:0.6666666781935748 424:0.6666666785092171 425:1.0 426:0.6666666781935748 427:0.5000000118622737 428:0.6666666882101472 1258:0.6666667088436418 1361:1.0 1493:0.4999999870322288 
0.0 0.32479583249580984 175:1.0 429:1.0 430:1.0 
0.21810727456738935 0.47047661035152477 254:0.749999967794279 344:1.0 431:1.0 432:0.6666666482802565 433:1.0 
0.08574914899768558 0.49109934316660747 13:0.7499999999999999 103:0.7499999895978855 434:1.0 435:1.0 1294:1.0 
0.5 0.5 437:1.0 
0.0 0.4931612566937897 70:0.6666666542420482 77:0.7499999658835783 385:1.0 438:1.0 439:1.0 
0.15431642661020104 0.5 134:1.0 145:1.0 287:0.7499999436517816 371:1.0 421:0.75 
0.5 0.5 442:0.6666666492046776 
0.0 0.28071545708105866 20:0.75 175:1.0 443:1.0 444:1.0 445:1.0 446:1.0 447:1.0 
0.32805139122924426 0.0 97:0.625 229:0.749999984697561 242:0.7499999999999999 355:0.7499999905408382 448:1.0 449:1.0 
0.23325804924007554 0.07643682181970464 148:1.0 176:0.6666667034634209 202:0.6666666798690336 222:0.6666666802688349 447:0.6666666882101472 450:0.49999998635343135 451:0.6666667034634209 
0.1349671289070061 0.5 34:0.6250000062370534 90:0.7499999778996701 91:0.7499999850310722 92:0.7499999658835783 93:0.7499999737004802 94:0.7499999753013442 
0.5 0.5 
0.0 0.5 171:0.75 360:1.0 
0.0 0.5 452:1.0 
0.5 0.5 
0.0 0.22263492086736883 95:0.75 101:0.6666666917688111 367:0.7499999851473375 456:1.0 457:0.749999980836647 
0.03367727918853802 0.5 89:0.7500000123533026 
0.05852340937106429 0.2598055984330759 245:0.7499999802170255 458:0.75 459:1.0 1561:1.0 
0.40392039493825277 0.5 421:0.75 461:1.0 
0.0 0.09852622702946458 72:0.7499999802170255 213:1.0 320:1.0 351:0.7499999865118231 1484:1.0 
0.0 0.4968151646473146 5:1.0 58:0.749999980836647 65:1.0 101:0.6666666917688111 131:1.0 282:0.75 287:0.7499999436517816 327:0.7500000123533026 368:0.7500000219170877 450:0.7499999658835783 
0.5 0.5 
0.0 0.15339853846979368 467:1.0 468:1.0 469:0.7499999421002911 470:1.0 
0.0 0.5 280:0.749999986677131 471:1.0 472:0.6000000160560682 473:1.0 
0.0 0.2081007805617127 474:1.0 475:1.0 476:1.0 
0.05452405741262392 0.16328826574176905 471:1.0 477:0.6666666753252691 1324:1.0 
0.0 0.39020899511124835 70:0.6666666542420482 111:0.6249999752712823 135:0.571428551194267 256:0.7499999689729333 350:0.7500000219170877 479:0.666666648404121 480:1.0 1188:1.0 
0.0 0.5 206:0.6666666666666667 444:1.0 
0.0 0.5 6:0.6 490:0.5999999855207659 
0.4316728399825187 0.2556438556660117 5:1.0 313:0.75 495:1.0 
0.14848568538400958 0.5 16:0.6666666666666666 431:1.0 
0.0 0.5 496:0.749999980836647 
0.0 0.5 22:0.6666666666666667 255:0.7499999703443155 405:1.0 1296:1.0 
0.0 0.12416797786136308 182:1.0 235:0.7500000081434751 497:0.75 
0.0 0.5 135:0.571428551194267 237:1.0 308:1.0 498:1.0 
0.0 0.5 103:0.5000000208042291 125:0.4000000750100607 135:0.3809523769055201 161:0.5000000151936554 162:0.6666667224557367 202:0.6666666798690336 278:0.499999985643056 408:1.0 451:0.6666667034634209 499:0.696969671418833 500:0.6666666666666666 
0.0 0.5 76:0.6666666917688111 416:1.0 501:1.0 502:1.0 
0.23675912299110413 0.3706196511446706 317:0.7500000083198824 507:1.0 
0.5 0.5 
0.43725648336008077 0.029505352623410187 97:0.625 229:0.749999984697561 262:1.0 508:1.0 
0.19157593942770687 0.08500118709851154 235:0.7500000081434751 293:0.7499999514132242 509:1.0 510:1.0 1371:1.0 
0.0 0.5 219:0.30000001628695 465:0.39999999999999997 514:0.9600000204476513 
0.10213812855546445 0.5 22:0.6666666666666667 515:0.749999986677131 
0.0 0.5 479:0.666666648404121 516:1.0 
0.0 0.5 267:0.6666666890159431 324:1.0 362:0.6666666793103067 517:0.6666667224557367 
0.040880500511412864 0.0 27:0.7500000100088426 101:0.6666666917688111 175:1.0 245:0.7499999802170255 331:1.0 518:0.749999967794279 
0.0 0.5 278:0.749999978464584 408:0.7499999999999999 519:0.5208333180711765 520:1.0 1171:0.5208333521952391 
0.0 0.5 521:1.0 
0.5 0.5 414:1.0 
0.5 0.5 355:0.49999998108167637 477:0.8888888744578849 523:0.6666666890159431 1186:0.444444461525555 1476:0.5000000118622737 1545:0.666666726735407 
0.5 0.5 
0.2991208229543938 0.4951322440875841 8:0.6666667167539756 524:1.0 525:0.6666667224557367 
0.37107173883697075 0.0 70:0.6666666542420482 80:1.0 256:0.7499999689729333 528:1.0 
0.0 0.5 97:0.625 141:0.7499999865118231 144:0.6249999696332647 
0.0 0.1188138559553829 13:0.7499999999999999 130:1.0 529:1.0 530:1.0 1139:0.749999980836647 
0.1269579075148778 0.5 47:1.0 268:0.7499999737004802 287:0.7499999436517816 324:0.7499999723164333 355:0.7499999905408382 416:1.0 528:1.0 532:1.0 533:1.0 534:0.7499999493170039 
0.0 0.43062576575409456 15:0.7499999547523951 28:0.7499999442495384 207:0.6666666551215595 310:0.749999980953552 363:1.0 
0.012627649258373072 0.0 535:1.0 536:1.0 537:1.0 
0.0 0.08036774406633548 171:0.75 184:1.0 270:1.0 307:0.7499999421002911 355:0.7499999905408382 538:1.0 539:1.0 
0.06661599489013574 0.0 134:1.0 135:0.571428551194267 161:0.7499999772095168 400:1.0 489:0.7499999703443155 507:1.0 543:1.0 544:0.7499999493170039 1134:1.0 
0.0 0.5 369:1.0 
0.1586522678101124 0.20135195827729951 547:1.0 548:1.0 
0.0 0.09108885546885019 434:1.0 
0.5 0.5 
0.0 0.5 35:0.6000000184060067 40:0.624999978284696 77:0.7499999658835783 103:0.7499999895978855 385:1.0 477:0.6666666753252691 549:1.0 550:1.0 1322:1.0 
0.007894287908132997 0.4170196761671929 512:1.0 
0.27474608082613633 0.5 185:0.749999978464584 233:1.0 322:1.0 347:1.0 552:0.6666667032690464 553:1.0 
0.016077717648218165 0.5 40:0.624999978284696 103:0.7499999895978855 554:1.0 555:1.0 556:0.6249999520562717 1463:1.0 
0.5 0.0028767713963534407 229:0.749999984697561 310:0.749999980953552 324:0.7499999723164333 557:0.7500000000000001 
0.0 0.5 185:0.749999978464584 309:1.0 485:1.0 558:1.0 
0.40042246210299126 0.5 206:0.6666666666666667 502:1.0 
0.005302817625279816 0.0 147:1.0 223:1.0 349:1.0 387:0.7499999904450566 528:1.0 559:1.0 560:1.0 
0.0 0.19937176479739863 43:0.8333333835384388 72:0.5 282:0.5 306:0.6666667088436418 380:0.6666667068867623 510:0.6666667224557367 564:0.6666666882101472 565:0.6666666793103067 566:0.5 567:0.6666666786561575 
0.11357041854113652 0.37981223185386914 10:0.6666666666666666 243:0.7499999737004802 1424:1.0 
0.5 0.5 68:0.7499999831074771 568:1.0 1180:1.0 
0.1397832252421989 0.09806622255625626 33:0.7499999747860352 202:1.0 450:0.7499999658835783 514:0.6000000056799031 569:0.7499999703443155 570:1.0 571:1.0 572:0.75 573:1.0 1439:1.0 
0.45445632273297204 0.5 426:1.0 574:1.0 
0.5 0.5 22:0.6666666666666667 576:0.75 
0.1606378151774415 0.5 258:0.571428590985374 264:1.0 
0.06523868730704323 0.5 44:0.4444444485646532 309:0.6666666666666667 323:0.44444446085797185 388:0.7619047730085726 407:0.5 519:0.34722222641183387 524:0.5000000165533475 575:0.6666666900440184 579:1.0 580:0.6666666666666666 581:0.5000000166397651 582:0.6666666798690336 1343:0.8888889370998639 1344:0.6666666793103067 1359:0.6666666666666666 1381:1.0 1382:1.0 1383:0.5 1384:1.0 1385:0.6666666900440184 1386:1.0 1387:0.6666667167539756 1388:0.6666667167539756 1389:0.6666667167539756 1482:1.0 
0.0 0.4417299065550091 28:0.06250000055750463 43:0.05208333741249815 235:0.062499997964131256 310:0.06250000095232239 583:1.0 584:0.0500000051825899 
0.0 0.310861293270874 334:0.7499999748570649 585:1.0 586:1.0 
0.0 0.5 22:0.6666666666666667 
0.5 0.5 145:1.0 169:0.6000000151830991 479:0.666666648404121 
0.09377179141590958 0.0 115:1.0 348:0.7500000219170877 515:0.749999986677131 
0.3399501212838238 0.0 22:0.6666666666666667 44:0.6666666543060404 63:1.0 68:0.7499999831074771 95:0.75 207:0.6666666551215595 285:1.0 591:0.7499999999999999 592:1.0 593:0.749999978464584 1466:1.0 
0.0 0.011563649216095196 594:1.0 595:1.0 596:1.0 597:1.0 
0.12101623849823054 0.0 6:0.6 376:0.75 503:1.0 1358:1.0 1562:0.7499999421002911 
0.0 0.5 560:1.0 
0.5 0.29240316425592866 299:1.0 598:1.0 599:1.0 
0.0 0.5 35:0.8000000245413422 137:0.6666666890159431 245:0.5 411:0.5000000168093099 550:0.6666666952939754 
0.0 0.0732679427375565 72:0.7499999802170255 111:0.6249999752712823 603:1.0 604:0.75 605:1.0 
0.0 0.5 125:0.6000000750100607 169:0.6000000151830991 175:1.0 514:0.6000000056799031 601:1.0 606:0.7499999675805721 607:0.7499999917233263 
0.5 0.5 297:1.0 366:0.7500000254621214 608:1.0 1302:1.0 
0.5 0.5 12:0.6666667034634209 101:0.4444444862813518 217:0.6666667071830824 322:0.6666667083095656 347:0.666666698090058 609:0.8888889385539486 610:0.6666666781935748 611:0.6666666890159431 612:0.6666667167539756 613:0.49999998033626786 614:0.6666666666666667 
0.0 0.5 15:0.7499999547523951 22:0.6666666666666667 44:0.6666666543060404 139:1.0 140:0.7499999753013442 142:1.0 310:0.749999980953552 363:1.0 407:0.75 
0.0 0.12993747738915426 2:0.6249999830795926 455:0.7499999999999999 1398:1.0 
0.0 0.5 70:0.6666666542420482 385:1.0 
0.0 0.06104044668749627 42:0.7499999531517415 134:1.0 185:0.749999978464584 1300:1.0 1459:1.0 
0.5 0.5 44:0.6666666543060404 267:1.0 
0.0 0.30810176254684635 30:1.0 237:1.0 453:1.0 576:0.75 642:0.6666666254935397 
0.2263278506633397 0.0 42:0.7499999531517415 59:1.0 125:0.6000000750100607 222:1.0 
0.0 0.3508162629445762 6:0.6 22:0.6666666666666667 175:1.0 645:1.0 646:1.0 
0.0 0.041189937515267804 0:1.0 237:1.0 366:0.7500000254621214 648:1.0 
0.42646025016489836 0.5 30:1.0 149:0.749999939408966 323:0.6666667159072489 560:1.0 651:0.6 
0.2645679947942915 0.0 44:0.6666666543060404 358:1.0 614:1.0 652:0.7499999748570649 
0.11440381650038817 0.3460718260910707 28:0.7499999442495384 70:0.6666666542420482 101:0.6666666917688111 124:1.0 180:0.7499999715261061 217:1.0 293:0.7499999514132242 519:0.5208333180711765 524:0.7499999917233263 659:1.0 660:1.0 
0.28976929632848203 0.5 125:0.6000000750100607 207:0.6666666551215595 644:1.0 661:1.0 
0.16414634633249733 0.0 125:0.6000000750100607 440:1.0 477:0.6666666753252691 
0.15621239241548332 0.5 22:0.6666666666666667 26:1.0 97:0.625 666:1.0 667:1.0 668:0.7499999865118231 
0.2915201373239049 0.0 33:0.7499999747860352 104:1.0 651:0.6 670:1.0 671:1.0 1146:1.0 
0.06883720650514771 0.18415744791690383 315:1.0 672:1.0 1396:1.0 
0.5 0.5 64:0.5000000146113918 65:0.6666666666666666 111:0.41666666117139606 189:1.0 219:0.49999998371305004 387:0.5000000191098867 673:0.6666666957272209 674:0.5 1265:0.6666666556859534 
0.06610650010111706 0.5 366:0.49999998302525245 451:0.6666667034634209 675:0.6666667181330785 1293:1.0 
0.0 0.5 22:0.8888889808579009 43:0.4166666917692194 103:0.5000000208042291 358:0.6666666814575689 479:0.44444443226941405 690:0.4999999870322288 
0.018897105984196635 0.5 486:1.0 
0.5 0.5 18:0.7499999675805721 169:0.6000000151830991 206:0.6666666666666667 408:0.7499999999999999 493:0.6666666666666666 694:1.0 695:1.0 1171:0.5208333521952391 
0.24027044996622163 0.5 15:0.7499999547523951 94:0.7499999753013442 310:0.749999980953552 322:1.0 363:1.0 386:0.666666683682305 702:0.749999980836647 1136:0.7499999999999999 
0.22794875615685237 0.0 101:0.6666666917688111 161:0.7499999772095168 229:0.749999984697561 361:1.0 619:1.0 707:1.0 
0.27546724260155603 0.5 708:1.0 709:1.0 
0.27060381701223957 0.20673179931785732 33:0.7499999747860352 154:1.0 176:1.0 388:0.5714285680974283 710:1.0 
0.0 0.01334599599782746 76:0.6666666917688111 264:1.0 520:1.0 613:0.7499999508406697 711:1.0 
0.5 0.5 345:1.0 696:0.7500000069727178 
0.1420237717694824 0.0 16:0.6666666666666666 292:0.6666666666666666 713:1.0 714:1.0 
0.31772688455014486 0.42152485528937983 201:1.0 573:1.0 715:1.0 
0.40112840523542315 0.43154919257289354 76:0.33333334588440555 125:0.30000003750503035 463:0.5 477:0.3333333246747309 497:0.37499998399131385 716:1.0 
0.0 0.18721725250133076 28:1.0 175:0.6666666507593287 245:0.5 376:1.0 427:1.0 717:0.666666726735407 
0.0 0.3225762109663691 205:0.7500000219170877 281:1.0 640:1.0 718:1.0 
0.0 0.5 180:0.7499999715261061 406:1.0 649:1.0 719:0.7500000069727178 
0.40340163238251076 0.053382067716317184 219:0.7500000081434751 377:0.7499999905408382 381:1.0 591:0.7499999999999999 720:1.0 
0.0 0.27600858130035755 4:1.0 36:0.6666666781935748 53:0.6666666882101472 63:0.6666666799723805 149:0.4999999757635864 248:0.4999999870322288 316:0.6666667181330785 721:0.5 722:0.6666666556859534 723:0.6666667224557367 724:0.5000000118622737 1157:0.6666667088436418 
0.009071601624355642 0.13979887966091273 208:0.7499999658879616 235:0.7500000081434751 506:1.0 732:1.0 
0.0 0.3482552937080652 56:1.0 733:1.0 
0.0070127135865919454 0.5 43:0.6249999811730855 734:1.0 735:1.0 
0.0015164864598845164 0.1608262160620304 43:0.6249999811730855 324:0.7499999723164333 449:1.0 734:1.0 
0.0 0.39252118352495663 148:0.7499999547523951 736:1.0 737:0.7499999421002911 
0.025608306952596395 0.0 22:0.6666666666666667 214:1.0 254:0.749999967794279 366:0.7500000254621214 607:0.7499999917233263 1181:1.0 
0.0 0.5 22:0.6666666666666667 103:0.7499999895978855 368:0.7500000219170877 739:1.0 
0.027801733966930333 0.21561300882113277 64:0.7500000219170877 741:1.0 742:1.0 1212:1.0 
0.03319365037348922 0.21672825545671606 33:1.0 35:0.4000000122706711 45:0.6666667167539756 137:0.6666666890159431 376:0.5 587:0.44444445021684603 743:0.41666664074440746 
0.5 0.0 44:0.4444444485646532 72:0.5 97:0.8333333657020278 157:0.6666666787969505 245:0.5 355:0.49999998108167637 410:0.6666666781935748 421:0.5 580:0.6666666666666666 642:0.4444444513066323 746:0.6666667088436418 
0.09468708564903447 0.0 208:0.7499999658879616 325:1.0 326:1.0 752:1.0 
0.5 0.5 366:0.7500000254621214 
0.12183883237666039 0.43655629395508233 36:1.0 237:1.0 591:0.7499999999999999 648:1.0 753:0.7499999689729333 
0.0 0.23229171844007399 0:1.0 88:0.7499999850310722 597:1.0 754:1.0 
0.0 0.5 46:1.0 
0.3034485350241652 0.3441851823676338 389:1.0 755:1.0 756:1.0 1330:1.0 
0.0 0.5 70:0.6666666542420482 84:1.0 
0.05539920009779387 0.4026724458079215 211:1.0 422:1.0 757:0.7499999703443155 
0.4273725684974537 0.5 101:0.6666666917688111 300:0.75 758:0.6999999639391826 
0.5 0.31555950964530527 6:0.6 458:0.75 532:1.0 1319:1.0 
0.0692482784272467 0.0 132:0.6666666900440184 493:0.4444444533149204 606:1.0 759:0.6666667167539756 760:0.6666666957272209 
0.2884747032350515 0.2722635719323191 72:0.5 97:0.4166666990353611 135:0.3809523769055201 180:0.5000000189825958 432:0.4444444505732478 518:1.0 724:0.5000000118622737 763:0.6666666781935748 766:0.6666667088436418 767:0.5 768:0.5 769:0.6666666882101472 770:0.666666726735407 
0.04998294214128261 0.0 130:1.0 771:0.7499999748570649 
0.5 0.5 258:0.571428590985374 387:0.7499999904450566 747:1.0 
0.0 0.5 22:0.6666666666666667 70:0.6666666542420482 288:1.0 702:0.749999980836647 762:1.0 772:1.0 773:1.0 
0.0 0.45559835541808397 114:0.6249999841811699 440:1.0 651:0.6 670:1.0 774:1.0 
0.12155200999231312 0.0 211:1.0 434:1.0 
0.09223810437081183 0.35111736195141857 67:0.29999999727068627 411:0.29999998991441407 775:1.0 776:0.3999999883757783 1405:0.2666666842676647 
0.5 0.5 345:0.6666666666666666 583:0.695652198963351 777:0.6666666556859534 
0.0 0.4043512136600953 145:1.0 368:0.7500000219170877 507:1.0 667:1.0 780:1.0 781:1.0 
0.24333278637452138 0.5 28:0.49999997769981536 782:0.6666666957272209 783:1.0 
0.15172724041113053 0.0 12:1.0 615:1.0 748:0.7499999865118231 762:1.0 784:1.0 
0.18918588596724026 0.2887053018505975 20:0.75 270:1.0 703:0.7499999857759053 
0.2691114089888462 0.020575765047671044 2:0.6249999830795926 349:1.0 421:0.75 568:1.0 634:1.0 763:1.0 785:1.0 786:1.0 
0.006947100449767181 0.5 97:0.4166666990353611 245:0.5 302:0.4999999757635864 313:0.5 323:0.8888889217159437 375:0.666666726735407 533:0.6666666882101472 736:0.6666666957272209 787:1.0 
0.3433446638447048 0.10498729449342475 171:0.75 588:1.0 739:1.0 789:1.0 
0.31596335658786867 0.0 111:0.6249999752712823 125:0.6000000750100607 299:1.0 435:1.0 
0.2642778547112167 0.5 180:0.5000000189825958 381:0.6666666781935748 421:0.5 558:0.6666666890159431 591:1.0 697:0.5 793:0.6666667088436418 
0.12209705626289365 0.5 10:0.6666666666666666 21:1.0 22:0.6666666666666667 23:0.750000009648912 324:0.7499999723164333 801:1.0 
0.0 0.5 22:0.6666666666666667 68:0.7499999831074771 70:0.6666666542420482 111:0.6249999752712823 245:0.7499999802170255 428:1.0 553:1.0 568:1.0 1401:1.0 
0.0 0.5 378:1.0 414:1.0 567:1.0 803:1.0 
0.0 0.18493703222775384 22:0.6666666666666667 403:1.0 620:1.0 
0.09558700162365781 0.0 27:0.7500000100088426 44:0.6666666543060404 77:0.7499999658835783 88:0.7499999850310722 166:1.0 699:1.0 804:0.6666666523043467 
0.04912352144299438 0.5 28:0.49999997769981536 690:1.0 807:0.6666666556859534 808:0.6666667007348507 1414:1.0 
0.0 0.5 412:1.0 810:1.0 
0.0 0.5 313:0.75 355:0.7499999905408382 421:0.75 812:1.0 1268:1.0 
0.0 0.5 22:0.6666666666666667 70:0.6666666542420482 252:0.7499999857759053 529:1.0 581:0.7500000083198824 
0.2400496120535478 0.19583388602114235 22:0.6666666666666667 24:0.7499999857759053 95:0.75 624:1.0 
0.1831248759167923 0.5 8:0.6666667167539756 408:1.0 555:0.6666667181330785 
0.0 0.5 115:1.0 332:1.0 552:0.6666667032690464 
0.47555023842314836 0.5 10:0.6666666666666666 1578:1.0 
0.0 0.5 735:1.0 
0.0 0.5 103:0.7499999895978855 
0.0 0.11189219210286987 97:0.625 241:1.0 636:1.0 817:1.0 1442:1.0 
0.2482128466278516 0.08845309396942667 125:0.6000000750100607 477:0.6666666753252691 549:1.0 
0.17910353860063585 0.3544162851621282 57:0.6666666934800648 132:1.0 377:0.7499999905408382 417:0.7499999673068779 505:0.7499999748570649 645:1.0 
0.0 0.27732862422543986 10:0.6666666666666666 256:0.7499999689729333 531:1.0 
0.0 0.2404043187195349 35:0.6000000184060067 70:0.6666666542420482 529:1.0 818:1.0 819:1.0 
0.0 0.09059658068449439 226:1.0 408:0.7499999999999999 572:0.75 719:0.7500000069727178 825:1.0 826:1.0 
0.1409396617711685 0.0 463:1.0 827:1.0 
0.0 0.5 76:0.6666666917688111 1197:0.7499999737004802 
0.36862822858566036 0.3856561681474782 101:0.6666666917688111 472:0.6000000160560682 522:0.749999978464584 828:1.0 
0.31365465253339114 0.5 27:0.7500000100088426 38:0.75 829:1.0 830:0.75 
0.0 0.5 497:0.75 817:1.0 1579:0.749999939408966 
0.0 0.5 101:0.6666666917688111 346:0.7499999739416352 380:1.0 489:0.7499999703443155 497:0.75 529:1.0 786:1.0 833:0.7500000069727178 834:1.0 1149:1.0 1391:0.6000000424326377 
0.0 0.12035304354830623 27:0.7500000100088426 313:0.75 355:0.7499999905408382 453:1.0 
0.5 0.5 
0.1461348339202725 0.41193598165410894 62:0.5000000158163657 309:0.4999999786550851 429:0.5 546:0.5 573:0.5000000201100478 576:0.3750000158157278 731:0.8333333653525247 
1.4020050853437194E-4 0.0 139:1.0 387:0.7499999904450566 545:0.7499999857759053 622:1.0 624:1.0 838:1.0 
0.5 0.5 
0.2652666854506655 0.0 377:0.7499999905408382 474:1.0 839:1.0 
0.25831967235603476 0.28711394705633214 111:0.6249999752712823 246:0.7499999748570649 314:0.6250000032319862 644:1.0 840:0.5833333393377481 1195:1.0 
0.0 0.38186753181616534 310:0.749999980953552 830:0.75 
0.16355359240822026 0.27886136134448963 35:0.6000000184060067 103:0.7499999895978855 316:1.0 
0.0 0.5 190:0.6666667181330785 327:0.5 377:0.49999998108167637 841:1.0 842:0.666666726735407 1399:0.6666666957272209 
0.0 0.1005223792929748 76:0.6666666917688111 588:1.0 1505:1.0 
0.0 0.5 2:0.6249999830795926 3:1.0 106:1.0 
0.06875311100268493 0.0 76:0.4444444862813518 109:0.6666666798690336 177:1.0 236:0.6666666666666666 254:0.5 411:1.0 463:0.6666666787969505 504:0.5 
0.0 0.1650731573258178 70:0.6666666542420482 313:0.75 336:1.0 387:0.7499999904450566 
0.5 0.5 20:0.5 114:0.8333333438792201 127:0.6666667007348507 130:0.6666666802688349 135:0.7619047821390662 202:0.6666666798690336 211:0.6666667034634209 529:0.6666666666666666 550:0.6666666952939754 803:0.6666666793103067 843:0.49999998635343135 
0.0 0.1628165831100909 2:0.6249999830795926 345:1.0 806:0.7499999865118231 844:1.0 845:1.0 
0.5 0.5 
0.0 0.4364059749122049 22:0.6666666666666667 97:0.625 352:1.0 357:1.0 458:0.75 848:1.0 849:1.0 
0.0 0.29120507072699264 619:1.0 707:1.0 
0.0 0.22632385341151964 40:0.624999978284696 232:1.0 235:0.7500000081434751 334:0.7499999748570649 462:1.0 651:0.6 670:1.0 1392:1.0 
0.0 0.5 125:0.6000000750100607 145:1.0 783:0.7499999658835783 815:1.0 
0.0 0.5 497:0.75 621:0.75 1520:1.0 
0.0 0.5 141:0.7499999865118231 792:1.0 
0.062265400518735546 0.0 115:1.0 178:0.7499999851473375 850:1.0 
0.5 0.0 80:1.0 552:0.6666667032690464 593:0.749999978464584 702:0.749999980836647 752:1.0 
0.0 0.5 29:1.0 350:0.7500000219170877 
0.0 0.5 10:0.6666666666666666 768:0.7500000123533026 
0.1450593895923087 0.23537411230584168 13:0.7499999999999999 208:0.7499999658879616 233:1.0 346:0.7499999739416352 652:0.7499999748570649 759:1.0 851:1.0 852:1.0 
0.0 0.4127399568711492 49:0.5 124:0.6666666418747812 131:0.6666666666666666 386:0.44444445578820324 388:0.7619047730085726 472:0.40000001070404545 689:0.6666666786561575 
0.07904581873922774 0.17094883042386405 109:1.0 116:1.0 634:1.0 733:1.0 
0.5 0.5 2:0.6249999830795926 180:0.7499999715261061 411:0.7499999747860352 
0.4358513413382669 0.5 43:0.6249999811730855 356:0.7499999658835783 494:1.0 576:0.75 
0.0 0.29828104712140063 540:0.7499999493170039 853:1.0 854:0.7499999493170039 
0.3590046700523175 0.5 208:0.7499999658879616 237:1.0 340:0.7500000254621214 855:1.0 
0.0 0.5 226:0.499999981217259 431:0.4999999814060859 514:0.9000000511191284 
0.5 0.5 262:1.0 300:0.75 350:0.7500000219170877 412:1.0 
0.26171630532957585 0.0 68:0.7499999831074771 124:1.0 131:1.0 234:0.749999978464584 282:0.75 340:0.7500000254621214 407:0.75 437:1.0 653:0.8333332883727453 657:1.0 725:0.7499999737004802 857:1.0 858:1.0 
0.2537113000053522 0.5 95:0.75 135:0.571428551194267 479:0.666666648404121 572:0.75 719:0.7500000069727178 859:0.7499999586036538 
0.0 0.03178416185977457 6:0.6 308:1.0 366:0.7500000254621214 383:1.0 860:1.0 861:1.0 
0.5 0.5 862:1.0 
0.2344459348582529 0.0 101:0.6666666917688111 105:1.0 144:0.6249999696332647 202:1.0 411:0.7499999747860352 471:1.0 863:1.0 864:1.0 865:1.0 
0.016907291671582354 0.42268642988062255 257:1.0 814:1.0 
0.0 0.035406907098792136 29:1.0 76:0.6666666917688111 180:0.7499999715261061 711:1.0 782:1.0 813:1.0 868:1.0 
0.5 0.2767322700820905 43:0.6249999811730855 236:1.0 352:1.0 367:0.7499999851473375 869:0.7499999436517816 870:1.0 
0.5 0.5 180:0.7499999715261061 
0.0 0.5 101:0.6666666917688111 221:1.0 450:0.7499999658835783 1626:1.0 
0.0 0.2960454748553019 210:1.0 516:1.0 872:1.0 873:1.0 1282:1.0 
0.0 0.5 874:1.0 
0.47593212687642455 0.0 74:0.749999978464584 340:0.7500000254621214 408:0.7499999999999999 799:1.0 876:1.0 1161:1.0 
0.005569270651082203 0.5 23:0.3750000086840208 308:0.49999997959674763 651:0.9000000246544372 
0.03211516763821453 0.5 877:1.0 878:1.0 
0.04965294294447137 0.0 2:0.6249999830795926 22:0.6666666666666667 449:1.0 612:1.0 624:1.0 625:1.0 626:1.0 627:1.0 628:1.0 629:1.0 630:1.0 631:1.0 
0.5 0.21455424510084 22:0.444444479392669 28:0.49999997769981536 40:0.416666681143536 101:0.4444444862813518 125:0.4000000750100607 245:0.5 312:0.6666666781935748 432:0.8888889011464955 550:0.6666666952939754 593:0.499999985643056 730:0.6666666786561575 
0.0 0.26924334067663297 881:1.0 
0.0 0.5 22:0.6666666666666667 135:0.571428551194267 644:1.0 884:1.0 
0.0 0.09044526774850693 13:0.7499999999999999 596:1.0 885:1.0 
0.5 0.5 
0.3132047082592255 0.4467667528734659 605:1.0 886:0.7499999703443155 
0.0 0.22960874194369507 169:0.6000000151830991 744:1.0 745:1.0 
0.5 0.0 125:0.4000000750100607 195:1.0 222:0.6666666802688349 289:0.6666666890159431 340:0.49999998302525245 550:0.6666666952939754 889:0.6666666957272209 890:0.6666667181330785 
0.0 0.45917333447008635 254:0.37499999999999994 431:0.4999999814060859 479:0.3333333242020605 731:0.8333333653525247 
0.0 0.18365028528279073 74:0.749999978464584 
0.0 0.1108385920560277 893:1.0 894:0.666666726735407 
0.3700472682780559 0.0 2:0.6249999830795926 256:0.7499999689729333 411:0.7499999747860352 573:1.0 896:1.0 1638:1.0 
0.03293605148891826 0.5 44:0.6666666543060404 237:1.0 
0.2040334438579619 0.11056601759041707 22:0.6666666666666667 23:0.750000009648912 134:1.0 406:1.0 703:0.7499999857759053 
0.0 0.3091742843218032 57:0.44444448913344137 103:0.5000000208042291 115:0.6666666831913491 175:0.6666666507593287 377:0.49999998108167637 608:0.6666667083095656 904:1.0 
0.16719222172743756 0.0 19:0.7499999675805721 24:0.7499999857759053 340:0.7500000254621214 535:1.0 765:1.0 
0.0 0.1533341061602654 180:0.7499999715261061 392:1.0 425:0.7499999900994392 
0.5 0.5 170:0.749999978464584 317:0.7500000083198824 451:1.0 
0.02784556386982229 0.5 65:1.0 79:1.0 116:1.0 490:0.5999999855207659 756:1.0 
0.0 0.1487477621072787 1:0.749999980836647 271:1.0 317:0.7500000083198824 377:0.7499999905408382 484:1.0 587:0.6666666753252691 832:1.0 1305:1.0 
0.023486861656833724 0.5 18:0.7499999675805721 347:1.0 645:1.0 
0.025487717320774914 0.2540891286946312 331:1.0 458:0.75 905:1.0 
0.22780484086007471 0.3348924855684682 115:1.0 309:1.0 324:0.7499999723164333 343:1.0 412:1.0 524:0.7499999917233263 557:0.7500000000000001 587:0.6666666753252691 641:1.0 906:1.0 907:1.0 1347:1.0 
0.5 0.5 
0.32737030737077916 0.0 129:1.0 731:0.5555555897093598 908:1.0 909:0.7499999851473375 
0.0 0.3514611272103891 4:0.7499999831074771 22:0.6666666666666667 23:0.750000009648912 114:0.6249999841811699 175:1.0 214:1.0 632:0.6666666510817658 910:1.0 911:1.0 
0.5 0.0 43:0.6249999811730855 605:1.0 
0.27389521246404636 0.5 41:1.0 875:1.0 
9.035666721773245E-4 0.09148391608310442 70:0.6666666542420482 313:0.75 317:0.7500000083198824 403:1.0 518:0.749999967794279 539:1.0 608:1.0 625:1.0 626:1.0 
0.0 0.47451775130161955 70:0.3333333308484096 76:0.33333334588440555 124:0.4999999814060859 129:0.5 333:0.5 514:0.9000000511191284 864:0.5 917:0.7499999493170039 1445:0.37499998430932474 
0.0 0.5 22:0.6666666666666667 144:0.6249999696332647 356:0.7499999658835783 479:0.666666648404121 
0.32870455727182313 0.5 22:0.6666666666666667 103:0.7499999895978855 115:1.0 125:0.6000000750100607 144:0.6249999696332647 181:1.0 245:0.7499999802170255 325:1.0 558:1.0 617:1.0 664:0.7499999748570649 921:1.0 1168:1.0 1170:1.0 1627:1.0 
0.0 0.5 103:0.7499999895978855 751:1.0 922:1.0 
0.17186448508516147 0.0 65:1.0 170:0.749999978464584 622:1.0 884:1.0 923:1.0 
0.0 0.43269311952520756 82:0.666666726735407 103:0.5000000208042291 145:0.6666666827645111 368:1.0 860:0.6666667034634209 1297:0.6666667088436418 
0.06695779249910416 0.29700285920874475 149:0.749999939408966 376:0.75 756:1.0 
0.015930132628937423 0.0 74:0.749999978464584 479:0.666666648404121 522:0.749999978464584 700:0.7500000123533026 926:1.0 927:1.0 
0.0 0.5 296:0.7499999850310722 
0.0 0.5 35:0.6000000184060067 1299:1.0 1317:1.0 
0.5 0.5 689:1.0 
0.07421962156447569 0.0 45:1.0 218:0.7499999658835783 928:1.0 1328:1.0 
0.0 0.5 448:1.0 694:1.0 918:1.0 
0.09962597159117481 0.0 199:1.0 411:0.7499999747860352 591:0.7499999999999999 742:1.0 
0.0 0.5 43:0.6249999811730855 929:1.0 930:1.0 
0.3470959019335053 0.5 28:0.7499999442495384 40:0.624999978284696 43:0.6249999811730855 111:0.6249999752712823 324:0.7499999723164333 382:1.0 550:1.0 551:1.0 1158:1.0 
0.0 0.5 449:1.0 
0.0 0.04166404063408472 2:0.6249999830795926 239:1.0 404:0.749999986677131 873:1.0 1227:1.0 
0.5 0.5 10:0.6666666666666666 348:0.7500000219170877 
0.38187429411212614 0.4759304311681372 934:0.60000002253929 935:1.0 
0.0 0.4857690913477369 64:0.7500000219170877 161:0.7499999772095168 927:1.0 
0.2766190019369536 0.5 5:1.0 287:0.7499999436517816 
0.0 0.5 22:0.6666666666666667 358:1.0 372:1.0 545:0.7499999857759053 714:1.0 
0.17302033260660485 0.5 95:0.75 763:1.0 938:1.0 
0.018875775506489327 0.0 940:1.0 
0.06131104914103124 0.5 67:0.49999998635343135 205:0.5000000146113918 281:0.6666666666666666 340:0.49999998302525245 410:0.6666666781935748 941:1.0 1145:0.6666667007348507 
0.32630078041479105 0.5 330:0.6666667059561432 367:0.5 522:0.499999985643056 860:0.6666667034634209 933:1.0 
0.0012518012196280153 0.0 646:1.0 
0.5 0.5 
0.11944400912175944 0.0 115:1.0 245:0.7499999802170255 411:0.7499999747860352 412:1.0 620:1.0 643:1.0 847:1.0 
0.0 0.5 22:0.6666666666666667 242:0.7499999999999999 345:1.0 394:1.0 
0.03260466066395342 0.0 11:1.0 268:0.7499999737004802 532:1.0 551:1.0 566:0.75 782:1.0 946:1.0 947:1.0 
0.017608260942089216 0.2313766299485029 646:1.0 
0.29384134050336586 0.5 28:0.7499999442495384 207:0.6666666551215595 310:0.749999980953552 407:0.75 509:1.0 610:1.0 693:0.7499999857759053 948:1.0 949:0.7499999857759053 
0.0 0.5 4:0.7499999831074771 313:0.75 355:0.7499999905408382 
0.0 0.12714953199376083 490:0.5999999855207659 730:1.0 803:1.0 950:1.0 
0.0 0.3754243273139315 894:1.0 1596:1.0 
0.3128912567535646 0.3499105604031982 324:0.7499999723164333 514:0.6000000056799031 562:1.0 951:1.0 952:1.0 953:1.0 
0.0 0.5 13:0.7499999999999999 
0.19858876452433294 0.2134572343513318 4:0.7499999831074771 208:0.7499999658879616 954:1.0 
0.07395160981276341 9.950773915967013E-4 66:1.0 117:0.7499999703443155 135:0.571428551194267 377:0.7499999905408382 409:1.0 456:1.0 485:1.0 545:0.7499999857759053 810:1.0 
0.18345516221678604 0.0 345:1.0 382:1.0 436:0.7499999818196824 672:1.0 951:1.0 
0.5 0.0072160338101894 129:1.0 345:1.0 714:1.0 
0.0 0.5 28:0.7499999442495384 479:0.666666648404121 514:0.6000000056799031 
0.2733787994663065 0.5 14:1.0 226:1.0 421:0.75 609:0.6666666815661846 
0.1027253927898084 0.4775658681428871 13:0.5 111:0.41666666117139606 195:0.4999999860545643 289:0.6666666890159431 432:0.4444444505732478 550:0.6666666952939754 611:0.6666666890159431 767:1.0 
0.11005574275761074 0.45219904111265524 22:0.6666666666666667 121:1.0 393:0.7499999493170039 455:0.7499999999999999 747:1.0 885:1.0 958:0.7499999436517816 
0.2937283456361937 0.0 28:0.49999997769981536 174:0.5 247:0.6666666900440184 376:1.0 454:0.6666667181330785 822:0.6666666781935748 
0.07061923296968763 0.5 282:0.75 380:1.0 
0.1789569688896013 0.0 256:0.7499999689729333 322:1.0 364:1.0 408:0.7499999999999999 960:1.0 
0.0 0.2781208689055848 118:0.7500000123533026 
0.5 0.5 
0.0 0.5 23:0.750000009648912 372:1.0 729:1.0 759:1.0 
0.0 0.5 115:1.0 
0.0 0.5 94:0.3749999876506721 514:0.9000000511191284 651:0.9000000246544372 848:0.5000000158163657 957:0.5 
0.5 0.5 961:1.0 
0.1507476307066205 0.2975519626469465 7:1.0 33:0.7499999747860352 125:0.6000000750100607 187:1.0 233:1.0 252:0.7499999857759053 296:0.7499999850310722 411:0.7499999747860352 511:1.0 549:1.0 697:0.7499999850310722 743:0.6249999611166113 
0.5 0.5 43:0.6249999811730855 113:1.0 
0.5 0.5 23:0.750000009648912 376:0.75 607:0.7499999917233263 
0.0 0.5 114:0.6249999841811699 169:0.6000000151830991 217:1.0 421:0.75 509:1.0 581:0.7500000083198824 860:1.0 962:1.0 1393:1.0 
0.0 0.37505330408388593 924:1.0 
0.0 0.5 103:0.7499999895978855 494:1.0 854:0.7499999493170039 963:1.0 
0.0 0.5 567:1.0 964:1.0 
0.5 0.5 44:0.6666666543060404 214:1.0 
0.0 0.19357000812995082 967:1.0 968:1.0 
0.11562230554507007 0.5 357:1.0 809:1.0 887:1.0 964:1.0 969:1.0 
0.5 0.5 22:0.6666666666666667 252:0.7499999857759053 484:1.0 800:1.0 970:1.0 
0.0 0.5 17:1.0 184:1.0 
0.18535488431239053 0.09418383870791609 38:0.75 46:0.5555555457923671 350:0.7500000219170877 926:1.0 
0.0 0.5 35:0.6000000184060067 97:0.625 103:0.7499999895978855 179:0.6250000088900595 577:1.0 922:1.0 
0.0 0.4874997347348108 128:1.0 508:1.0 
0.5 0.5 43:0.6249999811730855 207:0.6666666551215595 377:0.7499999905408382 972:1.0 
0.0 0.2488506369398964 973:1.0 
0.018800428131692738 0.5 204:1.0 
0.03342726223021031 0.5 712:0.7499999421002911 
0.006646183504280536 0.5 43:0.6249999811730855 633:1.0 
0.17979525513754716 0.5 145:1.0 387:0.7499999904450566 516:1.0 975:0.6249999520562717 
0.017598062780874273 0.0429742914313284 22:0.6666666666666667 224:1.0 239:1.0 358:1.0 444:1.0 446:1.0 536:1.0 976:1.0 1219:1.0 1520:1.0 
0.0 0.39679176973833125 76:0.6666666917688111 127:1.0 180:0.7499999715261061 313:0.75 479:0.666666648404121 514:0.6000000056799031 599:1.0 928:1.0 977:1.0 1283:1.0 
0.5 0.5 
0.0 0.13028096852508256 27:0.4999999799823148 40:0.8333333333333333 111:0.41666666117139606 125:0.4000000750100607 200:0.666666726735407 207:0.4444444598379205 376:0.5 755:0.6666667007348507 944:0.6666666882101472 
0.5 0.5 28:0.7499999442495384 301:0.749999986677131 501:1.0 980:0.749999980836647 
0.0 0.21208141744177417 22:0.6666666666666667 217:1.0 308:1.0 771:0.7499999748570649 
0.18948657557917323 0.0 35:0.6000000184060067 38:0.75 59:1.0 127:1.0 316:1.0 723:1.0 981:1.0 
0.26294015944892485 0.5 519:0.5208333180711765 629:1.0 630:1.0 631:1.0 684:0.7500000180392478 687:1.0 688:1.0 689:1.0 789:1.0 
0.12682880778822625 0.5 608:1.0 621:0.75 970:1.0 
0.2752879781437392 0.5 161:0.7499999772095168 346:0.7499999739416352 442:0.6666666492046776 982:1.0 
0.0 0.38917152384944603 45:0.6666667167539756 175:0.6666666507593287 358:0.6666666814575689 676:0.6666666957272209 700:0.5 806:1.0 
0.19958554825504102 0.0 43:0.6249999811730855 108:1.0 245:0.7499999802170255 292:0.6666666666666666 349:1.0 350:0.7500000219170877 491:0.7499999772095168 678:1.0 983:1.0 1613:1.0 
0.44547451255899123 0.0 329:0.749999939408966 465:1.0 574:1.0 961:1.0 
0.09130090220037979 0.43476084757195865 4:0.7499999831074771 22:0.6666666666666667 43:0.6249999811730855 175:1.0 258:0.571428590985374 387:0.7499999904450566 442:0.6666666492046776 494:1.0 638:1.0 831:1.0 906:1.0 907:1.0 984:1.0 1514:1.0 
0.5 0.5 43:0.6249999811730855 115:1.0 282:0.75 914:1.0 985:0.7499999865118231 
0.0 0.5 76:0.6666666917688111 566:0.75 582:1.0 1583:0.7499999493170039 
0.5 0.03630014853910852 80:1.0 103:0.7499999895978855 188:1.0 210:1.0 298:0.7499999675805721 1154:1.0 
0.14505424725513402 0.5 28:0.7499999442495384 44:0.6666666543060404 68:0.7499999831074771 115:1.0 795:1.0 
0.1300637488720645 0.5 458:0.75 749:1.0 1228:1.0 
0.31985139407362023 0.25187252620624195 278:0.749999978464584 385:1.0 739:1.0 909:0.7499999851473375 919:0.7499999737004802 941:0.7499999421002911 
0.5 0.5 988:1.0 
0.40038365695777584 0.5 258:0.3809523939902493 347:0.666666698090058 513:0.6666666882101472 697:1.0 
0.354062617097938 0.38954645105588775 115:0.6666666831913491 129:0.6666666900440184 317:1.0 377:0.49999998108167637 500:0.6666666666666666 515:0.5 596:0.6666667181330785 659:0.6666667088436418 853:0.6666667088436418 989:0.6666667224557367 1452:0.6666667181330785 
0.031168887299040167 0.0 345:1.0 622:1.0 739:1.0 952:1.0 
0.0 0.08217101032752715 339:1.0 
0.19683876805969103 0.5 28:0.7499999442495384 49:0.7499999645006074 
0.40959788729998065 0.43550402485575535 44:0.6666666543060404 376:0.75 991:1.0 
0.46265706464731077 0.2774220255715 700:0.7500000123533026 823:1.0 992:1.0 
0.0 0.3502862652090581 240:1.0 241:1.0 496:0.749999980836647 566:0.75 
0.3115692942394171 0.5 407:0.75 993:1.0 
0.10994565623656195 0.46824365012026775 5:0.6666667071830824 15:0.5 64:1.0 125:0.4000000750100607 219:0.49999998371305004 387:0.5000000191098867 416:0.6666666666666666 524:0.5000000165533475 634:0.6666666786561575 1506:0.666666726735407 
0.4992187353112202 0.0 27:0.7500000100088426 28:0.7499999442495384 131:1.0 245:0.7499999802170255 427:0.7499999703443155 557:0.7500000000000001 563:1.0 971:1.0 
0.1349971310606055 0.0 222:1.0 245:0.7499999802170255 298:0.7499999675805721 550:1.0 994:1.0 1250:1.0 
0.2493087066651449 0.11355970601264066 27:0.7500000100088426 57:0.6666666934800648 154:1.0 402:1.0 572:0.75 726:1.0 870:1.0 960:1.0 995:1.0 
0.1318084317176742 0.21844854977152536 136:1.0 435:1.0 554:1.0 909:0.7499999851473375 
0.018772290579144132 0.5 488:1.0 
0.015761269773119497 0.5 44:0.8888888971293064 201:0.6666666556859534 309:0.6666666666666667 345:0.6666666666666666 514:0.8000000454392252 997:0.5000000118622737 
0.0 0.4701291168608982 101:0.6666666917688111 639:1.0 
0.40140573120833123 0.5 115:1.0 1579:0.749999939408966 
0.5 0.5 
0.5 0.5 125:0.30000003750503035 138:0.8571428274360401 998:0.5 1301:0.5 
0.0 0.5 6:0.6 125:0.6000000750100607 310:0.749999980953552 323:0.6666667159072489 479:0.666666648404121 
0.3255018984543922 0.14675594956040702 147:1.0 148:0.7499999547523951 258:0.571428590985374 387:0.7499999904450566 600:1.0 608:1.0 983:1.0 
0.0 0.05086539794207559 325:1.0 326:1.0 367:0.7499999851473375 
0.1977003441448381 0.5 22:0.6666666666666667 23:0.750000009648912 161:0.7499999772095168 222:1.0 346:0.7499999739416352 358:1.0 911:1.0 
0.0 0.2911757789271335 267:1.0 275:1.0 
0.0 0.3891432854993134 10:0.6666666666666666 201:1.0 294:0.6666666828403788 367:0.7499999851473375 385:1.0 393:0.7499999493170039 715:1.0 
0.0 0.5 177:1.0 
0.021196653116096666 0.17136455619290272 43:0.6249999811730855 262:1.0 384:1.0 733:1.0 
0.19182571947695137 0.18430648883382317 156:0.6666667181330785 207:0.4444444598379205 236:0.6666666666666666 376:0.5 755:0.6666667007348507 757:1.0 
0.09141038042965352 0.5 14:1.0 28:0.7499999442495384 315:1.0 913:1.0 
0.19645026084315076 0.5 1151:0.6250000000000001 
0.29101434130730636 0.4693061182292163 88:1.0 300:0.5 881:0.6666667224557367 1004:0.6666666890159431 1005:0.5000000112628881 1593:0.6666667181330785 
0.0 0.43937765696827336 107:0.6666667007348507 637:1.0 1455:0.6666666957272209 
0.026433078293019285 0.10291334697977918 235:0.7500000081434751 281:1.0 898:1.0 899:1.0 900:1.0 901:1.0 902:1.0 903:1.0 959:1.0 1003:1.0 
0.4992051974682953 0.0 22:0.6666666666666667 42:0.7499999531517415 368:0.7500000219170877 593:0.749999978464584 608:1.0 739:1.0 1007:1.0 
0.13470634026999528 0.5 6:0.6 35:0.6000000184060067 349:1.0 407:0.75 800:1.0 
0.033136614528922255 0.16679494309394724 435:1.0 1597:1.0 1637:0.749999939408966 
0.28693957313351104 0.3203244959262582 49:0.7499999645006074 139:1.0 140:0.7499999753013442 421:0.75 764:0.7499999737004802 939:1.0 942:1.0 
0.0 0.05609581976606628 49:0.7499999645006074 76:0.6666666917688111 125:0.6000000750100607 657:1.0 944:1.0 1008:1.0 
0.5 0.41979228737827007 111:0.6249999752712823 313:0.75 592:1.0 690:0.7499999675805721 
0.5 0.5 58:0.749999980836647 72:0.7499999802170255 245:0.7499999802170255 293:0.7499999514132242 314:0.6250000032319862 466:0.6666666506806793 576:0.75 662:1.0 665:1.0 785:1.0 960:1.0 
0.5 0.5 
0.003538379767908281 0.0 72:0.7499999802170255 312:1.0 315:1.0 414:1.0 415:1.0 493:0.6666666666666666 
0.0 0.03511204733906595 497:0.75 530:1.0 621:0.75 1010:1.0 
0.1310830647499915 0.2032697826052226 125:0.4000000750100607 133:0.6666666882101472 144:0.4166666734148301 225:1.0 1207:0.8333333682015006 
0.2082589285800737 0.0 2:0.6249999830795926 22:0.6666666666666667 1148:1.0 
0.023741682669879353 0.5 79:0.6666666785092171 118:1.0 119:0.6666666556859534 437:0.6666667034634209 
0.0 0.24102131740887658 49:0.7499999645006074 550:1.0 
0.039370269611953744 0.0 477:0.6666666753252691 905:1.0 921:1.0 1012:1.0 
0.030056996125259812 0.5 44:0.6666666543060404 230:0.7499999436517816 665:1.0 916:1.0 1282:1.0 
0.0 0.17956419870037563 315:1.0 371:1.0 390:1.0 514:0.6000000056799031 602:1.0 
0.5 0.5 1139:0.749999980836647 
0.0 0.5 101:0.6666666917688111 103:0.7499999895978855 256:0.7499999689729333 494:1.0 691:1.0 
0.0 0.00478693692078147 92:0.7499999658835783 235:0.7500000081434751 281:1.0 758:0.6999999639391826 898:1.0 899:1.0 900:1.0 901:1.0 902:1.0 903:1.0 959:1.0 
0.5 0.5 16:0.6666666666666666 
0.0 0.20229957464700493 22:0.6666666666666667 102:0.666666648404121 185:0.749999978464584 817:1.0 
0.029976429030094835 0.5 123:1.0 324:0.7499999723164333 391:1.0 502:1.0 
0.0 0.21718420009673847 256:0.7499999689729333 494:1.0 514:0.6000000056799031 515:0.749999986677131 
0.05931229623331615 0.5 74:1.0 347:0.666666698090058 557:0.5 756:0.6666666666666666 
0.0 0.12996531012773313 666:1.0 718:1.0 
0.152743039242681 0.32320334263508077 123:1.0 351:0.7499999865118231 371:1.0 384:1.0 691:1.0 1154:1.0 
0.5 0.0 74:0.749999978464584 340:0.7500000254621214 408:0.7499999999999999 
0.11213963706816607 0.5 340:0.7500000254621214 404:0.749999986677131 1567:1.0 
0.0 0.5 358:1.0 904:0.7499999675805721 1014:0.5625000124901902 1015:1.0 
0.0 0.20088873018962797 145:1.0 563:1.0 652:0.7499999748570649 
0.0 0.5 27:0.7500000100088426 40:0.624999978284696 70:0.6666666542420482 97:0.625 599:1.0 979:1.0 1017:1.0 
0.3118371150485514 0.0 484:1.0 492:1.0 771:0.7499999748570649 
0.0 0.1771864919001258 217:1.0 308:1.0 514:0.6000000056799031 516:1.0 
0.5 0.5 
0.0 0.10788952951384491 59:1.0 88:0.7499999850310722 891:1.0 1001:1.0 
0.36312573987530716 0.5 219:0.7500000081434751 472:0.6000000160560682 496:0.749999980836647 557:0.7500000000000001 
0.259807776227369 0.0 175:1.0 208:0.7499999658879616 245:0.7499999802170255 310:0.749999980953552 351:0.7499999865118231 615:1.0 958:0.7499999436517816 1018:1.0 
0.0 0.5 22:0.6666666666666667 218:0.7499999658835783 245:0.7499999802170255 820:0.7499999421002911 
0.0 0.5 28:0.7499999442495384 43:0.6249999811730855 50:0.6666666815661846 94:0.7499999753013442 235:0.7500000081434751 310:0.749999980953552 584:0.6000000155477697 983:1.0 
0.13859644867243615 0.5 14:1.0 211:1.0 296:0.7499999850310722 979:1.0 
0.0 0.5 577:1.0 
0.08289939434084985 0.29223504810265055 456:1.0 689:1.0 
0.012918665052291979 0.0 34:0.6250000062370534 90:0.7499999778996701 91:0.7499999850310722 92:0.7499999658835783 93:0.7499999737004802 94:0.7499999753013442 246:0.7499999748570649 1019:1.0 1020:1.0 
0.0 0.33219226543866676 514:0.6000000056799031 581:0.7500000083198824 
0.27612785565303555 0.4204153876311398 102:0.3333333242020605 170:0.374999989232292 615:0.4999999805181448 801:0.5 1018:0.5 1022:1.0 1023:0.5 1502:0.5 
0.0 0.3198608901620964 759:1.0 760:1.0 
0.5 0.5 
0.0 0.5 497:0.75 
0.018822407862307666 0.5 1397:1.0 
0.0 0.5 131:0.5 333:0.5 345:0.5 376:0.375 514:0.9000000511191284 714:0.5 803:0.5 
0.0 0.013282955068507227 97:0.8333333657020278 111:0.41666666117139606 355:0.49999998108167637 1024:0.6666667088436418 
0.06744614408523476 0.0 10:0.6666666666666666 17:1.0 505:0.7499999748570649 717:1.0 807:1.0 924:1.0 1438:1.0 
0.0 0.5 22:0.6666666666666667 42:0.7499999531517415 
0.5 0.5 35:0.8000000245413422 103:0.5000000208042291 114:0.4166666877584401 131:0.6666666666666666 254:0.5 271:0.666666726735407 729:0.6666666890159431 1203:0.6666666882101472 
0.5 0.5 455:0.7499999999999999 
0.0 0.20769714124696517 20:0.75 103:0.7499999895978855 175:1.0 377:0.7499999905408382 655:1.0 664:0.7499999748570649 737:0.7499999421002911 
0.0 0.5 248:0.7499999675805721 1025:1.0 1026:1.0 
0.07199839514236989 0.5 22:0.6666666666666667 70:0.6666666542420482 607:0.7499999917233263 634:1.0 790:1.0 
0.5 0.5 379:1.0 
0.0 0.014792257116210713 108:0.6666666781935748 431:0.6666666418747812 436:1.0 
0.5 0.5 145:1.0 839:1.0 
0.0 0.5 111:0.6249999752712823 457:0.749999980836647 756:1.0 980:0.749999980836647 1028:1.0 
0.0 0.5 125:0.20000003750503034 514:1.0 988:0.3333333745064629 
0.3333257226195036 0.11448134905442069 132:1.0 136:1.0 302:0.749999939408966 711:1.0 
0.2660679557745343 0.5 38:0.5 70:0.8888889468704424 147:0.6666667088436418 175:0.6666666507593287 208:0.5 444:0.6666666781935748 548:0.6666667181330785 869:0.5 985:0.5 1029:0.6666667088436418 
0.16008850102040856 0.0 63:0.6666666799723805 64:0.5000000146113918 155:0.666666726735407 440:0.6666666666666666 747:0.6666667059561432 919:1.0 947:0.6666667088436418 992:0.666666726735407 1218:0.666666726735407 1503:0.6666667088436418 
0.0 0.5 22:0.6666666666666667 24:0.7499999857759053 43:0.6249999811730855 344:1.0 1439:1.0 
0.0 0.5 449:1.0 
0.0 0.17385918933230027 241:1.0 294:0.6666666828403788 672:1.0 688:1.0 879:0.7499999673068779 1173:1.0 
0.5 0.22952357091185563 76:0.6666666917688111 157:1.0 669:0.7499999686186495 
0.5 0.5 33:1.0 44:0.4444444485646532 67:0.49999998635343135 159:0.6666667181330785 222:0.6666666802688349 233:0.6666667034634209 396:0.4444444523394781 400:0.6666666666666666 1030:0.666666726735407 1192:0.666666726735407 
0.0 0.5 22:0.6666666666666667 24:0.7499999857759053 652:0.7499999748570649 
0.01094336378341451 0.1653202761500301 258:0.571428590985374 512:1.0 910:1.0 
0.0 0.5 380:1.0 
0.0 0.5 254:0.2999999935588558 514:0.9600000204476513 581:0.300000003327953 988:0.4000000308798472 
0.0 0.5 168:1.0 297:1.0 1031:0.6666666846739631 
0.12693681372596274 0.3513248590046284 80:1.0 135:0.571428551194267 804:0.6666666523043467 846:1.0 1023:1.0 1028:1.0 1032:1.0 1594:1.0 
0.3451239437810471 0.0 20:0.75 42:0.7499999531517415 49:0.7499999645006074 90:0.7499999778996701 783:0.7499999658835783 
0.0 0.5 349:1.0 377:0.7499999905408382 421:0.75 672:1.0 
0.4890606563166085 0.5 22:0.6666666666666667 145:1.0 169:0.6000000151830991 394:1.0 653:0.8333332883727453 
0.41575871595834485 0.5 208:0.7499999658879616 306:1.0 320:1.0 964:1.0 
0.0 0.10264163328222527 22:0.6666666666666667 27:0.7500000100088426 115:1.0 224:1.0 320:1.0 398:1.0 490:0.5999999855207659 491:0.7499999772095168 
0.11893440354198352 0.05257361798766145 27:0.4999999799823148 40:0.416666681143536 123:0.6666666418747812 125:0.4000000750100607 254:1.0 317:0.5000000166397651 919:0.5 952:0.6666666786561575 1034:0.5000000209209003 
0.0 0.4417819388047758 313:0.75 355:0.7499999905408382 877:1.0 930:1.0 
0.4552593873833437 0.5 27:0.7500000100088426 44:0.6666666543060404 241:1.0 934:0.60000002253929 
0.08132650477608985 0.2651971069629744 557:0.37500000000000006 641:0.5 824:0.8999999209388667 977:0.5 
0.38423252630513216 0.0 38:0.75 66:1.0 212:0.7499999857759053 
0.03565535254429706 0.0 634:1.0 635:1.0 837:1.0 
0.08132521944567433 0.5 385:1.0 895:1.0 936:1.0 986:1.0 
0.0 0.08674633268438973 173:1.0 978:1.0 
0.0 0.49240028083719156 110:1.0 480:1.0 
0.11089859207845847 0.5 28:0.7499999442495384 44:0.6666666543060404 103:0.7499999895978855 310:0.749999980953552 527:1.0 
0.0 0.5 10:0.6666666666666666 281:1.0 497:0.75 1005:0.7499999493170039 
0.22773159149312333 0.5 110:1.0 347:1.0 480:1.0 
0.5 0.5 432:0.6666666482802565 
0.0 0.5 402:1.0 529:1.0 
0.0 0.10359293937141777 62:1.0 430:1.0 572:0.75 939:1.0 953:1.0 1574:1.0 
0.057021855333239425 0.07870381954616332 109:1.0 535:1.0 1038:1.0 
0.07865133360454342 0.16834374617574446 20:0.75 125:0.6000000750100607 882:1.0 
0.15557244267243034 0.5 300:0.75 540:0.7499999493170039 
0.2794322028650986 0.5 114:0.6249999841811699 423:1.0 424:1.0 593:0.749999978464584 927:1.0 1395:1.0 
0.5 0.5 
0.06374251589204034 0.5 70:0.6666666542420482 171:0.75 313:0.75 606:0.7499999675805721 1249:1.0 
0.0 0.5 22:0.6666666666666667 
0.06796299424001051 0.5 78:0.7499999703443155 252:0.7499999857759053 578:1.0 581:0.7500000083198824 931:1.0 1490:1.0 1564:1.0 
0.5 0.0 792:1.0 812:1.0 1249:1.0 
0.2512829923236428 0.27890009991615694 123:1.0 1039:1.0 
0.0521584182565288 0.17712296802962943 101:0.6666666917688111 154:1.0 779:1.0 791:0.7499999658835783 889:1.0 1024:1.0 
0.0 0.38075271666170296 488:1.0 824:0.5999999802347167 1037:1.0 
0.5 0.5 
0.5 0.5 
0.0 0.3803136542865647 125:0.4000000750100607 484:0.6666666799723805 572:1.0 
0.2852171067139212 0.5 29:1.0 573:1.0 830:0.75 1040:1.0 
0.0 0.5 237:1.0 809:1.0 
0.0 0.2610895697598451 604:0.75 807:1.0 974:1.0 1006:1.0 
0.0 0.2557786743315601 720:1.0 755:1.0 756:1.0 802:1.0 
0.12111837377959646 0.0 131:1.0 333:1.0 345:1.0 389:1.0 621:0.75 713:1.0 714:1.0 803:1.0 1290:1.0 
0.0 0.5 155:1.0 
0.0 0.5 76:0.6666666917688111 180:0.7499999715261061 
0.5 0.5 79:1.0 101:0.6666666917688111 404:0.749999986677131 509:1.0 522:0.749999978464584 587:0.6666666753252691 753:0.7499999689729333 1138:0.7500000123533026 
0.01431081502291867 0.3289606873931378 97:0.625 151:0.8333333045160638 490:0.5999999855207659 607:0.7499999917233263 821:1.0 1041:0.6666667032690464 1042:1.0 
0.0 0.2875126590468508 76:0.6666666917688111 97:0.625 324:0.7499999723164333 391:1.0 525:1.0 961:1.0 1323:1.0 
0.0 0.5 28:0.7499999442495384 40:0.624999978284696 43:0.6249999811730855 479:0.666666648404121 946:1.0 1043:0.7500000123533026 
0.0 0.19945952066328096 13:0.7499999999999999 135:0.571428551194267 308:1.0 752:1.0 
0.5 0.5 366:1.0 
0.10637669837085842 0.5 22:0.6666666666666667 234:0.749999978464584 385:1.0 651:0.6 713:1.0 730:1.0 777:1.0 1580:1.0 
0.0 0.5 358:1.0 
0.5 0.5 56:1.0 
0.5 0.5 44:0.6666666543060404 926:1.0 
0.0 0.5 758:0.6999999639391826 1583:0.7499999493170039 
0.2151693204475889 0.5 59:1.0 355:0.7499999905408382 476:1.0 
0.0 0.14916194900671523 489:1.0 
0.0 0.30673904621937786 131:0.6666666666666666 310:0.5 330:0.6666667059561432 334:0.5 347:0.666666698090058 380:0.6666667068867623 421:1.0 606:0.4999999870322288 924:0.6666666787969505 1267:0.6666667088436418 
0.0 4.0477336850186464E-4 385:1.0 455:0.7499999999999999 535:1.0 727:1.0 
0.1647685340931305 0.5 28:0.7499999442495384 1647:1.0 
0.2622930297361766 0.5 604:0.75 974:1.0 
0.0 0.41516649587343035 76:0.6666666917688111 323:0.6666667159072489 340:0.7500000254621214 822:1.0 848:1.0 
0.01878944404010601 0.5 805:1.0 
0.0 0.5 22:0.6666666666666667 637:0.7499999675805721 1044:1.0 
0.0 0.04942005645559373 34:0.6250000062370534 90:0.7499999778996701 91:0.7499999850310722 92:0.7499999658835783 93:0.7499999737004802 94:0.7499999753013442 246:0.7499999748570649 1019:1.0 1020:1.0 
0.0 0.5 28:0.7499999442495384 948:1.0 
0.0 0.5 453:1.0 
0.09120731809026862 0.1480885648301512 44:0.6666666543060404 914:1.0 1035:1.0 
0.0 0.1618310107880621 214:1.0 324:0.7499999723164333 329:0.749999939408966 398:1.0 614:1.0 
0.0 0.5 731:1.0 
0.08241798037946899 0.0 13:0.5 15:1.0 43:0.4166666917692194 72:0.5 207:0.4444444598379205 315:0.6666666418747812 345:0.6666666666666666 524:0.5000000165533475 635:0.6666666781935748 667:0.6666666785092171 924:0.6666666787969505 
0.0771847897493939 0.0 95:0.75 175:1.0 272:1.0 578:1.0 
0.0 0.5 134:1.0 180:0.7499999715261061 565:1.0 778:1.0 963:1.0 1575:1.0 
0.01884576267784627 0.5 337:1.0 
0.0 0.5 324:0.7499999723164333 
0.0 0.20665654414174833 28:0.7499999442495384 95:0.75 763:1.0 827:1.0 835:1.0 971:1.0 
0.0 0.5 138:1.0 373:0.37499996861865076 412:0.25 958:0.1874999929564727 1045:0.25 
0.0 0.17558118807682863 28:0.7499999442495384 42:0.7499999531517415 287:0.7499999436517816 325:1.0 800:1.0 
0.5 0.5 10:0.6666666666666666 22:0.6666666666666667 101:0.6666666917688111 307:0.7499999421002911 377:0.7499999905408382 1002:1.0 1503:1.0 
0.34639624808723973 0.5 280:0.749999986677131 323:0.6666667159072489 324:0.7499999723164333 590:1.0 615:1.0 
0.45897872532705625 0.5 254:0.749999967794279 1006:1.0 1145:1.0 1560:1.0 
0.5 0.5 19:1.0 49:0.5 377:1.0 445:0.6666666882101472 1162:0.666666726735407 1315:0.6666667181330785 
0.14544058132960655 0.0 38:0.75 747:1.0 783:0.7499999658835783 1000:1.0 1046:1.0 
0.3024054985047549 0.4229664682931065 826:1.0 955:1.0 
0.015287709680933731 0.1173999019776349 402:1.0 441:1.0 780:1.0 781:1.0 
0.03759405421415592 0.0 139:1.0 140:0.7499999753013442 479:0.666666648404121 
0.0 0.5 456:1.0 
0.0 0.006910057039455799 278:0.749999978464584 1048:1.0 
0.1512073589162307 0.44256849629956496 34:0.6250000062370534 90:0.7499999778996701 91:0.7499999850310722 92:0.7499999658835783 93:0.7499999737004802 94:0.7499999753013442 246:0.7499999748570649 1019:1.0 1020:1.0 
0.5 0.0 245:0.7499999802170255 946:1.0 
0.3475031140385239 0.5 370:1.0 827:1.0 
0.0 0.5 42:0.7499999531517415 1565:1.0 
0.02631910174859365 0.4529699810360236 3:1.0 97:0.625 286:1.0 335:0.7499999686186495 501:1.0 
0.4079037852862407 0.5 407:0.75 815:1.0 1140:0.5833333002114895 1440:0.7499999673068779 
0.0 0.5 115:1.0 347:1.0 362:1.0 990:1.0 1556:1.0 
0.13706380137333482 0.07854665331346093 72:0.5 95:0.5 125:0.4000000750100607 250:1.0 584:0.4000000362781293 1050:0.6666667181330785 
0.0 0.5 860:1.0 962:1.0 
0.5 0.5 
0.042393752071754894 0.0 42:0.7499999531517415 135:0.571428551194267 207:0.6666666551215595 662:1.0 820:0.7499999421002911 964:1.0 1051:1.0 
0.31940208360295547 0.22661496579234872 44:0.6666666543060404 228:1.0 537:1.0 822:1.0 1150:1.0 1248:0.7499999703443155 
0.3349586922634025 0.5 138:0.9142856964616239 
0.09719048447487001 0.11877546672733263 366:0.7500000254621214 1052:1.0 
0.0 0.02751864506676574 131:1.0 366:0.7500000254621214 527:1.0 817:1.0 915:1.0 
0.0 0.5 25:0.6666666957272209 70:0.8888889468704424 179:0.41666668049564803 1335:1.0 
0.43967952552932665 0.5 4:0.7499999831074771 653:0.8333332883727453 
0.0 0.10382296489557602 49:0.7499999645006074 82:1.0 103:0.7499999895978855 
0.4552317954001831 0.19511331332165688 28:0.7499999442495384 345:1.0 612:1.0 725:0.7499999737004802 962:1.0 967:1.0 
0.0 0.011828719125915571 278:0.749999978464584 1048:1.0 
0.0 0.5 22:0.6666666666666667 
0.0 0.3112391829705687 292:0.6666666666666666 
0.0 0.5 103:0.5000000208042291 134:0.6666666942462827 145:0.6666666827645111 280:1.0 856:0.6666667181330785 1347:0.6666666890159431 
0.5 0.07458802415130235 111:0.41666666117139606 126:0.6666667181330785 153:1.0 312:0.6666666781935748 314:0.4166666860585842 366:0.49999998302525245 658:0.6666666882101472 1031:0.4444444834602533 
0.0 0.43467834328471844 385:1.0 458:0.75 637:0.7499999675805721 
0.0 0.5 181:1.0 
0.14418026325190494 0.4254279835781925 133:1.0 184:1.0 342:0.7499999748570649 614:1.0 725:0.7499999737004802 1043:0.7500000123533026 1572:1.0 
0.5 0.06468968889875429 66:1.0 125:0.6000000750100607 281:1.0 456:1.0 469:0.7499999421002911 657:1.0 697:0.7499999850310722 1031:0.6666666846739631 
0.0 0.15991023918544003 175:1.0 297:1.0 
0.10851943823343617 0.0 43:0.6249999811730855 180:0.7499999715261061 324:0.7499999723164333 380:1.0 466:0.6666666506806793 497:0.75 564:1.0 590:1.0 734:1.0 892:0.7499999748570649 945:0.6666666315191893 1016:1.0 1036:1.0 
0.0 0.2906608230547194 97:0.625 661:1.0 
0.20570659687555354 0.5 76:0.6666666917688111 109:1.0 562:1.0 1053:1.0 
0.19946902611016104 0.28634991989572856 176:0.6666667034634209 474:0.6666667181330785 557:0.5 572:0.5 825:0.6666666882101472 932:1.0 1232:0.6666667181330785 
0.0 0.5 24:0.7499999857759053 217:1.0 456:1.0 514:0.6000000056799031 1014:0.5625000124901902 
0.5 0.5 91:0.5 264:0.6666667167539756 266:0.6666666882101472 472:0.8000000214080909 702:0.5000000127755687 
0.0 0.5 352:1.0 754:1.0 
0.1655916434319286 0.5 145:1.0 368:0.7500000219170877 
0.5 0.5 315:0.6666666418747812 478:0.6666666781935748 497:1.0 557:0.5 598:0.6666667007348507 
0.0 0.017511770823975873 589:1.0 918:1.0 981:1.0 
0.0 0.5 13:0.7499999999999999 35:0.6000000184060067 175:1.0 
0.0 0.23759953128468145 163:1.0 355:0.7499999905408382 411:0.7499999747860352 550:1.0 943:1.0 966:1.0 1054:1.0 
0.5 0.5 691:1.0 
0.06065256827654632 0.0 130:1.0 207:0.6666666551215595 1055:1.0 
0.0 0.5 22:0.6666666666666667 310:0.749999980953552 
0.0 0.013915726900254922 310:0.5 853:0.6666667088436418 1057:1.0 
0.0 0.5 345:1.0 377:0.7499999905408382 961:1.0 1036:1.0 
0.5 0.5 575:1.0 720:1.0 
0.08962784704944936 0.5 505:0.7499999748570649 
0.34974759952071643 0.5 443:1.0 691:1.0 
0.15192366970281487 0.0 242:0.7499999999999999 637:0.7499999675805721 1058:1.0 
0.0 0.5 123:0.6666666418747812 975:0.8333333042765283 1039:0.666666726735407 
0.036898331007420994 0.5 2:0.6249999830795926 732:1.0 833:0.7500000069727178 1059:1.0 1645:0.7499999421002911 
0.5 0.5 
0.0 0.5 358:1.0 755:1.0 756:1.0 1647:1.0 
0.0 0.5 758:0.6999999639391826 759:1.0 
0.0 0.46295898851878403 245:0.7499999802170255 1060:1.0 
0.0 0.5 20:0.75 23:0.750000009648912 221:1.0 324:0.7499999723164333 
0.0 0.5 5:1.0 173:1.0 282:0.75 726:1.0 
0.12756947840623703 0.5 134:1.0 440:1.0 1136:0.7499999999999999 1562:0.7499999421002911 
0.0 0.23278788513818027 76:0.4444444862813518 98:1.0 691:0.6666666666666666 828:0.6666666556859534 1026:0.6666666882101472 1598:0.6666666556859534 
0.0 0.5 65:1.0 111:0.6249999752712823 
0.0 0.4288860873984396 42:0.7499999531517415 557:0.7500000000000001 586:1.0 1413:1.0 
0.5 0.5 
0.0 0.15865791995198777 6:0.6 125:0.6000000750100607 761:1.0 
0.27413945355125546 0.5 6:0.6 125:0.6000000750100607 1183:0.7499999703443155 
0.0 0.5 22:0.6666666666666667 23:0.750000009648912 358:1.0 403:1.0 
0.5 0.5 
0.0 0.5 97:0.625 153:0.75 219:0.7500000081434751 245:0.7499999802170255 514:0.6000000056799031 1014:0.5625000124901902 
0.41983328607083015 0.5 22:0.6666666666666667 167:0.7499999673068779 958:0.7499999436517816 
0.0 0.27840842553865613 0:1.0 146:0.7499999857759053 298:0.7499999675805721 
0.05306815386138257 0.0 180:0.5000000189825958 236:0.6666666666666666 264:0.6666667167539756 408:1.0 
0.0 0.5 221:1.0 273:1.0 614:1.0 
0.5 0.5 245:0.7499999802170255 314:0.6250000032319862 
0.5 0.5 22:0.6666666666666667 139:1.0 140:0.7499999753013442 
0.018784160950192936 0.5 1062:1.0 
0.0 0.4195722766051962 192:0.7499999737004802 261:0.7499999658835783 
0.1409026084728139 0.31491714440949164 5:1.0 309:1.0 365:1.0 492:1.0 530:1.0 830:0.75 1010:1.0 1063:1.0 
0.0 0.5 815:1.0 
0.38620583566178107 0.41410978846310975 33:0.7499999747860352 103:0.7499999895978855 131:1.0 217:1.0 492:1.0 817:1.0 904:0.7499999675805721 1053:1.0 
0.0 0.3049449696619803 10:0.6666666666666666 96:1.0 97:0.625 
0.0 0.5 10:0.6666666666666666 125:0.6000000750100607 294:0.6666666828403788 
0.1531721542445755 0.5 180:0.7499999715261061 336:1.0 
0.0 0.5 70:0.6666666542420482 124:1.0 324:0.7499999723164333 
0.0 0.4031444540030159 698:1.0 1537:1.0 
0.04815538370769558 0.33340547914269636 40:0.416666681143536 170:1.0 189:0.5 209:0.6666667034634209 269:0.6666667224557367 920:0.6666666556859534 925:0.666666726735407 1064:0.666666726735407 
0.0189958877115596 0.5 701:1.0 
0.5 0.5 595:1.0 615:1.0 632:0.6666666510817658 833:0.7500000069727178 
0.0 0.19063418602567125 28:0.49999997769981536 39:1.0 180:0.5000000189825958 860:0.6666667034634209 914:0.6666666890159431 
0.04897714040651768 0.5 131:1.0 545:0.7499999857759053 1009:1.0 
0.022318334590525464 0.0 35:0.4000000122706711 60:0.6666667224557367 129:0.6666666900440184 131:0.6666666666666666 722:0.6666666556859534 723:0.6666667224557367 724:1.0 
0.26754414198963566 0.294992474234061 148:0.7499999547523951 876:1.0 
0.12228878642637833 0.5 34:0.6250000062370534 135:0.571428551194267 557:0.7500000000000001 586:1.0 732:1.0 927:1.0 
0.0 0.052423612597769516 64:0.7500000219170877 65:1.0 68:0.7499999831074771 340:0.7500000254621214 613:0.7499999508406697 704:1.0 705:1.0 
0.026837686667293664 0.5 20:0.30000000000000004 23:0.3000000154382592 556:1.0 1589:0.399999993993126 
0.0 0.2683147823762655 615:1.0 965:1.0 
0.0 0.5 345:1.0 524:0.7499999917233263 
0.18980167539301165 0.061872063174072275 402:1.0 492:1.0 573:1.0 740:1.0 1529:1.0 
0.21685938268723706 0.22545953543044736 100:0.6666666556859534 154:0.6666666418747812 518:0.5 566:0.5 867:0.6666667088436418 908:0.6666667224557367 909:1.0 921:0.6666666890159431 943:0.666666726735407 998:0.6666667181330785 1065:0.6666666957272209 
0.0 0.2278378885402425 15:0.7499999547523951 38:0.75 103:0.7499999895978855 310:0.749999980953552 330:1.0 363:1.0 377:0.7499999905408382 972:1.0 
0.27784885619129307 0.0 76:0.6666666917688111 136:1.0 1009:1.0 1142:1.0 1172:1.0 
0.39381856920305286 0.5 28:0.7499999442495384 65:1.0 130:1.0 180:0.7499999715261061 236:1.0 
0.27397316945612865 0.0 111:0.6249999752712823 317:0.7500000083198824 581:0.7500000083198824 832:1.0 
0.0 0.057158719461563826 22:0.444444479392669 408:0.5 522:1.0 
0.0 0.5 1055:1.0 
0.0 0.5 70:0.6666666542420482 171:0.75 453:1.0 
0.21203911580694496 0.5 22:0.19047620230077775 340:0.21428571671067823 613:0.21428571709481883 1066:1.0 
0.21974123542191493 0.0 872:1.0 1178:0.7499999493170039 
0.5 0.5 
0.0 0.5 358:1.0 
0.024705233812119427 0.022855659314962654 496:0.749999980836647 513:1.0 608:1.0 751:1.0 891:1.0 
0.5 0.5 
0.12053692903596187 0.5 389:1.0 614:1.0 735:1.0 
0.5 0.0 131:1.0 387:0.7499999904450566 406:1.0 
0.2320143216759291 0.23272476458960603 245:0.7499999802170255 358:1.0 1002:1.0 1067:1.0 
0.0 0.42661007120427097 145:1.0 208:0.7499999658879616 609:0.6666666815661846 696:0.7500000069727178 730:1.0 909:0.7499999851473375 998:1.0 
0.253132925184217 0.0 125:0.6000000750100607 249:1.0 355:0.7499999905408382 366:0.7500000254621214 401:1.0 641:1.0 1068:1.0 
0.5 0.5 
0.0 0.41392008637053646 24:0.7499999857759053 308:1.0 
0.0195503897496864 0.5 212:0.7499999857759053 372:1.0 
0.0 0.5 550:1.0 1048:1.0 
0.3354160373793042 0.4972022483364158 33:0.7499999747860352 76:0.6666666917688111 501:1.0 743:0.6249999611166113 1069:1.0 1216:1.0 
0.5 0.5 
0.13381259112869826 0.03332106742264523 262:1.0 926:1.0 
0.10187633680490318 0.1996882251183452 108:1.0 125:0.6000000750100607 126:1.0 317:0.7500000083198824 1060:1.0 
0.0 0.40213424034256956 72:0.7499999802170255 355:0.7499999905408382 391:1.0 1239:1.0 1451:0.7499999421002911 
0.0 0.17205438062407305 135:0.7619047821390662 966:0.6666666957272209 1054:0.6666667224557367 
0.5 0.5 581:0.7500000083198824 753:0.7499999689729333 
0.44392823014614413 0.5 13:0.5 690:1.0 
0.5 0.5 1044:1.0 
0.0 0.5 97:0.625 109:1.0 377:0.7499999905408382 
0.5 0.5 
0.36291137227241227 0.360458256011185 27:0.7500000100088426 125:0.6000000750100607 175:1.0 229:0.749999984697561 890:1.0 1071:1.0 1194:1.0 
0.014437101733059945 0.5 22:0.8888889808579009 43:0.4166666917692194 70:0.4444444734352212 72:0.5 144:0.4166666734148301 572:1.0 612:0.6666667167539756 719:0.4999999860545643 734:0.6666666793103067 976:0.6666666957272209 
0.0 0.08735667465815998 22:0.8888889808579009 63:0.6666666799723805 168:0.6666667167539756 278:0.499999985643056 404:1.0 493:0.4444444533149204 606:0.4999999870322288 607:0.5000000165533475 615:0.6666666666666666 1054:0.6666667224557367 1065:0.6666666957272209 1072:1.0 
0.22545445397166494 0.5 849:1.0 
0.3559155278853626 0.3485836589324957 4:0.7499999831074771 430:1.0 
0.0 0.04123416208284597 86:1.0 551:1.0 
0.018809821118323154 0.5 842:1.0 
0.0 0.2531752588705686 72:0.7499999802170255 177:0.7499999658835783 330:1.0 355:0.7499999905408382 366:0.7500000254621214 1004:1.0 
0.5 0.5 
0.2391752657631574 0.15156965436459985 977:1.0 1500:1.0 
0.5 0.5 783:0.7499999658835783 
0.3162445815607374 0.0 615:1.0 733:1.0 
0.0 0.4395919737905574 205:0.7500000219170877 281:1.0 882:1.0 
0.3574236538954594 0.5 1029:1.0 1461:1.0 
0.0 0.5 313:0.3750000158157278 464:0.5 840:0.8750000630463552 1074:0.5 
0.5 0.33708306072288563 524:0.7499999917233263 
0.0 0.01735176806104698 15:0.5 22:0.444444479392669 74:1.0 254:0.5 310:0.5 475:0.6666667181330785 568:0.6666666799723805 1371:0.6666667181330785 
0.5 0.5 
0.2562017499471034 0.5 803:1.0 815:1.0 
0.2885343481316807 0.5 112:1.0 350:0.7500000219170877 500:1.0 
0.07775167469141361 0.44726309379973384 11:1.0 12:1.0 245:0.7499999802170255 387:0.7499999904450566 721:0.7499999865118231 915:1.0 
0.2933294723410269 0.0 76:0.6666666917688111 176:1.0 577:1.0 849:1.0 1232:1.0 
0.5 0.5 97:0.4166666990353611 114:0.4166666877584401 593:1.0 1075:0.6666666882101472 1076:0.666666726735407 1497:0.6666667181330785 
0.0 0.4577725567224411 165:1.0 177:0.7499999658835783 347:1.0 518:0.749999967794279 872:1.0 
0.5 0.5 256:0.5 499:0.696969671418833 1185:0.666666726735407 
0.4822185413159858 0.5 168:1.0 170:0.749999978464584 270:1.0 282:0.75 400:1.0 444:1.0 949:0.7499999857759053 1157:1.0 1390:1.0 
0.0 0.5 2:0.4166666553863951 77:0.49999998635343135 131:0.6666666666666666 144:0.8333333468296602 314:0.4166666860585842 323:0.44444446085797185 458:0.5 567:0.6666666786561575 1626:0.6666667181330785 
0.0 0.12331279177821394 561:1.0 643:1.0 
0.012232791144293742 0.16530771660626062 141:0.7499999865118231 561:1.0 
0.35515081409664173 0.5 117:0.7499999703443155 516:1.0 1598:1.0 
0.0 0.10584797985499948 366:0.7500000254621214 376:0.75 813:1.0 
0.0 0.5 483:1.0 1553:1.0 
0.0 0.5 43:0.6249999811730855 175:1.0 
0.5 0.5 
0.0 0.024133378558635125 71:1.0 212:0.7499999857759053 971:1.0 
0.5 0.14978876498566773 44:0.6666666543060404 308:1.0 1149:1.0 
0.0847268562292152 0.2636424867682825 202:1.0 207:0.6666666551215595 392:1.0 421:0.75 457:0.749999980836647 706:1.0 
0.0 0.5 339:1.0 455:0.7499999999999999 
0.0 0.24216389753854128 2:0.6249999830795926 22:0.6666666666666667 103:0.7499999895978855 195:0.7500000069727178 602:1.0 
0.0 0.29569261504270816 4:0.7499999831074771 317:0.7500000083198824 330:1.0 423:1.0 722:1.0 857:1.0 
0.0 0.05798785001806907 358:1.0 402:1.0 594:1.0 
0.5 0.5 
0.0 0.4921385926231343 74:0.499999985643056 377:0.49999998108167637 411:0.5000000168093099 676:0.6666666957272209 768:1.0 1078:0.6666667224557367 
0.0 0.100458372546574 28:0.7499999442495384 144:0.6249999696332647 145:1.0 270:1.0 375:1.0 567:1.0 601:1.0 888:1.0 962:1.0 1042:1.0 
0.0 0.1536704985306244 22:0.6666666666666667 28:0.7499999442495384 55:1.0 88:0.7499999850310722 308:1.0 560:1.0 754:1.0 
0.0 0.5 135:0.571428551194267 604:0.75 693:0.7499999857759053 735:1.0 1529:1.0 
0.0 0.5 76:0.2222222431406759 226:0.3333333583769878 372:0.3333333450220092 450:0.2500000068232843 514:1.0 
0.2871407033076771 0.43475968268575516 139:1.0 140:0.7499999753013442 142:1.0 843:0.7499999658835783 
0.0 0.5 258:0.571428590985374 328:1.0 632:0.6666666510817658 
0.0 0.20591027120120506 16:0.6666666666666666 115:1.0 401:1.0 604:0.75 617:1.0 647:1.0 993:1.0 
0.0 0.12904300458493753 308:1.0 522:0.749999978464584 
0.19919113698529362 0.5 674:0.7499999850310722 822:1.0 
0.008786050373292833 0.5 22:0.6666666666666667 39:0.7499999686186495 97:0.625 314:0.6250000032319862 
0.0 0.5 110:1.0 
0.5 0.5 23:0.500000019297824 270:0.6666666802688349 472:0.40000001070404545 569:1.0 656:0.6666667224557367 719:0.4999999860545643 1142:0.6666666787969505 
0.48708403440133563 0.0 245:0.7499999802170255 458:0.75 478:1.0 1048:1.0 
0.020506492528610875 0.24722853413648974 104:1.0 301:0.749999986677131 524:0.7499999917233263 
0.0 0.5 49:0.5 169:0.4000000101220661 273:0.6666667181330785 692:0.6666667224557367 693:0.5 757:0.5000000118622737 840:0.388888922913906 868:0.6666667224557367 1066:0.7777777534884256 1498:0.6666667088436418 
0.0 0.5 824:0.7999999604694333 
0.0 0.5 376:0.75 717:1.0 
0.0 0.5 22:0.6666666666666667 
0.0 0.5 424:1.0 1395:1.0 
0.0 0.14348048984432024 36:1.0 298:0.7499999675805721 476:1.0 622:1.0 1079:1.0 1321:1.0 
0.0 0.5 22:0.6666666666666667 94:0.7499999753013442 
0.0 0.08090315544784046 136:1.0 215:1.0 297:1.0 353:1.0 590:1.0 909:0.7499999851473375 938:1.0 
0.0 0.5 324:0.7499999723164333 
0.0 0.5 22:0.6666666666666667 450:0.7499999658835783 734:1.0 
0.0 0.30795335460348583 5:1.0 254:0.749999967794279 783:0.7499999658835783 1080:1.0 
0.15344478444359153 0.39562393244479777 22:0.6666666666666667 45:1.0 647:1.0 1074:1.0 
0.15160430292457838 0.0 25:1.0 134:1.0 421:0.75 825:1.0 985:0.7499999865118231 
0.0 0.5 22:0.6666666666666667 43:0.6249999811730855 356:0.7499999658835783 
0.0 0.09757540187542926 5:1.0 35:0.6000000184060067 860:1.0 861:1.0 
0.0 0.4568475269311264 222:1.0 242:0.7499999999999999 256:0.7499999689729333 322:1.0 948:1.0 
0.5 0.5 539:1.0 1276:1.0 1613:1.0 
0.4797127300998808 0.0 437:1.0 438:1.0 513:1.0 668:0.7499999865118231 675:1.0 885:1.0 1041:0.6666667032690464 
0.0 0.5 72:0.37499999406510764 114:0.3124999857630529 179:0.31250000444502973 217:0.5 250:0.37499997105014554 279:0.5 387:0.3749999952225283 514:0.9000000511191284 641:0.5 
0.0 0.5 516:1.0 1062:1.0 
0.19617354866284695 0.5 6:1.0 111:0.20833332728853565 114:0.20833332806038996 864:0.33333334450797153 1577:0.3333333544218209 1651:0.3333333633677035 
0.0 0.5 296:0.7499999850310722 433:1.0 634:1.0 754:1.0 1190:0.7500000123533026 
0.0 0.07452831787386836 27:0.7500000100088426 284:1.0 750:1.0 888:1.0 979:1.0 1081:0.5833332963511718 
0.09944804312450148 0.5 74:0.499999985643056 651:0.7999999999999999 697:0.5 980:1.0 
0.5 0.5 
0.5 0.5 80:1.0 
0.0 0.16857627749391585 10:0.4444444444444444 70:0.4444444734352212 185:0.499999985643056 442:0.8888888917992204 477:0.44444445021684603 678:0.6666667083095656 905:0.6666667181330785 924:0.6666666787969505 
0.09205166932510901 0.022496167790547972 87:1.0 88:0.7499999850310722 178:0.7499999851473375 435:1.0 559:1.0 1082:1.0 
0.031487939379075396 0.0 75:0.666666726735407 205:1.0 289:0.6666666890159431 581:0.5000000166397651 716:0.44444446715656716 1024:0.6666667088436418 1056:0.6666666556859534 1578:0.6666667181330785 
0.11696207411721257 0.3064538858883454 23:0.750000009648912 641:1.0 824:0.5999999802347167 990:1.0 1492:1.0 1535:1.0 
0.3569441738901963 0.0 28:0.7499999442495384 125:0.6000000750100607 134:1.0 207:0.6666666551215595 219:0.7500000081434751 297:1.0 348:0.7500000219170877 354:1.0 459:1.0 777:1.0 796:0.7499999748570649 
0.0 0.03416583205066056 6:0.6 329:0.749999939408966 380:1.0 514:0.6000000056799031 564:1.0 830:0.75 918:1.0 
0.3346678435714337 0.5 483:1.0 771:0.7499999748570649 1059:1.0 
0.0 0.37814840754967544 72:0.7499999802170255 282:0.75 635:1.0 
0.05390213095405976 0.015683070140532336 27:0.7500000100088426 226:1.0 252:0.7499999857759053 1024:1.0 
0.1391485767611584 0.5 110:1.0 
0.16610656868683088 0.5 45:1.0 109:1.0 135:0.571428551194267 317:0.7500000083198824 493:0.6666666666666666 514:0.6000000056799031 1218:1.0 
0.0 0.5 535:1.0 
0.0 0.5 27:0.7500000100088426 125:0.6000000750100607 148:0.7499999547523951 651:0.6 931:1.0 
0.5 0.25388422059740684 497:0.75 518:0.749999967794279 699:1.0 753:0.7499999689729333 887:1.0 969:1.0 1012:1.0 
0.5 0.0 230:0.7499999436517816 696:0.7500000069727178 951:1.0 986:1.0 1177:1.0 
0.379162369392794 0.3472567535238048 10:0.8888888888888888 176:0.6666667034634209 288:0.6666666882101472 860:0.6666667034634209 865:0.6666666957272209 
0.5 0.5 262:1.0 
0.0 0.17795197970517565 35:0.6000000184060067 37:1.0 40:0.624999978284696 97:0.625 703:0.7499999857759053 979:1.0 
0.0 0.5 1084:1.0 1309:1.0 
0.3704903097486548 0.292163505487656 40:0.624999978284696 115:1.0 696:0.7500000069727178 697:0.7499999850310722 1576:1.0 
0.0 0.3334782061282735 1085:1.0 
0.21654518622328228 0.238287307596615 72:0.7499999802170255 216:1.0 251:1.0 
0.30606001254778264 0.20170892493723896 125:0.6000000750100607 557:0.7500000000000001 750:1.0 961:1.0 965:1.0 1214:0.7499999493170039 
0.3592807710472275 0.5 1008:1.0 1456:1.0 
0.265714706121321 0.04255874888495741 35:0.8000000245413422 387:1.0 1049:1.0 
0.1352237234091928 0.1883238754811995 136:1.0 366:0.7500000254621214 728:1.0 1086:1.0 
0.0 0.5 571:1.0 
0.0335468935477408 0.0 55:0.6666667007348507 61:1.0 131:0.6666666666666666 135:0.3809523769055201 375:0.666666726735407 463:0.6666666787969505 606:0.4999999870322288 668:1.0 1033:0.6666667224557367 
0.0 0.191540787792017 22:0.6666666666666667 115:1.0 341:1.0 878:1.0 907:1.0 1088:0.7499999673068779 1089:1.0 1090:1.0 1489:1.0 
0.5 0.5 67:0.7499999658835783 843:0.7499999658835783 
0.3174823779926526 0.37429091167526324 120:0.6666667032690464 321:1.0 491:0.7499999772095168 539:1.0 624:1.0 636:1.0 873:1.0 1027:1.0 1554:1.0 
0.0 0.5 292:0.6666666666666666 367:0.7499999851473375 
0.04871988049498589 0.0 40:0.312499989142348 103:0.3749999989597886 196:1.0 271:0.5 280:0.3749999933385655 288:0.5 494:0.5 548:0.5 581:0.3750000041599412 774:0.5 832:0.5 963:0.5 1091:1.0 1092:0.5 1093:0.7499999900994392 1148:0.5 1208:0.5 
0.013320683240079234 0.5 145:1.0 171:0.75 
0.01895974734827123 0.5 897:1.0 
0.0 0.5 294:0.6666666828403788 
0.0 0.05671838288981781 97:0.625 195:0.7500000069727178 240:1.0 241:1.0 340:0.7500000254621214 679:0.5208333462258117 
0.5 0.27613405759485227 20:0.5 109:0.6666666798690336 161:1.0 213:0.6666666556859534 686:0.5 856:0.6666667181330785 1094:0.6666666666666666 
0.5 0.0 125:0.6000000750100607 622:1.0 880:1.0 1007:1.0 1159:0.7499999673068779 
0.5 0.5 
0.5 0.5 
0.5 0.5 
0.045582955983848164 0.5 324:0.7499999723164333 
0.0 0.5 22:0.6666666666666667 23:0.750000009648912 698:1.0 892:0.7499999748570649 
0.06973058856567432 0.0 1:0.2999999923346588 10:0.5333333333333333 16:0.26666665655175464 20:0.6000000000000001 27:0.3000000040035371 40:0.25 54:0.4000000308798472 68:0.29999999324299076 100:0.39999999999999997 101:0.2666666917688111 102:0.2666666593616484 111:1.0 134:0.3999999958630577 135:0.22857142047770684 170:0.3000000028713888 178:0.30000001782319496 211:0.4000000367967542 213:0.39999999999999997 221:0.39999999999999997 231:0.4000000138322898 234:0.6000000344566656 256:0.2999999844864667 270:0.40000000816130094 286:0.3999999731808684 333:0.4000000308798472 385:0.3999999818936032 386:0.5333333928880672 451:0.4000000367967542 524:0.2999999900679916 573:0.40000001608803826 578:0.4 655:0.7999999999999999 658:0.39999999999999997 659:0.4 710:0.400000016736721 760:0.3999999883757783 774:0.3999999883757783 945:0.2666666526076757 958:0.2999999718258908 979:0.4 1064:0.399999993993126 1070:0.2666666707839794 1079:0.400000016736721 1095:0.3000000110390257 1096:0.399999993993126 1097:0.399999993993126 1174:0.2666666842676647 1175:0.2666666728654521 1245:0.29999997522164634 
0.46927551724337574 0.0 1:0.3749999904183235 54:0.5 95:0.375 111:0.3124999909328035 135:0.2857142614331205 153:0.75 187:0.5000000158163657 270:0.49999997959674763 311:0.3749999950497196 319:0.5000000158163657 365:0.49999998352893 386:1.0 402:0.5000000193145909 410:0.5 529:0.5 578:0.5 774:0.5 1070:0.33333331274676986 1081:0.2916666481755859 
0.13030487114908437 0.0 10:1.0 35:0.3000000030676678 40:0.624999978284696 63:0.5 99:0.5 234:0.374999989232292 254:0.37499999999999994 270:0.49999997959674763 365:0.49999998352893 518:0.37499999999999994 599:0.5 716:0.6666666666666666 917:0.37499997465850193 979:1.0 1009:0.49999998352893 1017:0.5 1070:0.33333331274676986 1081:0.2916666481755859 1097:0.5 1098:0.7499999372373015 
0.0 0.014779704475920237 28:0.49999997769981536 40:0.416666681143536 43:0.4166666917692194 62:0.6666667088436418 64:0.5000000146113918 70:0.4444444734352212 81:0.666666726735407 97:0.4166666990353611 111:0.41666666117139606 153:0.5 207:0.4444444598379205 209:0.6666667034634209 226:0.6666667167539756 234:1.0 286:0.6666666890159431 297:0.6666666793103067 314:0.4166666860585842 386:0.8888889370998639 402:0.6666666666666667 658:0.6666666882101472 954:0.6666667088436418 1021:0.6666667224557367 1040:0.6666667224557367 1098:1.0 
0.34599702669251714 0.21520008019284795 49:0.21428572949973973 105:0.57142858768468 135:0.1632653120771157 256:0.2142857054208381 296:0.21428572797159115 301:0.42857143618449656 355:0.21428573320403796 366:0.42857143342135645 385:0.2857142792477154 406:0.2857143042084428 407:0.21428573173494642 473:0.285714300486958 523:0.28571429002450327 569:0.4285714489067551 573:0.28571430869719755 577:0.2857142951263257 703:0.21428571631772783 787:0.8571428774781833 1056:0.5714285902526514 1078:0.5714286152628407 1088:0.21428571739934493 1089:0.2857143023203167 1090:0.2857143023203167 1094:0.28571429665291004 1099:0.3809523957132971 1101:1.0 1102:0.4285714435149288 1103:0.28571429368415285 1358:0.285714300486958 1385:0.28571431076144826 1435:0.42857142924927283 
0.180274368216657 0.0 63:0.5 68:0.37499999155373853 111:0.9374999793927353 136:0.49999997959674763 148:0.37499999245873256 170:0.374999989232292 202:0.5 245:0.37499999406510764 270:0.49999997959674763 291:0.5 322:0.5 366:0.3750000127310607 377:0.7499999905408382 379:0.49999998352893 398:0.5 451:0.5000000367967542 565:0.5 578:0.5 581:0.7500000083198824 744:1.0 747:0.5 761:0.5 864:0.5 909:0.37499999257366873 970:0.5 1011:0.5 1095:0.37500000689939106 1098:0.7499999372373015 1099:0.6666666537508651 1178:0.37499997465850193 1220:0.49999998352893 1490:0.5 1507:0.5 
0.07438127177456566 0.0 22:0.5333333554058962 27:0.3000000040035371 28:0.5999999821598523 43:1.0 76:0.2666666917688111 97:0.25 103:0.3000000208042291 111:0.5 161:0.2999999848063446 202:0.8000000633713612 231:0.8000000622453043 270:0.40000000816130094 310:0.29999999238142083 317:0.300000003327953 323:0.26666667651478315 333:0.4000000308798472 366:0.2999999966050505 402:0.4 406:0.39999999999999997 448:0.3999999883757783 473:0.39999999999999997 509:0.40000002158108344 521:0.39999999999999997 577:0.39999999999999997 637:0.29999999740644573 638:0.4 640:0.399999993993126 659:0.4 665:0.40000003143158125 697:0.30000000598757115 703:0.9000000056896379 725:0.2999999894801921 874:0.399999993993126 891:0.3999999883757783 906:0.4000000138322898 907:0.39999998482763205 1026:0.39999999999999997 1027:0.4000000308798472 1043:0.30000000494132106 1179:0.39999999999999997 1283:0.399999993993126 
0.5 0.5 1190:0.7500000123533026 
0.0 0.4577258315001135 111:0.6249999752712823 125:0.6000000750100607 832:1.0 
0.5 0.5 27:0.7500000100088426 44:0.6666666543060404 95:0.75 205:0.7500000219170877 
0.5 0.5 432:0.6666666482802565 
0.0 0.39339185108969654 456:1.0 688:1.0 
0.0 0.5 154:0.6666666418747812 176:0.6666667034634209 180:1.0 310:0.5 474:0.6666667181330785 493:0.4444444533149204 511:0.666666726735407 793:0.6666667088436418 
0.5 0.46793534504926654 16:0.6666666666666666 1181:1.0 
0.07684656057296642 0.5 43:0.6249999811730855 455:0.7499999999999999 
0.0 0.06948612086286966 684:0.7500000180392478 686:0.7499999658879616 
0.44474810886499305 0.0 684:0.7500000180392478 686:0.7499999658879616 
0.0 0.012266090793144498 671:1.0 684:0.7500000180392478 1106:1.0 
0.011967272949427378 0.0 436:0.5 678:0.6666667083095656 679:0.3472222308172078 680:1.0 681:0.5 682:1.0 683:0.6666666799723805 684:1.0 685:1.0 686:0.5 
0.0 0.04569512824874592 2:0.6249999830795926 629:1.0 630:1.0 631:1.0 687:1.0 1107:1.0 
0.01856494550192911 0.054829934307014085 1104:1.0 
0.0 0.5 436:0.7499999818196824 
0.01893883355688078 0.5 1603:1.0 
0.0 0.035108613317622744 22:0.6666666666666667 341:1.0 503:1.0 
0.0 0.46145460951071066 67:0.7499999658835783 99:1.0 
0.5 0.5 952:1.0 
0.1930111865833224 0.0 27:1.0 105:0.6666666793103067 698:0.6666666890159431 
0.15220664325659905 0.20554653726468455 10:0.6666666666666666 33:0.7499999747860352 184:1.0 207:0.6666666551215595 238:1.0 330:1.0 455:0.7499999999999999 552:0.6666667032690464 555:1.0 697:0.7499999850310722 743:0.6249999611166113 832:1.0 838:1.0 1042:1.0 1075:1.0 1108:1.0 1109:1.0 1187:0.6666667018686627 1194:1.0 
0.09582537182957794 0.10209347305064713 9:0.5 27:0.37499999699734726 32:1.0 49:0.37499999999999994 95:0.375 108:0.5 154:0.4999999814060859 169:0.3000000202441321 177:0.37499998294178916 327:0.37499999382334864 348:0.7500000219170877 387:0.3749999952225283 412:0.5 435:0.49999998352893 437:0.5000000367967542 445:0.5 458:0.375 557:0.37500000000000006 580:1.0 587:0.3333333246747309 698:0.5 839:0.49999998352893 841:0.3749999904183235 912:0.5 925:0.5 992:0.5 1026:0.5 1072:0.37499997465850193 1478:0.5 1565:0.5 
0.49941437941315736 0.0 125:0.6000000750100607 387:0.7499999904450566 1111:0.7499999673068779 
0.30126210542515514 0.11792804965467212 70:0.4444444734352212 185:1.0 197:0.6666666900440184 242:0.5 351:0.5 381:0.6666666781935748 421:1.0 437:0.6666667034634209 493:0.4444444533149204 518:0.5 591:0.5 652:1.0 866:1.0 1071:0.6666667181330785 1112:0.6666667088436418 1231:0.5000000118622737 1248:0.5000000118622737 
0.0 0.4552009024508307 494:0.6666667071830824 542:0.6666666957272209 829:0.6666666900440184 963:0.6666666890159431 1025:0.6666667181330785 1111:1.0 
0.09456446048816852 0.0 4:0.5 70:0.8888889468704424 166:0.6666667181330785 202:0.6666666798690336 209:0.6666667034634209 245:0.5 351:1.0 380:0.6666667068867623 395:0.6666667181330785 396:0.8888889046789562 439:0.6666666957272209 458:0.5 518:0.5 564:0.6666666882101472 591:0.5 674:1.0 817:0.6666666786561575 920:0.6666666556859534 997:1.0 1004:0.6666666890159431 1111:1.0 1113:0.666666726735407 1189:0.6666666882101472 1404:0.666666726735407 
0.23027580946494586 0.20558913564374126 32:0.6666666506806793 236:1.0 997:0.7499999703443155 
0.0 0.15395929664772248 63:1.0 942:1.0 
0.0 0.5 152:1.0 997:0.7499999703443155 
0.0 0.5 111:0.6249999752712823 1013:1.0 
0.0 0.14289577987448376 4:0.7499999831074771 101:0.6666666917688111 188:1.0 281:1.0 377:0.7499999905408382 658:1.0 668:0.7499999865118231 
0.24269854291586762 0.0 175:1.0 537:1.0 545:0.7499999857759053 739:1.0 978:1.0 1087:1.0 
0.23377537046497948 0.5 38:1.0 419:0.6666666556859534 493:0.4444444533149204 970:0.6666667007348507 
0.04781426769383229 0.0 27:0.7500000100088426 28:0.7499999442495384 35:0.6000000184060067 43:0.6249999811730855 95:0.75 109:1.0 232:1.0 236:1.0 308:1.0 310:0.749999980953552 497:0.75 906:1.0 907:1.0 993:1.0 1115:0.7499999673068779 1428:1.0 
0.11942860695963478 0.2716708847929437 23:0.750000009648912 152:1.0 236:1.0 503:1.0 622:1.0 730:1.0 869:0.7499999436517816 1115:0.7499999673068779 1227:1.0 
0.19139273902684437 0.0 22:0.6666666666666667 66:1.0 125:0.6000000750100607 207:0.6666666551215595 310:0.749999980953552 334:0.7499999748570649 834:1.0 904:0.7499999675805721 919:0.7499999737004802 923:1.0 961:1.0 1041:0.6666667032690464 1108:1.0 1115:0.7499999673068779 1116:0.7499999686186495 1117:1.0 1423:1.0 
0.0 0.5 97:0.625 1041:0.6666667032690464 
0.20218345152612177 0.3589478167183617 660:1.0 999:1.0 
0.0 0.5 70:0.4444444734352212 135:0.7619047821390662 1051:0.6666666957272209 
0.5 0.5 80:1.0 
0.040862344378525935 0.4318496811962891 867:1.0 
0.45213619860925813 0.3215596362865416 108:1.0 140:0.7499999753013442 143:1.0 144:0.6249999696332647 180:0.7499999715261061 270:1.0 300:0.75 773:1.0 818:1.0 828:1.0 1061:1.0 1110:0.7499999673068779 1199:1.0 
0.0 0.1488361519356425 516:1.0 534:0.7499999493170039 695:1.0 1062:1.0 
0.5 0.5 442:0.6666666492046776 
0.0 0.5 825:1.0 
0.0 0.5 165:0.6666666882101472 830:1.0 
0.0 0.5 28:0.7499999442495384 122:1.0 125:0.6000000750100607 
0.18830019515349783 0.5 20:0.75 28:0.7499999442495384 490:0.5999999855207659 961:1.0 
0.22828601514246458 0.0 70:0.4444444734352212 83:0.6666667181330785 122:0.666666726735407 125:0.4000000750100607 178:0.5 282:0.5 287:0.5 296:0.5 385:0.6666666214006747 423:0.6666666781935748 496:1.0 566:1.0 703:1.0 808:0.6666667007348507 818:0.6666667224557367 822:0.6666666781935748 852:0.6666667181330785 882:0.6666666890159431 921:0.6666666890159431 979:0.6666666666666667 1041:0.444444461525555 1076:0.666666726735407 1082:0.6666667007348507 
0.08659402377391776 0.0 130:1.0 966:1.0 1118:0.6666666315191893 
0.20790215745643725 0.5 125:0.6000000750100607 1109:1.0 1118:0.6666666315191893 
0.3095567172493517 0.0 35:0.3000000030676678 40:0.624999978284696 49:0.37499999999999994 70:0.3333333308484096 77:0.37499998294178916 84:0.5 134:0.5 221:0.5 314:0.6250000032319862 456:0.5000000214704815 458:0.375 745:0.5 1049:0.7499999673068779 1109:0.5 1118:1.0 1215:0.7499999673068779 
0.019783483682882713 0.0 70:0.4444444734352212 98:0.5000000118622737 125:0.4000000750100607 171:0.5 202:0.6666666798690336 383:0.6666667224557367 469:1.0 566:0.5 700:0.5 909:0.5 921:0.6666666890159431 1050:0.6666667181330785 1250:0.666666726735407 
0.0 0.5 537:1.0 
0.0 0.4392944182930838 1058:1.0 
0.0 0.1787384948203284 70:0.6666666542420482 124:1.0 139:1.0 215:1.0 538:1.0 781:1.0 1222:1.0 
0.10676412211600989 0.5 1068:1.0 
0.0 0.5 308:1.0 
0.107412049460158 0.0 297:1.0 389:1.0 794:1.0 936:1.0 
0.20387940557634868 0.3734555187731363 4:0.5 73:1.0 747:0.6666667059561432 1003:0.6666667181330785 1085:0.6666667224557367 1100:0.6666666957272209 
0.05970940905015553 0.0 2:0.4166666553863951 97:0.8333333657020278 272:0.6666667224557367 340:0.49999998302525245 557:0.5 697:0.5 746:0.6666667088436418 794:0.6666667224557367 1133:0.6666667181330785 1233:0.5 
0.0 0.5 237:1.0 498:1.0 
0.39255489445960384 0.5 332:1.0 
0.027097354137867548 0.21824008336099535 43:0.6249999811730855 154:1.0 180:0.7499999715261061 505:0.7499999748570649 
0.08566300072691782 0.0 43:0.6249999811730855 144:0.6249999696332647 518:0.749999967794279 621:0.75 734:1.0 964:1.0 
0.48008822211836355 0.0 13:0.7499999999999999 22:0.6666666666666667 43:0.6249999811730855 232:1.0 356:0.7499999658835783 494:1.0 518:0.749999967794279 621:0.75 654:1.0 
0.0 0.5 177:0.7499999658835783 
0.15980098286084934 0.5 346:0.7499999739416352 742:1.0 920:1.0 1241:1.0 
0.5 0.0 4:0.7499999831074771 10:0.6666666666666666 245:0.7499999802170255 573:1.0 607:0.7499999917233263 844:1.0 1026:1.0 1241:1.0 
0.042010870800167875 0.0 43:0.6249999811730855 207:0.6666666551215595 355:0.7499999905408382 598:1.0 621:0.75 665:1.0 822:1.0 949:0.7499999857759053 1269:1.0 
0.0 0.1810245626347361 1034:1.0 
0.26217181425415725 0.5 347:1.0 376:0.75 672:1.0 909:0.7499999851473375 1084:1.0 
0.029837880441634462 0.0 64:0.7500000219170877 65:1.0 69:1.0 101:0.6666666917688111 115:1.0 207:0.6666666551215595 218:0.7499999658835783 255:0.7499999703443155 277:1.0 281:1.0 370:1.0 508:1.0 605:1.0 624:1.0 698:1.0 831:1.0 832:1.0 929:1.0 1179:1.0 
0.0 0.5 559:1.0 1034:0.7499999686186495 
0.11047667573880068 0.0 95:0.75 496:0.749999980836647 
0.5 0.21834334748328718 14:1.0 101:0.6666666917688111 207:0.6666666551215595 491:0.7499999772095168 515:0.749999986677131 576:0.75 665:1.0 693:0.7499999857759053 892:0.7499999748570649 
0.29385960010800055 0.5 912:1.0 1202:1.0 
0.0961757210539054 0.37396558682368575 20:0.75 458:0.75 557:0.7500000000000001 582:1.0 591:0.7499999999999999 1033:1.0 1075:1.0 1095:0.7499999586036538 1103:1.0 
0.5 0.5 387:0.7499999904450566 580:1.0 
0.07217539682874301 0.0 11:1.0 79:1.0 101:0.6666666917688111 220:1.0 286:1.0 298:0.7499999675805721 402:1.0 444:1.0 580:1.0 628:1.0 641:1.0 643:1.0 776:1.0 877:1.0 1007:1.0 1042:1.0 1044:1.0 1082:1.0 1083:1.0 
0.0 0.5 22:0.6666666666666667 
0.0 0.5 22:0.6666666666666667 453:1.0 1052:1.0 
0.0 0.5 627:1.0 
0.2410471580338501 0.3276690815592819 533:1.0 771:0.7499999748570649 
0.0 0.5 278:0.749999978464584 503:1.0 644:1.0 869:0.7499999436517816 
0.29139556369717035 0.5 28:0.7499999442495384 242:0.7499999999999999 330:1.0 995:1.0 
0.0 0.3455987246786266 22:0.444444479392669 23:1.0 68:1.0 125:0.8000001500201214 159:0.6666667181330785 356:0.49999998635343135 404:0.5 608:0.6666667083095656 1072:0.5000000112628881 1470:0.666666726735407 
0.0 0.5 28:0.7499999442495384 68:0.7499999831074771 430:1.0 909:0.7499999851473375 922:1.0 
0.5 0.5 340:0.7500000254621214 346:0.7499999739416352 
0.018810245516311795 0.0 676:1.0 
0.018889074324405404 0.5 1495:1.0 
0.5 0.5 
0.17012943469517278 0.27647145346285074 158:1.0 174:0.7499999737004802 209:1.0 505:0.7499999748570649 759:1.0 1390:1.0 
0.0 0.5 22:0.6666666666666667 57:0.6666666934800648 146:0.7499999857759053 176:1.0 247:1.0 347:1.0 359:1.0 377:0.7499999905408382 471:1.0 565:1.0 573:1.0 590:1.0 947:1.0 1084:1.0 
0.5 0.0014179933678528643 684:0.7500000180392478 686:0.7499999658879616 
0.5 0.0 684:0.7500000180392478 686:0.7499999658879616 
0.5 0.0 684:0.7500000180392478 686:0.7499999658879616 
0.5 0.0 684:0.7500000180392478 686:0.7499999658879616 
0.5 0.0 684:0.7500000180392478 686:0.7499999658879616 
0.10249119877400723 0.49574787386269237 684:0.7500000180392478 686:0.7499999658879616 
0.008178258529888693 0.0 436:0.5 678:0.6666667083095656 679:0.3472222308172078 680:1.0 681:0.5 682:1.0 683:0.6666666799723805 684:1.0 685:1.0 686:0.5 
3.2371885135690226E-4 0.36080670906294315 1104:1.0 
0.0 0.5 436:0.7499999818196824 
0.0 0.5 645:1.0 
0.5 0.5 105:0.5 199:0.5 207:1.0 518:0.37499999999999994 
0.0 0.05743454779391909 40:0.624999978284696 97:0.625 463:1.0 830:0.75 
0.2739889213256107 0.0 234:0.749999978464584 463:1.0 647:1.0 830:0.75 
0.0 0.5 764:0.7499999737004802 766:1.0 1638:1.0 
0.29870543832351304 0.5 49:1.0 387:0.5000000191098867 407:0.5 453:0.6666667059561432 
0.23687228082175668 0.12060174191168482 29:1.0 83:1.0 125:0.6000000750100607 172:0.7499999421002911 200:1.0 202:1.0 281:1.0 565:1.0 654:1.0 835:1.0 
0.5 0.5 27:0.37499999699734726 40:0.312499989142348 53:0.5 70:0.3333333308484096 97:0.3125 111:0.3124999909328035 133:0.5 145:0.5 153:0.37500001448594317 219:0.3749999877847875 293:0.374999991902204 299:0.5000000367967542 323:0.33333333333333337 410:0.5 411:0.37499997058370765 412:0.5 426:0.5 491:0.3749999886047584 557:0.37500000000000006 584:0.3000000207303596 591:0.37499999999999994 632:1.0 791:0.37499998294178916 821:0.49999998352893 883:1.0 919:0.3749999868502401 987:0.5 1030:0.5 1114:0.5 1122:0.5 1196:0.5 
0.0 0.4990839300480772 27:0.7500000100088426 103:0.7499999895978855 1122:1.0 1123:1.0 
0.3500200075245019 0.06502951595201102 5:0.6666667071830824 28:0.49999997769981536 70:0.4444444734352212 95:0.5 135:0.3809523769055201 303:0.6666667224557367 314:0.4166666860585842 317:0.5000000166397651 457:0.5000000127755687 524:0.5000000165533475 695:0.6666666890159431 761:0.6666667181330785 880:0.6666667181330785 931:0.6666666890159431 934:0.8000000901571597 995:0.6666666556859534 1002:0.6666666900440184 1123:0.6666667224557367 1301:0.6666667181330785 1422:0.5000000127755687 
0.5 0.5 456:1.0 843:0.7499999658835783 
0.09741604564914969 0.2381785652985584 35:1.0 119:0.33333334431404665 163:0.6666667224557367 258:0.19047619699512466 279:0.33333333333333337 570:0.6666667088436418 591:0.5 716:0.222222229035859 721:0.25 784:0.6666666957272209 864:0.33333334450797153 865:0.33333333333333337 917:0.25000000563144403 956:0.33333336122786833 979:0.6666666666666667 994:1.0 1056:0.33333334431404665 1081:0.19444443749628076 1093:1.0 1094:0.6666666666666666 1096:0.3333333633677035 1102:0.2500000104604502 1124:0.6666666781935748 1125:1.0 1126:0.6666667224557367 1160:0.25000001235330266 1410:0.2499999878817932 1456:0.3333333633677035 1625:0.3333333745064629 
0.24709298843533084 0.5 208:0.7499999658879616 385:1.0 776:1.0 1124:1.0 1281:1.0 
0.08039216503277512 0.5 22:0.6666666666666667 23:0.750000009648912 55:1.0 209:1.0 308:1.0 342:0.7499999748570649 378:1.0 380:1.0 387:0.7499999904450566 401:1.0 557:0.7500000000000001 613:0.7499999508406697 638:1.0 748:0.7499999865118231 826:1.0 1479:1.0 
0.06813836824885475 0.2288970845851373 125:0.6000000750100607 616:1.0 1119:1.0 
0.030754017141854235 0.5 230:0.7499999436517816 1031:0.6666666846739631 1045:1.0 
0.5 0.5 145:1.0 
0.13357117628181836 0.5 145:1.0 894:1.0 
0.057611445741653555 0.5 796:0.7499999748570649 
0.36741725809047004 0.5 22:0.6666666666666667 23:0.750000009648912 442:0.6666666492046776 738:1.0 
0.0 0.21897402812114194 43:0.6249999811730855 180:0.7499999715261061 258:0.571428590985374 1021:1.0 1127:1.0 
0.2516775994499261 0.5 180:0.7499999715261061 189:0.7499999850310722 282:0.75 334:0.7499999748570649 351:0.7499999865118231 945:0.6666666315191893 1297:1.0 
0.2204411636990064 0.0 107:1.0 220:1.0 408:0.7499999999999999 455:0.7499999999999999 557:0.7500000000000001 1068:1.0 1433:1.0 
0.14229772579556893 0.0 27:0.4999999799823148 43:0.4166666917692194 53:0.6666666882101472 68:1.0 103:1.0 109:0.6666666798690336 139:0.6666667167539756 140:0.4999999835342295 178:0.5 180:0.5000000189825958 212:0.5 219:1.0 258:0.3809523939902493 321:0.6666667088436418 377:0.49999998108167637 384:0.6666667181330785 385:0.6666666214006747 407:0.5 442:0.444444458996102 464:0.666666726735407 532:0.6666666781935748 552:0.444444461525555 557:1.0 558:0.6666666890159431 603:0.6666667007348507 668:0.5 708:0.6666667007348507 709:0.6666667007348507 753:0.5 792:0.6666666882101472 800:0.6666667034634209 803:0.6666666793103067 808:0.6666667007348507 827:0.6666667007348507 870:0.6666667088436418 905:0.6666667181330785 919:1.0 1064:0.666666726735407 1092:0.6666667181330785 1114:0.6666666957272209 1128:0.6666667224557367 1256:0.6666667088436418 1415:0.6666666556859534 
