svm_type c_svc
kernel_type linear
nr_class 3
total_sv 2693
rho -0.9980120012586537 -0.41843387962770473 0.8584389227106429
label 0 1 2
nr_sv 1211 443 1039
SV
0.1970035728592498 0.5 7:0.7499999748570649 8:1.0 9:1.0 1261:1.0 1310:1.0 
0.0 0.5 10:0.6666666666666667 
0.0 0.5 11:1.0 12:1.0 13:0.7499999747860352 14:1.0 15:0.749999984697561 
0.04754656440732989 0.5 16:0.666666683682305 17:0.7499999737004802 
0.33955546481752524 0.5 18:0.7499999737004802 19:0.7499999999999999 1161:0.625000041904896 
0.0 0.08137363307991151 20:1.0 
0.0 0.5 21:0.6666666666666666 22:0.7499999904450566 23:0.749999986677131 
0.006634123548905404 0.5 24:1.0 1379:0.6 1459:1.0 1564:1.0 
0.0 0.5 25:0.7499999598487744 
0.0 0.4208624410097311 4:0.75 26:0.7500000333764958 27:1.0 28:1.0 29:1.0 30:0.6666666828403788 31:0.7499999917233263 32:0.6250000031880082 
0.0 0.3939737457419321 46:1.0 47:0.7499999739416352 48:0.6666667032690464 
0.0 0.5 49:1.0 
0.3142367550602617 0.47667599935788607 26:0.5000000222509972 50:0.666666726735407 51:1.0 52:0.5 53:0.6666667181330785 1219:0.666666726735407 
0.041408684693951314 0.3842233884237405 54:1.0 
0.00294115152722901 0.5 55:1.0 
0.0 0.19714478091881865 56:1.0 57:0.37499998742853247 58:0.5 59:0.5 60:0.7499999673068779 61:0.5 62:0.5 63:0.37500001448594317 64:0.5000000201100478 
0.0 0.2480641967118008 65:1.0 
0.5 0.5 
0.31945826266703176 0.34840752603586045 36:0.7499999689729333 66:1.0 
0.0 0.01657937000703426 74:0.7499999493170039 75:0.7499999436517816 
0.5 0.5 
0.003596027767257225 0.0 33:0.6000000364465876 76:1.0 77:0.666666629488605 78:0.7499999658835783 1150:1.0 1536:0.7499999421002911 
0.28881503406037645 0.0 79:1.0 80:1.0 81:1.0 82:1.0 83:1.0 84:1.0 85:1.0 86:1.0 
0.0 0.10423743652967787 32:0.6250000031880082 90:0.7499999850310722 91:0.7499999547523951 92:0.7499999658835783 93:0.7499999865118231 94:0.7499999747860352 
0.5 0.2712848173435595 95:0.75 
0.007927504557711292 0.19938829457967133 25:0.7499999598487744 98:0.7499999703443155 99:1.0 100:1.0 101:0.6666666918937995 102:0.6666666846739631 103:0.7499999598487744 
0.0 0.02670122350355864 79:1.0 106:1.0 118:1.0 119:1.0 120:0.6666666815661846 121:1.0 122:1.0 
0.20554114611472699 0.0 123:1.0 124:1.0 125:0.599999992573161 126:1.0 127:1.0 128:1.0 
0.0 0.08477772299409166 21:0.8888888888888888 25:0.5 26:0.5000000222509972 129:0.6666666666666666 130:0.5000000171363742 131:0.6666666781935748 132:0.6666667088436418 133:0.6666666666666666 
0.0 0.5 134:0.57142859187861 
0.13206668748475286 0.17456651865670123 135:1.0 1342:1.0 1392:1.0 
0.23075299003934172 0.5 3:1.0 136:1.0 
0.373196719663146 0.5 137:0.8571428274360401 
0.0 0.5 68:0.25 134:0.19047619538419971 137:0.9523809078207266 142:0.33333336122786833 
0.0 0.5 143:0.624999996664857 
0.5 0.5 114:0.6249999803608136 125:0.599999992573161 144:1.0 145:0.7499999436517816 
0.12995931570039804 0.0 33:0.40000005466988153 56:0.4444444834602533 146:0.6666667181330785 147:0.5 148:1.0 149:1.0 150:0.5 151:0.6666666882101472 152:0.5000000146113918 153:0.6666666787969505 154:0.666666726735407 
0.5 0.16067449540849538 88:0.7500000219170877 155:1.0 
0.14370313151166728 0.0 115:1.0 125:0.599999992573161 156:1.0 157:1.0 158:0.5833333393377481 159:0.7499999689729333 
0.5 0.5 34:1.0 
0.0 0.1138767746402565 111:0.41666666117139606 166:1.0 
0.1493640597628518 0.5 167:0.6666666787969505 168:0.4000000101220661 169:0.499999985643056 170:0.499999985643056 171:1.0 172:0.5000000127755687 1467:0.6666667088436418 
0.0 0.5 0:1.0 169:0.749999978464584 
0.5 0.5 26:0.7500000333764958 101:0.6666666918937995 176:0.7499999547523951 177:0.6250000150895244 
0.0 0.5 134:0.57142859187861 
0.5 0.5 21:0.8888888888888888 41:0.4166666915534728 178:0.5000000187228731 1156:0.666666726735407 1269:0.6666667034634209 
0.0 0.009985151256896278 179:1.0 180:1.0 181:1.0 182:1.0 183:0.7499999857759053 184:1.0 
0.27965533416954796 0.18653697561432092 189:0.7499999703443155 190:1.0 
0.5 0.5 
0.0 0.5 191:0.7499999737004802 
0.0 0.09110476174834756 189:0.7499999703443155 194:0.7499999865118231 195:1.0 
0.332724472437336 0.36831218162422336 196:1.0 197:1.0 198:1.0 
0.0 0.27952983045416485 56:0.6666666846739631 125:0.599999992573161 199:1.0 200:1.0 
0.0 0.0990267321680266 201:1.0 
0.5 0.06791977341374836 13:0.7499999747860352 70:0.666666629488605 73:0.7499999509909532 85:1.0 101:0.6666666918937995 147:0.7499999689729333 187:0.7499999850310722 203:0.7500000219170877 204:0.6666666666666667 205:0.6666666551215595 206:0.75 207:1.0 1167:1.0 1195:1.0 
0.0 0.21093758414686617 210:0.749999978464584 211:1.0 212:1.0 
0.0 0.5 217:0.7499999586036538 
0.10057212588085569 0.03569246074276157 25:0.7499999598487744 218:0.7499999514132242 219:1.0 220:1.0 221:1.0 
0.0 0.04074625782906491 222:1.0 223:1.0 
0.5 0.5 
0.5 0.5 21:0.6666666666666666 224:1.0 
0.5 0.3373031139470022 225:1.0 226:1.0 227:0.7499999689729333 228:0.7499999586036538 229:1.0 230:1.0 
0.44053986007346485 0.1715870329856322 155:1.0 231:0.7500000069727178 232:0.7499999857759053 233:0.7499999917233263 1491:1.0 
0.20254013714921423 0.0 12:1.0 
0.0 0.5 235:1.0 236:1.0 237:0.7499999675805721 
0.05996453021327873 0.0 38:0.6249999856534647 106:1.0 238:1.0 239:1.0 240:0.749999967794279 241:0.7499999865118231 242:0.7499999686186495 243:0.7499999601981179 
0.2989932335329131 0.3641237862589618 62:0.6666667071830824 73:0.5000000196036188 206:0.5 244:1.0 245:0.6666666900440184 246:0.4999999870322288 247:0.6666666556859534 248:0.6666666666666667 
0.0815622083801655 0.2905905388212501 2:0.6250000208517559 26:0.7500000333764958 228:0.7499999586036538 248:1.0 250:1.0 251:0.749999978464584 252:1.0 
0.5 0.5 253:0.7499999703443155 1160:1.0 
0.0 0.5 17:0.7499999737004802 256:0.5714285676135082 
0.0 5.724587470723463E-17 192:1.0 193:1.0 271:1.0 272:1.0 
9.620446563584273E-4 0.29079893357667125 192:1.0 193:1.0 
0.06294307549735075 0.0 191:0.7499999737004802 252:1.0 257:1.0 258:1.0 259:0.749999986677131 
0.086411140919631 0.0 125:0.40000000742683905 189:1.0 191:0.5 259:0.5 274:1.0 275:0.6666667181330785 276:1.0 277:0.6666667181330785 278:0.5 279:0.6666666957272209 280:0.5 1282:0.6666667181330785 
0.0 0.5 189:0.7499999703443155 274:0.7499999673068779 276:0.7499999493170039 281:1.0 282:0.7499999353630986 283:1.0 
0.0 0.046963257707719266 281:1.0 284:1.0 285:1.0 
0.1136257396854289 0.5 284:1.0 285:1.0 
0.18679395666424733 0.011455080245113946 14:0.6666666787969505 101:0.44444446126253295 111:0.8333333223427921 292:0.6666666957272209 293:0.444444458996102 294:0.5 295:0.444444462375191 296:0.6666667224557367 297:0.5000000151936554 298:0.6666666418747812 1182:0.6666666957272209 
0.47061131283206675 0.34045943837956005 16:0.16666667092057624 54:0.25 101:0.33333334594689973 115:0.25 125:0.599999992573161 127:0.25 134:1.0 289:0.5 315:0.18749998852317076 316:0.15624998900231793 317:0.25 318:0.25 319:0.5624999704380846 320:0.37499998430932474 1557:0.25 
0.5 0.5 
0.02868184829021413 0.5 297:0.7499999772095168 321:1.0 322:1.0 323:1.0 
0.0668230455701114 0.0 22:0.7499999904450566 115:1.0 283:1.0 324:1.0 
0.5 0.5 325:0.6666666990721233 
0.3932791258303352 0.0 84:1.0 329:0.7499999748570649 330:1.0 331:0.749999939408966 
0.0 0.5 333:1.0 334:1.0 
0.15671163142224848 0.5 21:0.4444444444444444 26:1.0 41:0.4166666915534728 69:0.6666666882101472 216:0.6666666802688349 340:1.0 
0.3837336145728829 0.0 1:0.7499999748570649 21:0.6666666666666666 111:0.6249999752712823 221:1.0 240:0.749999967794279 341:1.0 342:0.7500000254621214 343:1.0 
0.10332715511353081 0.09758758983221011 344:0.7499999748570649 345:1.0 346:1.0 
0.5 0.5 
0.5 0.5 347:1.0 348:0.7499999649491076 349:1.0 350:0.7500000219170877 351:1.0 352:0.7500000219170877 
0.0 0.33703195539421565 355:1.0 356:1.0 
0.2645967210042444 0.17296379577095178 21:0.4444444444444444 41:0.4166666915534728 43:0.6666666793103067 56:0.4444444834602533 164:0.6666667088436418 168:0.4000000101220661 357:0.4999999811463808 358:1.0 359:0.6666666957272209 1209:0.6666666882101472 
0.15629704969562289 0.5 12:1.0 21:0.6666666666666666 172:0.749999980836647 175:0.7499999865118231 360:1.0 361:1.0 1549:1.0 
0.0 0.5 362:1.0 
0.0 0.5 0:1.0 21:0.6666666666666666 114:0.6249999803608136 129:1.0 145:0.7499999436517816 
0.25892622177274316 0.4327623599053008 25:0.7499999598487744 145:0.7499999436517816 364:1.0 
0.0 0.47381332914528185 15:0.749999984697561 21:0.6666666666666666 26:0.7500000333764958 312:0.7499999715261061 340:0.7499999493170039 365:1.0 366:1.0 367:1.0 
0.0 0.5 60:1.0 369:1.0 
0.0 0.007394686180656412 147:0.7499999689729333 221:1.0 
0.1414545633286465 0.0 217:0.7499999586036538 370:0.7500000219170877 371:0.75 372:1.0 373:1.0 
0.28398315176040034 0.15673985961020803 77:0.666666629488605 204:0.6666666666666667 234:1.0 377:1.0 380:0.7499999906385635 381:1.0 382:1.0 383:1.0 384:1.0 385:1.0 386:1.0 1254:1.0 1588:1.0 
0.3645668192311278 0.5 223:1.0 325:0.6666666990721233 
0.0 0.5 33:0.6000000364465876 170:0.749999978464584 
0.3526231252867534 0.5 391:1.0 392:0.7499999675805721 393:1.0 394:1.0 
0.0 0.27429358689543765 395:0.25000000563144403 396:0.3333333544218209 397:0.33333334431404665 398:0.2222222208900566 399:1.0 
0.0 0.5 97:0.6249999553529086 
0.0 0.5 162:1.0 406:0.749999986677131 
0.010432786054519494 0.0 6:0.6000000051529156 407:1.0 408:1.0 409:0.75 410:0.7500000081434751 
0.09817437725946612 0.5 76:1.0 411:1.0 412:1.0 413:0.7499999831074771 414:1.0 
0.2558537930586479 0.0 73:0.7499999509909532 416:1.0 417:1.0 
0.04326139775718296 0.0 1:1.0 73:0.5000000196036188 81:0.666666726735407 95:1.0 114:0.416666643099643 125:0.40000000742683905 228:1.0 254:0.5 256:0.38095239621263405 282:0.5 314:0.6666667007348507 357:0.4999999811463808 380:0.5000000187228731 382:0.6666666882101472 416:0.6666666666666666 418:0.6666666666666666 419:1.0 420:0.6666666957272209 421:0.6666666882101472 422:0.5 423:0.6666666556859534 424:0.6666666556859534 425:0.6666666900440184 426:1.0 427:0.6666666785092171 428:0.4999999757635864 429:0.6666666556859534 1251:0.6666667181330785 1350:1.0 1476:0.5 
0.0 0.29469457440901886 173:1.0 430:1.0 431:1.0 
0.048207647248206045 0.2578649764392282 252:1.0 346:1.0 432:1.0 433:0.6666666492046776 434:1.0 
0.0 0.5 13:0.7499999747860352 103:0.7499999598487744 435:1.0 436:1.0 1287:1.0 
0.5 0.5 438:1.0 
0.0 0.45560113373231437 70:0.666666629488605 78:0.7499999658835783 387:1.0 439:1.0 440:1.0 
0.40942809580790684 0.5 133:1.0 144:1.0 287:1.0 374:1.0 422:0.7499999601981179 
0.0 0.5 443:0.666666683682305 
0.0 0.21140767237398983 19:0.7499999999999999 173:1.0 444:1.0 445:1.0 446:1.0 447:1.0 448:1.0 
0.35190366972344117 0.0 97:0.6249999553529086 227:0.7499999689729333 240:0.749999967794279 357:0.7499999905731904 449:1.0 450:1.0 
0.027893740465409274 0.0 147:1.0 174:0.6666667034634209 201:0.6666666799723805 221:0.6666667068867623 448:0.6666666882101472 451:0.6666667034634209 452:0.6666667167539756 
0.0995507751978705 0.4949815802567322 32:0.6250000031880082 90:0.7499999850310722 91:0.7499999547523951 92:0.7499999658835783 93:0.7499999865118231 94:0.7499999747860352 
0.5 0.5 
0.0 0.5 170:0.749999978464584 363:1.0 
0.0 0.5 453:1.0 
0.5 0.5 
0.0 0.29078518937468173 21:0.6666666666666666 243:0.7499999601981179 442:1.0 450:1.0 454:1.0 1443:1.0 
0.45414467551773474 0.5 95:0.75 101:0.6666666918937995 370:0.7500000219170877 458:1.0 459:0.7499999703443155 
0.0030341183373707036 0.5 89:0.7500000123533026 
0.4108819096130982 0.5 422:0.7499999601981179 464:1.0 
0.0 0.07051945698515792 73:0.7499999509909532 212:1.0 322:1.0 353:0.749999980836647 1468:1.0 
0.0 0.5 5:1.0 57:0.7499999748570649 64:1.0 101:0.6666666918937995 130:0.7500000085681872 282:0.7499999353630986 287:1.0 329:0.7499999748570649 371:0.75 451:1.0 
0.5 0.5 
0.0 0.1462819669112321 471:1.0 472:1.0 473:0.7499999421002911 474:1.0 
0.0 0.4321250198975447 280:0.749999986677131 475:1.0 476:0.6000000054579264 477:1.0 
0.0 0.08514173178964474 478:1.0 479:1.0 480:1.0 
0.1407337278184441 0.0 475:1.0 481:0.6666666753252691 
0.0 0.5 70:0.666666629488605 111:0.6249999752712823 134:0.57142859187861 254:0.7499999850310722 352:0.7500000219170877 484:0.6666666482802565 485:1.0 1194:1.0 
0.1710415737117106 0.0 125:0.599999992573161 243:0.7499999601981179 490:1.0 1322:0.7499999686186495 
0.01251531033426827 0.5 204:0.6666666666666667 445:1.0 
0.0 0.5 6:0.6000000051529156 496:0.5999999855207659 
0.35123677727874153 0.29693118974033367 5:1.0 315:0.749999984697561 501:1.0 
0.0 0.15226343156638333 26:0.7500000333764958 312:0.7499999715261061 496:0.5999999855207659 
0.44466193658598835 0.5 16:0.666666683682305 432:1.0 
0.0 0.4060062831306568 502:1.0 503:0.7499999675805721 
0.0 0.5 21:0.6666666666666666 253:0.7499999703443155 407:1.0 1288:1.0 
0.0 0.3367198816210146 180:1.0 233:0.7499999917233263 504:0.7499999531517415 
0.0 0.5 134:0.57142859187861 235:1.0 310:1.0 505:1.0 506:1.0 
0.0 0.19782329398877085 103:0.5 125:0.40000000742683905 134:0.38095238504238865 159:0.5 160:0.666666726735407 201:0.6666666799723805 278:0.5 410:1.0 452:0.6666667167539756 507:0.696969639227416 508:0.6666666666666666 
0.0 0.5 77:0.666666629488605 418:1.0 509:1.0 510:1.0 
0.0 0.243695057354392 129:1.0 134:0.57142859187861 514:1.0 
0.2125971306074252 0.28934056922343865 319:0.7499999831074771 515:1.0 
0.5 0.5 
0.19135913126095644 0.08354139089828484 97:0.6249999553529086 227:0.7499999689729333 260:1.0 516:1.0 
0.29364758994355816 0.013822759065688299 233:0.7499999917233263 294:0.75 517:1.0 518:1.0 1360:1.0 
0.0 0.5 218:0.29999998704352643 469:0.39999999999999997 522:0.9600000754727246 
0.0 0.5 21:0.6666666666666666 523:0.7499999737004802 
0.0 0.5 265:0.6666666900440184 326:1.0 365:0.6666666793103067 525:0.6666666957272209 
0.16912887617103908 0.0 25:0.7499999598487744 101:0.6666666918937995 173:1.0 243:0.7499999601981179 333:1.0 526:0.7499999999999999 
0.0 0.5 278:0.7499999857759053 410:0.7500000081434751 527:0.5208333277026602 528:1.0 1180:0.5208333424725922 
0.0019395197517189772 0.5 1338:1.0 
0.5 0.5 416:1.0 
0.5 0.5 357:0.4999999811463808 481:0.8888888744578849 530:0.6666666556859534 1192:0.444444461525555 1460:0.5000000118622737 1529:0.6666666957272209 
0.5 0.5 
0.5 0.5 8:0.6666667167539756 531:1.0 
0.41479497436722923 0.0 70:0.666666629488605 80:1.0 254:0.7499999850310722 533:1.0 
0.0036735666329516265 0.42473293800947226 45:1.0 266:0.749999980836647 287:1.0 326:0.7499999723164333 357:0.7499999905731904 418:1.0 533:1.0 537:1.0 538:1.0 539:0.7499999493170039 
0.0 0.07690706333651966 15:0.749999984697561 26:0.7500000333764958 205:0.6666666551215595 312:0.7499999715261061 366:1.0 
0.18730900015497204 0.0 540:1.0 541:1.0 542:1.0 
0.008411411149153518 0.0 130:0.7500000085681872 404:1.0 545:0.7499999673068779 546:1.0 547:1.0 
0.0 0.5 372:1.0 
0.5 0.5 1599:1.0 
0.0 0.08136472479813983 435:1.0 
0.5 0.5 
0.0 0.15693173889853146 33:0.6000000364465876 38:0.6249999856534647 78:0.7499999658835783 103:0.7499999598487744 387:1.0 481:0.6666666753252691 552:1.0 553:1.0 554:0.749999967794279 
0.0019556759899747034 0.5 520:1.0 
0.4322858910131786 0.5 183:0.7499999857759053 231:0.7500000069727178 324:1.0 349:1.0 556:0.6666666666666666 557:1.0 
0.053346566193583814 0.4376469728454171 38:0.6249999856534647 103:0.7499999598487744 558:1.0 559:0.7499999703443155 560:0.6249999520562717 1449:1.0 
0.5 0.32940817098364855 227:0.7499999689729333 312:0.7499999715261061 326:0.7499999723164333 561:0.7500000180392478 
0.0 0.5 183:0.7499999857759053 311:1.0 491:1.0 562:1.0 
0.5 0.5 204:0.6666666666666667 510:1.0 
0.0172316085682526 0.0 146:1.0 222:1.0 351:1.0 389:0.750000009648912 533:1.0 563:1.0 564:1.0 
0.0 0.3262288914099521 41:0.8333333831069456 73:0.5000000196036188 282:0.5 308:0.666666726735407 383:0.6666666799723805 518:0.6666667224557367 567:0.6666666882101472 568:0.6666666666666666 569:0.5 570:0.6666666786561575 
0.09185401486373262 0.4663771593478842 10:0.6666666666666667 241:0.7499999865118231 1409:1.0 
0.10075500958306179 0.0 4:0.75 356:1.0 550:0.749999978464584 
0.5 0.5 68:0.75 571:1.0 1188:1.0 
0.3045075755950337 0.498898050778625 31:0.7499999917233263 201:1.0 451:1.0 522:0.6000000225291715 572:0.7499999703443155 573:1.0 574:1.0 575:0.7500000219170877 576:1.0 1424:1.0 
0.5 0.5 427:1.0 577:1.0 
0.5 0.5 21:0.6666666666666666 579:0.749999984697561 
0.0 0.5 256:0.5714285676135082 262:1.0 
0.06223228581003341 0.5 42:0.5 311:0.6666666666666667 325:0.44444449035217454 390:0.7619047684713077 409:0.5 527:0.34722222539849934 531:0.5000000166397651 578:0.6666666785092171 582:1.0 583:0.6666667071830824 584:0.49999998371305004 585:0.6666666798690336 1331:0.8888889668024818 1332:0.6666666418747812 1348:0.6666666418747812 1370:1.0 1371:0.6666666890159431 1372:0.5 1373:1.0 1374:0.6666667007348507 1375:1.0 1376:0.6666667034634209 1377:0.6666666418747812 1378:0.6666667034634209 1466:1.0 
0.0 0.24289847177263418 26:0.06250000278137464 41:0.05208333924394978 233:0.06250000041383369 312:0.0624999995254351 586:1.0 587:0.050000002530516514 
0.0 0.5 336:0.749999980836647 588:1.0 589:1.0 
0.0 0.5 21:0.6666666666666666 
0.0 0.17542575099494967 21:0.4444444444444444 289:0.6666666781935748 342:0.49999998302525245 545:1.0 554:0.5 593:0.6666667181330785 594:0.6666666781935748 
0.48789255092193473 0.5 144:1.0 168:0.6000000151830991 484:0.6666666482802565 
0.02830683549488409 0.0 21:0.6666666666666666 42:0.75 62:1.0 68:0.75 95:0.75 205:0.6666666551215595 285:1.0 596:0.7499999514132242 597:1.0 598:0.7500000069727178 1451:1.0 
0.0 0.06592768315720327 599:1.0 600:1.0 601:1.0 602:1.0 
0.12237782883028017 0.0 6:0.6000000051529156 379:0.75 511:1.0 1347:1.0 1540:0.7499999421002911 
0.13043291979429514 0.45852172132909425 564:1.0 
0.2442289096761093 0.01884570069176806 300:1.0 603:1.0 604:1.0 
0.0 0.22117545105149278 33:0.8000000789676067 136:0.6666667088436418 243:0.5 413:0.5 554:0.5 
0.05165825708178787 0.5 73:0.7499999509909532 111:0.6249999752712823 608:1.0 609:1.0 610:1.0 
0.0 0.5 125:0.599999992573161 168:0.6000000151830991 173:1.0 522:0.6000000225291715 606:1.0 611:0.7499999675805721 612:0.7500000083198824 
0.5 0.5 298:1.0 369:0.7500000083198824 613:1.0 1293:1.0 
0.5 0.5 12:0.6666666793103067 101:0.44444446126253295 216:0.6666666802688349 324:0.6666667071830824 349:0.6666666666666667 614:1.0 615:0.6666667007348507 616:0.4999999870322288 617:0.6666666793103067 618:0.5000000194212159 619:0.6666666793103067 
0.2842976156140108 0.0 4:0.75 204:0.6666666666666667 406:0.749999986677131 410:0.7500000081434751 436:1.0 537:1.0 620:1.0 
0.0 0.5 15:0.749999984697561 21:0.6666666666666666 42:0.75 138:1.0 139:0.7499999514132242 141:1.0 312:0.7499999715261061 366:1.0 409:0.75 
0.0 0.5 70:0.666666629488605 387:1.0 
0.23378794054742716 0.5 42:0.75 265:1.0 
0.0 0.08516092355686787 22:0.5000000191098867 70:0.4444444692298189 205:0.4444444598379205 228:0.5 297:0.5000000151936554 311:0.6666666666666667 312:0.5000000189825958 519:0.666666726735407 608:0.6666666900440184 638:0.8888889116010116 639:0.6666667181330785 640:0.6666666785092171 641:0.6666666890159431 1173:0.6666666890159431 1632:0.666666726735407 
0.0 0.3560037144648354 347:1.0 642:1.0 643:1.0 
0.0 0.2736505579023965 28:1.0 235:1.0 454:1.0 579:0.749999984697561 648:0.6666666933638855 
0.0 0.20803011550502276 73:0.7499999509909532 629:1.0 
0.49179558812714197 0.0 40:0.7499999689729333 58:1.0 125:0.599999992573161 221:1.0 
0.0 0.17335720163071927 6:0.6000000051529156 21:0.6666666666666666 173:1.0 651:1.0 652:1.0 
0.0 0.034885781341577764 2:0.6250000208517559 21:0.6666666666666666 357:0.7499999905731904 466:1.0 653:1.0 1522:1.0 
0.5 0.5 28:1.0 148:0.749999939408966 325:0.6666666990721233 564:1.0 657:0.6 
0.22914701272557306 0.32061221187561784 42:0.75 361:1.0 619:1.0 658:0.7500000123533026 
0.203973586326871 0.0 33:0.8000000789676067 70:0.4444444692298189 77:0.4444444692298189 95:0.5 106:0.6666666666666666 112:0.6666666556859534 134:0.7619047700847773 531:0.5000000166397651 650:0.6666666785092171 659:0.5555555342860091 660:0.6666666882101472 661:0.6666666556859534 662:0.6666666957272209 663:0.6666667088436418 664:0.6666666882101472 
0.06143209335429806 0.0 26:0.7500000333764958 70:0.666666629488605 101:0.6666666918937995 124:1.0 178:0.7499999906385635 216:1.0 294:0.75 527:0.5208333277026602 531:0.7500000083198824 665:1.0 666:1.0 
0.15689981192507652 0.5 125:0.599999992573161 205:0.6666666551215595 650:1.0 667:1.0 
0.18801235158054497 0.0 70:0.666666629488605 103:0.7499999598487744 163:1.0 312:0.7499999715261061 668:1.0 669:1.0 670:0.749999980836647 671:1.0 1631:1.0 
0.5 0.5 21:0.6666666666666666 97:0.6249999553529086 672:1.0 673:0.7499999586036538 
0.26303653703467045 0.0 31:0.7499999917233263 105:1.0 657:0.6 674:1.0 675:1.0 1156:1.0 
0.300250109031491 0.0 21:0.4444444444444444 31:0.5000000165533475 57:1.0 125:0.40000000742683905 157:0.666666726735407 173:0.6666666982216839 314:0.6666667007348507 369:0.5000000166397651 584:0.49999998371305004 
0.4917127401513826 0.29374850640630035 63:0.5 64:0.6666667068867623 111:0.41666666117139606 187:1.0 218:0.5 389:0.500000019297824 677:0.6666666957272209 678:0.5 1258:0.6666666882101472 
0.09177028480014204 0.5 369:0.5000000166397651 452:0.6666667167539756 679:0.6666666957272209 680:0.6666667181330785 1285:1.0 
0.0 0.5 21:0.8888888888888888 41:0.4166666915534728 103:0.5 361:0.666666681682243 484:0.4444444505732478 695:0.5000000127755687 
0.0 0.09510670423835386 109:1.0 233:0.7499999917233263 349:1.0 361:1.0 577:1.0 696:1.0 
0.0019511961072470026 0.5 492:1.0 
0.40629806626289894 0.5 17:0.7499999737004802 168:0.6000000151830991 204:0.6666666666666667 410:0.7500000081434751 499:0.6666666934800648 699:1.0 700:1.0 1180:0.5208333424725922 
0.031757673436527294 0.5 15:0.749999984697561 94:0.7499999747860352 312:0.7499999715261061 324:1.0 366:1.0 388:0.6666666492046776 708:0.7499999675805721 709:0.749999967794279 
0.24434993315107967 0.040787215719860805 49:1.0 713:1.0 
0.19462442316731401 0.0 101:0.6666666918937995 159:0.7499999689729333 227:0.7499999689729333 364:1.0 624:1.0 714:1.0 
0.13613534685812137 0.5 715:1.0 716:1.0 
0.2391345121290648 0.37050792560418777 31:0.7499999917233263 153:1.0 174:1.0 390:0.5714285418791148 717:1.0 
0.0 0.08757593528670458 77:0.666666629488605 262:1.0 528:1.0 618:0.7499999708681762 718:1.0 
0.5 0.5 347:1.0 701:1.0 
0.2790285718044085 0.3747902521747687 200:1.0 576:1.0 721:1.0 1316:1.0 
0.3222601570761747 0.5 77:0.3333333184621087 125:0.2999999962865805 467:0.5000000367967542 481:0.3333333246747309 504:0.37499997657587075 722:1.0 
0.0 0.3616044168593065 203:0.7500000219170877 281:1.0 646:1.0 
0.17547108895181132 0.5 178:0.7499999906385635 408:1.0 655:1.0 723:0.7499999857759053 
0.47369939288341756 0.027368983311200405 218:0.7499999514132242 380:0.7499999906385635 384:1.0 596:0.7499999514132242 724:1.0 
0.0 0.15930801671985897 206:0.75 233:0.7499999917233263 514:1.0 736:1.0 
0.0 0.44866032520631177 55:1.0 737:1.0 
0.0 0.5 41:0.6250000186651046 738:1.0 739:1.0 
0.003087299550151336 0.0 41:0.6250000186651046 326:0.7499999723164333 450:1.0 738:1.0 
0.0 0.48002188225447084 147:0.7499999689729333 740:1.0 741:0.7499999493170039 
0.2762893147320579 0.0 21:0.6666666666666666 213:1.0 252:1.0 369:0.7500000083198824 612:0.7500000083198824 742:1.0 
0.0 0.5 21:0.6666666666666666 103:0.7499999598487744 371:0.75 744:1.0 
0.0 0.5 31:1.0 33:0.40000005466988153 43:0.6666666793103067 136:0.6666667088436418 379:0.5 590:0.44444445021684603 747:0.41666667672634966 
0.5 0.0 42:0.5 73:0.5000000196036188 97:0.8333333170980274 155:0.6666666786561575 243:0.5 357:0.4999999811463808 412:0.6666666781935748 422:0.5 583:0.6666667071830824 648:0.4444445022884188 750:0.6666667088436418 
0.18815160062018757 0.5 369:0.7500000083198824 
0.0 0.41946783341249905 34:1.0 235:1.0 596:0.7499999514132242 654:1.0 757:0.7499999531517415 
0.0 0.15011133290188963 0:1.0 88:0.7500000219170877 602:1.0 679:1.0 758:1.0 
0.0 0.39961506187503126 44:1.0 
0.4327294021532752 0.1407208545226275 391:1.0 759:1.0 760:1.0 1318:1.0 
0.0 0.09155706780995534 10:0.6666666666666667 254:0.7499999850310722 536:1.0 
0.0 0.5 70:0.666666629488605 84:1.0 
0.0 0.5 209:1.0 423:1.0 761:0.7499999703443155 
0.3929426688106524 0.5 101:0.6666666918937995 301:0.75 762:0.6999999522070441 
0.19043442318626608 0.0 6:0.6000000051529156 461:0.75 537:1.0 1308:0.749999939408966 
0.14602621497167398 0.0 131:0.6666666781935748 499:0.44444448913344137 611:1.0 763:0.6666666793103067 764:0.6666667224557367 
0.0 0.016022948440879262 51:0.7499999686186495 110:1.0 715:1.0 716:1.0 765:1.0 
0.0 0.05297232210038043 138:1.0 139:0.7499999514132242 310:1.0 643:1.0 768:1.0 1539:0.7499999748570649 
0.08663823858807078 0.07073243202204117 73:0.5000000196036188 97:0.4166666585490137 134:0.38095238504238865 178:0.5000000187228731 433:0.444444458996102 526:1.0 728:0.5 767:0.6666666785092171 769:0.6666666882101472 770:0.5 771:0.4999999757635864 772:0.6666666556859534 773:0.6666666957272209 
0.3788758374292661 0.0 129:1.0 774:0.7499999748570649 
0.5 0.3568082611895656 256:0.5714285676135082 389:0.750000009648912 751:1.0 
0.0 0.5 21:0.6666666666666666 70:0.666666629488605 288:1.0 708:0.7499999675805721 766:1.0 775:1.0 776:1.0 
0.0 0.5 114:0.6249999803608136 441:0.749999978464584 657:0.6 674:1.0 777:1.0 
0.1434684375640628 0.0 209:1.0 435:1.0 
0.004073388452710828 0.39558112014569574 67:0.29999999727068627 413:0.29999999324299076 778:1.0 779:0.3999999883757783 1391:0.2666666842676647 
0.1152341377855695 0.14960563548364567 16:0.666666683682305 25:0.7499999598487744 26:0.7500000333764958 111:0.6249999752712823 130:0.7500000085681872 131:1.0 243:0.7499999601981179 266:0.749999980836647 428:0.749999939408966 769:1.0 
0.5 0.5 347:0.6666666828269493 586:0.6956522435175584 780:0.6666667088436418 
0.028053524190204533 0.0 101:0.6666666918937995 107:1.0 122:1.0 437:1.0 490:1.0 671:1.0 781:1.0 
0.0 0.5 144:1.0 371:0.75 515:1.0 672:1.0 782:1.0 783:1.0 
0.2383449001224295 0.3752010710621275 26:0.5000000222509972 784:0.5000000118622737 785:1.0 
0.24873496395554084 0.0 12:1.0 620:1.0 752:1.0 766:1.0 786:1.0 
0.11455515220446863 0.0 19:0.7499999999999999 269:1.0 710:0.749999978464584 
0.42372604618989435 0.3048579316568097 2:0.6250000208517559 351:1.0 422:0.7499999601981179 571:1.0 640:1.0 767:1.0 787:1.0 1227:1.0 
0.0 0.5 97:0.4166666585490137 243:0.5 303:0.4999999757635864 315:0.5 325:0.8888889807043491 378:0.666666726735407 538:0.6666667088436418 740:0.6666666957272209 788:1.0 
0.25544780958143903 0.0 170:0.749999978464584 591:1.0 744:1.0 790:1.0 
0.06134701986955994 0.051513032446715595 111:0.6249999752712823 125:0.599999992573161 300:1.0 436:1.0 
0.18333727899670932 0.5 178:0.5000000187228731 384:0.6666666781935748 422:0.5 562:0.6666666556859534 596:1.0 702:0.5 795:0.6666666882101472 
0.11853186503075216 0.5 10:0.6666666666666667 20:1.0 21:0.6666666666666666 22:0.7499999904450566 326:0.7499999723164333 803:1.0 
0.0 0.1299247203771212 77:0.8888889012815762 508:0.6666666666666666 802:0.6666666418747812 804:0.6666666957272209 
0.0 0.34725204068579807 21:0.6666666666666666 68:0.75 70:0.666666629488605 111:0.6249999752712823 243:0.7499999601981179 429:1.0 557:1.0 571:1.0 1387:1.0 
0.0291157112385203 0.5 381:1.0 416:1.0 570:1.0 805:1.0 
0.09178177807993078 0.4560963676428835 21:0.6666666666666666 405:1.0 625:1.0 
0.16799699062366347 0.38430835134332597 25:0.7499999598487744 42:0.75 78:0.7499999658835783 88:0.7500000219170877 165:1.0 704:1.0 806:1.0 807:0.6666666523043467 
0.0 0.27198592332524213 26:0.7500000333764958 312:0.7499999715261061 509:1.0 670:0.749999980836647 
0.0 5.195817803782532E-10 10:0.6666666666666667 254:0.7499999850310722 486:1.0 536:1.0 
0.15021287938225905 0.47614637835996537 26:0.5000000222509972 695:1.0 810:0.6666666890159431 811:0.6666666900440184 1400:1.0 
0.0 0.11729313047918921 47:0.7499999739416352 600:1.0 
0.0 0.5 414:1.0 813:1.0 
0.37392392997557294 0.5 315:0.749999984697561 357:0.7499999905731904 422:0.7499999601981179 1261:1.0 
0.0 0.5 21:0.6666666666666666 70:0.666666629488605 251:0.749999978464584 534:1.0 584:0.7500000081434751 
0.5 0.5 21:0.6666666666666666 23:0.749999986677131 95:0.75 630:1.0 
0.0 0.5 8:0.6666667167539756 410:1.0 559:0.5000000118622737 
0.0 0.5 115:1.0 334:1.0 556:0.6666666666666666 
0.3911312430344904 0.5 10:0.6666666666666667 1561:1.0 
0.0 0.5 739:1.0 
0.0 0.5 103:0.7499999598487744 
0.028107781990193873 0.11844895173294138 125:0.599999992573161 481:0.6666666753252691 553:1.0 
0.0 0.38192877752252324 56:0.6666666846739631 131:1.0 380:0.7499999906385635 419:0.7499999493170039 513:0.749999980836647 651:1.0 
0.0 0.4782785579058169 10:0.6666666666666667 254:0.7499999850310722 536:1.0 
0.0 0.3854861101183436 33:0.6000000364465876 70:0.666666629488605 534:1.0 820:1.0 821:1.0 
0.0 0.2721108827690338 22:0.5000000191098867 167:0.6666666787969505 295:0.444444462375191 457:0.5000000168093099 763:0.6666666793103067 822:1.0 824:0.6666667224557367 825:0.6666666786561575 
0.05254262937219299 0.0 224:1.0 827:1.0 828:0.6666666254935397 
0.0 0.06088937005803084 224:1.0 410:0.7500000081434751 575:0.7500000219170877 723:0.7499999857759053 829:1.0 830:1.0 
0.2002115302890956 0.0 467:1.0 831:0.749999980836647 832:1.0 
0.0 0.5 77:0.666666629488605 1202:0.7499999586036538 
0.2675611871203325 0.4529510937395417 101:0.6666666918937995 476:0.6000000054579264 529:0.7499999857759053 833:1.0 
0.29447465863629946 0.5 25:0.7499999598487744 36:0.7499999689729333 834:1.0 835:0.749999978464584 
0.0 0.5 504:0.7499999531517415 819:1.0 838:0.7499999748570649 
0.0 0.5 101:0.6666666918937995 348:0.7499999649491076 383:1.0 495:0.749999939408966 504:0.7499999531517415 534:1.0 787:1.0 839:0.7500000069727178 840:1.0 1159:1.0 1379:0.6 
0.5 0.5 
0.0 0.003912862495568352 785:0.749999986677131 841:1.0 
0.23729114948386645 0.5 61:0.5 311:0.5 430:0.5000000158163657 551:0.5 576:0.49999997959674763 579:0.3749999770463415 735:0.8333333653525247 
0.16739765138263873 0.0 138:1.0 389:0.750000009648912 550:0.749999978464584 627:1.0 630:1.0 843:1.0 
0.5 0.5 
0.3828829679613562 0.3181672373876505 380:0.7499999906385635 478:1.0 844:1.0 
0.0 0.5 312:0.7499999715261061 835:0.749999978464584 
0.037793548450285354 0.2621888755885406 33:0.6000000364465876 103:0.7499999598487744 318:1.0 
0.0 0.20740488065325063 44:0.5555555627310012 109:1.0 613:1.0 647:1.0 735:0.5555555897093598 1489:1.0 
0.03931796500703779 0.5 188:0.6666666957272209 329:0.5 380:0.5000000187228731 847:1.0 848:0.6666667181330785 1385:0.6666666957272209 
0.0 0.08607471368385698 77:0.666666629488605 591:1.0 1487:1.0 
0.0 0.34379586544370183 2:0.6250000208517559 3:1.0 107:1.0 
0.18415751221158985 0.0 77:0.4444444692298189 109:0.6666666799723805 175:1.0 234:0.6666666666666667 252:0.6666666666666667 413:1.0 467:0.6666667034634209 512:0.5000000112628881 
0.0 0.2486949356881184 70:0.666666629488605 315:0.749999984697561 338:1.0 389:0.750000009648912 
0.0 0.22215959169525273 129:1.0 258:1.0 736:1.0 
0.5 0.5 19:0.5 114:0.8333333176219843 127:0.6666666900440184 129:0.6666666666666666 134:0.7619047700847773 201:0.6666666799723805 209:0.6666666418747812 534:0.6666666793103067 554:0.5 805:0.6666667034634209 849:0.49999998635343135 
0.0 0.23989912535786295 2:0.6250000208517559 347:1.0 809:0.7499999675805721 850:1.0 
0.5 0.5 
0.0 0.4505337554825228 21:0.6666666666666666 97:0.6249999553529086 354:1.0 360:1.0 461:0.75 853:1.0 854:1.0 
0.0 0.29073449279964614 624:1.0 714:1.0 
0.0 0.06711984894813118 38:0.6249999856534647 230:1.0 233:0.7499999917233263 336:0.749999980836647 466:1.0 657:0.6 674:1.0 855:1.0 
0.36449441275628525 0.5 125:0.599999992573161 144:1.0 785:0.749999986677131 817:1.0 
0.0 0.5 504:0.7499999531517415 626:0.75 1503:1.0 
0.0 0.5 140:0.7499999737004802 794:1.0 
0.4737652184106788 0.0 80:1.0 556:0.6666666666666666 598:0.7500000069727178 708:0.7499999675805721 756:1.0 
0.14935151831490998 0.5 27:1.0 352:0.7500000219170877 
0.0 0.5 10:0.6666666666666667 771:0.749999939408966 
0.004592262416715582 0.40641024530381376 13:0.7499999747860352 206:0.75 231:0.7500000069727178 348:0.7499999649491076 658:0.7500000123533026 763:1.0 857:1.0 858:1.0 
0.0 0.25921113828123626 47:0.5000000173722432 124:0.6666666787969505 130:0.5000000171363742 388:0.444444458996102 390:0.7619047684713077 476:0.4000000218317058 694:0.6666666900440184 
0.0 0.5 109:1.0 116:1.0 640:1.0 737:1.0 
0.19190615045288534 0.3316964825111795 2:0.41666665832596433 178:0.5000000187228731 413:0.5 859:1.0 
0.0807077570047081 0.5 41:0.6250000186651046 358:0.749999986677131 500:1.0 579:0.749999984697561 860:1.0 
0.0 0.15918516769537688 545:0.7499999673068779 861:1.0 862:0.7499999493170039 
0.3616479012973885 0.5 206:0.75 235:1.0 342:0.7500000254621214 863:1.0 
0.0 0.5 224:0.4999999805181448 432:0.5 522:0.900000019713025 1493:0.5 
0.5 0.5 260:1.0 301:0.75 352:0.7500000219170877 414:1.0 
0.3978869241740754 0.2538152561366068 68:0.75 124:1.0 130:0.7500000085681872 232:0.7499999857759053 282:0.7499999353630986 342:0.7500000254621214 409:0.75 438:1.0 659:0.8333333014290137 663:1.0 729:0.749999980836647 
0.06407636011837822 0.5 95:0.75 134:0.57142859187861 484:0.6666666482802565 575:0.7500000219170877 723:0.7499999857759053 865:0.7500000069727178 
0.5 0.5 868:1.0 
0.0725596903809243 0.0 101:0.6666666918937995 106:1.0 143:0.624999996664857 201:1.0 413:0.7499999831074771 475:1.0 869:1.0 870:1.0 871:1.0 
0.0 0.28118677981559215 255:1.0 816:1.0 
0.5 0.26111588724962737 41:0.6250000186651046 234:1.0 354:1.0 370:0.7500000219170877 875:0.7499999857759053 876:1.0 
0.5 0.5 178:0.7499999906385635 
0.0 0.19087698995560295 208:1.0 524:1.0 878:1.0 879:1.0 1275:1.0 
0.003240655980982938 0.5 880:0.7499999421002911 
0.3290911272686326 0.0 75:0.7499999436517816 342:0.7500000254621214 410:0.7500000081434751 801:1.0 882:1.0 1170:1.0 
0.0 0.5 22:0.3749999952225283 310:0.5000000201100478 657:0.9000000246544372 
0.1096028674828259 0.5 883:1.0 
0.010373670602566679 0.0 2:0.6250000208517559 21:0.6666666666666666 450:1.0 617:1.0 630:1.0 631:1.0 632:1.0 633:0.7499999703443155 634:1.0 635:1.0 636:1.0 637:1.0 
0.34171063044751504 0.46653122357098215 21:0.4444444444444444 26:0.5000000222509972 38:0.41666665710230977 101:0.44444446126253295 125:0.40000000742683905 243:0.5 314:0.6666667007348507 433:0.8888888917992204 554:0.5 598:0.4999999860545643 734:0.6666666787969505 
0.5 0.5 
0.0 0.5 21:0.6666666666666666 134:0.57142859187861 650:1.0 888:1.0 
0.028779641432422513 0.0 13:0.7499999747860352 601:1.0 889:1.0 
0.5 0.5 
0.5 0.2523917367217673 610:1.0 890:1.0 
0.5 0.0 125:0.40000000742683905 194:1.0 221:0.6666667068867623 289:0.6666666781935748 342:0.49999998302525245 554:0.5 893:0.6666667181330785 
0.0 0.12243537739667147 252:0.4999999786550851 432:0.5 484:0.33333332414012823 735:0.8333333653525247 
0.5 0.5 
0.42428480174823935 0.0 2:0.6250000208517559 254:0.7499999850310722 413:0.7499999831074771 576:1.0 898:1.0 1627:1.0 
0.0 0.5 42:0.75 235:1.0 
0.0 0.32069747497559514 56:0.4444444834602533 103:0.5 115:0.6666666991110846 173:0.6666666982216839 380:0.5000000187228731 613:0.6666666802688349 906:1.0 
0.04498892423257152 0.0 18:0.7499999737004802 23:0.749999986677131 342:0.7500000254621214 540:1.0 768:1.0 
0.0 0.3058630489639002 178:0.7499999906385635 394:1.0 426:0.7499999900994392 
0.5 0.5 169:0.749999978464584 319:0.7499999831074771 452:1.0 
0.16612993336503507 0.5 64:1.0 79:1.0 116:1.0 496:0.5999999855207659 760:1.0 
0.0 0.4288413079967246 1:0.7499999748570649 270:1.0 319:0.7499999831074771 380:0.7499999906385635 490:1.0 590:0.6666666753252691 837:1.0 1296:1.0 
0.32934670581099784 0.5 17:0.7499999737004802 349:1.0 651:1.0 
0.0 0.3597825119411631 333:1.0 461:0.75 907:1.0 
0.2768067355790344 0.35397684827722975 115:1.0 311:1.0 326:0.7499999723164333 345:1.0 414:1.0 531:0.7500000083198824 561:0.7500000180392478 590:0.6666666753252691 647:1.0 908:1.0 909:1.0 1335:1.0 
0.5 0.5 
0.3682209246226075 0.08502435451788146 128:1.0 735:0.5555555897093598 911:1.0 912:0.7500000219170877 
0.0 0.0741766061921027 4:0.75 21:0.6666666666666666 22:0.7499999904450566 114:0.6249999803608136 173:1.0 213:1.0 638:0.6666666666666666 913:1.0 
0.04563609490794082 0.0 41:0.6250000186651046 610:1.0 
0.18643812280037247 0.3740156907653495 39:1.0 881:1.0 
0.11185696429295702 0.23046217393571614 70:0.666666629488605 315:0.749999984697561 319:0.7499999831074771 405:1.0 526:0.7499999999999999 544:1.0 613:1.0 631:1.0 632:1.0 
0.0 0.02828926577499066 8:0.6666667167539756 23:0.5 140:1.0 228:0.5 526:0.5 627:0.6666666900440184 865:0.4999999860545643 888:0.6666667224557367 1280:0.666666726735407 
0.0 0.5 70:0.3333333184621087 77:0.3333333184621087 124:0.5 128:0.5 335:0.5 522:0.900000019713025 870:0.5 917:0.7499999703443155 1431:0.37499998365343895 
0.0 0.5 21:0.6666666666666666 143:0.624999996664857 358:0.749999986677131 484:0.6666666482802565 
0.3840837068146973 0.4289228681753501 21:0.6666666666666666 103:0.7499999598487744 115:1.0 125:0.599999992573161 143:0.624999996664857 179:1.0 243:0.7499999601981179 327:1.0 562:1.0 622:1.0 670:0.749999980836647 921:1.0 922:1.0 1179:1.0 
0.0 0.5 103:0.7499999598487744 755:1.0 923:1.0 
0.16880095353637486 0.0 64:1.0 169:0.749999978464584 627:1.0 888:1.0 924:1.0 
0.0 0.28625878782383696 82:0.666666726735407 103:0.5 144:0.6666666978230169 371:1.0 866:0.6666667034634209 1289:0.6666667181330785 
0.14372984679651235 0.4076678213553907 148:0.749999939408966 379:0.75 760:1.0 
0.24341538747061975 0.0 75:0.7499999436517816 484:0.6666666482802565 529:0.7499999857759053 706:0.749999939408966 927:1.0 928:1.0 
0.0 0.5 297:0.7499999772095168 
0.0 0.5 33:0.6000000364465876 1291:1.0 1306:1.0 
0.5 0.5 694:1.0 
0.1861287892972559 0.09389311733270662 43:1.0 217:0.7499999586036538 929:1.0 1315:1.0 
0.0 0.27218029476011585 449:1.0 699:1.0 918:1.0 
0.16392412978671775 0.0 198:1.0 413:0.7499999831074771 596:0.7499999514132242 746:1.0 
0.0 0.5 41:0.6250000186651046 930:1.0 
0.5 0.4165329614006972 26:0.7500000333764958 38:0.6249999856534647 41:0.6250000186651046 111:0.6249999752712823 326:0.7499999723164333 385:1.0 554:0.749999967794279 555:1.0 1166:1.0 
0.0 0.5 450:1.0 
0.0 0.06678751595851368 2:0.6250000208517559 237:0.7499999675805721 406:0.749999986677131 879:1.0 
0.26705345903936234 0.5 10:0.6666666666666667 350:0.7500000219170877 
0.03121347307915263 0.0 95:0.75 125:0.599999992573161 168:0.6000000151830991 420:1.0 490:1.0 718:1.0 874:1.0 933:0.7499999421002911 
0.4293542294367835 0.5 934:0.5999999999999999 
0.0 0.18041154760966813 63:0.75 159:0.7499999689729333 928:1.0 
0.32852413118493606 0.5 5:1.0 287:1.0 
0.0 0.10720292494767016 21:0.4444444444444444 77:0.8888889012815762 732:0.6666667181330785 935:0.6666666957272209 1626:0.6666667181330785 
0.0 0.4262496844525777 21:0.6666666666666666 361:1.0 375:1.0 550:0.749999978464584 720:1.0 
0.025850797799794597 0.5 95:0.75 767:1.0 936:1.0 
0.22317002204357983 0.13618885286479104 67:0.49999998635343135 203:0.5000000146113918 281:0.666666698090058 342:0.49999998302525245 412:0.6666666781935748 939:0.5 940:1.0 
0.0 0.45907322993789274 213:1.0 759:1.0 760:1.0 
0.3795123812363647 0.5 332:0.6666667059561432 370:0.5000000146113918 529:0.5 866:0.6666667034634209 933:1.0 
0.5 0.5 
0.19931303637513317 0.0 115:1.0 243:0.7499999601981179 413:0.7499999831074771 414:1.0 625:1.0 649:1.0 852:1.0 
0.0 0.5 21:0.6666666666666666 240:0.749999967794279 347:1.0 396:1.0 
0.0 0.3405440265503706 73:0.7499999509909532 795:1.0 944:0.6666666315191893 
0.01755056454626852 0.0 11:1.0 266:0.749999980836647 537:1.0 555:1.0 569:0.75 784:0.7499999703443155 945:1.0 1437:1.0 
0.0020468185955107715 0.4083458468592757 652:1.0 
0.2318617067231528 0.5 26:0.7500000333764958 205:0.6666666551215595 312:0.7499999715261061 409:0.75 517:1.0 615:1.0 698:1.0 946:1.0 947:0.7499999436517816 
0.0 0.5 4:0.75 315:0.749999984697561 357:0.7499999905731904 
0.0 0.1649078944836464 897:1.0 1578:1.0 
0.20628026494696136 0.18753541108774727 326:0.7499999723164333 522:0.6000000225291715 566:0.749999939408966 949:1.0 950:1.0 951:1.0 
0.0 0.5 13:0.7499999747860352 
0.18583829405178837 0.0 4:0.75 206:0.75 952:1.0 
0.16314887874713072 0.0 66:1.0 117:0.749999939408966 134:0.57142859187861 380:0.7499999906385635 411:1.0 458:1.0 491:1.0 550:0.749999978464584 813:1.0 
0.3007993788980961 0.0 128:1.0 347:1.0 720:1.0 
0.0 0.5 26:0.7500000333764958 484:0.6666666482802565 522:0.6000000225291715 
0.004588401082372011 0.5 14:1.0 224:1.0 422:0.7499999601981179 614:0.7500000123533026 
0.20205448163552567 0.5 13:0.5000000168093099 111:0.41666666117139606 194:0.5 289:0.6666666781935748 433:0.444444458996102 554:0.5 616:0.4999999870322288 770:1.0 
0.345164063689652 0.3090713950164792 21:0.6666666666666666 121:1.0 395:0.7499999493170039 457:0.7499999747860352 751:1.0 889:1.0 957:0.7499999658835783 
0.2576268418764154 0.5 282:0.7499999353630986 383:1.0 
0.2108707813110521 0.0 254:0.7499999850310722 324:1.0 367:1.0 410:0.7500000081434751 1210:1.0 
0.0 0.30156166939057044 118:1.0 1576:1.0 
0.5 0.5 
0.0 0.5 22:0.7499999904450566 375:1.0 733:1.0 763:1.0 
0.0 0.5 115:1.0 
0.0 0.5 94:0.37499997058370765 522:0.900000019713025 657:0.9000000246544372 853:0.5000000158163657 956:0.5 
0.5 0.5 959:1.0 
0.29772279154714265 0.23919883259834485 7:0.7499999748570649 31:0.7499999917233263 125:0.599999992573161 185:1.0 231:0.7500000069727178 251:0.749999978464584 297:0.7499999772095168 413:0.7499999831074771 519:1.0 553:1.0 702:0.7499999547523951 747:0.6250000150895244 
0.47714977625617067 0.5 41:0.6250000186651046 113:1.0 
0.5 0.5 22:0.7499999904450566 379:0.75 612:0.7500000083198824 
0.19037919562208022 0.5 114:0.6249999803608136 168:0.6000000151830991 216:1.0 422:0.7499999601981179 517:1.0 584:0.7500000081434751 866:1.0 960:1.0 1380:1.0 
0.0 0.35127635271981383 103:0.7499999598487744 500:1.0 862:0.7499999493170039 961:1.0 
0.0 0.3292952028155809 63:0.75 517:1.0 588:1.0 589:1.0 
0.09631486887084881 0.026661334293027892 792:1.0 922:1.0 952:1.0 
0.0 0.435275382207419 130:0.7500000085681872 927:1.0 
0.0 0.5 570:1.0 962:1.0 
0.17146692024343996 0.5 42:0.75 213:1.0 
0.0 0.10246493177469712 965:1.0 966:1.0 
0.2469146524052656 0.5 360:1.0 812:1.0 891:1.0 962:1.0 967:1.0 
0.5 0.3327169753310334 21:0.6666666666666666 251:0.749999978464584 490:1.0 802:1.0 968:1.0 
0.08980898482728848 0.5 182:1.0 
0.08780227326820836 0.12001039999776264 36:0.7499999689729333 44:0.5555555627310012 352:0.7500000219170877 927:1.0 
0.0 0.5 33:0.6000000364465876 97:0.6249999553529086 103:0.7499999598487744 177:0.6250000150895244 580:1.0 923:1.0 
0.0 0.5 516:1.0 
0.038899250578007916 0.5 41:0.6250000186651046 205:0.6666666551215595 380:0.7499999906385635 970:1.0 
0.0018164047268674358 0.0823861893602068 202:1.0 
0.003103913278778667 0.5 719:0.7499999421002911 
0.0 0.5 41:0.6250000186651046 639:1.0 
0.03620626828910862 0.5 144:1.0 389:0.750000009648912 524:1.0 973:0.6249999520562717 
0.08068084674117096 0.0 21:0.6666666666666666 223:1.0 237:0.7499999675805721 361:1.0 445:1.0 447:1.0 541:1.0 806:1.0 974:1.0 975:1.0 1503:1.0 
0.02616393088532144 0.5 77:0.666666629488605 127:1.0 178:0.7499999906385635 315:0.749999984697561 484:0.6666666482802565 522:0.6000000225291715 604:1.0 929:1.0 1276:1.0 
0.5 0.5 
0.0 0.015158173886757253 19:0.7499999999999999 112:1.0 425:1.0 746:1.0 764:1.0 976:1.0 977:1.0 
0.11522387256683618 0.5 26:0.7500000333764958 302:0.7500000069727178 509:1.0 832:1.0 978:0.7500000123533026 
0.1195996036797756 0.0 33:0.6000000364465876 36:0.7499999689729333 58:1.0 127:1.0 318:1.0 727:1.0 979:1.0 
0.2315097711086146 0.5 527:0.5208333277026602 635:1.0 636:1.0 637:1.0 689:0.7500000180392478 692:1.0 693:1.0 694:1.0 790:1.0 
0.27846149002128606 0.5 613:1.0 626:0.75 968:1.0 
0.290115116559079 0.5 159:0.7499999689729333 348:0.7499999649491076 443:0.666666683682305 980:1.0 
0.12285905868944456 0.0 41:0.6250000186651046 108:1.0 243:0.7499999601981179 293:0.6666666492046776 351:1.0 352:0.7500000219170877 497:1.0 683:1.0 981:1.0 982:1.0 983:1.0 
0.32471954245632517 0.05533160493981751 331:0.749999939408966 469:1.0 577:1.0 959:1.0 
0.08043462147174199 0.3144091814569452 4:0.75 21:0.6666666666666666 41:0.6250000186651046 173:1.0 256:0.5714285676135082 389:0.750000009648912 443:0.666666683682305 500:1.0 644:1.0 836:1.0 908:1.0 909:1.0 984:1.0 1497:1.0 
0.3488566148600622 0.5 41:0.6250000186651046 115:1.0 282:0.7499999353630986 915:1.0 985:0.7499999586036538 
0.5 0.0 80:1.0 103:0.7499999598487744 186:1.0 208:1.0 299:0.7499999737004802 1164:1.0 
0.03316482368062339 0.5 26:0.7500000333764958 42:0.75 68:0.75 115:1.0 797:1.0 
0.0 0.5 461:0.75 482:1.0 753:1.0 
0.04215099256130851 0.11904056854295726 278:0.7499999857759053 387:1.0 744:1.0 912:0.7500000219170877 919:0.749999980836647 940:0.7499999493170039 
0.5 0.5 
0.3057019045408434 0.5 256:0.38095239621263405 349:0.6666666666666667 521:0.6666667181330785 702:1.0 
0.39332402046066045 0.3757727459887161 115:0.6666666991110846 128:0.6666666900440184 319:1.0 380:0.5000000187228731 508:0.6666666666666666 523:0.5 601:0.6666667181330785 665:0.6666667088436418 861:0.666666726735407 1439:0.6666667181330785 
0.3861853287032022 0.04472443775346478 88:0.7500000219170877 278:0.7499999857759053 299:0.7499999737004802 511:1.0 757:0.7499999531517415 875:0.7499999857759053 878:1.0 
0.12594224692288525 0.0 347:1.0 627:1.0 744:1.0 950:1.0 
0.0 0.12319927650430343 341:1.0 
0.030780457303216307 0.040962362212767535 469:1.0 988:1.0 
0.19169053577272513 0.5 26:0.7500000333764958 47:0.7499999739416352 
0.0901247062287477 0.5 42:0.75 379:0.75 989:1.0 
0.4734786429300609 0.31126849168425974 706:0.749999939408966 827:1.0 990:1.0 
0.0 0.48712383048695546 238:1.0 239:1.0 503:0.7499999675805721 569:0.75 
0.3265267729888942 0.5 409:0.75 991:1.0 
0.14906018674215846 0.0 5:0.6666666802688349 15:0.5 63:1.0 125:0.40000000742683905 218:0.5 389:0.500000019297824 418:0.6666666666666666 531:0.5000000166397651 640:0.6666666785092171 1488:0.666666726735407 
0.48332613308901745 0.0 25:0.7499999598487744 26:0.7500000333764958 130:0.7500000085681872 243:0.7499999601981179 428:0.749999939408966 561:0.7500000180392478 969:1.0 
0.016662750988115562 0.0 75:0.7499999436517816 101:0.6666666918937995 
0.014948135525927286 0.07818657066762935 221:1.0 243:0.7499999601981179 299:0.7499999737004802 554:0.749999967794279 993:1.0 1242:1.0 
0.3053402406827727 0.11137062608259243 25:0.7499999598487744 56:0.6666666846739631 153:1.0 404:1.0 575:0.7500000219170877 730:1.0 876:1.0 994:1.0 1210:1.0 
0.053306840572983245 0.2830644946815443 135:1.0 436:1.0 558:1.0 912:0.7500000219170877 
0.0 0.005845715134347303 73:0.7499999509909532 457:0.7499999747860352 629:1.0 
0.0018190947596656635 0.5 494:1.0 
0.0 0.5 42:1.0 200:0.6666666556859534 311:0.6666666666666667 347:0.6666666828269493 522:0.800000095748979 996:0.5000000118622737 
0.0 0.029941371775198938 13:0.7499999747860352 159:0.7499999689729333 243:0.7499999601981179 312:0.7499999715261061 325:0.6666666990721233 357:0.7499999905731904 437:1.0 539:0.7499999493170039 659:0.8333333014290137 733:1.0 997:1.0 
0.0038652278370369924 0.5 101:0.6666666918937995 645:1.0 
0.10864329533371143 0.0 30:0.44444446331377524 75:1.0 227:0.5 239:0.6666667007348507 380:0.5000000187228731 467:0.6666667034634209 512:1.0 574:0.666666726735407 576:0.6666666802688349 970:0.6666667007348507 
0.3658055800622148 0.34965645873488227 115:1.0 838:0.7499999748570649 
0.5 0.5 
0.5 0.5 125:0.2999999962865805 137:0.8571428274360401 998:0.5 
0.0 0.2262279557763991 317:1.0 532:1.0 999:1.0 
0.0 0.4763762053704894 21:0.6666666666666666 938:1.0 
0.0 0.5 6:0.6000000051529156 125:0.599999992573161 312:0.7499999715261061 325:0.6666666990721233 484:0.6666666482802565 
0.0661605141565335 0.0 31:0.7499999917233263 584:0.7500000081434751 654:1.0 1000:1.0 
0.46176321480272403 0.3159466287577806 146:1.0 147:0.7499999689729333 256:0.5714285676135082 389:0.750000009648912 605:1.0 613:1.0 983:1.0 
0.1005365055041522 0.08028604154937587 327:1.0 328:1.0 370:0.7500000219170877 
0.25297409841077284 0.5 21:0.6666666666666666 22:0.7499999904450566 159:0.7499999689729333 221:1.0 348:0.7499999649491076 361:1.0 913:1.0 
0.0 0.2906095937371192 265:1.0 275:1.0 
0.0 0.40531954849938706 10:0.6666666666666667 200:1.0 295:0.6666666820358781 370:0.7500000219170877 387:1.0 395:0.7499999493170039 721:1.0 
0.0 0.36549892202581924 97:0.8333333170980274 357:0.4999999811463808 748:0.666666726735407 
0.042488287535945336 0.4899605060628291 26:0.7500000333764958 114:0.6249999803608136 243:0.7499999601981179 429:1.0 575:0.7500000219170877 677:1.0 979:1.0 
0.0 0.5 406:0.749999986677131 1002:1.0 
0.5 0.5 389:0.750000009648912 
0.5 0.5 139:0.7499999514132242 302:0.7500000069727178 379:0.75 720:1.0 1194:1.0 
0.15543718256169053 0.0 13:0.7499999747860352 45:1.0 127:1.0 342:0.7500000254621214 503:0.7499999675805721 806:1.0 821:1.0 997:1.0 
0.4902429877107923 0.5 6:0.6000000051529156 70:0.666666629488605 231:0.7500000069727178 429:1.0 497:1.0 617:1.0 747:0.6250000150895244 845:1.0 1178:1.0 1618:1.0 
0.0 0.5 389:0.3750000086840208 522:0.900000019713025 589:0.5 
0.0 0.16941190047335475 30:0.6666666828403788 72:1.0 534:1.0 535:1.0 1003:1.0 1004:1.0 
0.0 0.5 341:0.666666726735407 476:0.4000000218317058 566:1.0 1005:0.6666666666666666 1006:0.6666666781935748 
0.0 0.13614228929343916 22:0.5000000191098867 104:1.0 213:0.6666666666666666 303:0.4999999757635864 866:0.6666667034634209 
0.38586212010995424 0.5 26:0.7500000333764958 561:0.7500000180392478 676:1.0 
0.0 0.17483972562785546 243:0.7499999601981179 460:1.0 461:0.75 462:1.0 
0.0 0.005407435525493571 68:0.75 142:1.0 503:0.7499999675805721 525:1.0 589:1.0 736:1.0 1383:1.0 
0.5 0.5 
0.1651367692675555 0.0 103:0.7499999598487744 125:0.599999992573161 388:0.6666666492046776 490:1.0 640:1.0 735:0.5555555897093598 812:1.0 939:0.7499999865118231 959:1.0 1007:1.0 1008:1.0 1275:1.0 
0.0 0.5 1009:1.0 
0.08569900574960539 0.28493717261202095 21:0.6666666666666666 118:1.0 220:1.0 325:0.6666666990721233 408:1.0 653:1.0 665:1.0 
0.2871633906537286 0.5 168:0.6000000151830991 326:0.7499999723164333 
0.0 0.5 13:0.7499999747860352 
0.003050717409566315 0.5 896:0.7499999900994392 
0.0 0.5 123:0.3333333425548599 240:0.25 1011:0.9375000274784183 
0.00786406327451029 0.0 32:0.6250000031880082 90:0.7499999850310722 91:0.7499999547523951 92:0.7499999658835783 93:0.7499999865118231 94:0.7499999747860352 244:0.749999980836647 1012:1.0 1013:1.0 
0.15972841406340715 0.1021783951891371 371:0.75 749:1.0 870:1.0 906:0.749999980836647 
0.320540899516358 0.0 73:0.5000000196036188 80:0.6666667059561432 155:0.6666666786561575 187:0.5 243:0.5 265:0.6666666900440184 428:0.4999999757635864 488:1.0 489:0.6666667181330785 497:0.6666666666666666 1001:0.6666666900440184 1017:0.6666666957272209 1018:0.6666667034634209 
0.3201998429375053 0.001970409028749973 36:0.7499999689729333 369:0.7500000083198824 565:1.0 729:0.749999980836647 937:1.0 939:0.7499999865118231 1019:0.749999939408966 
0.0 0.04428656866945575 56:0.6666666846739631 416:1.0 626:0.75 
0.5 0.5 
0.12735730590205183 0.5 315:0.749999984697561 1016:0.7499999686186495 1020:1.0 
0.23727995109698352 0.5 441:0.749999978464584 481:0.6666666753252691 1596:1.0 
0.5 0.3718410025409058 33:0.8000000789676067 205:0.888888919675841 297:0.5000000151936554 319:0.5 771:0.4999999757635864 793:0.49999998635343135 794:0.6666666556859534 974:0.6666667088436418 
0.2957192254674023 0.0 3:1.0 12:1.0 168:0.6000000151830991 205:0.6666666551215595 825:1.0 1021:1.0 1428:1.0 
0.0 0.5 117:0.4999999757635864 356:0.6666666890159431 476:0.8000000436634116 
0.5 0.5 77:0.4444444692298189 211:0.6666667088436418 410:0.49999998371305004 476:0.8000000436634116 537:0.6666666900440184 603:0.6666666785092171 618:0.5000000194212159 644:0.6666666666666666 705:0.6666667088436418 709:0.5 751:0.6666667059561432 974:0.6666667088436418 
0.0 0.11967032424955747 183:0.7499999857759053 196:1.0 357:0.7499999905731904 462:1.0 
0.0032186174106057777 0.16303255438151987 43:1.0 186:1.0 208:1.0 246:0.7499999675805721 469:1.0 724:1.0 739:1.0 1023:1.0 1024:1.0 1241:1.0 
0.5 0.5 32:0.6250000031880082 
0.0 4.2644137228067184E-4 233:0.7499999917233263 281:1.0 900:1.0 901:1.0 902:1.0 903:1.0 904:1.0 905:1.0 958:1.0 
0.0 0.5 287:1.0 1025:1.0 1026:1.0 1202:0.7499999586036538 
0.0 0.5 114:0.416666643099643 175:0.5 231:1.0 252:0.6666666666666667 281:0.666666698090058 293:0.444444458996102 409:0.5 508:0.6666666666666666 579:0.5 791:0.44444444913077474 802:0.6666666418747812 826:0.6666666957272209 
0.0 0.3191666655798109 25:0.7499999598487744 33:0.6000000364465876 101:0.6666666918937995 568:1.0 700:1.0 977:1.0 1027:1.0 
0.4205740818913097 0.5 217:0.7499999586036538 
0.0 0.4574579125400267 848:1.0 910:1.0 
0.2598983234573376 0.10498671830572244 68:0.75 111:0.6249999752712823 139:0.7499999514132242 252:1.0 549:0.7499999421002911 569:0.75 668:1.0 810:1.0 956:1.0 1029:1.0 
0.0 0.0014151960086904232 32:0.6250000031880082 90:0.7499999850310722 91:0.7499999547523951 92:0.7499999658835783 93:0.7499999865118231 94:0.7499999747860352 244:0.749999980836647 1012:1.0 1013:1.0 
0.0 0.5 379:0.75 759:1.0 760:1.0 
0.0020608803180065414 0.0 971:1.0 1030:0.7499999703443155 
0.05644491300612362 0.36428918999766824 90:0.7499999850310722 162:1.0 163:1.0 723:0.7499999857759053 
0.3893925019025812 0.5 125:0.599999992573161 159:0.7499999689729333 319:0.7499999831074771 1006:1.0 
0.0 0.43629833347175956 21:0.6666666666666666 77:0.666666629488605 326:0.7499999723164333 738:1.0 
0.0 0.2394220941650551 68:0.75 290:1.0 683:1.0 
0.0 0.061283671648679275 33:0.6000000364465876 47:0.7499999739416352 70:0.666666629488605 784:0.7499999703443155 
0.0 0.5 971:1.0 981:1.0 
0.0 0.41464655439637693 832:1.0 
0.15348637287680114 0.40610970518283296 206:0.75 523:0.7499999737004802 593:1.0 
0.0 0.4265657875449326 75:0.7499999436517816 
0.0 0.29078057744328034 304:1.0 1035:1.0 
0.17506686853532039 0.23494536439394534 4:0.75 1037:0.7499999421002911 
0.0 0.5 311:1.0 361:1.0 1321:1.0 
0.34498818239255574 0.2137335719223931 269:1.0 374:1.0 396:1.0 436:1.0 495:0.749999939408966 612:0.7500000083198824 659:0.8333333014290137 1039:1.0 1170:1.0 1531:1.0 
0.5 0.5 301:0.75 499:0.6666666934800648 
0.0 0.028376219688449323 94:0.7499999747860352 
0.1485139395311216 0.0 114:0.6249999803608136 878:1.0 1040:1.0 1041:1.0 
0.2891563781071972 0.35650284140345895 40:0.5 63:1.0 176:0.5 248:0.6666666666666667 317:0.6666666787969505 357:0.4999999811463808 497:0.6666666666666666 569:0.5 596:0.5 784:0.5000000118622737 876:0.6666666890159431 972:0.6666667224557367 
0.03605378012894953 0.0 159:0.7499999689729333 287:1.0 
0.5 0.0 95:0.75 125:0.599999992573161 
0.0 0.23615972066796345 112:1.0 233:0.7499999917233263 388:0.6666666492046776 811:1.0 
0.5 0.5 79:1.0 101:0.6666666918937995 529:0.7499999857759053 590:0.6666666753252691 757:0.7499999531517415 1042:0.749999980836647 
0.0 0.06854024607407397 63:0.75 64:1.0 513:0.749999980836647 1006:1.0 1024:1.0 
0.0 0.5 784:1.0 
0.15068098331257085 0.2512747354873931 342:0.7500000254621214 359:1.0 485:1.0 792:1.0 
0.5 0.5 26:1.0 39:0.6666666882101472 243:0.5 526:0.5 610:0.6666666890159431 1043:0.6666666793103067 1483:0.6666667181330785 
0.5 0.15750127033536693 300:1.0 617:1.0 934:0.5999999999999999 1044:1.0 
0.0 0.5 220:1.0 928:1.0 
0.01749458838570975 0.5 52:0.7500000123533026 187:0.7499999850310722 477:1.0 499:0.6666666934800648 812:1.0 985:0.7499999586036538 1151:0.749999980836647 1314:0.7499999673068779 
0.17168170904192123 0.18678672272511376 62:0.6666667071830824 115:0.6666666991110846 351:0.6666666786561575 392:1.0 465:0.4444444492318845 585:0.6666666798690336 767:0.6666666785092171 928:0.6666666785092171 1045:0.666666726735407 
0.0 0.5 4:0.75 247:1.0 1450:1.0 
0.10208948471211172 0.0 73:0.7499999509909532 76:1.0 178:0.7499999906385635 465:0.6666666523043467 921:1.0 967:1.0 968:1.0 989:1.0 
0.12225079432640168 0.5 33:0.6000000364465876 218:0.7499999514132242 531:0.7500000083198824 604:1.0 934:0.5999999999999999 1571:0.7499999675805721 
0.03880913693639662 0.30134100014130644 41:0.6250000186651046 80:1.0 267:1.0 347:1.0 510:1.0 
0.5 0.3550288295118876 108:1.0 186:1.0 1225:1.0 
0.027598599966201304 0.2746241806652463 27:1.0 70:0.666666629488605 216:1.0 289:1.0 305:1.0 961:1.0 1044:1.0 1045:1.0 1200:1.0 
0.27661979205323867 0.5 361:1.0 1281:1.0 
0.09878055700254165 0.5 63:0.5 332:0.6666667059561432 346:0.6666666556859534 397:0.6666666556859534 398:0.4444444417801132 452:0.6666667167539756 611:0.4999999870322288 628:1.0 1047:0.6666666882101472 1304:0.6666666882101472 1431:0.5 
0.0 0.298367959342092 6:0.6000000051529156 125:0.599999992573161 875:0.7499999857759053 982:1.0 
0.0 0.49552898518920596 1048:1.0 
0.0 0.5 326:0.7499999723164333 
0.3210534513635582 0.5 143:0.624999996664857 206:0.75 465:0.6666666523043467 522:0.6000000225291715 710:0.749999978464584 976:1.0 1534:1.0 
0.5 0.0 34:0.6666666781935748 120:0.4444444692769743 206:0.5 294:0.5 441:1.0 563:0.6666666882101472 1049:0.6666667181330785 1318:0.6666667181330785 
0.37428829253672624 0.2899956872742672 15:0.5 25:0.5 205:0.4444444598379205 366:0.6666667167539756 487:1.0 794:0.6666666556859534 939:1.0 1019:1.0 1050:0.6666666957272209 1325:0.6666666957272209 
0.006109259034917346 0.5 533:1.0 798:0.749999980836647 
0.18210669720311717 0.032020737113061686 31:0.7499999917233263 69:1.0 410:0.7500000081434751 640:1.0 
0.21516623215226846 0.0 971:1.0 1030:0.7499999703443155 
0.0 0.5 1015:1.0 
0.0 0.5 233:0.7499999917233263 1292:1.0 
0.0 0.08683660843429067 101:0.6666666918937995 524:1.0 1051:1.0 1052:0.6666666542690958 
0.5 0.0 145:0.7499999436517816 413:0.7499999831074771 513:0.749999980836647 556:0.6666666666666666 
0.5 0.4495744339564014 160:1.0 
0.047867445863104735 0.5 6:0.6000000051529156 693:1.0 855:1.0 
0.38507952533339984 0.5 6:0.6000000051529156 21:0.6666666666666666 41:0.6250000186651046 205:0.6666666551215595 206:0.75 552:1.0 
0.0 0.5 21:0.6666666666666666 
0.0 0.5 940:0.7499999493170039 
0.13407024532076614 0.5 409:0.75 1055:1.0 
0.0 0.13710431252743469 28:0.5 88:0.37499999634715203 107:0.49999998352893 456:0.5 702:0.37499999245873256 791:1.0 926:0.5 1042:0.3749999904183235 1056:0.3749999904183235 1057:0.7499999324226733 1217:0.5 
0.23431911490070922 0.008586162595064964 210:0.749999978464584 1038:1.0 
0.0 0.5 26:0.7500000333764958 524:1.0 1058:1.0 
0.12012657303501167 0.3733999650784122 42:0.75 99:1.0 125:0.599999992573161 134:0.57142859187861 152:0.7500000219170877 527:0.5208333277026602 544:1.0 805:1.0 1059:1.0 1434:1.0 
0.0020669701711165077 0.2478798296698398 307:1.0 
0.1944766051699497 0.07972963200124931 43:1.0 949:1.0 
0.5 0.5 106:1.0 413:0.7499999831074771 
0.0 0.5 133:0.5 522:0.900000019713025 
0.0 0.5 168:0.6000000151830991 650:1.0 
0.5 0.26848603643225444 33:0.6000000364465876 38:0.6249999856534647 42:0.75 74:0.7499999493170039 106:1.0 342:0.7500000254621214 561:0.7500000180392478 1025:1.0 1060:1.0 
0.0 0.10356868211259365 5:0.6666666802688349 48:0.444444461525555 315:0.5 357:0.4999999811463808 862:0.5000000112628881 941:1.0 1061:0.6666667181330785 1623:0.6666666957272209 
0.0 0.3242057692454072 609:1.0 1040:1.0 1041:1.0 
0.5 0.5 443:0.666666683682305 790:1.0 992:0.7500000123533026 
0.0023836769987090082 4.3203246093093594E-4 3:0.6666666802688349 97:0.4166666585490137 286:0.6666667007348507 337:0.5 509:0.6666666785092171 1062:1.0 
0.5 0.32331139908994294 240:0.749999967794279 316:0.6249999811468306 335:1.0 597:1.0 
0.0 0.1892150379151894 13:0.7499999747860352 763:1.0 889:1.0 
0.0 0.5 207:1.0 319:0.7499999831074771 
0.3356756854055546 0.0 350:0.5000000146113918 457:0.5000000168093099 566:0.4999999757635864 688:0.6666667071830824 1042:1.0 
0.5 0.5 
0.009422786480117561 0.4189189607141117 86:1.0 90:0.7499999850310722 281:1.0 
0.12359739385804236 0.5 40:0.7499999689729333 400:1.0 409:0.75 
0.0 0.35058880286564525 147:0.7499999689729333 702:0.7499999547523951 
0.0 0.3368343597729771 5:1.0 45:1.0 111:0.6249999752712823 772:1.0 1052:0.6666666542690958 
0.0 0.5 387:1.0 404:1.0 
0.0 0.14069168850012567 243:0.7499999601981179 673:0.7499999586036538 895:0.7499999737004802 1059:1.0 1226:0.7499999686186495 
0.0 0.5 723:0.7499999857759053 
0.5 0.5 103:0.7499999598487744 114:0.6249999803608136 216:1.0 
0.2962976148079657 0.5 397:1.0 398:0.6666666506806793 849:0.7499999658835783 
0.09215329785438477 0.0 111:0.6249999752712823 201:1.0 297:0.7499999772095168 409:0.75 500:1.0 802:1.0 826:1.0 844:1.0 899:1.0 1044:1.0 
0.0 0.5 22:0.7499999904450566 361:1.0 
0.0 0.5 1059:1.0 1063:1.0 
0.4295654018521071 0.5 30:0.44444446331377524 31:0.5000000165533475 65:0.6666667224557367 1034:1.0 
0.03625325820022518 0.5 97:0.6249999553529086 150:0.7499999737004802 496:0.5999999855207659 612:0.7500000083198824 823:1.0 1064:0.6666667032690464 1065:1.0 
0.0 0.5 77:0.666666629488605 97:0.6249999553529086 326:0.7499999723164333 393:1.0 959:1.0 1311:1.0 
0.0 0.5 26:0.7500000333764958 38:0.6249999856534647 41:0.6250000186651046 484:0.6666666482802565 945:1.0 1066:0.7500000123533026 
0.0 0.17252006647773954 13:0.7499999747860352 134:0.57142859187861 310:1.0 756:1.0 
0.0 0.5 369:1.0 
0.0 0.5 21:0.6666666666666666 190:1.0 232:0.7499999857759053 387:1.0 657:0.6 734:1.0 780:1.0 1562:1.0 
0.0 0.21088484040682426 361:1.0 
0.49885362884079465 0.5 55:1.0 
0.5 0.5 42:0.75 927:1.0 
0.0 0.5 762:0.6999999522070441 1565:0.7499999493170039 
0.09589765521714284 0.5 58:1.0 357:0.7499999905731904 480:1.0 
0.0 0.046380578885266324 495:1.0 
0.0 0.180197937669246 187:0.7499999850310722 221:1.0 246:0.7499999675805721 353:0.749999980836647 1023:1.0 
0.03314228158820107 0.5 130:0.5000000171363742 312:0.5000000189825958 332:0.6666667059561432 336:0.5000000127755687 349:0.6666666666666667 383:0.6666666799723805 422:1.0 611:0.4999999870322288 925:0.6666666556859534 1260:0.6666667181330785 
0.056237076293422845 0.5 26:0.7500000333764958 1635:1.0 
0.08808935870172634 0.5 609:1.0 1040:1.0 1041:1.0 
0.0 0.16502119392914624 77:0.666666629488605 325:0.6666666990721233 342:0.7500000254621214 825:1.0 853:1.0 1021:1.0 
0.13819510797025467 0.3543226614946773 211:1.0 808:1.0 
0.16492218300514877 0.03809650534880184 7:0.7499999748570649 47:0.7499999739416352 496:0.5999999855207659 
0.04025815768238831 0.5 21:0.6666666666666666 643:1.0 1067:1.0 
0.10627565638672781 0.0 152:0.5000000146113918 169:0.499999985643056 329:1.0 388:0.444444458996102 566:0.4999999757635864 701:0.6666667034634209 702:1.0 
0.0 0.09694623792165277 32:0.6250000031880082 90:0.7499999850310722 91:0.7499999547523951 92:0.7499999658835783 93:0.7499999865118231 94:0.7499999747860352 244:0.749999980836647 1012:1.0 1013:1.0 
0.0 0.03453271020947122 94:0.7499999747860352 
0.0 0.5 26:0.7500000333764958 946:1.0 
0.0 0.5 454:1.0 
0.17293547727111036 0.4984141322248799 42:0.75 915:1.0 
0.0 0.5 735:1.0 
0.2806796996684086 0.0 95:0.75 173:1.0 272:1.0 581:1.0 
0.0 0.5 133:1.0 178:0.7499999906385635 568:1.0 781:1.0 961:1.0 1559:1.0 
0.0018471243379397017 0.5 339:1.0 
0.0 0.5 326:0.7499999723164333 
0.0 0.03299567676024477 21:0.6666666666666666 23:0.749999986677131 41:0.6250000186651046 94:0.7499999747860352 317:1.0 371:0.75 640:1.0 
0.0 0.1500504126527522 26:0.7500000333764958 95:0.75 767:1.0 831:0.749999980836647 841:1.0 969:1.0 
0.0 0.5 137:1.0 376:0.37499996861865076 414:0.2499999903427046 957:0.18749999147089458 1061:0.25 
0.0 0.1133015281795992 26:0.7500000333764958 40:0.7499999689729333 287:1.0 327:1.0 802:1.0 
0.40799153699496915 0.5 10:0.6666666666666667 21:0.6666666666666666 101:0.6666666918937995 309:0.749999939408966 380:0.7499999906385635 997:1.0 1001:1.0 1486:1.0 
0.22153313972447838 0.5 280:0.749999986677131 325:0.6666666990721233 326:0.7499999723164333 594:1.0 620:1.0 
0.3989104127286244 0.5 252:1.0 939:0.7499999865118231 1027:1.0 
0.5 0.5 18:1.0 47:0.5000000173722432 380:1.0 446:0.6666666882101472 1171:0.6666667088436418 1304:0.6666666882101472 
0.01738549504452909 0.0 36:0.7499999689729333 751:1.0 785:0.749999986677131 1000:1.0 1068:1.0 
0.3202898598144375 0.14079256136532334 830:1.0 954:1.0 1224:1.0 
0.5 0.5 458:1.0 
0.0 0.015196615241890846 278:0.7499999857759053 1070:1.0 
0.22099706411003653 0.4899999416950421 32:0.6250000031880082 90:0.7499999850310722 91:0.7499999547523951 92:0.7499999658835783 93:0.7499999865118231 94:0.7499999747860352 244:0.749999980836647 1012:1.0 1013:1.0 
0.4691864453648429 0.0 243:0.7499999601981179 945:1.0 
0.30262970650485965 0.5 373:1.0 831:0.749999980836647 
0.0 0.5 40:0.7499999689729333 1544:1.0 
0.11446086089016932 0.3712990805396849 3:0.6666666802688349 97:0.4166666585490137 286:0.6666667007348507 337:0.5 509:0.6666666785092171 1062:1.0 
0.06527986505738245 0.5 409:0.75 817:1.0 982:1.0 1153:0.5833333002114895 
0.0 0.24218440926706966 124:1.0 726:1.0 
0.06353223582510922 0.5 115:1.0 247:1.0 349:1.0 365:1.0 988:1.0 1528:1.0 
0.11688721367688953 0.0 73:0.5000000196036188 95:0.5 125:0.40000000742683905 249:1.0 587:0.4000000101220661 1072:0.666666726735407 
0.0 0.5 866:1.0 960:1.0 
0.5 0.5 
0.16097264985373597 0.17038328775301337 40:0.7499999689729333 50:1.0 134:0.57142859187861 205:0.6666666551215595 668:1.0 822:0.7499999493170039 962:1.0 1073:1.0 
0.5 0.3329127570566598 42:0.75 226:1.0 542:1.0 825:1.0 1160:1.0 1240:0.7499999703443155 
0.4335575785116832 0.5 137:0.9142856964616239 
0.0 0.49670915883633987 130:0.7500000085681872 369:0.7500000083198824 819:1.0 916:1.0 
0.0 0.5 24:0.666666726735407 70:0.8888889012815762 177:0.41666667672634966 1323:1.0 
0.5 0.5 4:0.75 659:0.8333333014290137 
0.0 0.3036666366110777 47:0.7499999739416352 82:1.0 103:0.7499999598487744 
0.0 0.37693476679288795 26:0.7500000333764958 347:1.0 617:1.0 729:0.749999980836647 960:1.0 965:1.0 
0.0 0.050396092178289525 278:0.7499999857759053 1070:1.0 
0.0 0.5 21:0.6666666666666666 
0.0 0.1285688109544369 293:0.6666666492046776 
0.0 0.4416118399986623 103:0.5 133:0.6666666666666666 144:0.6666666978230169 280:1.0 864:0.6666667181330785 1335:0.6666666556859534 
0.5 0.0 111:0.41666666117139606 126:0.6666667181330785 152:1.0 314:0.6666667007348507 316:0.41666667923544615 369:0.5000000166397651 664:0.6666666882101472 1075:0.5 
0.0 0.36286431572860045 387:1.0 461:0.75 643:1.0 
0.0 0.017728803315247572 191:0.7499999737004802 259:0.749999986677131 
0.0 0.5 179:1.0 
0.08191038193508844 0.31891904873996585 132:1.0 182:1.0 344:0.7499999748570649 619:1.0 729:0.749999980836647 1066:0.7500000123533026 1554:1.0 
0.4476975086039836 0.10735386678199131 66:1.0 125:0.599999992573161 281:1.0 458:1.0 473:0.7499999421002911 663:1.0 702:0.7499999547523951 1075:0.7499999850310722 
0.0 0.5 173:1.0 298:1.0 
0.19550958791432374 0.0 41:0.6250000186651046 178:0.7499999906385635 326:0.7499999723164333 383:1.0 470:0.6666666506806793 504:0.7499999531517415 567:1.0 594:1.0 738:1.0 895:0.7499999737004802 944:0.6666666315191893 1071:1.0 1076:1.0 
0.0 0.23786230760059368 97:0.6249999553529086 667:1.0 
0.15654430431402916 0.5 77:0.666666629488605 109:1.0 566:0.749999939408966 1005:1.0 
0.0 0.1777551400761264 174:0.6666667034634209 478:0.6666667181330785 561:0.5 575:0.5000000146113918 829:0.6666666882101472 932:1.0 
0.0 0.5 23:0.749999986677131 216:1.0 458:1.0 522:0.6000000225291715 1011:0.5625000124901902 
0.5 0.5 91:0.5 262:0.6666666787969505 264:0.6666666556859534 476:0.8000000436634116 708:0.4999999870322288 
0.0 0.5 354:1.0 758:1.0 
0.5 0.5 144:1.0 371:0.75 
0.34615757509063694 0.5 317:0.6666666787969505 483:0.6666666781935748 504:1.0 561:0.5 603:0.6666666785092171 
0.0 0.5 13:0.7499999747860352 33:0.6000000364465876 173:1.0 
0.0 0.05704132482169006 161:1.0 357:0.7499999905731904 413:0.7499999831074771 554:0.749999967794279 942:1.0 964:1.0 1060:1.0 1077:1.0 
0.5 0.5 696:1.0 
0.12064004069160117 0.0 73:0.7499999509909532 152:0.7500000219170877 173:1.0 237:0.7499999675805721 243:0.7499999601981179 447:1.0 884:0.7499999686186495 1076:1.0 1079:1.0 
0.0 0.5 21:0.6666666666666666 312:0.7499999715261061 
0.0 0.5 347:1.0 380:0.7499999906385635 959:1.0 1071:1.0 
0.3704206498410902 0.5 578:1.0 724:1.0 
0.0 0.5 513:0.749999980836647 
0.0 0.5 846:1.0 
0.5 0.5 444:1.0 696:1.0 
0.08140519744719849 0.0 240:0.749999967794279 643:1.0 1081:1.0 
0.11868685757891263 0.5 123:0.6666666781935748 973:0.8333333042765283 1224:0.666666726735407 
0.07514335920927302 0.5 2:0.6250000208517559 736:1.0 839:0.7500000069727178 1082:1.0 1633:0.7499999421002911 
0.5 0.5 
0.0 0.16793925052083028 361:1.0 759:1.0 760:1.0 1635:1.0 
0.0 0.5 762:0.6999999522070441 763:1.0 
0.0 0.5 243:0.7499999601981179 1083:1.0 
0.0 0.11180879669489532 123:1.0 383:1.0 400:1.0 792:1.0 
0.0 0.5 19:0.7499999999999999 22:0.7499999904450566 220:1.0 326:0.7499999723164333 
0.0 0.5 5:1.0 282:0.7499999353630986 730:1.0 
0.0 0.5 133:1.0 441:0.749999978464584 709:0.749999967794279 1540:0.7499999421002911 
0.0 0.5 64:1.0 111:0.6249999752712823 
0.1606207359383794 0.19162408056029118 40:0.7499999689729333 561:0.7500000180392478 589:1.0 1399:1.0 
0.5 0.5 
0.0 0.083473728826768 6:0.6000000051529156 125:0.599999992573161 765:1.0 
0.23842732126560118 0.5 6:0.6000000051529156 125:0.599999992573161 1190:0.7499999703443155 
0.0 0.3504783738975954 21:0.6666666666666666 22:0.7499999904450566 361:1.0 405:1.0 
0.5 0.5 
0.0 0.5 97:0.6249999553529086 152:0.7500000219170877 218:0.7499999514132242 243:0.7499999601981179 522:0.6000000225291715 1011:0.5625000124901902 
0.2777783580101762 0.5 21:0.6666666666666666 166:0.7499999686186495 957:0.7499999658835783 
0.0 0.1741037387578254 0:1.0 145:0.7499999436517816 299:0.7499999737004802 
0.32789527538978824 0.0 178:0.5000000187228731 234:0.6666666666666667 262:0.6666666787969505 410:1.0 
0.0 0.5 220:1.0 273:1.0 619:1.0 
0.5 0.5 243:0.7499999601981179 316:0.6249999811468306 
0.5 0.5 21:0.6666666666666666 138:1.0 139:0.7499999514132242 
0.0 0.5 1058:1.0 
0.0 0.4988870034549223 191:0.7499999737004802 259:0.749999986677131 
0.3347698179165271 0.1908025397490378 5:1.0 311:1.0 368:1.0 498:1.0 535:1.0 835:0.749999978464584 1003:1.0 1084:1.0 
0.0 0.5 817:1.0 
0.09299408780016244 0.5 31:0.7499999917233263 103:0.7499999598487744 130:0.7500000085681872 216:1.0 498:1.0 819:1.0 906:0.749999980836647 1005:1.0 
0.0 0.23842780376426648 10:0.6666666666666667 96:1.0 97:0.6249999553529086 
0.0 0.5 10:0.6666666666666667 125:0.599999992573161 295:0.6666666820358781 
0.27265344104452 0.5 178:0.7499999906385635 338:1.0 
0.0 0.1659623949411199 77:0.666666629488605 458:1.0 548:1.0 
0.0 0.5 70:0.666666629488605 124:1.0 326:0.7499999723164333 
0.0 0.42918709260520616 703:1.0 1519:1.0 
0.2224030376225932 0.3267008505240575 38:0.41666665710230977 169:1.0 187:0.5 207:0.6666666418747812 268:0.6666667224557367 920:0.6666666556859534 926:0.6666667181330785 1085:0.666666726735407 
0.0016847048192888843 0.5 707:1.0 
0.30362102681083564 0.5 600:1.0 620:1.0 638:0.6666666666666666 839:0.7500000069727178 
0.0 0.5 130:0.7500000085681872 550:0.749999978464584 1086:1.0 
0.12844601134903783 0.08640188584200216 33:0.40000005466988153 59:0.6666667224557367 128:0.6666666900440184 130:0.5000000171363742 726:0.6666666556859534 727:0.6666667224557367 728:1.0 
0.11054111577317731 0.20832481789998042 147:0.7499999689729333 882:1.0 
0.0 0.5 32:0.6250000031880082 134:0.57142859187861 561:0.7500000180392478 589:1.0 736:1.0 928:1.0 
0.07618536549759847 0.0 256:0.5714285676135082 310:1.0 851:1.0 906:0.749999980836647 
0.0 0.5 19:0.30000001310159236 22:0.29999999617802264 560:1.0 
0.0 0.5 620:1.0 963:1.0 
0.17652293422176354 0.5 347:1.0 531:0.7500000083198824 
0.2753799145713762 0.0 404:1.0 498:1.0 576:1.0 745:1.0 1024:1.0 
0.22338790854351698 0.0 100:0.6666666556859534 153:0.6666666787969505 526:0.5 569:0.5 873:0.6666667088436418 911:0.6666667224557367 912:1.0 922:0.6666666890159431 942:0.6666667224557367 998:0.666666726735407 1087:0.6666666957272209 
0.0 0.4219198505269892 15:0.749999984697561 36:0.7499999689729333 103:0.7499999598487744 312:0.7499999715261061 332:1.0 366:1.0 380:0.7499999906385635 970:1.0 
0.5 0.0 77:0.666666629488605 135:1.0 1086:1.0 1155:1.0 1181:1.0 
0.5 0.5 26:0.7500000333764958 64:1.0 129:1.0 178:0.7499999906385635 234:1.0 
0.002047521417566871 0.5 1078:1.0 
0.0 0.5 70:0.666666629488605 170:0.749999978464584 454:1.0 
0.22847372276232122 0.5 21:0.19047619047619047 342:0.21428571671067823 618:0.2142857337069302 1088:1.0 
0.023890150463943143 0.0 1:0.7499999748570649 116:1.0 293:0.6666666492046776 842:1.0 1534:1.0 
0.5 0.5 
0.10860707201520149 0.08001418541424876 503:0.7499999675805721 521:1.0 613:1.0 755:1.0 894:1.0 
0.5 0.5 
0.17226837225092284 0.5 391:1.0 619:1.0 739:1.0 
0.5 0.0 130:0.7500000085681872 389:0.750000009648912 408:1.0 
0.2247651454286304 0.0 243:0.7499999601981179 361:1.0 1001:1.0 1089:1.0 
0.049103121056412555 0.3770984218618305 144:1.0 206:0.75 614:0.7500000123533026 701:1.0 734:1.0 912:0.7500000219170877 998:1.0 
0.5 0.5 
0.0 0.5 23:0.749999986677131 310:1.0 
0.0 0.5 210:0.749999978464584 375:1.0 
0.0 0.5 554:0.749999967794279 1070:1.0 
0.26387355989897615 0.48025799152398024 31:0.7499999917233263 77:0.666666629488605 509:1.0 747:0.6250000150895244 1017:1.0 1221:1.0 
0.5 0.5 
0.1099376168909809 0.13378217642456688 260:1.0 927:1.0 
0.012029851874764436 0.2369950827439435 108:1.0 125:0.599999992573161 126:1.0 319:0.7499999831074771 1083:1.0 
0.0 0.5 72:1.0 73:0.7499999509909532 357:0.7499999905731904 393:1.0 1438:0.7499999493170039 
0.0 0.4076753903476096 134:0.7619047700847773 964:0.6666666957272209 1077:0.6666667224557367 
0.5 0.5 584:0.7500000081434751 757:0.7499999531517415 
0.5 0.5 13:0.5000000168093099 695:1.0 
0.5 0.5 1067:1.0 
0.0 0.5 97:0.6249999553529086 109:1.0 380:0.7499999906385635 
0.5 0.5 
0.45808438505817617 0.3881880154295286 25:0.7499999598487744 125:0.599999992573161 173:1.0 227:0.7499999689729333 893:1.0 1092:1.0 1199:1.0 
0.0 0.5 21:0.8888888888888888 41:0.4166666915534728 70:0.4444444692298189 73:0.5000000196036188 143:0.416666664443238 575:1.0 617:0.6666666793103067 723:0.5 738:0.6666666793103067 975:0.666666726735407 
0.0 0.3306483651121762 21:0.8888888888888888 62:0.6666667071830824 167:0.6666666787969505 278:0.5 406:1.0 499:0.44444448913344137 611:0.4999999870322288 612:0.5000000166397651 620:0.6666666666666667 1077:0.6666667224557367 1087:0.6666666957272209 1093:1.0 
0.0 0.13456788744352616 27:1.0 70:0.666666629488605 103:0.7499999598487744 115:1.0 198:1.0 691:0.7500000085681872 798:0.749999980836647 
0.2624829418116404 0.5 854:1.0 
0.2711489221283204 0.5 4:0.75 431:1.0 
0.0 0.11139997562694143 73:0.7499999509909532 175:0.7499999865118231 332:1.0 357:0.7499999905731904 369:0.7500000083198824 1206:1.0 
0.5 0.5 
0.0 0.5 1030:0.7499999703443155 1051:1.0 1483:1.0 
0.5 0.5 785:0.749999986677131 
0.4506663608302472 0.0 620:1.0 737:1.0 
0.0 0.5 203:0.7500000219170877 281:1.0 886:1.0 
0.0 0.030150694260116403 111:0.6249999752712823 281:1.0 351:1.0 579:0.749999984697561 582:0.7499999748570649 584:0.7500000081434751 1094:0.6666667018686627 
0.5 0.5 1148:1.0 1572:1.0 
0.027629091019515047 0.5 315:0.3749999770463415 468:0.5 846:0.8749999567634411 1020:0.5000000158163657 
0.5 0.48324512119544644 531:0.7500000083198824 
0.0 0.3834071411120639 15:0.5 21:0.4444444444444444 75:1.0 252:0.6666666666666667 312:0.5000000189825958 479:0.6666667181330785 571:0.6666667059561432 1360:0.6666667181330785 
0.0 0.3764659606955348 73:0.7499999509909532 422:0.7499999601981179 
0.5 0.5 
0.2048864140595085 0.29001746697136677 805:1.0 817:1.0 
0.19035997173316946 0.5 112:1.0 352:0.7500000219170877 508:1.0 
0.2939975247913529 0.32796638342059503 11:1.0 12:1.0 243:0.7499999601981179 389:0.750000009648912 725:0.7499999737004802 916:1.0 
0.5 0.5 97:0.4166666585490137 114:0.416666643099643 598:1.0 1095:0.6666667088436418 1096:0.6666667181330785 1480:0.6666667181330785 
0.11980224578828114 0.4484773230972751 164:1.0 175:0.7499999865118231 349:1.0 526:0.7499999999999999 878:1.0 
0.5 0.5 254:0.5 507:0.696969639227416 1191:0.666666726735407 
0.5 0.5 167:1.0 169:0.749999978464584 269:1.0 282:0.7499999353630986 402:1.0 445:1.0 947:0.7499999436517816 1018:1.0 1286:1.0 
0.0 0.5 2:0.41666665832596433 78:0.49999998635343135 130:0.5000000171363742 143:0.833333328886476 316:0.41666667923544615 325:0.44444449035217454 461:0.5 570:0.6666666786561575 
0.0 0.25340631601177044 565:1.0 649:1.0 
0.0 0.06638758897828212 140:0.7499999737004802 565:1.0 
0.3832604567363879 0.5 117:0.749999939408966 524:1.0 1054:1.0 
0.0 0.5 489:1.0 593:1.0 
0.0 0.5 41:0.6250000186651046 173:1.0 
0.5 0.5 
0.0 0.09610854199109985 71:1.0 210:0.749999978464584 969:1.0 
0.5 0.16027444961845774 42:0.75 310:1.0 1159:1.0 
0.013241682553976841 0.0 201:1.0 205:0.6666666551215595 394:1.0 422:0.7499999601981179 459:0.7499999703443155 713:1.0 1002:1.0 
0.0 0.12509697943601844 341:1.0 457:0.7499999747860352 
0.0 0.5 2:0.6250000208517559 21:0.6666666666666666 103:0.7499999598487744 194:0.7499999865118231 607:1.0 
0.0 0.5 4:0.75 319:0.7499999831074771 332:1.0 424:1.0 726:1.0 
0.0 0.08978939947175066 10:0.6666666666666667 73:0.7499999509909532 629:1.0 
0.5 0.5 
0.0 0.36934641310346134 75:0.5 380:0.5000000187228731 413:0.5 681:0.6666666957272209 771:1.0 1060:0.666666726735407 1098:0.6666666957272209 
0.0 0.001073086048595528 26:0.7500000333764958 143:0.624999996664857 144:1.0 269:1.0 378:1.0 570:1.0 606:1.0 892:1.0 960:1.0 1065:1.0 
0.23941782723143756 0.0 7:0.7499999748570649 173:1.0 209:1.0 854:1.0 
0.0 0.2469615765233512 21:0.6666666666666666 26:0.7500000333764958 54:1.0 88:0.7500000219170877 310:1.0 564:1.0 758:1.0 
0.0 0.5 134:0.57142859187861 609:1.0 698:1.0 739:1.0 1024:1.0 
0.0 0.5 77:0.22222223461490945 224:0.3333333333333333 375:0.3333333435537885 451:0.33333335173171047 522:1.0 
0.22450799526483783 0.4154503375692414 138:1.0 139:0.7499999514132242 141:1.0 849:0.7499999658835783 
0.0 0.4959148222595324 256:0.5714285676135082 330:1.0 638:0.6666666666666666 
0.0 0.3373349844998593 16:0.666666683682305 115:1.0 403:1.0 609:1.0 622:1.0 653:1.0 991:1.0 
0.4303163917832555 0.20096214082667022 506:1.0 678:0.7499999851473375 825:1.0 
0.10152495661586364 0.5 21:0.6666666666666666 37:0.7499999686186495 97:0.6249999553529086 316:0.6249999811468306 
0.0 0.5 110:1.0 
0.3434672648384953 0.5 22:0.5000000191098867 269:0.6666667068867623 476:0.4000000218317058 572:1.0 662:0.6666666957272209 723:0.5 1155:0.6666667034634209 
0.43947332120071503 0.0 243:0.7499999601981179 461:0.75 483:1.0 1070:1.0 
0.09711910444296125 0.4119967695379044 105:1.0 302:0.7500000069727178 531:0.7500000083198824 
0.0 0.5 47:0.5000000173722432 168:0.4000000101220661 273:0.6666667088436418 697:0.6666667224557367 698:0.6666666666666667 761:0.5000000118622737 846:0.3888888846186115 874:0.6666666957272209 1088:0.7777777534884256 1481:0.6666667088436418 
0.0 0.5 828:0.8888889026132646 
0.0 0.2321963859388341 379:0.75 
0.0 0.5 21:0.6666666666666666 
0.20446263322026206 0.5 425:1.0 
0.0 0.07477536175616593 34:1.0 299:0.7499999737004802 480:1.0 627:1.0 1004:1.0 1310:1.0 
0.0 0.5 21:0.6666666666666666 94:0.7499999747860352 
0.0 0.5 326:0.7499999723164333 
0.0 0.5 21:0.6666666666666666 451:1.0 738:1.0 
0.0 0.25621133654918554 5:1.0 252:1.0 785:0.749999986677131 1099:1.0 
0.28357536950765666 0.0 24:1.0 133:1.0 422:0.7499999601981179 829:1.0 985:0.7499999586036538 
0.0 0.5 21:0.6666666666666666 41:0.6250000186651046 358:0.749999986677131 
0.0 0.40198208622661036 221:1.0 240:0.749999967794279 254:0.7499999850310722 324:1.0 946:1.0 
0.5 0.5 544:1.0 981:1.0 1270:1.0 
0.25908388851374103 0.0 438:1.0 439:1.0 521:1.0 673:0.7499999586036538 680:1.0 889:1.0 1064:0.6666667032690464 
0.0 0.5 73:0.3749999754954766 114:0.3124999901804068 177:0.3125000196163818 216:0.49999997959674763 249:0.37499997465850193 279:0.5 389:0.3750000086840208 522:0.900000019713025 647:0.5 
0.0 0.5 524:1.0 1058:1.0 
0.0 0.5 6:1.0 111:0.20833332728853565 114:0.20833332783436115 705:0.3333333544218209 870:0.3333333425548599 1639:0.3333333633677035 
0.0 0.5 297:0.7499999772095168 434:1.0 640:1.0 758:1.0 1196:0.749999980836647 
0.0 0.33016560077244766 25:0.7499999598487744 284:1.0 754:1.0 892:1.0 977:1.0 1028:0.5833333488766812 
0.0 0.5 75:0.5 657:0.7999999999999999 702:0.5 978:1.0 
0.5 0.5 
0.5 0.5 80:1.0 
0.1476604136150353 0.0 10:0.44444444444444453 70:0.4444444692298189 183:0.5 443:0.8888889370998639 481:0.44444445021684603 683:0.6666666666666667 907:0.666666726735407 925:0.6666666556859534 
0.0032889778000987136 0.11246412373422074 87:1.0 88:0.7500000219170877 176:0.7499999547523951 436:1.0 563:1.0 1100:1.0 
0.10501033916547298 0.0 76:0.6666667181330785 203:1.0 289:0.6666666781935748 584:0.49999998371305004 722:0.444444462375191 1079:0.6666667007348507 1101:0.666666726735407 1150:0.666666726735407 1561:0.6666667181330785 
0.026815029345420772 0.08104064507537523 22:0.7499999904450566 647:1.0 828:0.6666666254935397 988:1.0 1475:1.0 1517:1.0 
0.4011900618843532 0.0 26:0.7500000333764958 125:0.599999992573161 133:1.0 205:0.6666666551215595 218:0.7499999514132242 298:1.0 350:0.7500000219170877 356:1.0 462:1.0 780:1.0 798:0.749999980836647 
0.0 0.09625782522192124 6:0.6000000051529156 331:0.749999939408966 383:1.0 522:0.6000000225291715 567:1.0 835:0.749999978464584 918:1.0 
0.10391225218849882 0.44681468403836955 267:1.0 489:1.0 774:0.7499999748570649 1082:1.0 
0.0 0.1293627315845221 73:0.7499999509909532 282:0.7499999353630986 641:1.0 1002:1.0 
0.0 0.49914017340633093 144:1.0 170:0.749999978464584 202:1.0 
0.3389214160507619 0.4539071247073905 25:0.7499999598487744 224:1.0 251:0.749999978464584 1101:1.0 
0.335241504727663 0.5 110:1.0 
0.04811456097327688 0.0 43:1.0 109:1.0 134:0.57142859187861 319:0.7499999831074771 499:0.6666666934800648 522:0.6000000225291715 1015:1.0 1223:1.0 
0.0 0.5 540:1.0 
0.0 0.5 25:0.7499999598487744 125:0.599999992573161 147:0.7499999689729333 657:0.6 931:1.0 
0.3905452346560947 0.085770208759272 504:0.7499999531517415 526:0.7499999999999999 704:1.0 757:0.7499999531517415 891:1.0 967:1.0 1048:1.0 
0.5 0.16946564432922573 228:0.7499999586036538 701:1.0 949:1.0 986:1.0 1187:1.0 
0.11318591244007661 0.0 21:0.6666666666666666 218:0.7499999514132242 374:1.0 529:0.7499999857759053 743:1.0 868:1.0 1102:1.0 
0.5 0.23445048228536328 10:0.8888888888888891 174:0.6666667034634209 288:0.6666666556859534 866:0.6666667034634209 871:0.666666726735407 
0.5 0.5 260:1.0 
0.0 0.2936267443043772 33:0.6000000364465876 35:1.0 38:0.6249999856534647 97:0.6249999553529086 710:0.749999978464584 977:1.0 
0.0 0.5 456:1.0 1103:1.0 
0.27663249486839725 0.0 38:0.6249999856534647 115:1.0 701:1.0 702:0.7499999547523951 1560:1.0 
0.0018128571772470742 0.0814571945920859 1104:1.0 
0.3191800823772061 0.0 73:0.7499999509909532 215:1.0 250:1.0 
0.2510465184144484 0.0 125:0.599999992573161 561:0.7500000180392478 754:1.0 959:1.0 963:1.0 
0.40107995099280813 0.5 1152:1.0 1444:1.0 
0.153621959318141 0.0 33:0.8000000789676067 389:1.0 1057:1.0 
0.1313756130344433 0.07932850770996036 135:1.0 369:0.7500000083198824 732:1.0 1105:1.0 
0.0 0.0967586968539318 574:1.0 
0.09855475854609283 0.0 54:0.6666667007348507 60:1.0 130:0.5000000171363742 134:0.38095238504238865 378:0.666666726735407 467:0.6666667034634209 611:0.4999999870322288 673:1.0 1286:0.6666667181330785 
0.0 0.39756609190946546 21:0.6666666666666666 115:1.0 343:1.0 883:1.0 909:1.0 1107:0.7499999673068779 1108:1.0 1109:1.0 1474:1.0 1546:1.0 
0.5 0.5 67:0.7499999658835783 849:0.7499999658835783 
0.24598829275144274 0.38810615661844433 120:0.6666666815661846 323:1.0 497:1.0 544:1.0 630:1.0 642:1.0 879:1.0 1110:1.0 1533:1.0 
0.0 0.5 293:0.6666666492046776 370:0.7500000219170877 
0.12325067743547281 0.0 38:0.31249999282673235 103:0.37499998393950973 195:1.0 270:0.5 280:0.3749999933385655 288:0.49999998352893 500:0.5 584:0.3749999877847875 777:0.5 837:0.5 961:0.5 1008:0.5 1052:1.0 1111:0.7499999900994392 1158:0.5 1599:0.5000000158163657 
0.1480047574623551 0.5 144:1.0 170:0.749999978464584 
0.0 0.5 899:1.0 
0.0 0.5 295:0.6666666820358781 
0.1758486543687513 0.0 97:0.6249999553529086 194:0.7499999865118231 238:1.0 239:1.0 342:0.7500000254621214 684:0.5208333722433374 
0.5 0.5 19:0.5 109:0.6666666799723805 159:1.0 212:0.6666666882101472 691:0.5000000171363742 864:0.6666667181330785 1043:0.6666666793103067 
0.4420917856003492 0.0 125:0.599999992573161 627:1.0 885:1.0 1112:1.0 1168:0.7499999673068779 
0.5 0.5 
0.5 0.5 
0.5 0.5 
0.0 0.5 326:0.7499999723164333 
0.37304189446893976 0.5 21:0.6666666666666666 22:0.7499999904450566 703:1.0 895:0.7499999737004802 
0.18625589343684443 0.0 1:0.29999996982847793 10:0.5333333477720814 16:0.26666668368230495 19:0.600000032753981 25:0.2999999839395097 38:0.25 53:0.4000000308798472 68:0.30000000000000004 100:0.39999999999999997 101:0.26666667675751976 102:0.2666666684673963 111:1.0 133:0.39999998742657117 134:0.22857144247745476 169:0.3000000028713888 176:0.299999993966986 209:0.4000000148751313 212:0.39999999999999997 220:0.4 229:0.4000000138322898 232:0.5999999658621727 254:0.30000000598757115 269:0.40000001608803826 286:0.39999999999999997 335:0.399999993993126 387:0.40000001737274643 388:0.533333361272516 452:0.3999999924869036 531:0.300000003327953 576:0.40000000816130094 581:0.4000000145563406 661:0.7999999999999999 664:0.39999999999999997 665:0.4 717:0.400000016736721 764:0.400000016736721 777:0.3999999883757783 944:0.2666666526076757 957:0.29999999727068627 977:0.40000001531407403 1004:0.3999999883757783 1010:0.2999999718258908 1085:0.399999993993126 1091:0.2666666707839794 1113:0.4000000308798472 1114:0.399999993993126 1183:0.2666666842676647 1184:0.2666666728654521 1237:0.29999997522164634 
0.31326964819188385 0.0 1:0.37499998742853247 53:0.5 95:0.375 111:0.3124999909328035 134:0.2857142930762996 152:0.7500000219170877 185:0.5 269:0.5000000201100478 313:0.3749999950497196 321:0.5 368:0.5 388:1.0 404:0.5 412:0.5 534:0.5 581:0.5 777:0.5 1028:0.2916666744383406 1091:0.33333331274676986 
0.055122203398081826 0.012408541127256782 10:1.0 33:0.3000000121488625 38:0.6249999856534647 62:0.5 99:0.5000000158163657 232:0.37499999288795266 252:0.4999999786550851 269:0.5000000201100478 368:0.5 526:0.37499999999999994 604:0.5 722:0.6666666820358781 917:0.37499999703443154 977:1.0 1028:0.2916666744383406 1086:0.5 1091:0.33333331274676986 1114:0.5 1115:0.7499999372373015 
0.0 0.06394792081885066 26:0.5000000222509972 38:0.41666665710230977 41:0.4166666915534728 61:0.666666726735407 63:0.5 70:0.4444444692298189 81:0.666666726735407 97:0.4166666585490137 111:0.41666666117139606 152:0.5000000146113918 205:0.4444444598379205 207:0.6666666418747812 224:0.6666666666666666 232:1.0 286:0.6666667007348507 298:0.6666666418747812 316:0.41666667923544615 388:0.8888888917992204 404:0.6666666666666666 664:0.6666666882101472 952:0.6666667181330785 1115:1.0 
0.010904377252513177 0.0 54:0.5 62:0.5 68:0.375 103:0.37499998393950973 111:0.6249999752712823 152:0.37499999634715203 159:0.37499998448646665 219:0.5 232:0.37499999288795266 243:0.37499998009905894 269:0.5000000201100478 343:0.5000000158163657 376:0.7499999372373015 389:0.3750000086840208 406:0.3749999933385655 422:0.37499998009905894 430:0.5000000158163657 452:0.499999981217259 569:0.3750000158157278 664:0.5 680:0.5 803:0.5000000158163657 876:0.5 929:0.5 959:0.5000000201100478 1004:0.5 1031:1.0 1110:0.5 1113:0.5 1116:0.5 1603:0.5 
0.3612196521287659 0.0 47:0.2142857167674633 106:0.5714286048260373 134:0.16326531605532482 254:0.21428572797159115 297:0.2142857069059388 302:0.4285714644311204 357:0.2142857115923401 369:0.42857142857142855 387:0.28571429067792753 408:0.2857143042084428 409:0.21428573173494642 477:0.285714300486958 530:0.2857142951263257 572:0.4285714489067551 576:0.28571429154378636 580:0.2857142951263257 710:0.2142857163367063 788:0.8571428774781833 1031:0.38095242195168144 1043:0.28571429384234 1079:0.5714286152305224 1098:0.5714286046406334 1107:0.21428571739934493 1108:0.2857143023203167 1109:0.2857143023203167 1117:1.0 1118:0.5714286152628407 1119:0.28571429368415285 1347:0.285714300486958 1374:0.2857143042084428 1420:0.285714300486958 
0.16902706523723696 0.0 62:0.5 68:0.375 111:0.9374999793927353 135:0.5000000201100478 147:0.37499998448646665 169:0.374999989232292 201:0.5 243:0.37499998009905894 269:0.5000000201100478 292:0.5 324:0.5 369:0.3750000041599412 380:0.7499999906385635 382:0.5 400:0.5000000158163657 452:0.499999981217259 568:0.5 581:0.5 584:0.7500000081434751 748:1.0 751:0.5 765:0.5 870:0.5 912:0.37499999634715203 968:0.5 1010:0.37499995773883615 1019:0.374999969704483 1031:0.6666666933638855 1037:0.37499997105014554 1055:0.5 1115:0.7499999372373015 1225:0.49999998352893 1489:0.5 
0.5 0.5 1196:0.749999980836647 
0.0073020465057225415 0.0 369:0.7500000083198824 419:0.7499999493170039 857:1.0 
0.10847338091399489 0.3925487528816267 43:1.0 427:0.5 463:1.0 537:0.5 588:0.5000000158163657 817:0.5 837:0.5 851:0.5 1007:0.5 1299:0.5 
0.17143452227885214 0.4259708693884083 111:0.6249999752712823 125:0.599999992573161 837:1.0 
0.5 0.5 25:0.7499999598487744 42:0.75 95:0.75 203:0.7500000219170877 
0.5 0.5 433:0.6666666492046776 
0.0 0.5 153:0.6666666787969505 174:0.6666667034634209 178:1.0 312:0.5000000189825958 478:0.6666667181330785 499:0.44444448913344137 519:0.666666726735407 795:0.6666666882101472 
0.12150757593554239 0.0 155:1.0 312:0.7499999715261061 347:1.0 605:1.0 734:1.0 925:1.0 
0.5 0.5 16:0.666666683682305 742:1.0 
0.0 0.5 41:0.6250000186651046 457:0.7499999747860352 
0.0 0.00686068668215261 689:0.7500000180392478 691:0.7500000085681872 
0.0 0.013910186966023481 437:0.6666666991110846 683:0.6666666666666667 684:0.3472222481622249 685:1.0 686:0.5 687:1.0 688:0.6666667071830824 689:1.0 690:1.0 691:0.5000000171363742 
6.245004513516506E-17 0.1478277960692682 1022:1.0 
0.0 0.007751707497837943 437:1.0 1039:1.0 
0.5 0.5 
0.0 0.030351430177533965 21:0.6666666666666666 343:1.0 511:1.0 
0.0 0.3937575780770594 67:0.7499999658835783 99:1.0 
0.25169492272835375 0.5 935:1.0 950:1.0 
0.060334034162401046 0.0 25:1.0 106:0.6666666666666666 703:0.6666666556859534 
0.08951163865216438 0.22256611827636869 10:0.6666666666666667 31:0.7499999917233263 182:1.0 205:0.6666666551215595 236:1.0 332:1.0 457:0.7499999747860352 556:0.6666666666666666 559:0.7499999703443155 702:0.7499999547523951 747:0.6250000150895244 837:1.0 843:1.0 1065:1.0 1095:1.0 1121:1.0 1122:1.0 1193:0.6666667018686627 1199:1.0 
0.0 0.2979890126068829 13:0.5000000168093099 47:0.5000000173722432 150:0.5 234:0.6666666666666667 235:0.6666666799723805 322:0.6666666890159431 721:0.6666666957272209 830:0.6666666781935748 855:0.6666666882101472 996:0.5000000118622737 1123:1.0 
0.11127292694133536 0.1305058789604785 9:0.5 25:0.37499998393950973 30:1.0 47:0.3749999869708176 95:0.375 108:0.5 153:0.5 168:0.3000000202441321 175:0.37499999325591155 329:0.37499998742853247 350:0.7500000219170877 389:0.3750000086840208 414:0.5000000193145909 436:0.5 438:0.5 446:0.5 461:0.375 561:0.3749999909803761 583:1.0 590:0.3333333246747309 703:0.49999998352893 844:0.5 847:0.37499998379028604 914:0.5 926:0.5 990:0.5 1059:0.49999998352893 1093:0.37499997465850193 1462:0.5 1544:0.5 
0.021899656050385893 0.0 46:1.0 159:0.7499999689729333 458:1.0 467:1.0 469:1.0 835:0.749999978464584 1106:1.0 1123:0.7499999673068779 
0.3991582012297034 0.0 125:0.599999992573161 389:0.750000009648912 1124:0.7499999673068779 
0.2636134287530448 0.264163034143633 70:0.4444444692298189 183:1.0 196:0.6666666785092171 240:0.5 353:0.5000000127755687 384:0.6666666781935748 422:1.0 438:0.6666666786561575 499:0.44444448913344137 526:0.5 596:0.5 658:1.0 872:1.0 1047:0.6666666882101472 1092:0.6666667088436418 1240:0.5000000118622737 1245:0.5 
0.0 0.4889651212943627 500:0.6666666798690336 547:0.6666666957272209 834:0.6666667007348507 961:0.6666667007348507 1023:0.6666667181330785 1124:1.0 
0.17382221789501812 0.0 4:0.5 70:0.8888889012815762 165:0.6666667181330785 201:0.6666666799723805 207:0.6666666418747812 243:0.5 353:1.0 383:0.6666666799723805 397:0.6666666556859534 398:0.8888888835602264 440:0.6666666957272209 461:0.5 526:0.5 567:0.6666666882101472 596:0.5 678:1.0 819:0.6666666900440184 920:0.6666666556859534 996:1.0 1124:1.0 1125:0.666666726735407 1195:0.6666666882101472 1206:0.6666666556859534 1390:0.666666726735407 
0.0443314268917866 0.0 30:0.6666666828403788 234:1.0 996:0.7499999703443155 
0.0 0.0014347827941863871 996:0.7499999703443155 
0.5 0.5 62:1.0 
0.03813686832578717 0.5 151:1.0 996:0.7499999703443155 
0.0 0.5 111:0.6249999752712823 
0.014328180679085272 0.0 5:1.0 224:1.0 281:1.0 553:1.0 1368:1.0 
0.01593036512163159 0.0 173:1.0 542:1.0 550:0.749999978464584 744:1.0 976:1.0 1106:1.0 
0.05216355471636134 0.5 36:1.0 421:0.6666666882101472 499:0.44444448913344137 968:0.6666666781935748 
0.010737537208206185 0.2049124506467694 22:0.7499999904450566 151:1.0 234:1.0 511:1.0 627:1.0 734:1.0 875:0.7499999857759053 1127:0.7499999673068779 
0.2730092610019989 0.0 21:0.6666666666666666 66:1.0 125:0.599999992573161 205:0.6666666551215595 312:0.7499999715261061 336:0.749999980836647 840:1.0 906:0.749999980836647 919:0.749999980836647 924:1.0 959:1.0 1064:0.6666667032690464 1121:1.0 1127:0.7499999673068779 1128:0.7499999686186495 1129:1.0 1408:1.0 
0.0 0.5 97:0.6249999553529086 1064:0.6666667032690464 
0.22015740122058658 0.0 666:1.0 999:1.0 
0.0 0.5 70:0.4444444692298189 134:0.7619047700847773 307:0.6666667224557367 1073:0.6666666957272209 
0.5 0.5 80:1.0 
0.0 0.5 873:1.0 
0.3272438011864208 0.04933724030326955 108:1.0 139:0.7499999514132242 143:0.624999996664857 178:0.7499999906385635 269:1.0 301:0.75 776:1.0 820:1.0 833:1.0 1006:1.0 1123:0.7499999673068779 1204:1.0 
0.0026650125462769543 0.0 524:1.0 539:0.7499999493170039 700:1.0 1058:1.0 
0.0 0.5 443:0.666666683682305 
0.0 0.5 829:1.0 
0.0 0.5 164:0.6666667088436418 835:1.0 
0.0 0.5 26:0.7500000333764958 122:1.0 125:0.599999992573161 
0.0 0.5 19:0.7499999999999999 26:0.7500000333764958 496:0.5999999855207659 959:1.0 
0.3647664737420632 0.0 70:0.4444444692298189 83:0.6666667181330785 122:0.666666726735407 125:0.40000000742683905 176:0.5 282:0.5 287:0.6666667059561432 297:0.5000000151936554 387:0.6666666377120891 424:0.6666666556859534 503:1.0 569:1.0 710:1.0 811:0.6666666900440184 820:0.6666666957272209 825:0.6666666786561575 858:0.6666667181330785 886:0.6666666890159431 922:0.6666666890159431 977:0.6666666666666666 1064:0.444444461525555 1096:0.6666667181330785 1100:0.6666667007348507 
0.0364420023979111 0.0 129:1.0 964:1.0 1130:0.6666666315191893 
0.31987066909791095 0.3016314468200512 125:0.599999992573161 1122:1.0 1130:0.6666666315191893 
0.14873102409419175 0.0 33:0.3000000121488625 38:0.6249999856534647 47:0.3749999869708176 70:0.3333333184621087 78:0.37499998294178916 84:0.5 133:0.5 220:0.5 316:0.6249999811468306 458:0.5 461:0.375 749:0.5 1057:0.7499999324226733 1122:0.5 1130:1.0 1220:0.7499999673068779 
0.08893645012709421 0.0 70:0.4444444692298189 98:0.5000000118622737 125:0.40000000742683905 170:0.499999985643056 201:0.6666666799723805 386:0.6666667224557367 473:1.0 569:0.5 706:0.4999999757635864 824:0.6666667224557367 912:0.5000000146113918 922:0.6666666890159431 1072:0.666666726735407 1242:0.6666667181330785 
0.2985488579161192 0.5 542:1.0 
0.0 0.43843088695297233 1081:1.0 
0.0 0.24126306083305268 70:0.666666629488605 124:1.0 138:1.0 214:1.0 543:1.0 783:1.0 
0.4508954343899703 0.5 1090:1.0 
0.0 0.5 310:1.0 
0.0809084914502005 0.12140271001417653 298:1.0 391:1.0 796:1.0 1626:1.0 
0.0 0.5 78:0.7499999658835783 666:1.0 1049:1.0 1104:1.0 1536:0.7499999421002911 
0.04547928708237267 0.0 2:0.41666665832596433 97:0.8333333170980274 272:0.6666667224557367 342:0.49999998302525245 561:0.5 702:0.5 750:0.6666667088436418 796:0.6666667224557367 1009:0.4444444737794412 1146:0.666666726735407 1232:0.5 
0.0 0.5 235:1.0 505:1.0 
0.5 0.5 334:1.0 
0.048234098542618856 0.2696754686561902 41:0.6250000186651046 153:1.0 178:0.7499999906385635 513:0.749999980836647 
0.04070179209596237 0.0 10:0.6666666666666667 21:0.6666666666666666 22:0.7499999904450566 153:1.0 154:1.0 178:0.7499999906385635 244:0.749999980836647 612:0.7500000083198824 626:0.75 677:1.0 803:1.0 
0.0418801736014512 0.06083799519791236 41:0.6250000186651046 143:0.624999996664857 526:0.7499999999999999 626:0.75 738:1.0 962:1.0 
0.4109792119287431 0.0943684336122257 13:0.7499999747860352 21:0.6666666666666666 41:0.6250000186651046 230:1.0 358:0.749999986677131 500:1.0 526:0.7499999999999999 626:0.75 660:1.0 
0.0 0.5 175:0.7499999865118231 
0.07875105887591288 0.5 348:0.7499999649491076 746:1.0 920:1.0 
0.34091206564883625 0.0 4:0.75 10:0.6666666666666667 243:0.7499999601981179 576:1.0 612:0.7500000083198824 850:1.0 1059:1.0 
0.33285244890404647 0.0 41:0.6250000186651046 205:0.6666666551215595 357:0.7499999905731904 603:1.0 626:0.75 671:1.0 825:1.0 947:0.7499999436517816 1262:1.0 
0.0019247468614344261 0.20644367132291402 1131:1.0 
0.08539588132012645 0.0 104:0.7499999686186495 301:0.75 349:1.0 554:0.749999967794279 597:1.0 700:1.0 804:1.0 856:1.0 877:1.0 1103:1.0 1132:0.7499999686186495 
0.0 0.28668137619737366 349:1.0 379:0.75 676:1.0 912:0.7500000219170877 1103:1.0 
0.046702714440765805 0.0 63:0.75 64:1.0 69:1.0 101:0.6666666918937995 115:1.0 205:0.6666666551215595 217:0.7499999586036538 253:0.7499999703443155 277:1.0 281:1.0 373:1.0 516:1.0 610:1.0 630:1.0 703:1.0 836:1.0 837:1.0 930:1.0 1029:1.0 
0.0 0.5 563:1.0 1131:0.7499999900994392 
0.14784959121134075 0.0 95:0.75 503:0.7499999675805721 
0.5 0.20021926228185602 14:1.0 101:0.6666666918937995 205:0.6666666551215595 497:1.0 523:0.7499999737004802 579:0.749999984697561 671:1.0 698:1.0 895:0.7499999737004802 
0.012953861418526296 0.5 914:1.0 1263:1.0 
0.08289180911192019 0.5 19:0.7499999999999999 461:0.75 561:0.7500000180392478 585:1.0 596:0.7499999514132242 1010:0.7499999436517816 1095:1.0 1119:1.0 
0.5 0.5 389:0.750000009648912 583:1.0 
0.0 0.5 21:0.6666666666666666 
0.0 0.2179068831437494 21:0.6666666666666666 454:1.0 1036:1.0 1074:1.0 
0.0 0.5 633:0.7499999703443155 
0.3498984012393395 0.3907762333346926 538:1.0 774:0.7499999748570649 
0.13324098167929935 0.5 278:0.7499999857759053 511:1.0 650:1.0 875:0.7499999857759053 
0.17949276062156228 0.5 26:0.7500000333764958 240:0.749999967794279 332:1.0 994:1.0 
0.0 0.37428094983640825 21:0.4444444444444444 22:1.0 68:1.0 125:0.8000000148536781 157:0.666666726735407 358:0.5 406:0.5 613:0.6666666802688349 1093:0.5000000112628881 1455:0.666666726735407 
0.0 0.5 26:0.7500000333764958 68:0.75 431:1.0 912:0.7500000219170877 923:1.0 
0.5 0.5 342:0.7500000254621214 348:0.7499999649491076 
0.0018736058417508947 0.33517148621611026 681:1.0 
0.5 0.5 1478:1.0 
0.5 0.5 
0.18951359057951966 0.07205442354549385 156:1.0 172:0.749999980836647 207:1.0 513:0.749999980836647 763:1.0 1018:1.0 
0.03265935114986714 0.49916186803106866 21:0.6666666666666666 56:0.6666666846739631 145:0.7499999436517816 174:1.0 245:1.0 349:1.0 362:1.0 380:0.7499999906385635 475:1.0 568:1.0 576:1.0 594:1.0 1103:1.0 1437:1.0 
0.5 0.0 689:0.7500000180392478 691:0.7500000085681872 
0.5 0.0 689:0.7500000180392478 691:0.7500000085681872 
0.5 0.0 689:0.7500000180392478 691:0.7500000085681872 
0.5 0.0 689:0.7500000180392478 691:0.7500000085681872 
0.5 0.0 689:0.7500000180392478 691:0.7500000085681872 
0.5 0.24228493556725544 689:0.7500000180392478 691:0.7500000085681872 
0.06440777970962137 0.0 437:0.6666666991110846 635:0.6666666666666666 636:0.6666666666666666 637:0.6666666666666666 683:0.6666666666666667 684:0.3472222481622249 685:1.0 686:0.5 687:1.0 688:0.6666667071830824 689:1.0 690:1.0 691:0.5000000171363742 692:0.6666666785092171 
0.0 0.09668429442230897 437:1.0 1039:1.0 
0.0 0.5 651:1.0 
0.5 0.5 106:0.4999999805181448 198:0.5000000158163657 205:1.0 526:0.37499999999999994 
0.015315604165865259 0.0 38:0.6249999856534647 97:0.6249999553529086 467:1.0 835:0.749999978464584 
0.0 0.1969770306654736 308:1.0 1087:1.0 
0.5 0.0 232:0.7499999857759053 467:1.0 653:1.0 835:0.749999978464584 
0.0 0.5 769:1.0 1539:0.7499999748570649 1627:1.0 
0.0 0.3653175492084688 19:0.7499999999999999 22:0.7499999904450566 361:1.0 437:1.0 550:0.749999978464584 
0.48559779840293704 0.5 47:1.0 389:0.500000019297824 409:0.5 454:0.6666666799723805 
0.3257912557114159 0.0 27:1.0 83:1.0 125:0.599999992573161 171:0.7499999493170039 199:1.0 201:1.0 281:1.0 568:1.0 660:1.0 841:1.0 
0.5 0.5 25:0.37499998393950973 38:0.31249999282673235 52:0.37499999382334864 70:0.3333333184621087 97:0.31249998092351555 111:0.3124999909328035 132:0.5000000158163657 144:0.5000000233672627 152:0.37499999634715203 218:0.374999991902204 294:0.3750000158157278 300:0.5 325:0.33333334953606164 412:0.5 413:0.37499999155373853 414:0.5000000193145909 427:0.5 497:0.5 561:0.3749999909803761 587:0.3000000202441321 596:0.374999991902204 638:1.0 793:0.37499998294178916 823:0.5 887:1.0 919:0.3749999904183235 987:0.5 1026:0.5 1126:0.5 1136:0.5 
