svm_type c_svc
kernel_type linear
nr_class 3
total_sv 2654
rho -0.9760635746581826 -0.4343507269670687 0.860047181790155
label 0 1 2
nr_sv 1180 438 1036
SV
0.0 0.18190020813805877 0:1.0 1:0.7499999748570649 
0.38719602702031697 0.5 7:0.7500000123533026 8:1.0 9:1.0 1241:1.0 1293:1.0 
0.5 0.5 10:0.6666666666666666 
0.0 0.5 11:1.0 12:1.0 13:0.7500000083198824 14:1.0 15:0.749999984697561 
0.0 0.3541892328892536 16:0.666666683682305 17:1.0 18:0.7499999737004802 
0.09407830075672681 0.38510349200609895 19:0.749999980836647 20:0.75 1376:1.0 
0.023792086681881958 0.06552306820604406 21:1.0 
0.0 0.5 22:0.6666666666666667 23:0.7499999516007434 24:0.7500000069727178 
0.1306488241694844 0.5 25:1.0 1366:0.75 1448:1.0 1558:1.0 
0.06339946530307326 0.5 26:0.7499999598487744 
0.0 0.2790505197463617 4:0.7499999747860352 27:0.7499999558945597 28:1.0 29:1.0 30:1.0 31:0.6666666418747821 32:0.7499999747860352 33:0.6249999811468306 
0.0 0.42362441478541685 46:1.0 47:0.7499999645006074 48:0.6666666666666666 
0.5 0.5 
0.3708861914107349 0.5 27:0.5 49:0.666666726735407 50:1.0 51:0.5 52:0.6666667181330785 1199:0.666666726735407 
0.11477509908065582 0.3305529194346971 53:1.0 
0.0 0.5 54:1.0 
0.0 0.2320154380995841 63:1.0 
0.5 0.5 
0.5 0.3711882062469152 36:0.7499999999999999 64:1.0 
0.5 0.5 
0.3250256843219145 0.0 76:1.0 77:1.0 78:1.0 79:1.0 80:1.0 81:1.0 82:1.0 83:1.0 
0.0 0.054100990273845656 33:0.6249999811468306 87:0.7499999547523951 88:0.7500000219170877 89:0.7500000069727178 90:0.7499999865118231 91:0.7499999658879616 
0.5 0.5 92:0.7499999739416352 
0.0 0.26178790993216144 34:0.9000000698559596 61:0.7499999547523951 100:0.3749999875501976 102:0.5 103:0.5000000193145909 104:1.0 105:0.5 106:0.5 107:0.5 108:0.5 109:0.3124999909328035 110:0.5000000158163657 111:0.5 112:0.3124999857630529 113:0.5 114:0.5 115:0.5 1124:0.5 1487:0.5 
0.26355381060939836 0.0 121:1.0 122:1.0 123:0.6 124:1.0 125:1.0 126:1.0 127:1.0 1209:0.7499999673068779 
0.08881368585943646 0.01610658176544484 22:0.88888894361011 26:0.5 27:0.5 128:0.6666666802688349 129:0.5 130:0.6666666900440184 131:0.6666667088436418 132:0.6666666942462827 
0.0 0.5 133:0.5714285714285715 
0.14483822790213133 0.12983896812022047 134:1.0 1327:1.0 1379:1.0 
0.2190491622102219 0.5 3:1.0 135:1.0 
0.5 0.5 136:0.8571428865048757 
0.0 0.5 143:0.6249999696332647 
0.5 0.5 112:0.6249999841811699 123:0.6 144:1.0 145:0.7499999436517816 
0.11965950543097925 0.0 34:0.40000005466988153 55:0.444444458996102 146:0.6666667181330785 147:0.5 148:1.0 149:0.5 150:0.6666666882101472 151:0.5000000147335533 152:0.6666666418747812 153:0.6666667181330785 154:0.6666667181330785 
0.5 0.04296592171175482 85:0.7499999850310722 155:1.0 
0.05083612314460263 0.0 113:1.0 123:0.6 156:1.0 157:1.0 158:0.5833333393377481 159:0.749999984697561 
0.5 0.5 35:1.0 
0.0 0.0013261258469918235 109:0.41666666117139606 166:1.0 
0.4873077568857488 0.5 167:0.6666666787969505 168:0.39999999999999997 169:0.5000000146113918 170:0.49999998635343135 171:1.0 172:0.6666666957272209 173:0.6666666781935748 1457:0.6666667181330785 
0.0 0.5 0:1.0 169:0.7500000219170877 
0.5 0.5 27:0.7499999558945597 98:0.6666666793422585 177:0.7499999547523951 178:0.6249999611166113 
0.0 0.5 133:0.5714285714285715 
0.5 0.5 22:0.88888894361011 41:0.4166667103133756 179:0.500000018656809 1135:0.666666726735407 1248:0.6666666785092171 
0.10465200847608609 0.09320575087908929 190:0.7499999421002911 191:1.0 
0.5 0.5 
0.0 0.5 192:0.7499999737004802 
0.28152876202766836 0.24709717943056783 190:0.7499999421002911 195:0.7499999658835783 
0.21098132455486182 0.5 196:1.0 197:1.0 198:1.0 1268:1.0 
0.0 0.3427404862804125 55:0.6666666492046776 123:0.6 199:1.0 200:1.0 
0.0 0.47100924571528036 201:1.0 
0.40150622985609585 0.024781741810175374 13:0.7500000083198824 68:0.6666666423359102 69:0.7499999708681762 82:1.0 98:0.6666666793422585 147:0.749999984697561 188:0.749999984697561 204:1.0 205:0.6666666278471359 206:0.6666666666666667 207:1.0 208:1.0 1174:1.0 
0.0 0.20207487850888917 211:0.7499999436517816 212:1.0 213:1.0 
0.0 0.2471202722132978 69:0.7499999708681762 215:1.0 216:1.0 
0.0 0.5 218:1.0 
0.0 0.03281861684953317 223:1.0 224:1.0 
0.5 0.5 
0.3631422016827563 0.5 22:0.6666666666666667 225:0.7499999900994392 226:1.0 
0.5 0.4749729754269481 227:1.0 228:1.0 229:0.749999984697561 230:0.7499999586036538 231:1.0 232:1.0 
0.0 0.11254256189278176 180:1.0 181:1.0 184:0.749999978464584 185:1.0 
0.5 0.0 155:1.0 233:0.7499999586036538 234:0.749999978464584 235:0.75 
0.0 0.5 237:1.0 238:1.0 239:0.7499999737004802 
0.290402032713073 0.08562663287474216 60:0.6666667068867623 69:0.5000000194212159 207:0.6666667114914946 246:1.0 247:0.6666666781935748 248:0.4999999870322288 249:0.6666667007348507 250:0.6666666666666666 
0.029687612711849314 0.19576406386676962 2:0.6250000042063767 27:0.7499999558945597 230:0.7499999586036538 250:1.0 252:0.7500000069727178 253:1.0 254:0.749999967794279 1154:1.0 
0.5 0.5 255:0.7499999421002911 1139:1.0 
0.0 0.5 18:0.7499999737004802 258:0.5714285521091738 
0.011923886437740299 0.2827571821781402 193:1.0 194:1.0 
0.017359910557284502 0.10039659302058371 192:0.7499999737004802 254:0.749999967794279 259:1.0 260:1.0 261:0.7499999658835783 
0.1038965286407485 0.0 123:0.4000000374312154 190:1.0 192:0.5 261:0.49999998635343135 273:1.0 274:0.6666667181330785 275:1.0 276:0.6666667088436418 277:0.499999985643056 278:0.5000000127755687 1261:0.6666667181330785 
0.0 0.5 190:0.7499999421002911 273:0.7499999673068779 275:0.7499999493170039 279:1.0 280:0.7499999572198809 
0.0 0.11926144279827768 279:1.0 281:1.0 1486:1.0 
0.0 0.5 281:1.0 1486:1.0 
0.02032879193036436 0.0 22:0.4444444444444444 192:1.0 254:0.5 259:0.6666666882101472 260:0.6666667088436418 261:0.49999998635343135 262:0.6666666786561575 263:1.0 264:0.6666667167539756 265:1.0 266:0.6666666556859534 267:0.6666666900440184 268:0.4999999870322288 
0.09590693232804008 0.0 14:0.6666666666666667 98:0.4444444782460226 109:0.8333333223427921 288:0.6666666957272209 289:0.444444458996102 290:0.5 291:0.4444444417801132 292:0.6666667224557367 293:0.5000000151936554 294:0.6666666786561575 1159:0.6666667088436418 
0.5 0.2866667843152661 16:0.16666667092057624 53:0.25 98:0.33333333967112927 113:0.25 123:0.6 125:0.24999999644723483 133:1.0 285:0.5 311:0.18749999224323333 312:0.15624998900231793 313:0.2499999981406086 314:0.25 315:0.5625000190965911 316:0.37499998430932474 317:0.25 
0.5 0.5 
0.2205108505565711 0.5 293:0.7499999772095168 318:1.0 319:1.0 
0.5 0.5 23:0.7499999516007434 113:1.0 320:1.0 
0.5 0.5 321:0.6666666336534771 
0.5 0.008116563981523536 81:1.0 325:0.749999980836647 326:0.7499999703443155 
0.024941685972622384 0.5 328:1.0 329:1.0 
0.05620304028207898 0.36331685251986146 22:0.4444444444444444 27:1.0 41:0.4166667103133756 67:0.6666666882101472 217:0.6666667059561432 335:1.0 
0.40719094648273996 0.0 1:0.7499999748570649 22:0.6666666666666667 109:0.6249999752712823 222:1.0 242:0.7499999689729333 336:1.0 337:0.7500000085681872 338:1.0 
0.38411852287159437 0.09719913882233187 339:0.7500000123533026 340:1.0 
0.5 0.5 
0.5 0.5 341:1.0 342:0.7499999739416352 343:1.0 344:0.7500000069727178 345:1.0 346:0.7499999436517816 
0.060833746219029775 0.0 347:0.7499999865118231 348:1.0 
0.0 0.09800780643546708 349:1.0 1476:1.0 
0.28774549395887583 0.46162291654520843 22:0.4444444444444444 41:0.4166667103133756 43:0.6666666793103067 55:0.444444458996102 164:0.6666667088436418 168:0.39999999999999997 350:0.4999999811463808 351:1.0 352:0.6666666957272209 1190:0.6666666556859534 
0.37743435930170993 0.2738083993487715 12:1.0 22:0.6666666666666667 173:1.0 176:0.7499999737004802 353:1.0 354:1.0 1128:1.0 
0.03469242448297352 0.5 355:1.0 
0.0 0.5 0:1.0 22:0.6666666666666667 112:0.6249999841811699 128:1.0 145:0.7499999436517816 
0.0 0.44720999904228254 26:0.7499999598487744 145:0.7499999436517816 357:1.0 
0.0 0.4667969492046719 15:0.749999984697561 22:0.6666666666666667 27:0.7499999558945597 308:0.75 335:0.7499999673068779 358:1.0 359:1.0 360:1.0 
0.2561919801398493 0.5 362:1.0 1266:0.6666666957272209 
0.0 0.29577484912952046 147:0.749999984697561 222:1.0 
0.29354319984410276 0.0 218:1.0 363:0.7499999851473375 364:0.7499999778996701 365:1.0 
0.28107173944659447 0.01604088684071316 73:0.6666666178735701 205:0.6666666278471359 236:1.0 369:1.0 371:0.7499999904450566 372:1.0 373:1.0 374:1.0 375:1.0 376:1.0 377:1.0 378:1.0 1216:1.0 
0.5 0.5 224:1.0 321:0.6666666336534771 
0.0 0.5 34:0.6000000364465876 170:0.7499999658835783 
0.2763488806519229 0.5 383:1.0 384:1.0 385:0.7499999675805721 386:1.0 387:1.0 
0.0 0.12943704658181074 388:0.25000000563144403 389:0.3333333441050736 390:0.33333334431404665 391:0.22222223448780695 392:1.0 
0.0 0.5 94:0.625 
0.0 0.14246725943092933 162:1.0 399:1.0 
0.022841260795558822 0.0 6:1.0 400:1.0 401:1.0 402:0.7499999643538849 403:0.749999967794279 
0.0242374670433453 0.5 72:1.0 404:1.0 405:1.0 406:0.7500000083198824 407:1.0 
0.031853561465464524 0.0 69:0.7499999708681762 409:1.0 410:1.0 
0.06263043755496711 0.005658990540973094 1:1.0 69:0.5000000194212159 78:0.666666726735407 92:1.0 112:0.4166666877584401 123:0.4000000374312154 230:1.0 256:0.5 258:0.38095238610422033 280:0.5 310:0.6666666781935748 350:0.4999999811463808 371:0.5000000191098867 373:0.6666666882101472 409:0.6666666666666667 411:0.6666666666666666 412:1.0 413:0.6666667224557367 414:0.6666667088436418 415:1.0 416:0.5 417:0.6666666556859534 418:0.6666666556859534 419:0.6666666781935748 420:1.0 421:0.6666666785092171 422:0.4999999757635864 423:0.6666666556859534 1336:1.0 1468:0.6666666890159431 
0.09015462523807756 0.4176090708579613 174:1.0 424:1.0 425:1.0 
0.038318475374991126 0.1863533189279297 254:0.749999967794279 340:1.0 426:1.0 427:0.6666666846739631 428:1.0 
0.25522372003100274 0.5 13:0.7500000083198824 100:0.7499999585006586 429:1.0 430:1.0 1267:1.0 
0.5 0.5 432:1.0 
0.0 0.49042419701558765 68:0.6666666423359102 74:0.7499999658835783 379:1.0 433:1.0 434:1.0 
0.5 0.07955746295136343 132:1.0 144:1.0 283:0.7499999857759053 366:1.0 416:0.7499999408294526 
0.09038725984955233 0.5 437:0.6666666492046776 
0.0 0.3760560991848429 20:0.75 174:1.0 438:1.0 439:1.0 440:1.0 441:1.0 
0.40845088707291466 0.0 94:0.625 229:0.749999984697561 242:0.7499999689729333 350:0.7499999905731904 442:1.0 443:1.0 
0.1936884252776989 0.0 147:1.0 175:0.6666666900440184 201:0.6666667059561432 222:0.6666666799723805 441:0.6666667181330785 444:0.5 445:0.6666666418747812 
0.019869338285957536 0.48991131631852725 33:0.6249999811468306 87:0.7499999547523951 88:0.7500000219170877 89:0.7500000069727178 90:0.7499999865118231 91:0.7499999658879616 
0.5 0.5 
0.0 0.5 170:0.7499999658835783 356:1.0 
0.0 0.5 446:1.0 
0.5 0.5 
0.0 0.11402608329880938 22:0.6666666666666667 245:0.7499999601981179 436:1.0 443:1.0 447:1.0 1430:1.0 
0.0 0.16323998847004148 14:1.0 22:0.6666666666666667 69:0.7499999708681762 289:0.6666666492046776 349:1.0 448:1.0 1281:1.0 1526:1.0 
0.3122679489649212 0.28358150364761486 92:0.7499999739416352 98:0.6666666793422585 363:0.7499999851473375 449:1.0 450:0.7500000123533026 
0.04221346449998319 0.5 86:0.7500000123533026 
0.0 0.0018506027796870025 245:0.7499999601981179 451:1.0 452:0.7499999772095168 453:1.0 
0.43711353283187954 0.5 416:0.7499999408294526 455:1.0 
0.0 0.1578520904939558 69:0.7499999708681762 213:1.0 319:1.0 347:0.7499999865118231 1458:1.0 
0.0 0.5 5:1.0 56:0.7499999748570649 62:1.0 98:0.6666666793422585 129:0.75 280:0.7499999572198809 283:0.7499999857759053 325:0.749999980836647 364:0.7499999778996701 444:0.7499999436517816 
0.5 0.5 
0.0 0.1587756756499004 461:1.0 462:1.0 463:0.7499999421002911 464:1.0 
0.0 0.09871547527381104 278:0.749999980836647 465:1.0 466:0.6 467:1.0 
0.0 0.5 468:1.0 469:1.0 1255:1.0 
0.025956117031887962 0.3534798102265749 465:1.0 470:0.6666666492046776 1297:1.0 
0.3108563537518325 0.0 22:0.6666666666666667 41:0.6250000093528661 60:1.0 109:0.6249999752712823 129:0.75 217:1.0 222:1.0 418:1.0 453:1.0 471:1.0 1167:1.0 1224:1.0 
0.0 0.5 68:0.6666666423359102 109:0.6249999752712823 133:0.5714285714285715 256:0.749999984697561 346:0.7499999436517816 472:0.6666666851746222 473:1.0 1465:1.0 
0.0 0.24173868125475778 245:0.5 422:1.0 452:0.5000000151936554 476:1.0 477:0.666666726735407 
0.03985209955778439 0.0 123:0.6 245:0.7499999601981179 478:1.0 
0.3207983571769519 0.5 205:0.6666666278471359 438:1.0 
0.0 0.04219297310277957 6:1.0 484:0.6000000383204585 
0.2700049645588675 0.08936068785490135 5:1.0 311:0.7499999689729333 489:1.0 
0.324905649338668 0.5 16:0.666666683682305 426:1.0 
0.0 0.10598024885591825 490:1.0 491:0.7499999675805721 
0.0 0.5 22:0.6666666666666667 255:0.7499999421002911 400:1.0 1269:1.0 
0.0 0.5 133:0.5714285714285715 237:1.0 306:1.0 493:1.0 
0.10814097815400368 0.21303045317870473 100:0.5 123:0.4000000374312154 133:0.38095238095238093 159:0.5 160:0.666666726735407 201:0.6666667059561432 277:0.499999985643056 403:1.0 445:0.6666666418747812 494:0.6969697254535445 495:0.6666666666666666 
0.0 0.5 73:0.6666666178735701 411:1.0 496:1.0 497:1.0 
0.0 0.2957429897715397 128:1.0 133:0.5714285714285715 501:1.0 
0.1500390679778586 0.49520171936127105 315:0.7500000254621214 502:1.0 
0.5 0.5 
0.5 0.16711164050463417 94:0.625 229:0.749999984697561 262:1.0 503:1.0 
0.11079205396032357 0.1919032761067037 235:0.75 290:0.75 504:1.0 505:1.0 1346:1.0 
0.08855904664375563 0.0 68:0.6666666423359102 293:0.7499999772095168 506:1.0 507:1.0 508:1.0 
0.0 0.5 219:0.2999999935588558 459:0.39999999999999997 509:0.9600000863654063 
0.0 0.5 22:0.6666666666666667 510:0.7499999658835783 
0.0 0.5 472:0.6666666851746222 511:1.0 
0.0 0.5 267:0.6666666900440184 322:1.0 358:0.6666666785092171 512:0.666666726735407 
0.34771830646100443 0.0 26:0.7499999598487744 98:0.6666666793422585 174:1.0 245:0.7499999601981179 328:1.0 513:0.7499999514132242 
0.0 0.5 277:0.749999978464584 403:0.749999967794279 514:0.5208333351407508 515:1.0 1259:0.5208333407417162 
0.023751268846583323 0.5 516:1.0 
0.5 0.5 409:1.0 
0.5 0.5 350:0.4999999811463808 470:0.8888888917992204 518:0.6666666890159431 1172:0.444444461525555 1449:0.5000000118622737 1521:0.666666726735407 
0.5 0.5 
0.3554888734793439 0.5 8:0.6666666418747812 519:1.0 520:0.6666667224557367 
0.5 0.0 68:0.6666666423359102 77:1.0 256:0.749999984697561 523:1.0 
0.0 0.5 94:0.625 139:0.7499999675805721 143:0.6249999696332647 
0.0 0.3271384175902697 45:1.0 268:0.7499999675805721 283:0.7499999857759053 322:0.7499999361250577 350:0.7499999905731904 411:1.0 523:1.0 528:1.0 529:1.0 530:1.0 
0.13203523302565306 0.0 531:1.0 532:1.0 533:1.0 
0.10018758700166525 0.4909799556784387 170:0.7499999658835783 183:1.0 269:1.0 305:0.749999939408966 350:0.7499999905731904 534:1.0 535:1.0 
0.0925860021346178 0.06157403451898273 129:0.75 397:1.0 536:0.7499999493170039 537:1.0 538:1.0 
0.11798915458438218 0.0 132:1.0 133:0.5714285714285715 159:0.749999984697561 395:1.0 483:0.749999939408966 502:1.0 539:1.0 540:0.7499999421002911 1124:1.0 
0.5 0.5 
0.2618655670198226 0.31533897824870105 543:1.0 1593:1.0 
0.0 0.06552009694105874 429:1.0 
0.5 0.5 
0.0 0.0022158105676659766 34:0.6000000364465876 38:0.625 74:0.7499999658835783 100:0.7499999585006586 379:1.0 470:0.6666666492046776 544:1.0 545:1.0 546:0.749999967794279 
0.0 0.47955350587793005 507:1.0 
0.18430375790619505 0.5 184:0.749999978464584 233:0.7499999586036538 320:1.0 343:1.0 548:0.6666666666666666 549:1.0 
0.022546877807690713 0.5 38:0.625 100:0.7499999585006586 550:1.0 551:0.7499999703443155 552:0.6249999520562717 1437:1.0 
0.25887337879558764 0.0 229:0.749999984697561 308:0.75 322:0.7499999361250577 553:0.7500000000000001 
0.0 0.1257500738068113 184:0.749999978464584 307:1.0 479:1.0 554:1.0 
0.4420248735309508 0.5 205:0.6666666278471359 497:1.0 
0.02095067463246525 0.0 146:1.0 223:1.0 345:1.0 381:1.0 523:1.0 555:1.0 556:1.0 
0.0 0.20186298275112036 41:0.8333334206267512 69:0.5000000194212159 280:0.5 304:0.6666667088436418 374:0.6666666666666666 505:0.6666667224557367 560:0.6666667088436418 561:0.6666666666666666 562:0.5 563:0.6666666900440184 
0.10819623234537805 0.45933954238621216 10:0.6666666666666666 243:0.7499999865118231 1397:1.0 
0.2986300764299198 0.0 4:0.7499999747860352 349:1.0 541:0.7499999586036538 
0.5 0.5 66:0.75 564:1.0 1168:1.0 
0.33716293968514366 0.40201218514231674 32:0.7499999747860352 201:1.0 444:0.7499999436517816 509:0.6000000224325731 565:0.7499999421002911 566:1.0 567:1.0 568:0.7499999778996701 569:1.0 1412:1.0 
0.5 0.5 421:1.0 570:1.0 
0.5 0.5 22:0.6666666666666667 572:0.75 
0.0 0.5 258:0.5714285521091738 264:1.0 
0.05264702927134384 0.5 42:0.44444444041139786 307:0.6666667098549147 321:0.4444444224356514 382:0.7619047858007381 402:0.5 514:0.3472222451161772 519:0.5 571:0.6666666786561575 575:0.6666666799723805 576:0.5 577:0.6666667059561432 1317:0.8888888475690813 1318:0.6666667034634209 1331:1.0 1334:0.6666667034634209 1356:1.0 1357:0.6666666890159431 1358:0.5 1359:1.0 1360:0.6666666900440184 1361:1.0 1362:0.6666666787969505 1363:0.6666667034634209 1364:0.6666666787969505 1456:1.0 
0.0 0.42895962258475834 27:0.062499997794727986 41:0.052083339724458576 235:0.0625 308:0.062499998082707696 578:1.0 579:0.05000000127304015 
0.0 0.5 331:0.749999980836647 580:1.0 581:1.0 
0.0 0.5 22:0.6666666666666667 
0.0 0.11848549675014694 22:0.4444444444444444 285:0.6666667007348507 337:0.5000000171363742 536:1.0 546:0.5 585:0.6666666890159431 1529:0.6666667181330785 
0.29605027849358045 0.5 144:1.0 168:0.6 472:0.6666666851746222 
0.1568130279733654 0.0 22:0.6666666666666667 42:0.6666666424683871 60:1.0 66:0.75 92:0.7499999739416352 206:0.6666666666666667 281:1.0 587:0.7499999917233263 588:1.0 589:0.749999978464584 1440:1.0 
0.0 0.03536825427872151 590:1.0 591:1.0 592:1.0 593:1.0 
0.1606674523628804 0.0 6:1.0 370:0.75 498:1.0 1333:1.0 1537:0.7499999421002911 
0.2750165812047476 0.5 556:1.0 
0.0 0.5 34:0.8000000789676067 135:0.6666666890159431 245:0.5 406:0.5000000166397651 546:0.5 
0.0 0.05272890115521539 20:0.75 100:0.7499999585006586 144:1.0 424:1.0 455:1.0 596:1.0 597:1.0 1326:1.0 
0.0 0.47569650728061796 69:0.7499999708681762 109:0.6249999752712823 598:1.0 599:0.749999984697561 600:1.0 
0.0 0.5 123:0.6 168:0.6 174:1.0 509:0.6000000224325731 601:0.749999980836647 602:0.7499999514132242 
0.44451628285419287 0.5 294:1.0 362:0.7499999917233263 603:1.0 1275:1.0 
0.5 0.5 12:0.6666667034634209 98:0.4444444782460226 217:0.6666667059561432 320:0.6666667083095656 343:0.6666666982216839 604:0.8888889415507291 605:0.6666666781935748 606:0.5000000127755687 607:0.6666666793103067 608:0.500000019297824 609:0.6666666418747812 
0.025071726273529597 0.5 15:0.749999984697561 22:0.6666666666666667 42:0.6666666424683871 137:1.0 138:0.7499999999999999 140:1.0 308:0.75 359:1.0 402:0.7499999643538849 
0.0 0.5 68:0.6666666423359102 379:1.0 
0.0 0.08032050519991768 40:0.75 132:1.0 184:0.749999978464584 1273:1.0 1434:1.0 
0.2663643337074928 0.0 42:0.6666666424683871 267:1.0 
0.0 0.5 341:1.0 631:1.0 632:0.7499999675805721 
0.0 0.23421924891884438 29:1.0 237:1.0 447:1.0 572:0.75 637:0.6666666254935397 
0.17766520524287538 0.0 40:0.75 57:1.0 123:0.6 222:1.0 
0.0 0.5 6:1.0 22:0.6666666666666667 174:1.0 640:1.0 641:1.0 
0.0 0.10047156919844188 2:0.6250000042063767 22:0.6666666666666667 350:0.7499999905731904 457:1.0 642:1.0 1515:1.0 
0.42776554134414735 0.5 29:1.0 148:0.749999939408966 321:0.6666666336534771 556:1.0 646:0.6666666934800648 
0.48505532675723084 0.3795596345843761 42:0.6666666424683871 354:1.0 609:1.0 647:0.7499999748570649 
0.1499634279734676 0.0 34:0.8000000789676067 68:0.44444445255469656 73:0.44444444851053583 92:0.5000000173722432 103:0.6666666666666667 110:0.6666667088436418 133:0.7619047619047619 519:0.5 639:0.6666666786561575 648:0.5555555266935495 649:0.6666667181330785 650:0.6666666556859534 651:0.6666667224557367 652:0.6666666556859534 653:0.6666666882101472 
0.5 0.5 123:0.6 206:0.6666666666666667 639:1.0 
0.25886984906004173 0.5 22:0.6666666666666667 25:1.0 94:0.625 659:1.0 660:1.0 661:1.0 
0.16756903283140814 0.0 32:0.7499999747860352 102:1.0 646:0.6666666934800648 663:1.0 664:1.0 1135:1.0 
0.5 0.5 61:0.5 62:0.6666666802688349 109:0.41666666117139606 188:1.0 219:0.5 381:0.6666666999517749 666:0.666666726735407 667:0.5 1238:0.6666666556859534 
0.09011786390539564 0.5 362:0.5000000165533475 445:0.6666666418747812 668:0.6666667224557367 1264:1.0 
0.0 0.5 22:0.88888894361011 41:0.4166667103133756 100:0.5 354:0.66666669698848 472:0.4444444845450149 683:0.5 
0.0 0.05279461071227338 107:1.0 235:0.75 343:1.0 354:1.0 570:1.0 684:1.0 
0.023602786656529588 0.5 480:1.0 
0.299709403163066 0.5 18:0.7499999737004802 168:0.6 205:0.6666666278471359 403:0.749999967794279 487:0.6666666666666666 686:1.0 687:1.0 1259:0.5208333407417162 
0.47688295652758556 0.0 100:0.7499999585006586 658:1.0 690:1.0 
0.07633110748531755 0.5 15:0.749999984697561 91:0.7499999658879616 308:0.75 320:1.0 359:1.0 380:0.6666666580824041 693:0.749999980836647 694:0.7499999999999999 
0.5 0.5 
0.3445735102230174 0.0 98:0.6666666793422585 159:0.749999984697561 229:0.749999984697561 357:1.0 613:1.0 698:1.0 
0.4263946835123752 0.5 699:1.0 700:1.0 
0.49889248543982934 0.35890755545282743 32:0.7499999747860352 152:1.0 175:1.0 382:0.5714285779456558 
0.5 0.5 341:1.0 688:0.7499999865118231 
0.09908035927312513 0.0 16:0.666666683682305 289:0.6666666492046776 703:1.0 704:1.0 
0.21892867044707695 0.2863334914243176 200:1.0 569:1.0 705:1.0 1304:1.0 
0.5 0.44191297892950415 73:0.33333330893678503 123:0.3 458:0.5000000367967542 470:0.3333333246023388 492:0.375 706:1.0 
0.0 0.4980073437266251 204:1.0 279:1.0 635:1.0 
0.34505370812800135 0.5 179:0.7499999906715955 401:1.0 644:1.0 707:0.7499999586036538 
0.0 0.10186497968641474 19:0.749999980836647 73:0.6666666178735701 164:1.0 
0.3986421570693405 0.23817604663010727 219:0.749999967794279 371:0.7499999904450566 375:1.0 587:0.7499999917233263 708:1.0 
0.08104348384244592 0.4512543126143303 4:1.0 35:0.6666666900440184 51:0.5 60:0.6666667068867623 148:0.4999999757635864 248:0.4999999870322288 314:0.6666667181330785 709:0.6666666556859534 710:0.6666667224557367 711:0.5000000118622737 1144:1.0 1284:0.5 
0.07835425786413014 0.5 41:0.6250000093528661 720:1.0 721:1.0 
0.0 0.5 41:0.6250000093528661 322:0.7499999361250577 443:1.0 720:1.0 
0.0 0.3750329469036 147:0.749999984697561 722:1.0 723:0.7499999421002911 
0.0049361303992327635 0.5 22:0.6666666666666667 100:0.7499999585006586 364:0.7499999778996701 725:1.0 
0.0012112963953532759 0.16706113096954311 61:0.7499999547523951 727:1.0 728:1.0 1198:1.0 
0.0 0.16398624913111765 32:1.0 34:0.40000005466988153 43:0.6666666793103067 135:0.6666666890159431 370:0.5 582:0.4444444387216028 729:0.41666667672634966 
0.5 0.0 42:0.44444444041139786 69:0.5000000194212159 94:0.8333333877878334 155:0.6666666418747812 245:0.5 350:0.4999999811463808 405:0.6666666890159431 416:0.5 575:0.6666666799723805 637:0.4444444513066323 732:0.6666667088436418 
0.5 0.5 362:0.7499999917233263 
0.04273731949394413 0.5 35:1.0 237:1.0 587:0.7499999917233263 643:1.0 737:1.0 
0.0 0.05016993344499478 0:1.0 85:0.7499999850310722 593:1.0 668:1.0 738:1.0 
0.0 0.3964809317896731 44:1.0 
0.3398889520285491 0.5 383:1.0 739:1.0 740:1.0 1306:1.0 
0.0 0.5 68:0.6666666423359102 81:1.0 
0.0 0.4008018316445003 210:1.0 417:1.0 741:0.7499999421002911 
0.2674280859285496 0.5 98:0.6666666793422585 297:0.7499999689729333 742:0.6999999477450001 
0.31304664168410823 0.0 6:1.0 452:0.7499999772095168 528:1.0 1291:0.7499999703443155 
0.11077910584383031 0.0 130:0.6666666900440184 487:0.4444444533149204 601:1.0 743:0.6666667167539756 744:0.6666666957272209 
0.04460329524131193 0.0 137:1.0 138:0.7499999999999999 306:1.0 632:0.7499999675805721 748:0.749999980836647 749:1.0 
0.357456627878865 0.2520666491148156 69:0.5000000194212159 94:0.41666671023026675 133:0.38095238095238093 179:0.500000018656809 427:0.4444444834602533 513:1.0 711:0.5000000118622737 747:0.6666666785092171 750:0.6666666882101472 751:0.5 752:0.6666666556859534 753:0.6666666890159431 754:0.666666726735407 
0.41744555775094505 0.0 128:1.0 755:0.7499999748570649 
0.5 0.5 258:0.5714285521091738 381:1.0 733:1.0 
0.0 0.46709675227979613 22:0.6666666666666667 68:0.6666666423359102 284:1.0 693:0.749999980836647 746:1.0 756:1.0 757:1.0 
0.0 0.5 112:0.6249999841811699 435:0.7499999778996701 646:0.6666666934800648 663:1.0 758:1.0 
0.0 0.38280613553510834 65:0.3000000107905415 406:0.300000003327953 759:1.0 760:0.3999999883757783 1378:0.2666666842676647 
0.48832299839558546 0.5 341:0.6666666666666666 578:0.6956522435175584 1134:0.6666666882101472 
0.0 0.4521395825939329 144:1.0 364:0.7499999778996701 502:1.0 660:1.0 763:1.0 
0.3368680047861919 0.5 27:0.5 764:0.5000000118622737 765:1.0 
0.23047410024615145 0.0 12:1.0 610:1.0 734:0.7499999865118231 746:1.0 766:1.0 
0.5 0.29828045966473216 20:0.75 269:1.0 695:0.7499999857759053 
0.13375375273149565 0.09745285177586976 2:0.6250000042063767 345:1.0 416:0.7499999408294526 564:1.0 629:1.0 747:1.0 767:1.0 768:1.0 
0.0 0.5 94:0.41666671023026675 245:0.5 299:0.5 311:0.5 321:0.8888888448713028 529:0.6666666882101472 722:0.6666666957272209 769:1.0 
0.1957339192027319 0.08918597177058601 170:0.7499999658835783 583:1.0 725:1.0 771:1.0 
0.2655625541965943 0.5 179:0.500000018656809 375:0.6666666781935748 416:0.5 554:0.6666666882101472 587:1.0 689:0.5 776:0.6666666882101472 
0.0 0.5 10:0.6666666666666666 21:1.0 22:0.6666666666666667 23:0.7499999516007434 322:0.7499999361250577 784:1.0 
0.0 0.4825713701185468 22:0.6666666666666667 66:0.75 68:0.6666666423359102 109:0.6249999752712823 245:0.7499999601981179 423:1.0 549:1.0 564:1.0 1374:1.0 
0.0 0.5 372:1.0 409:1.0 563:1.0 786:1.0 
0.04448942668453859 0.3930105035275656 22:0.6666666666666667 398:1.0 614:1.0 
0.37068362271158095 0.4955619434336129 26:0.7499999598487744 42:0.6666666424683871 74:0.7499999658835783 85:0.7499999850310722 165:1.0 787:1.0 788:0.6666666815661846 
0.017581129746721918 0.0 27:0.7499999558945597 308:0.75 496:1.0 657:1.0 
0.16926045155698466 0.3989115835322769 27:0.5 683:1.0 791:0.6666666781935748 792:0.6666666781935748 1389:1.0 
0.0 0.5 407:1.0 794:1.0 
0.0 0.5 311:0.7499999689729333 350:0.7499999905731904 416:0.7499999408294526 796:1.0 1241:1.0 
0.0 0.5 22:0.6666666666666667 68:0.6666666423359102 252:0.7500000069727178 524:1.0 576:0.7499999999999999 
0.0 0.04614706391127008 211:0.7499999436517816 235:0.75 264:1.0 428:1.0 778:1.0 779:0.7500000123533026 780:1.0 781:1.0 782:1.0 
0.5 0.2171117694165585 22:0.6666666666666667 24:0.7500000069727178 92:0.7499999739416352 619:1.0 
0.0 0.36850970238503955 8:0.6666666418747812 403:1.0 551:0.5000000118622737 
0.0 0.5 113:1.0 329:1.0 548:0.6666666666666666 
0.5 0.5 10:0.6666666666666666 1554:1.0 
0.0 0.5 721:1.0 
0.0 0.5 100:0.7499999585006586 
0.0 0.03680904497651015 94:0.625 241:1.0 631:1.0 801:1.0 1414:1.0 
0.30429087114185444 0.5 123:0.6 470:0.6666666492046776 545:1.0 
0.0 0.42808353803215515 55:0.6666666492046776 130:1.0 371:0.7499999904450566 412:0.7499999493170039 500:1.0 640:1.0 
0.0 0.2738500030592312 10:0.6666666666666666 256:0.749999984697561 527:1.0 
0.0 0.13749864791306624 34:0.6000000364465876 68:0.6666666423359102 524:1.0 802:1.0 803:1.0 
0.0 0.2640777244690432 23:0.49999998064029744 167:0.6666666787969505 291:0.4444444417801132 448:0.6666667114914946 743:0.6666667167539756 804:1.0 806:0.6666667224557367 807:0.6666666785092171 
0.0 0.426542345662861 226:1.0 809:1.0 810:0.5999999922443471 
0.0 0.04330834026456617 226:1.0 403:0.749999967794279 568:0.7499999778996701 707:0.7499999586036538 811:1.0 812:1.0 
0.06514281301985109 0.0 458:1.0 813:0.749999980836647 814:1.0 
0.0 0.5 73:0.6666666178735701 1183:0.7499999658835783 
0.2506885682557299 0.07171706759432137 98:0.6666666793422585 466:0.6 517:1.0 815:1.0 
0.16180174038057601 0.5 26:0.7499999598487744 36:0.7499999999999999 816:1.0 817:0.749999978464584 
0.06892494873823976 0.0 34:0.6000000364465876 100:0.7499999585006586 150:1.0 433:1.0 576:0.7499999999999999 818:1.0 819:1.0 
0.058529382112048285 0.5 492:0.75 801:1.0 820:0.749999939408966 
0.08645069824670816 0.4837621404424741 98:0.6666666793422585 342:0.7499999739416352 374:1.0 483:0.749999939408966 492:0.75 524:1.0 768:1.0 821:0.7499999658835783 822:1.0 1138:1.0 1366:0.75 
0.0 0.38599596567928673 26:0.7499999598487744 311:0.7499999689729333 350:0.7499999905731904 447:1.0 
0.5 0.5 
0.0 0.4326492706174005 765:0.7499999865118231 823:1.0 
0.13375744371740853 0.19376071382651597 59:0.5000000158163657 307:0.5000000215941239 424:0.5000000158163657 542:0.5 569:0.49999997959674763 572:0.375 717:0.833333366637475 
0.5 0.5 
0.17436383374991074 0.11292625698136935 371:0.7499999904450566 468:1.0 826:1.0 
0.0 0.06887998988358662 109:0.6249999752712823 246:0.7499999675805721 312:0.6249999811468306 639:1.0 827:1.0 828:0.5833333393377481 1180:1.0 
0.0 0.08365792270796445 308:0.75 817:0.749999978464584 
0.043101674378550794 0.00496825145003669 34:0.6000000364465876 100:0.7499999585006586 314:1.0 
0.042351444861667774 0.1770346037822744 44:0.5555555457923671 107:1.0 603:1.0 636:1.0 717:0.55555556443666 1483:1.0 
0.1718786003749702 0.5 189:0.666666726735407 325:0.5000000127755687 371:0.5000000191098867 829:1.0 830:0.666666726735407 
0.0 0.44787542122328344 2:0.6250000042063767 3:1.0 104:1.0 
0.09948548371306286 0.0 73:0.44444444851053583 107:0.6666667059561432 176:1.0 236:0.6666666666666666 254:0.5 406:1.0 458:0.6666667034634209 499:0.5 
0.5 0.5 20:0.5 112:0.8333333438792201 125:0.6666666785092171 128:0.6666666802688349 133:0.7619047619047619 201:0.6666667059561432 210:0.6666667034634209 524:0.6666666793103067 546:0.5 786:0.6666666666666666 831:0.5 
0.0 0.2051859574230017 2:0.6250000042063767 341:1.0 790:0.7499999675805721 832:1.0 833:1.0 
0.5 0.5 
0.09640487766577817 0.4295187225087208 22:0.6666666666666667 94:0.625 348:1.0 353:1.0 452:0.7499999772095168 836:1.0 837:1.0 
0.0 0.2826843417326706 613:1.0 698:1.0 
0.0 0.0535701072243773 38:0.625 232:1.0 235:0.75 331:0.749999980836647 457:1.0 646:0.6666666934800648 663:1.0 838:1.0 
0.5 0.5 123:0.6 144:1.0 765:0.7499999865118231 799:1.0 
0.0 0.5 492:0.75 615:1.0 1497:1.0 
0.0 0.3010352149322199 139:0.7499999675805721 775:1.0 
0.07533899021056262 0.0 113:1.0 177:0.7499999547523951 839:1.0 
0.5 0.0 77:1.0 548:0.6666666666666666 589:0.749999978464584 693:0.749999980836647 736:1.0 
0.0 0.5 28:1.0 346:0.7499999436517816 
0.0 0.5 10:0.6666666666666666 752:1.0 
0.0 0.17141821881136393 13:0.7500000083198824 207:1.0 233:0.7499999586036538 342:0.7499999739416352 647:0.7499999748570649 743:1.0 840:1.0 841:1.0 
0.0 0.5 47:0.5 122:0.6666667034634209 129:0.5 380:0.4444444387216028 382:0.7619047858007381 466:0.4 682:0.6666666787969505 
0.0 0.27294073846376304 107:1.0 114:1.0 629:1.0 719:1.0 
0.1844105920619661 0.3774976511956053 2:0.41666668068792223 179:0.500000018656809 406:0.5000000166397651 842:1.0 
0.4318523839599651 0.5 41:0.6250000093528661 351:0.7499999658835783 488:1.0 572:0.75 
0.0 0.06255064432906048 536:0.7499999493170039 843:1.0 844:0.7499999421002911 
0.11666740457256795 0.17938467284507284 207:1.0 237:1.0 337:0.7500000085681872 845:1.0 
0.0 0.5 226:0.5 426:0.5000000367967542 509:0.9000000476692178 1487:0.5 
0.5 0.5 262:1.0 297:0.7499999689729333 346:0.7499999436517816 407:1.0 
0.37185576708017687 0.13880914103793385 66:0.75 122:1.0 129:0.75 234:0.749999978464584 280:0.7499999572198809 337:0.7500000085681872 402:0.7499999643538849 432:1.0 648:0.8333332900403243 652:1.0 712:0.7499999865118231 847:1.0 1211:1.0 
0.0 0.3334688125336253 92:0.7499999739416352 133:0.5714285714285715 472:0.6666666851746222 568:0.7499999778996701 707:0.7499999586036538 848:0.7499999675805721 
0.0 0.01995744141513065 6:1.0 306:1.0 362:0.7499999917233263 377:1.0 849:1.0 
0.5 0.5 1140:1.0 
0.1056625400337133 0.0 98:0.6666666793422585 103:1.0 143:0.6249999696332647 201:1.0 406:0.7500000083198824 465:1.0 850:1.0 851:1.0 
0.0 0.3446465629165431 257:1.0 798:1.0 
0.0 0.024201029402481377 28:1.0 73:0.6666666178735701 179:0.7499999906715955 701:1.0 764:0.7499999703443155 797:1.0 
0.5 0.3126206191795316 41:0.6250000093528661 236:1.0 348:1.0 363:0.7499999851473375 854:0.75 855:1.0 
0.5 0.5 179:0.7499999906715955 
0.0 0.5 98:0.6666666793422585 221:1.0 444:0.7499999436517816 1603:1.0 
0.0 0.5 209:1.0 511:1.0 857:1.0 858:1.0 
0.042038448067221026 0.5 859:0.7499999493170039 
0.2933569393102692 0.0 71:0.7499999857759053 337:0.7500000085681872 403:0.749999967794279 782:1.0 861:1.0 1148:1.0 
0.0 0.5 23:0.3749999951600744 306:0.4999999805181448 646:1.0 
0.02378672638234416 0.5 862:1.0 
0.07933984678408879 0.0 2:0.6250000042063767 22:0.6666666666666667 443:1.0 607:1.0 619:1.0 620:1.0 621:1.0 622:0.749999939408966 623:1.0 624:1.0 625:1.0 626:1.0 
0.5 0.11675780850926835 22:0.4444444444444444 27:0.5 38:0.41666669468218415 98:0.4444444782460226 123:0.4000000374312154 245:0.5 310:0.6666666781935748 427:0.888888939909562 546:0.5 589:0.499999985643056 716:0.6666666786561575 
0.0 0.3764447393137724 865:1.0 
0.0 0.5 22:0.6666666666666667 133:0.5714285714285715 639:1.0 868:1.0 
0.1965984543125921 0.0 13:0.7500000083198824 592:1.0 869:1.0 
0.5 0.5 
0.5 0.27885590719497105 600:1.0 870:0.749999939408966 
0.5 0.0 123:0.4000000374312154 195:1.0 222:0.6666666799723805 285:0.6666667007348507 337:0.5000000171363742 546:0.5 872:0.6666666957272209 
0.0 0.5 254:0.37499999999999994 426:0.5000000367967542 472:0.3333333425873111 717:0.833333366637475 
0.0 0.3383583039770718 71:0.7499999857759053 
0.41529614228990797 0.0 2:0.6250000042063767 256:0.749999984697561 406:0.7500000083198824 569:1.0 877:1.0 1629:1.0 
0.1423420950040251 0.5 42:0.6666666424683871 237:1.0 
0.09171756248941151 0.0 22:0.6666666666666667 23:0.7499999516007434 132:1.0 401:1.0 695:0.7499999857759053 
0.0 0.5 55:0.444444458996102 100:0.5 113:0.6666666666666666 174:0.6666666507593287 371:0.5000000191098867 603:0.6666666666666666 886:1.0 
0.08074899909922709 0.0 19:0.749999980836647 24:0.7500000069727178 337:0.7500000085681872 531:1.0 749:1.0 
0.030647129997396747 0.25150237420633864 179:0.7499999906715955 387:1.0 420:0.7499999900994392 
0.5 0.5 169:0.7500000219170877 315:0.7500000254621214 445:1.0 
0.13475224889411272 0.5 62:1.0 76:1.0 114:1.0 484:0.6000000383204585 740:1.0 
0.0 0.2572681638138852 1:0.7499999748570649 270:1.0 315:0.7500000254621214 371:0.7499999904450566 478:1.0 582:0.6666666580824041 819:1.0 1278:1.0 
0.17214486032627602 0.5 18:0.7499999737004802 343:1.0 640:1.0 
0.0 0.3114736149902951 328:1.0 452:0.7499999772095168 887:1.0 
0.3042769391448933 0.5 113:1.0 307:1.0 322:0.7499999361250577 407:1.0 519:0.7499999831074771 553:0.7500000000000001 582:0.6666666580824041 636:1.0 888:1.0 889:1.0 1321:1.0 
0.5 0.5 
0.5 0.2307501020777039 127:1.0 717:0.55555556443666 890:0.7500000219170877 
0.0 0.47529456396474423 4:0.7499999747860352 22:0.6666666666666667 23:0.7499999516007434 112:0.6249999841811699 174:1.0 214:1.0 627:0.6666666820358781 891:1.0 892:1.0 
0.13001732255769413 0.0 41:0.6250000093528661 600:1.0 
0.006167794297189175 0.49732395854446154 39:1.0 860:1.0 
0.1665691521630799 0.43007018774289 68:0.6666666423359102 311:0.7499999689729333 315:0.7500000254621214 398:1.0 513:0.7499999514132242 535:1.0 603:1.0 620:1.0 621:1.0 
0.0 0.371162235890085 68:0.3333333211679551 73:0.33333330893678503 122:0.5000000367967542 127:0.5 330:0.5000000158163657 509:0.9000000476692178 851:0.5 897:0.7499999421002911 1418:0.37499998365343895 
0.0 0.5 22:0.6666666666666667 143:0.6249999696332647 351:0.7499999658835783 472:0.6666666851746222 
0.28850840526559657 0.25813486617913145 22:0.6666666666666667 100:0.7499999585006586 113:1.0 123:0.6 143:0.6249999696332647 180:1.0 245:0.7499999601981179 323:1.0 554:1.0 612:1.0 657:1.0 901:1.0 902:1.0 1157:1.0 
0.0 0.5 100:0.7499999585006586 903:1.0 
0.38103208687320406 0.0 62:1.0 169:0.7500000219170877 616:1.0 868:1.0 904:1.0 
0.0 0.2414231238021595 79:0.6666666957272209 100:0.5 144:0.666666698090058 364:1.0 849:0.6666666786561575 1270:0.6666667088436418 
0.08043770915564862 0.09322367950456795 148:0.749999939408966 370:0.75 740:1.0 
0.054982367058369994 0.0 71:0.7499999857759053 472:0.6666666851746222 517:1.0 691:0.7500000123533026 908:1.0 909:1.0 
0.0 0.5 293:0.7499999772095168 
0.0 0.5 34:0.6000000364465876 1272:1.0 1290:1.0 
0.5 0.5 682:1.0 
0.21309321271715792 0.1909176243879758 43:1.0 218:1.0 910:1.0 1303:1.0 
0.0 0.5 442:1.0 686:1.0 898:1.0 
0.2240235222598555 0.0 198:1.0 406:0.7500000083198824 587:0.7499999917233263 728:1.0 
0.0 0.5 41:0.6250000093528661 911:1.0 912:1.0 
0.37827284274253803 0.38427458091764966 27:0.7499999558945597 38:0.625 41:0.6250000093528661 109:0.6249999752712823 322:0.7499999361250577 376:1.0 546:0.749999967794279 547:1.0 1145:1.0 
0.0 0.25631974774554944 443:1.0 
0.0 0.3457617561696131 2:0.6250000042063767 239:0.7499999737004802 399:1.0 1214:1.0 
0.4955458262097644 0.5 10:0.6666666666666666 344:0.7500000069727178 
0.0 0.3354835548734073 916:0.6000000364136853 917:1.0 
0.467784641806148 0.5 5:1.0 283:0.7499999857759053 
0.0 0.48421481390813087 22:0.6666666666666667 354:1.0 367:1.0 541:0.7499999586036538 704:1.0 
0.14764995307081627 0.5 92:0.7499999739416352 747:1.0 1243:1.0 
0.35451550222898637 0.5 65:0.5 204:0.6666666666666667 279:0.6666666982216839 337:0.5000000171363742 405:0.6666666890159431 923:0.5 924:1.0 
0.5 0.5 327:0.6666666666666666 363:0.5 517:0.6666666418747812 849:0.6666666786561575 915:1.0 
0.0011080993964359457 0.0 641:1.0 
0.5 0.5 
0.19235196405688743 4.100300581063619E-4 113:1.0 245:0.7499999601981179 406:0.7500000083198824 407:1.0 614:1.0 638:1.0 835:1.0 
0.0 0.5 22:0.6666666666666667 242:0.7499999689729333 341:1.0 389:1.0 
0.020727431462272492 0.0 11:1.0 268:0.7499999675805721 528:1.0 547:1.0 562:0.7499999999999999 764:0.7499999703443155 930:1.0 931:1.0 
0.022616395966401307 0.06551381033289808 641:1.0 
0.41608522229092143 0.5 27:0.7499999558945597 206:0.6666666666666667 308:0.75 402:0.7499999643538849 504:1.0 605:1.0 685:0.749999978464584 932:1.0 1177:0.7499999857759053 
0.0 0.24183598440317725 484:0.6000000383204585 716:1.0 786:1.0 933:1.0 
0.0 0.4106778458290496 876:1.0 1569:1.0 
0.19141832414502 0.0 322:0.7499999361250577 509:0.6000000224325731 558:0.749999939408966 934:1.0 935:1.0 936:1.0 
0.050779504629223364 0.5 13:0.7500000083198824 
0.0 0.12147956562692801 4:0.7499999747860352 207:1.0 937:1.0 
0.2056230192045989 0.10700063997916713 64:1.0 115:1.0 133:0.5714285714285715 371:0.7499999904450566 404:1.0 449:1.0 479:1.0 541:0.7499999586036538 794:1.0 
0.20549938423056294 0.0 341:1.0 376:1.0 431:0.7499999632246671 665:1.0 934:1.0 
0.43255338912721464 0.0 127:1.0 341:1.0 704:1.0 
0.0 0.5 27:0.7499999558945597 472:0.6666666851746222 509:0.6000000224325731 
0.5 0.5 14:1.0 226:1.0 416:0.7499999408294526 604:0.6666666523043467 
0.15718341692222865 0.4246003789861054 13:0.5000000166397651 109:0.41666666117139606 195:0.49999998635343135 285:0.6666667007348507 427:0.4444444834602533 546:0.5 606:0.5000000127755687 751:1.0 
0.13678548058497444 0.35469538110296156 22:0.6666666666666667 119:1.0 388:0.7499999493170039 448:1.0 733:1.0 869:1.0 941:0.7499999857759053 
0.1774950985188796 0.0 27:0.5 173:0.6666666781935748 247:0.6666666781935748 370:1.0 807:0.6666666785092171 1526:0.666666726735407 
0.45756867054338196 0.5 280:0.7499999572198809 374:1.0 
0.010432530680763068 0.0 256:0.749999984697561 320:1.0 360:1.0 403:0.749999967794279 943:1.0 
0.0 0.27866223554237546 116:0.7499999748570649 1567:1.0 
0.5 0.5 
0.0 0.5 23:0.7499999516007434 367:1.0 715:1.0 743:1.0 
0.0 0.5 113:1.0 
0.0 0.5 91:0.3749999829439808 509:0.9000000476692178 646:1.0 836:0.5000000158163657 940:0.5 
0.5 0.5 944:1.0 
0.04479280550572713 0.15787920886773416 7:0.7500000123533026 32:0.7499999747860352 123:0.6 186:1.0 233:0.7499999586036538 252:0.7500000069727178 293:0.7499999772095168 406:0.7500000083198824 506:1.0 545:1.0 689:0.7499999851473375 729:0.6250000150895244 945:1.0 
0.46315563792090303 0.5 41:0.6250000093528661 111:1.0 
0.5 0.5 23:0.7499999516007434 370:0.75 602:0.7499999514132242 
0.12965714664391165 0.5 112:0.6249999841811699 168:0.6 217:1.0 416:0.7499999408294526 504:1.0 576:0.7499999999999999 849:1.0 946:1.0 1367:1.0 
0.0 0.3669551430824842 905:1.0 
0.0 0.33216015044794267 100:0.7499999585006586 488:1.0 844:0.7499999421002911 947:1.0 
0.0 0.07836670614687292 61:0.7499999547523951 504:1.0 543:1.0 580:1.0 581:1.0 
0.0372006746753532 0.0 773:1.0 902:1.0 937:1.0 
0.032413392804300896 0.5 129:0.75 908:1.0 
0.0 0.5 563:1.0 948:1.0 
0.4644064470472536 0.33462767907274893 42:0.6666666424683871 214:1.0 
0.35802348126842326 0.5 353:1.0 793:1.0 871:1.0 948:1.0 952:1.0 
0.5 0.39462367814414384 22:0.6666666666666667 252:0.7500000069727178 478:1.0 783:1.0 953:1.0 
0.0 0.47264222694523284 17:1.0 183:1.0 
0.2683243580849125 0.12710085301981636 36:0.7499999999999999 44:0.5555555457923671 346:0.7499999436517816 908:1.0 
0.0 0.5 34:0.6000000364465876 94:0.625 100:0.7499999585006586 178:0.6249999611166113 573:1.0 903:1.0 
0.0 0.2779267232487343 126:1.0 503:1.0 
0.5 0.5 41:0.6250000093528661 206:0.6666666666666667 371:0.7499999904450566 955:1.0 
0.02380223792274537 0.5 203:1.0 
0.04218086571086128 0.5 702:0.7499999493170039 
0.0 0.5 41:0.6250000093528661 628:1.0 
0.4783989599926687 0.5 144:1.0 381:1.0 511:1.0 959:0.7499999900994392 
0.0 0.10149186455933637 22:0.6666666666666667 116:0.7499999748570649 137:1.0 616:1.0 1202:1.0 
0.0 0.4661424129219725 73:0.6666666178735701 125:1.0 179:0.7499999906715955 311:0.7499999689729333 472:0.6666666851746222 509:0.6000000224325731 595:1.0 910:1.0 1254:1.0 
0.5 0.5 
0.4100502579309022 0.5 27:0.7499999558945597 298:1.0 496:1.0 814:1.0 1298:1.0 
0.0 0.4381466130825786 22:0.6666666666666667 217:1.0 306:1.0 755:0.7499999748570649 
0.1660620952501823 0.0 34:0.6000000364465876 36:0.7499999999999999 57:1.0 125:1.0 314:1.0 710:1.0 964:1.0 
0.0 0.5 514:0.5208333351407508 624:1.0 625:1.0 626:1.0 677:0.749999938396804 680:1.0 681:1.0 682:1.0 771:1.0 
0.0 0.38612672078569343 603:1.0 615:1.0 953:1.0 
0.36031477891772384 0.5 159:0.749999984697561 342:0.7499999739416352 437:0.6666666492046776 965:1.0 
0.0 0.40075172085232413 43:0.6666666793103067 174:0.6666666507593287 354:0.66666669698848 669:0.6666667224557367 691:0.5 790:1.0 
0.23266022078871118 0.0 41:0.6250000093528661 106:1.0 245:0.7499999601981179 289:0.6666666492046776 345:1.0 346:0.7499999436517816 485:0.7499999689729333 671:1.0 966:1.0 967:1.0 1589:1.0 
0.2952011762016536 0.09358871799368658 326:0.7499999703443155 459:1.0 570:1.0 944:1.0 
0.0 0.45688656991548166 4:0.7499999747860352 22:0.6666666666666667 41:0.6250000093528661 174:1.0 258:0.5714285521091738 381:1.0 437:0.6666666492046776 488:1.0 633:1.0 818:1.0 888:1.0 889:1.0 968:1.0 1491:1.0 
0.5 0.5 41:0.6250000093528661 113:1.0 280:0.7499999572198809 895:1.0 969:0.7499999586036538 
0.13391464994892438 0.0 11:1.0 354:1.0 449:1.0 682:1.0 687:1.0 970:1.0 971:1.0 
0.0 0.0977597514941695 73:0.6666666178735701 562:0.7499999999999999 577:1.0 1559:0.7499999493170039 
0.5 0.0 77:1.0 100:0.7499999585006586 187:1.0 209:1.0 295:0.7499999675805721 1142:1.0 
0.16351610504944378 0.5 27:0.7499999558945597 42:0.6666666424683871 66:0.75 113:1.0 778:1.0 
0.0 0.5 452:0.7499999772095168 471:1.0 735:1.0 
0.5 0.5 972:1.0 
0.5 0.5 258:0.38095238610422033 343:0.6666666982216839 508:0.6666667181330785 689:1.0 
0.3806491050140602 0.44556026674880905 113:0.6666666666666666 127:0.6666666900440184 315:1.0 371:0.5000000191098867 495:0.6666666666666666 510:0.49999998635343135 592:0.6666667088436418 654:0.6666666882101472 843:0.6666667088436418 973:0.6666667224557367 1425:0.6666667181330785 
0.39998572547037786 0.2687787486833974 85:0.7499999850310722 277:0.749999978464584 295:0.7499999675805721 498:1.0 737:1.0 854:0.75 857:1.0 
0.11027320435253578 0.0 341:1.0 616:1.0 725:1.0 935:1.0 
0.0 0.29295769851187614 336:1.0 
0.22851564517629872 0.5 459:1.0 
0.0 0.5 27:0.7499999558945597 47:0.7499999645006074 
0.03233988329711522 0.0 42:0.6666666424683871 370:0.75 974:1.0 
0.5 0.12542341025776638 691:0.7500000123533026 809:1.0 975:1.0 
0.0 0.5 240:1.0 241:1.0 491:0.7499999675805721 562:0.7499999999999999 
0.40675484020151254 0.5 402:0.7499999643538849 976:1.0 
0.2758902134689617 0.23617226665022345 5:0.6666666802688349 15:0.5 61:1.0 123:0.4000000374312154 219:0.5 381:0.6666666999517749 411:0.6666666666666666 519:0.5 629:0.6666667034634209 1482:0.6666666957272209 
0.4216020385237309 0.0 26:0.7499999598487744 27:0.7499999558945597 129:0.75 245:0.7499999601981179 422:0.749999939408966 553:0.7500000000000001 559:1.0 954:1.0 
0.12162703589132602 0.0440454409867788 26:0.7499999598487744 55:0.6666666492046776 152:1.0 397:1.0 568:0.7499999778996701 713:1.0 855:1.0 943:1.0 979:1.0 
0.17251595507875536 0.43705695409565565 134:1.0 430:1.0 550:1.0 890:0.7500000219170877 
0.0 0.3908597799896623 69:0.7499999708681762 448:1.0 618:1.0 
0.014970271702808131 0.5 482:1.0 
0.12216845665823906 0.5 42:0.8888888808227957 200:0.6666666890159431 307:0.6666667098549147 341:0.6666666666666666 509:0.8000000672977192 981:0.5000000118622737 
0.07904840584078437 0.40542616947534155 98:0.6666666793422585 634:1.0 
0.3626973074629578 0.3337801324153553 113:1.0 820:0.749999939408966 
0.5 0.5 
0.0679336523991571 0.0 2:0.6250000042063767 94:0.625 350:0.7499999905731904 416:0.7499999408294526 514:0.5208333351407508 912:1.0 968:1.0 
0.5 0.5 123:0.3 136:0.8571428865048757 983:0.5 1274:0.5 
0.0 0.47451841020986263 22:0.6666666666666667 922:1.0 
0.0 0.5 6:1.0 123:0.6 308:0.75 321:0.6666666336534771 472:0.6666666851746222 
0.0323345688725869 0.0 32:0.7499999747860352 576:0.7499999999999999 643:1.0 985:1.0 986:1.0 
0.3213015027199501 0.15248323707362735 146:1.0 147:0.749999984697561 258:0.5714285521091738 381:1.0 596:1.0 603:1.0 967:1.0 
0.14107490263315944 0.3093628195154813 323:1.0 324:1.0 363:0.7499999851473375 
0.28589235852916706 0.5 22:0.6666666666666667 23:0.7499999516007434 159:0.749999984697561 222:1.0 342:0.7499999739416352 354:1.0 892:1.0 
0.0 0.1898348526800654 267:1.0 274:1.0 
0.0 0.5 10:0.6666666666666666 200:1.0 291:0.6666666506806793 363:0.7499999851473375 379:1.0 388:0.7499999493170039 705:1.0 
0.0 0.5 176:1.0 
0.31168005491573053 0.5 41:0.6250000093528661 262:1.0 378:1.0 719:1.0 
0.1267738636375489 0.050946758555009006 154:0.6666667181330785 206:0.44444447950847527 236:0.6666666666666666 370:0.5 739:0.6666666781935748 741:1.0 
0.0 0.5 14:1.0 27:0.7499999558945597 313:1.0 894:1.0 
0.0 0.5 1376:1.0 
0.28716341889065705 0.2836130243655549 85:1.0 297:0.5 865:0.6666667224557367 989:0.5000000112628881 1186:0.6666666890159431 1565:0.6666667181330785 
0.0 0.04588523030889487 100:0.7499999585006586 123:0.6 499:0.7499999421002911 512:1.0 875:0.7499999686186495 
0.0 0.5 105:0.6666667007348507 632:1.0 1429:0.6666666957272209 
0.004309451354209126 0.08613135294181568 235:0.75 279:1.0 880:1.0 881:1.0 882:1.0 883:1.0 884:1.0 885:1.0 942:1.0 988:1.0 
0.0 0.5 256:0.749999984697561 774:1.0 
0.5 0.15931116121130742 22:0.6666666666666667 40:0.75 364:0.7499999778996701 589:0.749999978464584 603:1.0 725:1.0 992:1.0 
0.0 0.5 6:1.0 34:0.6000000364465876 345:1.0 402:0.7499999643538849 783:1.0 808:1.0 
0.054530158683910784 0.2832072227334664 430:1.0 1570:1.0 1626:0.7499999493170039 
0.1692267067745772 0.2074542614725719 47:0.7499999645006074 137:1.0 138:0.7499999999999999 416:0.7499999408294526 748:0.749999980836647 921:1.0 926:1.0 
0.0 0.03931835325613351 47:0.7499999645006074 73:0.6666666178735701 123:0.6 652:1.0 878:1.0 928:1.0 1302:1.0 
0.48578948806109173 0.24794520204571147 109:0.6249999752712823 311:0.7499999689729333 588:1.0 683:0.7500000123533026 
0.07265078550686054 0.2668978711680236 128:1.0 142:1.0 805:1.0 
0.5 0.4264586572640968 56:0.7499999748570649 69:0.7499999708681762 245:0.7499999601981179 290:0.75 312:0.6249999811468306 460:0.6666666828403788 572:0.75 656:1.0 658:1.0 767:1.0 943:1.0 
0.5 0.5 
0.006331887020006562 0.0 69:0.7499999708681762 310:1.0 313:1.0 409:1.0 410:1.0 487:0.6666666666666666 
0.014295817933704257 0.0 492:0.75 526:1.0 615:1.0 994:1.0 
0.5 0.06563063908690606 2:0.6250000042063767 22:0.6666666666666667 1137:1.0 
0.015077890918246168 0.18886487580031583 76:0.6666666785092171 116:1.0 117:0.6666666882101472 432:0.6666666786561575 
0.0 0.10107830744235383 13:1.0 24:0.4999999860545643 109:0.41666666117139606 861:0.666666726735407 
0.0 0.5 47:0.7499999645006074 546:0.749999967794279 
0.10321434324608232 0.0 92:0.7499999739416352 94:0.625 184:0.749999978464584 245:0.7499999601981179 256:0.749999984697561 337:0.7500000085681872 379:1.0 395:1.0 396:1.0 513:0.7499999514132242 514:0.5208333351407508 609:1.0 771:1.0 937:1.0 996:1.0 
0.31437406665748063 0.0 470:0.6666666492046776 887:1.0 902:1.0 997:1.0 
0.09547804494620211 0.5 42:0.6666666424683871 230:0.7499999586036538 658:1.0 858:1.0 896:1.0 
0.0 0.30509615829591114 313:1.0 366:1.0 384:1.0 509:0.6000000224325731 597:1.0 
0.5 0.5 525:0.7499999748570649 
0.0 0.49228235009928223 98:0.6666666793422585 100:0.7499999585006586 256:0.749999984697561 488:1.0 684:1.0 
0.5 0.5 16:0.666666683682305 
0.061380571474795156 0.0 55:0.6666666492046776 66:0.75 122:1.0 129:0.75 234:0.749999978464584 343:1.0 402:0.7499999643538849 432:1.0 508:1.0 648:0.8333332900403243 652:1.0 712:0.7499999865118231 847:1.0 1211:1.0 
0.0 0.4632957001769297 22:0.6666666666666667 99:0.666666675734779 184:0.749999978464584 801:1.0 
0.0 0.5 121:1.0 322:0.7499999361250577 386:1.0 497:1.0 
0.5 0.5 71:1.0 343:0.6666666982216839 553:0.5 740:0.6666667059561432 
0.0 0.06549480124002603 659:1.0 
0.04646934346731112 0.21788603469865075 121:1.0 347:0.7499999865118231 366:1.0 378:1.0 684:1.0 1142:1.0 
0.18273990034114493 0.0 71:0.7499999857759053 337:0.7500000085681872 403:0.749999967794279 
0.17957402583636123 0.5 337:0.7500000085681872 399:1.0 1543:1.0 
0.1631632979795729 0.4564738406137454 354:1.0 886:0.7499999737004802 1000:0.5714285158070518 
0.0 0.4685378372456064 144:1.0 559:1.0 647:0.7499999748570649 
0.0 0.5 26:0.7499999598487744 38:0.625 68:0.6666666423359102 94:0.625 595:1.0 962:1.0 1002:1.0 1542:1.0 
0.23893988719097634 0.0 20:0.75 145:0.7499999436517816 458:1.0 779:0.7500000123533026 
0.5 0.0 478:1.0 486:1.0 755:0.7499999748570649 
0.0 0.08208713669066392 217:1.0 306:1.0 509:0.6000000224325731 511:1.0 
0.5 0.5 
0.5 0.38095342954253436 219:0.749999967794279 466:0.6 491:0.7499999675805721 553:0.7500000000000001 
0.16016773440484589 0.0 174:1.0 207:1.0 245:0.7499999601981179 308:0.75 347:0.7499999865118231 610:1.0 941:0.7499999857759053 1003:1.0 
0.0 0.01066665906980697 22:0.6666666666666667 218:1.0 245:0.7499999601981179 804:0.7499999421002911 
0.0 0.5 752:1.0 913:1.0 
0.0 0.5 27:0.7499999558945597 41:0.6250000093528661 48:0.6666666666666666 91:0.7499999658879616 235:0.75 308:0.75 579:0.6000000152764817 967:1.0 
0.0 0.31342471782678927 14:1.0 210:1.0 293:0.7499999772095168 945:1.0 962:1.0 
0.3326754932629949 0.43041232184942935 573:1.0 
0.1294908292361831 0.28228150471645586 449:1.0 682:1.0 
0.005791070789720696 1.8379927809136225E-4 33:0.6249999811468306 87:0.7499999547523951 88:0.7500000219170877 89:0.7500000069727178 90:0.7499999865118231 91:0.7499999658879616 246:0.7499999675805721 1004:1.0 1005:1.0 
0.0 0.42633274020580536 509:0.6000000224325731 576:0.7499999999999999 
0.0 0.3805356115197841 22:0.6666666666666667 23:0.7499999516007434 145:0.7499999436517816 334:1.0 399:1.0 
0.26860340240775504 0.27956022304630335 99:0.33333332426522105 169:0.37499999634715203 610:0.5 784:0.5 1003:0.5 1008:1.0 1009:1.0 1010:0.5000000158163657 1478:0.5 
0.0 0.4050023907495644 743:1.0 744:1.0 
0.5 0.5 
0.0 0.5 22:0.4444444444444444 69:0.5000000194212159 108:0.6666666799723805 144:0.666666698090058 169:1.0 246:0.4999999870322288 800:0.6666667088436418 896:0.6666667088436418 
0.0 0.5 492:0.75 
0.023660063742707176 0.5 1371:1.0 
0.0 0.5 129:0.375 330:0.5000000158163657 341:0.5 370:0.37499998399131385 509:0.9000000476692178 704:0.49999998352893 786:0.5 
0.0 0.07193808423362873 43:1.0 708:1.0 
0.0 0.0971058443086869 94:0.8333333877878334 109:0.41666666117139606 350:0.4999999811463808 1011:0.666666726735407 
0.030102492675566514 0.0 10:0.6666666666666666 17:1.0 500:1.0 791:1.0 905:1.0 1411:1.0 
0.0 0.5 22:0.6666666666666667 40:0.75 
0.5 0.5 34:0.8000000789676067 100:0.5 112:0.4166666877584401 129:0.5 254:0.5 270:0.6666666957272209 715:0.6666666890159431 1190:0.6666666556859534 
0.0 0.5 448:1.0 
0.0 0.4111090680430666 20:0.75 100:0.7499999585006586 174:1.0 371:0.7499999904450566 650:1.0 657:1.0 723:0.7499999421002911 
0.0 0.5 248:0.7499999675805721 1012:1.0 1013:1.0 
0.0 0.020969980709161205 69:1.0 311:0.5 320:0.6666667083095656 363:0.5 488:0.6666666666666666 714:0.6666667181330785 754:0.666666726735407 1014:0.666666726735407 
0.0 0.5 22:0.6666666666666667 68:0.6666666423359102 602:0.7499999514132242 629:1.0 773:1.0 
0.44415917404398375 0.5 373:1.0 
0.5 0.5 144:1.0 826:1.0 
0.0 0.5 109:0.6249999752712823 450:0.7500000123533026 740:1.0 1015:1.0 1298:1.0 
0.0 0.5 123:0.2000000149724862 509:1.0 972:0.3333333745064629 
0.4244870609721332 0.15456154868566166 130:1.0 134:1.0 299:0.7500000123533026 701:1.0 963:1.0 
0.5 0.5 36:0.5 68:0.8888889051093931 146:0.6666667181330785 174:0.6666666507593287 207:0.6666667114914946 438:0.6666666781935748 854:0.5 969:0.5 1593:0.6666667088436418 
0.07296732343105597 0.0 60:0.6666667068867623 61:0.5 153:0.6666667181330785 435:0.5000000147335533 733:0.6666667059561432 899:1.0 931:0.6666667088436418 975:0.666666726735407 1016:0.6666667224557367 1204:1.0 1479:0.6666667181330785 
0.0 0.5 22:0.6666666666666667 24:0.7500000069727178 41:0.6250000093528661 340:1.0 1412:1.0 
0.0 0.5 443:1.0 
0.0 0.011544203148623351 241:1.0 291:0.6666666506806793 665:1.0 681:1.0 863:0.7499999686186495 1159:1.0 
0.008702406624657162 0.0 381:1.0 482:1.0 517:1.0 736:1.0 905:1.0 
0.5 0.29026691203599386 73:0.6666666178735701 155:1.0 662:0.7499999686186495 
0.5 0.5 32:1.0 42:0.44444444041139786 65:0.5 157:0.666666726735407 222:0.6666666799723805 233:0.5 391:0.4444444689756139 395:0.6666667167539756 1017:0.6666667181330785 1176:0.666666726735407 
0.0 0.5 22:0.6666666666666667 24:0.7500000069727178 647:0.7499999748570649 
0.0 0.5 254:0.2999999935588558 509:0.9600000863654063 576:0.3000000063652006 972:0.4000000308798472 
0.0 0.5 167:1.0 294:1.0 1018:0.6666666492046776 
0.0 0.29556472642379783 77:1.0 133:0.5714285714285715 788:0.6666666815661846 834:1.0 1010:1.0 1015:1.0 1019:1.0 
0.26301878777572385 0.0 20:0.75 40:0.75 47:0.7499999645006074 87:0.7499999547523951 765:0.7499999865118231 
0.0 0.5 345:1.0 371:0.7499999904450566 416:0.7499999408294526 665:1.0 
0.21180965310104657 0.5 22:0.6666666666666667 144:1.0 168:0.6 389:1.0 648:0.8333332900403243 
0.2216777358849469 0.5 207:1.0 304:1.0 319:1.0 948:1.0 
0.3071064088921937 0.4252168114131396 26:0.5 38:0.41666669468218415 121:0.6666667167539756 123:0.4000000374312154 254:1.0 315:0.49999998302525245 899:0.4999999870322288 935:0.6666666787969505 1020:0.5000000209209003 
0.0 0.10610757146043849 311:0.7499999689729333 350:0.7499999905731904 862:1.0 912:1.0 
0.44241704987034286 0.5 26:0.7499999598487744 42:0.6666666424683871 241:1.0 916:0.6000000364136853 
0.15718370754638686 0.5 553:0.37500000000000006 636:0.5 810:0.9000000077556528 
0.0 0.237712603226859 629:1.0 630:1.0 824:1.0 
0.12791375780807768 0.5 379:1.0 918:1.0 970:1.0 
0.0 0.5 108:1.0 473:1.0 
0.24864754873588052 0.5 27:0.7499999558945597 42:0.6666666424683871 100:0.7499999585006586 308:0.75 522:1.0 
0.0 0.5 10:0.6666666666666666 279:1.0 492:0.75 989:0.7499999493170039 
0.23528249888605748 0.5 108:1.0 343:1.0 473:1.0 1023:1.0 
0.5 0.5 427:0.6666666846739631 
0.0 0.5 397:1.0 524:1.0 
0.0 0.3705728744606692 59:1.0 317:1.0 425:1.0 568:0.7499999778996701 921:1.0 936:1.0 
0.0 0.3396188591158229 107:1.0 531:1.0 1024:1.0 
0.0887341306330275 0.5 20:0.75 123:0.6 866:1.0 
0.0 0.5 297:0.7499999689729333 536:0.7499999493170039 
0.1826549358895172 0.5 112:0.6249999841811699 418:1.0 419:1.0 589:0.749999978464584 909:1.0 1369:1.0 
0.5 0.5 
0.0 0.5 68:0.6666666423359102 170:0.7499999658835783 311:0.7499999689729333 601:0.749999980836647 1025:1.0 
0.0 0.5 22:0.6666666666666667 
0.3903373056666164 0.3709471659821686 75:0.749999939408966 252:0.7500000069727178 574:1.0 576:0.7499999999999999 913:1.0 1026:0.7500000123533026 
0.3068840231105171 0.15689181570501037 775:1.0 796:1.0 1025:1.0 
0.2853593915593053 0.5 121:1.0 1027:1.0 
0.0 0.26725197573240533 98:0.6666666793422585 152:1.0 762:1.0 774:1.0 872:1.0 1011:1.0 
0.0 0.5 482:1.0 810:0.5999999922443471 1022:1.0 
0.5 0.5 
0.5 0.5 
0.30236883483508137 0.0 123:0.4000000374312154 478:0.6666666799723805 568:1.0 
0.5 0.5 28:1.0 569:1.0 817:0.749999978464584 
0.0 0.20017754162300763 599:0.749999984697561 791:1.0 958:1.0 990:1.0 991:1.0 
0.0 0.219192394702283 708:1.0 739:1.0 740:1.0 785:1.0 
0.0 0.5 153:1.0 
0.0 0.5 73:0.6666666178735701 179:0.7499999906715955 
0.18889148996905145 0.3301020027952766 76:1.0 98:0.6666666793422585 399:1.0 504:1.0 517:1.0 582:0.6666666580824041 737:1.0 1028:1.0 1029:0.7499999675805721 1451:1.0 
0.0 0.4499320607723217 94:0.8333333877878334 350:0.4999999811463808 730:0.666666726735407 
0.0 0.4806215537000275 27:0.7499999558945597 112:0.6249999841811699 245:0.7499999601981179 423:1.0 568:0.7499999778996701 666:1.0 964:1.0 
0.0 0.49687118688218246 13:1.0 94:0.41666671023026675 107:0.6666667059561432 249:0.6666667007348507 315:0.49999998302525245 452:0.5000000151936554 471:0.6666666900440184 586:0.6666666957272209 963:0.6666667181330785 977:1.0 
0.0 0.5 399:1.0 
0.5 0.5 381:1.0 
0.29717840556430164 0.5 138:0.7499999999999999 298:1.0 370:0.75 704:1.0 1465:1.0 
0.0740532445572188 0.0 13:0.7500000083198824 45:1.0 125:1.0 337:0.7500000085681872 491:0.7499999675805721 787:1.0 803:1.0 982:1.0 
0.49211677588625125 0.5 6:1.0 68:0.6666666423359102 233:0.7499999586036538 423:1.0 485:0.7499999689729333 607:1.0 729:0.6250000150895244 827:1.0 1156:1.0 1625:1.0 
0.0 0.5 381:0.5000000249638311 509:0.9000000476692178 581:0.5 
0.0 0.03485464010748871 31:0.6666666418747821 524:1.0 526:1.0 994:1.0 995:1.0 1030:1.0 
0.0 0.5 336:0.666666726735407 466:0.4 558:1.0 1031:0.6666666666666667 1032:0.6666666785092171 
0.0 0.16450927445713148 23:0.49999998064029744 101:1.0 214:0.6666666666666666 299:0.5 849:0.6666666786561575 
0.4658176127778432 0.4615535518984733 27:0.7499999558945597 553:0.7500000000000001 665:1.0 
0.0 0.2557803997847255 390:0.6666666556859534 391:0.4444444689756139 828:0.777777845827812 
0.11023433176852286 0.2162649680551577 245:0.7499999601981179 451:1.0 452:0.7499999772095168 453:1.0 
0.5 0.5 
0.0 0.07487083996738403 100:0.7499999585006586 123:0.6 380:0.6666666580824041 478:1.0 629:1.0 717:0.55555556443666 793:1.0 858:1.0 923:0.7499999586036538 944:1.0 1015:1.0 1033:1.0 
0.0 0.5 1034:1.0 
0.17097681722771083 0.4710383952953922 22:0.6666666666666667 116:0.7499999748570649 221:1.0 321:0.6666666336534771 401:1.0 642:1.0 654:1.0 
0.0 0.5 168:0.6 322:0.7499999361250577 
0.3046144522108588 0.5 13:0.7500000083198824 
0.0 0.2503474433829202 69:0.7499999708681762 113:1.0 322:0.7499999361250577 526:1.0 1035:0.7499999586036538 
0.041989710383232154 0.5 875:0.7499999686186495 
0.0 0.5 121:0.3333333583769878 242:0.25 1000:0.9523808596784197 
0.3275219264010054 0.0 364:0.7499999778996701 731:1.0 851:1.0 886:0.7499999737004802 
0.0 0.251832764903665 398:1.0 716:1.0 
0.3775642011503508 0.0 69:0.5000000194212159 77:0.6666666666666666 155:0.6666666418747812 188:0.5 245:0.5 267:0.6666666900440184 422:0.4999999757635864 476:1.0 477:0.666666726735407 485:0.5 987:0.6666666781935748 1039:1.0 1365:0.6666666787969505 
0.2788005835235573 0.15706782113860607 36:0.7499999999999999 362:0.7499999917233263 557:1.0 712:0.7499999865118231 921:1.0 923:0.7499999586036538 1026:0.7500000123533026 
0.5 0.5 
0.14266663536564247 0.5 311:0.7499999689729333 1038:0.7499999686186495 1605:1.0 
0.0 0.3962887232195716 435:0.7499999778996701 470:0.6666666492046776 
0.0886126554336603 0.3808844534338494 34:0.8000000789676067 206:0.8888889590169505 293:0.5000000151936554 315:0.49999998302525245 752:0.6666666556859534 774:0.6666666900440184 775:0.6666666556859534 960:0.666666726735407 
0.35638928345948157 0.0 3:1.0 12:1.0 168:0.6 206:0.6666666666666667 807:1.0 1040:1.0 1170:1.0 
0.0 0.5 115:0.6666667181330785 349:0.6666666890159431 466:0.8 
0.30785898681292717 0.5 73:0.44444444851053583 212:0.6666667088436418 403:0.5 466:0.8 528:0.6666666556859534 594:0.6666666900440184 608:0.500000019297824 633:0.6666666666666667 694:0.5 733:0.6666667059561432 960:0.666666726735407 1553:0.6666667088436418 
0.0 0.02374231830751599 184:0.749999978464584 196:1.0 350:0.7499999905731904 453:1.0 
0.0 0.022053169108355877 43:1.0 187:1.0 209:1.0 248:0.7499999675805721 459:1.0 708:1.0 721:1.0 1012:1.0 1025:1.0 1042:1.0 
0.5 0.5 33:0.6249999811468306 
0.0 0.5 283:0.7499999857759053 1017:1.0 1043:1.0 1183:0.7499999658835783 
0.0 0.5 112:0.4166666877584401 176:0.5 233:1.0 254:0.5 279:0.6666666982216839 289:0.444444458996102 402:0.5 495:0.6666666666666666 572:0.5 772:0.4444444513066323 783:0.6666667167539756 808:0.6666667181330785 
0.0 0.40526694003535035 26:0.7499999598487744 34:0.6000000364465876 98:0.6666666793422585 561:1.0 687:1.0 962:1.0 1044:1.0 
0.0 0.1970718534985145 444:0.7499999436517816 806:1.0 
0.0 0.5 218:1.0 
0.0 0.5 830:1.0 
0.04608706819987113 0.0 66:0.75 109:0.6249999752712823 138:0.7499999999999999 254:0.749999967794279 540:0.7499999421002911 562:0.7499999999999999 656:1.0 791:1.0 940:1.0 1046:1.0 
0.0 0.2559620764467448 449:1.0 681:1.0 1044:1.0 
0.03515999631913413 0.0 41:0.6250000093528661 370:0.75 479:1.0 
0.0 0.5 370:0.75 739:1.0 740:1.0 
0.0 0.12697367623502817 370:0.75 428:1.0 
0.010899128024327057 0.0 956:1.0 1536:0.7499999421002911 
0.12444090164737917 0.5 87:0.7499999547523951 162:1.0 163:1.0 707:0.7499999586036538 
0.4409523281718384 0.5 123:0.6 159:0.749999984697561 315:0.7500000254621214 1032:1.0 
0.0 0.5 22:0.6666666666666667 73:0.6666666178735701 322:0.7499999361250577 720:1.0 
0.0 0.03471458857114772 4:0.7499999747860352 5:1.0 26:0.7499999598487744 283:0.7499999857759053 379:1.0 445:1.0 610:1.0 1050:0.7499999857759053 
0.0 0.291207267991752 66:0.75 286:1.0 671:1.0 
0.24884112571247743 0.5 956:1.0 1589:1.0 
0.0 0.3988068116224075 814:1.0 
0.2583886771180029 0.5 207:1.0 510:0.7499999658835783 1529:1.0 
0.0 0.5 71:0.7499999857759053 
0.0 0.2828311924208977 300:1.0 1051:1.0 
0.29329638292969146 0.4629851105179373 4:0.7499999747860352 1166:0.7499999673068779 
0.022946478538459995 0.5 307:1.0 354:1.0 
0.2596705037831336 0.04356828217960785 269:1.0 366:1.0 389:1.0 430:1.0 483:0.749999939408966 602:0.7499999514132242 648:0.8333332900403243 1054:1.0 1148:1.0 1525:1.0 
0.5 0.5 297:0.7499999689729333 487:0.6666666666666666 
0.0 0.10738694212030041 91:0.7499999658879616 
0.0 0.5 267:0.6666666900440184 487:0.8888889066298408 
0.0 0.23230203262866747 308:0.75 320:1.0 354:1.0 
0.37627053681093187 0.2992297254415901 40:0.5 61:1.0 177:0.5 250:0.6666666666666666 313:0.6666666418747812 350:0.4999999811463808 485:0.5 562:0.5 587:0.5000000165533475 764:0.5000000118622737 855:0.6666666890159431 957:0.666666726735407 
0.5 0.0 92:0.7499999739416352 123:0.6 
0.0 0.09002037022785507 110:1.0 235:0.75 380:0.6666666580824041 792:1.0 
0.5 0.5 76:1.0 98:0.6666666793422585 517:1.0 582:0.6666666580824041 737:1.0 1028:1.0 1029:0.7499999675805721 
0.0 0.5 61:0.7499999547523951 62:1.0 500:1.0 1032:1.0 1042:1.0 
0.0 0.5 764:1.0 
0.03598132565333229 0.0 337:0.7500000085681872 352:1.0 473:1.0 773:1.0 998:1.0 
0.5 0.5 27:1.0 39:0.6666666882101472 245:0.5 513:0.5 600:0.6666666556859534 1057:0.6666666666666666 1475:0.6666667181330785 
0.5 0.2447253571397591 296:1.0 607:1.0 916:0.6000000364136853 1058:1.0 
0.0 0.483341389810015 221:1.0 909:1.0 
0.09843658579163234 0.5 51:0.7499999748570649 188:0.749999984697561 467:1.0 487:0.6666666666666666 525:0.7499999748570649 793:1.0 969:0.7499999586036538 1301:0.7499999493170039 
0.25403876606070824 0.0 60:0.6666667068867623 113:0.6666666666666666 345:0.6666666785092171 385:1.0 456:0.44444444913077474 577:0.6666667059561432 747:0.6666666785092171 909:0.6666666785092171 1059:0.666666726735407 
0.0 0.5 4:0.7499999747860352 249:1.0 1439:1.0 
0.30986467185493327 0.0 69:0.7499999708681762 72:1.0 179:0.7499999906715955 456:0.6666666315191893 901:1.0 952:1.0 953:1.0 974:1.0 
0.0 0.29312355266033285 143:0.6249999696332647 354:1.0 
0.2988147015311502 0.5 34:0.6000000364465876 219:0.749999967794279 519:0.7499999831074771 595:1.0 916:0.6000000364136853 1563:0.749999980836647 
0.01474051821310207 0.5 41:0.6250000093528661 77:1.0 341:1.0 497:1.0 
0.008756280450426526 0.2299001070402096 10:0.6666666666666666 490:1.0 1381:1.0 
0.5 0.5 106:1.0 187:1.0 1206:1.0 
0.027707096509433017 0.22779172609886567 28:1.0 68:0.6666666423359102 217:1.0 285:1.0 301:1.0 947:1.0 1058:1.0 1059:1.0 1180:1.0 
0.19848518522113873 0.5 354:1.0 1260:1.0 
0.0 0.5 61:0.5 327:0.6666666666666666 340:0.6666667007348507 390:0.6666666556859534 391:0.4444444689756139 445:0.6666666418747812 601:0.5000000127755687 617:1.0 1061:0.6666666882101472 1288:0.6666666882101472 1418:0.5 
0.0 0.5 6:1.0 123:0.6 854:0.75 966:1.0 
0.0 0.5 997:1.0 
0.0 0.5 322:0.7499999361250577 
0.0 0.3888342664325064 143:0.6249999696332647 207:1.0 456:0.6666666315191893 509:0.6000000224325731 695:0.7499999857759053 961:1.0 
0.38286976444590726 0.0 35:0.6666666900440184 118:0.4444444692769743 207:0.6666667114914946 290:0.5 435:1.0 555:0.6666667088436418 1062:0.666666726735407 1306:0.6666667181330785 
0.3595221838069229 0.23395273871315983 15:0.5 26:0.5 206:0.44444447950847527 359:0.6666666666666666 475:1.0 775:0.6666666556859534 923:1.0 1026:1.0 1063:0.6666666957272209 1311:0.6666666957272209 
0.0 0.5 523:1.0 779:0.7500000123533026 1009:1.0 
0.3822381386795051 0.0 32:0.7499999747860352 67:1.0 403:0.749999967794279 629:1.0 
0.09804051189889607 0.0 2:0.6250000042063767 724:1.0 1053:1.0 
0.0667947340489008 0.08952547018909092 956:1.0 1536:0.7499999421002911 
0.023679459331926212 0.5 1037:1.0 
0.014699248174151932 0.5 235:0.75 1273:1.0 
0.0 0.5 98:0.6666666793422585 511:1.0 
0.5 0.0 145:0.7499999436517816 406:0.7500000083198824 500:1.0 548:0.6666666666666666 
0.45151213102606197 0.4233803165459128 160:1.0 
0.12581401389707975 0.5 6:1.0 681:1.0 838:1.0 
0.11955853327425772 0.5 6:1.0 22:0.6666666666666667 41:0.6250000093528661 206:0.6666666666666667 207:1.0 544:1.0 
0.0 0.5 22:0.6666666666666667 
0.0 0.5 924:0.7499999703443155 
0.1428565248167881 0.5 402:0.7499999643538849 1065:1.0 
0.007206478885530643 0.11595161258885604 29:0.5 85:0.3749999925155361 104:0.5 689:0.37499999257366873 772:1.0 906:0.5000000158163657 907:0.5 1029:0.37499998379028604 1066:0.37499998379028604 1067:1.0 1197:0.5000000158163657 1281:0.5 
0.09764903347986795 0.017602014593665564 211:0.7499999436517816 1053:1.0 
0.0 0.5 27:0.7499999558945597 511:1.0 1068:1.0 
0.18891492687545705 0.5 42:0.6666666424683871 96:1.0 123:0.6 133:0.5714285714285715 151:0.7499999778996701 514:0.5208333351407508 535:1.0 786:1.0 878:1.0 1013:1.0 1421:1.0 
0.02359389106414956 0.23205577058403315 303:1.0 
0.13798879223204827 0.5 43:1.0 934:1.0 
0.5 0.5 103:1.0 406:0.7500000083198824 
0.0 0.5 132:0.5 509:0.9000000476692178 
0.0 0.5 168:0.6 639:1.0 
0.5 0.0 34:0.6000000364465876 38:0.625 42:0.6666666424683871 70:0.7499999673068779 103:1.0 337:0.7500000085681872 553:0.7500000000000001 1043:1.0 
0.0 0.045980822072875724 5:0.6666666802688349 48:0.44444446715656716 311:0.5 350:0.4999999811463808 844:0.5 925:1.0 1069:0.6666667181330785 
0.07932516766297211 0.2040743500882005 599:0.749999984697561 991:1.0 1055:1.0 1056:1.0 
0.3934036020735565 0.5 437:0.6666666492046776 771:1.0 977:0.749999980836647 
0.0 0.007565164248314436 3:0.6666666942462827 94:0.41666671023026675 282:0.6666666890159431 332:0.5 496:0.6666666781935748 1070:1.0 
0.5 0.0 242:0.7499999689729333 312:0.6249999811468306 330:1.0 588:1.0 
0.04968308490052225 0.0 13:0.7500000083198824 743:1.0 869:1.0 
0.0 0.5 208:1.0 315:0.7500000254621214 
0.29573080540954555 0.0 344:0.4999999860545643 448:0.6666667114914946 558:0.4999999757635864 676:0.6666667071830824 1029:1.0 
0.5 0.5 
0.3144408647802891 0.0 54:1.0 132:1.0 262:1.0 
0.0 0.3948196270896399 83:1.0 87:0.7499999547523951 279:1.0 
0.0 0.5 40:0.75 393:1.0 402:0.7499999643538849 
0.0 0.5 147:0.749999984697561 689:0.7499999851473375 
0.0 0.1359429064767203 5:1.0 45:1.0 109:0.6249999752712823 753:1.0 
0.0046869587465691994 0.5 379:1.0 397:1.0 
0.4753847310370215 0.07176231300137256 245:0.7499999601981179 661:1.0 874:0.7499999737004802 1013:1.0 1207:0.7499999686186495 
0.0 0.5 707:0.7499999586036538 
0.07375048174103821 0.5 100:0.7499999585006586 112:0.6249999841811699 217:1.0 
0.5 0.5 390:1.0 391:0.6666666666666666 831:0.749999986677131 
0.0 0.5 23:0.7499999516007434 354:1.0 
0.0 0.5 370:0.75 
0.0 0.5 1013:1.0 
0.39972306029757476 0.5 31:0.44444441138859836 32:0.5000000168093099 63:0.6666667224557367 1050:1.0 
0.004969916190516858 0.27039566283297745 94:0.625 149:0.7499999737004802 484:0.6000000383204585 602:0.7499999514132242 805:1.0 1071:0.6666666315191893 1072:1.0 
0.0 0.3514878288237346 73:0.6666666178735701 94:0.625 322:0.7499999361250577 386:1.0 520:1.0 944:1.0 1294:1.0 
0.0 0.4597706190598321 27:0.7499999558945597 38:0.625 41:0.6250000093528661 472:0.6666666851746222 930:1.0 1073:0.749999939408966 
0.0 0.049409719260228926 235:0.75 341:1.0 
0.0 0.20282933610170525 13:0.7500000083198824 133:0.5714285714285715 306:1.0 736:1.0 
0.5 0.5 362:1.0 
0.20412541420441022 0.5 22:0.6666666666666667 191:1.0 234:0.749999978464584 379:1.0 646:0.6666666934800648 703:1.0 716:1.0 1134:1.0 1555:1.0 
0.0 0.5 354:1.0 
0.2095120168642697 0.5 54:1.0 
0.5 0.5 42:0.6666666424683871 908:1.0 
0.006697610841369967 0.0 235:0.75 279:1.0 880:1.0 881:1.0 882:1.0 883:1.0 884:1.0 885:1.0 
0.019373048186928456 0.5 742:0.6999999477450001 1559:0.7499999493170039 
0.33947862780794064 0.3303395100372036 57:1.0 350:0.7499999905731904 469:1.0 
0.0 0.16995690268897853 483:1.0 
0.04582988010514252 0.4804645406130681 129:0.5 308:0.5 327:0.6666666666666666 331:0.5000000127755687 343:0.6666666982216839 374:0.6666666666666666 416:1.0 601:0.5000000127755687 905:0.6666666786561575 1240:0.6666667181330785 
0.0 0.12424418721775238 379:1.0 448:1.0 531:1.0 
0.06516182984287364 0.5 27:0.7499999558945597 995:1.0 1641:1.0 
0.07932516768905269 0.5 599:0.749999984697561 958:1.0 1055:1.0 1056:1.0 
0.0 0.13223077492703786 73:0.6666666178735701 321:0.6666666336534771 337:0.7500000085681872 807:1.0 836:1.0 1040:1.0 
0.24666608981515953 0.32992303344994706 212:1.0 789:1.0 
0.2718695299615509 0.19058905010090746 7:0.7500000123533026 47:0.7499999645006074 484:0.6000000383204585 
0.27047196859387035 0.5 22:0.6666666666666667 632:0.7499999675805721 1074:1.0 
0.02964663441451997 0.32128804195178434 151:0.5000000147335533 169:0.5000000146113918 325:1.0 380:0.4444444387216028 558:0.4999999757635864 688:0.5 689:1.0 
0.0 0.18900248401212943 33:0.6249999811468306 87:0.7499999547523951 88:0.7500000219170877 89:0.7500000069727178 90:0.7499999865118231 91:0.7499999658879616 246:0.7499999675805721 1004:1.0 1005:1.0 
0.0 0.5 27:0.7499999558945597 932:1.0 
0.0 0.5 447:1.0 
0.17189444152207503 0.08152928342784971 42:0.6666666424683871 895:1.0 
0.0 0.5 717:1.0 
0.11120371300858135 0.0 123:0.6 381:1.0 435:0.7499999778996701 840:1.0 
0.27149424568131797 0.0 92:0.7499999739416352 174:1.0 272:1.0 574:1.0 
0.0 0.5 132:1.0 179:0.7499999906715955 561:1.0 761:1.0 947:1.0 1551:1.0 
0.02357859890885296 0.1852732181133413 334:1.0 
0.0 0.5 322:0.7499999361250577 
0.06215968183292726 0.07713043936063146 27:0.7499999558945597 92:0.7499999739416352 747:1.0 813:0.749999980836647 823:1.0 954:1.0 
0.024375602309101983 0.5 136:1.0 368:0.37499996861865076 407:0.25 941:0.18749999644397633 1069:0.25 
0.0 0.35271797893034995 267:1.0 477:1.0 
0.3868807971862391 0.5 10:0.6666666666666666 22:0.6666666666666667 98:0.6666666793422585 305:0.749999939408966 371:0.7499999904450566 982:1.0 987:1.0 1007:1.0 1479:1.0 
0.1586318199626389 0.5 278:0.749999980836647 321:0.6666666336534771 322:0.7499999361250577 585:1.0 610:1.0 
0.4569751952037826 0.38156531724092513 254:0.749999967794279 923:0.7499999586036538 990:1.0 1044:1.0 
0.5 0.5 19:1.0 47:0.5 371:1.0 439:0.6666667088436418 1149:0.6666667088436418 1288:0.6666666882101472 
0.4283366450574354 0.34470878937024374 812:1.0 938:1.0 1205:1.0 
0.03839471574015497 0.1641662852518816 397:1.0 436:1.0 763:1.0 
0.3276213134723956 0.22844043111062876 137:1.0 138:0.7499999999999999 472:0.6666666851746222 
0.3996241863912257 0.5 449:1.0 
0.01846812050696056 0.5 277:0.749999978464584 
0.22485027803351076 0.3924384955530148 33:0.6249999811468306 87:0.7499999547523951 88:0.7500000219170877 89:0.7500000069727178 90:0.7499999865118231 91:0.7499999658879616 246:0.7499999675805721 1004:1.0 1005:1.0 
0.0 0.5 26:0.7499999598487744 147:0.749999984697561 546:0.749999967794279 
0.2817727428253281 0.5 365:1.0 813:0.749999980836647 
0.0 0.5 40:0.75 1540:1.0 
0.08959303891716584 0.3960697856805526 3:0.6666666942462827 94:0.41666671023026675 282:0.6666666890159431 332:0.5 496:0.6666666781935748 1070:1.0 
0.08753951420226998 0.5 402:0.7499999643538849 799:1.0 966:1.0 1129:0.5833333002114895 1413:0.7499999673068779 
0.0 0.3925315296522482 122:1.0 709:1.0 
0.0 0.5 113:1.0 249:1.0 343:1.0 358:1.0 1023:1.0 
0.1473420496545326 0.19581765521709857 69:0.5000000194212159 92:0.5000000173722432 123:0.4000000374312154 251:1.0 579:0.4000000101843212 1077:0.6666667181330785 
0.0 0.5 849:1.0 946:1.0 
0.5 0.5 
0.04951239173881495 0.12188985839184743 40:0.75 49:1.0 133:0.5714285714285715 206:0.6666666666666667 656:1.0 804:0.7499999421002911 948:1.0 
0.5 0.3450483717375728 42:0.6666666424683871 228:1.0 533:1.0 807:1.0 1139:1.0 1234:0.7499999703443155 
0.3142125174572481 0.5 136:0.9142857730097514 
0.09138324773234831 0.0 362:0.7499999917233263 1078:1.0 
0.06257310763529694 0.5 68:0.8888889051093931 178:0.41666664074440746 1309:1.0 
0.5 0.5 4:0.7499999747860352 648:0.8333332900403243 
0.0 0.04864969154515217 47:0.7499999645006074 79:1.0 100:0.7499999585006586 
0.1820702875340765 0.10425621863638809 27:0.7499999558945597 341:1.0 607:1.0 712:0.7499999865118231 946:1.0 950:1.0 
0.28995238436478527 0.5 277:0.749999978464584 
0.0 0.5 22:0.6666666666666667 
0.0 0.14675148381120176 289:0.6666666492046776 
0.0 0.465440097445543 100:0.5 132:0.6666666942462827 144:0.666666698090058 278:1.0 846:0.6666667181330785 1321:0.6666666890159431 
0.5 0.054789928808572044 109:0.41666666117139606 124:0.6666666957272209 151:1.0 310:0.6666666781935748 312:0.41666667923544615 362:0.5000000165533475 653:0.6666666882101472 1018:0.444444458996102 
0.0 0.047199557328628496 379:1.0 452:0.7499999772095168 632:0.7499999675805721 
0.0 0.5 180:1.0 
0.02247505268336232 0.2928078606584502 131:1.0 183:1.0 339:0.7500000123533026 609:1.0 712:0.7499999865118231 1073:0.749999939408966 1548:1.0 
0.30945676107847075 0.0 64:1.0 123:0.6 279:1.0 449:1.0 463:0.7499999421002911 652:1.0 689:0.7499999851473375 1018:0.6666666492046776 
0.0 0.5 174:1.0 294:1.0 
0.08724309729769715 0.0 41:0.6250000093528661 179:0.7499999906715955 322:0.7499999361250577 374:1.0 460:0.6666666828403788 492:0.75 560:1.0 585:1.0 720:1.0 874:0.7499999737004802 929:0.6666666315191893 1001:1.0 1021:1.0 
0.0 0.5 94:0.625 
0.24395045505187335 0.5 73:0.6666666178735701 107:1.0 558:0.749999939408966 1031:1.0 
0.0 0.5 24:0.7500000069727178 217:1.0 449:1.0 509:0.6000000224325731 1000:0.5714285158070518 
0.5 0.5 88:0.5000000146113918 264:0.6666667167539756 266:0.6666666556859534 466:0.8 693:0.5000000127755687 
0.0 0.5 348:1.0 738:1.0 
0.06304428209903955 0.5 144:1.0 364:0.7499999778996701 
0.4711466965228894 0.44271380932447507 313:0.6666666418747812 492:1.0 553:0.5 594:0.6666666900440184 1167:0.6666666556859534 
0.0 0.5 13:0.7500000083198824 34:0.6000000364465876 174:1.0 
0.0 0.2900019707473593 161:1.0 350:0.7499999905731904 406:0.7500000083198824 546:0.749999967794279 927:1.0 949:1.0 
0.5 0.5 684:1.0 
0.30004909595572665 0.5 128:1.0 206:0.6666666666666667 
0.05244957462239541 0.0 69:0.7499999708681762 151:0.7499999778996701 174:1.0 239:0.7499999737004802 245:0.7499999601981179 440:1.0 863:0.7499999686186495 1001:1.0 1079:1.0 
0.0 0.5 22:0.6666666666666667 308:0.75 
0.0 0.004551073651839252 308:0.5 843:0.6666667088436418 1080:1.0 
0.024645688619720215 0.5 341:1.0 371:0.7499999904450566 944:1.0 1021:1.0 
0.5 0.5 571:1.0 708:1.0 
0.023738286231965555 0.5 828:1.0 
0.5 0.5 684:1.0 
0.12258963880649525 0.5 2:0.6250000042063767 718:1.0 821:0.7499999658835783 1557:1.0 1634:0.7499999493170039 
0.5 0.5 
0.0 0.12014979237671683 354:1.0 739:1.0 740:1.0 1641:1.0 
0.0 0.5 742:0.6999999477450001 743:1.0 
0.0 0.5 245:0.7499999601981179 
0.0 0.5 5:1.0 172:1.0 280:0.7499999572198809 713:1.0 
0.03700112665525647 0.5 132:1.0 435:0.7499999778996701 694:0.7499999999999999 1537:0.7499999421002911 
0.0 0.09029583017154842 22:0.6666666666666667 73:0.6666666178735701 184:0.749999978464584 196:1.0 229:0.749999984697561 
0.0 0.3465440558166283 73:0.44444444851053583 95:1.0 684:0.6666667059561432 815:0.6666666882101472 1013:0.6666666781935748 1571:0.6666666882101472 
0.0 0.5 62:1.0 109:0.6249999752712823 
0.0 0.35982742609712864 40:0.75 553:0.7500000000000001 581:1.0 1388:1.0 
0.5 0.5 
0.0 0.09858088320864317 6:1.0 123:0.6 745:1.0 
0.038461375611091204 0.5 6:1.0 123:0.6 1427:0.7499999493170039 
0.0 0.0050746281324830465 22:0.6666666666666667 23:0.7499999516007434 354:1.0 398:1.0 
0.5 0.5 
0.0 0.3971037276109242 94:0.625 151:0.7499999778996701 219:0.749999967794279 245:0.7499999601981179 509:0.6000000224325731 1000:0.5714285158070518 
0.5 0.5 22:0.6666666666666667 166:0.7499999673068779 941:0.7499999857759053 
0.0 0.07400055660041076 0:1.0 145:0.7499999436517816 295:0.7499999675805721 
0.5 0.0 179:0.500000018656809 236:0.6666666666666666 264:0.6666667167539756 403:1.0 
0.0 0.5 221:1.0 609:1.0 1295:1.0 
0.5 0.5 245:0.7499999601981179 312:0.6249999811468306 
0.5 0.5 22:0.6666666666666667 137:1.0 138:0.7499999999999999 
0.0 0.5 1068:1.0 
0.0 0.4023966548106681 192:0.7499999737004802 261:0.7499999658835783 
0.16450458106987012 0.3893976457684317 5:1.0 307:1.0 361:1.0 486:1.0 526:1.0 817:0.749999978464584 994:1.0 1082:1.0 
0.0 0.5 799:1.0 
0.02287381777006805 0.36326616405664275 32:0.7499999747860352 100:0.7499999585006586 129:0.75 217:1.0 486:1.0 801:1.0 886:0.7499999737004802 1031:1.0 
0.0 0.32811441566953997 10:0.6666666666666666 93:1.0 94:0.625 
0.34728209437469726 0.5 10:0.6666666666666666 123:0.6 291:0.6666666506806793 
0.3708842035784997 0.5 179:0.7499999906715955 333:1.0 
0.0 0.5 68:0.6666666423359102 122:1.0 322:0.7499999361250577 
0.0 0.2969889658443831 690:1.0 
0.1781442577587515 0.3732940379979787 38:0.41666669468218415 169:1.0 188:0.5 208:0.6666667167539756 900:0.6666666882101472 906:0.6666667088436418 1083:1.0 
0.023735517464100412 0.5 692:1.0 
0.31055884174169324 0.5 591:1.0 610:1.0 627:0.6666666820358781 821:0.7499999658835783 
0.2277348094514035 0.0 26:0.7499999598487744 129:0.75 253:1.0 279:1.0 844:0.7499999421002911 1224:1.0 
0.06560097650545714 0.34090805241137895 27:0.5 37:1.0 179:0.500000018656809 849:0.6666666786561575 895:0.6666666890159431 
0.17986967464791756 0.5 129:0.75 541:0.7499999586036538 993:1.0 
0.08876836159763438 0.16083762539813853 147:0.749999984697561 861:1.0 
0.0 0.5 33:0.6249999811468306 133:0.5714285714285715 553:0.7500000000000001 581:1.0 718:1.0 909:1.0 
0.3374975587720568 0.0 258:0.5714285521091738 306:1.0 834:1.0 886:0.7499999737004802 
0.0 0.5 20:0.30000000000000004 23:0.2999999845122379 552:1.0 
0.5 0.17427488333430682 610:1.0 
0.3145119084670952 0.5 341:1.0 519:0.7499999831074771 
0.3259440093497485 0.0 397:1.0 486:1.0 569:1.0 726:1.0 1042:1.0 
0.4375104645168684 0.5 97:0.6666666890159431 152:0.6666666418747812 513:0.5 562:0.5 853:0.6666667181330785 890:1.0 902:0.6666666890159431 927:0.666666726735407 983:0.666666726735407 
0.0 0.5 15:0.749999984697561 36:0.7499999999999999 100:0.7499999585006586 308:0.75 327:1.0 359:1.0 371:0.7499999904450566 955:1.0 
0.09195412222365722 0.03354880745482622 94:0.625 195:0.7499999658835783 240:1.0 241:1.0 337:0.7500000085681872 672:0.5208333722433374 
0.4459018114947078 0.33380179621489553 20:0.5 107:0.6666667059561432 159:1.0 213:0.6666666882101472 679:0.4999999835342295 846:0.6666667181330785 1057:0.6666666666666666 
0.5 0.0 123:0.6 616:1.0 864:1.0 992:1.0 1146:0.7499999673068779 
0.5 0.5 
0.5 0.5 
0.5 0.5 
0.0 0.5 322:0.7499999361250577 
0.021822607710253225 0.5 22:0.6666666666666667 23:0.7499999516007434 690:1.0 874:0.7499999737004802 
0.11392022312371289 0.0 1:0.29999996982847793 10:0.5333333333333333 16:0.26666668368230495 20:0.6000000000000001 26:0.2999999839395097 38:0.25 52:0.4000000308798472 66:0.30000000000000004 97:0.3999999731808684 98:0.2666666679342259 99:0.2666666757347789 109:1.0 132:0.3999999958630577 133:0.22857142857142856 169:0.30000001461139175 177:0.299999993966986 210:0.4000000367967542 213:0.39999999999999997 221:0.39999999999999997 231:0.4000000138322898 234:0.6000000344566656 256:0.3 269:0.4000000316856806 282:0.3999999731808684 330:0.4 379:0.39999999999999997 380:0.5333333264659234 445:0.4000000148751313 519:0.29999999324299076 569:0.40000000816130094 574:0.4000000367967542 650:0.7999999999999999 653:0.39999999999999997 654:0.39999999999999997 744:0.3999999883757783 758:0.400000016736721 929:0.2666666526076757 941:0.2999999829310864 962:0.4 1030:0.400000016736721 1035:0.3000000110390257 1083:0.5999999564091706 1084:0.4000000308798472 1085:0.399999993993126 1086:0.2666666733409714 1160:0.2666666842676647 1161:0.2666666728654521 1232:0.29999997522164634 
0.282189158864792 0.0 1:0.37499998742853247 52:0.5 92:0.3749999869708176 109:0.3124999909328035 133:0.28571428571428575 151:0.7499999778996701 186:0.5 269:0.5 309:0.3749999950497196 318:0.5000000158163657 361:0.49999998352893 380:1.0 397:0.5000000193145909 405:0.5 524:0.5 574:0.5000000367967542 758:0.5 1045:0.2916666589959733 1086:0.33333334668194275 
0.05145857280970208 0.0 10:1.0 34:0.3000000121488625 38:0.625 60:0.5000000201100478 96:0.5000000158163657 234:0.374999989232292 254:0.37499999999999994 269:0.5 361:0.49999998352893 513:0.374999991902204 595:0.5 706:0.6666666666666666 897:0.37499997105014554 962:1.0 993:0.5000000158163657 1002:0.5 1045:0.2916666589959733 1085:0.5 1086:0.33333334668194275 1087:0.7499999372373015 
0.024331355229387275 0.0 53:0.5 60:0.5000000201100478 66:0.375 100:0.3749999875501976 109:0.6249999752712823 151:0.37499998894983505 159:0.3749999770463415 220:0.5 234:0.374999989232292 245:0.37499998009905894 269:0.5 338:0.5 368:0.7499999372373015 381:0.5000000249638311 399:0.5000000367967542 416:0.3749999704147263 424:0.5000000158163657 445:0.4999999814060859 562:0.37499999999999994 653:0.5 784:0.5 855:0.5 910:0.5000000158163657 944:0.5 1010:0.5000000158163657 1014:0.5 1030:0.5 1047:1.0 1084:0.5 1088:0.5 
0.3639638738786506 0.057884412030336556 47:0.21428572949973973 103:0.5714285824654806 133:0.163265306122449 256:0.21428571428571427 293:0.2142857069059388 298:0.5714285917300864 350:0.2142857115923401 362:0.42857146167812343 379:0.2857143049249262 401:0.2857143042084428 402:0.21428572956262074 467:0.285714300486958 518:0.28571429002450327 565:0.4285713987944354 569:0.28571429154378636 573:0.285714300486958 695:0.21428571631772783 769:0.8571428774781833 1047:0.38095242195168144 1057:0.28571429665291004 1079:0.5714285666394407 1089:0.21428571129701424 1090:0.28571429368415285 1091:0.28571429368415285 1092:1.0 1093:0.42857143479868987 1094:0.28571429368415285 1333:0.285714300486958 1360:0.28571431076144826 1408:0.285714300486958 
0.17801278806214832 0.0 60:0.5000000201100478 66:0.375 109:0.9374999793927353 134:0.5 147:0.3749999770463415 169:0.37499999634715203 201:0.5 245:0.37499998009905894 269:0.5 288:0.5 320:0.5 362:0.37499999586166316 371:0.7499999904450566 373:0.5 393:0.49999998352893 445:0.4999999814060859 561:0.5 574:0.5000000367967542 576:0.7499999999999999 730:1.0 733:0.5 745:0.5 851:0.5 890:0.37499999634715203 953:0.5 996:0.5 1026:0.37499999382334864 1035:0.37500000689939106 1047:0.6666666933638855 1065:0.5 1087:0.7499999372373015 1166:0.37499998365343895 1206:0.5 1483:0.5 
0.0 0.08603327717473176 38:0.625 98:0.6666666793422585 109:0.6249999752712823 129:0.75 177:0.7499999547523951 380:0.6666666580824041 402:0.7499999643538849 507:1.0 895:1.0 986:1.0 1089:0.7499999686186495 1090:1.0 1091:1.0 
0.5 0.5 1296:1.0 
0.07966797518515337 0.0 43:1.0 421:0.5 454:1.0 528:0.49999998352893 580:0.5 799:0.5 819:0.5 834:0.5 1015:0.5 1019:0.5 1282:0.5 
0.18890710495984508 0.5 109:0.6249999752712823 123:0.6 819:1.0 
0.5 0.5 26:0.7499999598487744 42:0.6666666424683871 92:0.7499999739416352 204:1.0 
0.5 0.5 427:0.6666666846739631 
0.10718794778401206 0.0 36:0.7499999999999999 62:1.0 602:0.7499999514132242 619:1.0 716:1.0 825:1.0 894:1.0 
0.0 0.37164923418077234 152:0.6666666418747812 175:0.6666666900440184 179:1.0 308:0.5 468:0.6666667181330785 487:0.4444444533149204 506:0.6666666957272209 776:0.6666666882101472 
0.5 0.5 16:0.666666683682305 724:1.0 
0.0 0.5 41:0.6250000093528661 448:1.0 
0.0 0.04172429691676532 677:0.749999938396804 679:0.7499999753013442 
0.2464852799849027 0.0 431:0.5 624:0.6666666666666667 625:0.6666666666666667 626:0.6666666666666667 671:0.6666666666666667 672:0.3472222481622249 673:1.0 674:0.5 675:1.0 676:0.6666667071830824 677:1.0 678:1.0 679:0.4999999835342295 680:0.6666666786561575 
0.0 0.0015681369251296067 2:0.6250000042063767 624:1.0 625:1.0 626:1.0 680:1.0 1095:1.0 
0.024050113584617828 0.01574541342750519 1041:1.0 
0.0 0.49466809336598777 431:0.7499999632246671 1054:1.0 
0.023591993137722277 0.5 1576:1.0 
0.0 0.2254764232121368 22:0.6666666666666667 338:1.0 498:1.0 
0.0 0.035306000213234476 354:1.0 521:1.0 
0.0 0.5 65:0.7499999865118231 96:1.0 
0.24119197459443242 0.5 919:1.0 935:1.0 
0.13640601659815027 0.0 26:1.0 103:0.6666666666666667 690:0.6666667007348507 
0.11280068242128828 0.3366985313242121 10:0.6666666666666666 32:0.7499999747860352 183:1.0 206:0.6666666666666667 238:1.0 327:1.0 448:1.0 548:0.6666666666666666 551:0.7499999703443155 689:0.7499999851473375 729:0.6250000150895244 819:1.0 825:1.0 1072:1.0 1096:1.0 1097:1.0 1173:0.6666667018686627 1179:1.0 1523:1.0 
0.5 0.0 123:0.6 381:1.0 1099:0.7499999673068779 
0.39313716935565235 0.0 68:0.44444445255469656 184:1.0 196:0.6666666900440184 242:0.5 347:0.5 375:0.6666666781935748 416:1.0 432:0.6666666786561575 487:0.4444444533149204 513:0.5 587:0.5000000165533475 647:1.0 852:1.0 1061:0.6666666882101472 1234:0.5000000118622737 
0.0 0.3976521655123961 488:0.6666666666666666 538:0.6666666957272209 816:0.6666666900440184 947:0.6666667088436418 1012:0.6666667088436418 1099:1.0 
0.18100552070423495 0.0 4:0.5000000168093099 68:0.8888889051093931 165:0.6666667181330785 201:0.6666667059561432 208:0.6666667167539756 245:0.5 347:1.0 374:0.6666666666666666 390:0.6666666556859534 391:0.8888889379512278 434:0.6666666957272209 452:0.5000000151936554 513:0.5 560:0.6666667088436418 587:0.5000000165533475 667:1.0 801:0.6666666785092171 900:0.6666666882101472 981:1.0 1099:1.0 1100:0.666666726735407 1174:0.6666666882101472 1186:0.6666666890159431 
0.1309824602523048 0.46123219707571317 31:0.6666666418747821 236:1.0 981:0.7499999703443155 
0.0 0.22598174476843352 60:1.0 926:1.0 
0.0 0.5 150:1.0 981:0.7499999703443155 
0.0 0.5 109:0.6249999752712823 999:1.0 
0.2579478899375246 0.0 174:1.0 533:1.0 541:0.7499999586036538 725:1.0 961:1.0 
0.0 0.5 36:1.0 414:0.6666667088436418 487:0.4444444533149204 953:0.6666666781935748 
0.0 0.24710426828259735 23:0.7499999516007434 150:1.0 236:1.0 498:1.0 616:1.0 716:1.0 854:0.75 1102:0.7499999673068779 1214:1.0 
0.18270930578476258 0.0 22:0.6666666666666667 64:1.0 123:0.6 206:0.6666666666666667 308:0.75 331:0.749999980836647 822:1.0 886:0.7499999737004802 899:0.7499999675805721 904:1.0 944:1.0 1071:0.6666666315191893 1096:1.0 1102:0.7499999673068779 1103:0.7499999686186495 1104:1.0 1396:1.0 
0.0 0.4668366876394558 94:0.625 1071:0.6666666315191893 
0.26196101929598625 0.4052568474535948 655:1.0 984:1.0 
0.0 0.5 68:0.44444445255469656 133:0.7619047619047619 303:0.6666667224557367 
0.5 0.5 77:1.0 
0.0 0.232400724220371 853:1.0 
0.4538446640418878 0.16055542755506122 106:1.0 138:0.7499999999999999 142:1.0 143:0.6249999696332647 179:0.7499999906715955 269:1.0 297:0.7499999689729333 757:1.0 802:1.0 815:1.0 1032:1.0 1098:0.7499999673068779 1184:1.0 
0.06187426924127866 0.05049549344595371 511:1.0 530:1.0 687:1.0 1068:1.0 
0.5 0.5 437:0.6666666492046776 
0.0 0.445835175918985 34:0.6000000364465876 60:1.0 293:0.7499999772095168 
0.023773114710068533 0.5 811:1.0 
0.0 0.5 164:0.6666667088436418 817:1.0 
0.028383671764329044 0.5 27:0.7499999558945597 120:1.0 123:0.6 
0.0 0.5 20:0.75 27:0.7499999558945597 484:0.6000000383204585 944:1.0 
0.31810913355522574 0.0 68:0.44444445255469656 80:0.6666667181330785 120:0.666666726735407 123:0.4000000374312154 177:0.5 280:0.5 283:0.5 293:0.5000000151936554 379:0.6666667114914946 418:0.6666666556859534 491:1.0 562:1.0 695:1.0 792:0.6666666781935748 802:0.6666666957272209 807:0.6666666785092171 841:0.666666726735407 866:0.6666666890159431 902:0.6666666890159431 962:0.6666666666666667 1071:0.44444444913077474 1105:0.6666666890159431 1165:0.666666726735407 
0.1045445640758041 0.0 128:1.0 949:1.0 1106:0.6666666315191893 
0.36080968427246835 0.44665639300088444 123:0.6 1097:1.0 1106:0.6666666315191893 
0.05539813128530176 0.0 34:0.3000000121488625 38:0.625 47:0.37499999999999994 68:0.3333333211679551 74:0.37499998294178916 81:0.5 132:0.5 221:0.5 312:0.6249999811468306 449:0.5 452:0.3749999886047584 731:0.5 1067:1.0 1097:0.5 1106:1.0 1201:0.7499999673068779 
0.13376447595532612 0.5 533:1.0 
0.0 0.43358599165378797 1081:1.0 
0.0 0.03220115005364499 68:0.6666666423359102 122:1.0 137:1.0 215:1.0 534:1.0 763:1.0 1208:1.0 
0.4032683742791237 0.5 1107:1.0 
0.0 0.5 306:1.0 
0.0 0.25524232979610534 74:0.7499999658835783 75:0.749999939408966 655:1.0 1002:1.0 1062:1.0 
0.0 0.2953569322463181 4:0.5000000168093099 70:1.0 733:0.6666667059561432 988:0.6666667181330785 1088:0.6666666957272209 
0.05361535210316542 0.0 2:0.41666668068792223 94:0.8333333877878334 272:0.6666667224557367 337:0.5000000171363742 553:0.5 689:0.5 732:0.6666667088436418 777:0.6666667224557367 1034:0.4444444737794412 1123:0.6666667181330785 1217:0.5000000127755687 
0.0 0.5 237:1.0 493:1.0 
0.5 0.5 329:1.0 
0.04310459974202723 0.0 10:0.6666666666666666 22:0.6666666666666667 23:0.7499999516007434 152:1.0 154:1.0 179:0.7499999906715955 246:0.7499999675805721 602:0.7499999514132242 615:1.0 666:1.0 784:1.0 
0.052731165950707176 0.06108987428656163 41:0.6250000093528661 143:0.6249999696332647 513:0.7499999514132242 615:1.0 720:1.0 948:1.0 
0.27135701650063826 0.0 13:0.7500000083198824 22:0.6666666666666667 41:0.6250000093528661 232:1.0 351:0.7499999658835783 488:1.0 513:0.7499999514132242 615:1.0 649:1.0 
0.0 0.5 176:0.7499999737004802 
0.0 0.5 342:0.7499999739416352 728:1.0 900:1.0 1226:1.0 
0.34400781538171576 0.0 4:0.7499999747860352 10:0.6666666666666666 245:0.7499999601981179 569:1.0 602:0.7499999514132242 832:1.0 1013:1.0 1226:1.0 
0.3481079166913192 0.0 41:0.6250000093528661 206:0.6666666666666667 350:0.7499999905731904 594:1.0 615:1.0 658:1.0 807:1.0 1177:0.7499999857759053 
0.024135840455127275 0.5 343:1.0 370:0.75 665:1.0 890:0.7500000219170877 1108:1.0 
0.0 0.5 555:1.0 1020:0.7499999686186495 
0.027190894745257075 0.0 92:0.7499999739416352 491:0.7499999675805721 
0.5 0.1568219038168719 14:1.0 98:0.6666666793422585 206:0.6666666666666667 485:0.7499999689729333 510:0.7499999658835783 572:0.75 658:1.0 685:0.749999978464584 874:0.7499999737004802 
0.2919277648676275 0.5 893:1.0 1188:1.0 
0.02587969590938074 0.5 20:0.75 452:0.7499999772095168 553:0.7500000000000001 577:1.0 587:0.7499999917233263 1035:0.7499999586036538 1094:1.0 1523:1.0 
0.5 0.5 381:1.0 575:1.0 
0.0 0.5 22:0.6666666666666667 
0.0 0.2937536422659549 22:0.6666666666666667 447:1.0 1052:1.0 1078:1.0 
0.0 0.5 622:0.749999939408966 
0.2872773114812148 0.4969999988800028 529:1.0 755:0.7499999748570649 
0.0 0.007109465823774097 277:0.749999978464584 498:1.0 639:1.0 854:0.75 
0.20400193206921555 0.5 27:0.7499999558945597 242:0.7499999689729333 327:1.0 979:1.0 
0.0 0.4728770355037196 22:0.4444444444444444 23:1.0 66:1.0 123:0.8000000748624309 157:0.666666726735407 351:0.49999998635343135 399:0.6666667034634209 603:0.6666666666666666 1444:0.666666726735407 
0.0 0.5 27:0.7499999558945597 66:0.75 425:1.0 890:0.7500000219170877 903:1.0 
0.5 0.5 337:0.7500000085681872 342:0.7499999739416352 
0.02370744872670483 0.29828446952167303 669:1.0 
0.5 0.5 1470:1.0 
0.5 0.5 
0.18291013646203644 0.17493231249246893 156:1.0 173:1.0 208:1.0 500:1.0 743:1.0 1365:1.0 
0.0816171788310167 0.43012684701971443 22:0.6666666666666667 55:0.6666666492046776 145:0.7499999436517816 175:1.0 247:1.0 343:1.0 355:1.0 371:0.7499999904450566 465:1.0 561:1.0 569:1.0 585:1.0 931:1.0 1108:1.0 
0.0 0.5 677:0.749999938396804 679:0.7499999753013442 
0.005189336081638546 0.0 431:0.5 624:0.6666666666666667 625:0.6666666666666667 626:0.6666666666666667 671:0.6666666666666667 672:0.3472222481622249 673:1.0 674:0.5 675:1.0 676:0.6666667071830824 677:1.0 678:1.0 679:0.4999999835342295 680:0.6666666786561575 
0.0 0.3831436608551224 1041:1.0 
0.0 0.3379405477988914 431:0.7499999632246671 1054:1.0 
0.0 0.5 640:1.0 
0.5 0.5 103:0.5000000193145909 198:0.5 206:1.0 513:0.374999991902204 
0.18315605933340906 0.008747227532170686 38:0.625 94:0.625 458:1.0 817:0.749999978464584 
0.0 0.1807118869264086 304:1.0 
0.31206641731417084 0.0 234:0.749999978464584 458:1.0 642:1.0 817:0.749999978464584 
0.0 0.5 748:0.749999980836647 750:1.0 1629:1.0 
0.5 0.5 47:1.0 381:0.6666666999517749 402:0.5 447:0.6666666666666666 
0.13926362642880516 0.0 28:1.0 80:1.0 123:0.6 171:0.7499999421002911 199:1.0 201:1.0 279:1.0 561:1.0 649:1.0 823:1.0 
0.5 0.5 26:0.37499998393950973 38:0.31249998599224127 51:0.37499998742853247 68:0.3333333211679551 94:0.3125 109:0.3124999909328035 131:0.5000000158163657 144:0.5 151:0.37499998894983505 219:0.37499999999999994 290:0.37499998399131385 296:0.5000000367967542 321:0.33333331682673856 405:0.5 406:0.3750000041599412 407:0.5 421:0.5 485:0.37499998448646665 553:0.37500000000000006 579:0.30000000763824086 587:0.37499999586166316 627:1.0 774:0.5 805:0.5 867:1.0 899:0.37499998379028604 971:0.5 1017:0.5 1101:0.7499999372373015 1112:0.5 1181:0.5 
0.023084599317898788 0.5 26:0.7499999598487744 100:0.7499999585006586 1112:1.0 1113:1.0 
0.2791641264836019 0.0 5:0.6666666802688349 27:0.5 68:0.44444445255469656 92:0.5000000173722432 133:0.38095238095238093 300:0.6666667224557367 312:0.41666667923544615 315:0.49999998302525245 450:0.5 519:0.5 687:0.6666666890159431 745:0.6666667181330785 864:0.666666726735407 913:0.6666666556859534 916:0.8000000637239493 979:0.6666666882101472 987:0.6666666781935748 1051:0.6666667224557367 1066:0.4999999870322288 1113:0.6666667224557367 1274:0.6666667181330785 
0.17528286442453722 0.5 449:1.0 831:0.749999986677131 957:1.0 
0.25196201188333556 0.3531911103327937 34:1.0 117:0.3333333441050736 161:0.6666667224557367 258:0.19047619305211017 566:0.6666666556859534 587:0.5000000165533475 706:0.222222229035859 766:0.6666667224557367 851:0.3333333435537885 897:0.25000001157994184 939:0.33333336122786833 962:0.6666666666666667 978:1.0 1045:0.19444444614904297 1057:0.6666666666666666 1062:0.3333333633677035 1079:0.33333334450797153 1084:0.3333333745064629 1093:0.24999998910229265 1114:0.6666666787969505 1115:1.0 1116:0.6666667224557367 1147:0.25000001235330266 1284:0.25 1385:0.2499999878817932 1431:0.3333333633677035 
0.4876669916228596 0.5 207:1.0 379:1.0 760:1.0 1114:1.0 1253:1.0 
0.025505912459115734 0.0 167:1.0 277:0.749999978464584 371:0.7499999904450566 433:1.0 569:1.0 610:1.0 955:1.0 
0.0 0.4964236689643256 22:0.6666666666666667 23:0.7499999516007434 53:1.0 208:1.0 306:1.0 339:0.7500000123533026 372:1.0 374:1.0 381:1.0 396:1.0 553:0.7500000000000001 608:0.750000009648912 633:1.0 734:0.7499999865118231 812:1.0 1453:1.0 
0.3810586936265411 0.24093866003325717 123:0.6 611:1.0 1109:1.0 
0.1998310774876207 0.3497116197920316 230:0.7499999586036538 1018:0.6666666492046776 1069:1.0 1227:0.7499999686186495 
0.5 0.5 144:1.0 
0.11228787670418036 0.5 144:1.0 876:1.0 
0.0 0.5 779:0.7500000123533026 
0.0 0.04637859860498687 218:1.0 651:1.0 
0.5 0.5 22:0.6666666666666667 23:0.7499999516007434 437:0.6666666492046776 
0.016269166893518417 0.2366459966536109 41:0.6250000093528661 179:0.7499999906715955 258:0.5714285521091738 1006:1.0 1117:1.0 
0.20656811834619457 0.5 179:0.7499999906715955 188:0.749999984697561 280:0.7499999572198809 331:0.749999980836647 347:0.7499999865118231 929:0.6666666315191893 1270:1.0 
0.10095566786133187 0.0 105:1.0 220:1.0 403:0.749999967794279 448:1.0 553:0.7500000000000001 1107:1.0 1406:1.0 
0.0 0.5 254:0.749999967794279 
0.5 0.5 177:0.7499999547523951 587:0.7499999917233263 
0.0 0.08477982775090719 6:1.0 65:0.7499999865118231 133:0.5714285714285715 277:0.749999978464584 287:1.0 562:0.7499999999999999 
0.0 0.45389062714275996 67:1.0 92:0.7499999739416352 94:0.625 195:0.7499999658835783 234:0.749999978464584 321:0.6666666336534771 322:0.7499999361250577 685:0.749999978464584 
0.0 0.5 288:1.0 524:1.0 630:1.0 1564:1.0 
0.0 0.45940804468040314 438:1.0 732:1.0 
0.0 0.3782226627661618 14:1.0 98:0.6666666793422585 795:0.7499999900994392 905:1.0 1011:1.0 
0.0 0.5 327:1.0 1420:1.0 
0.1041893894913203 0.0 73:0.6666666178735701 92:0.7499999739416352 207:1.0 227:1.0 434:1.0 587:0.7499999917233263 674:0.749999967794279 1033:1.0 
0.0 2.6303053797549166E-4 109:0.6249999752712823 167:1.0 292:1.0 524:1.0 962:1.0 
0.0 0.15211800132077902 109:0.6249999752712823 167:1.0 292:1.0 524:1.0 962:1.0 
0.017998150376265037 0.00816740120757831 0:1.0 85:0.7499999850310722 94:0.625 97:1.0 98:0.6666666793422585 257:1.0 395:1.0 416:0.7499999408294526 446:1.0 628:1.0 639:1.0 684:1.0 695:0.7499999857759053 920:1.0 1019:1.0 1082:1.0 1118:1.0 1171:1.0 1253:1.0 1605:1.0 
0.3229276303450389 0.0 26:0.37499998393950973 39:0.5 60:1.0 92:0.3749999869708176 98:1.0 113:0.5 282:0.5 291:1.0 301:0.5 395:0.499999981217259 446:0.5 491:0.37499998379028604 496:0.5 605:0.5 611:0.5 634:1.0 890:0.37499999634715203 1076:0.5 1118:1.0 
0.02503167617523351 0.2189264484949427 26:0.5 39:0.6666666882101472 94:0.41666671023026675 99:0.4444444595579649 222:0.6666666799723805 257:0.666666726735407 350:1.0 371:0.5000000191098867 517:0.6666666418747812 603:0.6666666666666666 745:0.6666667181330785 1118:0.6666667224557367 1505:0.6666667181330785 
0.0 0.321484207178508 100:0.5 279:0.6666666982216839 989:1.0 
0.0 0.5 279:1.0 1505:1.0 1594:1.0 
0.5 0.5 242:0.7499999689729333 
0.5 0.5 
0.0 0.4174717251264816 242:0.7499999689729333 289:0.6666666492046776 
0.14490026939715056 0.0 16:0.666666683682305 505:1.0 576:0.7499999999999999 904:1.0 
0.3430690690878406 0.0 576:0.7499999999999999 850:1.0 952:1.0 1116:1.0 
0.5 0.0 133:0.5714285714285715 155:1.0 214:1.0 361:1.0 
0.20584244737850133 0.11059961184579356 26:0.7499999598487744 27:0.7499999558945597 98:0.6666666793422585 99:0.666666675734779 159:0.749999984697561 174:1.0 177:0.7499999547523951 195:0.7499999658835783 227:1.0 342:0.7499999739416352 350:0.7499999905731904 488:1.0 594:1.0 841:1.0 1075:1.0 1581:1.0 
0.07977387861713214 0.5 364:0.7499999778996701 602:0.7499999514132242 817:0.749999978464584 1104:1.0 1146:0.7499999673068779 1522:1.0 
0.0 0.2202175991150167 16:0.666666683682305 218:1.0 417:1.0 
0.15553800063116036 0.023234622313805353 23:0.7499999516007434 177:0.7499999547523951 306:1.0 315:0.7500000254621214 328:1.0 440:1.0 532:1.0 615:1.0 803:1.0 1386:1.0 
0.0 0.5 22:0.6666666666666667 41:0.6250000093528661 308:0.75 478:1.0 568:0.7499999778996701 608:0.750000009648912 
0.0904933532988665 0.4409658043859098 22:0.6666666666666667 229:0.749999984697561 726:1.0 785:1.0 
0.5 0.5 
0.15179746100592897 0.0 254:0.749999967794279 427:0.6666666846739631 905:1.0 
0.5 0.5 
0.29697566902467104 0.5 485:0.37499998448646665 1119:1.0 
0.0 0.49914265156659754 22:0.6666666666666667 922:1.0 
0.0 0.27511335916198426 206:0.6666666666666667 685:0.749999978464584 974:1.0 1129:0.5833333002114895 1468:1.0 
0.0 0.17362506109818918 206:0.6666666666666667 527:1.0 685:0.749999978464584 
0.0 0.29944713028443576 664:1.0 677:0.749999938396804 1064:1.0 
