svm_type c_svc
kernel_type linear
nr_class 3
total_sv 3733
rho -1.0020841767345379 5.816450561357257 1.0815731530805595
label 0 1 2
nr_sv 1731 454 1548
SV
0.0 0.5 0:0.7573051568142494 1:0.8304517644488152 2:0.05482773413069051 3:0.7128943758573427 4:0.7627415264830932 5:0.7213553979511436 6:0.1554452206941338 7:0.7028193171463851 8:0.8341370303395609 9:0.7502111486486519 10:0.7184030797239691 11:0.8356163875442774 12:0.859843181181742 13:0.20946391729829397 14:0.1714637365244606 15:0.8127125456006951 16:0.7699727596690445 17:0.7701206632631258 18:0.8043688409874646 19:0.7870772597097575 20:0.7079775102105786 21:0.6506939854593541 22:0.7944921252975805 23:0.7644675650155762 24:0.7206669018506329 25:0.7311931772467654 26:0.691556357801845 27:0.6997171590194858 28:0.7548298877651889 29:0.7267160840008163 30:0.11451717636948737 31:0.8191260043111922 32:0.6939663699307653 33:0.7643097643097666 34:0.6959667339678892 35:0.8303772893205528 36:0.15932726722165197 37:0.6712136571319439 38:0.8346448835286446 39:0.8389272951942044 40:0.6741488963711219 41:0.7964950801008368 42:0.721455077428107 43:0.7308384773662578 44:0.010066374573719958 45:0.8112923305855745 46:0.7955412705241905 47:0.7748161764705908 48:0.6559675580431205 49:0.889013341298292 
0.0 0.5 0:0.7224004406856531 1:0.7700941143418975 2:0.04802888865580836 3:0.6918518518518518 4:0.8069431051108967 5:0.7247213779128638 6:0.1660061221201865 7:0.7428847081524375 8:0.7377163523637252 9:0.8404279279279272 10:0.7733077028696976 11:0.727197462860954 12:0.8019602352282242 13:0.21047363717604972 14:0.1640535611014721 15:0.830511169409332 16:0.8391770112686598 17:0.7151266066343396 18:0.7957408128814426 19:0.7432377642629598 20:0.7365936455736464 21:0.6286406697510443 22:0.7466413878865686 23:0.7315542848066048 24:0.673435971165555 25:0.6845143270921683 26:0.7450060168471674 27:0.7560514002374424 28:0.7462410137687315 29:0.7427035868676228 30:0.11672641161007172 31:0.7573192239858889 32:0.8441543026706217 33:0.7090909090909073 34:0.6550331698875085 35:0.7698313118639344 36:0.16023589331188823 37:0.844808371583457 38:0.8016936104695921 39:0.7569582206191742 40:0.7670033670033664 41:0.8005123200780632 42:0.8160748692540598 43:0.7231481481481464 44:0.011853296130702235 45:0.8541669429158611 46:0.7165287373775702 47:0.7389705882352917 48:0.837661691542286 49:0.7778972520908 
0.0 0.5 0:0.7475318362982432 1:0.7687610619469029 2:0.04875350244984211 3:0.7034074074074114 4:0.7788621022179408 5:0.7477446808510642 6:0.15601388461707508 7:0.7667149059334353 8:0.7874864376130187 9:0.7894087837837872 10:0.7850885624056074 11:0.7892919379068597 12:0.7482273872864761 13:0.21344772117962538 14:0.16376671560122844 15:0.7907846410684506 16:0.747998626171434 17:0.7497132302008792 18:0.7943903389170266 19:0.7781754995655992 20:0.7229406460510283 21:0.6903899537343041 22:0.7718182374166724 23:0.7552518465570655 24:0.711076499131373 25:0.73416364952933 26:0.7693790613718409 27:0.7414707730986804 28:0.757835993663947 29:0.7180371538731182 30:0.12196832431727862 31:0.7961904761904788 32:0.7688545994065309 33:0.7200000000000021 34:0.6876550331698892 35:0.7817928342395137 36:0.16291221015949672 37:0.7576358587861967 38:0.774318706697464 39:0.7932191163210113 40:0.7658585858585888 41:0.7993071480848976 42:0.749768786127172 43:0.7219444444444465 44:0.012867179883685853 45:0.8018670025856925 46:0.7714463594260145 47:0.6945220588235322 48:0.7641809701492559 49:0.7765770609319037 
0.0 0.5 0:0.7968828599769149 1:0.7913194146117911 2:0.05175748390666033 3:0.7120460266091347 4:0.8014904831899354 5:0.7311919024994815 6:0.16013807831063956 7:0.7751534992202128 8:0.783063256026261 9:0.7724104565730788 10:0.7538635657716029 11:0.7848996796165093 12:0.7169648707359441 13:0.20219625127613372 14:0.17739326931673452 15:0.812470622558634 16:0.7435475549995854 17:0.7577375121331196 18:0.7759426023350897 19:0.7494369606842528 20:0.7312915098367073 21:0.6346357458659246 22:0.6996840548334964 23:0.7254997212525809 24:0.7198093032426222 25:0.742728991936335 26:0.7780098839858369 27:0.709851531368802 28:0.740237140683834 29:0.7379139882279141 30:0.11949916757839668 31:0.7778805157445933 32:0.7771599781049237 33:0.8022947925860542 34:0.6608214482737373 35:0.8042835931398643 36:0.17703865928068685 37:0.7658965659335352 38:0.7432229422184374 39:0.7761387412783307 40:0.7618907521820152 41:0.856558668109907 42:0.7320089043530332 43:0.6932308522114348 44:0.014528021264117067 45:0.810449493385787 46:0.7522108368414574 47:0.6603191033695034 48:0.7600057962614113 49:0.7585429933535178 
0.5 0.5 0:0.8653955793063431 1:0.7614472879959607 2:0.049073377007568544 3:0.8056723390056768 4:0.8094729251913478 5:0.7525589419206447 6:0.1546767559334022 7:0.7005123792388676 8:0.6718391085479694 9:0.8296658144631152 10:0.7779068372230583 11:0.8183013258626669 12:0.7038455425461891 13:0.20538286275551781 14:0.16219294164042658 15:0.7958760095654952 16:0.7773964534182383 17:0.7770150663246965 18:0.8891790115007907 19:0.714584262803207 20:0.7043900103360157 21:0.6596345188546135 22:0.7645481087472414 23:0.7720053148216128 24:0.6671216235105297 25:0.6910516599148062 26:0.8108791101570884 27:0.7843528632340697 28:0.8117021615254845 29:0.6560377412112455 30:0.12097661110240181 31:0.8015158015158044 32:0.7504050044109415 33:0.6445536445536468 34:0.6921241980370926 35:0.8625061699089349 36:0.16128070169083517 37:0.7160571916621119 38:0.8781460444278038 39:0.821842581986858 40:0.7379197379197414 41:0.7698944370083668 42:0.7426356992831026 43:0.8178178178178193 44:0.01135249614087829 45:0.7586686998607709 46:0.7637205955480982 47:0.7680345786963461 48:0.7233872865402745 49:0.6944040815008603 
0.0 0.5 0:0.7325750947798174 1:0.8209808259586975 2:0.04540448613254613 3:0.7018518518518516 4:0.8042430086788813 5:0.7585106382978685 6:0.15571861681093166 7:0.7778581765557175 8:0.7859403254972822 9:0.7879011824324313 10:0.7570712618426478 11:0.7493740610916328 12:0.7334080089610726 13:0.22639261245159317 14:0.17210730014680328 15:0.7633555926544231 16:0.7205117511407637 17:0.8205148926344934 18:0.7791195948578089 19:0.8010425716768028 20:0.6713122579960731 21:0.6506939854593495 22:0.7434560577334685 23:0.7915177507743589 24:0.7095039837057409 25:0.7583272990586519 26:0.7419223826714755 27:0.6863345904043542 28:0.7562751309857408 29:0.6928963663979417 30:0.12539920484911665 31:0.7945665445665423 32:0.7299703264094941 33:0.7062937062937042 34:0.6749351023939985 35:0.8070193782238951 36:0.16855649376759108 37:0.7561483538278428 38:0.7727393853259902 39:0.8043282236248843 40:0.7182400932400925 41:0.7856794340082894 42:0.761319845857418 43:0.7326388888888867 44:0.013177799441960516 45:0.838957767022471 46:0.8408245387593932 47:0.7796415441176453 48:0.7262360074626848 49:0.774977598566308 
0.0 0.5 0:0.7505570329561415 1:0.7718099243552673 2:0.048100632595811946 3:0.7063439677301101 4:0.7819204292656887 5:0.7883084053086161 6:0.1540376367264571 7:0.7826224011692104 8:0.7904051707159853 9:0.8051913299438083 10:0.7880823781952597 11:0.7658418320550128 12:0.7512248004414009 13:0.21420351150396608 14:0.16144071100023447 15:0.820360667118468 16:0.7509357628270551 17:0.7400422009414074 18:0.7834394658788072 19:0.7558816698351022 20:0.7128760136396621 21:0.7194741285100105 22:0.7886246700628723 23:0.7451380877901951 24:0.7140450761064848 25:0.7238405230820001 26:0.7456410623011758 27:0.7582824592955838 28:0.7473890315801426 29:0.6963013861848877 30:0.12238173566427916 31:0.7992561160878016 32:0.7588447865558094 33:0.7101710171017122 34:0.6902278055899057 35:0.7710156210100351 36:0.16050087517798892 37:0.7476798850055579 38:0.7501962667398424 39:0.8090778419591294 40:0.7803780378037831 41:0.8521795946367003 42:0.7257101432686665 43:0.7497249724972518 44:0.012947141354132823 45:0.7782619341295001 46:0.745388721546214 47:0.6828953115899853 48:0.7669360499482805 49:0.7933212676106363 
0.5 0.5 0:0.6562651890735869 1:0.7034414945919335 2:0.04722376221799338 3:0.7303703703703697 4:0.7801992928318867 5:0.7853090172239074 6:0.15138333553026614 7:0.7052580800771844 8:0.8270472746060389 9:0.8902027027027017 10:0.7602178589409136 11:0.7905591720914656 12:0.841276953234385 13:0.20716909939430014 14:0.1497112860892385 15:0.8048811511248896 16:0.7235987766383677 17:0.7986115600708051 18:0.8227502921698459 19:0.7673327541268461 20:0.7241818278258079 21:0.6412425644415043 22:0.6936374941389895 23:0.7564990866491904 24:0.7513129255775836 25:0.7608979000724109 26:0.7450060168471677 27:0.7030309379146554 28:0.7848909467527692 29:0.7309576663940472 30:0.12395663603380454 31:0.7975308641975287 32:0.8194658753709181 33:0.6727272727272708 34:0.6775310066339756 35:0.8362842139504625 36:0.16915694947058002 37:0.7097523658412163 38:0.7104439312291511 39:0.8444845205891165 40:0.7441077441077434 41:0.8005123200780624 42:0.8550784475639968 43:0.7351851851851839 44:0.0129021413924093 45:0.7648743618643462 46:0.8010173866828614 47:0.6529411764705869 48:0.7533395522388043 49:0.8043010752688168 
0.0 0.5 0:0.7505570329561415 1:0.7856683898478342 2:0.049774657862555936 3:0.7196919691969235 4:0.7958219158463622 5:0.7505161154413316 6:0.1540376367264571 7:0.7435056096058285 8:0.7904051707159853 9:0.7922548166978892 10:0.7744741246059299 11:0.8317129159085155 12:0.7784740109407206 13:0.2107681009387809 14:0.15845865381947305 15:0.7803930643481741 16:0.7242345205032253 17:0.7400422009414074 18:0.8536373699699569 19:0.7684062932792015 20:0.7257793885260287 21:0.6932721692526173 22:0.7748489055987738 23:0.7581044451836183 24:0.6870580126963761 25:0.7370753005785766 26:0.7589770168352572 27:0.7169422473359848 28:0.7607825727132249 29:0.7207235970705397 30:0.12050259317791295 31:0.7992561160878016 32:0.7973440667508914 33:0.7101710171017122 34:0.6902278055899057 35:0.7571986809722421 36:0.16050087517798892 37:0.7859720918541683 38:0.7637481993003039 39:0.8090778419591294 40:0.7446744674467476 41:0.8020635315544227 42:0.7257101432686665 43:0.7246974697469766 44:0.012947141354132823 45:0.7915232085430912 46:0.7746669663549783 47:0.712707483983695 48:0.7544129599527137 49:0.765871748465173 
0.17767213139504623 0.5 0:0.7701647890721511 1:0.8304517644488152 2:0.04856563961435198 3:0.687928669410155 4:0.7107396692739071 5:0.7684791174152873 6:0.16729238575541194 7:0.7637883904164712 8:0.7348804500703234 9:0.9074856106106133 10:0.7438555540299377 11:0.8725773845954103 12:0.6814617754130514 13:0.2030384271671142 14:0.16030863373716758 15:0.7877944722685994 16:0.6825756378035459 17:0.7237401335762008 18:0.7912392330000465 19:0.7285130482350335 20:0.6959104651779572 21:0.7364568798805433 22:0.755843452773305 23:0.8008454010360133 24:0.6575721471186653 25:0.6693083380266619 26:0.7539142933547256 27:0.8156994203505825 28:0.7297790052755344 29:0.7609750187154122 30:0.1233039074399961 31:0.7800313541054308 32:0.7659742828882321 33:0.7407407407407429 34:0.6194115950389402 35:0.8562200845764243 36:0.14776293516408845 37:0.8025181071591233 38:0.7586034841616107 39:0.778145142437299 40:0.7186681631126112 41:0.7964950801008368 42:0.7593752230072127 43:0.7191358024691374 44:0.010746181687789366 45:0.8236940779538408 46:0.9324441744910978 47:0.7051164215686311 48:0.8199272733554467 49:0.7863318067171162 
0.4058307972269143 0.5 0:0.8278593554184132 1:0.837107018522947 2:0.04907337700756859 3:0.5749082415749128 4:0.7715256239846453 5:0.844259152769791 6:0.18234148731973804 7:0.676783875047267 8:0.7201260935438148 9:0.8767500608716863 10:0.7531422676280622 11:0.7703519242828203 12:0.7286398692167398 13:0.22101243334487367 14:0.15947953825973385 15:0.8686098452375619 16:0.75310072842088 17:0.7657333158603086 18:0.8125304891958605 19:0.794358215730939 20:0.7043900103360157 21:0.7073173636293278 22:0.7770828133497084 23:0.6894177952076458 24:0.6180100306380797 25:0.7512639359127443 26:0.7744755585910816 27:0.6715052576146235 28:0.7629544983023736 29:0.7338147821849216 30:0.12268646147287916 31:0.8015158015158039 32:0.8905285107065554 33:0.6674856674856704 34:0.6495607231113456 35:0.7493566339237648 36:0.16128070169083508 37:0.7276713444900682 38:0.730173591605467 39:0.7745310684895912 40:0.7920647920647955 41:0.7926949882304836 42:0.8287246784356658 43:0.7608858858858883 44:0.009698911268817598 45:0.9638003049791144 46:0.7370800304518352 47:0.6730922098569186 48:0.6778077517816353 49:0.7443572604862966 
0.0 0.5 0:0.7294634287218953 1:0.7641406764613202 2:0.04765368410226364 3:0.7120460266091347 4:0.8696482572019755 5:0.7682503614955567 6:0.16013807831063956 7:0.8390822362412748 8:0.7570445408100531 9:0.7850957753870386 10:0.7938956127382719 11:0.7719812728801911 12:0.7704050699676185 13:0.20556495484005324 14:0.16862080984323238 15:0.7863429340162414 16:0.7435475549995854 17:0.7455795092054792 18:0.748408667138173 19:0.7494369606842528 20:0.6806802141659097 21:0.6603289292154074 22:0.7402088765094367 23:0.7636434716429424 24:0.6933462604812533 25:0.7167734088847966 26:0.764932880025233 27:0.7774140136975969 28:0.7271036683106175 29:0.7139659950293621 30:0.12134182186114414 31:0.764216366158114 32:0.7394082567485816 33:0.7528684907325681 34:0.6952234801918779 35:0.8178322430798363 36:0.1679443787305641 37:0.7283478970819857 38:0.7565117304573364 39:0.8143783868962668 40:0.7385505540845356 41:0.8197014663770668 42:0.7717698336981144 43:0.7545846817691476 44:0.010963983967054237 45:0.8494608152044099 46:0.8096303072431122 47:0.6895523986293548 48:0.7477258730618749 49:0.8123760309009308 
0.0 0.5 0:0.7620815916528934 1:0.7834246382918909 2:0.04883401509362333 3:0.6918518518518518 4:0.8069431051108967 5:0.833779128672742 6:0.1660061221201866 7:0.7554269175108553 8:0.7887625936450474 9:0.8279842342342334 10:0.7471280150121296 11:0.7652144883992611 12:0.7888546625595044 13:0.22038725052129848 14:0.1640535611014721 15:0.7408061054137838 16:0.7878089069885305 17:0.7509058723928246 18:0.7687313335930388 19:0.7552852591949032 20:0.7241818278258079 21:0.6664463538224249 22:0.7996452816341473 23:0.7814438884917764 24:0.673435971165555 25:0.76089790007241 26:0.7834897713598027 27:0.703030937914655 28:0.7977742577474481 29:0.7192117459204717 30:0.12034152382193815 31:0.8243386243386223 32:0.7454005934718084 33:0.7090909090909073 34:0.6212864147678092 35:0.7432501510293226 36:0.1572622079256576 37:0.8202527341757768 38:0.8147292789325123 39:0.8069732491734266 40:0.7441077441077434 41:0.8246157599414436 42:0.69906413432425 43:0.7231481481481461 44:0.011503681043466558 45:0.7903865278790648 46:0.7446916204793342 47:0.7102941176470567 48:0.7774315920397991 49:0.7118876941457587 
0.0 0.5 0:0.7671389932467572 1:0.7885216033315935 2:0.04828937073863085 3:0.6960058097312994 4:0.798683986612967 5:0.7282853566958661 6:0.1521001387944779 7:0.7853068868647329 8:0.7801297734283535 9:0.7566159909909902 10:0.8179671703914306 11:0.8080768211140192 12:0.8081275635429156 13:0.2115427523407333 14:0.15620749300654432 15:0.7570133228583575 16:0.7405955758487054 17:0.7796695958457248 18:0.7588013779723014 19:0.7712304730754159 20:0.7157855981728583 21:0.6831253320892112 22:0.7368980250653219 23:0.7737403467462717 24:0.7035942035113893 25:0.7137198108787314 26:0.8544206130105415 27:0.7338295888227446 28:0.8034580714215714 29:0.6870831987427504 30:0.12464776042724963 31:0.7884635335615707 32:0.799860359574095 33:0.6880570409982155 34:0.6695905936646341 35:0.7741312055283565 36:0.1734425548801476 37:0.7379191263970846 38:0.807061238660206 39:0.7860110680881882 40:0.7710437710437704 41:0.8295782328544925 42:0.7288904000906721 43:0.7273965141612183 44:0.012665637068691041 45:0.7813822339915172 46:0.7488332209354757 47:0.6714965397923854 48:0.7696371085747712 49:0.7553763440860211 
0.5 0.5 0:0.7699150874749071 1:0.7641406764613202 2:0.04847444406314299 3:0.7774901114706958 4:0.7469642639803037 5:0.7311919024994815 6:0.14771580814929935 7:0.7623677518160008 8:0.744035183201949 9:0.7724104565730788 10:0.7805515970827157 11:0.7848996796165093 12:0.8372053190072118 13:0.20556495484005324 14:0.1832415756324026 15:0.773279089745045 16:0.7173647834004901 17:0.7455795092054792 18:0.8034765375320063 19:0.7739998144289914 20:0.7312915098367073 21:0.7245618875891136 22:0.7807336981853765 23:0.7254997212525809 24:0.6668832177198845 25:0.729751200410566 26:0.8172408958676496 27:0.6693140419715249 28:0.8059045025499177 29:0.7019919984300859 30:0.12134182186114414 31:0.8325371140905122 32:0.7897438852237045 33:0.7281553398058247 34:0.6837561362191644 35:0.8313808930198078 36:0.16188152503048225 37:0.7158316741314689 38:0.8096668834129337 39:0.8016318383569547 40:0.7618907521820152 41:0.7951299985551734 42:0.7187552612380064 43:0.7423139158576049 44:0.012033195156173088 45:0.7454306236880822 46:0.7665657044418712 47:0.6749357509994289 48:0.7722857194609474 49:0.7989177715140775 
0.0 0.5 0:0.7535229120325081 1:0.7473538087801449 2:0.04911817736579332 3:0.7092229484386346 4:0.7573883941233194 5:0.7158114309553573 6:0.15711776164396046 7:0.7723957889957734 8:0.7669928730986012 9:0.7950450450450445 10:0.7640678130376145 11:0.7950317633312668 12:0.7541634407893624 13:0.21494448241018138 14:0.1621131356586405 15:0.7702052440341735 16:0.7670350412870071 17:0.804223993915273 18:0.7866052537103643 19:0.7712304730754159 20:0.7157855981728583 21:0.6831253320892109 22:0.8051015648140444 23:0.7223834017762422 24:0.7303166878684579 25:0.7006147861027094 26:0.7487789339562494 27:0.8020544484292726 28:0.7769336076089964 29:0.7233573649111453 30:0.12092632138562238 31:0.8022616453988985 32:0.7617385233024945 33:0.7629233511586428 34:0.6464310558373892 35:0.8151756450523884 36:0.16119796799566863 37:0.7505580574157439 38:0.7533849567540643 39:0.7860110680881882 40:0.7592592592592586 41:0.8295782328544925 42:0.7556575616759227 43:0.7150054466230921 44:0.011945841300852866 45:0.8076447578301978 46:0.7488332209354757 47:0.6862564878892712 48:0.7944377377816777 49:0.7961469534050173 
0.0 0.5 0:0.76430792685568 1:0.7440929933701337 2:0.04893764522918394 3:0.6796479647964836 4:0.7680189426850154 5:0.73791868548557 6:0.15657128786827498 7:0.7826224011692104 8:0.7771382020661367 9:0.7922548166978892 10:0.8152988853739197 11:0.7790160488257132 12:0.7376001951917415 13:0.21420351150396608 14:0.16144071100023447 15:0.8070381328617031 16:0.7375851416651402 17:0.7400422009414074 18:0.7834394658788072 19:0.7684062932792015 20:0.6999726387532954 21:0.6932721692526173 22:0.7610731411346755 23:0.7581044451836183 24:0.7005515444014305 25:0.7106057455854236 26:0.8123208349715832 27:0.7996226712551833 28:0.8009631961124725 29:0.7329347025133657 30:0.11862345069154676 31:0.7713866624757739 32:0.7588447865558094 33:0.7227722772277246 34:0.6902278055899057 35:0.7986495010856208 36:0.16050087517798892 37:0.7732080229046312 38:0.7773001318607654 39:0.7830799310769683 40:0.7565756575657594 41:0.8020635315544227 42:0.7392262347622088 43:0.7121837183718391 44:0.012583680124828397 45:0.7915232085430912 46:0.7893060887593605 47:0.6828953115899853 48:0.7669360499482805 49:0.820770786756099 
0.5 0.5 0:0.7903231315304828 1:0.8118871083472854 2:0.052881407456693424 3:0.7085085085085124 4:0.8853675276047552 5:0.7296338892083574 6:0.16850912162657014 7:0.759833639717871 8:0.7684130785396599 9:0.8414368760652581 10:0.7036131284380689 11:0.6864404715180883 12:0.7410370325520165 13:0.23976791805210115 14:0.17304655516319808 15:0.7837537036201513 16:0.7895443159169175 17:0.8672690700397941 18:0.710332459455953 19:0.7373768207825596 20:0.6691672842948531 21:0.6715552300482914 22:0.7144092903373686 23:0.7602070977339034 24:0.6916774199467552 25:0.6910516599148065 26:0.7744755585910821 27:0.684043880461229 28:0.7142068350792626 29:0.7004817646247743 30:0.11413720962049223 31:0.8015158015158039 32:0.7854358809848453 33:0.8165438165438179 34:0.6495607231113449 35:0.7870731459188219 36:0.15846775605521154 37:0.7973562614578096 38:0.6561873651942984 39:0.8691540954841239 40:0.7920647920647952 41:0.7470938857862492 42:0.7303372736898798 43:0.7836586586586609 44:0.011683213115290424 45:0.7828018298746936 46:0.7370800304518352 47:0.8087241653418147 48:0.711992402850614 49:0.7693338499790149 
0.0 0.5 0:0.7726377952755883 1:0.7267699115044207 2:0.04540448613254613 3:0.7018518518518516 4:0.7637415621986499 5:0.7585106382978685 6:0.15571861681093158 7:0.8031837916063688 8:0.773056057866179 9:0.8381545608108095 10:0.8363655087189354 11:0.762168252378563 12:0.7731027723326772 13:0.1963658028001188 14:0.16341919124516183 15:0.7374791318864766 16:0.7205117511407637 17:0.7964326945278204 18:0.7927541877678199 19:0.8132059079061684 20:0.7715615551901533 21:0.739755452742892 22:0.8237263775915801 23:0.7537407672146735 24:0.7226082789193036 25:0.7711803041274428 26:0.7160198555956638 27:0.7130997276346075 28:0.8083038869257917 29:0.764049538497486 30:0.11444958613048278 31:0.7539682539682521 32:0.7673590504451024 33:0.7062937062937042 34:0.6862921834438976 35:0.8338561271434541 36:0.15954965822275802 37:0.7809401031336733 38:0.7595783738970806 39:0.8043282236248843 40:0.7297979797979789 41:0.7856794340082894 42:0.78757225433526 43:0.6840277777777759 44:0.011765892358893321 45:0.7488066034608463 46:0.6986561384860662 47:0.7362132352941154 48:0.7992070895522367 49:0.774977598566308 
0.0 0.5 0:0.7459293282784076 1:0.7402286135693176 2:0.04865595828526042 3:0.766666666666666 4:0.8177434908389583 5:0.7585106382978685 6:0.15079748670855458 7:0.8031837916063688 8:0.8117088607594877 9:0.7879011824324313 10:0.809934093093506 11:0.787756634952424 12:0.7466395967516072 13:0.20303842716711312 14:0.16341919124516172 15:0.7374791318864766 16:0.7723737795005102 17:0.6760217039944568 18:0.8200233735878436 19:0.7645525629887054 20:0.7590303930408928 21:0.6761401189689331 22:0.8237263775915801 23:0.7537407672146735 24:0.683295393278616 25:0.71976828385228 26:0.7678249097472879 27:0.7130997276346075 28:0.7952966979407792 29:0.7166140904311235 30:0.1308740142084336 31:0.7675010175010157 32:0.7798219584569717 33:0.7062937062937042 34:0.6522209402942004 35:0.7667642548445558 36:0.17155877228253558 37:0.7065648552161811 38:0.7595783738970806 39:0.7790802524797086 40:0.752913752913752 41:0.7978470358623999 42:0.7744460500963388 43:0.7083333333333317 44:0.011765892358893321 45:0.7616853411125067 46:0.7981740186773958 47:0.7796415441176444 48:0.7627215485074613 49:0.8016353046594975 
0.0 0.5 0:0.745929328278408 1:0.753687315634214 2:0.05028169436161754 3:0.6629629629629626 4:0.7772420443587267 5:0.7095744680851028 6:0.15571861681093166 7:0.7272069464544151 8:0.7859403254972818 9:0.7879011824324321 10:0.7835026774680773 11:0.8133450175262845 12:0.720176421170538 13:0.22972892463509037 14:0.1576271186440674 15:0.7633555926544227 16:0.7464427653206374 17:0.8084737935811566 18:0.7382158161277742 19:0.7402258905299739 20:0.7464992308916326 21:0.7397554527428916 22:0.7300776710904496 23:0.7411484393614453 24:0.7488168693464285 25:0.71976828385228 26:0.7678249097472879 27:0.8067777079404935 28:0.7432679420007283 29:0.6928963663979417 30:0.1217493319429053 31:0.7810337810337791 32:0.8047477744807104 33:0.7185314685314665 34:0.6862921834438972 35:0.7801826293043358 36:0.15954965822275802 37:0.7685442284807581 38:0.7990614081838102 39:0.8422001803426481 40:0.8107031857031848 41:0.7613442303000681 42:0.735067437379576 43:0.7204861111111088 44:0.013883752983494112 45:0.8132002917191495 46:0.6986561384860662 47:0.7072610294117625 48:0.7505597014925354 49:0.8016353046594983 
0.0 0.5 0:0.7386222948546539 1:0.7201675293593798 2:0.04661611962341623 3:0.7837875611460546 4:0.7963465002456319 5:0.7515857085507823 6:0.15678640919163683 7:0.7209950031401074 8:0.7409669384830573 9:0.7440479984701701 10:0.7503387314474944 11:0.7682032482686278 12:0.7653635417382166 13:0.21122183440965409 14:0.17888293224619742 15:0.7694585315147905 16:0.8029528056560246 17:0.7889354064380095 18:0.7852937501378174 19:0.7342589708702871 20:0.8129380339848827 21:0.694384516579581 22:0.7628925817242721 23:0.7221411520358202 24:0.6766196202452943 25:0.7508095036410608 26:0.7734452693958157 27:0.7719325292822428 28:0.7236344491931647 29:0.7683008286543799 30:0.12433178918786661 31:0.7871618248976746 32:0.7483119646156448 33:0.7838765008576337 34:0.724649117555824 35:0.7333449071334092 36:0.15796354881863722 37:0.7250417249818499 38:0.7913634581027524 39:0.8467257600762204 40:0.7808271393177073 41:0.8270033648335737 42:0.7023757588977378 43:0.7138364779874218 44:0.010553783447958338 45:0.8185461828198418 46:0.8038071062353986 47:0.7274729467258613 48:0.7679993311743177 49:0.7153749915466306 
0.5 0.5 0:0.6862132275394308 1:0.7465770579395551 2:0.05060377415033004 3:0.7201956673654811 4:0.7168719637561206 5:0.751585708550782 6:0.14230157341860214 7:0.7085711165114855 8:0.8041727796922423 9:0.818005800611935 10:0.815170505623075 11:0.7682032482686275 12:0.7264177361660756 13:0.23086201179175067 14:0.17888293224619742 15:0.8710114341512601 16:0.752069306133254 17:0.8007493149431703 18:0.7986710865778289 19:0.8416635247446876 20:0.7760538586021553 21:0.6569354899050988 22:0.8022704744848558 23:0.7592053623207948 24:0.6894766646057712 25:0.6751465304059143 26:0.7226176690961089 27:0.7194122600002356 28:0.736396219518083 29:0.7333954989451693 30:0.13149380394722462 31:0.8668263951282831 32:0.6749454117910539 33:0.7238421955403092 34:0.6355067455415211 35:0.7991708950493103 36:0.16974607582068307 37:0.7736896858838582 38:0.804276148561306 39:0.7476393827517566 40:0.7921669525443127 41:0.7673132425303892 42:0.7667684589377282 43:0.7376834381551373 44:0.011246417111349799 45:0.7932746976165832 46:0.7619613129474005 47:0.5712402885682585 48:0.803796465784287 49:0.8069165483194723 
0.0 0.5 0:0.7505570329561415 1:0.7579514588627005 2:0.048100632595811946 3:0.7196919691969235 4:0.7819204292656887 5:0.7505161154413316 6:0.1515039855846392 7:0.7826224011692104 8:0.7771382020661367 9:0.8051913299438083 10:0.7744741246059299 11:0.7658418320550128 12:0.7512248004414009 13:0.21763892206915125 14:0.16144071100023447 15:0.7803930643481741 16:0.7375851416651402 17:0.7648397118631297 18:0.7834394658788072 19:0.7934555401674002 20:0.6999726387532954 21:0.6801711896239208 22:0.8161761989910695 23:0.7321717303967717 24:0.7005515444014305 25:0.7503100780751532 26:0.78564892590342 27:0.7996226712551837 28:0.7473890315801426 29:0.7085124916277137 30:0.12426087815064536 31:0.8131908428938154 32:0.7588447865558094 33:0.74797479747975 34:0.6902278055899057 35:0.7571986809722421 36:0.16359233028248607 37:0.7476798850055579 38:0.7773001318607654 39:0.7830799310769683 40:0.7446744674467476 41:0.7895345157838533 42:0.7392262347622088 43:0.7246974697469766 44:0.012947141354132823 45:0.7782619341295001 46:0.7746669663549783 47:0.7276135701805504 48:0.7669360499482805 49:0.765871748465173 
0.0 0.5 0:0.7159795424708917 1:0.7777300455365554 2:0.05175748390666033 3:0.7251348435814471 4:0.8014904831899354 5:0.7806031811609152 6:0.15765362427837148 7:0.8390822362412748 8:0.744035183201949 9:0.7977810942009979 10:0.8739597066716109 11:0.797818086352827 12:0.7436849703517813 13:0.22240847265965058 14:0.1627725035275643 15:0.7471514012026523 16:0.7697303265986807 17:0.7455795092054792 18:0.817243505130465 19:0.8108440950460994 20:0.7059858620013085 21:0.6731755208901484 22:0.7267006026174565 23:0.7254997212525809 24:0.7198093032426222 25:0.6778400343074886 26:0.764932880025233 27:0.7368765243003199 28:0.740237140683834 29:0.7977839712242943 30:0.12318447614389157 31:0.8052088149175526 32:0.7394082567485816 33:0.7034421888790817 34:0.6722887922464508 35:0.7907349431998923 36:0.17097580558060504 37:0.7784127888840519 38:0.7565117304573364 39:0.8016318383569547 40:0.7735608512307548 41:0.7582727968223332 42:0.7320089043530332 43:0.6932308522114348 44:0.011320387696760513 45:0.810449493385787 46:0.737855969241044 47:0.6457024557395775 48:0.7845656426604838 49:0.7450847339666649 
0.5 0.5 0:0.7124177611970424 1:0.7465770579395551 2:0.0514013050557128 3:0.7074772886093664 4:0.769854988082461 5:0.6915696507426725 6:0.14954399130511942 7:0.7706905496545925 8:0.7662492749667313 9:0.818005800611935 10:0.8151705056230758 11:0.717992082463316 12:0.7523816065475026 13:0.21776856020368632 14:0.18740711456478906 15:0.8456232084921433 16:0.726627556371869 17:0.7298658639122088 18:0.7852937501378174 19:0.7461928101896654 20:0.714580232964275 21:0.6819015076880874 22:0.7760185459777996 23:0.709786415274162 24:0.7023337089662477 25:0.763419999180251 26:0.7988590695456698 27:0.7588024619617414 28:0.7491579898430013 29:0.8381114880728008 30:0.11896027811834811 31:0.8004392532694428 32:0.8461340350484311 33:0.6998284734133797 34:0.735791914057611 35:0.746510104716589 36:0.1520722853176142 37:0.7858516761093599 38:0.8817522913126243 39:0.772410977082873 40:0.792166952544313 41:0.7314991691484782 42:0.7023757588977378 43:0.7496069182389947 44:0.01263168443813271 45:0.7553674698116947 46:0.8317043017607306 47:0.6422551331853507 48:0.7083374401577026 49:0.7284523567998942 
0.5 0.0 0:0.7386222948546544 1:0.8258056436800787 2:0.04900871233956449 3:0.6693221523410227 4:0.8095922563272168 5:0.751585708550782 6:0.15195813060062516 7:0.8949294159408073 8:0.7283257702412204 9:0.7440479984701701 10:0.7373723766123781 11:0.8184144140739393 12:0.674489995403222 13:0.211221834409654 14:0.16467596171521134 15:0.8456232084921429 16:0.8665571800594879 17:0.741679772417369 18:0.7451617408177827 19:0.7581266495090428 20:0.677696057581547 21:0.6943845165795806 22:0.7366406532172163 23:0.7715600990824526 24:0.650905531524342 25:0.8138619813370155 26:0.7734452693958161 27:0.7588024619617414 28:0.6853491382184098 29:0.7450306088482391 30:0.12075078180818757 31:0.8137166816412112 32:0.7727674822238415 33:0.67581475128645 34:0.7135063210540358 35:0.8123360926324901 36:0.15501791706812557 37:0.8588236174623719 38:0.713887315351434 39:0.7724109770828722 40:0.7921669525443127 41:0.7792512669910258 42:0.8054040789617228 43:0.7257599580712801 44:0.010207466616262607 45:0.7174602420068061 46:0.7340641174220672 47:0.7274729467258617 48:0.7918640875809638 49:0.8592260093325244 
0.0 0.5 0:0.736806139056603 1:0.7856683898478342 2:0.048100632595811946 3:0.6929959662632968 4:0.7958219158463622 5:0.7505161154413316 6:0.15657128786827498 7:0.7565445401269558 8:0.7904051707159853 9:0.7922548166978892 10:0.7608658710166002 11:0.7790160488257132 12:0.7648494056910605 13:0.20733269037359572 14:0.1644227681809959 15:0.7803930643481741 16:0.76428638398897 17:0.7276434454805463 18:0.7834394658788072 19:0.7684062932792015 20:0.7515861382987625 21:0.6801711896239208 22:0.747297376670577 23:0.7451380877901951 24:0.7140450761064848 25:0.7503100780751532 26:0.7456410623011758 27:0.7307223179891844 28:0.7741761138463074 29:0.7085124916277137 30:0.12050259317791295 31:0.7853213892817877 32:0.7845109733525305 33:0.7353735373537371 34:0.6785333854989207 35:0.7986495010856208 36:0.1697752404914805 37:0.7476798850055579 38:0.8179559295421504 39:0.7830799310769683 40:0.7565756575657594 41:0.8020635315544227 42:0.7797745092428363 43:0.7121837183718391 44:0.012220218895523972 45:0.8445683061974564 46:0.745388721546214 47:0.6978013977868401 48:0.7794591399438471 49:0.7795965080379045 
0.0 0.5 0:0.7230552451570643 1:0.7856683898478342 2:0.04893764522918394 3:0.7063439677301101 4:0.7958219158463622 5:0.763113545397093 6:0.1540376367264571 7:0.8087002622114655 8:0.7771382020661367 9:0.7922548166978892 10:0.7880823781952597 11:0.8053644823671141 12:0.7239755899420819 13:0.2107681009387809 14:0.16144071100023447 15:0.7937155986049387 16:0.7375851416651402 17:0.7648397118631297 18:0.797479046697037 19:0.7809309167233008 20:0.7515861382987625 21:0.6801711896239208 22:0.747297376670577 23:0.7710708025770416 24:0.7005515444014305 25:0.7238405230820001 26:0.7456410623011758 27:0.7445023886423842 28:0.7741761138463074 29:0.7207235970705397 30:0.11862345069154676 31:0.8131908428938154 32:0.7588447865558094 33:0.7227722772277246 34:0.6785333854989207 35:0.784832561047828 36:0.16359233028248607 37:0.7604439539550946 38:0.7773001318607654 39:0.7960788865180488 40:0.7803780378037831 41:0.7895345157838533 42:0.7392262347622088 43:0.7121837183718391 44:0.012947141354132823 45:0.8047844829566825 46:0.7893060887593605 47:0.6978013977868401 48:0.7418898699571471 49:0.765871748465173 
0.0 0.5 0:0.7262907496040102 1:0.7610764069639612 2:0.04911817736579332 3:0.66957153231663 4:0.7711535916198686 5:0.7158114309553573 6:0.1521001387944779 7:0.7723957889957734 8:0.7669928730986012 9:0.7950450450450445 10:0.7640678130376145 11:0.7558965899830091 12:0.7136903487241972 13:0.2149444824101815 14:0.1650659569846886 15:0.7702052440341735 16:0.7670350412870071 17:0.7551151977761758 18:0.7866052537103643 19:0.7836323060935928 20:0.7413393405948786 21:0.7090704093931003 22:0.7778201489145554 23:0.7480618742612569 24:0.7303166878684583 25:0.7399298604307756 26:0.7751893537198224 27:0.7474745607440503 28:0.763671375702709 29:0.711265976188347 30:0.12092632138562238 31:0.8022616453988981 32:0.7617385233024949 33:0.713012477718358 34:0.6927501314918791 35:0.8151756450523884 36:0.16732026143790812 37:0.7252801953784257 38:0.780223097707135 39:0.7988825827896503 40:0.7592592592592586 41:0.8171720505718699 42:0.7155068192980467 43:0.7645697167755967 44:0.01662451379180101 45:0.7813822339915172 46:0.7633288225319718 47:0.6714965397923854 48:0.7448364793678647 49:0.7961469534050173 
0.5 0.5 0:0.7119580325363863 1:0.7451870827511273 2:0.059936284920335384 3:0.6807017543859704 4:0.6320526484968517 5:0.6370287420679381 6:0.16741709275605735 7:0.7445349988574995 8:0.8589511754068723 9:0.8934773589378909 10:0.7981095124189783 11:0.8135694770225528 12:0.6405547613082033 13:0.18325468123690353 14:0.14020009318639037 15:0.791728904899985 16:0.7489448807239647 17:0.7725617437729673 18:0.7580696970318325 19:0.7346777020744798 20:0.8153107002375753 21:0.5984624482554736 22:0.7361800930679736 23:0.9169991932416247 24:0.7000780871486232 25:0.7702783388594637 26:0.8057698397618611 27:0.7790734430881333 28:0.6994542527880606 29:0.6864468098626091 30:0.12543122127811945 31:0.8835978835978885 32:0.69017647977511 33:0.7320574162679465 34:0.698844746709581 35:0.8194961123707137 36:0.17408700682143766 37:0.7811575746188186 38:0.8713315235741459 39:0.8056570642114792 40:0.7772461456672027 41:0.8556965113442309 42:0.8345502484535093 43:0.7117446393762226 44:0.011604885410824406 45:0.8028069244915003 46:0.668725948954846 47:0.6691660216718319 48:0.7317835166273936 49:0.7045919008992074 
0.0 0.5 0:0.7505570329561415 1:0.7579514588627005 2:0.048100632595811946 3:0.6929959662632968 4:0.7958219158463622 5:0.7757109753528547 6:0.1540376367264571 7:0.7565445401269558 8:0.7771382020661367 9:0.7793183034519701 10:0.8016906317845895 11:0.7658418320550128 12:0.7512248004414009 13:0.20733269037359572 14:0.16144071100023447 15:0.7803930643481741 16:0.7509357628270551 17:0.7400422009414074 18:0.7834394658788072 19:0.7934555401674002 20:0.7257793885260287 21:0.7063731488813136 22:0.8161761989910695 23:0.7451380877901951 24:0.7140450761064848 25:0.7238405230820001 26:0.7589770168352572 27:0.7582824592955838 28:0.7473890315801426 29:0.6963013861848877 30:0.12050259317791295 31:0.7853213892817877 32:0.77167787995417 33:0.74797479747975 34:0.6902278055899057 35:0.7986495010856208 36:0.16359233028248607 37:0.7476798850055579 38:0.7908520644212269 39:0.7960788865180488 40:0.7565756575657594 41:0.8020635315544227 42:0.7797745092428363 43:0.7246974697469766 44:0.012220218895523972 45:0.8047844829566825 46:0.7600278439505962 47:0.6978013977868401 48:0.7669360499482805 49:0.7933212676106358 
0.5 0.5 0:0.6801473632668366 1:0.7397301431224749 2:0.05169668687252131 3:0.7503429355281251 4:0.7497410621807976 5:0.6860126083530345 6:0.1672923857554117 7:0.72720694645442 8:0.7596945951376323 9:0.7623091841841881 10:0.7947605026418754 11:0.7370537287412593 12:0.7324278913469634 13:0.2191021524950636 14:0.17704128791810697 15:0.8500896555988411 16:0.6825756378035471 17:0.758525530841395 18:0.7387208010503711 19:0.7402258905299782 20:0.7683127353736824 21:0.6997013537000332 22:0.8073750161390059 23:0.7644675650155762 24:0.7206669018506321 25:0.7188162094027444 26:0.8536869902393361 27:0.6997171590194858 28:0.667151799051399 29:0.681037504381355 30:0.11978921501179242 31:0.7279051538310833 32:0.7059676887570082 33:0.71717171717172 34:0.7615854244784178 35:0.7140847106691279 36:0.16221835023604272 37:0.7547710344219685 38:0.783950617283955 39:0.7781451424372986 40:0.7631874298541003 41:0.7847781301672484 42:0.8099354171126862 43:0.6957304526748999 44:0.01720434927144857 45:0.9725150463730313 46:0.7544703993341189 47:0.7469362745098072 48:0.7730816404090682 49:0.7221558476038803 
0.0 0.5 0:0.7807550744610061 1:0.7747990051477773 2:0.04911817736579332 3:0.722440087145969 4:0.7711535916198686 5:0.740759282436375 6:0.15460895021921914 7:0.7982179847336919 8:0.7932666737581052 9:0.7694256756756748 10:0.7910174917145226 11:0.7950317633312664 12:0.7676544714777508 13:0.23535486282686985 14:0.15620749300654432 15:0.7833971652099893 16:0.753815308567856 17:0.7305607997066271 18:0.7727033158413328 19:0.7836323060935928 20:0.7030087269618481 21:0.6571802547853218 22:0.7778201489145554 23:0.7480618742612574 24:0.690232961332855 25:0.7399298604307751 26:0.7883945636016094 27:0.7065396449801334 28:0.737146911890134 29:0.7354487536339436 30:0.12092632138562238 31:0.8022616453988981 32:0.7998603595740953 33:0.713012477718358 34:0.681170362578257 35:0.7878126853697004 36:0.16119796799566863 37:0.7379191263970846 38:0.7668040272306 39:0.7602680386852639 40:0.818181818181817 41:0.7799535037240021 42:0.7422739808832978 43:0.7769607843137231 44:0.012665637068691053 45:0.794513495910858 46:0.7343376193389797 47:0.7010164359861575 48:0.7572367939713183 49:0.7689665471923536 
0.0 0.5 0:0.7294634287218953 1:0.7233725692356137 2:0.04929520402402231 3:0.7382236605537593 4:0.7605958187827114 5:0.7311919024994815 6:0.15268471621383542 7:0.7367962570075762 8:0.7700538984181569 9:0.7597251377591195 10:0.7938956127382719 11:0.7590628661438733 12:0.7570450201596997 13:0.22577717622357 14:0.1627725035275643 15:0.8255344668298306 16:0.795913098197776 17:0.7091055004225573 18:0.8723113755242987 19:0.7862812413013605 20:0.7186386859190081 21:0.6731755208901484 22:0.7807336981853765 23:0.7127851377891268 24:0.6801147391005691 25:0.729751200410566 26:0.8041638919070456 27:0.709851531368802 28:0.7533706130570509 29:0.7139659950293621 30:0.12502713042663904 31:0.7915446653310731 32:0.7645760709861431 33:0.7034421888790817 34:0.6952234801918779 35:0.7636376433199489 36:0.1800700861307278 37:0.7533803429830188 38:0.8096668834129337 39:0.8016318383569547 40:0.7268804550357956 41:0.8319872002880137 42:0.7850234768131417 43:0.7545846817691476 44:0.012746002615585651 45:0.7844419455067051 46:0.7235011016406302 47:0.7187856938892062 48:0.7600057962614113 49:0.7585429933535178 
0.0 0.5 0:0.7402748330132439 1:0.6857875574689746 2:0.0467885587380937 3:0.7327994661328037 4:0.7715256239846449 5:0.7640214682767875 6:0.1662037273443755 7:0.8191549001968735 8:0.7925565710375824 9:0.7590394448502592 10:0.8150536916155531 11:0.7583645738878586 12:0.7782285225578435 13:0.21476060510913128 14:0.16219294164042666 15:0.7473867857841181 16:0.6680656909301238 17:0.7318880644671478 18:0.8380799966308374 19:0.8057544947206153 20:0.8805036405418306 21:0.5761895404988623 22:0.7394786995423048 23:0.736610663558484 24:0.6425658270743048 25:0.7271790255135703 26:0.7623410414024134 27:0.7592756175408596 28:0.8238890773312625 29:0.7449257880383027 30:0.1192667607319244 31:0.8395538395538426 32:0.8554976341326512 33:0.6445536445536468 34:0.6814833293056558 35:0.7493566339237653 36:0.14440302787709378 37:0.739285497318025 38:0.7918287802814409 39:0.7745310684895912 40:0.7704067704067733 41:0.769894437008366 42:0.7426356992831026 43:0.8405905905905934 44:0.013336797987351082 45:0.7345355698468479 46:0.7770408780962301 47:0.8494137519872833 48:0.7689668212989129 49:0.706892376247219 
0.0 0.5 0:0.7475318362982432 1:0.7687610619469029 2:0.04875350244984211 3:0.7034074074074114 4:0.7788621022179408 5:0.7477446808510642 6:0.15601388461707508 7:0.7667149059334353 8:0.7874864376130187 9:0.7894087837837872 10:0.7850885624056074 11:0.7892919379068597 12:0.7482273872864761 13:0.21344772117962538 14:0.16376671560122844 15:0.7907846410684506 16:0.747998626171434 17:0.7497132302008792 18:0.7943903389170266 19:0.7781754995655992 20:0.7229406460510283 21:0.6903899537343041 22:0.7718182374166724 23:0.7552518465570655 24:0.711076499131373 25:0.73416364952933 26:0.7693790613718409 27:0.7414707730986804 28:0.757835993663947 29:0.7180371538731182 30:0.12196832431727862 31:0.7961904761904788 32:0.7688545994065309 33:0.7200000000000021 34:0.6876550331698892 35:0.7817928342395137 36:0.16291221015949672 37:0.7576358587861967 38:0.774318706697464 39:0.7932191163210113 40:0.7658585858585888 41:0.7993071480848976 42:0.749768786127172 43:0.7219444444444465 44:0.012867179883685853 45:0.8018670025856925 46:0.7714463594260145 47:0.6945220588235322 48:0.7641809701492559 49:0.7765770609319037 
0.0 0.5 0:0.7993462622727691 1:0.7806047197640072 2:0.05028169436161754 3:0.7148148148148143 4:0.8312439729990352 5:0.7218085106382944 6:0.15571861681093158 7:0.7778581765557175 8:0.8117088607594881 9:0.8004645270270264 10:0.7835026774680769 11:0.787756634952424 12:0.7466395967516072 13:0.22305630026809606 14:0.1634191912451619 15:0.78923205342237 16:0.8112703007703207 17:0.7482682983144746 18:0.7654850019477971 19:0.7158992180712425 20:0.7339680687423732 21:0.6888631857237246 22:0.7835912176625243 23:0.7411484393614453 24:0.7226082789193036 25:0.7583272990586519 26:0.7678249097472879 27:0.7264822962497339 28:0.7952966979407792 29:0.7047552284145325 30:0.12357426839601103 31:0.7675010175010153 32:0.7673590504451024 33:0.6940559440559422 34:0.6635780213440996 35:0.8070193782238948 36:0.1565473797078137 37:0.7809401031336733 38:0.7859003967549002 39:0.7790802524797086 40:0.752913752913752 41:0.773511832154179 42:0.7481936416184977 43:0.6718749999999984 44:0.011059938817359725 45:0.8003215540674886 46:0.7839571786500624 47:0.7506893382352925 48:0.7262360074626848 49:0.7616487455197128 
0.0 0.5 0:0.7535229120325081 1:0.7885216033315935 2:0.05077579062011825 3:0.66957153231663 4:0.798683986612967 5:0.7282853566958661 6:0.16213538449344295 7:0.7594846911268136 8:0.7932666737581052 9:0.7566159909909902 10:0.8179671703914311 11:0.7558965899830091 12:0.7001993180358088 13:0.21494448241018138 14:0.17097159963678485 15:0.7965890863858052 16:0.727375843129554 17:0.7796695958457244 18:0.8144091294484272 19:0.8084359721299464 20:0.7285624693838688 21:0.7090704093930998 22:0.7914608568642999 23:0.7480618742612569 24:0.7169554456899236 25:0.7399298604307751 26:0.7223685141926763 27:0.7338295888227446 28:0.7769336076089964 29:0.7354487536339436 30:0.12278704090643597 31:0.7746654217242432 32:0.7744458020596943 33:0.713012477718358 34:0.6811703625782567 35:0.7604497256870124 36:0.16119796799566863 37:0.7631969884344023 38:0.807061238660206 39:0.7602680386852639 40:0.7710437710437704 41:0.7675473214413795 42:0.7422739808832973 43:0.7273965141612179 44:0.012305739184771954 45:0.7813822339915172 46:0.7633288225319718 47:0.6714965397923854 48:0.7820374231782248 49:0.7961469534050177 
0.5 0.0 0:0.6995537174014844 1:0.7458567980691829 2:0.04352749993529733 3:0.7548821548821535 4:0.9601122117997711 5:0.7384912959380997 6:0.1657845647476118 7:0.7691093277200376 8:0.911737629459141 9:0.8274186117936094 10:0.7750926815872573 11:0.682844266399594 12:0.713199765790071 13:0.21723291900235525 14:0.15336204700144304 15:0.7320685991804494 16:0.6769005000200653 17:0.7861430280640583 18:0.835641180012037 19:0.7574757128188916 20:0.6897672422522546 21:0.7409120951751448 22:0.8755372204090881 23:0.8171603093118407 24:0.7631124641248602 25:0.7365940359423315 26:0.6983590416803357 27:0.6427804125478487 28:0.7848909467527688 29:0.7314915718701174 30:0.11196103642170212 31:0.8115440115440086 32:0.7947774480712143 33:0.6991735537190056 34:0.6039017227364465 35:0.8477624424926794 36:0.15496436012720624 37:0.8302982222061908 38:0.7643641962348633 39:0.7717353881465647 40:0.7461891643709803 41:0.8131118454611931 42:0.7770712909441225 43:0.655303030303028 44:0.009930413150905919 45:0.8408310379536207 46:0.7741346346311762 47:0.7383188502673759 48:0.7319852442333756 49:0.8295047246660139 
0.0 0.5 0:0.7262907496040102 1:0.7747990051477773 2:0.04828937073863085 3:0.66957153231663 4:0.7711535916198686 5:0.7657071339173928 6:0.15460895021921914 7:0.7723957889957731 8:0.7538559727688492 9:0.795045045045044 10:0.7371181343607065 11:0.7689416477657616 12:0.808127563542916 13:0.22174794254907765 14:0.15325467168049622 15:0.7570133228583575 16:0.7934745067253092 17:0.7919467948804987 18:0.7866052537103643 19:0.8208378051481237 20:0.6902318557508379 21:0.6701527934372663 22:0.7505387330150664 23:0.7609011105037643 24:0.7303166878684579 25:0.7399298604307756 26:0.7751893537198229 27:0.7611195326653563 28:0.7504091437964215 29:0.711265976188347 30:0.12092632138562238 31:0.7746654217242432 32:0.8379821958456953 33:0.7130124777183583 34:0.6580108247510117 35:0.7741312055283565 36:0.1642591147167884 37:0.7758359194530612 38:0.7668040272305997 39:0.7988825827896506 40:0.77104377104377 41:0.7799535037240021 42:0.7155068192980467 43:0.7521786492374705 44:0.012665637068691041 45:0.8076447578301983 46:0.7633288225319722 47:0.7452962802768142 48:0.7572367939713179 49:0.7825567502986857 
0.0 0.5 0:0.7592835617769982 1:0.7806047197640072 2:0.04784309024708183 3:0.7018518518518513 4:0.7907425265188045 5:0.8808510638297826 6:0.15079748670855458 7:0.7651953690303921 8:0.7601717902350763 9:0.8004645270270261 10:0.7174241384045044 11:0.762168252378563 12:0.7598711845421426 13:0.20971105153410755 14:0.17210730014680328 15:0.7374791318864766 16:0.8242358078602575 17:0.7723504964211476 18:0.7654850019477976 19:0.7402258905299739 20:0.7590303930408928 21:0.6888631857237251 22:0.743456057733468 23:0.7663330950679021 24:0.7357125741328663 25:0.706915278783489 26:0.7419223826714755 27:0.6863345904043542 28:0.7822895089557663 29:0.6573197803481698 30:0.11809945903669407 31:0.8216320716320696 32:0.8047477744807104 33:0.7674825174825153 34:0.6635780213440993 35:0.7265091314652169 36:0.17456105079747988 37:0.7561483538278428 38:0.7200953396103514 39:0.7790802524797086 40:0.7875874125874114 41:0.8343498414247325 42:0.761319845857418 43:0.7447916666666643 44:0.011059938817359725 45:0.8647152423257924 46:0.741306658568065 47:0.7651654411764682 48:0.7262360074626848 49:0.7749775985663075 
0.5 0.5 0:0.757305156814248 1:0.739730143122474 2:0.04700011598526727 3:0.8127572016460932 4:0.7497410621807981 5:0.7920409771473603 6:0.16492295274315624 7:0.8247574636865571 8:0.772101667671287 9:0.8107013263263303 10:0.7438555540299377 11:0.810975722843524 12:0.7706524782973971 13:0.2191021524950637 14:0.17704128791810697 15:0.787794472268599 16:0.7450021534217601 17:0.7121450011544703 18:0.8174984489748832 19:0.7753644174148128 20:0.6959104651779575 21:0.6874495116398638 22:0.7043118894076028 23:0.7038378383148475 24:0.7080479509042378 25:0.7188162094027444 26:0.691556357801845 27:0.7126040769451633 28:0.7798807702548429 29:0.6581982145716261 30:0.10924513772718208 31:0.8842837546541276 32:0.825980877019456 33:0.78787878787879 34:0.7178396308047323 35:0.8432986869484883 36:0.17378268229360633 37:0.8144548753434125 38:0.6825620847945759 39:0.8024580035400607 40:0.7409277964833555 41:0.7730611802336604 42:0.8478555626917894 43:0.777649176954734 44:0.011086085244824071 45:0.7864888358490425 46:0.7270898185407362 47:0.6214767156862769 48:0.6911017827529049 49:0.7606614230718206 
0.0 0.5 0:0.7126746683897611 1:0.7885216033315935 2:0.05243340387444321 3:0.6960058097312999 4:0.7711535916198686 5:0.740759282436375 6:0.1521001387944779 7:0.8111290826026518 8:0.8326773747473613 9:0.7438063063063056 10:0.791017491714523 11:0.8211218788967717 12:0.740672410100974 13:0.21494448241018138 14:0.1591603143325924 15:0.7833971652099893 16:0.740595575848705 17:0.7551151977761758 18:0.7727033158413328 19:0.8084359721299464 20:0.7413393405948786 21:0.6701527934372663 22:0.7505387330150664 23:0.7352226380187495 24:0.7035942035113893 25:0.7006147861027094 26:0.7355737240744629 27:0.7338295888227446 28:0.7636713757027086 29:0.6991745874655487 30:0.12650847994806316 31:0.7884635335615707 32:0.8125676383312951 33:0.7254901960784296 34:0.6580108247510117 35:0.7604497256870124 36:0.16119796799566863 37:0.8643084365836736 38:0.7668040272305997 39:0.8246256121925745 40:0.7828282828282818 41:0.8171720505718703 42:0.7155068192980467 43:0.6778322440087128 44:0.011945841300852866 45:0.8076447578301974 46:0.7633288225319718 47:0.7010164359861569 48:0.7696371085747712 49:0.7689665471923531 
0.5 0.5 0:0.7345353492383251 1:0.7556629049281427 2:0.054167054434012325 3:0.6413183826027852 4:0.8558916422637615 5:0.7942026156548851 6:0.1371853699574836 7:0.7664732670375334 8:0.6888946032483291 9:0.8251301760476051 10:0.8100553381193097 11:0.8134623954279981 12:0.785848797268512 13:0.19428443373151455 14:0.1471323081971299 15:0.7781930128195292 16:0.7601219700485521 17:0.7379947000396089 18:0.8721850730692635 19:0.789548776891253 20:0.7107451810896136 21:0.7022866047769448 22:0.8736805368916586 23:0.6949380619184036 24:0.6358073509909336 25:0.7216549634954041 26:0.7073460735932107 27:0.7412153993122577 28:0.720356196265657 29:0.7291257338431215 30:0.12541594738538359 31:0.7830202417358354 32:0.7805079900906515 33:0.6847372810675526 34:0.6657660828307753 35:0.7047196610121778 36:0.1714485969241887 37:0.7219175440064872 38:0.711281084249703 39:0.7929782182476942 40:0.721527198591416 41:0.7642465940450845 42:0.8121387283236984 43:0.7796890927624849 44:0.01521794041061265 45:0.9367889117525172 46:0.78473975700019 47:0.7080578791149458 48:0.7407409626181002 49:0.8653447765611111 
0.5 0.0 0:0.7472770032186322 1:0.7428215745175991 2:0.045635668785605994 3:0.6289500509683973 4:0.727079702387796 5:0.7708569197735643 6:0.15596693071517972 7:0.7664732670375346 8:0.8364135574099497 9:0.8131431316637717 10:0.8857122342214546 11:0.8622916025414205 12:0.7101009919355411 13:0.22930040747390704 14:0.15818507059187897 15:0.7905377463968986 16:0.8096050062817045 17:0.7724609652198009 18:0.7420935443865824 19:0.7895487768912546 20:0.6868325046946959 21:0.6901471649375097 22:0.7843276426153498 23:0.7790409488647362 24:0.6483105317451586 25:0.6971281281347761 26:0.756774749114027 27:0.7795214672748232 28:0.819640427784288 29:0.7743852439247889 30:0.11670982852653077 31:0.8217562254259476 32:0.6972694852040354 33:0.7431192660550421 34:0.7416188810356064 35:0.7431282190988878 36:0.16285491897315513 37:0.6982630309073455 38:0.8368540373328803 39:0.8170680255788717 40:0.7656380316930753 41:0.8803411438457729 42:0.7369942196531772 43:0.6405453618756336 44:0.011176518301282657 45:0.7893332733188236 46:0.6762222257823834 47:0.7080578791149444 48:0.7523449267424309 49:0.8017575877149699 
0.0 0.5 0:0.6743020758768768 1:0.8094797532850573 2:0.048907208406151884 3:0.7671380471380449 4:0.8579994740071867 5:0.7500580270792986 6:0.16113185992354612 7:0.7331930009209311 8:0.7899227354923497 9:0.9580773955773942 10:0.7376081285184671 11:0.7191332453225225 12:0.800768819531067 13:0.22354158204024085 14:0.1615762590539042 15:0.7687661253604474 16:0.8240000713677124 17:0.6950685334060958 18:0.8098594043276521 19:0.7804754758707826 20:0.7608531075353301 21:0.6927957699933872 22:0.6984560299342212 23:0.6742946260315764 24:0.6268277939038089 25:0.712290171812254 26:0.7840728585493868 27:0.7186960745100219 28:0.6988070051065007 29:0.6866435118801024 30:0.10333406409792996 31:0.7731601731601692 32:0.6769463177771758 33:0.652892561983467 34:0.6575897422450601 35:0.7335842743621901 36:0.16631843160190504 37:0.7482600699578046 38:0.7394779200783804 39:0.7359291745224971 40:0.778971533516986 41:0.7786001020204423 42:0.8018917498686274 43:0.6897727272727227 44:0.028618928723140896 45:0.8530072990060996 46:0.6934863784761254 47:0.7793783422459861 48:0.7319852442333752 49:0.7160883023786228 
0.0 0.5 0:0.7230552451570643 1:0.7440929933701337 2:0.048100632595811946 3:0.6796479647964836 4:0.8236248890077095 5:0.7757109753528547 6:0.1540376367264571 7:0.7695834706480835 8:0.8036721393658338 9:0.7922548166978892 10:0.7744741246059299 11:0.7790160488257132 12:0.7512248004414009 13:0.20733269037359572 14:0.1644227681809959 15:0.820360667118468 16:0.76428638398897 17:0.7772384673239913 18:0.8255582083334969 19:0.7809309167233008 20:0.7128760136396621 21:0.7194741285100105 22:0.7748489055987738 23:0.7581044451836183 24:0.6870580126963761 25:0.7238405230820001 26:0.78564892590342 27:0.7307223179891844 28:0.7339954904470603 29:0.6963013861848877 30:0.12238173566427916 31:0.7853213892817877 32:0.7588447865558094 33:0.7101710171017122 34:0.7253110658628613 35:0.7986495010856208 36:0.16359233028248607 37:0.7732080229046312 38:0.7773001318607654 39:0.7960788865180488 40:0.7565756575657594 41:0.7895345157838533 42:0.7257101432686665 43:0.7121837183718391 44:0.012220218895523972 45:0.8047844829566825 46:0.7600278439505962 47:0.6978013977868401 48:0.7794591399438471 49:0.765871748465173 
0.0 0.5 0:0.7564312012239031 1:0.7369619383108493 2:0.04847444406314299 3:0.6989572096368228 4:0.7469642639803037 5:0.7188390828341235 6:0.16510698637517562 7:0.7751534992202128 8:0.7700538984181569 9:0.8358370506428767 10:0.7672075814271591 11:0.7848996796165093 12:0.7303249205438624 13:0.22240847265965058 14:0.15692419721189624 15:0.7994067782874376 16:0.7697303265986807 17:0.7212635033501981 18:0.8034765375320063 19:0.8599698025355765 20:0.7186386859190081 21:0.6731755208901484 22:0.8212585198613168 23:0.8145018054967585 24:0.706577781861938 25:0.7167734088847966 26:0.7518558760646287 27:0.7368765243003199 28:0.740237140683834 29:0.7139659950293621 30:0.12502713042663904 31:0.8598654132634714 32:0.7771599781049237 33:0.8022947925860542 34:0.6837561362191644 35:0.7907349431998923 36:0.1527872444803595 37:0.7909290118345687 38:0.7432229422184374 39:0.8143783868962668 40:0.7852309502794947 41:0.8074157324661199 42:0.7585161905830872 43:0.680960086299892 44:0.0116767914264668 45:0.7584343976276233 46:0.7235011016406302 47:0.6603191033695034 48:0.7354459498623388 49:0.7316264745798114 
0.0 0.5 0:0.7517245616834592 1:0.8390104079701661 2:0.04900871233956449 3:0.6693221523410227 4:0.7301177198377058 5:0.751585708550782 6:0.15678640919163675 7:0.8079622095404574 8:0.8041727796922419 9:0.7687005991840917 10:0.7373723766123781 11:0.780756039719955 12:0.700453865784649 13:0.20467510861562188 14:0.15899317350281686 15:0.8710114341512605 16:0.764790181013947 17:0.7298658639122088 18:0.7852937501378179 19:0.7342589708702876 20:0.7637591334745792 21:0.694384516579581 22:0.7891445102313275 23:0.6850769417508455 24:0.7023337089662474 25:0.8390829724153975 26:0.7226176690961089 27:0.7062821926797344 28:0.8002050711426739 29:0.6752199494298186 30:0.12612229287770607 31:0.7738843965259066 32:0.7972229998320379 33:0.6878216123499149 34:0.7023635245522476 35:0.7596753022997695 36:0.15796354881863714 37:0.7128797347563478 38:0.7397126962685399 39:0.9210405430695685 40:0.7694873260911015 41:0.7792512669910265 42:0.7152542989057359 43:0.7376834381551373 44:0.011246417111349789 45:0.8564534106247303 46:0.859601497286063 47:0.7132699778024433 48:0.8037964657842873 49:0.7415297220531568 
0.0 0.5 0:0.7726377952755887 1:0.7806047197640072 2:0.04703022220890327 3:0.6888888888888886 4:0.8042430086788809 5:0.721808510638294 6:0.15571861681093166 7:0.7145441389290896 8:0.837477396021694 9:0.863281249999999 10:0.7570712618426483 11:0.8389334001001447 12:0.720176421170538 13:0.20637473935061032 14:0.16341919124516183 15:0.7762938230383961 16:0.746442765320637 17:0.7241861002078023 18:0.7927541877678213 19:0.7767158992180714 20:0.7966238794886726 21:0.7143093192333085 22:0.7166992844474307 23:0.7663330950679021 24:0.6832953932786163 25:0.71976828385228 26:0.8196299638989116 27:0.7800125707102405 28:0.7432679420007283 29:0.7166140904311235 30:0.11627452258358839 31:0.7675010175010157 32:0.7424332344213637 33:0.7062937062937042 34:0.6522209402942004 35:0.7801826293043354 36:0.16255193673770232 37:0.7561483538278428 38:0.733256351039261 39:0.8422001803426477 40:0.7644716394716383 41:0.8100146377165107 42:0.8006984585741808 43:0.7447916666666647 44:0.011765892358893321 45:0.8260790293708101 46:0.7270898185407316 47:0.6638327205882335 48:0.8113689365671618 49:0.8016353046594975 
0.0 0.5 0:0.7564312012239031 1:0.7505513073860846 2:0.04847444406314299 3:0.7120460266091347 4:0.7469642639803037 5:0.74354472216484 6:0.16013807831063956 7:0.8135107414328498 8:0.8090819712424688 9:0.7470398189451598 10:0.7271755344604897 11:0.7719812728801911 12:0.7436849703517813 13:0.20556495484005324 14:0.1656966566853983 15:0.7471514012026523 16:0.7566389407991329 17:0.7212635033501981 18:0.7621756347366315 19:0.7985626681737299 20:0.7059858620013085 21:0.6474823375406661 22:0.7672254242933967 23:0.8017872220333044 24:0.7330408246233068 25:0.729751200410566 26:0.8172408958676496 27:0.7639015172318377 28:0.7271036683106175 29:0.7259399916286379 30:0.12134182186114414 31:0.8188729645040324 32:0.7519921638673621 33:0.7034421888790817 34:0.6837561362191644 35:0.7771862932599208 36:0.1588500981804413 37:0.740864120032502 38:0.7698005186962359 39:0.8271249354355791 40:0.8202412474257142 41:0.8197014663770668 42:0.7717698336981144 43:0.6932308522114348 44:0.0116767914264668 45:0.7454306236880822 46:0.8383400424439394 47:0.8211022272986863 48:0.7845656426604838 49:0.7585429933535178 
0.0 0.5 0:0.7399068308182596 1:0.8159667996992258 2:0.05077579062011828 3:0.722440087145969 4:0.8262143816060653 5:0.7657071339173928 6:0.16715300734292535 7:0.7465735932578542 8:0.7932666737581052 9:0.7822353603603595 10:0.777542652376069 11:0.7950317633312664 12:0.740672410100974 13:0.20814102227128523 14:0.1591603143325924 15:0.7833971652099897 16:0.7670350412870071 17:0.7182836006718528 18:0.7866052537103647 19:0.7712304730754159 20:0.7030087269618481 21:0.6701527934372663 22:0.7914608568643003 23:0.7480618742612574 24:0.7035942035113898 25:0.7137198108787314 26:0.7883945636016094 27:0.7747645045866615 28:0.7769336076089964 29:0.7959056972479359 30:0.12278704090643597 31:0.7884635335615707 32:0.7490312445452944 33:0.7379679144385004 34:0.6695905936646341 35:0.7878126853697004 36:0.1581368212745489 37:0.7758359194530612 38:0.807061238660206 39:0.7860110680881882 40:0.77104377104377 41:0.8047658682892477 42:0.7288904000906721 43:0.6778322440087128 44:0.011585943416933777 45:0.7945134959108575 46:0.7778244241284679 47:0.641976643598614 48:0.7324361647644114 49:0.7553763440860211 
0.10673868371608283 0.5 0:0.7648268285122655 1:0.7993961150999038 2:0.04821118143418173 3:0.682040531097137 4:0.7566092320008767 5:0.7395824969891597 6:0.15437226989613084 7:0.7706905496545925 8:0.7156846019993833 9:0.8056795002549741 10:0.7373723766123781 11:0.8811783713305787 12:0.7393996713567891 13:0.2406821004827989 14:0.1618345676090139 15:0.8456232084921429 16:0.764790181013947 17:0.7771214979328496 18:0.7184070679377592 19:0.8297296854253098 20:0.702285507836699 21:0.7567995610370502 22:0.8153964387383837 23:0.8456885196524022 24:0.6894766646057712 25:0.776030494719442 26:0.7988590695456698 27:0.7456723946412392 28:0.7108726788682465 29:0.6519497296236781 30:0.11896027811834806 31:0.773884396525907 32:0.6871731705951527 33:0.6878216123499149 34:0.6466495420433089 35:0.7596753022997691 36:0.17269170757119465 37:0.7250417249818499 38:0.8171888390198587 39:0.7724109770828725 40:0.7581475128644958 41:0.8031273159123006 42:0.8182826189697201 43:0.7138364779874218 44:0.009861149784566878 45:0.8185461828198423 46:0.7480127151847339 47:0.7274729467258613 48:0.7083374401577026 49:0.8069165483194723 
0.0 0.5 0:0.7124177611970428 1:0.7729865865197294 2:0.04980624324494728 3:0.6820405310971375 4:0.7566092320008767 5:0.7395824969891597 6:0.16644296637365963 7:0.7955383229118355 8:0.7662492749667313 9:0.7687005991840917 10:0.8151705056230758 11:0.717992082463316 12:0.7393996713567891 13:0.22431528599771833 14:0.1732001440338029 15:0.7567644186852317 16:0.726627556371869 17:0.8007493149431703 18:0.7184070679377597 19:0.7819943281477985 20:0.7514644083470033 21:0.7318335432540622 22:0.710388724710161 23:0.8086243093674276 24:0.6894766646057708 25:0.7255885125626783 26:0.8496866698453761 27:0.7850625966027445 28:0.6853491382184098 29:0.6752199494298186 30:0.13149380394722462 31:0.8137166816412112 32:0.7849952410279395 33:0.6638078902229847 34:0.6800779315486724 35:0.7201797095502289 36:0.1520722853176142 37:0.7858516761093599 38:0.7784507676441988 39:0.7352535855861985 40:0.7808271393177073 41:0.7673132425303892 42:0.8054040789617224 43:0.7257599580712794 44:0.009861149784566878 45:0.8690891532263598 46:0.8317043017607315 47:0.812690760266372 48:0.7560669529709946 49:0.7415297220531573 
0.0 0.5 0:0.7475318362982432 1:0.7687610619469029 2:0.04875350244984211 3:0.7034074074074114 4:0.7788621022179408 5:0.7477446808510642 6:0.15601388461707508 7:0.7667149059334353 8:0.7874864376130187 9:0.7894087837837872 10:0.7850885624056074 11:0.7892919379068597 12:0.7482273872864761 13:0.21344772117962538 14:0.16376671560122844 15:0.7907846410684506 16:0.747998626171434 17:0.7497132302008792 18:0.7943903389170266 19:0.7781754995655992 20:0.7229406460510283 21:0.6903899537343041 22:0.7718182374166724 23:0.7552518465570655 24:0.711076499131373 25:0.73416364952933 26:0.7693790613718409 27:0.7414707730986804 28:0.757835993663947 29:0.7180371538731182 30:0.12196832431727862 31:0.7961904761904788 32:0.7688545994065309 33:0.7200000000000021 34:0.6876550331698892 35:0.7817928342395137 36:0.16291221015949672 37:0.7576358587861967 38:0.774318706697464 39:0.7932191163210113 40:0.7658585858585888 41:0.7993071480848976 42:0.749768786127172 43:0.7219444444444465 44:0.012867179883685853 45:0.8018670025856925 46:0.7714463594260145 47:0.6945220588235322 48:0.7641809701492559 49:0.7765770609319037 
0.0 0.5 0:0.7429473149728993 1:0.7913194146117911 2:0.046012164180504966 3:0.7382236605537593 4:0.7333327091778955 5:0.7188390828341235 6:0.16013807831063956 7:0.7751534992202128 8:0.822091328850573 9:0.7724104565730788 10:0.7271755344604897 11:0.7590628661438733 12:0.7303249205438624 13:0.19882754771221423 14:0.17446911615890043 15:0.7471514012026523 16:0.7566389407991329 17:0.7212635033501981 18:0.8310104727289235 19:0.7862812413013605 20:0.7059858620013085 21:0.6988687042396308 22:0.7807336981853765 23:0.7763580551063965 24:0.7462723460039914 25:0.7037956173590275 26:0.764932880025233 27:0.7639015172318377 28:0.7271036683106175 29:0.7019919984300859 30:0.12318447614389157 31:0.8462012636769916 32:0.7897438852237045 33:0.7281553398058247 34:0.7066908241645915 35:0.8313808930198078 36:0.16491295188052313 37:0.7033154511809522 38:0.7698005186962359 39:0.8143783868962668 40:0.7385505540845356 41:0.7951299985551734 42:0.7320089043530332 43:0.7545846817691476 44:0.014171617534410779 45:0.7844419455067051 46:0.7665657044418712 47:0.7187856938892062 48:0.7845656426604838 49:0.7585429933535178 
0.0 0.5 0:0.7294634287218953 1:0.7641406764613202 2:0.04847444406314299 3:0.6727795756921987 4:0.7605958187827114 5:0.7311919024994815 6:0.15268471621383542 7:0.7495820044117883 8:0.8741287592829888 9:0.7724104565730788 10:0.8339276597049414 11:0.7590628661438733 12:0.7303249205438624 13:0.20219625127613372 14:0.15107589089622808 15:0.812470622558634 16:0.7435475549995854 17:0.7820535179884012 18:0.7897095699335482 19:0.7862812413013605 20:0.7819028055075053 21:0.6860221125648898 22:0.7672254242933967 23:0.7509288881794888 24:0.6933462604812533 25:0.7946401580394125 26:0.7910868879464413 27:0.7233640278345607 28:0.7665040854302674 29:0.6900180018308101 30:0.11949916757839668 31:0.7778805157445933 32:0.7519921638673621 33:0.7528684907325681 34:0.6837561362191644 35:0.8042835931398643 36:0.1679443787305641 37:0.7158316741314689 38:0.7963780951740342 39:0.8271249354355791 40:0.7502206531332751 41:0.8197014663770668 42:0.7320089043530332 43:0.6932308522114348 44:0.014171617534410779 45:0.7974457194462462 46:0.737855969241044 47:0.6603191033695034 48:0.7231660266628024 49:0.8796673278351967 
0.0 0.5 0:0.7807550744610066 1:0.7885216033315939 2:0.04994698399295578 3:0.7092229484386342 4:0.771153591619869 5:0.7657071339173928 6:0.15711776164396038 7:0.7853068868647329 8:0.8064035740878568 9:0.795045045045044 10:0.7640678130376145 11:0.7950317633312664 12:0.7946365328545281 13:0.22174794254907765 14:0.15620749300654432 15:0.7702052440341735 16:0.7670350412870066 17:0.7796695958457244 18:0.7866052537103643 19:0.7712304730754159 20:0.7285624693838685 21:0.6960978707411554 22:0.7368980250653219 23:0.7223834017762422 24:0.6768717191543209 25:0.7137198108787314 26:0.7487789339562494 27:0.7338295888227446 28:0.7636713757027094 29:0.7475401423567423 30:0.11720488234399519 31:0.8160597572362256 32:0.7617385233024945 33:0.7130124777183583 34:0.6811703625782567 35:0.7741312055283569 36:0.16425911471678847 37:0.7631969884344023 38:0.7533849567540643 39:0.7473965239838019 40:0.7592592592592583 41:0.8047658682892473 42:0.7288904000906721 43:0.7026143790849654 44:0.013745330720448307 45:0.7945134959108575 46:0.8068156273214601 47:0.7157763840830427 48:0.7448364793678647 49:0.7825567502986852 
0.0 0.5 0:0.7356274910080666 1:0.7700941143418975 2:0.04883401509362336 3:0.6661728395061727 4:0.7801992928318867 5:0.7974265450861153 6:0.16113185992354634 7:0.7805113362276905 8:0.7760010333247171 9:0.8777590090090087 10:0.74712801501213 11:0.7905591720914656 12:0.7233267992159035 13:0.22038725052129837 14:0.1697904711063655 15:0.7920661419826683 16:0.7107567505683352 17:0.7747587162318145 18:0.8902739903908569 19:0.8998551983782215 20:0.7365936455736464 21:0.6790482485128858 22:0.8791511222555152 23:0.7564990866491904 24:0.6993949559695642 25:0.6717837315954617 26:0.7834897713598027 27:0.716286053495352 28:0.7591243247634105 29:0.7192117459204717 30:0.11853396771600494 31:0.8377425044091686 32:0.7824332344213634 33:0.6606060606060591 34:0.6550331698875089 35:0.7698313118639339 36:0.1661832640843495 37:0.7220301845450564 38:0.7625866050808313 39:0.7694619777577372 40:0.7784511784511775 41:0.7764088802146811 42:0.7510689054041658 43:0.7592592592592573 44:0.011154065956230868 45:0.7266061128422693 46:0.7587730620302162 47:0.695955882352939 48:0.7292475124378096 49:0.7118876941457583 
0.5 0.5 0:0.7248053589260897 1:0.7076830249396567 2:0.05198132753235462 3:0.8651851851851844 4:0.7814149206627499 5:0.6690909090909042 6:0.15415280268744774 7:0.7451651098539667 8:0.753378267302311 9:0.7917843980343963 10:0.8625566387477689 11:0.74332589793781 12:0.6506504416893614 13:0.21723291900235525 14:0.1697904711063651 15:0.7932311428137772 16:0.7381919880815856 17:0.7064528452383418 18:0.7067323015901091 19:0.7344759497669998 20:0.7371578191076374 21:0.704824851288826 22:0.8249425945591257 23:0.8171603093118416 24:0.7259439177009365 25:0.6879863076821767 26:0.8330521824745599 27:0.7440012951640806 28:0.8709748883990356 29:0.7987636618551425 30:0.13611655892826413 31:0.8371332371332334 32:0.7358618829241933 33:0.7454545454545417 34:0.6898025539502294 35:0.7335842743621901 36:0.14361028865250766 37:0.8185784861707062 38:0.7270347820001387 39:0.723993769981142 40:0.7680440771349837 41:0.7440883585796909 42:0.7522508320196172 43:0.6553030303030272 44:0.011932754105073946 45:0.8164785158486616 46:0.7741346346311766 47:0.7656918449197819 48:0.7319852442333767 49:0.7790974258716176 
0.0 0.5 0:0.7192208612812273 1:0.8075221238938006 2:0.052720298476153275 3:0.6888888888888886 4:0.7772420443587276 5:0.7095744680851028 6:0.15571861681093174 7:0.7525325615050663 8:0.8503616636527968 9:0.8381545608108099 10:0.7835026774680773 11:0.7877566349524235 12:0.720176421170538 13:0.20971105153410755 14:0.15762711864406748 15:0.7892320534223692 16:0.746442765320637 17:0.7241861002078018 18:0.7654850019477976 19:0.8253692441355339 20:0.7214369065931127 21:0.7270323859881 22:0.7434560577334685 23:0.7285561115082171 24:0.7226082789193036 25:0.7326212889210705 26:0.7548736462093817 27:0.7130997276346075 28:0.8213110759108047 29:0.6573197803481698 30:0.12539920484911665 31:0.7539682539682521 32:0.7673590504451024 33:0.7307692307692286 34:0.6635780213440993 35:0.7936010037641152 36:0.16855649376759116 37:0.7933359777865889 38:0.746417362468171 39:0.8295761947700601 40:0.7297979797979789 41:0.8221822395706216 42:0.6825626204238922 43:0.6961805555555538 44:0.011765892358893321 45:0.851836504674132 46:0.7270898185407316 47:0.6638327205882331 48:0.847854477611938 49:0.8282930107526874 
0.0 0.5 0:0.7399068308182591 1:0.7336312105963287 2:0.04828937073863085 3:0.7092229484386342 4:0.7849187891164178 5:0.7282853566958661 6:0.15460895021921922 7:0.759484691126814 8:0.7801297734283535 9:0.8847128378378364 10:0.7910174917145226 11:0.8080768211140188 12:0.7271813794125856 13:0.21834621247962946 14:0.16801877831073667 15:0.809781007561621 16:0.740595575848705 17:0.7182836006718528 18:0.8005071915793958 19:0.7712304730754159 20:0.7030087269618481 21:0.6571802547853218 22:0.7368980250653219 23:0.7480618742612569 24:0.6768717191543209 25:0.7399298604307751 26:0.8015997734833955 27:0.7201846169014391 28:0.7504091437964215 29:0.7475401423567419 30:0.12464776042724957 31:0.7608673098869159 32:0.7744458020596946 33:0.7005347593582867 34:0.7274894382327466 35:0.7878126853697004 36:0.1673202614379082 37:0.7505580574157434 38:0.780223097707135 39:0.7860110680881882 40:0.7474747474747465 41:0.8047658682892473 42:0.7422739808832973 43:0.7645697167755967 44:0.01302553495261013 45:0.7813822339915172 46:0.7778244241284679 47:0.6714965397923854 48:0.7448364793678647 49:0.8233273596176819 
0.5 0.5 0:0.7910313621698767 1:0.7993961150999043 2:0.04821118143418175 3:0.6947589098532517 4:0.7831007441640463 5:0.7875953432356468 6:0.15195813060062516 7:0.720995003140107 8:0.7662492749667317 9:0.7317216981132096 10:0.8022041507879596 11:0.780756039719955 12:0.7523816065475031 13:0.1850349312335252 14:0.16751735582140842 15:0.807540870003467 16:0.6757440568490988 17:0.7653075894276896 18:0.7986710865778285 19:0.7939281674671768 20:0.8006433088573068 21:0.769282569928544 22:0.8153964387383833 23:0.7221411520358202 24:0.779475975129106 25:0.8516934679545881 26:0.7607383693208889 27:0.7588024619617414 28:0.7108726788682465 29:0.7450306088482395 30:0.13149380394722468 31:0.8402715383847466 32:0.7238564470074476 33:0.7358490566037744 34:0.680077931548672 35:0.7465101047165893 36:0.15501791706812565 37:0.7372037152073524 38:0.713887315351434 39:0.7352535855861981 40:0.7241280731846784 41:0.8150653403729371 42:0.7796469989457259 43:0.7019129979035651 44:0.01159273394304553 45:0.7427317272100652 46:0.7061669218967352 47:0.7984877913429534 48:0.756066952970995 49:0.8199939135727354 
0.5 0.0 0:0.8237269271004714 1:0.7556629049281427 2:0.04873799083957194 3:0.8515800203873608 4:0.7528420903629898 5:0.735838375951585 6:0.14657615033633162 7:0.7785552118323411 8:0.8487068035900862 9:0.7891690428961043 10:0.7722268900682371 11:0.75242588653622 12:0.8742212368236449 13:0.20065097441194968 14:0.16923783298662776 15:0.8028824799742666 16:0.6735266566405329 17:0.71501718991948 18:0.729084391518315 19:0.7315218517603348 20:0.6868325046946947 21:0.7022866047769448 22:0.8736805368916586 23:0.6829233637832136 24:0.710826435516283 25:0.7461817988560322 26:0.8062034246348421 27:0.7667527779539667 28:0.7575877830851445 29:0.7743852439247897 30:0.11670982852653077 31:0.8088442308625753 32:0.7923992050744534 33:0.6613844870725566 34:0.741618881035606 35:0.8071424825767366 36:0.15426124102212158 37:0.6627812612586336 38:0.8117394467162448 39:0.7688884109165175 40:0.743582615142246 41:0.8222938689454283 42:0.7369942196531768 43:0.710117227319058 44:0.011513303477060163 45:0.8261971829272464 46:0.78473975700019 47:0.6528096330275189 48:0.7871568191154297 49:0.7636052744072858 
0.0 0.5 0:0.7505570329561415 1:0.7579514588627005 2:0.04893764522918394 3:0.7063439677301101 4:0.7819204292656887 5:0.73791868548557 6:0.15657128786827498 7:0.7565445401269558 8:0.7904051707159853 9:0.766381790206051 10:0.7608658710166002 11:0.8317129159085155 12:0.7512248004414009 13:0.21763892206915125 14:0.16144071100023447 15:0.7803930643481741 16:0.7375851416651402 17:0.7648397118631297 18:0.7834394658788072 19:0.7684062932792015 20:0.7257793885260287 21:0.6670702099952244 22:0.7610731411346755 23:0.7840371599704653 24:0.7005515444014305 25:0.7370753005785766 26:0.7989848804375018 27:0.7307223179891844 28:0.7607825727132249 29:0.7207235970705397 30:0.12238173566427916 31:0.7853213892817877 32:0.810177160149252 33:0.7227722772277246 34:0.7019222256808908 35:0.784832561047828 36:0.16359233028248607 37:0.7732080229046312 38:0.7908520644212269 39:0.7700809756358878 40:0.7803780378037831 41:0.8020635315544227 42:0.7257101432686665 43:0.7121837183718391 44:0.012947141354132823 45:0.7915232085430912 46:0.7746669663549783 47:0.6828953115899853 48:0.7544129599527137 49:0.765871748465173 
0.0 0.5 0:0.736806139056603 1:0.7995268553404014 2:0.04893764522918394 3:0.7330399706637372 4:0.7680189426850154 5:0.7253212555298086 6:0.15657128786827498 7:0.7826224011692104 8:0.7638712334162882 9:0.8051913299438083 10:0.7744741246059299 11:0.7790160488257132 12:0.7376001951917415 13:0.21420351150396608 14:0.1644227681809959 15:0.7803930643481741 16:0.7375851416651402 17:0.7524409564022685 18:0.797479046697037 19:0.7558816698351022 20:0.6999726387532954 21:0.7456760877674032 22:0.7610731411346755 23:0.7321717303967717 24:0.7140450761064848 25:0.7238405230820001 26:0.7723129713693385 27:0.7307223179891844 28:0.7607825727132249 29:0.7085124916277137 30:0.12801916312337788 31:0.7713866624757739 32:0.77167787995417 33:0.7353735373537371 34:0.7019222256808908 35:0.7571986809722421 36:0.16050087517798892 37:0.7604439539550946 38:0.8044039969816889 39:0.7830799310769683 40:0.7684768476847713 41:0.8020635315544227 42:0.7527423262557512 43:0.7121837183718391 44:0.012583680124828397 45:0.7915232085430912 46:0.8039452111637432 47:0.6828953115899853 48:0.7794591399438471 49:0.7795965080379045 
0.0 0.5 0:0.7564312012239031 1:0.7369619383108493 2:0.04929520402402231 3:0.7251348435814471 4:0.7605958187827114 5:0.7558975418301982 6:0.15020026218156743 7:0.7879392466244253 8:0.8090819712424688 9:0.8104664130149577 10:0.7405195501160462 11:0.797818086352827 12:0.7036048209280252 13:0.20219625127613372 14:0.1627725035275643 15:0.7994067782874376 16:0.7304561692000375 17:0.7455795092054792 18:0.8585444079258402 19:0.8231255219184686 20:0.7186386859190081 21:0.6988687042396308 22:0.7267006026174565 23:0.7254997212525809 24:0.706577781861938 25:0.729751200410566 26:0.7780098839858369 27:0.7503890207660786 28:0.7271036683106175 29:0.6660700086322577 30:0.12502713042663904 31:0.764216366158114 32:0.7771599781049237 33:0.7528684907325681 34:0.6837561362191644 35:0.8313808930198078 36:0.16491295188052313 37:0.740864120032502 38:0.7830893069351349 39:0.8016318383569547 40:0.7969010493282347 41:0.8197014663770668 42:0.7585161905830872 43:0.7177723840345198 44:0.0116767914264668 45:0.8494608152044099 46:0.7809205720422846 47:0.6603191033695034 48:0.7354459498623388 49:0.8258342902877838 
0.0 0.5 0:0.7429473149728993 1:0.7233725692356137 2:0.04847444406314299 3:0.7513124775260712 4:0.7742273735851196 5:0.7806031811609152 6:0.15020026218156743 7:0.7879392466244253 8:0.783063256026261 9:0.8231517318289174 10:0.8072396283938286 11:0.7461444594075551 12:0.7971251695834558 13:0.21567106553181156 14:0.1627725035275643 15:0.7863429340162414 16:0.7173647834004901 17:0.7334215062778384 18:0.8310104727289235 19:0.8108440950460994 20:0.6933330380836094 21:0.6988687042396308 22:0.7131923287254762 23:0.8017872220333044 24:0.7595038673846757 25:0.768684574987874 26:0.7518558760646287 27:0.7368765243003199 28:0.7271036683106175 29:0.7379139882279141 30:0.12502713042663904 31:0.764216366158114 32:0.8149116994612661 33:0.7157987643424534 34:0.6952234801918779 35:0.7229916935000334 36:0.1588500981804413 37:0.7909290118345687 38:0.7432229422184374 39:0.7633921927390189 40:0.8085711483769743 41:0.7705585307332801 42:0.7585161905830872 43:0.7545846817691476 44:0.012389598885879365 45:0.7324268497485416 46:0.7952754396426984 47:0.6895523986293548 48:0.7477258730618749 49:0.7450847339666649 
0.0 0.5 0:0.7652989822718631 1:0.6731776023811435 2:0.042218922199143846 3:0.7692359025692398 4:0.720929222375707 5:0.7869465209890748 6:0.16159293877998612 7:0.6886481271430679 8:0.7684130785396595 9:0.794352629656687 10:0.7159954132355675 11:0.8662507274425144 12:0.7534341958872919 13:0.20225694863764662 14:0.14862592473696243 15:0.7716313976748066 16:0.7895443159169171 17:0.7657333158603097 18:0.8508547503483249 19:0.794358215730939 20:0.7865763710987299 21:0.647713807660934 22:0.7770828133497089 23:0.7956017489970325 24:0.6793995217286423 25:0.7873913015115068 26:0.8958207304777698 27:0.834507354620491 28:0.7385806666908183 29:0.7560367938916852 30:0.12268646147287916 31:0.8268744935411628 32:0.8204667575587486 33:0.7133497133497154 34:0.6282789856484712 35:0.7619288045887844 36:0.17534542986895274 37:0.6812147331782412 38:0.7671667048110519 39:0.7390474333666417 40:0.7812357812357844 41:0.7926949882304836 42:0.7672325504695493 43:0.6014764764764794 44:0.016313250757060298 45:0.7707352648677323 46:0.7637205955480982 47:0.7273449920508779 48:0.7005975191609547 49:0.7693338499790149 
0.0 0.5 0:0.7671389932467572 1:0.8022442015154096 2:0.04746056411146839 3:0.6827886710239648 4:0.7573883941233194 5:0.740759282436375 6:0.14959132736973665 7:0.7982179847336919 8:0.8064035740878572 9:0.8078547297297287 10:0.7505929736991606 11:0.8080768211140192 12:0.7541634407893628 13:0.2149444824101815 14:0.16506595698468868 15:0.7570133228583575 16:0.7141561104104028 17:0.7305607997066271 18:0.8144091294484272 19:0.7836323060935931 20:0.741339340594879 21:0.7090704093931003 22:0.818742272763789 23:0.7994188192312865 24:0.7169554456899241 25:0.7399298604307751 26:0.7619841438380359 27:0.7201846169014391 28:0.8034580714215714 29:0.7354487536339436 30:0.12278704090643597 31:0.7470691980495884 32:0.799860359574095 33:0.713012477718358 34:0.6580108247510117 35:0.7604497256870124 36:0.1581368212745489 37:0.7631969884344023 38:0.7668040272305997 39:0.7988825827896503 40:0.7592592592592583 41:0.829578232854493 42:0.7288904000906721 43:0.7273965141612179 44:0.012305739184771954 45:0.7682509720721769 46:0.7778244241284679 47:0.7157763840830427 48:0.7572367939713183 49:0.7553763440860211 
0.0 0.5 0:0.7505570329561415 1:0.7440929933701337 2:0.049774657862555936 3:0.6796479647964836 4:0.809723402427036 5:0.73791868548557 6:0.15910493901009287 7:0.7826224011692104 8:0.7771382020661367 9:0.766381790206051 10:0.7744741246059299 11:0.7921902655964137 12:0.79209861619038 13:0.22107433263433654 14:0.16144071100023447 15:0.7670705300914096 16:0.7375851416651402 17:0.7400422009414074 18:0.7834394658788072 19:0.7809309167233008 20:0.7128760136396621 21:0.6801711896239208 22:0.7610731411346755 23:0.7710708025770416 24:0.7140450761064848 25:0.7503100780751532 26:0.7723129713693385 27:0.7445023886423842 28:0.7607825727132249 29:0.6963013861848877 30:0.12238173566427916 31:0.8131908428938154 32:0.7588447865558094 33:0.7605760576057625 34:0.6668389654079356 35:0.784832561047828 36:0.1697752404914805 37:0.7476798850055579 38:0.7501962667398424 39:0.8220767974002103 40:0.7922792279227954 41:0.8271215630955617 42:0.7257101432686665 43:0.7246974697469766 44:0.012220218895523972 45:0.8047844829566825 46:0.7600278439505962 47:0.6679892253931303 48:0.7544129599527137 49:0.765871748465173 
0.0 0.5 0:0.7671389932467572 1:0.7199086124125126 2:0.04994698399295578 3:0.6960058097312994 4:0.7573883941233194 5:0.7282853566958661 6:0.15962657306870162 7:0.7723957889957731 8:0.7801297734283532 9:0.7694256756756748 10:0.7505929736991606 11:0.7950317633312664 12:0.740672410100974 13:0.21494448241018138 14:0.16506595698468868 15:0.7570133228583575 16:0.8066942394444602 17:0.7796695958457248 18:0.7588013779723014 19:0.7836323060935928 20:0.7541162118058888 21:0.6960978707411558 22:0.7778201489145554 23:0.7737403467462717 24:0.6635104769757866 25:0.7530348852067966 26:0.7355737240744629 27:0.7611195326653563 28:0.7769336076089964 29:0.7233573649111453 30:0.12464776042724963 31:0.7884635335615707 32:0.8125676383312951 33:0.713012477718358 34:0.6695905936646341 35:0.7604497256870124 36:0.1581368212745489 37:0.7758359194530612 38:0.7802230977071355 39:0.837497126894037 40:0.7474747474747465 41:0.8171720505718699 42:0.7422739808832978 43:0.690223311546839 44:0.012665637068691041 45:0.7813822339915172 46:0.7778244241284679 47:0.7452962802768137 48:0.7448364793678647 49:0.7689665471923531 
0.0 0.5 0:0.7993462622727695 1:0.753687315634214 2:0.04784309024708183 3:0.6759259259259254 4:0.7502410800385729 5:0.8074468085106341 6:0.15325805175974308 7:0.7778581765557175 8:0.7472875226039731 9:0.8004645270270261 10:0.7835026774680773 11:0.800550826239354 12:0.6672500700083988 13:0.21304736371760455 14:0.1750033364473504 15:0.8280467445742892 16:0.746442765320637 17:0.7723504964211473 18:0.7654850019477971 19:0.8010425716768025 20:0.7214369065931127 21:0.6761401189689331 22:0.7702128310195059 23:0.7537407672146735 24:0.7881297549871161 25:0.7583272990586523 26:0.7160198555956638 27:0.7666300020951141 28:0.8083038869257917 29:0.7166140904311238 30:0.12722414130222226 31:0.7675010175010153 32:0.7548961424332329 33:0.7062937062937042 34:0.6522209402942004 35:0.7399275059249965 36:0.16855649376759127 37:0.7561483538278428 38:0.746417362468171 39:0.7790802524797086 40:0.7991452991452981 41:0.7856794340082894 42:0.735067437379576 43:0.7083333333333314 44:0.012471845900426918 45:0.8132002917191495 46:0.7697403386227295 47:0.7217371323529392 48:0.7627215485074609 49:0.748319892473118 
0.0 0.5 0:0.6636822266375589 1:0.7496622832409762 2:0.047599989525383676 3:0.7228106611284197 4:0.8253138546670409 5:0.7541658381387931 6:0.15013060459187771 7:0.8225922068788326 8:0.819294924878737 9:0.808213879767619 10:0.7920249563379606 11:0.7587006678241637 12:0.7808933333682275 13:0.20871327592782837 14:0.17654608475698824 15:0.6843961118998967 16:0.817813640797019 17:0.7677366173446373 18:0.788294274199127 19:0.9146049351640603 20:0.7051581071655711 21:0.6847014349160851 22:0.8048465983103126 23:0.6761861498756337 24:0.6797437618655964 25:0.7783875966893838 26:0.8139410911299274 27:0.7484947455605987 28:0.7014504372264841 29:0.724261393974534 30:0.12115239011245045 31:0.7769865994165058 32:0.8238498017138582 33:0.6550552251486835 34:0.6604999339567457 35:0.867088549870948 36:0.17324229294512164 37:0.7159486481777358 38:0.7812263926960371 39:0.7507647708215699 40:0.7719248560370064 41:0.8766521581511745 42:0.7821745628725285 43:0.65745067497404 44:0.010993961850861312 45:0.7460382766759115 46:0.7927264444613166 47:0.7302604452996156 48:0.7232807923001813 49:0.7187971058185127 
0.5 0.5 0:0.7805005682700873 1:0.762743638519007 2:0.05313053094401926 3:0.7102111457251665 4:0.7203381429176567 5:0.7779479021674272 6:0.14773902734586264 7:0.7364377781083925 8:0.7566797924659004 9:0.808213879767619 10:0.7406442605427341 11:0.696523289607306 12:0.7680327246746237 13:0.21844158808905378 14:0.18217576279917327 15:0.8353018270325943 16:0.6791917706018095 17:0.7326261229087404 18:0.8413035326156214 19:0.7372703135022798 20:0.7295177494744134 21:0.7094341254300723 22:0.7658367232390811 23:0.8108181411288413 24:0.667006876798209 25:0.753402315807996 26:0.8265292351293874 27:0.7484947455605987 28:0.7393779415566142 29:0.724261393974534 30:0.13002124016492655 31:0.8032932799287936 32:0.8480767630827257 33:0.714528462192013 34:0.6936159086069182 35:0.7888355997503639 36:0.15573367805423102 37:0.9087218764249442 38:0.8196024260214566 39:0.7630348128734304 40:0.726989521382046 41:0.7702140709040014 42:0.7439000234095063 43:0.7755711318795429 44:0.010650881625069285 45:0.7710735797744668 46:0.6959987852099319 47:0.6880497526113247 48:0.6878182103501188 49:0.7317522527049223 
0.5 0.5 0:0.7779290953410717 1:0.7597818222296421 2:0.05060377415033004 3:0.7074772886093664 4:0.8228380124088024 5:0.7995985547972692 6:0.13988743412309648 7:0.758266663025971 8:0.740966938483057 9:0.8303321009688958 10:0.7244060217772618 11:0.8435199969765949 12:0.7653635417382166 13:0.22104192310070245 14:0.1618345676090139 15:0.7694585315147905 16:0.764790181013947 17:0.8007493149431698 18:0.71840706793776 19:0.7103912922315323 20:0.702285507836699 21:0.6569354899050992 22:0.7628925817242717 23:0.7715600990824529 24:0.753761886408153 25:0.7760304947194429 26:0.7099107690211821 27:0.8244527985642498 28:0.7236344491931647 29:0.721760389042099 30:0.12254128549802702 31:0.8004392532694428 32:0.7605397234197423 33:0.7478559176672394 34:0.7246491175558228 35:0.7860056974661296 36:0.16385481231966 37:0.6885557543053433 38:0.713887315351434 39:0.9210405430695681 40:0.7694873260911012 41:0.8031273159123001 42:0.7538899189297297 43:0.7376834381551373 44:0.01159273394304553 45:0.730095984608436 46:0.8317043017607306 47:0.6706610710321872 48:0.7679993311743177 49:0.7284523567998942 
0.0 0.5 0:0.7262907496040102 1:0.7747990051477773 2:0.04828937073863085 3:0.722440087145969 4:0.7573883941233194 5:0.7532332081768839 6:0.16213538449344286 7:0.7465735932578542 8:0.7669928730986012 9:0.8206644144144133 10:0.7910174917145226 11:0.7950317633312664 12:0.7676544714777512 13:0.22174794254907754 14:0.17097159963678477 15:0.7965890863858052 16:0.7405955758487054 17:0.7551151977761758 18:0.8005071915793958 19:0.7836323060935928 20:0.7030087269618481 21:0.6571802547853218 22:0.7914608568643003 23:0.7352226380187495 24:0.690232961332855 25:0.7399298604307751 26:0.788394563601609 27:0.7201846169014391 28:0.7901958395152839 29:0.7354487536339436 30:0.11906560186480879 31:0.8160597572362256 32:0.7871530808168947 33:0.7379679144385007 34:0.6580108247510117 35:0.7604497256870124 36:0.1673202614379082 37:0.7505580574157439 38:0.7936421681836705 39:0.7988825827896503 40:0.8063973063973052 41:0.7799535037240021 42:0.7288904000906721 43:0.690223311546839 44:0.011945841300852866 45:0.7945134959108575 46:0.7488332209354757 47:0.6862564878892712 48:0.7448364793678647 49:0.7825567502986852 
0.0 0.5 0:0.7262907496040102 1:0.7885216033315939 2:0.04828937073863088 3:0.6960058097312999 4:0.7849187891164178 5:0.7158114309553573 6:0.14959132736973665 7:0.759484691126814 8:0.8458142750771136 9:0.7694256756756748 10:0.7775426523760686 11:0.7689416477657616 12:0.7541634407893628 13:0.21154275234073341 14:0.17687724228888094 15:0.7570133228583575 16:0.753815308567856 17:0.7305607997066271 18:0.7727033158413328 19:0.79603413911177 20:0.6774549845398278 21:0.6960978707411554 22:0.7914608568643003 23:0.7737403467462717 24:0.7035942035113893 25:0.7137198108787314 26:0.7619841438380364 27:0.7065396449801334 28:0.7769336076089964 29:0.7354487536339436 30:0.12278704090643597 31:0.8022616453988985 32:0.799860359574095 33:0.713012477718358 34:0.6811703625782567 35:0.7741312055283565 36:0.16732026143790812 37:0.7505580574157434 38:0.807061238660206 39:0.8503686415954987 40:0.7946127946127934 41:0.8171720505718699 42:0.755657561675923 43:0.7397875816993446 44:0.012665637068691053 45:0.7813822339915172 46:0.7488332209354757 47:0.6567365916954997 48:0.7448364793678647 49:0.7825567502986852 
0.0 0.5 0:0.7592835617769982 1:0.8613569321533872 2:0.04784309024708183 3:0.7407407407407403 4:0.7367405978784956 5:0.721808510638294 6:0.15571861681093158 7:0.7398697539797409 8:0.7859403254972822 9:0.7502111486486479 10:0.7702869696553626 11:0.762168252378563 12:0.733408008961073 13:0.22305630026809606 14:0.15473108234352037 15:0.8021702838063427 16:0.7075462440508273 17:0.688062803047793 18:0.7927541877678208 19:0.7767158992180714 20:0.8091550416379327 21:0.6634170522141415 22:0.7835912176625243 23:0.7915177507743594 24:0.6963996884921786 25:0.7069152787834895 26:0.7807761732851937 27:0.6863345904043542 28:0.7432679420007283 29:0.692896366397942 30:0.118099459036694 31:0.8216320716320692 32:0.7798219584569717 33:0.7674825174825153 34:0.6522209402942004 35:0.7533458803847759 36:0.16855649376759116 37:0.7437524791749272 38:0.8122224196127198 39:0.7412082957619452 40:0.776029526029525 41:0.7978470358624004 42:0.6956888246628133 43:0.7204861111111093 44:0.014236729754260906 45:0.9291089305840966 46:0.8123908587047278 47:0.707261029411763 48:0.7870452425373112 49:0.774977598566308 
0.0 0.5 0:0.6930069955247392 1:0.7397301431224749 2:0.0477828777998096 3:0.7628257887517198 4:0.723740133576203 5:0.7449172576832158 6:0.16255351973090065 7:0.7272069464544192 8:0.8341370303395601 9:0.846995432932935 10:0.756581791182922 11:0.8109757228435233 12:0.6942033043965298 13:0.2030384271671144 14:0.1575198580403445 15:0.8002535089346476 16:0.6825756378035462 17:0.804906060528321 18:0.8568872729371402 19:0.7753644174148135 20:0.7803797804063031 21:0.6874495116398638 22:0.8589065795047076 23:0.7159637836549925 24:0.6197152942794846 25:0.6569313701826408 26:0.8661585773499114 27:0.6739433231681304 28:0.7798807702548429 29:0.7152964390959498 30:0.12681859986819932 31:0.7930629041740174 32:0.789976920540722 33:0.7171717171717188 34:0.6522209402942041 35:0.8303772893205528 36:0.16800051626482462 37:0.7428342662376792 38:0.7712770507227822 39:0.8389272951942032 40:0.7520576131687277 41:0.7379103304328973 42:0.7340951259544758 43:0.7659465020576147 44:0.011765892358893446 45:0.7864888358490429 46:0.7681606897308086 47:0.8166360294117678 48:0.7028131909894997 49:0.8120021903624092 
0.0 0.059979865027185594 0:0.7325750947798174 1:0.7806047197640072 2:0.05028169436161754 3:0.7277777777777771 4:0.8582449373191898 5:0.6973404255319116 6:0.16063974691330865 7:0.7525325615050663 8:0.773056057866179 9:0.8004645270270261 10:0.7835026774680773 11:0.7877566349524243 12:0.733408008961073 13:0.21638367590110175 14:0.1605231549446146 15:0.7504173622704496 16:0.7594082724105738 17:0.7482682983144746 18:0.7927541877678204 19:0.7767158992180709 20:0.696374582294593 21:0.6634170522141412 22:0.7835912176625243 23:0.7663330950679021 24:0.7226082789193036 25:0.7583272990586523 26:0.7807761732851937 27:0.7264822962497339 28:0.7562751309857408 29:0.7521906764808952 30:0.11627452258358839 31:0.7675010175010157 32:0.8047477744807104 33:0.6940559440559422 34:0.7203634265935944 35:0.7801826293043358 36:0.1565473797078137 37:0.8057318524395042 38:0.7727393853259906 39:0.8043282236248843 40:0.7644716394716387 41:0.8100146377165107 42:0.7088150289017341 43:0.6961805555555538 44:0.011765892358893321 45:0.8389577670224714 46:0.741306658568065 47:0.6638327205882335 48:0.7992070895522371 49:0.7883064516129027 
0.0 0.5 0:0.736806139056603 1:0.7856683898478342 2:0.04893764522918394 3:0.7063439677301101 4:0.7680189426850154 5:0.73791868548557 6:0.16163859015191084 7:0.7435056096058285 8:0.7771382020661367 9:0.8051913299438083 10:0.7880823781952597 11:0.7921902655964137 12:0.7784740109407206 13:0.22107433263433654 14:0.16144071100023447 15:0.7937155986049387 16:0.8176888686366299 17:0.7276434454805463 18:0.7834394658788072 19:0.7809309167233008 20:0.6999726387532954 21:0.6932721692526173 22:0.7748489055987738 23:0.7581044451836183 24:0.7005515444014305 25:0.7370753005785766 26:0.7723129713693385 27:0.7582824592955838 28:0.7339954904470603 29:0.7207235970705397 30:0.12050259317791295 31:0.7713866624757739 32:0.746011693157449 33:0.7605760576057625 34:0.6902278055899057 35:0.784832561047828 36:0.16050087517798892 37:0.7476798850055579 38:0.7773001318607654 39:0.7960788865180488 40:0.7446744674467476 41:0.7895345157838533 42:0.7662584177492935 43:0.6996699669967018 44:0.012947141354132823 45:0.7782619341295001 46:0.7746669663549783 47:0.6828953115899853 48:0.7669360499482805 49:0.7933212676106358 
0.0 0.5 0:0.7505570329561415 1:0.7440929933701337 2:0.049774657862555936 3:0.7196919691969235 4:0.7680189426850154 5:0.763113545397093 6:0.1540376367264571 7:0.7695834706480832 8:0.7638712334162882 9:0.8051913299438083 10:0.7608658710166002 11:0.7790160488257132 12:0.7376001951917415 13:0.21420351150396608 14:0.17038688254251885 15:0.8336832013752326 16:0.7509357628270551 17:0.7648397118631297 18:0.797479046697037 19:0.7809309167233008 20:0.7128760136396621 21:0.6932721692526173 22:0.7886246700628723 23:0.7840371599704653 24:0.7275386078115392 25:0.7238405230820001 26:0.7589770168352572 27:0.7720625299487839 28:0.7607825727132249 29:0.6963013861848877 30:0.12050259317791295 31:0.7992561160878016 32:0.7588447865558094 33:0.7227722772277246 34:0.6785333854989207 35:0.7571986809722421 36:0.16050087517798892 37:0.7732080229046312 38:0.7637481993003039 39:0.7830799310769683 40:0.7565756575657594 41:0.7895345157838533 42:0.7527423262557512 43:0.7121837183718391 44:0.012583680124828397 45:0.7915232085430912 46:0.8039452111637432 47:0.6679892253931303 48:0.7669360499482805 49:0.7795965080379045 
0.0 0.5 0:0.7126746683897611 1:0.7747990051477773 2:0.04828937073863085 3:0.722440087145969 4:0.8262143816060658 5:0.7282853566958661 6:0.15962657306870162 7:0.7336624953888948 8:0.7801297734283532 9:0.7822353603603595 10:0.7775426523760686 11:0.8211218788967717 12:0.7541634407893624 13:0.21834621247962946 14:0.15325467168049622 15:0.7833971652099893 16:0.8066942394444602 17:0.7428379987414014 18:0.7588013779723014 19:0.7836323060935931 20:0.7541162118058892 21:0.7350154866969889 22:0.7778201489145554 23:0.7737403467462717 24:0.7035942035113893 25:0.7006147861027094 26:0.7619841438380364 27:0.7338295888227446 28:0.7238846799838465 29:0.6991745874655487 30:0.12278704090643597 31:0.7884635335615712 32:0.7490312445452944 33:0.713012477718358 34:0.6580108247510117 35:0.7878126853697008 36:0.16732026143790812 37:0.7505580574157434 38:0.780223097707135 39:0.7602680386852639 40:0.7592592592592586 41:0.7923596860066247 42:0.7422739808832973 43:0.7150054466230916 44:0.015904718023962837 45:0.8207760197495382 46:0.7633288225319722 47:0.6714965397923854 48:0.7820374231782244 49:0.7689665471923531 
0.0 0.5 0:0.69300699552474 1:0.804531301212716 2:0.05013116324343668 3:0.7503429355281251 4:0.8277438479945752 5:0.7449172576832155 6:0.1483369216573668 7:0.6296564292222813 8:0.8589511754068702 9:0.7502111486486515 10:0.8202129769478445 11:0.810975722843524 12:0.7706524782973976 13:0.23195313275742274 14:0.16309740943399112 15:0.7254992889383572 16:0.7325168502981163 17:0.7353352659979324 18:0.7518504090377909 19:0.8105029442996478 20:0.7562456903410605 21:0.6874495116398638 22:0.7558434527733062 23:0.764467565015577 24:0.6575721471186649 25:0.7188162094027447 26:0.7663858804653016 27:0.802812502424905 28:0.7172535640307087 29:0.7038767941910855 30:0.1250612536540976 31:0.7539682539682564 32:0.7539729640619875 33:0.7053872053872083 34:0.6084751466205197 35:0.8045344940646805 36:0.15643618420726121 37:0.7189607298691006 38:0.7079092179169202 39:0.875396586848347 40:0.6741488963711215 41:0.8199289799680123 42:0.7340951259544761 43:0.8244598765432116 44:0.01516492792924039 45:0.8981045621634368 46:0.8092315609208798 47:0.7051164215686302 48:0.7379474156992833 49:0.7863318067171162 
0.0 0.5 0:0.7505570329561415 1:0.7440929933701337 2:0.048100632595811946 3:0.6929959662632968 4:0.8236248890077095 5:0.7505161154413316 6:0.1515039855846392 7:0.7565445401269558 8:0.7771382020661367 9:0.7922548166978892 10:0.8152988853739197 11:0.7790160488257132 12:0.7239755899420819 13:0.21763892206915125 14:0.16144071100023447 15:0.820360667118468 16:0.7509357628270551 17:0.7400422009414074 18:0.8115186275152667 19:0.7684062932792015 20:0.6999726387532954 21:0.6932721692526173 22:0.7610731411346755 23:0.7451380877901951 24:0.7005515444014305 25:0.7106057455854236 26:0.7723129713693385 27:0.7445023886423842 28:0.7473890315801426 29:0.7207235970705397 30:0.12426087815064536 31:0.8131908428938154 32:0.810177160149252 33:0.74797479747975 34:0.6668389654079356 35:0.7571986809722421 36:0.16050087517798892 37:0.7732080229046312 38:0.7501962667398424 39:0.7830799310769683 40:0.7446744674467476 41:0.8271215630955617 42:0.7932906007363787 43:0.6996699669967018 44:0.012220218895523972 45:0.8578295806110476 46:0.8039452111637432 47:0.6828953115899853 48:0.7418898699571471 49:0.7795965080379045 
0.0 0.5 0:0.7535229120325081 1:0.7473538087801449 2:0.04828937073863085 3:0.722440087145969 4:0.7849187891164178 5:0.7282853566958661 6:0.16213538449344286 7:0.7982179847336919 8:0.7407190724390972 9:0.8078547297297287 10:0.791017491714523 11:0.781986705548514 12:0.7136903487241972 13:0.22174794254907754 14:0.16801877831073667 15:0.8097810075616205 16:0.7141561104104028 17:0.7428379987414019 18:0.7866052537103647 19:0.7712304730754159 20:0.7285624693838685 21:0.6701527934372663 22:0.7914608568643003 23:0.7352226380187495 24:0.690232961332855 25:0.7530348852067971 26:0.7619841438380359 27:0.7474745607440507 28:0.7901958395152844 29:0.7354487536339436 30:0.12464776042724951 31:0.7746654217242432 32:0.7617385233024949 33:0.7254901960784291 34:0.6695905936646341 35:0.7604497256870124 36:0.16732026143790812 37:0.7884748504717201 38:0.8204803091367414 39:0.7602680386852639 40:0.7592592592592586 41:0.7923596860066247 42:0.7422739808832978 43:0.7026143790849654 44:0.012665637068691041 45:0.7813822339915172 46:0.7633288225319722 47:0.7157763840830432 48:0.7448364793678647 49:0.809737156511349 
0.0 0.5 0:0.7429473149728993 1:0.7913194146117911 2:0.04847444406314299 3:0.7251348435814471 4:0.8151220379923436 5:0.7311919024994815 6:0.16013807831063956 7:0.7240105096033638 8:0.7960726136343648 9:0.7597251377591195 10:0.8205836440493852 11:0.7719812728801911 12:0.7837651197755373 13:0.21230236196789215 14:0.17446911615890043 15:0.773279089745045 16:0.7435475549995854 17:0.7455795092054792 18:0.7759426023350897 19:0.7617183875566219 20:0.7819028055075053 21:0.6731755208901484 22:0.7942419720773568 23:0.7636434716429424 24:0.6933462604812533 25:0.768684574987874 26:0.7518558760646287 27:0.8044390066291148 28:0.7533706130570509 29:0.7019919984300859 30:0.12502713042663904 31:0.8188729645040324 32:0.7394082567485816 33:0.6910856134157104 34:0.6493541043010237 35:0.8178322430798363 36:0.16491295188052313 37:0.740864120032502 38:0.7432229422184374 39:0.7761387412783307 40:0.7502206531332751 41:0.8074157324661199 42:0.7320089043530332 43:0.6932308522114348 44:0.012746002615585651 45:0.8234532673253281 46:0.7522108368414574 47:0.6895523986293548 48:0.7354459498623388 49:0.7989177715140775 
0.0 0.5 0:0.736806139056603 1:0.7995268553404014 2:0.050611670495927956 3:0.6796479647964836 4:0.7819204292656887 5:0.73791868548557 6:0.15910493901009287 7:0.7695834706480832 8:0.7638712334162882 9:0.7922548166978892 10:0.7608658710166002 11:0.7658418320550128 12:0.7239755899420819 13:0.21763892206915125 14:0.15845865381947305 15:0.7937155986049387 16:0.7509357628270551 17:0.7896372227848524 18:0.797479046697037 19:0.7809309167233008 20:0.7515861382987625 21:0.6670702099952244 22:0.7748489055987738 23:0.7710708025770416 24:0.7140450761064848 25:0.7503100780751532 26:0.7723129713693385 27:0.7582824592955838 28:0.7607825727132249 29:0.6963013861848877 30:0.12238173566427916 31:0.8131908428938154 32:0.7588447865558094 33:0.74797479747975 34:0.6668389654079356 35:0.7571986809722421 36:0.16050087517798892 37:0.7349158160560213 38:0.8044039969816889 39:0.7960788865180488 40:0.7684768476847713 41:0.777005500013284 42:0.7392262347622088 43:0.7246974697469766 44:0.012220218895523972 45:0.8180457573702736 46:0.7746669663549783 47:0.712707483983695 48:0.7418898699571471 49:0.7933212676106358 
